//2023-07-19 16:41:19.683642
#ifndef GESTURE_CONV1D_PARAMS_H
#define GESTURE_CONV1D_PARAMS_H

#include <stdint.h>
#include <stdbool.h>

struct Conv1d_Params {
	int input_width;
	int in_channels;
	int out_channels;
	int kernel_size;
	int stride_size;
	int padding_front;
	int padding_back;
	int output_width;
	double out_scale;
	double s1;
	double s2;
	double sb;
	double s4;
	int z1;
	int z2;
	int zb;
	int z4;
	};
struct Dense_Params {
	//I=BATCH_SIZE;
	int K;
	int J;
	double out_scale;
	double s1;
	double s2;
	double sb;
	double s3;
	int z1;
	int z2;
	int zb;
	int z3;
	};
static const elem_t QConv_BN1[3][3][32]=
{{{25,-46,21,-128,-39,-9,44,11,-56,6,48,-27,127,-31,-85,5,38,20,-88,66,28,28,41,15,-37,-50,9,39,9,52,-8,-16},{-1,32,-19,-128,-66,0,-21,26,-51,32,-28,-109,37,-27,-81,-7,42,-15,-52,9,45,-20,82,28,-54,25,1,-24,7,0,-32,29},{-23,-38,-44,112,1,21,-15,-29,-16,-38,-14,16,65,-9,-26,2,-32,25,16,67,-1,-32,63,9,-2,0,22,-11,-67,-42,-2,-14}},{{30,10,28,24,-24,1,29,56,-37,0,21,58,-13,19,9,18,-16,7,12,47,-67,16,-91,11,23,-23,-4,34,-71,5,34,-9},{10,17,-33,62,-31,-1,0,47,5,30,20,-44,-72,-14,8,-8,49,-1,33,71,-22,22,0,18,0,-24,0,30,37,-3,-21,30},{-6,-22,26,-17,-30,9,37,2,54,-30,-4,-44,-29,8,-33,23,49,8,6,-84,-12,-24,-43,-11,-3,34,21,-23,52,-24,-14,-16}},{{53,-15,13,124,-47,5,9,31,0,20,23,12,-128,15,55,11,-47,-23,65,-69,36,44,46,-5,-5,18,-14,-26,68,33,37,-51},{1,41,13,81,30,-4,-27,-39,-22,26,-19,101,22,63,45,15,-79,6,68,-5,-76,30,-128,26,56,-65,1,53,-38,28,-9,-6},{-26,-28,-5,-86,64,32,-53,-13,-8,-9,18,9,-53,-18,37,22,14,17,-58,-84,50,-33,-29,-6,45,-9,11,28,54,-13,5,-20}}};
static const elem_t QConv_BN_flatten_1[9][32]=
{{26,-45,22,-127,-38,-8,45,12,-55,7,49,-26,127,-30,-84,6,39,21,-87,67,29,29,42,16,-36,-49,10,40,10,53,-7,-15},{0,33,-18,-127,-65,1,-20,27,-50,33,-27,-108,38,-26,-80,-6,43,-14,-51,10,46,-19,83,29,-53,26,2,-23,8,1,-31,30},{-22,-37,-43,113,2,22,-14,-28,-15,-37,-13,17,66,-8,-25,3,-31,26,17,68,0,-31,64,10,-1,1,23,-10,-66,-41,-1,-13},{31,11,29,25,-23,2,30,57,-36,1,22,59,-12,20,10,19,-15,8,13,48,-66,17,-90,12,24,-22,-3,35,-70,6,35,-8},{11,18,-32,63,-30,0,1,48,6,31,21,-43,-71,-13,9,-7,50,0,34,72,-21,23,1,19,1,-23,1,31,38,-2,-20,31},{-5,-21,27,-16,-29,10,38,3,55,-29,-3,-43,-28,9,-32,24,50,9,7,-83,-11,-23,-42,-10,-2,35,22,-22,53,-23,-13,-15},{54,-14,14,125,-46,6,10,32,1,21,24,13,-127,16,56,12,-46,-22,66,-68,37,45,47,-4,-4,19,-13,-25,69,34,38,-50},{2,42,14,82,31,-3,-26,-38,-21,27,-18,102,23,64,46,16,-78,7,69,-4,-75,31,-127,27,57,-64,2,54,-37,29,-8,-5},{-25,-27,-4,-85,65,33,-52,-12,-7,-8,19,10,-52,-17,38,23,15,18,-57,-83,51,-32,-28,-5,46,-8,12,29,55,-12,6,-19}};
static const acc_t QConv_BN_bias1[32] = 
{-1043,4244,488,1810,7932,-6956,2018,-3269,7723,627,-1530,2923,6749,488,6192,-6956,-1808,-4591,488,1323,1323,1392,3897,-4312,-3408,4662,-5982,-5565,-5565,557,1601,4731};
const struct Conv1d_Params QConv_BN1_params = {.input_width=100, .in_channels=3,.out_channels = 32,.kernel_size =3,.stride_size=1,.padding_front= 1,.padding_back= 1,.output_width=100,.out_scale=0.006631448381046667,.s1=0.0027674264618819033,.z1=-87,.s2=0.06978856816011318,.z2=-1,.sb=0.013435918377780862,.zb=20,.s4=0.029124064482676838,.z4=12};
static const elem_t QConv_BN2[3][32][64]=
{{{34,-77,49,-50,40,-6,-13,-57,123,24,-33,-123,-37,-17,-75,7,24,-32,-22,37,-68,38,-17,-107,-13,7,-21,-66,13,-22,31,-75,13,53,23,-99,-88,-95,111,-16,3,36,-2,-56,-98,-9,-17,18,-37,-53,36,16,44,-26,27,-12,2,-83,-15,36,-111,-43,-29,-74},{37,-6,-65,-14,10,44,127,-32,-109,63,12,127,108,12,52,-44,55,109,-28,92,59,-13,62,82,-112,-128,70,-23,23,127,-7,10,-6,-6,-12,127,-12,-128,-14,57,87,43,127,-10,-112,-9,-8,-62,-85,7,18,9,127,-104,24,-41,30,-41,-76,-43,42,-64,44,-24},{-57,23,-50,-71,21,-27,-88,-11,127,-122,-20,-57,63,-33,56,-8,-59,-33,48,6,13,-27,71,-52,61,5,-50,-2,-54,-20,-22,1,75,-3,-60,50,-52,-128,49,96,-61,-13,-60,-19,-117,-87,-3,-39,-67,4,-8,-8,35,25,64,-51,7,124,-72,-10,36,11,30,-128},{3,-12,-4,-73,-10,69,-15,-128,5,48,40,102,102,-30,55,-128,-59,103,-50,11,43,73,-16,-20,-49,-18,109,-128,19,-22,41,-1,11,76,-32,46,26,85,-128,-11,-42,-20,18,-68,-71,-121,66,106,4,50,-21,-5,3,-38,61,-29,-48,88,82,67,39,-11,-15,-28},{-17,-53,27,-6,9,10,118,-120,-83,-31,51,127,-125,-51,-5,-2,-21,127,84,49,9,62,30,41,-128,-22,-99,-128,15,-84,18,15,-21,-128,33,127,-18,-128,-43,127,-45,19,44,2,-72,-128,-57,23,-47,-30,51,-12,9,-83,-1,9,32,-84,54,53,17,18,5,-23},{-53,-32,127,-30,-27,51,79,76,-75,92,3,81,62,16,34,65,28,-24,-72,-38,9,90,74,28,-45,79,50,-1,-26,-66,-28,-12,-15,47,-40,-12,-25,-96,-15,-16,61,7,38,-85,19,45,5,-51,-6,3,-71,36,110,-26,0,-13,-28,93,46,-2,25,23,3,40},{-27,46,55,67,-18,43,-6,-97,-128,-7,-9,-35,63,-9,-30,-106,-26,-48,40,20,-50,-83,39,-128,-45,-7,-35,121,-41,-128,-13,-31,47,-26,-89,-72,53,-54,127,38,0,-44,-45,33,-81,27,-27,-35,27,5,25,-32,22,59,-17,-82,-8,26,-74,-22,34,16,10,-48},{-109,-19,-47,64,32,36,-92,-4,57,22,47,-57,-118,25,17,-68,0,-20,41,-23,-36,46,6,29,-58,-35,22,127,29,-15,36,-68,3,2,-10,-63,-16,31,-84,-65,4,9,73,-115,1,104,-53,-56,-7,-90,-10,-47,68,-56,27,55,46,-58,-25,79,-28,-13,14,-10},{55,-42,49,-53,-12,-17,-44,2,-128,-14,38,110,-32,-31,44,-17,64,106,-5,76,-12,20,-15,52,-50,50,-128,-93,-53,42,-31,27,-27,-66,15,79,-22,-74,45,78,-104,-43,11,-60,-128,-128,-14,41,-128,19,-44,-33,-69,-71,13,61,33,32,-27,49,-12,-35,51,23},{0,36,-5,-55,6,-21,-49,-62,127,7,32,-18,102,47,83,-51,23,-66,100,4,35,70,32,12,-19,19,127,-42,19,13,21,-32,19,-128,62,50,-56,-5,-90,78,-23,-19,-28,-11,-74,-4,-35,18,-18,-53,-9,16,33,-113,32,41,0,93,-39,37,28,-35,16,-113},{-53,122,-27,-75,64,-18,-39,91,72,-52,26,44,51,-67,9,-90,11,-36,42,32,28,20,-25,-72,-16,25,45,-108,-62,14,15,-26,7,23,17,107,-15,5,-66,12,-15,-26,-17,-16,61,6,-70,-50,-69,1,35,49,-82,68,-16,-90,45,52,63,40,-18,-7,28,-35},{-128,36,104,101,-2,-65,96,58,20,-53,40,41,122,6,-19,67,23,20,74,61,-10,15,23,12,-128,-77,38,-128,64,62,-7,4,39,-128,-84,117,47,-128,127,61,-40,-4,-32,-12,-128,-128,-96,-21,14,47,-31,28,-27,76,10,-69,-14,3,-128,39,31,-55,38,60},{-70,-125,-5,93,-14,-15,-32,103,-10,64,-23,-128,30,-9,-43,110,21,-97,21,44,8,-80,7,-57,117,-42,127,72,10,2,33,58,14,116,-42,-89,-20,127,127,-5,30,64,-48,36,-1,127,4,-33,70,6,-57,-36,-103,-28,14,-12,39,66,73,52,-39,-7,40,127},{-1,-22,9,50,-16,-55,-25,2,127,46,44,-20,2,17,-6,27,23,65,-28,4,-23,-2,16,35,77,19,61,26,-16,26,-58,0,-18,-19,-29,-1,-9,42,92,-1,19,-7,3,87,-46,-30,41,-26,19,10,16,46,-10,-24,-19,-33,37,4,98,6,-11,-82,-29,54},{-128,6,104,66,-14,-2,40,-10,99,3,12,-70,12,14,-44,127,-13,120,69,49,30,18,-37,127,-30,-106,-12,-128,-5,101,-35,-9,-20,32,-19,73,-32,-128,-24,62,-9,56,24,5,-9,-128,-26,-42,23,-22,-29,59,-70,34,30,20,35,-18,-73,5,-32,-67,7,111},{-73,-27,2,1,59,67,-84,30,85,-28,-4,35,53,-35,-12,-30,-16,-42,-5,-14,47,-26,7,-85,-48,-37,-10,86,-34,-62,25,-40,35,-24,10,72,-6,55,46,-6,-17,26,29,-26,65,-90,-62,-35,-37,-16,22,72,54,-82,-4,74,8,12,-14,37,8,44,-49,11},{-39,-21,20,-20,-9,-55,-9,66,127,14,37,-11,-73,33,-5,4,-37,-8,-93,-44,-59,-45,28,-29,4,-4,4,-49,-39,-49,-76,-17,29,-117,-75,-3,-60,23,103,-15,10,-12,-14,39,127,15,-42,-12,-55,0,-50,30,19,8,11,-37,-11,-52,18,6,65,-51,32,-128},{11,10,-5,53,-12,7,-49,18,100,-34,-52,-7,-2,65,42,103,11,72,51,-21,36,69,-7,28,-11,-30,33,33,-92,-36,-8,-36,28,42,-25,-13,-44,116,-3,-27,-17,-69,-30,-32,54,35,-59,-67,69,-32,-14,29,75,93,20,-30,31,37,-30,-37,-13,-27,-66,-82},{-19,10,8,-13,-60,18,-58,-60,-84,36,29,65,-52,13,-22,-29,-40,-65,-11,3,-5,-1,68,13,-41,-7,61,29,-48,-85,-46,25,71,31,-24,-64,4,9,-114,31,3,23,-35,-33,-60,-56,89,53,-25,30,-5,-2,25,-57,80,-21,15,34,20,-22,77,-65,-43,-128},{1,-51,-66,61,26,82,-25,5,-4,111,-57,24,44,45,-31,57,45,26,54,-41,-28,0,-6,-31,-15,40,113,127,-30,5,-29,28,58,68,46,-33,-2,127,127,-51,71,-27,-6,-91,70,127,124,-66,99,-56,-29,-2,25,-53,-24,-34,34,127,54,22,54,6,8,1},{-56,-13,-119,-78,34,-12,38,3,-128,-2,15,4,103,-29,44,-53,34,-42,113,-39,-14,10,-9,-33,81,-5,86,-3,-72,-14,-43,9,-54,-88,7,28,54,-56,-51,-43,-39,-35,26,-128,-73,76,10,-87,79,-36,-4,-4,-27,52,21,37,29,-116,-26,-6,41,-28,-16,9},{-8,-50,95,-27,44,26,75,-1,112,-52,-36,-70,21,0,-75,1,13,101,11,-38,-80,-14,11,48,-57,-32,-88,-58,44,116,-61,20,16,-13,21,20,-13,-128,127,80,-32,5,14,-44,-56,105,-24,-49,-77,-34,-11,-47,-13,-46,24,-68,-1,68,-29,-18,-24,-13,35,13},{48,-32,78,-30,4,-88,2,80,-128,127,-25,-26,-57,43,-65,-48,22,-65,-85,-16,-9,-38,-1,-10,26,117,115,127,-96,-70,54,59,-10,97,-43,-87,59,127,4,-45,20,90,-15,72,117,127,46,51,127,-37,-53,20,-76,39,14,53,-9,76,-54,-47,76,-27,50,55},{-46,-54,29,29,-1,40,-111,80,38,-28,44,64,4,54,68,70,29,87,16,90,28,-30,36,60,5,42,-18,-96,63,-11,-18,-29,3,-47,-50,11,-18,-7,-62,72,56,83,-47,32,44,-128,60,20,-34,-11,-12,61,52,23,68,58,-29,27,13,34,85,-54,-6,71},{-86,-4,-29,-7,-4,28,56,-96,42,66,22,23,-33,-6,-24,-54,31,-27,-2,-22,-23,47,30,47,-10,57,-2,-67,-61,31,-38,22,48,-74,-41,-33,0,10,-33,9,-40,-15,-50,-41,-113,-106,-23,13,68,-21,1,52,76,-9,-30,-66,10,-6,69,38,-21,-28,13,-63},{78,17,-66,6,-20,42,78,-15,-27,2,-19,26,60,-32,12,7,46,-43,66,46,31,39,-5,127,10,41,33,29,-30,91,19,-5,-86,-6,17,-65,-2,-12,-128,-19,-61,32,-24,-33,-7,61,18,-53,-38,-22,29,3,-59,-80,36,-1,3,-24,11,30,63,58,8,82},{-47,-31,26,-28,-30,-53,-36,46,66,16,-2,4,57,26,24,65,-43,-51,-21,-32,-17,63,82,-24,43,-1,56,-19,-13,50,-49,10,-5,23,19,-39,-86,-96,-65,1,54,-27,32,-80,-14,-102,-44,4,-3,-29,-66,10,48,41,-4,-66,-51,71,-38,-3,50,-4,-25,-57},{33,6,31,-21,-13,-35,-19,42,91,-58,-23,-128,-23,52,66,99,44,80,73,63,-24,53,11,-20,-51,12,16,-61,-66,83,-41,-14,24,-79,15,37,56,102,127,77,-22,49,1,94,53,-20,-26,6,41,-68,-37,70,-68,-33,-18,-8,-7,-67,-3,-14,10,-62,41,127},{-20,-11,-47,26,19,97,-32,7,127,84,63,-120,-37,15,-14,-38,17,50,-19,-47,-19,11,23,-48,118,41,-41,107,13,-31,-59,2,66,18,5,-67,-112,19,-26,-18,-3,-75,36,-23,71,4,-3,26,77,-12,20,82,51,57,-43,40,85,-54,5,-23,6,-5,-84,-85},{6,23,59,1,72,28,-23,-61,47,-78,-52,-39,-9,-42,-74,-128,19,-10,-2,21,-76,-10,-42,-46,-91,-28,-8,48,-42,50,-44,-60,47,-98,86,-65,-46,-119,127,118,-42,-66,61,0,1,-86,-27,-99,14,-32,3,-12,52,14,58,-18,34,90,38,30,-45,-6,48,-91},{17,-42,-41,7,-35,-93,-32,-18,33,-41,47,19,29,10,63,-105,-32,2,-50,55,-4,-44,-40,-93,19,-31,-60,45,17,-85,30,-8,72,-68,-128,72,58,-82,-63,52,-76,-2,-11,49,46,-73,-37,-63,-53,-19,-56,0,46,26,59,-63,-26,97,-21,4,62,-17,50,103},{25,30,18,47,-12,44,47,-105,-10,67,23,127,92,-6,15,12,38,127,-21,75,24,24,11,43,-98,-69,-12,45,-29,12,9,-5,-3,-15,35,83,1,72,-128,103,56,-9,97,-2,-9,-30,16,-32,-64,18,-43,6,76,-128,-5,-32,-42,101,-64,15,6,33,-11,61}},{{21,-33,23,-98,26,-31,-1,-49,-44,37,-47,-58,-9,20,-21,13,17,0,-26,8,-38,41,-12,51,-59,-8,-58,62,-36,-46,8,-115,12,34,-30,-51,-56,74,-116,-31,22,-30,25,-76,-105,52,-20,7,-83,-18,14,-32,19,-9,7,-50,47,1,-23,38,-104,-37,-17,-86},{-93,55,-106,-56,-45,-46,82,25,-128,-6,-33,127,112,21,26,-42,24,100,90,4,29,35,-10,-43,-2,-61,46,-75,-23,88,37,-18,-6,-115,45,87,32,49,-77,102,78,-30,72,-33,-50,-42,64,-3,11,-25,20,62,58,3,-15,-40,20,-3,-42,-27,-2,-74,29,49},{-43,42,40,-96,11,6,2,45,28,-75,23,-53,25,-45,53,14,-41,69,-17,53,-34,-70,62,-33,29,62,-53,16,-15,-28,-7,-37,53,-62,-32,56,-18,-39,-126,49,-36,55,-40,17,-22,37,-17,16,-48,-10,-36,33,19,-32,64,-104,-7,-6,35,29,-23,7,35,-121},{-94,19,-45,-81,-3,80,-61,-81,-128,43,27,-10,6,-30,-11,13,6,113,20,-13,62,11,-1,1,11,0,85,-43,-48,62,-34,17,-11,-2,-32,-20,11,-29,-13,55,-36,20,-18,10,-128,-2,41,-1,-19,16,-38,32,-3,-35,3,21,-14,90,77,5,-26,13,24,-84},{-108,17,-48,57,24,-4,14,105,-116,86,-37,45,-77,-11,14,-76,23,-29,39,54,10,-27,6,49,-85,-63,-80,69,-36,-83,-31,-17,18,2,-18,80,-24,-117,6,6,-63,43,11,-9,-37,-128,-108,37,27,17,0,34,-51,-4,33,6,1,4,-44,13,9,28,47,-63},{-25,2,7,25,32,-11,18,-60,-98,44,31,-44,60,44,41,12,-2,-62,6,5,14,16,56,-41,-5,-15,-18,95,-12,36,18,-7,-13,10,31,44,-87,73,3,20,-3,-37,2,-75,-75,61,5,1,-32,-45,5,88,26,73,66,-47,2,117,-8,-32,-27,10,-15,44},{-17,-2,50,37,-17,-25,-108,72,-100,-96,-46,62,-33,-7,33,-61,-26,48,-39,40,-88,-82,70,-55,0,72,-128,127,-29,10,38,-54,10,47,-51,16,35,31,82,-48,18,74,-88,21,-15,-10,23,-67,-11,5,-40,-16,50,-19,39,-54,42,29,-15,-16,50,-20,73,-49},{28,-50,-79,62,16,10,-37,-40,-49,72,32,-52,-29,-24,-30,-50,11,27,-30,30,25,39,6,-26,-36,7,-16,-44,16,-36,-6,-41,26,-49,-38,48,-28,-128,-76,-30,-20,-44,-11,-128,-46,-79,7,-16,-62,-67,6,-15,39,-45,24,58,68,-113,-5,78,55,-31,-30,-74},{78,-10,77,16,-7,15,-27,-53,-34,40,-20,15,5,9,27,-66,15,110,9,116,12,66,18,34,29,-44,-42,-9,-53,-36,29,11,-30,-100,-32,59,29,-58,-90,104,-75,111,29,-71,90,-29,-47,-11,-127,15,-67,24,-9,-42,-6,58,-6,59,5,62,51,28,64,6},{-38,9,79,-102,-27,73,0,15,10,47,23,30,-21,18,15,14,23,56,83,-13,8,47,-6,-12,18,-16,127,-69,-27,76,-10,3,32,-128,28,82,31,-50,-65,7,-27,-13,-26,-35,-1,-95,-13,20,14,-2,40,-9,43,-12,50,34,-6,-12,-34,26,68,-28,7,-12},{6,127,-104,-90,30,-52,39,-17,67,37,27,-11,42,-53,-48,72,-16,-28,7,-12,-12,0,-21,-29,-45,74,21,-30,-49,-34,-4,19,-8,31,-20,4,-22,47,49,4,-60,44,-67,-65,56,82,-12,-50,-55,-1,27,-10,-20,-59,10,-73,10,-20,-31,-9,23,-14,2,31},{-80,45,-29,39,2,0,111,13,-64,55,22,94,105,1,-22,14,-32,127,49,-2,-6,-35,16,0,-72,-36,0,-84,21,12,-24,-21,73,13,-43,97,34,-9,13,73,6,70,-53,-20,-83,-128,-15,-5,-5,29,-12,47,35,-36,-3,-43,-37,-82,-11,-41,45,-10,38,62},{37,-101,-26,102,44,-48,-11,99,127,-11,-7,-101,20,7,-20,-25,56,-128,-80,-15,-21,11,4,-113,127,25,118,-1,42,-14,58,14,-10,63,-3,79,-28,-2,84,49,51,64,29,54,35,48,-15,3,-7,-12,-24,41,10,-16,59,14,-22,-84,-43,6,13,34,30,23},{-17,45,42,1,-36,-6,2,15,-56,19,-21,-90,16,-7,-36,-97,21,-54,22,24,-7,40,6,9,-38,-46,84,97,34,7,-29,-11,14,-3,-43,-50,-37,-4,127,6,-43,-15,-11,22,86,-34,-13,-22,34,-5,-5,25,-57,-12,-35,7,-1,-69,57,22,2,10,-16,-97},{13,-9,58,106,55,-32,44,-56,-37,102,53,-35,101,69,22,112,-7,127,-27,40,-35,40,-37,105,-39,-4,18,22,26,70,39,-13,8,-22,33,100,34,74,-42,-11,-29,6,-2,25,27,24,-56,18,-36,4,-37,-12,9,27,15,63,-35,-69,109,6,-5,-9,-19,108},{-41,-23,4,67,27,-27,-70,-44,-126,66,18,-62,36,15,-34,-106,8,13,50,24,69,28,23,8,51,-42,78,72,-50,-44,-3,-22,53,37,25,33,8,-108,3,54,8,29,54,-15,9,-97,-69,-48,-28,-1,-45,80,50,-17,7,1,-7,-40,63,-5,11,27,-12,-46},{-115,-24,-20,-105,-15,-39,4,85,75,47,44,-22,-47,-21,11,52,-44,26,-5,18,1,11,64,-29,64,-28,-77,16,-25,-28,-71,26,36,9,11,3,-95,-11,39,8,3,-23,-30,44,-27,36,-35,-37,5,13,-10,-19,-3,-46,20,17,-30,37,-5,-13,-13,4,14,-128},{5,-11,-29,-14,13,43,65,67,0,-19,-45,-88,73,-20,43,-59,4,-83,18,-6,-21,53,39,-32,46,-25,69,-61,11,-30,52,-4,60,-19,62,-1,-49,-59,-108,3,-10,-77,34,-35,-23,-41,-32,-69,49,-11,-15,20,-22,-23,-21,20,27,-15,51,-29,-25,-24,-46,27},{11,-19,-28,-60,-8,15,-101,-89,-14,67,58,-77,-39,-5,-8,-26,32,-7,-15,25,5,-43,25,-51,-8,-17,-49,-6,30,9,-83,-15,64,-7,-17,-63,-14,-119,-70,0,3,-50,19,-27,-128,-6,51,33,28,18,5,-22,-9,1,7,-2,7,47,74,-25,59,-20,29,-47},{76,-50,-55,-63,34,103,-2,6,-87,33,-7,102,-83,33,27,87,9,-50,-4,8,-12,-29,-20,-56,3,13,21,38,-51,-119,-35,9,5,127,-14,40,23,-3,-87,-30,-2,1,45,-81,-112,-43,57,-25,17,-5,-58,56,77,-40,6,-49,3,54,69,13,-39,21,44,119},{1,28,6,-128,-6,-4,46,117,105,-5,-30,-53,-37,8,16,-96,2,33,38,-14,16,62,3,-128,62,54,1,60,-31,36,-5,17,-31,-89,-51,-2,-22,-28,-27,41,-21,7,4,-81,53,71,-49,-57,-34,20,-19,54,23,-2,-3,24,50,-10,-51,-48,23,-13,-16,99},{-97,-12,30,34,26,-9,31,-21,-31,34,-29,50,117,-25,-94,51,11,-8,-58,-43,-78,-47,1,2,-57,-6,-128,54,40,-6,-50,-28,87,-33,-7,-75,-59,-58,101,-20,25,40,-26,-13,-41,74,103,17,33,-11,-93,-45,63,-94,-5,-43,38,87,84,-22,-48,17,-5,45},{68,26,26,28,11,-101,-41,-19,41,-29,-73,-10,-73,10,-17,41,4,-71,-97,71,-28,9,-49,41,14,25,75,20,-82,-110,6,50,4,104,-8,36,27,-24,-71,-61,78,127,13,30,114,119,33,-20,-18,-28,-70,-18,11,-45,76,65,45,107,-91,-22,4,15,62,19},{79,-32,46,101,27,23,-56,64,-69,72,39,63,-2,80,45,127,13,-55,8,55,19,14,2,66,-65,-25,-50,-91,47,-1,9,33,34,-37,-60,-34,-6,60,78,-7,-34,49,-47,12,-24,15,-25,-51,-41,6,22,-4,50,7,28,10,9,32,-44,-21,29,-70,8,16},{-82,-27,-34,-16,-77,49,77,-18,-49,67,26,45,20,-39,-1,48,-36,-77,-18,35,-32,-29,26,27,-34,5,25,-95,-22,-55,-55,-9,63,-80,-9,24,-58,36,127,-57,34,-55,32,-29,21,-97,29,-2,38,-22,8,43,21,48,-9,-48,-36,-92,-32,32,1,51,-8,-54},{35,-12,51,-60,42,2,-69,82,-47,27,37,88,-2,-4,-23,91,-32,105,113,27,-10,42,41,23,63,28,-24,-16,-99,-5,27,2,7,43,-28,47,37,21,-93,-1,24,49,-55,-37,-65,123,-7,-10,-95,-22,-9,3,1,-41,55,55,-28,60,14,6,28,16,36,92},{55,-58,77,57,-47,-38,-17,-14,90,-32,41,-59,-26,-10,-30,127,-15,-35,-20,11,13,56,64,74,31,-22,60,-87,-56,-53,-37,-41,36,25,15,-7,-67,-15,-115,-39,55,41,-9,26,-7,-97,28,-62,-23,-32,-1,30,70,66,33,-38,-9,4,28,22,48,-1,-5,52},{63,45,-85,14,39,-9,-16,63,-75,-31,-45,-14,14,55,25,-107,52,-96,37,26,29,-10,4,-46,-53,-10,-47,76,-25,19,-17,18,35,-4,43,9,6,54,-22,45,-2,50,-29,105,-11,86,28,-19,33,-56,34,8,-66,38,29,41,-24,-21,-55,32,10,-16,26,76},{2,63,66,-128,-18,53,-23,3,-10,44,26,-86,-32,-48,1,71,-5,-52,-66,-50,-17,22,18,-8,5,-38,23,71,-75,35,-33,-39,6,3,-22,0,-33,39,-44,-34,14,-38,23,-12,-113,-6,-73,6,9,7,-15,63,24,-28,-1,-45,-8,-39,59,32,61,-1,-89,29},{29,-53,-19,46,29,25,-41,-57,45,9,15,59,85,-24,-41,-70,19,58,-46,20,-81,-74,-23,38,-17,49,-128,-77,-43,29,-27,-39,34,11,32,-49,-48,-77,-123,19,32,6,51,31,67,65,62,-66,39,-10,-28,-14,-12,-42,14,39,42,36,-49,-18,-21,0,41,-74},{-80,31,52,80,-31,-17,25,75,37,-2,-18,40,13,1,77,56,16,80,28,58,31,24,-50,-52,-21,-40,-59,13,32,30,-8,-17,34,-47,-69,11,28,-11,7,79,-10,55,-68,-34,-19,-44,1,8,-8,-14,-39,25,-38,-41,-4,37,28,1,59,1,10,-13,57,14},{-85,-24,24,2,-9,39,3,102,-113,10,23,119,-32,-21,-51,-117,7,66,27,74,8,-8,-15,19,-21,-53,-58,-52,2,-1,54,31,-60,-4,18,18,11,11,-38,79,47,78,35,11,16,33,-47,0,20,-19,-18,0,-36,12,9,-27,20,-55,-12,-26,28,10,-22,-24}},{{85,-39,-6,-87,1,-36,-8,43,-50,5,-46,-4,-12,12,-79,49,50,14,27,-26,-77,-3,-29,75,-49,5,40,-128,-2,54,43,-59,24,-10,22,-59,-7,24,-128,5,-20,-32,-1,-63,-128,48,79,5,5,-60,-55,-32,44,-23,14,-11,9,-76,-52,8,-25,-27,18,-19},{80,-15,-128,-111,-63,89,53,82,-128,-45,-37,1,-60,54,12,61,104,-115,109,-23,22,34,-28,-73,4,-64,4,42,-17,46,-35,-62,-55,-76,44,100,65,123,127,-1,7,2,91,-74,51,36,10,-103,127,-7,60,56,62,30,-7,54,-9,-33,-4,-33,5,-3,77,127},{-8,59,37,-32,16,-30,-5,-50,-79,-101,4,103,-60,-37,24,127,-38,82,68,27,-32,-51,68,-76,11,67,18,44,22,-1,-46,-49,52,0,-40,-16,-27,-128,-117,-17,-43,-46,-11,8,99,-29,27,14,17,-12,-37,42,17,-49,45,-2,-5,98,53,35,5,-39,-21,-128},{99,58,-90,-128,14,84,5,-128,-126,-19,127,68,93,-6,-97,-37,-56,101,84,-20,-14,40,31,-34,-128,-128,90,-23,-61,-6,20,18,7,127,36,-61,59,-128,-112,40,9,-39,-39,78,-128,-58,-48,-102,-40,-34,-57,36,27,-35,-19,-57,-26,108,40,2,10,12,-40,1},{-57,-18,2,0,62,49,23,127,127,18,-9,3,-128,58,7,127,2,-31,-58,-1,22,40,-17,-128,-56,-64,-43,61,86,-77,55,-11,2,-79,4,-21,-20,-15,-4,-66,-70,63,61,-71,-34,84,-123,-36,65,-4,36,11,-88,101,-31,36,0,-58,-128,7,-57,-52,18,-49},{-88,-48,50,108,0,-26,5,-108,-105,48,2,-49,-8,-4,4,-51,-42,5,-37,45,-19,67,107,-58,28,47,-36,57,-76,58,38,-21,-12,-51,12,18,-101,18,-6,-32,-8,-36,-40,-38,0,-12,39,-15,85,-22,-39,37,106,-40,42,22,-49,89,-1,3,64,-3,13,112},{65,-8,116,74,7,-46,-120,-72,40,-116,7,4,49,-49,22,-104,-24,-128,-44,54,-128,-61,42,19,-44,-21,-123,63,-15,-83,-28,-9,33,-2,-106,23,29,-14,-27,84,-28,113,-74,10,127,-41,69,54,8,-3,-69,69,38,4,73,-114,0,111,50,20,9,25,11,18},{-45,-26,49,13,52,70,52,-33,-128,27,-27,93,-36,-2,-5,53,26,55,46,2,-5,10,-34,-12,-29,49,10,101,35,-59,18,-58,-16,-28,-4,62,39,-50,-80,50,-5,-47,-6,-64,43,-35,-75,35,3,-32,3,-46,-37,-33,-38,65,17,-76,-63,87,15,-13,16,48},{-21,13,-7,67,-8,-15,-128,-9,-33,28,-77,-107,-126,67,-8,-21,60,-81,51,92,-41,53,24,-49,23,68,-75,-30,-43,-46,20,1,-45,4,22,23,-39,61,16,73,-35,81,20,-17,100,32,-60,-27,-82,7,-105,47,-33,24,8,0,35,47,-105,55,40,-27,-6,61},{-32,11,-28,22,-13,67,21,-36,33,87,-1,-78,-30,63,75,0,-5,-76,50,-4,-19,11,25,77,39,53,42,-49,-21,60,-58,-40,37,-32,34,38,21,-54,-90,1,-5,67,-29,25,127,-46,7,-16,9,4,0,34,-12,-80,12,24,-10,-23,30,73,-16,-39,-2,-40},{-5,100,-5,22,13,-67,98,105,-35,38,-7,14,-56,-73,-3,63,9,37,-31,1,-34,-19,-30,-11,37,48,-18,-17,-20,56,52,8,-49,-65,1,75,-1,-15,68,18,-30,53,-26,-27,17,91,-55,-17,-128,9,36,58,-31,-56,43,-71,36,-3,-15,75,-23,-37,-42,-90},{-26,-11,-50,72,29,23,127,-4,-128,11,25,117,-21,62,33,127,-26,41,36,51,-10,-63,25,29,-76,-57,13,-128,39,70,15,-27,6,62,-12,-13,-8,-91,-41,-28,-42,-8,-32,-24,-128,-120,19,-68,15,20,-1,50,-21,4,-43,-45,-40,46,-3,-46,-9,-4,-22,9},{100,-61,-60,92,3,33,-128,127,127,-117,-119,-78,-56,39,-2,-128,66,-126,-94,-34,36,-29,-36,-128,-11,67,127,22,21,-128,20,0,-53,24,11,58,42,127,123,-2,-7,98,3,20,-40,-68,27,30,92,27,-74,61,32,127,64,-32,34,-63,-90,-15,-30,-13,14,20},{-35,-49,35,-76,-20,-17,-7,-33,-128,-3,31,-49,28,28,28,4,31,-107,26,-47,32,-4,-20,56,33,-38,72,48,53,-39,-23,-22,50,26,-35,11,24,-99,17,-49,16,13,-42,-21,-18,-15,-17,-45,45,-17,-8,6,-24,-78,16,41,-39,-30,-32,19,33,-66,34,-93},{-8,-81,45,107,25,43,127,-49,57,41,52,-44,-36,25,-33,48,-2,51,35,43,-34,31,17,111,-17,-62,31,-128,18,52,55,18,25,77,18,48,-25,32,91,39,-10,-47,32,29,-77,-77,5,41,1,-20,-17,65,-82,65,-22,-4,-31,-33,103,-42,-23,-44,-2,38},{10,-28,-10,6,45,20,27,-49,-30,-11,9,10,-38,4,-23,11,-29,5,83,36,58,54,22,-32,-47,-21,61,-53,-85,62,43,13,34,92,10,51,-20,-55,-10,91,6,-30,23,-29,-74,-14,17,-44,-50,15,23,64,-21,-40,33,-2,-22,94,23,39,-32,22,-14,25},{-73,12,-24,-81,-17,-33,36,82,127,6,0,-23,1,23,15,-41,-22,-72,-74,24,-60,43,-4,12,10,100,-14,-121,-62,-10,-30,-29,79,-116,-51,-25,-82,6,-103,-53,-1,39,39,27,-52,12,-18,23,-46,18,-39,6,10,-16,23,-41,-36,-66,9,47,-4,32,7,-89},{-3,-41,-56,97,-17,-35,7,11,-128,44,16,60,-2,-25,2,-2,2,19,-28,32,-5,54,16,68,79,18,-52,83,-83,-28,3,-35,45,38,32,-43,-19,101,85,-7,-6,36,-10,-6,42,-69,-20,4,28,-40,17,31,37,4,11,53,15,69,90,15,40,7,-12,49},{-59,17,-11,7,-47,55,-36,-82,-35,47,19,49,-38,-22,55,9,40,-61,-20,47,-22,7,19,1,-74,-64,44,63,45,-43,-83,-1,35,8,3,-80,71,-128,41,-59,-31,-22,25,29,-61,-41,-53,-59,70,1,36,49,18,-9,-13,-74,-36,85,26,-50,-26,-3,37,-87},{127,-19,-75,-94,-9,4,-128,-7,-128,-60,-31,-12,48,-12,-7,-128,40,-113,50,-30,-35,-51,-7,23,14,54,-31,-9,-79,-81,-92,-69,30,-45,48,30,-35,-32,16,58,30,13,89,-32,-93,22,127,-19,3,-84,-42,-18,118,-70,52,46,-2,63,-53,60,53,52,59,63},{35,-5,36,-74,12,-65,-93,85,-26,29,-55,-82,-70,36,32,90,-12,-29,-34,12,0,-23,4,-85,26,127,78,1,-72,56,-29,-37,14,-91,-49,8,25,20,81,-5,0,27,-60,-128,46,127,-40,-70,-36,18,31,74,-39,-84,37,40,32,-71,-9,-31,55,8,-3,7},{7,-26,-40,58,56,-17,-66,33,-94,22,-83,101,-33,-10,-25,127,48,-94,40,27,-68,-17,-31,41,23,-7,-108,-122,-54,-33,-36,-25,43,-7,-17,17,-27,16,19,16,6,25,14,81,-117,119,48,-19,-42,-40,-93,27,100,-92,58,-9,-27,117,58,22,-60,10,41,102},{127,-10,127,74,5,-128,-128,-3,78,10,-39,-72,11,-11,-22,-128,-8,-128,-128,30,-45,10,-11,12,-32,127,7,127,-81,-128,10,-24,59,-33,-73,5,51,127,-121,53,28,127,-58,96,127,127,123,44,11,-23,-84,71,100,-106,120,-12,52,127,-110,10,46,22,40,-91},{47,14,-4,-1,24,-29,-75,55,-128,34,4,-43,41,39,69,65,43,34,-11,-1,-39,50,41,-24,-17,18,-41,-84,-19,12,-65,7,-24,-63,3,74,-35,-65,-2,4,-30,41,0,-8,-24,28,-14,8,-23,-32,-14,64,-60,-14,33,67,-23,82,-68,-7,68,-52,65,-60},{-89,15,-56,-3,-81,26,-3,-2,53,86,44,-7,19,17,-10,74,12,-22,-12,0,34,7,39,11,-94,-128,-29,-113,-43,50,-58,4,36,-78,15,-51,-41,-76,-25,-91,29,-9,-52,60,-15,-52,-5,6,8,-8,-54,20,-18,8,-40,22,-55,-4,114,13,-32,-18,2,-22},{106,-22,121,-89,7,50,-102,8,127,10,-16,45,36,-34,-32,10,-32,-87,-40,14,11,19,-16,-3,60,123,-41,64,-125,-3,43,9,-54,-111,-9,33,-16,51,-91,-45,-74,27,9,68,127,127,46,3,-119,13,49,68,81,38,105,4,9,23,-1,3,52,13,74,17},{23,-59,57,24,-6,3,3,107,52,20,-8,60,84,-29,14,82,-5,-103,-45,-38,-43,56,53,46,46,-27,-50,-45,-14,-33,-55,-21,-5,44,-16,32,-36,47,-58,56,-18,3,10,-35,40,111,9,10,-46,11,-47,11,1,37,4,-1,-61,-31,74,-26,8,-37,-3,85},{-53,8,-73,36,-23,33,46,29,-95,31,2,16,35,50,1,9,29,-32,-12,41,35,37,32,35,15,-72,41,66,30,67,22,4,15,61,-14,20,33,-65,47,-15,37,125,-17,98,-56,58,62,-39,56,-16,21,75,-11,-10,7,73,-24,-34,-17,8,35,-8,56,52},{-128,16,2,-65,2,19,127,-128,-128,73,65,44,4,-10,-38,-113,-39,79,1,-59,16,11,53,93,73,27,-66,-26,16,14,-7,21,34,-66,36,-67,-74,-30,-61,-112,-21,-29,-1,49,94,70,38,-83,68,10,3,39,88,-128,7,31,-61,42,127,6,-6,45,-75,5},{-49,24,-20,-17,46,17,12,-81,-27,56,-13,94,28,-23,-34,127,28,53,-12,-19,-102,6,10,33,-45,60,-41,-13,51,-15,15,-45,59,50,29,-8,-10,86,-23,4,-25,-82,68,-9,-30,55,16,-2,-2,-20,13,0,45,-73,5,46,30,32,23,26,-57,21,-1,112},{-67,0,93,56,28,-38,-26,-20,103,34,-45,91,-95,-1,73,5,-22,14,52,67,-50,-27,-11,26,-35,-59,25,-67,-43,-35,-34,45,65,-56,-44,-43,56,-14,31,13,-17,49,-51,70,101,21,71,-60,21,-10,-34,28,-5,-63,11,26,-14,20,15,-10,29,27,43,4},{83,4,-63,5,25,3,-128,127,127,-96,-56,-65,-48,5,-12,-24,57,-128,6,13,2,26,-50,-128,-113,-123,-72,73,3,-58,-23,-32,-51,7,-29,55,33,54,60,60,-20,40,29,-38,127,18,-4,41,92,34,25,30,-28,40,48,5,31,-15,-91,60,46,9,2,65}}};
static const elem_t QConv_BN_flatten_2[96][64]=
{{34,-77,49,-50,40,-6,-13,-57,123,24,-33,-123,-37,-17,-75,7,24,-32,-22,37,-68,38,-17,-107,-13,7,-21,-66,13,-22,31,-75,13,53,23,-99,-88,-95,111,-16,3,36,-2,-56,-98,-9,-17,18,-37,-53,36,16,44,-26,27,-12,2,-83,-15,36,-111,-43,-29,-74},{37,-6,-65,-14,10,44,127,-32,-109,63,12,127,108,12,52,-44,55,109,-28,92,59,-13,62,82,-112,-128,70,-23,23,127,-7,10,-6,-6,-12,127,-12,-128,-14,57,87,43,127,-10,-112,-9,-8,-62,-85,7,18,9,127,-104,24,-41,30,-41,-76,-43,42,-64,44,-24},{-57,23,-50,-71,21,-27,-88,-11,127,-122,-20,-57,63,-33,56,-8,-59,-33,48,6,13,-27,71,-52,61,5,-50,-2,-54,-20,-22,1,75,-3,-60,50,-52,-128,49,96,-61,-13,-60,-19,-117,-87,-3,-39,-67,4,-8,-8,35,25,64,-51,7,124,-72,-10,36,11,30,-128},{3,-12,-4,-73,-10,69,-15,-128,5,48,40,102,102,-30,55,-128,-59,103,-50,11,43,73,-16,-20,-49,-18,109,-128,19,-22,41,-1,11,76,-32,46,26,85,-128,-11,-42,-20,18,-68,-71,-121,66,106,4,50,-21,-5,3,-38,61,-29,-48,88,82,67,39,-11,-15,-28},{-17,-53,27,-6,9,10,118,-120,-83,-31,51,127,-125,-51,-5,-2,-21,127,84,49,9,62,30,41,-128,-22,-99,-128,15,-84,18,15,-21,-128,33,127,-18,-128,-43,127,-45,19,44,2,-72,-128,-57,23,-47,-30,51,-12,9,-83,-1,9,32,-84,54,53,17,18,5,-23},{-53,-32,127,-30,-27,51,79,76,-75,92,3,81,62,16,34,65,28,-24,-72,-38,9,90,74,28,-45,79,50,-1,-26,-66,-28,-12,-15,47,-40,-12,-25,-96,-15,-16,61,7,38,-85,19,45,5,-51,-6,3,-71,36,110,-26,0,-13,-28,93,46,-2,25,23,3,40},{-27,46,55,67,-18,43,-6,-97,-128,-7,-9,-35,63,-9,-30,-106,-26,-48,40,20,-50,-83,39,-128,-45,-7,-35,121,-41,-128,-13,-31,47,-26,-89,-72,53,-54,127,38,0,-44,-45,33,-81,27,-27,-35,27,5,25,-32,22,59,-17,-82,-8,26,-74,-22,34,16,10,-48},{-109,-19,-47,64,32,36,-92,-4,57,22,47,-57,-118,25,17,-68,0,-20,41,-23,-36,46,6,29,-58,-35,22,127,29,-15,36,-68,3,2,-10,-63,-16,31,-84,-65,4,9,73,-115,1,104,-53,-56,-7,-90,-10,-47,68,-56,27,55,46,-58,-25,79,-28,-13,14,-10},{55,-42,49,-53,-12,-17,-44,2,-128,-14,38,110,-32,-31,44,-17,64,106,-5,76,-12,20,-15,52,-50,50,-128,-93,-53,42,-31,27,-27,-66,15,79,-22,-74,45,78,-104,-43,11,-60,-128,-128,-14,41,-128,19,-44,-33,-69,-71,13,61,33,32,-27,49,-12,-35,51,23},{0,36,-5,-55,6,-21,-49,-62,127,7,32,-18,102,47,83,-51,23,-66,100,4,35,70,32,12,-19,19,127,-42,19,13,21,-32,19,-128,62,50,-56,-5,-90,78,-23,-19,-28,-11,-74,-4,-35,18,-18,-53,-9,16,33,-113,32,41,0,93,-39,37,28,-35,16,-113},{-53,122,-27,-75,64,-18,-39,91,72,-52,26,44,51,-67,9,-90,11,-36,42,32,28,20,-25,-72,-16,25,45,-108,-62,14,15,-26,7,23,17,107,-15,5,-66,12,-15,-26,-17,-16,61,6,-70,-50,-69,1,35,49,-82,68,-16,-90,45,52,63,40,-18,-7,28,-35},{-128,36,104,101,-2,-65,96,58,20,-53,40,41,122,6,-19,67,23,20,74,61,-10,15,23,12,-128,-77,38,-128,64,62,-7,4,39,-128,-84,117,47,-128,127,61,-40,-4,-32,-12,-128,-128,-96,-21,14,47,-31,28,-27,76,10,-69,-14,3,-128,39,31,-55,38,60},{-70,-125,-5,93,-14,-15,-32,103,-10,64,-23,-128,30,-9,-43,110,21,-97,21,44,8,-80,7,-57,117,-42,127,72,10,2,33,58,14,116,-42,-89,-20,127,127,-5,30,64,-48,36,-1,127,4,-33,70,6,-57,-36,-103,-28,14,-12,39,66,73,52,-39,-7,40,127},{-1,-22,9,50,-16,-55,-25,2,127,46,44,-20,2,17,-6,27,23,65,-28,4,-23,-2,16,35,77,19,61,26,-16,26,-58,0,-18,-19,-29,-1,-9,42,92,-1,19,-7,3,87,-46,-30,41,-26,19,10,16,46,-10,-24,-19,-33,37,4,98,6,-11,-82,-29,54},{-128,6,104,66,-14,-2,40,-10,99,3,12,-70,12,14,-44,127,-13,120,69,49,30,18,-37,127,-30,-106,-12,-128,-5,101,-35,-9,-20,32,-19,73,-32,-128,-24,62,-9,56,24,5,-9,-128,-26,-42,23,-22,-29,59,-70,34,30,20,35,-18,-73,5,-32,-67,7,111},{-73,-27,2,1,59,67,-84,30,85,-28,-4,35,53,-35,-12,-30,-16,-42,-5,-14,47,-26,7,-85,-48,-37,-10,86,-34,-62,25,-40,35,-24,10,72,-6,55,46,-6,-17,26,29,-26,65,-90,-62,-35,-37,-16,22,72,54,-82,-4,74,8,12,-14,37,8,44,-49,11},{-39,-21,20,-20,-9,-55,-9,66,127,14,37,-11,-73,33,-5,4,-37,-8,-93,-44,-59,-45,28,-29,4,-4,4,-49,-39,-49,-76,-17,29,-117,-75,-3,-60,23,103,-15,10,-12,-14,39,127,15,-42,-12,-55,0,-50,30,19,8,11,-37,-11,-52,18,6,65,-51,32,-128},{11,10,-5,53,-12,7,-49,18,100,-34,-52,-7,-2,65,42,103,11,72,51,-21,36,69,-7,28,-11,-30,33,33,-92,-36,-8,-36,28,42,-25,-13,-44,116,-3,-27,-17,-69,-30,-32,54,35,-59,-67,69,-32,-14,29,75,93,20,-30,31,37,-30,-37,-13,-27,-66,-82},{-19,10,8,-13,-60,18,-58,-60,-84,36,29,65,-52,13,-22,-29,-40,-65,-11,3,-5,-1,68,13,-41,-7,61,29,-48,-85,-46,25,71,31,-24,-64,4,9,-114,31,3,23,-35,-33,-60,-56,89,53,-25,30,-5,-2,25,-57,80,-21,15,34,20,-22,77,-65,-43,-128},{1,-51,-66,61,26,82,-25,5,-4,111,-57,24,44,45,-31,57,45,26,54,-41,-28,0,-6,-31,-15,40,113,127,-30,5,-29,28,58,68,46,-33,-2,127,127,-51,71,-27,-6,-91,70,127,124,-66,99,-56,-29,-2,25,-53,-24,-34,34,127,54,22,54,6,8,1},{-56,-13,-119,-78,34,-12,38,3,-128,-2,15,4,103,-29,44,-53,34,-42,113,-39,-14,10,-9,-33,81,-5,86,-3,-72,-14,-43,9,-54,-88,7,28,54,-56,-51,-43,-39,-35,26,-128,-73,76,10,-87,79,-36,-4,-4,-27,52,21,37,29,-116,-26,-6,41,-28,-16,9},{-8,-50,95,-27,44,26,75,-1,112,-52,-36,-70,21,0,-75,1,13,101,11,-38,-80,-14,11,48,-57,-32,-88,-58,44,116,-61,20,16,-13,21,20,-13,-128,127,80,-32,5,14,-44,-56,105,-24,-49,-77,-34,-11,-47,-13,-46,24,-68,-1,68,-29,-18,-24,-13,35,13},{48,-32,78,-30,4,-88,2,80,-128,127,-25,-26,-57,43,-65,-48,22,-65,-85,-16,-9,-38,-1,-10,26,117,115,127,-96,-70,54,59,-10,97,-43,-87,59,127,4,-45,20,90,-15,72,117,127,46,51,127,-37,-53,20,-76,39,14,53,-9,76,-54,-47,76,-27,50,55},{-46,-54,29,29,-1,40,-111,80,38,-28,44,64,4,54,68,70,29,87,16,90,28,-30,36,60,5,42,-18,-96,63,-11,-18,-29,3,-47,-50,11,-18,-7,-62,72,56,83,-47,32,44,-128,60,20,-34,-11,-12,61,52,23,68,58,-29,27,13,34,85,-54,-6,71},{-86,-4,-29,-7,-4,28,56,-96,42,66,22,23,-33,-6,-24,-54,31,-27,-2,-22,-23,47,30,47,-10,57,-2,-67,-61,31,-38,22,48,-74,-41,-33,0,10,-33,9,-40,-15,-50,-41,-113,-106,-23,13,68,-21,1,52,76,-9,-30,-66,10,-6,69,38,-21,-28,13,-63},{78,17,-66,6,-20,42,78,-15,-27,2,-19,26,60,-32,12,7,46,-43,66,46,31,39,-5,127,10,41,33,29,-30,91,19,-5,-86,-6,17,-65,-2,-12,-128,-19,-61,32,-24,-33,-7,61,18,-53,-38,-22,29,3,-59,-80,36,-1,3,-24,11,30,63,58,8,82},{-47,-31,26,-28,-30,-53,-36,46,66,16,-2,4,57,26,24,65,-43,-51,-21,-32,-17,63,82,-24,43,-1,56,-19,-13,50,-49,10,-5,23,19,-39,-86,-96,-65,1,54,-27,32,-80,-14,-102,-44,4,-3,-29,-66,10,48,41,-4,-66,-51,71,-38,-3,50,-4,-25,-57},{33,6,31,-21,-13,-35,-19,42,91,-58,-23,-128,-23,52,66,99,44,80,73,63,-24,53,11,-20,-51,12,16,-61,-66,83,-41,-14,24,-79,15,37,56,102,127,77,-22,49,1,94,53,-20,-26,6,41,-68,-37,70,-68,-33,-18,-8,-7,-67,-3,-14,10,-62,41,127},{-20,-11,-47,26,19,97,-32,7,127,84,63,-120,-37,15,-14,-38,17,50,-19,-47,-19,11,23,-48,118,41,-41,107,13,-31,-59,2,66,18,5,-67,-112,19,-26,-18,-3,-75,36,-23,71,4,-3,26,77,-12,20,82,51,57,-43,40,85,-54,5,-23,6,-5,-84,-85},{6,23,59,1,72,28,-23,-61,47,-78,-52,-39,-9,-42,-74,-128,19,-10,-2,21,-76,-10,-42,-46,-91,-28,-8,48,-42,50,-44,-60,47,-98,86,-65,-46,-119,127,118,-42,-66,61,0,1,-86,-27,-99,14,-32,3,-12,52,14,58,-18,34,90,38,30,-45,-6,48,-91},{17,-42,-41,7,-35,-93,-32,-18,33,-41,47,19,29,10,63,-105,-32,2,-50,55,-4,-44,-40,-93,19,-31,-60,45,17,-85,30,-8,72,-68,-128,72,58,-82,-63,52,-76,-2,-11,49,46,-73,-37,-63,-53,-19,-56,0,46,26,59,-63,-26,97,-21,4,62,-17,50,103},{25,30,18,47,-12,44,47,-105,-10,67,23,127,92,-6,15,12,38,127,-21,75,24,24,11,43,-98,-69,-12,45,-29,12,9,-5,-3,-15,35,83,1,72,-128,103,56,-9,97,-2,-9,-30,16,-32,-64,18,-43,6,76,-128,-5,-32,-42,101,-64,15,6,33,-11,61},{21,-33,23,-98,26,-31,-1,-49,-44,37,-47,-58,-9,20,-21,13,17,0,-26,8,-38,41,-12,51,-59,-8,-58,62,-36,-46,8,-115,12,34,-30,-51,-56,74,-116,-31,22,-30,25,-76,-105,52,-20,7,-83,-18,14,-32,19,-9,7,-50,47,1,-23,38,-104,-37,-17,-86},{-93,55,-106,-56,-45,-46,82,25,-128,-6,-33,127,112,21,26,-42,24,100,90,4,29,35,-10,-43,-2,-61,46,-75,-23,88,37,-18,-6,-115,45,87,32,49,-77,102,78,-30,72,-33,-50,-42,64,-3,11,-25,20,62,58,3,-15,-40,20,-3,-42,-27,-2,-74,29,49},{-43,42,40,-96,11,6,2,45,28,-75,23,-53,25,-45,53,14,-41,69,-17,53,-34,-70,62,-33,29,62,-53,16,-15,-28,-7,-37,53,-62,-32,56,-18,-39,-126,49,-36,55,-40,17,-22,37,-17,16,-48,-10,-36,33,19,-32,64,-104,-7,-6,35,29,-23,7,35,-121},{-94,19,-45,-81,-3,80,-61,-81,-128,43,27,-10,6,-30,-11,13,6,113,20,-13,62,11,-1,1,11,0,85,-43,-48,62,-34,17,-11,-2,-32,-20,11,-29,-13,55,-36,20,-18,10,-128,-2,41,-1,-19,16,-38,32,-3,-35,3,21,-14,90,77,5,-26,13,24,-84},{-108,17,-48,57,24,-4,14,105,-116,86,-37,45,-77,-11,14,-76,23,-29,39,54,10,-27,6,49,-85,-63,-80,69,-36,-83,-31,-17,18,2,-18,80,-24,-117,6,6,-63,43,11,-9,-37,-128,-108,37,27,17,0,34,-51,-4,33,6,1,4,-44,13,9,28,47,-63},{-25,2,7,25,32,-11,18,-60,-98,44,31,-44,60,44,41,12,-2,-62,6,5,14,16,56,-41,-5,-15,-18,95,-12,36,18,-7,-13,10,31,44,-87,73,3,20,-3,-37,2,-75,-75,61,5,1,-32,-45,5,88,26,73,66,-47,2,117,-8,-32,-27,10,-15,44},{-17,-2,50,37,-17,-25,-108,72,-100,-96,-46,62,-33,-7,33,-61,-26,48,-39,40,-88,-82,70,-55,0,72,-128,127,-29,10,38,-54,10,47,-51,16,35,31,82,-48,18,74,-88,21,-15,-10,23,-67,-11,5,-40,-16,50,-19,39,-54,42,29,-15,-16,50,-20,73,-49},{28,-50,-79,62,16,10,-37,-40,-49,72,32,-52,-29,-24,-30,-50,11,27,-30,30,25,39,6,-26,-36,7,-16,-44,16,-36,-6,-41,26,-49,-38,48,-28,-128,-76,-30,-20,-44,-11,-128,-46,-79,7,-16,-62,-67,6,-15,39,-45,24,58,68,-113,-5,78,55,-31,-30,-74},{78,-10,77,16,-7,15,-27,-53,-34,40,-20,15,5,9,27,-66,15,110,9,116,12,66,18,34,29,-44,-42,-9,-53,-36,29,11,-30,-100,-32,59,29,-58,-90,104,-75,111,29,-71,90,-29,-47,-11,-127,15,-67,24,-9,-42,-6,58,-6,59,5,62,51,28,64,6},{-38,9,79,-102,-27,73,0,15,10,47,23,30,-21,18,15,14,23,56,83,-13,8,47,-6,-12,18,-16,127,-69,-27,76,-10,3,32,-128,28,82,31,-50,-65,7,-27,-13,-26,-35,-1,-95,-13,20,14,-2,40,-9,43,-12,50,34,-6,-12,-34,26,68,-28,7,-12},{6,127,-104,-90,30,-52,39,-17,67,37,27,-11,42,-53,-48,72,-16,-28,7,-12,-12,0,-21,-29,-45,74,21,-30,-49,-34,-4,19,-8,31,-20,4,-22,47,49,4,-60,44,-67,-65,56,82,-12,-50,-55,-1,27,-10,-20,-59,10,-73,10,-20,-31,-9,23,-14,2,31},{-80,45,-29,39,2,0,111,13,-64,55,22,94,105,1,-22,14,-32,127,49,-2,-6,-35,16,0,-72,-36,0,-84,21,12,-24,-21,73,13,-43,97,34,-9,13,73,6,70,-53,-20,-83,-128,-15,-5,-5,29,-12,47,35,-36,-3,-43,-37,-82,-11,-41,45,-10,38,62},{37,-101,-26,102,44,-48,-11,99,127,-11,-7,-101,20,7,-20,-25,56,-128,-80,-15,-21,11,4,-113,127,25,118,-1,42,-14,58,14,-10,63,-3,79,-28,-2,84,49,51,64,29,54,35,48,-15,3,-7,-12,-24,41,10,-16,59,14,-22,-84,-43,6,13,34,30,23},{-17,45,42,1,-36,-6,2,15,-56,19,-21,-90,16,-7,-36,-97,21,-54,22,24,-7,40,6,9,-38,-46,84,97,34,7,-29,-11,14,-3,-43,-50,-37,-4,127,6,-43,-15,-11,22,86,-34,-13,-22,34,-5,-5,25,-57,-12,-35,7,-1,-69,57,22,2,10,-16,-97},{13,-9,58,106,55,-32,44,-56,-37,102,53,-35,101,69,22,112,-7,127,-27,40,-35,40,-37,105,-39,-4,18,22,26,70,39,-13,8,-22,33,100,34,74,-42,-11,-29,6,-2,25,27,24,-56,18,-36,4,-37,-12,9,27,15,63,-35,-69,109,6,-5,-9,-19,108},{-41,-23,4,67,27,-27,-70,-44,-126,66,18,-62,36,15,-34,-106,8,13,50,24,69,28,23,8,51,-42,78,72,-50,-44,-3,-22,53,37,25,33,8,-108,3,54,8,29,54,-15,9,-97,-69,-48,-28,-1,-45,80,50,-17,7,1,-7,-40,63,-5,11,27,-12,-46},{-115,-24,-20,-105,-15,-39,4,85,75,47,44,-22,-47,-21,11,52,-44,26,-5,18,1,11,64,-29,64,-28,-77,16,-25,-28,-71,26,36,9,11,3,-95,-11,39,8,3,-23,-30,44,-27,36,-35,-37,5,13,-10,-19,-3,-46,20,17,-30,37,-5,-13,-13,4,14,-128},{5,-11,-29,-14,13,43,65,67,0,-19,-45,-88,73,-20,43,-59,4,-83,18,-6,-21,53,39,-32,46,-25,69,-61,11,-30,52,-4,60,-19,62,-1,-49,-59,-108,3,-10,-77,34,-35,-23,-41,-32,-69,49,-11,-15,20,-22,-23,-21,20,27,-15,51,-29,-25,-24,-46,27},{11,-19,-28,-60,-8,15,-101,-89,-14,67,58,-77,-39,-5,-8,-26,32,-7,-15,25,5,-43,25,-51,-8,-17,-49,-6,30,9,-83,-15,64,-7,-17,-63,-14,-119,-70,0,3,-50,19,-27,-128,-6,51,33,28,18,5,-22,-9,1,7,-2,7,47,74,-25,59,-20,29,-47},{76,-50,-55,-63,34,103,-2,6,-87,33,-7,102,-83,33,27,87,9,-50,-4,8,-12,-29,-20,-56,3,13,21,38,-51,-119,-35,9,5,127,-14,40,23,-3,-87,-30,-2,1,45,-81,-112,-43,57,-25,17,-5,-58,56,77,-40,6,-49,3,54,69,13,-39,21,44,119},{1,28,6,-128,-6,-4,46,117,105,-5,-30,-53,-37,8,16,-96,2,33,38,-14,16,62,3,-128,62,54,1,60,-31,36,-5,17,-31,-89,-51,-2,-22,-28,-27,41,-21,7,4,-81,53,71,-49,-57,-34,20,-19,54,23,-2,-3,24,50,-10,-51,-48,23,-13,-16,99},{-97,-12,30,34,26,-9,31,-21,-31,34,-29,50,117,-25,-94,51,11,-8,-58,-43,-78,-47,1,2,-57,-6,-128,54,40,-6,-50,-28,87,-33,-7,-75,-59,-58,101,-20,25,40,-26,-13,-41,74,103,17,33,-11,-93,-45,63,-94,-5,-43,38,87,84,-22,-48,17,-5,45},{68,26,26,28,11,-101,-41,-19,41,-29,-73,-10,-73,10,-17,41,4,-71,-97,71,-28,9,-49,41,14,25,75,20,-82,-110,6,50,4,104,-8,36,27,-24,-71,-61,78,127,13,30,114,119,33,-20,-18,-28,-70,-18,11,-45,76,65,45,107,-91,-22,4,15,62,19},{79,-32,46,101,27,23,-56,64,-69,72,39,63,-2,80,45,127,13,-55,8,55,19,14,2,66,-65,-25,-50,-91,47,-1,9,33,34,-37,-60,-34,-6,60,78,-7,-34,49,-47,12,-24,15,-25,-51,-41,6,22,-4,50,7,28,10,9,32,-44,-21,29,-70,8,16},{-82,-27,-34,-16,-77,49,77,-18,-49,67,26,45,20,-39,-1,48,-36,-77,-18,35,-32,-29,26,27,-34,5,25,-95,-22,-55,-55,-9,63,-80,-9,24,-58,36,127,-57,34,-55,32,-29,21,-97,29,-2,38,-22,8,43,21,48,-9,-48,-36,-92,-32,32,1,51,-8,-54},{35,-12,51,-60,42,2,-69,82,-47,27,37,88,-2,-4,-23,91,-32,105,113,27,-10,42,41,23,63,28,-24,-16,-99,-5,27,2,7,43,-28,47,37,21,-93,-1,24,49,-55,-37,-65,123,-7,-10,-95,-22,-9,3,1,-41,55,55,-28,60,14,6,28,16,36,92},{55,-58,77,57,-47,-38,-17,-14,90,-32,41,-59,-26,-10,-30,127,-15,-35,-20,11,13,56,64,74,31,-22,60,-87,-56,-53,-37,-41,36,25,15,-7,-67,-15,-115,-39,55,41,-9,26,-7,-97,28,-62,-23,-32,-1,30,70,66,33,-38,-9,4,28,22,48,-1,-5,52},{63,45,-85,14,39,-9,-16,63,-75,-31,-45,-14,14,55,25,-107,52,-96,37,26,29,-10,4,-46,-53,-10,-47,76,-25,19,-17,18,35,-4,43,9,6,54,-22,45,-2,50,-29,105,-11,86,28,-19,33,-56,34,8,-66,38,29,41,-24,-21,-55,32,10,-16,26,76},{2,63,66,-128,-18,53,-23,3,-10,44,26,-86,-32,-48,1,71,-5,-52,-66,-50,-17,22,18,-8,5,-38,23,71,-75,35,-33,-39,6,3,-22,0,-33,39,-44,-34,14,-38,23,-12,-113,-6,-73,6,9,7,-15,63,24,-28,-1,-45,-8,-39,59,32,61,-1,-89,29},{29,-53,-19,46,29,25,-41,-57,45,9,15,59,85,-24,-41,-70,19,58,-46,20,-81,-74,-23,38,-17,49,-128,-77,-43,29,-27,-39,34,11,32,-49,-48,-77,-123,19,32,6,51,31,67,65,62,-66,39,-10,-28,-14,-12,-42,14,39,42,36,-49,-18,-21,0,41,-74},{-80,31,52,80,-31,-17,25,75,37,-2,-18,40,13,1,77,56,16,80,28,58,31,24,-50,-52,-21,-40,-59,13,32,30,-8,-17,34,-47,-69,11,28,-11,7,79,-10,55,-68,-34,-19,-44,1,8,-8,-14,-39,25,-38,-41,-4,37,28,1,59,1,10,-13,57,14},{-85,-24,24,2,-9,39,3,102,-113,10,23,119,-32,-21,-51,-117,7,66,27,74,8,-8,-15,19,-21,-53,-58,-52,2,-1,54,31,-60,-4,18,18,11,11,-38,79,47,78,35,11,16,33,-47,0,20,-19,-18,0,-36,12,9,-27,20,-55,-12,-26,28,10,-22,-24},{85,-39,-6,-87,1,-36,-8,43,-50,5,-46,-4,-12,12,-79,49,50,14,27,-26,-77,-3,-29,75,-49,5,40,-128,-2,54,43,-59,24,-10,22,-59,-7,24,-128,5,-20,-32,-1,-63,-128,48,79,5,5,-60,-55,-32,44,-23,14,-11,9,-76,-52,8,-25,-27,18,-19},{80,-15,-128,-111,-63,89,53,82,-128,-45,-37,1,-60,54,12,61,104,-115,109,-23,22,34,-28,-73,4,-64,4,42,-17,46,-35,-62,-55,-76,44,100,65,123,127,-1,7,2,91,-74,51,36,10,-103,127,-7,60,56,62,30,-7,54,-9,-33,-4,-33,5,-3,77,127},{-8,59,37,-32,16,-30,-5,-50,-79,-101,4,103,-60,-37,24,127,-38,82,68,27,-32,-51,68,-76,11,67,18,44,22,-1,-46,-49,52,0,-40,-16,-27,-128,-117,-17,-43,-46,-11,8,99,-29,27,14,17,-12,-37,42,17,-49,45,-2,-5,98,53,35,5,-39,-21,-128},{99,58,-90,-128,14,84,5,-128,-126,-19,127,68,93,-6,-97,-37,-56,101,84,-20,-14,40,31,-34,-128,-128,90,-23,-61,-6,20,18,7,127,36,-61,59,-128,-112,40,9,-39,-39,78,-128,-58,-48,-102,-40,-34,-57,36,27,-35,-19,-57,-26,108,40,2,10,12,-40,1},{-57,-18,2,0,62,49,23,127,127,18,-9,3,-128,58,7,127,2,-31,-58,-1,22,40,-17,-128,-56,-64,-43,61,86,-77,55,-11,2,-79,4,-21,-20,-15,-4,-66,-70,63,61,-71,-34,84,-123,-36,65,-4,36,11,-88,101,-31,36,0,-58,-128,7,-57,-52,18,-49},{-88,-48,50,108,0,-26,5,-108,-105,48,2,-49,-8,-4,4,-51,-42,5,-37,45,-19,67,107,-58,28,47,-36,57,-76,58,38,-21,-12,-51,12,18,-101,18,-6,-32,-8,-36,-40,-38,0,-12,39,-15,85,-22,-39,37,106,-40,42,22,-49,89,-1,3,64,-3,13,112},{65,-8,116,74,7,-46,-120,-72,40,-116,7,4,49,-49,22,-104,-24,-128,-44,54,-128,-61,42,19,-44,-21,-123,63,-15,-83,-28,-9,33,-2,-106,23,29,-14,-27,84,-28,113,-74,10,127,-41,69,54,8,-3,-69,69,38,4,73,-114,0,111,50,20,9,25,11,18},{-45,-26,49,13,52,70,52,-33,-128,27,-27,93,-36,-2,-5,53,26,55,46,2,-5,10,-34,-12,-29,49,10,101,35,-59,18,-58,-16,-28,-4,62,39,-50,-80,50,-5,-47,-6,-64,43,-35,-75,35,3,-32,3,-46,-37,-33,-38,65,17,-76,-63,87,15,-13,16,48},{-21,13,-7,67,-8,-15,-128,-9,-33,28,-77,-107,-126,67,-8,-21,60,-81,51,92,-41,53,24,-49,23,68,-75,-30,-43,-46,20,1,-45,4,22,23,-39,61,16,73,-35,81,20,-17,100,32,-60,-27,-82,7,-105,47,-33,24,8,0,35,47,-105,55,40,-27,-6,61},{-32,11,-28,22,-13,67,21,-36,33,87,-1,-78,-30,63,75,0,-5,-76,50,-4,-19,11,25,77,39,53,42,-49,-21,60,-58,-40,37,-32,34,38,21,-54,-90,1,-5,67,-29,25,127,-46,7,-16,9,4,0,34,-12,-80,12,24,-10,-23,30,73,-16,-39,-2,-40},{-5,100,-5,22,13,-67,98,105,-35,38,-7,14,-56,-73,-3,63,9,37,-31,1,-34,-19,-30,-11,37,48,-18,-17,-20,56,52,8,-49,-65,1,75,-1,-15,68,18,-30,53,-26,-27,17,91,-55,-17,-128,9,36,58,-31,-56,43,-71,36,-3,-15,75,-23,-37,-42,-90},{-26,-11,-50,72,29,23,127,-4,-128,11,25,117,-21,62,33,127,-26,41,36,51,-10,-63,25,29,-76,-57,13,-128,39,70,15,-27,6,62,-12,-13,-8,-91,-41,-28,-42,-8,-32,-24,-128,-120,19,-68,15,20,-1,50,-21,4,-43,-45,-40,46,-3,-46,-9,-4,-22,9},{100,-61,-60,92,3,33,-128,127,127,-117,-119,-78,-56,39,-2,-128,66,-126,-94,-34,36,-29,-36,-128,-11,67,127,22,21,-128,20,0,-53,24,11,58,42,127,123,-2,-7,98,3,20,-40,-68,27,30,92,27,-74,61,32,127,64,-32,34,-63,-90,-15,-30,-13,14,20},{-35,-49,35,-76,-20,-17,-7,-33,-128,-3,31,-49,28,28,28,4,31,-107,26,-47,32,-4,-20,56,33,-38,72,48,53,-39,-23,-22,50,26,-35,11,24,-99,17,-49,16,13,-42,-21,-18,-15,-17,-45,45,-17,-8,6,-24,-78,16,41,-39,-30,-32,19,33,-66,34,-93},{-8,-81,45,107,25,43,127,-49,57,41,52,-44,-36,25,-33,48,-2,51,35,43,-34,31,17,111,-17,-62,31,-128,18,52,55,18,25,77,18,48,-25,32,91,39,-10,-47,32,29,-77,-77,5,41,1,-20,-17,65,-82,65,-22,-4,-31,-33,103,-42,-23,-44,-2,38},{10,-28,-10,6,45,20,27,-49,-30,-11,9,10,-38,4,-23,11,-29,5,83,36,58,54,22,-32,-47,-21,61,-53,-85,62,43,13,34,92,10,51,-20,-55,-10,91,6,-30,23,-29,-74,-14,17,-44,-50,15,23,64,-21,-40,33,-2,-22,94,23,39,-32,22,-14,25},{-73,12,-24,-81,-17,-33,36,82,127,6,0,-23,1,23,15,-41,-22,-72,-74,24,-60,43,-4,12,10,100,-14,-121,-62,-10,-30,-29,79,-116,-51,-25,-82,6,-103,-53,-1,39,39,27,-52,12,-18,23,-46,18,-39,6,10,-16,23,-41,-36,-66,9,47,-4,32,7,-89},{-3,-41,-56,97,-17,-35,7,11,-128,44,16,60,-2,-25,2,-2,2,19,-28,32,-5,54,16,68,79,18,-52,83,-83,-28,3,-35,45,38,32,-43,-19,101,85,-7,-6,36,-10,-6,42,-69,-20,4,28,-40,17,31,37,4,11,53,15,69,90,15,40,7,-12,49},{-59,17,-11,7,-47,55,-36,-82,-35,47,19,49,-38,-22,55,9,40,-61,-20,47,-22,7,19,1,-74,-64,44,63,45,-43,-83,-1,35,8,3,-80,71,-128,41,-59,-31,-22,25,29,-61,-41,-53,-59,70,1,36,49,18,-9,-13,-74,-36,85,26,-50,-26,-3,37,-87},{127,-19,-75,-94,-9,4,-128,-7,-128,-60,-31,-12,48,-12,-7,-128,40,-113,50,-30,-35,-51,-7,23,14,54,-31,-9,-79,-81,-92,-69,30,-45,48,30,-35,-32,16,58,30,13,89,-32,-93,22,127,-19,3,-84,-42,-18,118,-70,52,46,-2,63,-53,60,53,52,59,63},{35,-5,36,-74,12,-65,-93,85,-26,29,-55,-82,-70,36,32,90,-12,-29,-34,12,0,-23,4,-85,26,127,78,1,-72,56,-29,-37,14,-91,-49,8,25,20,81,-5,0,27,-60,-128,46,127,-40,-70,-36,18,31,74,-39,-84,37,40,32,-71,-9,-31,55,8,-3,7},{7,-26,-40,58,56,-17,-66,33,-94,22,-83,101,-33,-10,-25,127,48,-94,40,27,-68,-17,-31,41,23,-7,-108,-122,-54,-33,-36,-25,43,-7,-17,17,-27,16,19,16,6,25,14,81,-117,119,48,-19,-42,-40,-93,27,100,-92,58,-9,-27,117,58,22,-60,10,41,102},{127,-10,127,74,5,-128,-128,-3,78,10,-39,-72,11,-11,-22,-128,-8,-128,-128,30,-45,10,-11,12,-32,127,7,127,-81,-128,10,-24,59,-33,-73,5,51,127,-121,53,28,127,-58,96,127,127,123,44,11,-23,-84,71,100,-106,120,-12,52,127,-110,10,46,22,40,-91},{47,14,-4,-1,24,-29,-75,55,-128,34,4,-43,41,39,69,65,43,34,-11,-1,-39,50,41,-24,-17,18,-41,-84,-19,12,-65,7,-24,-63,3,74,-35,-65,-2,4,-30,41,0,-8,-24,28,-14,8,-23,-32,-14,64,-60,-14,33,67,-23,82,-68,-7,68,-52,65,-60},{-89,15,-56,-3,-81,26,-3,-2,53,86,44,-7,19,17,-10,74,12,-22,-12,0,34,7,39,11,-94,-128,-29,-113,-43,50,-58,4,36,-78,15,-51,-41,-76,-25,-91,29,-9,-52,60,-15,-52,-5,6,8,-8,-54,20,-18,8,-40,22,-55,-4,114,13,-32,-18,2,-22},{106,-22,121,-89,7,50,-102,8,127,10,-16,45,36,-34,-32,10,-32,-87,-40,14,11,19,-16,-3,60,123,-41,64,-125,-3,43,9,-54,-111,-9,33,-16,51,-91,-45,-74,27,9,68,127,127,46,3,-119,13,49,68,81,38,105,4,9,23,-1,3,52,13,74,17},{23,-59,57,24,-6,3,3,107,52,20,-8,60,84,-29,14,82,-5,-103,-45,-38,-43,56,53,46,46,-27,-50,-45,-14,-33,-55,-21,-5,44,-16,32,-36,47,-58,56,-18,3,10,-35,40,111,9,10,-46,11,-47,11,1,37,4,-1,-61,-31,74,-26,8,-37,-3,85},{-53,8,-73,36,-23,33,46,29,-95,31,2,16,35,50,1,9,29,-32,-12,41,35,37,32,35,15,-72,41,66,30,67,22,4,15,61,-14,20,33,-65,47,-15,37,125,-17,98,-56,58,62,-39,56,-16,21,75,-11,-10,7,73,-24,-34,-17,8,35,-8,56,52},{-128,16,2,-65,2,19,127,-128,-128,73,65,44,4,-10,-38,-113,-39,79,1,-59,16,11,53,93,73,27,-66,-26,16,14,-7,21,34,-66,36,-67,-74,-30,-61,-112,-21,-29,-1,49,94,70,38,-83,68,10,3,39,88,-128,7,31,-61,42,127,6,-6,45,-75,5},{-49,24,-20,-17,46,17,12,-81,-27,56,-13,94,28,-23,-34,127,28,53,-12,-19,-102,6,10,33,-45,60,-41,-13,51,-15,15,-45,59,50,29,-8,-10,86,-23,4,-25,-82,68,-9,-30,55,16,-2,-2,-20,13,0,45,-73,5,46,30,32,23,26,-57,21,-1,112},{-67,0,93,56,28,-38,-26,-20,103,34,-45,91,-95,-1,73,5,-22,14,52,67,-50,-27,-11,26,-35,-59,25,-67,-43,-35,-34,45,65,-56,-44,-43,56,-14,31,13,-17,49,-51,70,101,21,71,-60,21,-10,-34,28,-5,-63,11,26,-14,20,15,-10,29,27,43,4},{83,4,-63,5,25,3,-128,127,127,-96,-56,-65,-48,5,-12,-24,57,-128,6,13,2,26,-50,-128,-113,-123,-72,73,3,-58,-23,-32,-51,7,-29,55,33,54,60,60,-20,40,29,-38,127,18,-4,41,92,34,25,30,-28,40,48,5,31,-15,-91,60,46,9,2,65}};
static const acc_t QConv_BN_bias2[64] = 
{8011,6028,2978,2978,-3123,690,10299,-8004,11977,-6327,1300,-378,1147,-2971,-2361,-836,-4649,3740,-4039,-13648,8469,-4801,-4496,6181,12587,4655,2673,11214,14722,4503,6943,11214,-7699,16095,7096,-13038,9536,8621,3130,-10140,7401,-11818,2825,9841,6028,4503,4808,13655,7859,12434,10299,-13343,-4649,13502,-11360,2978,80,-5716,7553,-6937,-5716,11214,-6327,-73};
const struct Conv1d_Params QConv_BN2_params = {.input_width=100, .in_channels=32,.out_channels = 64,.kernel_size =3,.stride_size=1,.padding_front= 1,.padding_back= 1,.output_width=100,.out_scale=0.0022207904397477996,.s1=0.029124064482676838,.z1=12,.s2=0.004082523888232662,.z2=0,.sb=0.018135492465306765,.zb=14,.s4=0.05353935555777126,.z4=10};
static const elem_t QConv_BN3[3][64][128]=
{{{12,-25,18,-6,12,-27,28,-11,-9,26,32,2,32,18,5,-128,-112,20,18,45,-43,7,29,20,18,-1,67,-29,-37,8,25,50,44,-13,-14,67,-23,32,-36,-22,-12,-5,10,27,-20,-2,84,-27,12,61,-19,-38,39,55,37,21,-21,-17,-14,26,-24,-75,-60,23,-11,-18,34,60,-14,43,47,-31,-5,18,-108,-10,-52,-58,-39,14,85,63,-51,35,-33,-1,-29,-34,-34,-32,-41,-48,48,-6,39,-34,5,41,46,27,-66,39,-15,-20,-14,108,81,-10,-13,55,-4,22,13,20,8,99,-1,14,-22,-5,0,-20,73,0,-27,-10,49,55},{-18,2,-5,1,-14,-8,9,16,13,32,39,-12,-33,-17,14,-4,-22,-16,-40,8,25,-34,-60,-56,32,-44,-14,-33,-128,50,-19,-21,11,29,-11,-6,-7,-6,41,-81,33,-47,-30,-7,8,-20,-76,-14,-13,0,-85,69,-24,-18,-16,3,-83,5,-3,2,48,1,-40,53,-5,-21,14,85,-39,36,-47,-36,-76,-13,77,-128,-2,-38,-34,-7,43,-22,-23,37,32,-128,-17,89,4,-64,-13,-11,-120,24,-87,32,-21,-49,-64,23,16,-11,-4,8,-2,48,3,-59,28,-16,43,-51,-2,4,19,-10,-6,-3,-21,-61,-23,-10,-51,1,-11,-15,36,-15},{16,-4,-2,27,40,-11,-39,-36,19,42,49,17,2,24,-2,9,36,1,-25,40,-21,-44,-77,37,23,-25,-48,-109,33,-14,23,26,6,-24,27,-2,38,-49,-2,11,0,23,-38,-6,-12,-2,-28,-27,26,-3,32,7,-128,-30,21,14,-63,43,61,32,-56,-56,8,13,12,18,-36,29,53,40,8,3,-50,21,-95,75,-36,34,-7,19,-40,23,36,-90,30,11,-20,-3,-38,48,3,-40,-6,24,-47,-25,-78,18,13,5,29,-24,23,-67,-6,-46,-10,-82,9,-46,10,16,8,-51,-61,-11,-48,-77,97,2,-20,15,63,15,8,-13,14,-2},{12,3,-67,-18,-23,-4,-59,-58,-24,99,0,13,7,20,20,88,33,-6,-16,-15,24,-51,-16,6,-38,42,34,30,-9,-29,14,-33,-36,-35,25,19,1,27,-6,8,2,-17,-58,25,-128,-40,-69,56,-16,-8,52,61,-64,-11,39,61,33,1,-48,-10,33,61,12,7,20,47,-24,-63,-5,-14,-39,14,27,13,25,21,13,-81,31,18,-72,-40,28,-20,17,26,26,-33,12,63,-49,-98,45,-59,14,48,35,-9,-47,15,74,47,20,45,-128,-19,-8,-2,-28,58,21,4,6,-24,-34,49,35,17,16,36,26,48,3,-10,0,9,59,25},{39,-5,6,25,-14,0,-88,60,8,-15,32,-16,21,-38,-23,12,-49,-44,3,-39,-5,-12,30,-10,24,-35,14,-46,25,42,-56,25,26,55,1,7,-25,-35,78,8,26,-10,3,48,42,71,57,71,-20,5,7,24,-45,37,29,6,-12,-26,6,-14,-81,87,44,-11,6,-25,-60,23,-9,-17,45,57,15,-19,-53,-17,32,12,17,13,-31,9,-40,-21,-2,18,-4,-6,-8,-1,32,-5,-2,-1,-24,127,17,-9,14,17,-3,29,15,7,-3,27,17,89,-4,25,6,-8,-17,36,78,23,-5,-66,-54,0,17,14,127,-7,-18,31,-40,-27},{-48,-33,10,-4,-1,-18,-21,52,5,-13,-50,0,24,-45,-32,12,20,35,41,44,-21,-28,15,11,-4,-31,36,127,-5,9,-50,-11,-11,-9,6,-4,-21,17,66,26,-52,-30,-6,37,-10,8,-26,30,-33,-7,-25,37,-12,60,-30,-47,41,24,-37,3,-49,-26,-66,-25,9,13,-54,-30,1,-34,-60,-26,32,32,126,2,36,48,-55,-1,38,21,6,-60,6,-29,-28,-39,31,59,5,54,48,5,-2,-31,12,-30,-24,-21,-11,-27,-14,4,73,13,27,5,-9,-23,32,29,61,18,21,-9,8,0,24,-15,-46,-16,-128,-27,3,30,-46,-71},{-39,-53,-34,22,7,10,11,52,-8,-31,16,53,-51,19,19,-66,14,15,-13,63,-13,-25,-7,-1,16,51,-29,86,36,-15,-27,23,16,-38,6,-12,31,-70,-57,-67,29,-3,22,-36,-5,-16,-50,-20,25,-12,-26,-24,27,113,-73,-68,-64,-5,12,-18,-15,31,-65,-37,-10,-73,-42,-15,-48,-47,-109,-12,9,29,-76,54,-1,-8,-55,-20,-91,-24,11,-3,-40,-93,-14,27,47,-43,49,47,-54,-12,-21,-47,-11,-18,-19,20,6,-18,20,-31,-48,-105,-32,-128,32,-65,15,-4,43,-118,50,-15,30,-128,24,-50,-5,-61,-128,-9,-21,-17,7,36},{19,9,23,48,22,11,7,-32,17,-13,68,-5,-70,32,-28,-14,10,5,-11,75,-7,-14,9,8,-9,-128,-25,-47,-6,-6,-20,10,30,12,16,-9,-81,-30,15,4,-29,48,-17,12,-81,11,66,41,-31,15,-10,2,20,-10,-8,-48,42,17,21,-8,3,42,-3,14,17,23,-50,39,49,-71,-12,-54,6,38,-81,-58,-67,16,-23,-14,1,-57,5,-19,22,2,20,-44,26,-13,4,-60,40,27,18,24,55,54,18,-13,-5,22,-16,21,-12,35,-13,75,6,61,9,-9,13,-25,39,11,-1,43,-12,23,-4,-93,46,-15,29,27,29,11},{-32,54,-10,40,-37,-35,-53,72,5,29,-55,36,0,61,1,22,-67,12,0,4,19,-7,24,-1,-37,-25,8,65,-4,-27,-9,-49,12,-11,11,2,-11,-28,-57,49,7,-21,-58,-6,5,-14,71,15,-16,27,-38,104,-43,-85,20,-16,-11,-57,-26,-59,16,47,-23,-42,10,31,0,-34,8,20,38,15,29,-63,76,-23,27,-13,55,-59,33,-25,-23,-43,58,20,-14,-65,-8,26,68,-4,-4,8,-99,73,12,0,-39,-10,-46,-68,-26,39,-35,41,48,34,-50,27,-49,-5,46,-106,52,-41,-9,-2,108,3,29,14,127,-59,-16,35,-13,-66},{-27,34,1,11,9,12,72,124,-45,-19,49,10,17,-61,-27,5,-2,36,35,14,-33,60,55,32,-23,-7,50,30,18,-34,-63,25,16,26,-5,54,82,9,61,6,-39,11,35,26,21,19,15,16,46,30,-38,-9,-8,-1,-2,70,16,-13,16,-7,41,3,-56,3,-37,-1,42,57,37,15,8,3,-6,21,-26,3,16,-32,-45,33,5,41,40,56,29,-34,-9,-7,10,41,27,14,10,54,36,-29,44,-6,44,-23,-7,12,33,-2,23,56,35,5,12,54,-17,2,17,34,38,62,-13,-17,-48,11,-35,51,-105,2,22,-13,43,20},{10,23,9,22,-34,-22,42,38,-31,-41,16,-2,-10,-28,-12,81,23,35,-5,-21,-33,43,-18,-18,-1,-6,-21,29,-7,9,14,-8,-36,-35,-2,-31,34,-43,12,10,30,48,-9,52,19,37,12,-36,2,-3,-15,70,-18,-33,30,-13,40,-8,-8,-48,27,0,-3,28,-31,-51,27,15,15,13,-4,-17,4,-19,67,-66,78,76,7,-1,-36,50,-6,16,-8,56,-18,6,21,19,6,43,-33,12,8,-25,31,-37,-16,7,-34,0,-28,3,52,37,-4,28,-43,-38,-40,42,18,-3,25,44,-2,56,29,48,33,-26,83,-6,15,-26,6,-18},{-14,-29,-14,43,53,-79,0,72,15,-45,-14,-2,-3,-78,-48,-36,16,3,27,46,-10,4,28,-18,10,-39,-9,-60,-7,-46,16,-37,-5,40,11,-20,27,-42,108,9,1,-7,-33,-7,66,-7,81,-30,-15,-8,-35,41,110,18,8,-32,3,-12,-11,-27,-41,-128,-83,-46,27,35,-19,-25,-30,-54,-17,0,3,-4,21,-11,19,30,-61,8,-25,127,19,58,6,-32,-16,-29,-1,21,-2,57,-6,-16,63,-77,36,46,-25,17,24,-18,-16,-25,40,-61,-16,12,12,-128,-33,13,10,-100,3,-26,-34,-128,-55,-51,-33,-105,-128,29,-11,21,5,34},{18,42,16,-32,34,50,-54,-72,24,-20,0,11,46,14,9,8,38,-24,-56,8,15,-4,-30,-35,17,-30,-35,-111,-15,-39,48,-54,-6,46,22,0,-26,-58,-3,-7,-21,127,11,0,-51,3,2,38,-14,-23,37,-74,-12,-25,-60,-16,-6,-41,-41,-13,26,-21,-37,27,19,-42,26,59,-77,59,-33,5,10,6,-26,11,-39,-50,13,-45,48,-39,-18,-38,-59,-92,-32,47,11,-65,58,16,-51,-33,-26,34,-2,-5,-63,18,33,-16,-18,15,-60,-53,-37,-48,-22,-128,2,-14,-75,-51,-10,-37,20,-48,24,-59,1,-23,16,7,-74,-5,-12,-101},{14,-28,6,41,-2,23,-48,-37,15,-26,-21,-46,62,42,-22,55,57,22,2,-21,-6,53,56,32,-6,21,13,-26,-14,3,39,31,-53,5,11,-61,84,23,-78,32,26,22,14,46,17,-47,9,23,-123,14,38,61,58,-61,-25,34,53,18,-21,-8,-18,-15,48,-4,-18,-9,-13,46,84,-9,6,-36,-1,-29,-115,-51,-22,29,-12,62,11,-45,34,-32,-3,30,-40,-23,-17,70,-33,-9,10,20,5,42,-30,-21,25,2,27,-43,-108,36,-55,-10,-42,17,-7,-54,10,48,18,-7,-107,-2,-24,-48,-1,42,-12,-34,11,-23,50,-27,20,-31},{24,-2,23,18,-2,26,25,99,5,-49,12,-53,74,0,-52,-17,-29,-17,9,6,48,43,37,49,13,8,-35,-128,24,-3,-10,-14,-4,47,10,-39,75,-1,-54,-28,28,13,-61,26,102,15,-40,-8,-35,-32,23,69,21,-18,-41,45,4,-15,16,-33,25,-7,8,-1,-10,-13,56,88,72,7,21,12,-13,17,7,-113,-20,-33,-9,35,6,20,-11,0,19,12,-41,-1,-6,20,-52,34,32,60,25,-37,-31,2,-4,-15,-37,-1,-35,18,22,55,-46,11,-2,-67,13,26,15,-6,-25,-63,10,-42,20,4,-4,-90,31,-13,28,-12,21,36},{30,-28,-33,-6,-32,20,7,-33,11,-39,9,-28,41,31,-23,50,5,-17,-2,-79,-11,51,30,-20,-9,44,4,18,-19,3,-85,48,-25,-8,7,-17,-52,-39,-124,13,15,39,3,28,39,-5,40,30,-54,-76,-35,9,-27,127,-61,-34,-64,-40,-40,-62,-33,100,19,80,-26,30,38,-22,66,-18,-16,14,22,-51,-29,8,-52,-84,18,-41,20,36,12,-1,-56,-40,22,78,-14,44,56,-73,9,36,-55,-5,-9,44,61,-20,-23,-56,-39,49,24,-54,11,26,-24,54,0,-11,-3,39,52,-59,47,58,4,86,28,57,98,2,-14,-20,0,-36},{17,-26,-11,-15,-33,24,-32,-43,7,-16,-14,-29,22,31,-21,-106,-40,61,-6,6,32,40,21,48,-7,-36,-11,19,-38,25,38,20,-7,2,5,46,13,25,10,2,-30,6,1,31,32,43,80,-30,-58,-8,23,-76,22,15,-5,-62,70,-2,-34,7,-29,-13,-27,-2,7,-22,-14,-65,27,-30,-29,11,27,-15,19,48,-61,-34,-10,19,26,-37,-27,-33,-28,34,-10,-63,31,51,-4,-2,63,61,74,19,-58,9,36,-4,-14,70,17,-13,-65,111,-31,7,-14,-5,5,75,56,-11,65,35,5,43,17,35,-9,-91,-126,-2,71,48,7,42},{-40,-64,21,-32,38,-40,-50,-64,-33,58,8,6,61,27,31,-25,-7,-25,-47,5,-26,-28,-44,12,36,33,-30,-99,0,-2,-35,-36,17,-37,14,31,-38,-106,-103,-5,53,15,33,6,42,26,-39,-73,-38,15,-70,-61,26,108,-27,-42,-23,-18,-8,-3,-41,5,-5,-11,5,-33,-21,-25,34,-54,-6,10,-28,-18,-128,-20,-52,-49,-19,11,20,33,1,29,-34,0,-10,58,-20,-15,96,-20,21,-6,-96,72,-12,-19,-34,22,-21,-6,20,-39,-18,-19,83,-115,6,-128,63,2,-11,-55,-1,-42,23,-39,-18,-48,-16,27,77,32,35,-1,-8,48},{-4,-52,-6,-26,-33,17,-8,-35,-24,15,51,19,2,45,0,-74,31,19,34,48,1,-1,32,56,-1,44,45,64,-41,48,-76,29,3,42,7,-24,-22,18,18,0,-11,-38,8,33,-32,0,23,23,-35,-23,8,35,-71,-46,53,-58,21,-46,16,8,-30,4,36,-14,11,-19,13,-28,24,12,1,26,16,-49,-45,-54,49,29,-13,45,-7,88,-24,4,12,9,-50,-35,-32,39,47,-12,-14,0,-59,19,-21,-4,15,-17,-32,-10,-33,-27,34,-13,-1,10,-23,-63,41,25,65,12,27,-13,-3,-16,-62,60,-33,-42,127,-18,-28,26,-30,22},{22,41,-51,43,77,-14,-14,127,51,-128,21,-9,1,-24,11,40,-28,37,0,40,28,-12,-31,-1,6,22,-55,7,-8,34,-61,7,22,-9,57,0,-9,-65,111,-14,28,-46,-9,-6,97,-6,31,41,-2,-12,13,-40,115,62,-59,-117,7,-45,67,23,38,-83,16,-10,15,-31,-69,56,-24,-25,-45,-51,24,19,-128,55,-15,10,0,5,30,127,14,30,-5,19,26,-1,3,-4,3,26,14,14,-90,-75,55,27,-19,9,11,-16,3,-6,127,34,-19,39,-9,-47,-10,-8,24,-39,53,-21,-66,127,8,38,-37,23,-88,26,70,3,-4,-31},{-7,-53,-1,21,-53,-15,-53,-34,-39,-49,5,-7,0,-82,-1,81,-113,12,1,-40,-2,11,-6,-8,13,26,23,127,62,-25,-18,-78,20,-15,-4,30,-50,15,28,39,24,33,31,22,13,55,-105,-39,-1,14,-67,10,15,13,-31,9,3,18,25,-33,-9,-23,-91,17,-31,-10,45,14,-39,-6,-93,37,9,-10,-42,60,18,-4,-83,-24,57,43,-4,1,24,-65,0,29,28,-4,15,-1,63,-3,62,-54,-59,12,6,-60,-33,41,-8,-21,39,18,105,103,61,16,23,30,-43,-75,-5,4,49,19,-48,-46,-28,-8,-36,-10,-38,45,2,40},{-36,35,-19,-12,-4,-18,25,-16,-52,-103,16,3,38,-68,-4,-86,-103,7,22,-32,-67,-2,46,10,27,-49,11,-82,-8,-12,-32,15,-12,-25,-10,22,33,17,32,45,3,3,13,25,7,-37,-54,-25,14,42,-68,24,62,-13,-13,36,-9,14,-26,2,21,-42,-96,3,-32,10,-5,47,27,6,-11,31,14,-16,-123,22,-84,-106,0,16,11,49,33,0,20,-56,21,49,39,28,60,-64,12,6,21,-20,-43,5,71,-3,-43,13,-28,-10,-28,26,36,60,38,-50,46,28,34,-17,9,22,6,49,-79,-82,-58,54,-20,-4,54,-8,24,-2},{14,98,9,55,12,17,56,-57,-21,-12,43,14,37,44,-51,-4,-42,2,18,1,-7,51,5,-10,-10,-13,-43,53,40,-41,-60,-33,-17,71,-8,22,6,16,-15,22,-31,-22,-42,9,-47,-5,27,-44,22,32,0,57,43,-59,7,42,-28,-3,-1,-64,48,-70,-5,79,3,-20,-6,3,-34,47,-38,15,35,6,20,25,-29,36,29,-83,-36,4,33,31,-39,1,-28,1,24,-27,0,46,-26,55,16,-43,76,1,-23,-14,-16,-30,-46,23,73,23,45,34,-17,-80,-4,-15,11,-17,-21,70,18,33,74,6,12,-23,-12,-9,-22,-43,58,-2},{-46,11,-59,-10,28,30,17,29,-67,50,-6,13,-12,20,11,0,-37,22,30,2,-69,59,-28,7,-31,1,49,33,3,-32,-26,100,-25,-40,-30,7,-5,-13,-128,-54,-26,-50,33,18,11,-33,6,-2,-10,11,-34,11,-57,75,-30,-12,-7,3,81,-33,16,-22,-88,-41,-56,-17,32,-4,27,18,50,10,22,-26,-91,2,-12,-24,-17,6,-52,25,-34,-10,-42,12,-29,-44,-15,-7,66,13,-9,12,-3,36,35,-50,23,-29,5,35,-29,32,88,-5,-20,-41,-14,127,44,14,77,16,66,-43,-43,-128,-82,-2,10,30,127,-18,12,4,-4,-25},{-76,59,46,15,-2,25,-83,-116,-95,-1,83,6,-80,-12,-36,-50,-15,10,-33,57,-31,-7,1,-16,1,-5,25,57,42,12,18,-26,57,2,3,14,58,14,-65,-10,-25,-6,37,-19,-23,24,93,35,3,31,-120,-78,81,49,-50,27,10,-40,-76,-9,12,20,-103,93,-50,-28,32,48,23,-32,-43,23,10,-26,-53,125,-99,-53,-84,37,-5,-17,-21,-96,-14,-45,-2,-4,-87,17,-30,-27,-52,-7,-23,-14,-4,-35,57,-13,-8,41,22,37,42,-91,-60,6,-50,-4,58,1,2,-46,76,68,44,-90,44,-35,11,-56,-128,-16,-43,21,25,50},{-2,-17,-28,6,-22,20,-9,13,-23,-27,58,36,-6,-18,21,45,24,17,12,35,16,-24,-7,-3,14,12,23,-128,-3,35,-37,35,44,15,19,-15,-48,4,51,-28,22,-25,20,11,36,39,-32,-40,4,44,-4,-37,-6,101,49,-43,-30,-26,46,35,-48,40,-82,60,-20,14,59,3,-52,-35,-14,37,-3,4,84,2,-3,-44,-13,-3,11,54,11,-67,5,-63,-13,8,-97,-30,-44,-45,-44,21,-22,59,22,-18,50,33,101,-11,18,-4,4,34,-13,27,12,76,16,28,-29,27,81,40,8,47,-128,-20,-17,91,-32,0,9,29,4,-4},{-18,3,-19,-4,-21,-27,-17,-53,-27,12,35,-1,33,-10,-12,3,70,-7,4,-28,16,28,45,68,14,11,53,21,-30,-13,-22,11,7,27,5,23,-18,6,-117,9,-58,-8,5,-1,-74,-3,4,7,-27,15,20,-78,-6,-11,37,-28,52,13,-5,17,-42,30,10,-10,-10,29,30,-56,56,-14,-65,-32,-9,-20,87,18,-46,36,-26,23,12,-46,-43,-7,-31,44,-41,-103,-46,32,-4,16,-4,16,-7,-43,-21,-27,-9,-20,14,-46,19,-28,-45,-127,-7,-32,-1,-58,-26,72,92,-32,-71,-2,-56,-103,-2,6,-18,-7,-79,-34,-7,-2,53,-25},{-10,-16,19,10,0,-15,-94,-20,-45,-23,-43,14,-52,46,14,-64,7,-84,10,-79,-3,68,-48,-9,46,-10,58,-128,-39,-23,-56,0,10,-33,-7,-3,27,-27,73,-5,5,58,18,-19,-52,37,1,36,-18,50,-8,70,-13,-50,59,112,13,14,67,-3,6,118,-7,33,19,60,72,28,-23,11,67,-39,-12,-32,-18,-14,103,-21,-13,-64,5,-128,-52,111,-16,25,3,-26,-87,21,-55,-42,35,45,65,64,-24,-42,69,17,48,11,-19,11,-6,57,81,13,-78,127,7,-1,3,54,27,90,32,-21,36,-40,23,-22,-66,-8,-108,27,43,2},{-14,-7,-7,-23,-2,39,11,126,-1,41,31,-5,-39,1,15,-5,22,1,0,-19,-1,12,27,13,-10,-8,55,-43,-5,-7,-17,-48,-48,35,-35,7,-17,-4,2,2,0,10,-64,-18,72,15,-23,-8,-30,-22,22,-48,-5,29,-36,-29,47,-13,52,-27,14,-9,-7,-70,-29,-4,-13,50,22,29,29,23,33,-29,-116,35,16,-15,-33,-39,26,-61,-27,9,32,-21,-29,24,26,-2,-23,-30,10,-11,26,-14,67,-39,40,-20,-2,7,-21,47,127,-38,-26,42,1,-52,30,36,-19,-27,-54,-50,-19,-79,23,-56,9,61,-128,-24,-32,3,-29,-3},{-34,-7,-26,-38,22,77,-16,-99,-8,45,-34,30,40,-7,-14,-3,-23,68,22,-11,-27,16,-20,21,13,-36,63,15,-2,-25,-68,-35,16,6,3,-1,76,1,-88,-11,-40,-8,-28,12,-9,11,81,22,-19,-23,-44,-23,-47,52,-61,19,13,-64,-52,0,-8,27,9,-10,-38,34,10,-17,49,-8,-28,-56,21,-5,127,-19,-83,2,-15,15,-16,-19,7,38,-1,-31,-58,14,39,21,69,-8,31,32,-27,70,30,-25,-9,-29,-74,1,22,24,-90,-53,-21,1,27,44,44,40,58,-10,45,-62,-28,-88,55,-16,-24,34,-31,-28,21,-5,17,-67},{15,5,-29,-20,5,26,-57,2,11,62,19,-9,-4,9,23,-113,-27,24,-47,49,8,-42,-12,6,3,-42,36,33,8,5,5,67,9,1,-11,3,12,64,-40,-14,46,-56,22,-18,29,16,82,-41,26,10,-40,-47,50,6,-43,-18,-43,32,64,34,9,29,27,-28,14,-3,-25,24,-47,8,-52,-14,-30,49,-16,46,-55,-41,-40,1,-17,1,-3,-52,42,9,-4,61,7,-26,28,-43,-4,-2,-42,23,-2,-11,-24,22,-18,57,24,-44,-23,-15,21,-1,53,-30,18,15,17,32,37,-6,-1,-69,-46,6,16,-41,-31,3,8,12,50,32},{3,-65,7,10,-23,-59,-21,-54,13,34,-27,23,-102,32,23,-25,-55,20,12,39,-31,42,-8,18,-5,-67,-85,-38,33,-18,-34,-38,55,-80,28,36,0,12,61,18,-15,13,-4,-1,17,70,53,2,-7,44,-18,61,16,-17,55,34,37,-31,15,-20,35,7,-41,21,-20,0,44,-23,-79,-35,-34,-37,66,-45,30,52,41,59,-25,-11,10,-9,-2,-26,-22,-32,2,2,-46,-22,34,-16,54,-5,-24,-4,11,36,30,-23,-12,-44,53,-31,-50,-117,65,-9,-22,63,29,-12,-22,55,2,33,-9,-45,6,3,10,-89,96,6,-35,19,10,-68},{17,-74,4,-5,-20,11,-15,-109,18,50,-45,-25,-64,-38,-10,0,5,-26,-14,-23,-15,-55,36,8,34,-54,-6,73,-59,-18,-16,28,41,-7,13,9,-35,-84,21,8,28,60,26,48,-128,42,-21,33,-38,-4,-23,54,-55,-81,8,-25,28,-21,14,-2,48,80,17,9,-12,44,-44,-2,46,-13,11,11,-11,-3,-128,47,54,40,-1,16,11,-30,-56,54,-49,-17,1,9,-76,32,77,16,14,39,-14,27,-30,39,33,1,-25,-2,-22,-7,-128,-11,-36,89,-29,-53,44,29,41,-8,63,-2,6,31,25,33,-12,5,100,5,-57,32,-26,20},{16,9,-18,-23,-6,-4,-52,127,-37,-12,16,7,-29,-23,50,-128,-20,-17,18,-43,5,53,22,15,-44,-45,30,-56,-64,6,-35,19,-36,-31,3,50,-9,3,71,-8,38,-10,-7,-7,-48,-78,44,55,-10,56,-19,35,-27,-110,12,57,-44,-62,72,-32,1,7,-35,58,15,66,73,63,71,-23,82,-61,41,-25,-36,0,59,22,16,42,23,-8,-70,126,2,-3,19,108,-128,54,8,-77,-7,11,23,24,-46,-75,95,19,-43,-6,28,-26,57,12,58,-50,-112,-82,4,-11,52,57,-19,74,12,76,-29,-83,17,1,35,-10,-53,-19,-8,-83},{-34,-32,-13,-54,-1,59,12,10,-48,48,-27,18,32,5,20,-51,18,9,26,-20,-40,-2,3,30,18,-27,43,-128,-10,-3,-61,63,29,18,-35,18,53,52,-22,31,-35,-42,3,18,-61,59,-35,12,35,22,-68,-34,110,27,-35,-29,2,20,43,-11,-23,-42,-64,-19,-47,-4,-20,2,74,19,17,-51,13,7,51,66,-61,2,-50,13,41,66,-4,-47,-1,-76,-50,-89,63,60,53,-7,40,12,-1,-48,26,9,-24,-31,-5,68,24,59,103,-27,-4,6,40,-26,45,21,67,7,-2,10,-3,-50,40,-106,-10,-15,3,-55,40,65,27,14},{39,-14,-49,23,49,-16,84,29,50,-35,48,-4,122,19,1,-58,5,25,-11,40,25,-12,11,24,-35,40,-8,-30,11,-9,12,13,-32,2,21,23,-24,-70,127,38,5,0,-13,-28,117,21,82,64,-4,11,32,-96,71,67,-21,-83,54,29,-20,5,53,-94,9,-40,13,-19,-46,43,12,-50,-64,-2,41,42,-85,68,-10,-16,16,-2,6,127,12,-86,55,9,2,-128,77,41,-33,1,-6,-12,-49,-51,-52,57,-63,14,18,-18,-9,-18,127,-31,54,59,50,-119,-7,-4,9,-85,46,-78,-45,-128,-45,28,-2,21,-128,49,92,-25,-33,96},{-24,-46,-37,-13,1,-13,-9,-17,-4,90,45,10,27,64,49,-24,15,-17,41,35,-65,15,-37,5,-7,56,-41,50,-37,-13,61,-13,-4,17,6,43,21,61,80,-35,-59,-82,-38,-31,42,-1,-94,38,27,33,34,9,-1,44,48,-70,13,32,-32,23,8,-22,1,-8,-17,26,92,-43,87,-65,-57,-80,4,8,71,-105,-92,81,-13,-11,5,83,41,13,52,-27,23,50,-57,25,-35,19,56,-1,-7,-1,-17,-51,-46,13,1,-49,-20,-59,-19,-1,84,-3,32,-55,2,14,43,12,-36,-5,-18,60,-54,8,16,25,82,36,-47,18,8,-31},{10,-19,12,-52,9,24,-18,59,-27,14,17,12,-36,-10,20,-46,-97,-5,-63,-67,94,47,5,5,38,-101,-88,-2,-1,0,-30,-35,58,-20,32,14,-56,-1,-112,62,-8,13,-89,-37,-100,70,39,58,-47,19,36,-45,-16,-91,-14,14,2,-23,45,-76,-64,68,39,68,-31,61,13,-5,48,35,36,-57,-6,-68,-128,-27,7,24,14,37,70,28,-1,127,-27,-81,-5,127,-22,-15,-38,-36,53,67,127,41,-23,38,41,-20,24,-41,-2,0,-42,127,69,108,-40,-95,59,13,-25,38,-85,-16,42,-37,18,44,10,-39,72,-5,13,6,26,-30},{40,44,-78,-12,5,-20,-128,16,3,8,-7,-36,48,-104,3,96,-10,-18,11,-48,47,-39,-17,-12,-16,-16,48,-57,-3,-48,9,31,-41,28,27,8,-1,19,12,-9,16,2,-4,18,-53,-36,-43,21,-11,48,22,86,127,-31,19,-79,-29,-44,27,-4,11,-71,4,-9,6,10,-18,49,-5,27,36,11,-17,48,18,-23,73,-83,47,-82,-16,-4,-21,15,-11,48,16,-4,-46,-13,-53,18,41,-18,-99,-47,3,34,66,10,21,25,-33,65,34,-40,-2,-72,-16,-44,0,11,-24,19,-35,58,37,109,-33,5,-11,38,-48,25,-6,13,29,-36},{7,-3,22,22,76,-17,16,43,47,-68,15,-13,120,10,-15,-96,-31,38,-32,70,18,-37,36,-44,-16,-49,-32,112,-4,2,-13,-26,14,54,47,-14,-40,-74,35,-9,46,-24,-60,-8,99,24,70,69,-34,-24,-14,73,16,28,-67,-41,0,30,53,-8,-8,-76,26,41,27,-11,-90,6,-19,20,-7,80,9,8,-128,38,-31,30,-11,-54,0,68,14,-23,5,-19,17,-128,77,4,-25,6,-32,28,-47,-35,39,24,-45,24,-41,-2,-19,-40,126,-12,-40,29,43,-59,-35,35,9,-128,-8,-18,30,-128,-66,15,15,-8,-128,0,51,10,-13,-23},{-7,40,-27,45,-58,5,34,70,4,69,2,-5,-44,12,0,48,-29,-12,2,-20,-3,50,15,-30,-42,-55,53,30,-17,-4,-32,-74,-49,-52,-1,18,55,23,-22,59,29,36,-73,-5,86,-28,43,5,19,81,-1,84,-73,-39,-2,22,-14,-31,2,-24,23,2,-11,-24,-32,1,19,-40,-11,15,-20,-63,60,-45,29,0,16,2,3,-4,8,-113,-9,-40,-7,-51,-41,5,13,4,-99,24,-56,28,49,13,36,60,23,-30,8,-16,-65,60,24,-22,112,34,20,-39,22,11,-15,-28,-99,27,1,-33,-60,-73,-32,-74,-84,-83,-28,2,55,43},{-14,-11,-67,6,41,-19,39,119,13,-49,49,13,-8,35,-5,-128,-43,20,3,54,-32,7,-9,34,-15,-106,-33,0,19,19,14,28,-27,34,26,-9,9,-24,-33,9,-4,2,15,-17,71,-6,69,39,-16,27,-33,-14,52,7,-50,-24,-5,-3,89,13,9,-87,14,-32,27,27,-44,29,-13,-4,4,-85,-13,-6,-47,27,-35,-13,9,-27,29,34,-16,-32,-11,3,-40,-76,39,30,29,-38,-22,27,-59,-6,15,-3,-35,27,-19,22,25,13,101,-34,-43,-34,9,17,-44,-33,0,-10,4,-45,-23,-108,57,-12,16,-42,-68,31,0,4,33,-9},{21,9,-29,25,-21,11,-17,-4,3,16,-80,-6,13,-25,-11,-10,-73,12,15,63,53,6,-4,-15,-32,-63,34,-18,-21,-9,-33,-65,-34,-75,0,36,-117,31,96,-26,19,3,-3,24,70,26,2,16,-57,-20,-31,67,79,34,-53,-18,38,52,-81,4,-23,-4,-18,24,27,-56,-31,-16,4,-20,25,-107,7,42,5,-52,4,-43,-12,-128,25,18,11,33,10,18,-11,-34,25,-69,-41,78,-50,-31,3,-54,17,32,11,-5,39,60,34,-26,-13,57,29,-31,53,37,12,-8,71,-30,32,52,-30,-128,80,0,-3,-5,-94,-22,-3,-10,5,15},{42,1,-37,-20,8,73,-2,71,-7,45,-38,-8,61,22,-8,-5,9,18,25,-28,28,35,-9,19,-32,-52,-55,-63,-12,-40,-3,16,-52,-19,6,52,-67,17,-59,-51,-50,-68,-69,-12,-38,60,-52,14,4,49,8,-81,-51,-31,-2,40,-15,15,-6,-1,12,-4,-64,2,-20,88,43,-11,-16,42,12,-2,14,-29,5,-30,-46,-59,26,1,-31,-21,-21,23,17,28,9,-11,16,-22,-90,-92,-18,-23,-54,70,60,-19,-7,-29,8,-47,1,42,-2,-26,78,-23,-26,-63,22,21,-16,-25,12,33,-24,52,-51,35,-19,37,127,-2,0,7,22,-75},{-44,9,4,29,-1,-1,17,6,-34,33,20,-3,-21,52,16,14,-24,-20,-8,36,-16,-18,1,11,25,2,77,42,-19,47,-8,15,46,9,7,-30,-88,-24,21,0,7,71,30,-39,18,-48,-3,-37,-21,-35,-73,6,-26,97,-49,19,10,-14,-15,1,-25,-17,-45,25,4,29,25,-2,-1,-16,-51,13,-25,-44,92,-76,-33,35,-59,20,54,-27,-24,10,13,-10,29,-38,77,66,-49,-83,5,64,-12,-79,37,-12,27,3,11,-2,24,-54,-2,3,-96,4,14,38,-5,-3,63,2,-64,-46,48,18,29,11,8,18,-128,1,-16,20,20,4},{-9,-49,14,-33,13,-3,-128,-6,6,-46,23,-42,-128,104,28,-65,-26,-18,10,0,39,31,20,-21,12,-9,90,-29,-73,-5,-97,-15,15,-46,16,-13,-7,-3,8,-3,30,33,38,44,-69,48,20,68,0,54,-30,28,30,-128,106,79,14,-6,52,-9,-52,127,-19,17,14,39,-6,75,-49,15,-30,-60,-6,-21,-118,71,-28,75,26,-41,-50,-117,-68,50,-75,-41,-25,1,-127,16,-31,-80,31,-27,-111,80,36,14,80,-1,-6,12,-19,33,41,55,71,-24,-128,44,25,-36,5,28,82,73,48,-20,121,31,6,-97,-53,9,-15,-20,-4,-65},{33,20,16,-14,-18,4,-31,15,0,28,32,-56,-81,-16,-26,16,14,-28,0,2,-16,14,-14,-39,-12,-32,36,127,-128,17,1,23,-27,19,1,10,-33,-25,-120,-19,-25,29,21,-30,-5,-43,61,51,-16,67,-28,-59,-33,-43,-1,-19,-15,-47,60,9,34,-74,-36,12,23,34,31,51,7,-31,66,-22,11,-22,-128,84,-14,-2,4,23,-9,46,-60,121,-74,-8,-16,32,-78,0,-85,5,23,-59,9,-24,-14,0,8,-6,7,-38,-54,7,28,71,116,110,-89,-79,48,-67,-14,17,30,116,-48,-51,-50,-13,-7,-27,74,-4,-27,-28,-3,-50},{-2,17,-26,11,-44,22,-16,46,-3,41,-35,26,3,10,-43,71,-10,-17,22,-37,-19,13,12,14,4,-47,0,26,-28,42,-15,-36,-6,-15,-20,-15,70,-32,123,5,1,37,-32,8,-55,41,34,6,30,-11,-52,-16,-49,-48,-21,54,24,6,12,-52,12,10,-48,-53,1,6,73,-5,-56,-23,-2,0,14,-32,-122,3,66,29,-1,-18,54,64,-4,2,7,9,-4,-16,-65,-55,67,23,19,-14,68,-19,40,6,-39,-16,4,-11,-14,19,25,76,5,81,-21,-73,0,5,-54,4,-28,-4,-70,-33,18,19,-7,20,-5,-33,-8,8,-21,36},{5,-12,-25,10,-42,3,0,67,11,-27,29,-55,-57,49,3,16,-98,-18,35,4,-11,30,20,-43,-28,-49,17,-41,-50,-8,-85,33,-53,-70,0,5,-128,7,-97,32,0,-1,-16,-33,-27,29,-54,-10,20,41,-6,-49,-52,-53,-37,-86,-41,-39,-23,-24,-16,113,-44,-9,-34,43,34,86,29,27,1,-38,30,-19,-43,-69,-9,-53,10,-62,-18,12,7,51,-40,-66,-38,53,-49,-20,-50,19,52,13,30,14,-31,5,50,-12,80,3,-69,33,50,101,6,-31,-64,-72,62,-36,-21,7,-128,27,25,-11,-23,-21,-11,-39,127,-3,-17,17,14,3},{2,-19,-46,26,6,-34,-59,-56,7,0,17,51,50,-21,13,14,51,12,32,13,11,-78,-31,-17,-9,-50,-96,59,2,19,61,-17,33,-9,1,-3,75,-40,117,-27,-42,12,19,22,7,16,-67,-13,21,5,17,-6,-30,-11,12,-26,-4,43,3,16,50,-67,-28,-46,21,15,-3,-17,47,-100,-128,12,15,-27,-85,24,30,-14,-1,-5,23,91,55,-16,12,-19,15,9,-54,21,10,38,-26,19,-21,-37,-128,35,-68,-26,32,14,42,-50,-116,-54,66,24,53,-66,22,-5,-55,-49,11,36,-75,23,22,-21,-1,-13,-128,15,9,50,-9,20},{-13,-13,17,-21,-44,-12,-30,-62,-49,-42,3,1,-7,36,2,41,-41,-26,48,-31,-45,86,-17,35,14,56,32,22,-40,-13,-63,1,20,49,10,-26,-8,33,-97,33,23,2,-16,-23,-66,4,47,44,-16,19,-23,25,1,-47,-32,-37,32,2,75,1,9,40,-38,9,-15,-10,2,16,76,25,15,-11,6,-36,-41,47,-32,-14,-19,-26,7,-24,-20,36,22,19,-2,-58,-46,10,7,19,38,25,-36,-7,74,-26,32,-16,39,8,29,25,-48,9,-24,20,20,-47,1,65,34,-17,2,-47,-35,73,64,-101,-10,72,127,-27,7,-2,-21,60},{-37,69,-26,10,1,61,102,-33,15,-10,86,13,104,28,-25,-14,37,-27,30,-24,40,35,10,15,37,21,-20,36,-34,52,-43,8,-8,41,8,43,-12,-17,-80,36,1,8,53,-10,66,67,0,25,2,13,-21,-27,-128,-6,-86,34,2,-11,38,14,-12,-35,-12,40,-17,10,20,31,-17,50,59,39,-22,20,84,17,52,-104,4,0,-24,23,-1,-14,2,-63,-9,78,3,3,8,-11,25,9,27,12,63,3,34,-20,-48,45,6,52,76,-10,12,18,-14,-39,53,38,5,0,-12,-13,23,17,17,-59,-12,54,113,33,37,-10,13,61},{-7,19,4,5,-6,5,61,-60,-10,67,-9,-18,-58,12,-33,112,-65,-44,32,-13,14,49,46,20,1,7,50,54,-2,21,103,-45,-30,40,2,8,43,-28,-1,17,-52,-15,3,-5,18,-9,-29,15,-93,-29,-2,117,-19,-16,13,-20,48,-16,-37,0,-46,-80,7,20,-9,5,10,-15,48,22,-31,39,4,-31,29,40,-24,35,-18,61,16,-20,21,2,-33,15,-20,-23,36,37,-19,75,36,34,69,5,-51,38,51,-16,5,-31,-55,-1,-12,41,-6,44,-1,-11,3,41,-11,-46,10,23,6,40,-39,0,-15,-24,-128,-14,22,-18,-18,-44},{19,75,-34,38,-35,-19,-78,-78,-22,-38,46,30,-106,99,6,66,14,5,-20,7,10,14,-3,34,-20,-35,-49,83,4,-5,-37,56,45,11,14,-46,-47,-43,-39,35,-45,38,0,-9,-19,47,16,-64,47,14,-23,14,-89,-75,35,52,-70,10,38,-2,29,88,-38,50,-14,40,32,70,37,6,-82,22,-6,-3,-91,2,39,-58,-21,-21,-16,-104,-9,-61,-14,-38,12,31,11,42,4,-75,-49,-20,-56,77,-33,-5,10,-18,11,-3,20,22,87,0,-44,1,0,72,46,-27,-9,-115,49,-59,20,-44,39,-20,12,-1,43,-10,-128,33,-9,-23},{0,36,8,-12,-5,-16,23,99,32,-11,28,-8,-59,-29,8,71,7,-14,-32,-7,31,-52,-16,-31,50,26,17,-10,8,-3,-13,44,52,42,30,-33,-27,-37,112,-54,34,25,-29,-3,54,74,14,14,14,-26,-1,85,-75,-67,-17,30,-33,7,74,31,-4,34,0,51,23,21,47,13,7,-9,28,-47,8,-29,38,-94,50,-1,17,48,33,-7,9,2,2,-33,10,46,39,6,-2,-32,5,2,-14,-4,12,24,-25,28,63,-39,-2,0,83,84,-27,44,7,18,-12,-33,-8,9,42,-4,18,127,-95,-15,-27,10,-33,6,5,16,-27,-29},{-12,-32,-51,-73,3,59,-53,-128,-17,53,75,-7,75,-56,-34,-84,-120,35,-19,1,-70,-9,25,62,-6,-41,-12,26,23,-40,19,17,-3,-56,-3,17,0,28,-50,16,-11,67,15,27,-32,-72,10,-27,10,19,-40,-43,30,-26,12,35,25,-18,-38,5,34,-47,-46,-38,-47,55,5,-43,24,2,-3,17,-41,-1,-12,91,58,-8,-39,43,-20,43,-10,-34,0,23,-53,57,-43,101,59,-2,54,24,10,-13,3,-13,-8,-35,-11,1,35,38,-128,56,34,2,-43,5,51,46,51,43,-35,54,-45,-2,11,10,-44,37,-26,-4,-33,-22,-20,-4},{5,-36,3,4,-5,44,42,53,13,0,-13,0,-12,-22,2,25,-15,3,0,14,-25,15,-41,-36,33,-55,-41,-122,-48,-10,24,14,28,-16,14,15,-4,-5,16,-19,25,23,15,11,-63,42,31,-15,4,-30,-28,-34,-19,52,-16,-18,11,-5,1,-21,-11,108,-57,12,18,-41,-40,20,-28,28,-25,8,-51,-19,23,-13,68,38,-24,-4,-2,-35,-25,-7,8,-16,-38,-17,-14,-12,29,16,-24,9,45,40,-21,-5,5,17,-35,18,18,-9,44,19,0,-15,-38,75,23,-20,-51,43,12,-4,-34,30,-21,-76,18,-14,127,6,12,-15,-31,17},{29,48,-30,-6,58,2,-5,-51,11,-7,50,-21,95,-48,2,-30,42,-75,-14,-17,45,16,-16,-38,7,0,21,-104,-15,3,0,-9,3,66,28,-11,-50,-68,-128,-31,-10,-39,3,24,14,-49,5,59,30,60,-13,80,35,10,-72,-89,-64,0,34,11,-62,43,-5,13,14,50,3,72,71,25,70,-8,-52,15,-69,-75,-5,-106,34,-30,9,-8,-27,37,2,12,-23,-30,-44,-15,-22,-7,12,-3,-13,-4,42,-11,8,43,35,9,-37,-20,-107,62,-13,44,-51,-44,-24,-15,0,-23,-34,24,-36,41,-50,-24,4,-19,17,5,-5,20,13,29},{-10,-22,49,20,-11,23,-80,1,-40,-41,-13,-11,60,-12,-6,20,-43,19,2,-47,-43,-11,-46,8,33,-8,-24,-121,32,-3,5,-25,-30,67,-16,8,-26,-10,-90,-22,7,27,-2,-18,-14,18,99,76,4,-56,1,58,16,19,-54,-1,-36,-16,21,-17,9,-13,-13,15,8,-12,46,-36,47,27,19,20,-9,20,-49,50,-32,-27,-33,-41,-31,-82,7,5,-50,19,1,-25,-46,14,-4,6,-6,1,38,4,40,-13,-49,0,14,-9,-34,67,-7,-5,-66,-18,-40,60,-14,10,31,7,-5,-45,41,44,21,23,31,-76,127,-40,11,-9,5,15},{-18,-33,-48,14,-7,2,-38,103,4,-12,28,-9,34,-55,29,28,-33,15,42,-22,9,-35,55,14,2,21,-15,55,-36,29,-65,30,-20,21,18,-10,-12,-41,127,-25,38,18,50,21,7,61,-55,-45,14,-29,-9,46,12,-25,55,-23,11,-22,-10,5,-7,41,34,2,7,19,-38,-58,37,-17,32,-31,33,-5,70,-30,54,-6,14,-18,-5,-23,-27,-1,14,-5,5,14,33,30,16,38,11,54,-7,64,3,-17,17,28,34,3,-9,4,113,68,88,8,31,10,42,32,5,-2,34,-22,-46,69,-66,31,-37,-5,-3,15,23,48,-12,52},{9,29,0,4,43,-36,65,86,11,-42,29,-6,77,32,-20,5,34,5,-3,20,24,26,12,-28,-5,-27,35,-62,-37,13,3,-23,28,-35,7,4,83,17,37,35,-11,-26,15,-16,89,73,22,-22,10,19,10,44,-18,-40,15,-18,10,37,10,25,-9,-60,-29,-10,24,-8,-33,72,-15,-18,-99,18,9,-11,10,-55,-14,11,6,36,37,12,34,-6,0,-31,13,-17,-36,27,4,14,45,63,22,-14,-3,42,0,-16,-15,28,-27,4,-9,26,43,-2,28,-76,21,-8,-46,-9,-3,40,-26,126,6,-13,-17,8,-128,20,1,-27,-27,62},{-33,3,13,15,12,13,22,-92,-10,16,47,-24,-7,-3,8,-19,-1,-23,-4,43,24,-8,39,-7,-6,-25,-8,-37,24,23,-22,34,28,-47,-4,-3,73,54,-47,-8,21,11,24,-19,-75,4,-28,-12,-13,82,23,-43,-35,-62,-15,23,14,-20,14,21,43,-92,-24,4,-9,30,22,-17,9,-46,-24,-21,-11,-4,-20,-51,-21,-19,-40,45,4,63,19,-48,28,59,24,16,-77,-37,-28,-20,-8,-14,-42,-57,-114,7,47,-8,-30,5,32,9,56,-54,-44,-55,-8,-36,20,28,45,14,0,32,-16,74,-4,-67,3,-7,-8,4,32,47,23,6},{8,-5,-78,22,9,-31,-68,117,7,-66,47,-13,35,-26,-22,-114,15,-8,-30,27,14,32,-17,15,16,-89,33,-44,6,-1,-52,38,-14,64,9,-22,-16,-27,24,-27,-33,-49,13,8,82,-2,92,21,-7,25,10,-22,115,-36,-29,27,-40,-3,79,-29,-35,-41,-15,22,21,-23,-47,121,-23,-34,-1,45,-28,17,-122,-7,24,-26,18,-23,-29,10,1,-36,23,25,6,-113,-31,9,33,11,48,-4,51,-10,-86,30,51,23,-128,17,15,2,3,39,11,-35,-40,23,-3,25,46,-29,25,-8,-5,-128,53,11,-2,-50,73,46,1,-5,8,1},{-7,18,-44,-16,-34,55,5,-85,-10,92,-12,-12,-50,19,12,-10,-5,68,11,9,25,-16,35,18,-26,23,-36,-117,19,-33,38,14,-13,-69,23,50,-14,101,38,64,-30,-79,50,7,-45,5,-73,54,32,39,25,-13,51,41,8,24,34,56,-64,-8,23,30,-1,-18,19,-7,62,-60,-10,5,-39,-47,-6,62,122,28,-63,-23,38,45,-5,84,18,-55,-2,7,20,81,42,-18,-34,-3,11,-14,-10,28,13,25,-38,-13,81,56,11,-12,-99,19,18,65,47,-39,1,12,50,42,-7,36,16,127,5,48,7,13,-93,8,-21,39,42,73}},{{-23,-41,-27,-32,24,-1,4,-21,-20,-33,-3,-33,77,27,0,-32,-85,30,-8,13,-30,84,-19,18,-14,38,-11,-71,10,29,-2,46,20,10,-18,64,23,26,20,35,17,-74,-15,6,-9,8,50,-31,18,19,-34,-74,-46,33,37,31,-15,-7,-16,-5,14,-13,-9,13,32,-6,42,-52,-17,-30,29,-45,-6,8,-37,-33,-13,-46,-7,-9,37,64,-24,84,33,48,2,60,10,-13,-3,-41,-4,3,-2,3,-62,41,40,16,-10,-19,12,-47,18,-37,64,0,-22,-5,11,9,-28,20,-10,6,-16,62,63,30,-28,-23,-52,30,27,28,3,32},{-28,40,-47,-9,-18,3,58,11,14,2,-9,17,71,30,28,13,-20,-8,-44,-11,-2,10,-28,-70,21,-31,30,22,-128,19,-47,42,1,21,3,-3,22,-3,67,-88,36,10,-7,-57,92,-29,6,3,8,16,-92,27,-27,21,24,14,-32,-1,-16,-6,33,42,-79,43,15,-15,22,61,-18,22,31,-4,-27,-21,60,-73,-2,-50,-39,-22,29,10,-19,39,8,-128,7,42,-3,-109,-43,33,-94,22,-90,23,29,-67,-8,-2,-21,35,-13,3,127,-1,5,-35,17,61,12,6,-3,25,39,53,36,124,-29,-37,-9,-7,57,4,-1,24,22,31},{17,-25,-54,-3,25,-8,-24,-26,-14,38,32,32,34,-51,-11,-52,9,-35,4,54,1,-47,-37,21,25,-72,-30,-128,-14,14,-5,20,1,-30,26,-9,-26,-6,-93,-38,40,32,-3,-1,-61,-34,22,4,-2,26,8,74,-128,-39,27,-12,-38,16,26,27,-78,24,-4,-16,-13,-2,7,57,50,36,0,14,-52,30,-20,103,-44,-34,26,-2,4,-31,12,-79,39,-1,21,-44,-110,38,-2,11,3,11,-12,-24,-128,-13,64,-18,-41,6,28,-59,-38,-64,33,14,23,16,-16,-36,-10,-31,-61,16,-33,-15,29,14,4,-29,-44,-3,29,4,-31,10},{34,8,39,20,-12,-25,7,-108,-10,74,-12,-1,26,10,9,33,33,-24,-68,8,16,13,9,55,-56,59,7,60,17,-28,-25,-32,-21,-43,12,44,44,33,-45,-11,-16,47,3,21,-121,-4,-19,-22,-12,25,-2,-3,-7,5,-1,39,21,-4,-64,-6,-20,24,14,45,-17,68,34,-106,-25,-7,25,38,33,9,13,15,-29,-86,23,89,-41,-44,-7,-7,-9,1,30,58,-64,23,-36,-23,20,-7,63,-33,30,15,26,13,-24,16,0,62,-128,-54,-20,73,19,50,-7,17,-12,1,-32,40,4,-18,-47,13,16,42,-51,20,-4,44,70,16},{11,19,-4,-20,17,4,-20,-81,-17,-9,0,6,-14,-47,-19,-49,-50,19,38,-25,0,-4,32,38,-6,22,-2,11,-12,31,-6,26,27,-12,6,22,23,-56,53,27,7,21,41,34,22,89,0,-18,-15,-30,11,-17,54,31,81,-60,40,-5,44,36,-62,110,5,-5,10,28,-71,36,13,1,11,11,13,-25,-44,30,-14,32,24,-6,-65,-30,15,-20,-42,-35,-43,-104,-32,-5,70,-16,46,20,-28,112,40,4,17,29,7,-17,24,-7,-39,51,-28,26,-32,57,31,24,3,3,63,-5,-38,34,2,-8,-25,10,106,17,12,10,7,5},{-20,15,26,-31,-19,0,45,28,0,-33,-44,-20,32,-50,-34,-20,34,20,24,-13,25,1,33,60,13,-26,52,24,5,23,-79,-24,39,-45,-8,6,-44,3,11,19,-39,10,-10,18,36,76,-12,40,-14,-21,-2,-69,-43,11,20,-45,30,30,-26,32,-37,33,21,-17,-4,-20,-35,78,1,-7,-39,-45,11,15,16,68,-40,44,-3,8,-4,-42,0,-13,14,9,-22,81,-20,25,47,-1,0,54,-43,6,30,3,34,-18,6,-16,5,2,19,26,10,-26,-16,38,18,19,54,-26,3,28,-47,82,-10,-1,-23,15,100,4,-6,-12,-48,-36},{2,-2,-12,30,4,-33,51,20,16,9,7,13,-30,-25,-17,28,-18,-3,11,27,27,-8,29,8,15,32,-10,19,-4,-26,0,12,4,13,18,11,-35,-88,49,-65,19,-74,48,-45,67,32,-78,15,45,-47,-29,13,80,14,-4,-40,-45,8,6,-4,39,-22,-54,23,16,-16,-65,31,-97,-36,-58,41,36,-22,-41,-30,11,-45,-24,43,-26,-53,31,91,1,-17,-15,39,-26,5,13,19,-61,-8,-9,-32,-5,24,-19,-8,-30,26,18,39,45,-1,7,-33,16,19,-27,6,-25,-35,2,8,2,-128,-26,-22,-7,-11,-29,15,-14,-60,28,71},{44,40,-22,32,34,4,-50,67,-7,-63,-6,3,-78,36,-14,40,-38,38,-18,86,-9,25,-17,-3,19,-97,-84,53,26,-29,-36,-13,-21,-35,14,41,-75,-11,-35,26,6,14,8,24,-54,50,30,17,-12,25,7,-112,-34,21,13,-52,-4,53,53,2,5,51,-22,11,5,-7,-52,21,6,-70,-40,-47,30,49,66,44,-45,12,3,-49,25,-63,28,-1,52,6,28,-55,7,-11,10,-68,28,16,-3,-12,72,11,-27,-19,-68,74,32,23,46,66,-26,6,-8,5,54,-8,10,-18,37,-33,-20,80,-38,-33,6,-27,127,-11,15,26,25,86},{-13,0,-12,50,-34,-16,-60,47,-43,-10,-31,25,75,76,-27,24,-14,-32,-1,3,-39,-22,17,7,-15,20,75,-47,4,18,-40,79,13,34,-27,4,65,-3,60,23,16,67,-81,21,-15,-54,11,-1,41,27,-37,47,25,-70,11,87,-24,-54,25,-61,-52,-26,-20,-63,23,-4,-42,35,14,-24,31,49,34,-15,-8,-45,6,43,-24,-59,43,2,-38,23,-11,13,-26,4,27,17,37,-29,-61,38,-73,22,6,-9,-73,-6,-40,-28,-5,18,114,127,39,-8,0,-38,-67,7,41,0,15,-46,-11,-42,12,-26,-11,-38,-75,-64,38,57,-49,-51},{-48,57,-39,-42,-17,-21,67,91,-5,-44,43,-14,35,-4,-24,81,-57,-2,39,11,-39,28,33,49,-10,33,19,-26,-5,-56,-9,13,-7,-36,-9,-1,62,-30,41,42,-48,15,-12,33,57,-59,-45,-3,16,17,-73,26,59,-17,9,16,51,9,-46,29,19,34,-28,8,-27,-43,-19,24,69,-10,-18,8,35,14,-39,-19,-38,-51,0,1,11,-2,3,51,20,-26,5,11,0,19,-11,-5,36,36,30,-31,13,-16,58,-47,-27,14,-12,0,91,35,67,31,7,24,42,54,24,34,2,45,-9,-9,38,3,5,5,-56,-29,-18,-9,-11,32},{-24,45,24,0,-60,-24,-17,-95,-22,19,-23,-37,14,25,8,114,0,54,-13,28,-30,43,-18,-21,30,8,53,-57,4,24,8,10,-31,10,3,-31,7,-33,-41,23,8,94,-15,40,-14,5,-4,5,32,-1,22,16,-15,-52,49,20,16,-4,50,14,-1,-78,-21,3,-9,-15,9,-23,-17,47,-4,-41,-2,22,12,-101,63,24,-28,19,14,-19,-20,41,-28,44,8,48,-26,-10,-30,2,17,37,-7,-10,32,-22,1,-6,13,-1,-12,54,-40,-28,-7,59,-8,46,1,30,-36,1,-28,18,22,86,22,-1,13,-52,-119,7,-30,-31,0,25},{-9,23,18,48,55,-54,56,-74,2,7,18,-8,41,-31,-52,-73,8,47,-22,-1,-5,29,-6,14,-18,-105,-33,-18,-24,5,13,-111,20,-8,0,-18,-102,-34,-5,-41,34,4,-39,5,-56,32,83,19,4,4,-32,-10,-13,6,31,-4,-17,-24,24,-19,-7,16,-30,10,9,14,-96,38,-58,-59,-6,34,-5,0,20,-72,97,40,-35,6,42,60,33,27,-4,11,-35,-62,-48,-19,4,37,-14,29,44,-8,49,2,-7,14,-68,-34,-8,-22,-14,57,69,-48,-1,-60,30,-23,26,-68,64,76,-25,-22,-10,3,-1,-15,-69,36,-9,-33,-20,-50},{-22,32,3,-11,-7,72,-31,16,-17,58,46,1,20,26,-7,8,-16,-35,7,-15,2,-40,-26,-43,-36,33,-36,-54,-38,-75,1,-80,28,0,16,-27,34,-42,49,-42,33,3,-1,16,58,-62,29,28,18,19,34,-18,37,15,-128,-29,26,-53,12,-7,35,-33,-52,-4,-27,19,-23,83,-69,57,26,-1,-1,36,-46,-1,-26,-60,-19,-35,32,-71,22,-42,-26,-64,-34,51,26,-62,8,12,1,2,-24,-41,40,-21,-22,7,48,-13,-19,9,-37,-46,-60,69,-21,-118,41,-13,-108,-40,-22,-3,5,97,84,-26,-6,-77,88,-26,-14,-44,4,-64},{5,25,3,17,10,24,-39,32,19,6,-30,-74,25,13,-67,-68,17,-1,-13,29,-10,16,37,62,-5,-19,-8,-70,13,5,7,-21,-34,30,2,-31,25,0,-17,-17,-7,16,-26,55,66,47,78,-24,-112,-29,26,-5,-34,-46,13,-32,27,-16,3,-15,-45,23,25,-31,-10,-17,49,42,57,13,4,-11,21,19,-62,-105,39,-42,-10,51,49,30,2,70,27,12,-23,-7,20,53,-12,6,44,56,11,14,41,-28,42,-30,-42,-16,-55,26,-34,22,-57,12,8,5,13,37,57,-22,-59,-82,-11,-83,60,40,3,-81,70,-43,39,18,-6,45},{34,12,22,-8,8,38,18,42,47,-75,4,-23,6,8,-45,-54,38,13,-4,57,63,-10,9,26,-15,10,-33,-128,30,22,-26,12,16,-8,16,-30,1,29,-1,-19,3,24,-51,28,-20,62,-20,17,-30,-2,-24,58,-3,-70,-39,22,-18,17,82,-24,5,-34,29,-23,-15,24,43,10,71,10,-8,-16,14,-8,-35,-128,-12,21,11,39,25,73,-8,-12,11,45,-46,3,-70,53,-39,12,5,54,11,2,35,-32,-39,13,-15,-28,-52,5,12,24,-27,-44,12,-3,19,-2,46,-29,-59,-37,-1,-65,30,3,15,-25,-44,-11,-13,-35,-5,19},{16,22,1,-35,8,42,69,5,-15,40,-24,-16,17,-6,-29,27,18,31,-10,-51,7,64,50,40,55,46,-9,89,13,-13,-109,91,11,73,7,-17,18,-24,6,58,-20,46,2,43,-23,-5,55,34,-19,-23,-13,46,-61,35,21,10,-12,-25,-57,-3,-20,-9,42,63,-30,15,49,-17,24,-24,61,-5,-24,-27,-89,-12,-55,16,-11,29,-21,33,-20,62,-14,-13,16,61,-20,-22,25,-39,-13,50,-8,35,-72,13,82,-13,-65,-41,-27,-29,12,-21,-36,48,-8,-36,40,3,43,1,103,-49,0,1,36,7,12,-2,18,-22,-29,-45,22,-7},{25,-25,-18,-17,-17,-26,-46,-88,7,-38,-9,-18,6,-18,-13,-62,-2,50,18,26,-14,0,-18,35,18,-14,32,-22,-59,45,-3,36,31,1,4,-1,43,21,-7,11,-26,-36,-2,32,9,59,-14,30,-5,22,-13,-112,47,76,5,-80,70,-8,-63,20,-69,-30,-15,-19,-15,28,-4,42,4,-31,15,-14,11,20,-1,3,-59,-51,9,8,-15,-24,-38,68,-14,43,-25,22,37,87,41,-15,20,30,-26,20,-8,-3,-7,5,30,83,12,-15,33,-9,40,-18,-5,-22,31,54,71,-23,47,-29,30,127,-10,43,3,-2,59,-19,55,44,25,73},{-13,-56,5,5,31,-24,10,30,9,33,9,15,-22,35,24,-16,36,-44,-19,34,2,6,14,16,-11,55,-21,39,19,-30,48,-59,26,-26,16,-9,-100,-83,-116,-34,14,-23,36,-21,10,-7,-55,-121,4,-33,-28,-65,-9,51,-76,-114,12,-32,-21,16,-110,24,17,-13,13,-3,-51,17,3,-26,40,55,-64,1,-28,75,6,-4,2,-7,57,-17,38,20,-12,8,34,105,-12,5,-18,11,18,-10,-60,6,-66,-24,-32,8,0,-24,-30,-67,-37,64,72,-22,12,-27,15,-43,32,55,18,-34,2,86,-41,-72,-5,85,55,4,18,-35,4,63},{7,-43,42,-69,25,8,-12,32,15,-31,45,-13,-9,-5,22,6,67,11,29,10,27,-14,36,23,27,7,-14,-47,-54,11,-22,55,49,12,10,-22,-23,-32,3,28,-2,58,41,11,5,27,24,13,39,-40,-11,66,-73,18,74,-7,11,-42,24,6,11,31,36,43,-9,29,39,80,53,-27,-19,24,8,-19,-59,-100,40,25,12,45,-20,-6,15,51,-9,-26,-15,76,-18,18,52,65,68,43,18,6,-26,24,-39,1,-27,-37,4,-17,71,-41,-12,19,-7,28,21,-1,30,9,1,-23,-40,6,31,5,-33,-42,1,18,19,34,-10,-25},{19,28,-87,43,34,-44,-51,74,30,-86,23,8,23,-3,33,-1,13,-6,36,53,45,-35,-25,1,-17,3,-16,-20,25,-3,-70,5,14,-14,45,27,-27,-83,105,-9,-1,0,31,-10,110,-10,65,21,-1,1,12,8,-34,-13,-43,-68,57,-23,127,17,25,41,32,32,27,21,-30,106,37,-3,9,-78,-5,-14,-128,55,-22,35,13,-21,29,39,24,-17,6,46,8,-15,19,-27,24,-10,5,33,-116,-56,39,60,-11,32,-36,10,4,31,127,60,-16,-40,-20,-75,-6,-7,-30,-19,-10,-12,0,126,90,35,-4,-39,24,13,5,4,0,-30},{-3,-9,39,-15,-61,17,9,26,-26,-26,-14,-5,-70,-8,-28,112,-87,38,-17,-49,-40,38,10,11,30,27,-26,82,30,-15,-28,-101,8,-4,-28,30,-39,-10,127,53,8,19,25,35,-10,43,-81,-48,-20,9,-12,-19,-69,79,-45,-61,-1,-3,-40,-4,-4,69,-74,22,-10,-12,-10,-53,5,32,-86,-5,3,12,10,58,-6,-51,-83,-19,6,11,0,-25,41,-38,-17,-5,1,11,-23,-43,70,-29,75,-17,-39,29,-30,-73,7,24,22,3,-38,63,92,81,-11,35,70,4,7,4,10,9,48,110,-85,-98,9,-21,-13,-43,-54,-1,24,22},{-45,51,4,-29,-12,37,10,35,-44,-92,43,-24,-20,-49,-9,-82,-87,-1,12,27,-9,-17,64,9,17,-29,44,-109,39,-24,-59,52,4,9,12,31,-40,-10,-33,36,-57,22,4,41,-20,-17,-9,-75,26,32,-66,-20,47,-9,-44,46,26,16,1,5,18,-26,-43,-7,-32,-13,37,-10,18,16,-34,22,11,-20,-115,86,-104,-62,-6,5,-12,29,24,-24,7,3,3,49,-7,20,35,-70,58,55,-28,4,-38,31,73,-25,2,15,-21,5,50,-8,65,30,-20,25,79,13,41,13,-19,34,32,-39,-94,-60,-26,33,-12,-4,-18,-19,9,-46},{18,103,2,22,-15,14,-9,23,27,10,46,6,-3,-10,-58,67,-31,43,25,15,5,44,1,-22,-7,-16,-21,-79,20,-46,-32,-21,18,65,23,50,46,-4,51,30,-31,21,-13,-2,-24,13,-50,5,21,45,-48,-19,-24,-21,-37,43,-44,46,27,-55,58,-25,-14,120,-12,-55,16,33,-21,34,-22,-19,12,-13,45,31,2,13,0,-70,-38,-56,-7,-38,11,-29,8,30,-17,-53,-7,17,3,8,-41,-47,-17,4,-19,-15,-10,-51,-21,40,21,12,24,23,15,-65,-4,0,-16,-19,51,67,5,-46,84,59,20,-56,-94,-19,-14,-32,16,14},{-31,5,-35,-17,18,43,63,62,-14,11,-39,-30,-4,68,-22,58,15,44,15,29,-46,26,-23,29,-47,50,-2,27,15,37,9,24,-5,-43,6,20,-78,4,-96,-45,16,-38,-35,7,-63,-4,91,18,-3,31,-68,-46,25,38,15,-62,-23,22,21,30,25,17,-59,24,-35,-15,-59,-35,-9,23,-8,51,11,-3,-14,31,-39,-26,-2,-34,22,40,-5,-64,-43,25,-38,-22,20,68,34,17,6,22,-69,-21,-11,-51,-41,-18,5,46,-31,27,-13,15,-93,12,0,33,11,27,59,9,47,-7,9,3,-41,12,17,12,61,-23,44,25,28,48},{-42,50,-13,-10,35,-1,0,-11,-34,28,63,38,-43,33,16,25,-18,-5,-38,-26,-39,-27,31,42,17,-3,-9,34,-2,-10,21,6,22,-6,-16,-23,16,-23,3,24,-42,-85,41,-38,10,-18,2,-12,40,33,-88,-77,3,-26,-17,-4,-5,-10,-32,18,-23,-38,-15,29,-14,-35,28,33,-2,0,-8,58,13,13,-8,9,-52,-56,-80,57,48,18,4,-44,-46,-19,11,41,-34,-15,3,-14,53,-16,-4,14,21,-43,6,-2,-6,34,19,-16,34,-29,-64,-13,-23,42,47,12,41,-13,41,21,10,-45,49,10,8,12,-43,8,3,28,-41,48},{-17,21,-14,17,20,-3,-7,12,5,-70,39,-4,91,-36,17,20,36,10,0,15,-14,-40,1,-19,34,-1,8,-128,-31,29,-32,17,45,40,5,22,-90,-29,32,14,43,15,5,-7,-9,43,3,-2,14,13,13,-46,-8,46,22,22,19,-31,-16,31,-47,-3,-29,25,-16,-15,24,14,-22,-17,20,31,-38,-21,33,28,-25,-5,-21,31,-29,43,22,-11,25,-4,6,-43,-126,-9,17,-14,-12,35,-9,15,33,-26,-3,23,57,29,-1,-45,-44,64,-16,-79,-25,-24,6,38,0,35,17,49,16,29,-77,-41,-6,85,6,-14,-8,24,-43,-14},{-4,-8,41,-32,-11,-40,-38,-114,-33,-20,9,-33,89,-30,1,11,102,25,-23,-6,-21,36,33,61,28,26,59,-59,-37,-27,11,-3,-2,-18,-6,28,22,2,-52,-17,-56,56,15,3,-28,18,9,-17,-45,-4,33,-11,-1,40,-35,-60,13,-33,-32,-18,-29,-22,4,28,-34,9,69,-80,82,38,5,10,4,-50,-20,-22,-5,-3,-22,37,35,-18,-36,59,-24,49,-16,-51,-21,55,42,0,52,17,36,-18,14,-53,25,-14,6,3,-25,3,-103,-62,76,22,-46,-30,-21,77,31,-13,-25,33,-70,22,-18,1,2,10,-60,-27,-6,-34,8,10},{-1,19,14,-5,-38,15,-3,85,0,10,4,16,-59,-9,-13,-65,-34,-29,48,-40,-25,52,-45,-22,-9,13,-3,-1,-9,42,-23,-33,-6,26,-8,25,16,17,64,-2,20,-15,6,15,9,48,56,-25,3,84,-50,2,-62,-21,-10,51,-4,9,-4,30,-7,35,-21,-3,4,23,28,29,-76,26,-8,-31,24,5,-23,-41,79,10,4,31,-61,-124,-26,26,51,-36,-30,-6,-19,41,-41,-62,14,-28,-52,-8,-7,-30,37,16,46,37,25,-29,-16,-40,0,26,-33,59,22,-19,0,19,-2,-1,25,-61,-33,-56,5,-42,-9,-17,-80,58,24,50},{-2,-25,-39,-5,8,35,-5,33,13,23,43,24,-78,9,7,-53,9,-14,29,14,0,4,16,1,-8,-17,-7,-54,1,-10,-15,-53,10,64,-43,-12,-24,19,-91,-16,-18,63,-59,-1,47,14,57,-18,-27,-54,-6,-46,-51,-8,-52,20,-8,-6,16,-31,-50,-4,15,-89,-41,27,-3,91,18,39,-2,-1,26,-32,-55,4,59,31,17,32,51,13,20,-72,-7,29,-25,-10,13,4,10,13,-12,15,19,-20,57,8,36,-23,14,44,-26,70,98,43,-56,-21,-41,-44,27,9,-1,14,-6,-40,-12,-128,17,-55,-13,-12,25,-11,16,1,-29,30},{9,-25,-25,-23,11,79,26,-91,-7,46,4,-18,28,24,-5,-5,41,37,43,-31,-20,33,-8,57,-13,-34,32,-50,16,-30,-60,9,16,15,1,-8,15,16,17,15,-21,-26,24,8,-107,19,54,3,33,-44,-11,-34,-56,49,-49,-1,-1,-19,-12,-8,-32,-74,-26,29,-8,-1,39,-28,39,26,7,2,-11,-31,10,-61,-121,-12,-1,54,33,-60,2,-16,-10,-16,-46,38,-14,29,27,18,-1,27,36,-16,11,19,-11,-7,3,-13,-17,70,-117,-20,-19,18,-15,24,49,57,44,-15,77,-56,-37,0,13,-28,-17,21,70,-27,-8,24,-9,-26},{-23,-38,6,-35,-27,5,-43,33,23,63,11,15,33,51,15,5,-22,21,-22,42,-11,6,-27,-19,-6,12,-10,-1,3,41,22,-16,24,-20,16,47,-29,31,53,30,37,-36,33,-24,-18,14,62,-22,-1,39,25,-70,-111,38,-11,36,-30,40,12,32,9,4,3,1,-9,18,-23,-19,-6,2,-29,45,-7,17,52,-9,-83,-30,-16,16,-37,12,30,-18,45,-1,-14,30,-15,-43,-26,-44,14,18,7,-17,-7,4,-38,9,-36,64,40,8,9,-17,44,-14,-7,-44,41,0,-33,-37,5,29,27,-128,-43,-26,14,-55,51,19,-15,10,-3,21},{-28,-8,-25,-34,18,-44,-18,88,3,17,-48,40,13,20,-22,-8,-18,26,-12,5,4,40,41,22,-13,31,-33,-48,49,-52,50,-14,4,-128,18,-20,-2,-44,102,-20,-29,-20,-10,-3,54,-6,13,-39,16,16,5,-8,-23,31,12,41,41,-15,37,0,63,-68,-10,66,-26,12,-1,-31,-2,6,-65,17,19,-37,-1,-39,33,43,-23,-4,41,-48,30,71,12,13,-19,-9,-26,-35,31,-11,23,39,-31,26,-15,62,-16,-37,-7,-2,-11,-14,-34,-23,-21,15,-29,64,19,-5,-5,70,3,18,-26,-73,-39,6,7,-3,-128,9,15,3,-21,-8},{-10,-59,-13,1,-18,45,-39,-90,-1,17,-24,-25,-7,-60,-9,33,-23,-22,-11,-41,-13,21,51,55,20,-29,-7,7,-38,15,-37,-27,15,21,-16,13,-19,-91,11,19,-9,-2,28,11,-124,52,17,4,-38,-14,-36,72,41,-48,13,-24,46,-6,59,7,50,71,-37,18,1,8,-23,-23,28,-3,-11,3,22,9,-44,77,-21,-22,-1,-6,1,-60,-37,47,-41,-50,-19,-16,-49,66,37,-8,34,-4,-37,43,-9,31,5,8,-17,-28,-32,31,-128,-68,47,58,-42,26,20,16,32,36,23,0,-40,34,-23,-58,-61,30,70,2,-59,9,0,21},{13,-7,-43,-28,-15,-26,46,127,-17,-28,-18,17,-61,17,-3,13,-7,-24,-16,11,18,25,16,-9,-9,4,-12,-32,-26,6,-19,57,1,-18,-11,53,-10,-7,-52,-35,7,-56,3,-25,49,-57,67,26,-17,-5,-26,-69,-21,-18,-17,25,-8,-47,-1,-19,7,-8,-7,29,-4,41,-9,48,59,5,-12,5,41,-33,28,19,49,20,41,-14,64,49,-56,52,18,35,24,103,-19,23,51,-65,32,-7,24,-20,3,-52,21,37,-28,-28,-5,-29,127,39,56,7,-50,-25,-55,12,9,-4,8,44,15,-116,28,-32,18,6,39,-12,-4,-9,22,-47},{-30,12,-26,-10,-36,59,-13,-63,-25,51,9,-6,10,-24,-1,-7,-25,36,68,10,13,-48,10,41,9,-9,31,-128,2,-1,-50,22,37,10,3,37,5,19,-22,38,-28,31,-7,-8,-48,58,22,39,16,-8,-57,-11,-30,-45,9,-17,27,14,25,-4,8,25,-43,25,-29,12,58,84,66,-7,41,-41,-4,-1,48,15,-11,-11,2,26,32,32,7,-34,-18,-56,-25,27,0,58,13,-27,31,23,-12,19,54,28,-35,-21,-5,4,-26,20,36,-29,-46,2,14,9,28,41,29,13,-7,-16,-25,-37,-61,-47,8,24,-59,-19,7,20,-33,61},{4,21,-56,19,31,-29,-31,123,16,-59,-18,-28,29,32,-2,-13,-23,10,-8,31,-9,-39,-6,10,0,12,-27,57,-6,3,-57,11,-4,-19,34,-6,-61,-86,-17,-25,-13,-7,10,21,123,66,86,64,17,26,20,-78,41,20,28,-44,4,35,0,24,8,-8,37,-50,9,-51,-43,86,5,-22,-15,-10,-6,12,-30,19,-104,1,15,-20,42,-11,18,-55,55,-29,16,-47,64,-12,0,-7,-19,31,22,30,-103,29,-26,31,-22,41,16,-42,49,109,-13,-22,15,-33,-12,45,4,-19,-9,-8,7,-69,22,18,3,-10,-93,15,46,13,22,64},{16,-20,-17,-2,-15,-8,48,-81,32,23,57,6,21,70,5,-1,27,8,26,66,-33,18,-38,-22,34,38,0,67,-2,-18,-3,20,15,-18,16,44,-19,33,65,-23,-21,-14,-28,-24,-31,-26,-17,33,31,-3,2,8,-88,-11,4,-4,-25,9,-41,-28,-38,26,33,-32,16,37,34,-31,16,-25,-23,-7,-28,-6,127,19,-44,69,-17,32,62,-9,9,-4,51,4,13,69,2,-2,7,24,31,-10,-2,11,-61,-16,-40,4,38,-25,-4,-35,51,-51,104,16,-3,55,-70,14,38,25,79,0,25,88,-97,-23,17,47,114,5,2,-30,2,-18},{23,9,53,-13,-37,24,47,-49,-22,64,22,10,66,3,38,46,-41,-38,-18,-47,5,36,-46,-24,18,17,-64,-128,0,15,-8,-38,-8,-41,37,32,-15,33,20,54,-27,-100,-84,-7,-67,10,-36,-4,5,-13,-9,-37,-62,-64,34,48,-6,-21,63,-80,-43,-27,33,9,-4,47,17,36,25,56,40,-27,12,-39,-63,3,-9,19,-27,70,17,33,-14,119,-9,-20,-3,108,-63,34,45,-23,14,25,13,-9,-21,64,-10,-19,6,-5,-22,28,-12,-84,10,-13,-39,-31,25,-20,38,23,12,-6,12,-17,20,14,1,-75,53,-34,12,4,43,13},{22,4,-28,5,8,-46,-102,-14,13,-2,-4,-6,-42,-86,21,116,18,-15,-33,-60,4,-35,19,-24,-29,-13,47,-7,6,-17,-14,-42,-24,44,12,43,-35,13,114,-30,-41,69,54,22,-44,-1,-9,11,-2,42,12,2,55,-54,-24,-3,-42,11,-34,0,39,-56,18,-2,0,47,42,-28,-46,29,38,-12,-11,41,1,-20,85,-49,13,-23,-48,-30,10,47,-36,4,-6,30,-19,-35,-3,28,21,4,-77,11,98,5,74,-12,-5,35,-34,44,-50,6,90,-69,-15,29,9,-2,-47,9,-37,56,22,27,-12,-30,-3,51,-5,19,-5,31,24,-16},{-12,-5,11,35,35,16,-27,110,35,-59,-25,12,43,34,-26,-102,-16,-24,-48,-9,3,-40,23,-26,0,-49,-18,-18,20,-7,-12,43,-29,41,12,-8,55,-12,-21,19,30,11,-67,7,22,80,34,30,5,36,-32,-26,-12,54,-51,51,-17,9,7,9,0,-22,4,41,-2,-6,-58,83,31,0,-13,21,-17,21,-45,43,36,-20,-27,-50,-30,6,11,3,55,8,-39,-128,38,-5,19,30,-29,25,-6,-7,-24,-8,-77,12,-35,50,-16,-11,100,12,-21,26,28,-5,-31,28,-1,-114,8,-1,37,-90,28,-23,-22,-21,-128,33,22,-7,25,8},{6,38,-2,25,-40,16,58,102,-6,50,-29,-15,-46,-1,1,93,-99,-47,29,-34,-38,38,-22,-10,-32,35,24,103,-17,-28,9,-71,-35,-13,-9,5,-24,1,-3,1,-14,16,-25,-12,11,42,-16,-14,-3,56,-18,1,-22,23,-44,15,13,-29,29,-34,-2,28,-44,11,-11,-28,42,-20,0,70,4,5,8,-24,53,44,-44,27,10,-21,52,28,-7,-3,-20,-55,-6,68,20,-25,-43,19,-21,-8,-2,53,-14,49,0,-21,24,-13,-57,33,-29,-28,54,-24,-7,-76,49,-52,-9,-30,-120,84,-46,-62,-32,-14,-28,3,72,-66,-46,-8,37,3},{11,-34,-69,33,32,30,13,127,0,-71,50,-7,7,6,-33,-128,-32,12,-16,43,7,26,-18,-15,0,-73,-4,49,-2,13,-33,37,-25,18,45,6,4,-40,-49,-48,18,-47,-15,0,46,-55,78,22,28,-4,27,-14,46,-10,-21,-50,49,-8,100,-20,-14,40,39,-40,25,18,-8,111,46,-2,-25,-100,28,26,-98,13,-17,13,-3,-13,-32,-12,-17,-11,2,35,-15,-48,-50,2,12,-34,10,13,-40,-46,48,-3,24,-8,-26,-5,2,10,127,16,40,16,-1,-4,5,22,-52,6,-32,13,8,-128,41,55,-25,-86,-19,19,6,-19,17,48},{28,17,4,6,-49,26,-29,48,46,7,-79,0,-45,9,16,55,-100,35,34,60,61,37,-20,-53,-1,-72,4,-79,-11,-10,-28,0,-7,-91,17,40,-94,14,105,-3,46,-51,1,-6,68,2,-3,66,-18,18,3,-4,-40,85,-91,-49,10,20,2,14,28,-22,8,24,31,-37,-21,13,-38,-84,-29,-79,33,32,38,30,39,-12,30,-49,-7,-30,23,-19,5,21,41,55,72,-60,10,42,-38,-7,-33,-7,37,21,44,21,44,15,27,-33,29,78,33,59,13,77,28,-17,29,42,35,-13,19,2,24,-29,1,-33,4,-21,-3,10,-2,23},{50,24,-9,-37,-22,-8,-25,-24,-25,-11,-35,11,-19,-30,-1,28,9,-1,-26,-20,30,53,-6,-5,-77,-31,-34,16,12,-38,-62,-11,-88,-72,6,40,14,0,7,-26,-36,-8,-51,1,-5,29,-12,28,-1,17,13,-57,-3,24,14,14,-31,-2,17,-30,-16,-39,1,-21,-7,74,20,-14,-83,9,-47,32,46,5,-2,10,28,-33,38,-9,-44,-33,-27,83,22,-11,-7,40,-41,-4,-2,-38,-38,-3,6,-42,39,-3,0,-25,58,-7,-30,44,93,-53,10,-14,19,-15,32,5,-19,-11,30,43,-20,-63,15,4,-8,-47,-21,-2,49,26,21,-64},{-9,-10,13,-3,25,-36,-40,-16,-19,12,56,4,-44,18,-6,51,40,-39,-26,9,46,-2,-10,35,44,52,48,28,25,54,14,4,35,1,1,-14,6,-34,67,22,18,33,45,9,-7,-73,-4,-3,-6,-9,-45,35,-7,97,3,41,-25,-17,50,0,-22,-53,-5,29,1,31,84,1,39,-34,-38,-3,-31,-23,12,-41,21,37,-51,32,11,-19,-6,56,4,-24,18,-49,33,-6,-6,-49,-12,-1,-69,-56,31,-28,62,0,-36,-15,5,-31,-19,-61,-64,68,-5,23,34,-20,-17,12,-18,-2,65,-42,-80,-10,26,55,-80,-45,-6,19,-49,-4},{-19,-58,13,-24,-31,13,10,11,12,34,-10,-22,-40,69,-24,19,38,0,-20,14,2,8,19,34,27,54,17,18,-14,25,-13,35,39,-3,-2,8,15,16,64,-16,0,-3,41,13,19,82,32,36,42,13,-23,-40,-17,-55,52,31,17,-1,9,13,-28,75,-59,38,5,-9,-15,-32,-5,11,4,0,-48,-37,-96,10,6,49,-16,6,-65,-23,-28,39,-65,-24,-35,9,-4,-9,5,-18,-52,-12,-97,62,39,-6,-3,22,6,-26,1,33,11,-108,100,-58,-103,-26,17,-24,-29,24,61,-19,-18,-97,59,-25,22,-52,85,-25,-59,14,12,-31},{-18,-41,7,-14,20,-30,89,-20,11,50,9,-73,51,61,-54,-3,-34,0,-14,9,2,32,-27,-1,-54,-46,50,117,-43,13,18,46,-32,24,1,10,12,-32,3,40,-6,-8,5,-23,-16,-13,14,20,-17,71,-55,-96,22,26,-13,11,-49,-10,15,3,7,-14,3,27,11,34,-59,-44,51,-18,7,14,-2,4,-20,98,44,-39,27,-26,-46,92,-17,14,-18,-40,-41,50,54,-35,-34,-19,4,-88,-104,-12,-7,20,21,10,-38,-41,-51,-11,2,13,127,-16,-34,-4,4,-17,-1,-3,72,89,-66,-30,37,4,-16,-13,-23,-8,-26,3,29,-41},{-10,-21,-3,10,-22,-15,2,-18,28,37,-33,28,-11,14,-26,80,-23,-16,18,-6,1,-16,-6,-18,1,-23,36,-33,36,54,-46,-56,1,25,-1,7,92,-43,36,60,-2,48,-21,1,26,4,47,26,40,-21,0,11,39,-22,-6,-38,1,17,42,-48,10,-43,-11,-92,5,47,-22,13,-56,33,15,-22,26,-38,-73,31,80,35,8,20,26,-11,-33,20,28,-39,-3,-90,-21,16,1,-22,42,-41,8,-22,22,-4,15,-6,38,13,10,54,-67,3,3,35,-36,-2,0,-28,-26,29,79,-6,-34,-38,29,34,26,-50,-117,-7,-17,55,-63,-22},{27,6,-15,13,-16,11,53,45,14,25,-37,-30,-6,-31,0,-30,-51,-7,48,52,40,-17,-7,5,-59,-2,49,-92,-15,-24,-75,-49,-85,-38,17,44,-43,6,-50,48,4,-74,-41,-39,22,55,-9,44,13,53,-6,40,-71,61,-42,-97,-31,-61,-7,-38,-10,59,-10,-63,-29,45,39,0,-8,42,-2,-12,21,-27,17,-24,10,-40,-36,-42,-32,26,-12,36,18,-54,21,-24,5,-7,-41,31,46,10,22,22,-55,34,11,1,54,7,-86,15,53,-44,49,-46,-5,-95,22,9,-59,14,-93,32,-13,-107,-89,-65,6,52,120,-28,-37,15,11,15},{-3,-32,-4,-4,-13,-82,-54,-20,-8,53,18,35,-26,-11,30,-12,-47,-29,44,71,11,-33,-17,24,13,-32,-71,23,-15,17,48,-51,22,-70,4,22,56,-29,12,25,-14,-37,-26,-5,-36,-19,-29,-33,-22,6,17,27,20,52,14,68,31,16,50,2,0,-1,-14,-39,6,-6,2,47,21,-112,-97,-53,27,-29,-7,12,35,11,-18,10,72,62,17,41,16,-32,-10,75,25,29,41,14,-23,-13,23,6,-128,15,16,7,35,18,3,-55,-59,0,-49,51,2,-26,21,8,-45,9,48,-20,-6,56,55,31,-1,-56,-18,0,78,34,-37,-45},{-42,36,4,-15,-27,-9,-11,-81,-51,-51,24,-13,-45,-9,38,96,28,16,37,0,-62,51,-23,38,9,51,69,-5,-38,13,5,15,28,47,-17,4,-2,34,-48,12,22,44,27,21,-12,67,-20,44,-40,-8,-60,-64,-95,32,-101,-86,-13,24,62,-18,-22,35,-9,-4,-35,17,84,-41,26,26,42,-8,12,-31,-49,66,20,32,-58,12,48,51,-28,-20,-6,-2,31,-42,-3,4,10,-20,51,-26,-23,2,72,-40,-17,-4,76,-22,-6,49,-25,23,-4,54,23,-11,28,52,68,43,-41,-42,-13,76,16,-28,-25,96,-64,-3,0,-21,-20,17},{-20,29,-41,-4,27,57,62,54,31,-84,74,-9,-28,-4,8,-33,44,-8,14,28,37,-18,6,6,39,-31,-39,0,17,6,-77,89,4,-6,34,-12,43,35,32,62,2,-50,-8,-16,-32,29,20,6,13,0,-49,-86,-57,-49,-91,0,-24,12,49,36,1,-31,-21,32,-1,36,56,24,-18,36,56,2,-40,8,5,2,-17,-70,-38,21,-30,38,3,70,15,-15,24,49,1,-17,31,7,63,21,-8,-35,57,-15,25,-15,-23,49,-8,77,10,40,-31,-10,0,45,61,-1,-24,29,-24,-30,28,66,63,-19,-15,10,-128,-1,-12,6,28,16},{-30,11,0,-38,-24,-17,-18,-76,-6,79,5,-3,50,19,-60,127,-25,13,25,-37,5,-11,11,44,11,4,-3,-9,29,36,59,-16,-35,18,6,-35,-51,-6,-11,20,-42,40,-35,31,-83,75,11,-22,-76,-17,-8,17,-29,-61,-31,-6,14,2,50,-11,-57,70,-27,30,8,-14,-36,10,54,-41,-33,-36,22,2,124,54,48,-1,-9,52,-6,-20,-8,34,0,-55,-54,19,-71,-36,-39,36,5,23,57,-16,-43,30,9,0,16,-64,-30,-19,-115,15,26,-14,-13,-53,24,11,12,23,-31,5,24,76,-59,-18,-40,33,47,6,-9,-20,-5,-75},{-26,67,6,31,-2,11,-56,-31,-33,-6,-6,13,-24,63,-8,-6,-8,11,-12,-24,48,10,-21,27,-6,-4,26,-52,9,-12,-46,24,0,1,8,25,30,-11,-50,44,-30,53,-7,6,65,9,33,-10,24,-36,-44,85,62,34,14,-3,-63,-11,54,-43,38,9,-22,3,-8,19,26,36,63,-30,-65,3,15,-9,-35,8,-21,-23,5,34,-9,-2,-41,-33,-9,-35,-13,12,4,50,-42,18,-55,24,-13,-14,37,-4,-14,2,23,-14,19,5,-56,3,-31,21,5,-21,-12,-6,24,-73,5,-3,-13,-5,12,19,-17,-90,33,2,-56,29,17,-41},{-12,-16,4,24,27,12,18,-14,-3,-34,53,1,-40,-41,7,53,-19,-51,-27,-55,28,-19,16,-26,38,-29,21,-59,-25,2,-16,-12,4,76,15,-10,46,-37,101,12,-5,9,-14,3,73,74,-24,62,-14,-33,-6,97,2,17,-40,50,-36,33,53,8,-12,26,-39,-2,20,15,47,57,-55,19,7,-42,-1,-34,75,-128,40,15,-21,15,12,35,-28,96,18,-20,-4,12,7,-46,-35,31,33,35,-4,41,47,-3,25,5,86,-45,-8,42,99,20,47,-39,-15,-5,-9,-2,12,-25,-17,-8,-17,127,-43,21,-37,15,78,4,-7,-3,7,-47},{-24,-15,-19,-63,22,39,20,-32,-41,29,40,0,69,-43,-48,22,-128,53,16,-18,-50,31,-7,63,18,38,0,-35,21,-41,62,3,11,-15,6,-5,-4,4,-57,-9,-9,27,-3,2,-53,-87,-2,-40,-24,52,-35,51,3,35,6,7,60,-42,-33,22,46,-28,-11,20,-29,27,23,-34,71,3,-22,-21,-10,11,32,75,39,-48,-24,46,-13,77,1,-25,1,-1,-13,7,-18,117,-13,-25,56,40,52,-58,21,-12,41,-29,0,12,-6,21,-14,36,92,-1,-21,-17,52,48,83,39,-5,39,-10,-17,-3,-39,-69,6,-13,-5,34,-20,-4,12},{-17,-35,27,25,22,-26,-29,6,12,25,-12,10,71,6,4,-6,17,19,-1,-31,4,27,4,-44,-15,-49,-16,58,-42,37,-37,-2,25,39,12,-3,-24,-5,82,-41,74,-39,-26,19,21,75,3,27,17,9,-18,27,-56,16,11,13,-40,8,-14,-17,32,85,-13,2,9,-30,-34,41,-13,29,-12,-27,-23,-10,105,-13,46,-27,-34,-20,-18,59,17,13,-34,-15,-15,-28,-42,-28,32,-8,36,27,59,77,-30,22,-47,-3,-3,31,26,28,-75,43,-32,-17,-2,-48,21,-9,-68,9,70,-40,-11,-1,-10,-47,-22,30,127,22,14,-7,-14,24},{34,51,-34,41,49,2,-24,37,23,-28,46,12,11,-64,-5,-27,11,-54,-45,-42,50,9,20,23,-22,-59,17,-31,-39,-16,-11,-12,-44,47,6,32,-27,8,-37,-34,24,-57,-39,27,0,-61,26,48,2,61,-49,32,-37,-36,-40,-59,0,29,53,-22,-73,-35,-36,69,-3,33,-11,25,44,38,52,-1,-48,14,-8,-92,25,-75,15,-35,23,-42,-7,105,-32,-18,-43,-5,13,-2,8,-2,-48,16,-57,0,23,-20,46,9,-21,-10,11,-22,79,1,23,-4,-4,51,38,-50,57,43,4,15,2,-10,29,-28,18,7,-24,16,-41,2,9,-29},{1,-10,-11,-16,-7,34,-67,-68,-3,10,44,-12,40,43,-14,-7,-34,32,-36,32,-4,-48,-59,-15,21,-39,-2,65,-14,10,-35,20,-30,13,-5,-8,63,-19,-46,-39,21,-22,21,-9,58,78,60,63,-11,-16,5,-13,61,-22,-69,3,-33,23,30,3,-39,-28,7,32,3,33,-17,59,18,34,-7,39,-19,-34,-31,59,1,-28,-39,-70,7,-33,-9,-81,-51,26,-7,-49,-49,11,-40,46,-22,-17,30,16,-5,-41,20,3,1,-37,-10,57,113,-16,-61,-48,-14,21,-30,4,28,9,65,-35,-17,125,25,-18,35,22,43,3,30,-4,-13,3},{-5,36,-50,19,-35,18,-105,96,-16,-30,-11,-27,72,-59,32,-93,-1,-5,7,-7,23,19,33,40,33,36,-21,104,-22,46,-14,28,33,-14,3,-13,-46,-22,87,35,-16,16,23,-14,19,61,30,-10,-12,-32,-14,30,17,-6,35,-64,16,-11,-19,7,-13,29,0,23,-7,-32,34,27,-9,14,5,6,14,-3,-27,-50,2,-31,-18,1,-29,-8,-11,-44,5,10,15,48,-34,-32,19,41,34,28,-43,84,-12,20,67,20,-1,-13,1,43,110,11,3,-10,22,-35,4,52,-23,26,8,-9,-58,48,-97,44,-3,23,126,-5,28,63,-4,-6},{-5,33,-3,43,11,-22,-2,57,32,-29,-8,-9,-26,51,-44,3,39,18,-3,44,27,17,17,-3,-9,-19,20,-128,30,-27,-54,-88,17,-40,18,-24,-3,-32,74,-19,-15,-25,8,28,51,28,11,0,5,4,9,-35,28,-19,18,44,41,-9,20,16,-10,6,24,48,12,34,16,10,-38,-21,-90,-8,-35,-8,41,-47,8,-48,6,21,-2,28,17,17,14,-25,15,41,-43,-27,-1,2,15,12,-62,10,-16,10,-6,3,-12,-8,15,18,63,17,-30,-31,13,8,-10,-16,-34,-7,-8,-10,29,125,-7,-17,3,-59,-18,-8,45,-21,-20,-20},{10,34,-10,43,42,21,7,42,0,-60,53,-10,-5,-5,7,3,-3,-30,30,80,16,3,31,25,-10,74,12,-28,23,40,31,-26,-21,6,-15,24,19,28,90,36,8,-3,-17,-74,-25,-62,36,-55,18,37,-7,10,5,2,-11,-2,-12,-5,56,11,2,-31,-21,-13,-2,-17,-14,87,-18,-23,-8,6,2,-16,-54,-7,5,17,24,29,10,-36,3,24,-13,48,14,-40,-23,-5,-33,-6,7,32,-32,-99,-79,16,64,-18,-4,52,-29,-6,64,-5,28,-75,-1,64,16,24,22,21,-80,-14,-8,20,32,-10,14,0,-51,7,-15,41,-38,-21},{-16,-2,-56,34,-10,29,19,55,-10,-48,