//2023-07-19 22:32:01.436493
#ifndef GESTURE_CONV1D_PARAMS_H
#define GESTURE_CONV1D_PARAMS_H

#include <stdint.h>
#include <stdbool.h>

struct Conv1d_Params {
	int input_width;
	int in_channels;
	int out_channels;
	int kernel_size;
	int stride_size;
	int padding_front;
	int padding_back;
	int output_width;
	double out_scale;
	double s1;
	double s2;
	double sb;
	double s4;
	int z1;
	int z2;
	int zb;
	int z4;
	};
struct Dense_Params {
	//I=BATCH_SIZE;
	int K;
	int J;
	double out_scale;
	double s1;
	double s2;
	double sb;
	double s3;
	int z1;
	int z2;
	int zb;
	int z3;
	};
static const elem_t QConv_BN1[3][3][32]=
{{{-128,127,-56,33,47,-15,72,-22,-67,-6,18,-16,-128,-49,2,84,-68,21,-67,-2,-7,9,87,2,-39,-49,-104,39,-122,45,56,25},{-111,81,-51,25,47,-19,-28,70,40,43,23,-128,-77,1,10,59,-30,66,50,6,-109,17,-33,-36,3,-19,-30,13,-71,103,81,87},{-30,8,50,30,12,-31,9,-18,6,27,26,-45,14,8,40,52,-120,-27,-9,12,-97,61,-58,-17,-20,-28,-128,56,-21,48,-96,-39}},{{-24,-35,-21,-42,79,62,60,25,-8,-26,14,-9,127,-49,-8,52,99,29,84,-8,-114,-6,98,19,-13,-37,7,19,90,60,22,-31},{81,-78,-38,47,-65,-41,-12,-26,-5,32,30,-82,87,2,-2,-62,-54,54,43,32,77,-32,49,-29,-37,-45,43,-38,-75,-104,13,45},{1,102,2,-39,-66,44,-19,-38,8,-1,-4,-65,-4,-10,52,26,-47,26,-1,-58,-6,17,-73,28,-6,23,10,-12,-35,-30,-93,19}},{{66,-128,-35,28,38,59,14,-75,-65,12,6,0,-82,-77,1,-9,39,39,-16,43,110,-14,-7,-21,14,-12,48,35,-82,-128,-37,-46},{4,6,-42,58,-29,-45,-24,66,-4,19,12,127,-16,21,-5,-27,103,-11,7,66,78,-61,24,-50,-32,-48,112,72,113,-31,56,-35},{29,-46,27,-26,-10,-22,-37,-47,-31,7,23,116,19,-24,22,-61,127,-19,-9,15,70,56,26,6,-8,53,24,-35,107,-21,33,-64}}};
static const elem_t QConv_BN_flatten_1[9][32]=
{{-128,127,-56,33,47,-15,72,-22,-67,-6,18,-16,-128,-49,2,84,-68,21,-67,-2,-7,9,87,2,-39,-49,-104,39,-122,45,56,25},{-111,81,-51,25,47,-19,-28,70,40,43,23,-128,-77,1,10,59,-30,66,50,6,-109,17,-33,-36,3,-19,-30,13,-71,103,81,87},{-30,8,50,30,12,-31,9,-18,6,27,26,-45,14,8,40,52,-120,-27,-9,12,-97,61,-58,-17,-20,-28,-128,56,-21,48,-96,-39},{-24,-35,-21,-42,79,62,60,25,-8,-26,14,-9,127,-49,-8,52,99,29,84,-8,-114,-6,98,19,-13,-37,7,19,90,60,22,-31},{81,-78,-38,47,-65,-41,-12,-26,-5,32,30,-82,87,2,-2,-62,-54,54,43,32,77,-32,49,-29,-37,-45,43,-38,-75,-104,13,45},{1,102,2,-39,-66,44,-19,-38,8,-1,-4,-65,-4,-10,52,26,-47,26,-1,-58,-6,17,-73,28,-6,23,10,-12,-35,-30,-93,19},{66,-128,-35,28,38,59,14,-75,-65,12,6,0,-82,-77,1,-9,39,39,-16,43,110,-14,-7,-21,14,-12,48,35,-82,-128,-37,-46},{4,6,-42,58,-29,-45,-24,66,-4,19,12,127,-16,21,-5,-27,103,-11,7,66,78,-61,24,-50,-32,-48,112,72,113,-31,56,-35},{29,-46,27,-26,-10,-22,-37,-47,-31,7,23,116,19,-24,22,-61,127,-19,-9,15,70,56,26,6,-8,53,24,-35,107,-21,33,-64}};
static const acc_t QConv_BN_bias1[32] = 
{9465,-4728,8964,-6398,3454,3621,3120,6459,8630,-7400,-11908,7294,3454,11969,-12743,-5062,-387,-8401,-6398,-5563,2118,-5229,-1722,6125,12637,8630,4289,-7233,6125,9966,3621,4789};
const struct Conv1d_Params QConv_BN1_params = {.input_width=100, .in_channels=3,.out_channels = 32,.kernel_size =3,.stride_size=1,.padding_front= 1,.padding_back= 1,.output_width=100,.out_scale=0.004200409793614661,.s1=0.0027647697815224703,.z1=-87,.s2=0.04606728198481541,.z2=0,.sb=0.021266548631468218,.zb=7,.s4=0.030322143649438513,.z4=11};
static const elem_t QConv_BN2[3][32][64]=
{{{-22,44,37,21,8,17,68,21,4,33,-23,-20,88,-73,-17,-1,84,27,-128,14,10,-38,-113,-1,75,-26,40,-128,-30,-27,-14,0,5,-63,-74,-77,-21,39,-20,45,-6,127,53,-128,14,15,10,33,-42,80,34,54,-31,-15,86,-46,69,-103,14,-128,-11,-21,127,7},{-51,-41,8,-26,9,-79,-86,-7,50,-32,36,30,-5,-3,-38,-29,-60,-41,127,-33,-14,-9,-42,59,-93,73,21,-128,-43,-2,-20,16,13,1,83,59,24,-32,24,-60,20,-128,-18,112,17,-27,-39,-65,-16,-14,-116,-128,127,-89,-32,8,-72,-17,-67,29,24,34,-96,-28},{-20,54,-18,-20,-2,-26,90,-30,54,64,-19,-62,49,28,64,51,54,5,23,25,-34,-7,28,-6,77,-29,-70,87,-48,-7,-12,23,20,-7,67,-69,54,46,125,14,-14,127,-110,-128,92,-19,-6,106,28,-19,22,-90,-106,25,46,-28,127,-128,-7,-128,12,58,46,-2},{17,30,-34,-35,47,49,-108,-39,-31,2,53,74,66,-70,-38,12,49,-26,25,-22,-37,6,5,36,70,34,-39,3,-44,-57,-53,-8,-28,17,37,-7,-18,30,-59,-38,16,-7,-68,-128,-24,6,2,5,-10,-26,71,55,21,22,0,-22,15,12,2,60,-31,-62,80,24},{-10,-54,-52,34,70,19,89,5,-36,-77,-20,37,14,-31,-21,-5,18,7,-32,2,-16,-12,-56,59,5,14,30,96,-12,5,49,-108,-75,16,-19,-63,12,-41,-83,5,2,-40,46,127,10,-46,-10,-22,-42,-38,127,-76,86,-16,-52,-11,74,56,-14,-40,-48,90,72,-63},{26,8,1,38,83,36,-44,-69,-47,-29,-75,46,15,-33,-73,-71,-18,22,94,-33,-44,-18,-32,-28,41,-43,28,51,34,-5,-8,-25,-86,-25,-76,-26,45,-75,20,-57,-10,-20,-27,-128,-4,0,-22,25,-54,76,-54,102,-10,1,-44,-24,-43,-51,-8,19,-35,-85,-25,3},{35,52,-79,-31,4,4,-128,-12,14,10,37,71,49,-11,-56,-35,-21,-73,-15,-24,21,25,34,-46,-5,-22,3,127,-29,37,-26,-51,-50,-47,10,-74,-55,-91,-13,24,25,62,-2,38,13,-69,-28,28,-18,-72,-128,47,98,49,-61,-35,127,100,-14,17,-32,-27,-44,-41},{-11,-7,34,13,39,20,125,-75,17,-54,53,-4,50,-13,-58,-24,55,-18,-88,-35,6,-25,-21,-19,59,-28,3,-107,37,-21,-2,22,20,-74,89,1,-5,38,30,53,38,17,-61,7,14,9,49,55,-33,77,-5,60,-118,75,20,38,25,-59,4,123,7,-4,120,3},{-41,32,-35,37,-15,-32,76,15,-13,55,52,-47,68,51,16,40,79,-24,25,-55,-55,28,-14,-2,92,-16,-19,-61,41,32,-17,-2,7,-23,-48,-23,20,12,6,-14,13,16,-13,7,-13,14,33,66,-21,-43,127,36,-90,51,55,-27,-22,-82,-27,62,-43,29,119,5},{-36,64,-24,49,15,-13,-50,29,14,65,-55,-18,45,5,-92,9,56,36,-128,20,-39,26,-15,47,60,3,19,124,10,-1,-40,-37,-6,0,-61,14,31,-43,-54,40,-3,105,-23,10,-4,-27,47,55,56,-15,-128,99,-22,51,16,13,7,-5,-42,56,-33,84,127,10},{92,-46,46,-8,-1,-61,114,-93,34,31,-38,40,28,21,-18,23,0,-13,24,-50,-40,11,-69,5,39,-29,-2,127,-18,-19,0,-7,31,-2,-23,-44,68,-26,-38,-27,16,-63,-12,-22,53,-44,34,15,31,15,127,1,78,-34,-50,-12,-27,52,-4,20,-10,53,-128,28},{-18,127,23,68,43,-27,127,-42,15,-2,20,0,-48,15,58,0,2,32,-79,-95,2,2,51,-50,27,18,-14,-128,7,-1,-33,-49,17,-40,36,34,49,-67,16,-24,57,-72,-30,-128,40,-61,-32,118,-32,77,-128,106,-42,98,79,-54,127,-96,63,-128,-18,-110,122,8},{10,-44,-17,65,-69,-66,-22,69,12,-43,-36,-2,-40,-52,-32,-72,32,-28,-128,36,53,-8,-4,72,-38,20,45,83,32,30,20,-14,38,26,-46,6,13,-21,83,-21,-22,127,70,-128,-40,38,6,-11,16,-84,127,-23,-3,10,37,-21,-15,98,31,33,41,71,89,19},{-53,13,4,-6,27,-12,127,-65,-42,8,-87,-23,77,-4,17,20,30,5,9,33,15,-16,-1,22,-6,-9,30,-85,52,-7,40,-5,11,-16,45,-3,6,7,-15,-22,61,127,-48,127,-47,12,-12,21,51,96,-33,21,69,9,-39,-28,-39,1,27,-48,21,26,33,39},{-37,31,33,6,-15,-128,-78,-67,38,66,-17,102,-51,-8,34,-13,27,-20,-48,-86,-9,54,-77,-37,71,90,-56,-126,22,18,-4,20,-4,-21,-36,35,57,-28,-39,-22,48,94,-20,109,9,21,-29,-13,40,45,-46,70,25,2,29,7,86,14,11,70,-20,26,58,-33},{-97,-27,-44,-45,42,85,-81,-8,-16,-1,-15,-34,56,15,43,-36,-58,6,3,90,-70,65,-14,-70,56,38,66,-52,78,6,-58,26,56,-18,32,-65,-13,-33,-50,-17,-3,69,-49,17,31,14,10,35,51,79,-75,2,-80,17,-21,34,-114,-14,-68,21,-15,-10,-110,4},{-43,17,25,37,4,-63,1,15,-22,44,65,5,104,18,49,-28,-18,-9,54,-17,-54,20,46,-116,-58,-12,-8,127,13,1,-7,-17,24,-9,11,2,61,29,-45,15,25,-128,53,-128,-12,38,-16,-39,57,72,-48,10,43,32,-45,-31,-128,-38,-29,18,-20,-45,-61,-16},{79,3,55,45,53,-18,101,59,-12,-16,-3,15,39,-41,71,2,33,11,-62,-47,18,1,-33,-31,-72,1,2,-20,-57,38,-28,-4,13,25,61,7,69,-28,95,65,12,-70,-42,-128,19,-29,29,58,56,51,50,12,45,34,57,2,-48,59,-45,3,-52,-45,46,26},{-50,-83,8,31,43,-108,57,30,11,61,-30,39,78,-18,-12,-6,-6,-12,-53,54,6,43,-16,37,36,-23,10,-128,26,-5,30,-44,42,33,-78,-1,36,32,30,-15,12,74,-21,-119,5,16,45,-54,62,21,122,-128,-20,11,-30,-13,127,-24,-16,-88,1,-48,21,17},{-26,-18,38,-5,25,13,80,-20,-37,9,2,26,-52,-31,13,-15,22,20,-51,-25,-54,34,17,-41,-15,10,-31,63,18,16,-101,-8,-14,-25,-26,-60,-18,-45,2,-65,-40,-128,21,127,-4,25,-30,-33,-28,8,-128,-9,2,-13,34,19,44,-58,-18,6,29,74,9,13},{45,-53,10,5,-40,-21,-128,-25,28,-32,-55,20,10,-71,-20,-77,-5,34,15,25,-40,-25,36,-40,-12,50,-23,49,-50,-34,-34,-1,30,-5,25,-49,2,52,-58,-12,21,-41,-24,127,-8,48,-6,24,65,-59,127,-46,46,33,30,-26,-37,-118,48,6,69,-71,-93,26},{-50,-34,-40,6,68,-15,70,-19,28,-19,-6,19,-25,11,16,-54,-57,-18,-59,1,-3,62,22,-6,-47,3,-10,117,-17,45,-62,-14,3,-47,-38,40,0,11,31,37,54,-109,-50,-128,-42,-58,28,-22,-73,27,-128,24,-79,-36,55,-40,51,81,-55,23,30,17,108,-43},{34,-94,-9,54,83,-7,-128,-18,28,72,14,4,65,-67,0,-30,-8,16,62,6,-27,9,-39,-23,30,20,-23,14,-17,34,48,5,-65,-34,-128,-6,-14,22,-33,42,43,-62,50,127,-62,25,22,31,11,0,-42,5,85,42,63,-2,14,39,51,-36,-27,-96,-24,-16},{79,48,28,61,34,35,116,-12,18,47,-70,1,-7,-44,-13,-16,-24,58,88,-61,18,-10,-20,-17,-32,26,-18,126,39,-1,-41,26,-31,-2,-5,-28,26,-58,24,34,40,68,45,-128,9,8,-17,69,-72,68,-128,126,55,70,41,7,127,-62,-26,-103,-26,-64,127,-4},{-33,30,19,-8,-17,19,127,113,-63,-35,9,-17,19,-44,24,-14,-10,-13,77,-59,-10,5,-33,6,-57,4,-49,22,-24,-29,-22,13,-14,0,62,-75,9,9,4,25,-53,44,9,35,2,33,7,-13,-69,-33,-83,127,83,26,3,17,-14,-50,28,-53,-60,-32,82,28},{-59,72,25,52,12,-49,127,-10,23,80,-40,8,45,-25,62,28,-6,29,-53,-21,0,17,-30,-46,92,6,-44,-128,-40,-35,33,-32,26,-26,1,-81,37,20,-25,30,31,107,30,-83,23,18,37,2,-34,40,39,35,-1,65,17,-66,70,-42,52,-44,21,-78,-18,23},{-28,57,11,82,32,19,73,-81,-27,12,115,32,20,-14,10,-96,-49,11,-128,-15,-39,31,21,37,78,42,18,-128,3,10,36,3,-10,-59,36,102,44,68,70,68,-27,20,-72,127,-69,37,29,38,-48,-27,-73,-89,-128,41,20,11,-95,-110,24,-128,25,-32,-50,34},{-5,111,7,-20,6,35,47,21,18,9,37,-18,60,-7,3,-64,-20,7,-41,46,-24,-2,-15,-62,36,-32,16,-30,-63,-19,-2,3,11,11,57,-39,36,-46,-61,26,15,-13,-52,127,43,-29,21,30,-42,77,-68,25,-5,94,14,11,45,26,-48,88,-21,-20,-40,-21},{-53,-81,-9,47,27,53,55,-15,-21,-3,-29,-72,80,-46,-4,-40,-35,-12,-128,59,0,13,-36,0,69,22,32,20,31,23,0,14,13,-50,-90,-55,-19,38,-27,-35,-16,98,36,25,-16,16,21,31,34,-40,91,-119,-25,-17,72,16,100,-16,11,-78,7,31,37,17},{97,-65,15,-12,-48,68,-128,-41,-52,-1,-29,-19,-1,64,41,17,5,15,16,-82,-14,-26,-44,-22,-72,24,-8,74,46,50,-42,-22,-43,18,20,-76,5,-44,48,56,29,62,20,-112,-26,1,25,-25,-59,-17,127,83,33,45,-18,53,-128,71,-36,127,-42,58,24,16},{40,-53,56,14,96,-38,-49,-61,17,-9,-31,54,-113,23,-49,-128,13,-26,-82,-18,-46,-9,30,13,36,-13,-18,-65,-51,-29,-47,-23,13,14,96,63,88,25,50,60,31,-107,-49,7,64,-1,8,-11,-39,23,-48,-79,68,34,-36,-11,78,55,59,-110,-29,31,-128,-6},{7,-44,18,23,-21,-32,-17,6,24,-7,21,25,-5,-10,5,23,40,-30,-77,-95,-46,-8,-65,14,34,-10,63,91,3,-42,-69,3,-1,-15,-1,38,-26,-23,43,59,1,-86,-12,-128,-8,-3,20,15,32,-27,127,-13,-57,-42,-11,4,-78,-15,-5,127,21,55,21,3}},{{91,50,28,28,9,37,127,-40,7,-28,57,-7,50,-45,56,-44,67,50,-128,1,27,1,-96,-63,-15,12,-26,-48,-9,13,-28,-43,10,-36,-34,-26,-7,15,-59,65,63,19,14,29,32,-22,11,27,-4,40,-128,75,65,40,6,-6,31,55,15,-44,-16,30,127,11},{-11,1,25,17,40,-128,-94,-6,-10,0,-9,70,27,32,31,-38,10,46,115,4,-18,31,15,46,72,65,0,-116,4,23,-17,0,-29,-26,-31,9,8,-6,65,-10,9,-128,15,11,7,-42,26,-68,64,-56,-128,-40,33,-54,31,-1,-128,35,0,-3,-39,43,-128,-21},{53,8,18,-11,6,14,127,21,38,-6,77,-39,89,-28,67,11,9,64,73,12,-23,33,7,-45,51,-36,-83,63,-104,-10,-32,-3,-17,-22,79,26,28,72,30,-41,27,-23,-68,-128,82,-27,8,35,85,39,67,-55,22,-45,-1,-35,11,-98,-51,6,22,-57,-112,24},{18,61,1,34,44,-40,61,-34,-9,-34,22,61,-24,-103,-24,-3,-32,4,127,-27,-66,40,27,19,-55,1,29,-14,-12,-39,-104,-20,-24,-37,-61,4,9,-46,-4,-53,-13,43,-48,-53,28,6,-3,-27,45,42,-96,95,-6,4,-8,-3,7,-77,-44,-2,32,-23,2,47},{-30,-39,-16,46,-18,-70,-104,-83,-13,-31,-1,11,77,29,-28,-59,10,48,-128,66,10,24,-24,4,14,30,26,-52,-88,35,66,-111,-116,-17,-111,48,-9,-60,3,33,23,-36,-20,-128,13,-54,0,-15,37,-54,45,-95,-50,-45,-28,-38,-1,-9,-66,86,-81,-4,42,-42},{85,50,-36,89,55,35,50,-58,27,39,-39,70,-66,27,12,-13,14,70,-64,61,-4,45,22,19,-34,-74,9,-53,-65,16,-18,-46,-88,-9,-5,-65,61,-64,-19,87,-2,-45,-59,-41,65,-53,22,69,0,-49,-123,-43,-73,96,-34,-23,-5,37,-37,-7,42,-18,-64,8},{19,-19,-75,48,35,-3,-12,-59,-59,-61,-11,7,-28,49,14,15,-33,44,-65,-8,30,1,47,22,-42,-41,-37,113,-72,-8,-41,-61,-17,-28,-69,37,-43,-90,-27,-26,0,-63,49,-37,-31,-55,27,-12,14,58,-89,-21,-47,34,-26,-33,12,62,-75,-8,-29,88,3,-5},{-1,16,6,-37,-8,-17,-11,-2,10,-32,64,-5,65,38,-4,-27,-48,57,55,-63,-16,33,-4,14,-42,11,-1,127,33,-8,22,12,-6,-39,127,88,-25,-14,-18,81,38,-88,7,-40,-60,-26,41,27,62,52,41,-72,-41,0,-75,-19,-128,-12,41,-31,-28,-45,-27,-13},{-50,24,-27,-34,-58,2,97,-28,-35,-7,-70,-40,-29,48,50,64,18,68,-31,-17,-52,30,-31,-39,74,-20,8,-128,-44,-19,35,-25,4,-14,-13,-17,29,32,60,58,41,-82,-46,-31,23,23,34,28,78,-26,-39,-9,-59,38,-19,-5,12,-74,-10,42,-23,-53,21,-18},{-21,65,40,-25,-33,-44,-128,-97,34,69,14,39,-74,-23,-60,-53,-9,-10,55,-46,1,11,-65,65,23,30,-44,-26,-42,-33,-73,11,-34,-16,-59,-46,53,-23,-2,-46,0,119,-48,-79,-19,-20,47,45,80,-17,-128,-2,-38,15,-50,20,-75,-27,25,55,52,-10,66,22},{-2,-25,55,8,-17,-43,-22,-110,24,-56,-24,-13,-29,-11,83,26,36,-27,57,-49,-28,50,3,44,-1,51,-26,54,-11,2,-19,9,-31,-23,-50,37,15,-14,-104,9,-23,-97,-6,127,64,-15,-10,16,-36,74,116,-79,51,-22,53,14,-13,30,-39,-75,-30,-4,21,-18},{-47,127,-38,85,93,22,119,31,31,46,0,24,94,-50,-30,-9,-37,-52,-128,1,24,45,36,-21,-21,7,-33,-89,18,-16,60,-9,-41,-39,8,32,-20,-22,44,51,5,8,-39,11,45,-92,38,49,-79,-20,-128,-8,25,71,12,-15,127,-48,27,-114,7,-22,4,36},{58,8,-36,13,-63,-59,-111,-27,35,-40,-8,-19,44,-46,-38,-108,24,6,-29,-51,33,-1,-56,51,75,-37,-22,41,-36,57,-13,-7,-42,-29,-41,-45,42,-21,87,60,35,26,74,-77,-7,5,-6,20,111,0,91,-24,-101,-43,-1,-30,-63,37,11,47,44,80,10,-36},{-33,78,10,-27,1,42,127,-19,14,30,-58,48,73,-56,8,37,-35,64,-54,62,19,1,-21,-21,42,-28,-8,81,17,45,-51,-31,-15,-26,8,51,50,34,-44,7,66,11,40,91,19,-1,47,70,47,92,25,127,-38,50,5,14,-76,7,-1,16,-18,36,78,24},{19,-28,-5,40,28,-101,-119,-48,32,55,19,36,-67,27,-29,1,33,-24,-128,-66,4,53,-20,-44,67,120,-54,-39,-4,43,-15,-21,-10,-57,-9,-19,65,-34,-12,29,14,127,69,-127,14,-4,21,15,31,-78,23,4,71,-51,73,-17,-40,9,12,-13,-21,120,-95,2},{10,-44,-60,-9,41,-22,87,-128,30,18,32,-32,41,-8,40,50,-28,-42,-59,66,30,17,18,4,78,-36,30,65,-6,9,26,-23,26,37,61,14,-6,-20,28,-9,56,-39,-5,-128,30,15,10,14,7,29,50,81,-105,-31,-18,2,-85,-87,-39,36,16,60,-106,-28},{-69,23,-39,31,37,-42,31,-74,-29,44,49,-18,71,0,26,11,-1,18,109,-22,-61,-2,9,-78,-89,29,-24,-95,-69,-60,43,-46,33,29,10,-69,-35,-25,119,-34,5,23,10,-128,27,21,-30,25,-18,101,-96,-8,57,12,-19,33,-128,33,-17,-27,-5,2,61,27},{-4,68,-9,36,15,-17,111,113,2,58,-17,32,43,30,77,-32,58,74,39,-50,26,52,-28,-29,33,-21,-1,127,-1,-22,45,-23,36,10,2,28,34,28,51,47,-18,-71,-43,80,51,10,22,31,-12,68,-68,-36,62,71,88,-6,12,63,26,-76,-19,-12,73,5},{-7,-19,-36,20,63,-92,114,21,-36,22,-27,13,21,10,-10,-27,-33,-52,-98,28,-39,15,-1,-27,32,42,-27,-82,-40,39,-62,12,14,-36,-62,-47,-37,-21,-52,0,19,-49,19,36,-46,-24,25,-54,5,-38,127,-93,21,-74,-48,9,64,-15,-8,25,2,51,44,-8},{3,57,-24,26,11,37,-52,49,-27,3,50,60,-7,-88,28,-55,-13,1,-5,39,-35,-28,-14,-36,61,11,15,4,-48,-45,-126,-31,-31,-6,68,-21,14,29,61,18,13,11,13,-74,51,24,-15,-10,-55,40,103,15,-71,-57,-15,5,68,-90,3,-50,-5,-43,32,46},{3,-72,6,-24,8,-35,-128,35,12,34,49,13,-6,-55,-62,-72,-38,35,75,-22,-62,33,-42,34,-37,-48,-23,87,-26,28,-51,-21,36,13,-30,-25,-22,2,70,-6,-17,-14,-121,-128,-35,12,20,18,8,-29,114,-45,-30,-28,-111,-38,-128,50,5,58,-4,8,8,21},{55,-47,28,16,-11,36,-48,6,33,3,-20,-7,-43,18,-35,-29,-64,-17,1,29,21,57,29,-26,12,52,-36,-45,-40,-26,23,-2,-14,0,70,49,72,11,46,12,-14,11,-59,-103,37,-30,-26,-23,-52,34,-36,-33,-128,51,-13,-40,-47,81,-17,-21,-15,57,-61,-52},{12,2,-33,53,-23,-4,-36,-109,23,75,111,10,-18,-2,-46,-18,-74,27,62,-8,8,-27,-13,-87,-117,14,60,25,-10,3,-14,-17,3,-50,-30,38,-13,18,79,5,34,-43,-7,17,-58,-45,5,-32,80,-64,85,-40,-30,-29,49,37,24,20,-38,-112,-53,-64,75,-1},{34,56,14,25,19,15,-91,65,9,-16,-11,-27,38,-38,-43,-40,47,82,51,-7,10,9,-22,18,3,-35,24,94,-15,17,-29,-8,-47,-32,-61,49,-6,33,-58,67,0,-119,15,127,-15,-29,-22,72,-99,-64,-38,-14,42,65,-23,-51,-65,41,-50,47,-7,42,127,-23},{-68,4,8,30,4,61,-70,79,-79,-16,17,56,-80,-4,-46,-46,44,31,-19,-50,14,-5,-9,0,-46,-21,-39,-30,-48,18,-47,-18,-12,-16,35,17,35,26,6,-48,-15,112,66,-128,29,26,-8,14,-24,19,18,-5,87,-53,15,-11,-34,21,-6,101,-68,78,72,0},{40,127,27,-3,-23,-27,-35,63,-25,80,-11,-32,-92,-26,60,-26,60,64,109,9,38,-15,19,8,73,24,-75,127,-52,-32,51,30,24,-8,39,22,60,-25,44,78,29,-26,10,108,36,-27,52,90,17,37,89,-20,-4,98,-7,-38,-115,-1,1,-61,25,-75,-71,35},{-60,42,32,14,57,2,-16,-16,15,5,-19,10,13,7,-54,-85,-51,31,-17,63,-48,33,30,-27,-3,-8,-5,-128,28,-51,-33,0,15,-105,-25,107,49,30,81,55,71,114,-28,127,55,-16,-5,65,25,41,0,19,-107,16,-32,-33,127,13,41,19,63,-60,-60,-29},{-57,52,7,-1,-12,2,-123,9,36,65,-31,-56,-38,8,48,-48,-32,28,-69,-9,-32,4,28,-22,3,29,41,-128,-44,9,25,-28,48,16,-35,-20,5,3,40,-6,6,49,33,-20,-27,34,37,-5,37,-8,45,-2,-90,13,70,-7,116,46,-27,88,-105,40,8,40},{74,-22,20,11,-13,-13,-40,6,30,10,61,10,99,-84,-41,15,-27,-11,-67,44,-34,-14,1,28,-42,26,-23,53,-2,4,58,2,5,-45,15,19,50,24,15,-35,-21,-52,-47,71,-5,4,-14,-9,94,-57,50,-28,1,45,-48,-4,-91,7,-5,-51,-5,-30,33,6},{72,9,52,61,-2,38,-128,50,-66,52,-15,39,77,40,-3,23,68,79,127,45,18,47,-51,3,-103,26,-29,62,34,-21,18,13,24,-6,17,-8,15,56,50,-10,0,-94,15,127,47,-6,23,7,47,24,-85,-13,65,7,-42,46,41,29,-12,-5,-50,127,-56,8},{114,13,-2,-2,38,0,-40,56,0,34,95,45,57,-29,-55,-36,-36,13,48,16,-10,-24,-40,-47,-39,7,-93,127,-23,-86,41,-27,-56,-60,-3,81,98,-19,-12,108,12,127,-59,-56,-10,-33,-32,-18,16,21,-54,48,-22,-30,57,7,-51,75,13,60,-34,-9,-85,-49},{44,69,19,-38,-34,-1,-111,-98,-7,30,0,73,-63,65,14,-3,-31,12,91,-62,13,32,17,-34,19,-8,37,60,-22,13,-45,-31,-16,-35,49,58,53,29,-77,64,22,-128,5,-66,-12,24,42,19,-52,60,-40,-55,-39,48,-39,-19,-53,42,-23,-45,19,-1,25,33}},{{40,17,-17,-2,-10,-9,29,12,8,24,-128,-5,-99,0,-6,9,76,-24,25,-63,-30,10,4,-65,28,-25,-46,-50,38,33,44,12,34,-9,5,105,64,-29,-59,65,-10,-10,57,30,3,11,47,-14,29,11,57,60,45,81,11,-5,75,14,-10,-41,-2,-53,81,18},{12,1,-2,26,78,-64,-72,99,-23,44,71,31,32,52,-66,22,8,23,127,60,31,0,71,29,-50,92,-12,-92,25,54,-39,-2,65,38,-28,76,39,-40,-88,30,-19,-128,-30,-36,-84,-20,19,-83,-1,-91,-128,-44,7,-13,2,-8,54,-9,5,-20,-64,75,-73,0},{-8,-23,-16,37,-52,41,-62,19,31,36,34,-104,-16,-2,14,37,55,53,-30,23,-34,70,2,-21,58,-29,-76,-31,-85,-32,17,-28,50,20,6,-14,0,-6,67,27,20,71,-81,127,94,15,16,46,67,-65,127,-13,49,15,4,-58,-117,3,-63,-66,-31,-7,-128,-8},{5,72,19,21,52,-29,24,-58,26,54,-63,-1,24,-58,-57,-44,-20,30,114,23,19,20,-9,26,-72,16,-27,64,-41,-55,-64,22,-10,-26,-11,5,45,6,59,-22,-6,4,-84,-47,60,8,33,37,-42,22,-128,119,63,46,54,-9,25,-44,-16,21,26,25,31,-6},{107,55,-57,-22,35,-79,23,-56,2,-102,13,35,72,42,-44,-3,-49,58,-84,-23,-7,32,-27,14,-84,-43,15,-66,-43,56,16,-113,-63,-12,-86,-79,-12,-70,-84,52,-43,-4,54,127,30,-69,-44,35,47,52,127,5,-53,11,-60,-40,52,0,-38,87,-15,127,39,-69},{127,66,34,54,41,108,32,-83,-24,6,-6,7,-15,48,-9,-4,36,57,71,65,6,39,12,42,-47,-50,-58,75,-63,-40,10,-15,-22,-14,-47,-69,-17,4,77,87,55,-126,-71,127,73,-30,-25,29,79,6,103,-67,-93,56,-40,-60,-128,-4,-58,29,46,16,-14,-33},{-7,61,-65,33,48,-43,-58,11,-60,-66,21,13,-31,23,-21,-42,-47,71,16,68,-22,41,-17,25,66,37,-35,-27,-44,35,28,-55,-46,-16,31,-82,31,-35,17,91,-27,101,-20,61,0,-73,-11,48,73,-15,127,-67,23,34,-110,-47,-24,52,-16,-44,0,78,-39,-65},{-30,-36,6,-18,-24,-9,-90,43,-24,-6,16,55,11,14,4,-16,-60,57,127,-64,-63,11,-53,-79,-116,-9,32,127,7,46,-3,0,-11,-44,127,55,9,55,-27,45,62,-128,-53,-128,-3,22,2,-51,58,33,-35,43,0,62,-13,-16,-128,-9,-36,101,-34,33,-76,1},{0,55,-39,-47,-13,61,-53,52,18,23,-31,14,69,-24,-25,84,51,43,117,34,-57,0,-73,60,-31,-14,-10,127,-12,19,37,9,44,-5,32,19,-10,30,-85,55,15,38,-27,-26,7,37,17,-49,87,97,-79,-17,-28,-16,30,42,-119,-6,-11,-70,-47,16,-66,-15},{79,-6,52,-17,1,76,-128,-47,33,-28,-38,32,32,-37,-91,-28,-27,-9,100,13,27,-22,-14,28,-38,59,6,-42,-36,34,-64,-28,-23,-40,8,-57,-1,26,-56,19,36,-8,8,127,-28,9,32,-9,-13,-24,127,37,25,55,32,30,-75,-7,42,-63,1,67,-5,34},{-28,-46,10,8,11,-32,-42,-51,-17,22,-29,49,-5,17,33,4,72,-2,-77,2,28,34,36,-14,49,6,-60,94,6,41,4,-45,21,-1,-52,-64,29,-35,-69,-63,48,14,50,127,16,0,10,46,13,-22,127,-118,27,-15,-17,4,-79,49,-29,46,31,-4,45,31},{46,6,-30,44,85,-88,88,-10,29,28,-45,44,40,-20,6,9,20,-100,-114,-75,-22,26,35,6,-52,42,29,-128,72,-62,-39,-36,-2,-36,-4,44,55,1,46,-98,42,-128,-82,-125,-27,-69,17,49,20,-50,-128,17,-92,39,47,-44,127,39,-59,1,36,-128,127,-6},{-52,27,5,-27,27,-19,-128,8,-25,-20,51,23,-38,30,-40,-61,18,-25,25,-13,-30,-22,-50,-1,-9,17,5,-19,-11,56,6,8,26,-39,-14,42,-35,17,48,46,26,-128,-59,73,-20,-23,41,-65,54,-1,-128,-128,20,-45,5,27,30,104,12,-90,12,-52,-52,12},{28,93,-24,-25,-57,42,13,-11,-12,22,-128,61,-70,-26,-13,-9,-27,56,23,69,24,34,-44,-42,-16,-15,-3,127,42,68,3,-38,0,-39,127,15,7,-17,-100,2,66,-82,1,-128,-49,-38,31,54,21,112,-69,50,-12,80,32,47,45,-46,-29,24,-19,-3,-128,28},{34,-34,8,-2,-3,-110,-55,65,59,77,-39,88,-87,-54,42,19,-12,23,46,-74,41,-10,-70,-22,63,60,-37,-76,-42,-34,19,43,-24,19,63,-6,51,-4,-91,-11,43,5,33,-105,-65,7,-44,6,-46,10,127,11,57,31,24,-40,127,68,-24,81,0,127,-59,-1},{-91,19,-9,-54,34,72,42,-128,-43,-20,36,24,80,-11,36,26,-59,5,57,71,21,9,36,-14,75,14,43,-128,18,-15,2,-24,-30,1,83,23,30,0,28,-63,28,124,-24,127,12,3,-23,32,-30,94,73,65,-42,-36,-39,4,47,-72,-57,-64,10,39,30,-9},{-22,57,0,-60,41,-118,113,-25,28,22,107,-36,-9,-30,-21,-28,-16,-56,69,-109,-128,-3,74,-107,-113,20,-26,-128,-11,-11,9,-29,-18,7,-36,62,16,-35,-26,-36,-19,-62,-59,-128,-1,-49,-3,16,32,54,-71,-71,127,10,17,37,-68,57,-19,-74,6,-47,127,12},{98,-9,37,-1,-7,18,16,70,-31,55,-25,34,-49,32,-13,-38,12,76,-128,-16,-46,-18,46,-45,100,-19,-2,21,-64,-20,17,22,-11,5,-19,2,54,22,41,64,-18,19,41,127,34,-26,-6,39,-1,44,-68,53,-85,57,7,-6,-128,-46,22,-48,-17,56,-58,-24},{-105,-79,-22,14,71,-15,-128,-74,28,3,54,-9,-66,19,-80,-35,-17,-18,11,-35,-32,30,26,11,42,37,-14,-27,-21,-4,31,3,-4,-18,-48,-80,-12,-51,79,-16,-36,22,-53,-128,-42,6,36,-38,-22,-41,-35,-128,-56,-25,-34,1,-8,-82,-21,52,13,-17,-46,29},{15,-4,28,14,-47,56,79,57,28,11,-52,60,-32,-75,-42,-33,-1,-48,-46,-7,-23,11,-44,53,62,-25,-37,53,-36,-59,-128,-2,-9,-6,-46,19,32,44,-57,10,8,127,-37,96,47,-39,12,30,-85,-21,-98,10,2,-4,-37,-1,-97,-52,-8,17,-10,70,-94,32},{-30,30,-8,8,69,-58,-8,126,39,-36,-54,26,-90,-70,-15,-37,-54,29,-38,-35,-113,21,70,-32,127,-1,-9,-128,13,10,-13,-30,8,-31,7,57,-7,-2,-85,-36,-18,106,-127,127,-51,-16,-7,54,66,8,-128,-128,26,36,5,-45,-27,1,-35,-43,44,-28,54,-23},{-30,57,48,-33,-12,-40,-78,79,16,-36,45,37,112,25,-8,-52,-61,51,18,66,19,58,4,3,111,-29,-65,127,16,17,35,37,22,24,-17,15,45,54,57,-8,42,-18,-94,127,-2,7,17,-14,-31,15,127,-59,-118,46,-1,-4,-105,-19,-28,51,-6,43,74,-31},{4,49,2,53,47,-81,127,1,37,61,75,43,43,17,-48,-13,-48,31,38,-4,-13,20,49,-100,-86,22,25,-128,-31,23,19,-52,-15,-76,20,2,-21,31,84,61,54,-6,7,-128,-82,-41,3,-68,-9,-50,-28,-94,-1,-33,36,-6,-128,40,-9,-90,-39,-55,107,-6},{127,12,-22,22,43,-8,-128,37,-25,19,-67,6,-38,41,22,46,26,103,127,-40,6,-5,30,42,83,12,-60,-72,22,69,-39,26,40,35,-38,-81,3,-23,79,80,49,-79,12,127,21,-28,-18,-32,10,-63,127,102,-54,92,50,-26,-128,21,20,89,-37,67,-123,22},{44,-59,33,47,-24,69,-128,18,-75,-13,62,-15,-75,16,-7,39,43,24,-77,-37,37,-35,-38,18,84,-23,-80,-16,43,21,-66,6,2,60,-75,-41,12,37,-94,-39,13,68,-18,94,-4,-18,1,-13,1,-75,127,127,97,-26,41,33,26,46,-26,29,11,11,-78,12},{43,44,-9,68,-34,-49,-128,-29,14,-29,-79,-36,-100,5,0,-25,49,9,87,11,18,39,8,65,37,31,-47,-70,18,8,-13,3,50,-16,-97,-22,56,-6,48,100,43,-57,-28,127,75,11,47,-15,-15,38,31,-45,-34,32,24,-20,-128,-40,-47,-61,-1,42,-128,-9},{10,-66,43,-52,71,-69,111,127,11,-67,-8,63,44,-86,-16,-61,-37,-31,-91,-40,-68,-5,77,-43,-13,-29,8,-33,44,-27,-3,-34,46,-80,127,127,-29,18,-30,-31,11,110,-122,127,27,-26,32,-4,51,46,-128,-60,-43,-82,-91,-31,-49,16,-51,16,-13,-110,111,29},{37,-37,-7,15,-60,-22,53,-8,18,-20,37,-26,91,38,43,16,-37,-21,-70,-82,29,-20,-26,-17,84,27,40,89,-53,-58,11,-6,-26,32,-38,8,51,27,89,32,-21,-30,44,-128,-23,16,33,-16,11,69,-128,47,46,32,67,38,127,33,-14,36,-103,-32,31,34},{68,-16,40,-12,28,-47,127,104,22,-41,23,-22,6,-62,-39,-27,10,-55,96,6,-69,24,49,-27,-128,47,22,-94,-18,-11,36,-28,33,-16,-55,79,-16,37,4,-19,-24,-128,-6,-78,-89,-13,59,25,-14,-39,-128,-128,62,-37,-61,5,72,33,28,-10,26,-20,89,-17},{127,99,26,-21,-101,-37,-128,59,-43,-34,-120,-26,44,39,29,17,68,44,127,18,-17,-20,-60,-23,-128,10,-6,127,-22,32,23,38,56,44,13,-12,-3,6,0,1,-18,-128,20,48,8,-41,36,-27,-37,99,48,50,-15,93,-68,70,-36,20,-10,127,-49,8,-128,14},{112,19,25,23,19,-12,-128,73,47,-15,88,82,-69,12,-72,-82,-64,32,7,-18,-41,-24,40,-32,3,-17,-12,-8,4,-85,44,-9,-33,-59,127,127,80,2,-57,61,-49,57,11,-3,29,-9,26,26,56,-11,43,-10,-90,-56,-28,-38,0,118,-23,-45,20,-40,-115,-2},{62,-55,-9,-24,-91,21,-110,-69,-2,-61,-27,-15,-43,97,2,0,12,48,-33,49,-15,22,-88,-67,80,25,18,127,15,-22,-8,-49,-47,-46,42,-26,-7,44,-11,52,21,-128,72,-128,-64,-19,-6,-3,70,63,127,-65,-52,14,-58,20,3,37,-16,90,17,35,-128,16}}};
static const elem_t QConv_BN_flatten_2[96][64]=
{{-22,44,37,21,8,17,68,21,4,33,-23,-20,88,-73,-17,-1,84,27,-128,14,10,-38,-113,-1,75,-26,40,-128,-30,-27,-14,0,5,-63,-74,-77,-21,39,-20,45,-6,127,53,-128,14,15,10,33,-42,80,34,54,-31,-15,86,-46,69,-103,14,-128,-11,-21,127,7},{-51,-41,8,-26,9,-79,-86,-7,50,-32,36,30,-5,-3,-38,-29,-60,-41,127,-33,-14,-9,-42,59,-93,73,21,-128,-43,-2,-20,16,13,1,83,59,24,-32,24,-60,20,-128,-18,112,17,-27,-39,-65,-16,-14,-116,-128,127,-89,-32,8,-72,-17,-67,29,24,34,-96,-28},{-20,54,-18,-20,-2,-26,90,-30,54,64,-19,-62,49,28,64,51,54,5,23,25,-34,-7,28,-6,77,-29,-70,87,-48,-7,-12,23,20,-7,67,-69,54,46,125,14,-14,127,-110,-128,92,-19,-6,106,28,-19,22,-90,-106,25,46,-28,127,-128,-7,-128,12,58,46,-2},{17,30,-34,-35,47,49,-108,-39,-31,2,53,74,66,-70,-38,12,49,-26,25,-22,-37,6,5,36,70,34,-39,3,-44,-57,-53,-8,-28,17,37,-7,-18,30,-59,-38,16,-7,-68,-128,-24,6,2,5,-10,-26,71,55,21,22,0,-22,15,12,2,60,-31,-62,80,24},{-10,-54,-52,34,70,19,89,5,-36,-77,-20,37,14,-31,-21,-5,18,7,-32,2,-16,-12,-56,59,5,14,30,96,-12,5,49,-108,-75,16,-19,-63,12,-41,-83,5,2,-40,46,127,10,-46,-10,-22,-42,-38,127,-76,86,-16,-52,-11,74,56,-14,-40,-48,90,72,-63},{26,8,1,38,83,36,-44,-69,-47,-29,-75,46,15,-33,-73,-71,-18,22,94,-33,-44,-18,-32,-28,41,-43,28,51,34,-5,-8,-25,-86,-25,-76,-26,45,-75,20,-57,-10,-20,-27,-128,-4,0,-22,25,-54,76,-54,102,-10,1,-44,-24,-43,-51,-8,19,-35,-85,-25,3},{35,52,-79,-31,4,4,-128,-12,14,10,37,71,49,-11,-56,-35,-21,-73,-15,-24,21,25,34,-46,-5,-22,3,127,-29,37,-26,-51,-50,-47,10,-74,-55,-91,-13,24,25,62,-2,38,13,-69,-28,28,-18,-72,-128,47,98,49,-61,-35,127,100,-14,17,-32,-27,-44,-41},{-11,-7,34,13,39,20,125,-75,17,-54,53,-4,50,-13,-58,-24,55,-18,-88,-35,6,-25,-21,-19,59,-28,3,-107,37,-21,-2,22,20,-74,89,1,-5,38,30,53,38,17,-61,7,14,9,49,55,-33,77,-5,60,-118,75,20,38,25,-59,4,123,7,-4,120,3},{-41,32,-35,37,-15,-32,76,15,-13,55,52,-47,68,51,16,40,79,-24,25,-55,-55,28,-14,-2,92,-16,-19,-61,41,32,-17,-2,7,-23,-48,-23,20,12,6,-14,13,16,-13,7,-13,14,33,66,-21,-43,127,36,-90,51,55,-27,-22,-82,-27,62,-43,29,119,5},{-36,64,-24,49,15,-13,-50,29,14,65,-55,-18,45,5,-92,9,56,36,-128,20,-39,26,-15,47,60,3,19,124,10,-1,-40,-37,-6,0,-61,14,31,-43,-54,40,-3,105,-23,10,-4,-27,47,55,56,-15,-128,99,-22,51,16,13,7,-5,-42,56,-33,84,127,10},{92,-46,46,-8,-1,-61,114,-93,34,31,-38,40,28,21,-18,23,0,-13,24,-50,-40,11,-69,5,39,-29,-2,127,-18,-19,0,-7,31,-2,-23,-44,68,-26,-38,-27,16,-63,-12,-22,53,-44,34,15,31,15,127,1,78,-34,-50,-12,-27,52,-4,20,-10,53,-128,28},{-18,127,23,68,43,-27,127,-42,15,-2,20,0,-48,15,58,0,2,32,-79,-95,2,2,51,-50,27,18,-14,-128,7,-1,-33,-49,17,-40,36,34,49,-67,16,-24,57,-72,-30,-128,40,-61,-32,118,-32,77,-128,106,-42,98,79,-54,127,-96,63,-128,-18,-110,122,8},{10,-44,-17,65,-69,-66,-22,69,12,-43,-36,-2,-40,-52,-32,-72,32,-28,-128,36,53,-8,-4,72,-38,20,45,83,32,30,20,-14,38,26,-46,6,13,-21,83,-21,-22,127,70,-128,-40,38,6,-11,16,-84,127,-23,-3,10,37,-21,-15,98,31,33,41,71,89,19},{-53,13,4,-6,27,-12,127,-65,-42,8,-87,-23,77,-4,17,20,30,5,9,33,15,-16,-1,22,-6,-9,30,-85,52,-7,40,-5,11,-16,45,-3,6,7,-15,-22,61,127,-48,127,-47,12,-12,21,51,96,-33,21,69,9,-39,-28,-39,1,27,-48,21,26,33,39},{-37,31,33,6,-15,-128,-78,-67,38,66,-17,102,-51,-8,34,-13,27,-20,-48,-86,-9,54,-77,-37,71,90,-56,-126,22,18,-4,20,-4,-21,-36,35,57,-28,-39,-22,48,94,-20,109,9,21,-29,-13,40,45,-46,70,25,2,29,7,86,14,11,70,-20,26,58,-33},{-97,-27,-44,-45,42,85,-81,-8,-16,-1,-15,-34,56,15,43,-36,-58,6,3,90,-70,65,-14,-70,56,38,66,-52,78,6,-58,26,56,-18,32,-65,-13,-33,-50,-17,-3,69,-49,17,31,14,10,35,51,79,-75,2,-80,17,-21,34,-114,-14,-68,21,-15,-10,-110,4},{-43,17,25,37,4,-63,1,15,-22,44,65,5,104,18,49,-28,-18,-9,54,-17,-54,20,46,-116,-58,-12,-8,127,13,1,-7,-17,24,-9,11,2,61,29,-45,15,25,-128,53,-128,-12,38,-16,-39,57,72,-48,10,43,32,-45,-31,-128,-38,-29,18,-20,-45,-61,-16},{79,3,55,45,53,-18,101,59,-12,-16,-3,15,39,-41,71,2,33,11,-62,-47,18,1,-33,-31,-72,1,2,-20,-57,38,-28,-4,13,25,61,7,69,-28,95,65,12,-70,-42,-128,19,-29,29,58,56,51,50,12,45,34,57,2,-48,59,-45,3,-52,-45,46,26},{-50,-83,8,31,43,-108,57,30,11,61,-30,39,78,-18,-12,-6,-6,-12,-53,54,6,43,-16,37,36,-23,10,-128,26,-5,30,-44,42,33,-78,-1,36,32,30,-15,12,74,-21,-119,5,16,45,-54,62,21,122,-128,-20,11,-30,-13,127,-24,-16,-88,1,-48,21,17},{-26,-18,38,-5,25,13,80,-20,-37,9,2,26,-52,-31,13,-15,22,20,-51,-25,-54,34,17,-41,-15,10,-31,63,18,16,-101,-8,-14,-25,-26,-60,-18,-45,2,-65,-40,-128,21,127,-4,25,-30,-33,-28,8,-128,-9,2,-13,34,19,44,-58,-18,6,29,74,9,13},{45,-53,10,5,-40,-21,-128,-25,28,-32,-55,20,10,-71,-20,-77,-5,34,15,25,-40,-25,36,-40,-12,50,-23,49,-50,-34,-34,-1,30,-5,25,-49,2,52,-58,-12,21,-41,-24,127,-8,48,-6,24,65,-59,127,-46,46,33,30,-26,-37,-118,48,6,69,-71,-93,26},{-50,-34,-40,6,68,-15,70,-19,28,-19,-6,19,-25,11,16,-54,-57,-18,-59,1,-3,62,22,-6,-47,3,-10,117,-17,45,-62,-14,3,-47,-38,40,0,11,31,37,54,-109,-50,-128,-42,-58,28,-22,-73,27,-128,24,-79,-36,55,-40,51,81,-55,23,30,17,108,-43},{34,-94,-9,54,83,-7,-128,-18,28,72,14,4,65,-67,0,-30,-8,16,62,6,-27,9,-39,-23,30,20,-23,14,-17,34,48,5,-65,-34,-128,-6,-14,22,-33,42,43,-62,50,127,-62,25,22,31,11,0,-42,5,85,42,63,-2,14,39,51,-36,-27,-96,-24,-16},{79,48,28,61,34,35,116,-12,18,47,-70,1,-7,-44,-13,-16,-24,58,88,-61,18,-10,-20,-17,-32,26,-18,126,39,-1,-41,26,-31,-2,-5,-28,26,-58,24,34,40,68,45,-128,9,8,-17,69,-72,68,-128,126,55,70,41,7,127,-62,-26,-103,-26,-64,127,-4},{-33,30,19,-8,-17,19,127,113,-63,-35,9,-17,19,-44,24,-14,-10,-13,77,-59,-10,5,-33,6,-57,4,-49,22,-24,-29,-22,13,-14,0,62,-75,9,9,4,25,-53,44,9,35,2,33,7,-13,-69,-33,-83,127,83,26,3,17,-14,-50,28,-53,-60,-32,82,28},{-59,72,25,52,12,-49,127,-10,23,80,-40,8,45,-25,62,28,-6,29,-53,-21,0,17,-30,-46,92,6,-44,-128,-40,-35,33,-32,26,-26,1,-81,37,20,-25,30,31,107,30,-83,23,18,37,2,-34,40,39,35,-1,65,17,-66,70,-42,52,-44,21,-78,-18,23},{-28,57,11,82,32,19,73,-81,-27,12,115,32,20,-14,10,-96,-49,11,-128,-15,-39,31,21,37,78,42,18,-128,3,10,36,3,-10,-59,36,102,44,68,70,68,-27,20,-72,127,-69,37,29,38,-48,-27,-73,-89,-128,41,20,11,-95,-110,24,-128,25,-32,-50,34},{-5,111,7,-20,6,35,47,21,18,9,37,-18,60,-7,3,-64,-20,7,-41,46,-24,-2,-15,-62,36,-32,16,-30,-63,-19,-2,3,11,11,57,-39,36,-46,-61,26,15,-13,-52,127,43,-29,21,30,-42,77,-68,25,-5,94,14,11,45,26,-48,88,-21,-20,-40,-21},{-53,-81,-9,47,27,53,55,-15,-21,-3,-29,-72,80,-46,-4,-40,-35,-12,-128,59,0,13,-36,0,69,22,32,20,31,23,0,14,13,-50,-90,-55,-19,38,-27,-35,-16,98,36,25,-16,16,21,31,34,-40,91,-119,-25,-17,72,16,100,-16,11,-78,7,31,37,17},{97,-65,15,-12,-48,68,-128,-41,-52,-1,-29,-19,-1,64,41,17,5,15,16,-82,-14,-26,-44,-22,-72,24,-8,74,46,50,-42,-22,-43,18,20,-76,5,-44,48,56,29,62,20,-112,-26,1,25,-25,-59,-17,127,83,33,45,-18,53,-128,71,-36,127,-42,58,24,16},{40,-53,56,14,96,-38,-49,-61,17,-9,-31,54,-113,23,-49,-128,13,-26,-82,-18,-46,-9,30,13,36,-13,-18,-65,-51,-29,-47,-23,13,14,96,63,88,25,50,60,31,-107,-49,7,64,-1,8,-11,-39,23,-48,-79,68,34,-36,-11,78,55,59,-110,-29,31,-128,-6},{7,-44,18,23,-21,-32,-17,6,24,-7,21,25,-5,-10,5,23,40,-30,-77,-95,-46,-8,-65,14,34,-10,63,91,3,-42,-69,3,-1,-15,-1,38,-26,-23,43,59,1,-86,-12,-128,-8,-3,20,15,32,-27,127,-13,-57,-42,-11,4,-78,-15,-5,127,21,55,21,3},{91,50,28,28,9,37,127,-40,7,-28,57,-7,50,-45,56,-44,67,50,-128,1,27,1,-96,-63,-15,12,-26,-48,-9,13,-28,-43,10,-36,-34,-26,-7,15,-59,65,63,19,14,29,32,-22,11,27,-4,40,-128,75,65,40,6,-6,31,55,15,-44,-16,30,127,11},{-11,1,25,17,40,-128,-94,-6,-10,0,-9,70,27,32,31,-38,10,46,115,4,-18,31,15,46,72,65,0,-116,4,23,-17,0,-29,-26,-31,9,8,-6,65,-10,9,-128,15,11,7,-42,26,-68,64,-56,-128,-40,33,-54,31,-1,-128,35,0,-3,-39,43,-128,-21},{53,8,18,-11,6,14,127,21,38,-6,77,-39,89,-28,67,11,9,64,73,12,-23,33,7,-45,51,-36,-83,63,-104,-10,-32,-3,-17,-22,79,26,28,72,30,-41,27,-23,-68,-128,82,-27,8,35,85,39,67,-55,22,-45,-1,-35,11,-98,-51,6,22,-57,-112,24},{18,61,1,34,44,-40,61,-34,-9,-34,22,61,-24,-103,-24,-3,-32,4,127,-27,-66,40,27,19,-55,1,29,-14,-12,-39,-104,-20,-24,-37,-61,4,9,-46,-4,-53,-13,43,-48,-53,28,6,-3,-27,45,42,-96,95,-6,4,-8,-3,7,-77,-44,-2,32,-23,2,47},{-30,-39,-16,46,-18,-70,-104,-83,-13,-31,-1,11,77,29,-28,-59,10,48,-128,66,10,24,-24,4,14,30,26,-52,-88,35,66,-111,-116,-17,-111,48,-9,-60,3,33,23,-36,-20,-128,13,-54,0,-15,37,-54,45,-95,-50,-45,-28,-38,-1,-9,-66,86,-81,-4,42,-42},{85,50,-36,89,55,35,50,-58,27,39,-39,70,-66,27,12,-13,14,70,-64,61,-4,45,22,19,-34,-74,9,-53,-65,16,-18,-46,-88,-9,-5,-65,61,-64,-19,87,-2,-45,-59,-41,65,-53,22,69,0,-49,-123,-43,-73,96,-34,-23,-5,37,-37,-7,42,-18,-64,8},{19,-19,-75,48,35,-3,-12,-59,-59,-61,-11,7,-28,49,14,15,-33,44,-65,-8,30,1,47,22,-42,-41,-37,113,-72,-8,-41,-61,-17,-28,-69,37,-43,-90,-27,-26,0,-63,49,-37,-31,-55,27,-12,14,58,-89,-21,-47,34,-26,-33,12,62,-75,-8,-29,88,3,-5},{-1,16,6,-37,-8,-17,-11,-2,10,-32,64,-5,65,38,-4,-27,-48,57,55,-63,-16,33,-4,14,-42,11,-1,127,33,-8,22,12,-6,-39,127,88,-25,-14,-18,81,38,-88,7,-40,-60,-26,41,27,62,52,41,-72,-41,0,-75,-19,-128,-12,41,-31,-28,-45,-27,-13},{-50,24,-27,-34,-58,2,97,-28,-35,-7,-70,-40,-29,48,50,64,18,68,-31,-17,-52,30,-31,-39,74,-20,8,-128,-44,-19,35,-25,4,-14,-13,-17,29,32,60,58,41,-82,-46,-31,23,23,34,28,78,-26,-39,-9,-59,38,-19,-5,12,-74,-10,42,-23,-53,21,-18},{-21,65,40,-25,-33,-44,-128,-97,34,69,14,39,-74,-23,-60,-53,-9,-10,55,-46,1,11,-65,65,23,30,-44,-26,-42,-33,-73,11,-34,-16,-59,-46,53,-23,-2,-46,0,119,-48,-79,-19,-20,47,45,80,-17,-128,-2,-38,15,-50,20,-75,-27,25,55,52,-10,66,22},{-2,-25,55,8,-17,-43,-22,-110,24,-56,-24,-13,-29,-11,83,26,36,-27,57,-49,-28,50,3,44,-1,51,-26,54,-11,2,-19,9,-31,-23,-50,37,15,-14,-104,9,-23,-97,-6,127,64,-15,-10,16,-36,74,116,-79,51,-22,53,14,-13,30,-39,-75,-30,-4,21,-18},{-47,127,-38,85,93,22,119,31,31,46,0,24,94,-50,-30,-9,-37,-52,-128,1,24,45,36,-21,-21,7,-33,-89,18,-16,60,-9,-41,-39,8,32,-20,-22,44,51,5,8,-39,11,45,-92,38,49,-79,-20,-128,-8,25,71,12,-15,127,-48,27,-114,7,-22,4,36},{58,8,-36,13,-63,-59,-111,-27,35,-40,-8,-19,44,-46,-38,-108,24,6,-29,-51,33,-1,-56,51,75,-37,-22,41,-36,57,-13,-7,-42,-29,-41,-45,42,-21,87,60,35,26,74,-77,-7,5,-6,20,111,0,91,-24,-101,-43,-1,-30,-63,37,11,47,44,80,10,-36},{-33,78,10,-27,1,42,127,-19,14,30,-58,48,73,-56,8,37,-35,64,-54,62,19,1,-21,-21,42,-28,-8,81,17,45,-51,-31,-15,-26,8,51,50,34,-44,7,66,11,40,91,19,-1,47,70,47,92,25,127,-38,50,5,14,-76,7,-1,16,-18,36,78,24},{19,-28,-5,40,28,-101,-119,-48,32,55,19,36,-67,27,-29,1,33,-24,-128,-66,4,53,-20,-44,67,120,-54,-39,-4,43,-15,-21,-10,-57,-9,-19,65,-34,-12,29,14,127,69,-127,14,-4,21,15,31,-78,23,4,71,-51,73,-17,-40,9,12,-13,-21,120,-95,2},{10,-44,-60,-9,41,-22,87,-128,30,18,32,-32,41,-8,40,50,-28,-42,-59,66,30,17,18,4,78,-36,30,65,-6,9,26,-23,26,37,61,14,-6,-20,28,-9,56,-39,-5,-128,30,15,10,14,7,29,50,81,-105,-31,-18,2,-85,-87,-39,36,16,60,-106,-28},{-69,23,-39,31,37,-42,31,-74,-29,44,49,-18,71,0,26,11,-1,18,109,-22,-61,-2,9,-78,-89,29,-24,-95,-69,-60,43,-46,33,29,10,-69,-35,-25,119,-34,5,23,10,-128,27,21,-30,25,-18,101,-96,-8,57,12,-19,33,-128,33,-17,-27,-5,2,61,27},{-4,68,-9,36,15,-17,111,113,2,58,-17,32,43,30,77,-32,58,74,39,-50,26,52,-28,-29,33,-21,-1,127,-1,-22,45,-23,36,10,2,28,34,28,51,47,-18,-71,-43,80,51,10,22,31,-12,68,-68,-36,62,71,88,-6,12,63,26,-76,-19,-12,73,5},{-7,-19,-36,20,63,-92,114,21,-36,22,-27,13,21,10,-10,-27,-33,-52,-98,28,-39,15,-1,-27,32,42,-27,-82,-40,39,-62,12,14,-36,-62,-47,-37,-21,-52,0,19,-49,19,36,-46,-24,25,-54,5,-38,127,-93,21,-74,-48,9,64,-15,-8,25,2,51,44,-8},{3,57,-24,26,11,37,-52,49,-27,3,50,60,-7,-88,28,-55,-13,1,-5,39,-35,-28,-14,-36,61,11,15,4,-48,-45,-126,-31,-31,-6,68,-21,14,29,61,18,13,11,13,-74,51,24,-15,-10,-55,40,103,15,-71,-57,-15,5,68,-90,3,-50,-5,-43,32,46},{3,-72,6,-24,8,-35,-128,35,12,34,49,13,-6,-55,-62,-72,-38,35,75,-22,-62,33,-42,34,-37,-48,-23,87,-26,28,-51,-21,36,13,-30,-25,-22,2,70,-6,-17,-14,-121,-128,-35,12,20,18,8,-29,114,-45,-30,-28,-111,-38,-128,50,5,58,-4,8,8,21},{55,-47,28,16,-11,36,-48,6,33,3,-20,-7,-43,18,-35,-29,-64,-17,1,29,21,57,29,-26,12,52,-36,-45,-40,-26,23,-2,-14,0,70,49,72,11,46,12,-14,11,-59,-103,37,-30,-26,-23,-52,34,-36,-33,-128,51,-13,-40,-47,81,-17,-21,-15,57,-61,-52},{12,2,-33,53,-23,-4,-36,-109,23,75,111,10,-18,-2,-46,-18,-74,27,62,-8,8,-27,-13,-87,-117,14,60,25,-10,3,-14,-17,3,-50,-30,38,-13,18,79,5,34,-43,-7,17,-58,-45,5,-32,80,-64,85,-40,-30,-29,49,37,24,20,-38,-112,-53,-64,75,-1},{34,56,14,25,19,15,-91,65,9,-16,-11,-27,38,-38,-43,-40,47,82,51,-7,10,9,-22,18,3,-35,24,94,-15,17,-29,-8,-47,-32,-61,49,-6,33,-58,67,0,-119,15,127,-15,-29,-22,72,-99,-64,-38,-14,42,65,-23,-51,-65,41,-50,47,-7,42,127,-23},{-68,4,8,30,4,61,-70,79,-79,-16,17,56,-80,-4,-46,-46,44,31,-19,-50,14,-5,-9,0,-46,-21,-39,-30,-48,18,-47,-18,-12,-16,35,17,35,26,6,-48,-15,112,66,-128,29,26,-8,14,-24,19,18,-5,87,-53,15,-11,-34,21,-6,101,-68,78,72,0},{40,127,27,-3,-23,-27,-35,63,-25,80,-11,-32,-92,-26,60,-26,60,64,109,9,38,-15,19,8,73,24,-75,127,-52,-32,51,30,24,-8,39,22,60,-25,44,78,29,-26,10,108,36,-27,52,90,17,37,89,-20,-4,98,-7,-38,-115,-1,1,-61,25,-75,-71,35},{-60,42,32,14,57,2,-16,-16,15,5,-19,10,13,7,-54,-85,-51,31,-17,63,-48,33,30,-27,-3,-8,-5,-128,28,-51,-33,0,15,-105,-25,107,49,30,81,55,71,114,-28,127,55,-16,-5,65,25,41,0,19,-107,16,-32,-33,127,13,41,19,63,-60,-60,-29},{-57,52,7,-1,-12,2,-123,9,36,65,-31,-56,-38,8,48,-48,-32,28,-69,-9,-32,4,28,-22,3,29,41,-128,-44,9,25,-28,48,16,-35,-20,5,3,40,-6,6,49,33,-20,-27,34,37,-5,37,-8,45,-2,-90,13,70,-7,116,46,-27,88,-105,40,8,40},{74,-22,20,11,-13,-13,-40,6,30,10,61,10,99,-84,-41,15,-27,-11,-67,44,-34,-14,1,28,-42,26,-23,53,-2,4,58,2,5,-45,15,19,50,24,15,-35,-21,-52,-47,71,-5,4,-14,-9,94,-57,50,-28,1,45,-48,-4,-91,7,-5,-51,-5,-30,33,6},{72,9,52,61,-2,38,-128,50,-66,52,-15,39,77,40,-3,23,68,79,127,45,18,47,-51,3,-103,26,-29,62,34,-21,18,13,24,-6,17,-8,15,56,50,-10,0,-94,15,127,47,-6,23,7,47,24,-85,-13,65,7,-42,46,41,29,-12,-5,-50,127,-56,8},{114,13,-2,-2,38,0,-40,56,0,34,95,45,57,-29,-55,-36,-36,13,48,16,-10,-24,-40,-47,-39,7,-93,127,-23,-86,41,-27,-56,-60,-3,81,98,-19,-12,108,12,127,-59,-56,-10,-33,-32,-18,16,21,-54,48,-22,-30,57,7,-51,75,13,60,-34,-9,-85,-49},{44,69,19,-38,-34,-1,-111,-98,-7,30,0,73,-63,65,14,-3,-31,12,91,-62,13,32,17,-34,19,-8,37,60,-22,13,-45,-31,-16,-35,49,58,53,29,-77,64,22,-128,5,-66,-12,24,42,19,-52,60,-40,-55,-39,48,-39,-19,-53,42,-23,-45,19,-1,25,33},{40,17,-17,-2,-10,-9,29,12,8,24,-128,-5,-99,0,-6,9,76,-24,25,-63,-30,10,4,-65,28,-25,-46,-50,38,33,44,12,34,-9,5,105,64,-29,-59,65,-10,-10,57,30,3,11,47,-14,29,11,57,60,45,81,11,-5,75,14,-10,-41,-2,-53,81,18},{12,1,-2,26,78,-64,-72,99,-23,44,71,31,32,52,-66,22,8,23,127,60,31,0,71,29,-50,92,-12,-92,25,54,-39,-2,65,38,-28,76,39,-40,-88,30,-19,-128,-30,-36,-84,-20,19,-83,-1,-91,-128,-44,7,-13,2,-8,54,-9,5,-20,-64,75,-73,0},{-8,-23,-16,37,-52,41,-62,19,31,36,34,-104,-16,-2,14,37,55,53,-30,23,-34,70,2,-21,58,-29,-76,-31,-85,-32,17,-28,50,20,6,-14,0,-6,67,27,20,71,-81,127,94,15,16,46,67,-65,127,-13,49,15,4,-58,-117,3,-63,-66,-31,-7,-128,-8},{5,72,19,21,52,-29,24,-58,26,54,-63,-1,24,-58,-57,-44,-20,30,114,23,19,20,-9,26,-72,16,-27,64,-41,-55,-64,22,-10,-26,-11,5,45,6,59,-22,-6,4,-84,-47,60,8,33,37,-42,22,-128,119,63,46,54,-9,25,-44,-16,21,26,25,31,-6},{107,55,-57,-22,35,-79,23,-56,2,-102,13,35,72,42,-44,-3,-49,58,-84,-23,-7,32,-27,14,-84,-43,15,-66,-43,56,16,-113,-63,-12,-86,-79,-12,-70,-84,52,-43,-4,54,127,30,-69,-44,35,47,52,127,5,-53,11,-60,-40,52,0,-38,87,-15,127,39,-69},{127,66,34,54,41,108,32,-83,-24,6,-6,7,-15,48,-9,-4,36,57,71,65,6,39,12,42,-47,-50,-58,75,-63,-40,10,-15,-22,-14,-47,-69,-17,4,77,87,55,-126,-71,127,73,-30,-25,29,79,6,103,-67,-93,56,-40,-60,-128,-4,-58,29,46,16,-14,-33},{-7,61,-65,33,48,-43,-58,11,-60,-66,21,13,-31,23,-21,-42,-47,71,16,68,-22,41,-17,25,66,37,-35,-27,-44,35,28,-55,-46,-16,31,-82,31,-35,17,91,-27,101,-20,61,0,-73,-11,48,73,-15,127,-67,23,34,-110,-47,-24,52,-16,-44,0,78,-39,-65},{-30,-36,6,-18,-24,-9,-90,43,-24,-6,16,55,11,14,4,-16,-60,57,127,-64,-63,11,-53,-79,-116,-9,32,127,7,46,-3,0,-11,-44,127,55,9,55,-27,45,62,-128,-53,-128,-3,22,2,-51,58,33,-35,43,0,62,-13,-16,-128,-9,-36,101,-34,33,-76,1},{0,55,-39,-47,-13,61,-53,52,18,23,-31,14,69,-24,-25,84,51,43,117,34,-57,0,-73,60,-31,-14,-10,127,-12,19,37,9,44,-5,32,19,-10,30,-85,55,15,38,-27,-26,7,37,17,-49,87,97,-79,-17,-28,-16,30,42,-119,-6,-11,-70,-47,16,-66,-15},{79,-6,52,-17,1,76,-128,-47,33,-28,-38,32,32,-37,-91,-28,-27,-9,100,13,27,-22,-14,28,-38,59,6,-42,-36,34,-64,-28,-23,-40,8,-57,-1,26,-56,19,36,-8,8,127,-28,9,32,-9,-13,-24,127,37,25,55,32,30,-75,-7,42,-63,1,67,-5,34},{-28,-46,10,8,11,-32,-42,-51,-17,22,-29,49,-5,17,33,4,72,-2,-77,2,28,34,36,-14,49,6,-60,94,6,41,4,-45,21,-1,-52,-64,29,-35,-69,-63,48,14,50,127,16,0,10,46,13,-22,127,-118,27,-15,-17,4,-79,49,-29,46,31,-4,45,31},{46,6,-30,44,85,-88,88,-10,29,28,-45,44,40,-20,6,9,20,-100,-114,-75,-22,26,35,6,-52,42,29,-128,72,-62,-39,-36,-2,-36,-4,44,55,1,46,-98,42,-128,-82,-125,-27,-69,17,49,20,-50,-128,17,-92,39,47,-44,127,39,-59,1,36,-128,127,-6},{-52,27,5,-27,27,-19,-128,8,-25,-20,51,23,-38,30,-40,-61,18,-25,25,-13,-30,-22,-50,-1,-9,17,5,-19,-11,56,6,8,26,-39,-14,42,-35,17,48,46,26,-128,-59,73,-20,-23,41,-65,54,-1,-128,-128,20,-45,5,27,30,104,12,-90,12,-52,-52,12},{28,93,-24,-25,-57,42,13,-11,-12,22,-128,61,-70,-26,-13,-9,-27,56,23,69,24,34,-44,-42,-16,-15,-3,127,42,68,3,-38,0,-39,127,15,7,-17,-100,2,66,-82,1,-128,-49,-38,31,54,21,112,-69,50,-12,80,32,47,45,-46,-29,24,-19,-3,-128,28},{34,-34,8,-2,-3,-110,-55,65,59,77,-39,88,-87,-54,42,19,-12,23,46,-74,41,-10,-70,-22,63,60,-37,-76,-42,-34,19,43,-24,19,63,-6,51,-4,-91,-11,43,5,33,-105,-65,7,-44,6,-46,10,127,11,57,31,24,-40,127,68,-24,81,0,127,-59,-1},{-91,19,-9,-54,34,72,42,-128,-43,-20,36,24,80,-11,36,26,-59,5,57,71,21,9,36,-14,75,14,43,-128,18,-15,2,-24,-30,1,83,23,30,0,28,-63,28,124,-24,127,12,3,-23,32,-30,94,73,65,-42,-36,-39,4,47,-72,-57,-64,10,39,30,-9},{-22,57,0,-60,41,-118,113,-25,28,22,107,-36,-9,-30,-21,-28,-16,-56,69,-109,-128,-3,74,-107,-113,20,-26,-128,-11,-11,9,-29,-18,7,-36,62,16,-35,-26,-36,-19,-62,-59,-128,-1,-49,-3,16,32,54,-71,-71,127,10,17,37,-68,57,-19,-74,6,-47,127,12},{98,-9,37,-1,-7,18,16,70,-31,55,-25,34,-49,32,-13,-38,12,76,-128,-16,-46,-18,46,-45,100,-19,-2,21,-64,-20,17,22,-11,5,-19,2,54,22,41,64,-18,19,41,127,34,-26,-6,39,-1,44,-68,53,-85,57,7,-6,-128,-46,22,-48,-17,56,-58,-24},{-105,-79,-22,14,71,-15,-128,-74,28,3,54,-9,-66,19,-80,-35,-17,-18,11,-35,-32,30,26,11,42,37,-14,-27,-21,-4,31,3,-4,-18,-48,-80,-12,-51,79,-16,-36,22,-53,-128,-42,6,36,-38,-22,-41,-35,-128,-56,-25,-34,1,-8,-82,-21,52,13,-17,-46,29},{15,-4,28,14,-47,56,79,57,28,11,-52,60,-32,-75,-42,-33,-1,-48,-46,-7,-23,11,-44,53,62,-25,-37,53,-36,-59,-128,-2,-9,-6,-46,19,32,44,-57,10,8,127,-37,96,47,-39,12,30,-85,-21,-98,10,2,-4,-37,-1,-97,-52,-8,17,-10,70,-94,32},{-30,30,-8,8,69,-58,-8,126,39,-36,-54,26,-90,-70,-15,-37,-54,29,-38,-35,-113,21,70,-32,127,-1,-9,-128,13,10,-13,-30,8,-31,7,57,-7,-2,-85,-36,-18,106,-127,127,-51,-16,-7,54,66,8,-128,-128,26,36,5,-45,-27,1,-35,-43,44,-28,54,-23},{-30,57,48,-33,-12,-40,-78,79,16,-36,45,37,112,25,-8,-52,-61,51,18,66,19,58,4,3,111,-29,-65,127,16,17,35,37,22,24,-17,15,45,54,57,-8,42,-18,-94,127,-2,7,17,-14,-31,15,127,-59,-118,46,-1,-4,-105,-19,-28,51,-6,43,74,-31},{4,49,2,53,47,-81,127,1,37,61,75,43,43,17,-48,-13,-48,31,38,-4,-13,20,49,-100,-86,22,25,-128,-31,23,19,-52,-15,-76,20,2,-21,31,84,61,54,-6,7,-128,-82,-41,3,-68,-9,-50,-28,-94,-1,-33,36,-6,-128,40,-9,-90,-39,-55,107,-6},{127,12,-22,22,43,-8,-128,37,-25,19,-67,6,-38,41,22,46,26,103,127,-40,6,-5,30,42,83,12,-60,-72,22,69,-39,26,40,35,-38,-81,3,-23,79,80,49,-79,12,127,21,-28,-18,-32,10,-63,127,102,-54,92,50,-26,-128,21,20,89,-37,67,-123,22},{44,-59,33,47,-24,69,-128,18,-75,-13,62,-15,-75,16,-7,39,43,24,-77,-37,37,-35,-38,18,84,-23,-80,-16,43,21,-66,6,2,60,-75,-41,12,37,-94,-39,13,68,-18,94,-4,-18,1,-13,1,-75,127,127,97,-26,41,33,26,46,-26,29,11,11,-78,12},{43,44,-9,68,-34,-49,-128,-29,14,-29,-79,-36,-100,5,0,-25,49,9,87,11,18,39,8,65,37,31,-47,-70,18,8,-13,3,50,-16,-97,-22,56,-6,48,100,43,-57,-28,127,75,11,47,-15,-15,38,31,-45,-34,32,24,-20,-128,-40,-47,-61,-1,42,-128,-9},{10,-66,43,-52,71,-69,111,127,11,-67,-8,63,44,-86,-16,-61,-37,-31,-91,-40,-68,-5,77,-43,-13,-29,8,-33,44,-27,-3,-34,46,-80,127,127,-29,18,-30,-31,11,110,-122,127,27,-26,32,-4,51,46,-128,-60,-43,-82,-91,-31,-49,16,-51,16,-13,-110,111,29},{37,-37,-7,15,-60,-22,53,-8,18,-20,37,-26,91,38,43,16,-37,-21,-70,-82,29,-20,-26,-17,84,27,40,89,-53,-58,11,-6,-26,32,-38,8,51,27,89,32,-21,-30,44,-128,-23,16,33,-16,11,69,-128,47,46,32,67,38,127,33,-14,36,-103,-32,31,34},{68,-16,40,-12,28,-47,127,104,22,-41,23,-22,6,-62,-39,-27,10,-55,96,6,-69,24,49,-27,-128,47,22,-94,-18,-11,36,-28,33,-16,-55,79,-16,37,4,-19,-24,-128,-6,-78,-89,-13,59,25,-14,-39,-128,-128,62,-37,-61,5,72,33,28,-10,26,-20,89,-17},{127,99,26,-21,-101,-37,-128,59,-43,-34,-120,-26,44,39,29,17,68,44,127,18,-17,-20,-60,-23,-128,10,-6,127,-22,32,23,38,56,44,13,-12,-3,6,0,1,-18,-128,20,48,8,-41,36,-27,-37,99,48,50,-15,93,-68,70,-36,20,-10,127,-49,8,-128,14},{112,19,25,23,19,-12,-128,73,47,-15,88,82,-69,12,-72,-82,-64,32,7,-18,-41,-24,40,-32,3,-17,-12,-8,4,-85,44,-9,-33,-59,127,127,80,2,-57,61,-49,57,11,-3,29,-9,26,26,56,-11,43,-10,-90,-56,-28,-38,0,118,-23,-45,20,-40,-115,-2},{62,-55,-9,-24,-91,21,-110,-69,-2,-61,-27,-15,-43,97,2,0,12,48,-33,49,-15,22,-88,-67,80,25,18,127,15,-22,-8,-49,-47,-46,42,-26,-7,44,-11,52,21,-128,72,-128,-64,-19,-6,-3,70,63,127,-65,-52,14,-58,20,3,37,-16,90,17,35,-128,16}};
static const acc_t QConv_BN_bias2[64] = 
{-8394,-11160,-650,-8394,-8763,10229,5988,4329,-281,-5628,2116,-10607,-7841,6910,5066,13364,1563,-11160,5066,4513,10229,-9132,6726,7095,-5075,-3600,8201,-5813,13548,3038,8938,12995,4513,12073,-1203,-281,-16876,3222,-2494,-11898,-9685,7832,11889,3407,-4338,9307,-7472,-10607,-5997,-9685,7832,2116,7095,-13557,-1387,4697,5988,-1203,11704,2116,9492,-4338,-3416,641};
const struct Conv1d_Params QConv_BN2_params = {.input_width=100, .in_channels=32,.out_channels = 64,.kernel_size =3,.stride_size=1,.padding_front= 1,.padding_back= 1,.output_width=100,.out_scale=0.0032196362375378536,.s1=0.030322143649438513,.z1=11,.s2=0.004207054096109727,.z2=0,.sb=0.023522087951858017,.zb=10,.s4=0.039621525300246915,.z4=8};
static const elem_t QConv_BN3[3][64][128]=
{{{48,-6,-44,81,26,-37,5,-24,80,-17,-33,3,-128,-26,-51,19,26,35,60,3,93,0,-6,7,-30,-42,-30,14,21,83,-27,-75,-68,12,49,-4,39,-30,56,-9,40,12,50,-75,-16,-128,59,2,-105,110,-12,-50,52,43,-70,-27,88,-49,-70,-11,25,40,8,85,28,-80,-128,-86,78,80,52,38,-33,80,41,-55,-24,-9,-84,55,-128,23,-33,-123,-114,-120,25,53,68,10,35,83,54,-128,-36,17,17,-128,-44,-35,45,-44,-38,-17,111,28,23,-49,40,-128,-56,-17,6,23,-20,-36,98,28,77,-49,62,-59,57,38,-51,-128,-95,-123},{127,13,28,45,-9,-35,20,31,7,15,32,-53,39,28,28,29,79,36,58,21,-28,20,74,51,71,-128,-125,-60,-4,29,-83,-32,-36,100,-25,-4,7,26,27,12,44,-10,-17,5,44,127,-17,83,-34,51,40,-60,58,-3,48,-54,-37,50,-66,10,-54,7,-6,-9,44,127,-128,-102,32,-8,55,15,8,-55,88,-19,-38,67,112,20,-128,-128,127,114,-128,-128,30,81,-46,-14,39,-42,-99,78,-49,-21,39,-15,64,-49,12,9,-68,23,61,105,96,51,90,-56,-39,-18,-20,127,8,11,-57,-27,-24,-69,-65,-128,23,12,-34,-128,15,89},{58,0,-17,-27,56,20,-110,-14,-49,-17,52,59,-12,-31,-19,-17,-53,-12,-11,-37,9,-6,42,-30,-7,-35,-62,-30,-12,-20,75,27,21,-27,35,22,-43,-2,-62,-67,32,-56,-115,74,-91,-119,-41,47,-52,4,56,-60,20,-10,-69,-9,127,-22,-126,-29,57,16,-12,-105,101,-1,-50,105,-53,-46,103,58,27,23,-6,22,70,49,-53,38,-72,37,-45,51,-128,-113,-128,52,5,85,-33,93,-37,-109,61,127,-16,12,-72,9,58,99,40,52,-19,-87,94,19,-55,-128,56,62,35,-5,47,36,2,-53,82,-45,20,49,-5,-34,-16,-41,-39,63},{62,44,-117,40,-94,-58,58,-9,-11,-72,8,-28,69,45,-1,15,5,60,127,23,-27,-53,61,-14,33,-11,-15,-35,-18,85,-69,76,-128,-20,-25,77,-51,-44,25,-25,9,32,8,-23,41,30,10,-74,19,67,22,-128,21,14,11,-30,4,-4,127,50,20,-29,-15,23,-35,-38,-45,5,86,116,65,-75,29,-25,24,-26,6,-64,8,39,-42,-53,-16,-128,3,-70,6,-63,-40,-17,-31,-89,-102,-3,-11,-70,45,-44,-35,-104,-18,-14,-38,-39,20,45,30,-9,116,-89,-30,32,-63,-86,-24,-127,32,27,107,26,49,96,-28,59,24,-37,78,26},{-124,32,-112,7,-3,-17,-1,-111,25,-118,-2,31,35,-52,-128,-91,-43,-21,60,32,13,23,-44,-7,10,1,-96,-55,29,70,-70,-3,-25,-124,-24,53,-94,100,-66,44,79,5,2,26,-63,56,-7,28,-35,-36,-29,-84,41,23,88,21,10,20,-48,-26,-70,62,-33,-82,79,-77,16,55,84,61,50,-44,52,-95,5,-25,3,-38,85,57,-50,18,-69,21,-6,60,-82,-38,66,-7,-88,96,-91,-109,-128,-50,5,52,-73,-94,6,-3,-16,109,1,88,38,18,-16,66,-91,-11,-66,17,44,-94,52,-45,111,78,-10,72,-32,80,-49,0,73,-37},{-128,-51,-6,-34,50,-103,22,-47,-3,81,80,52,-7,25,-89,-43,-8,23,13,5,29,-32,-32,-80,-58,46,61,34,-1,-92,50,39,22,-62,-8,-91,49,57,32,24,-128,-8,25,-12,-36,127,-49,35,-9,-36,41,91,21,61,-40,-31,50,-4,127,-19,-19,81,-10,55,26,-121,100,33,-8,-86,-71,-23,-5,47,-42,6,52,-20,-96,20,118,88,78,55,13,61,19,-2,-3,11,-26,-32,-74,90,96,12,-83,-64,-128,-52,-10,-94,74,-26,-32,-94,-113,78,-127,121,91,-51,-3,-60,5,-14,-76,14,61,40,-42,127,45,-39,-61,83,13,69},{-56,-72,-12,-2,65,-36,33,-44,-60,-128,39,-33,-3,26,-39,-11,-58,-21,-85,17,-90,-106,-18,99,71,21,84,-14,11,24,123,-103,-33,-102,-72,78,39,9,-9,-52,-128,7,-36,-19,44,97,58,-17,9,116,32,48,49,12,127,33,-2,13,-29,-22,-33,49,-28,115,-110,1,-12,67,2,51,11,-84,-14,-15,-25,-57,-25,-40,-52,-128,-128,-128,-71,34,-97,46,-67,-56,-29,-30,-36,-128,-66,127,-40,-19,-53,127,-128,15,-11,-4,-64,-47,-95,127,25,56,-2,34,-14,-30,-72,-40,-20,24,41,-55,11,43,-106,-128,-49,-12,21,23,34,127},{-46,-17,-30,64,34,-128,23,-12,-7,-1,109,0,16,11,-14,56,115,39,-116,36,2,-36,41,-59,-80,25,-46,24,-13,27,127,72,-6,111,7,-104,36,-20,5,-31,52,7,21,-113,-80,-24,14,-41,5,-87,40,29,-20,49,68,-71,3,5,46,-41,-11,48,42,-17,60,-59,-39,-45,36,-37,-64,-28,64,76,-22,-45,6,-52,46,-56,40,-27,-2,127,82,71,28,4,-39,-26,60,-38,105,-128,-8,-91,1,-8,-106,-27,44,-30,6,7,-128,-52,-90,29,-105,78,-1,-88,8,-108,-54,13,-15,35,106,29,9,1,4,42,30,-128,-43,52},{85,14,-1,26,-28,1,-39,20,18,-61,-35,9,26,-19,-54,-13,-41,-60,-8,14,43,-128,-52,27,-50,-5,64,50,-13,20,54,-61,24,67,-87,-7,15,2,-42,14,-72,-29,87,-128,-43,5,-33,27,45,29,-67,11,5,31,-43,67,43,56,55,-31,-59,81,-3,51,49,-39,6,-51,44,48,0,16,-46,25,-63,-50,30,-41,127,23,-86,23,43,46,84,17,-33,-38,26,-39,-15,-37,-128,-30,-26,41,-27,127,-103,23,-12,-1,-32,55,-60,127,33,-104,-36,86,-81,35,-48,-73,32,-20,-26,12,25,5,-28,11,-47,-19,15,0,28,73},{5,-32,25,-55,-56,-44,-51,-14,16,54,-55,36,24,51,127,14,-5,-1,-14,-50,28,7,-24,48,68,-40,-23,-43,-24,51,2,-48,81,-23,-38,-10,-13,-72,-17,-79,71,-45,50,-62,-49,25,-53,58,-8,112,19,57,-4,18,19,87,112,27,53,-61,-68,104,-26,56,94,127,-16,53,-18,68,29,35,-45,4,-1,-27,63,127,-27,35,-22,82,35,0,-18,96,-3,-45,-19,20,50,-48,100,-66,-36,127,23,88,-128,-25,-29,-18,-4,47,1,15,0,-33,79,-122,23,65,-23,-72,-60,-68,-99,-45,13,34,6,-109,-11,-39,-23,-22,32,-14},{46,-11,-86,-40,2,70,-23,-75,10,28,-67,31,17,-33,10,-74,-56,-11,-43,20,-31,-80,-34,127,-90,-68,-22,-124,43,-34,-44,-87,-49,-35,-38,8,-2,-70,-77,-20,25,49,-69,33,-29,-123,-59,-50,19,63,-88,41,32,-89,14,11,-42,68,44,13,-100,15,32,-128,-66,51,-11,-31,-13,8,-27,-39,-3,-42,-28,42,-63,121,-103,1,-128,-4,-117,127,-47,-109,-79,-34,56,-13,-24,-54,-20,-72,-128,1,-80,88,-4,-55,11,19,-42,-82,-116,-31,44,-82,63,32,-104,-11,-128,12,38,-97,38,-62,95,-128,-14,64,-64,57,-12,-73,-27,-5},{-80,-70,-128,-27,-56,-14,-20,34,10,-77,-4,70,-8,-45,-128,39,-59,-18,-17,-96,19,-98,-86,-83,33,-24,51,0,-29,41,127,30,-77,-60,78,24,-51,127,-73,-113,-128,-41,3,24,19,-33,-4,54,-48,63,22,-20,-17,95,-50,-66,110,20,-37,1,-49,69,-37,-57,73,-83,76,63,40,88,53,57,-9,-54,0,54,127,-11,-50,15,24,25,-28,5,10,-13,-67,4,12,58,-27,59,11,-3,-73,92,55,-26,83,33,67,-7,-9,93,87,0,23,-73,39,7,16,89,67,-57,32,74,120,45,73,-45,78,67,-39,8,-37,41,-47,89},{-42,79,-65,7,-9,86,17,-41,-58,-13,-11,44,-28,98,90,25,-8,2,-81,30,17,49,-28,30,67,-17,-36,56,37,-37,-100,-9,14,-66,-32,-35,-59,-68,39,-59,97,0,-31,-11,-60,-43,6,20,-58,-56,67,-17,37,-23,26,-14,0,48,14,-4,16,-70,-6,-75,34,-11,-34,14,-1,-2,-51,-21,43,-36,-18,-22,-59,39,-56,-13,-28,-45,-3,7,-39,80,-5,66,127,-36,-13,-128,40,-72,-82,-9,-15,15,-111,-41,-36,19,-57,-7,127,-56,-65,14,-84,22,28,-56,18,-123,12,84,-128,9,12,-47,-50,31,-22,-41,-16,-26,59,77},{-10,29,-128,56,37,-36,-23,-117,27,13,-80,-32,-32,-14,-72,-7,-33,9,-75,-32,18,-60,-64,79,2,62,-68,-47,-62,-11,-9,-42,53,-128,-7,-126,-45,34,5,77,40,-14,-20,22,58,-41,10,4,-110,42,-11,26,6,50,-16,-26,22,-90,-52,47,-97,-36,44,81,55,-6,30,-22,4,-5,-6,-37,42,40,36,-1,53,-1,116,-36,-34,-76,-76,-114,-17,55,-82,-62,-2,42,26,111,52,-60,-40,-49,-2,-74,127,-66,-51,-65,88,49,75,-93,8,-52,54,19,22,-33,-8,-31,36,-43,-39,10,-24,-104,41,-128,32,127,2,-49,58,59},{37,45,-63,35,-11,12,40,-33,-39,-41,19,-89,-43,-3,20,-37,-5,54,13,-23,-4,-78,-7,25,28,4,-71,-27,-17,76,123,28,-18,46,78,8,-1,-39,-36,-54,-12,-4,100,24,10,9,42,-9,94,61,-87,26,-26,52,91,50,29,100,61,15,-79,47,36,127,-35,45,-67,-99,72,53,52,-1,29,-46,-15,13,-57,-20,15,-32,-69,-48,77,-110,-127,44,-4,-64,15,41,15,-80,-128,-121,-61,-44,82,68,45,55,6,-4,13,-102,127,-13,-74,-4,-29,-67,-2,53,13,29,50,15,107,-48,-21,-128,66,39,-17,70,46,-28,-24,127},{-42,-92,74,-102,55,87,17,35,-43,21,6,-29,-1,-23,-33,100,22,36,125,-3,-30,-18,17,127,69,33,75,-66,-33,113,-89,-42,16,28,61,121,-50,6,-46,44,-22,11,127,-34,24,-124,-87,58,66,114,-8,-14,-34,38,-7,95,81,-9,-117,-19,11,-70,-15,-71,15,50,-36,-12,10,60,-55,20,-32,13,23,-52,4,-106,-128,-64,-106,-16,19,79,8,-48,15,51,16,16,9,87,-88,56,46,33,70,87,44,36,-10,-18,49,-22,23,123,-56,-30,84,-57,48,-30,-12,90,35,-3,18,-91,-47,-128,28,-117,13,12,-36,-42,25,-95},{-36,4,127,-30,24,66,-36,8,35,66,11,-26,-38,26,-34,68,-1,24,-94,29,-12,-16,15,-5,73,-10,-81,53,64,-75,3,38,56,19,-19,-33,65,-73,44,16,14,-23,-30,46,-28,22,98,-15,-44,1,127,-31,23,-7,-59,-25,-74,1,-105,41,4,9,25,-28,-57,-88,7,-128,-29,-70,-13,101,3,47,-44,62,67,-100,-72,-2,-37,-54,53,48,50,-3,-40,44,55,10,-4,-5,75,-91,65,-83,9,12,-52,-1,57,-43,-38,7,34,74,28,72,-128,-11,-8,-16,33,-30,5,64,-45,-8,35,30,-30,69,39,-47,-32,-35,-36,127},{40,38,40,11,-40,37,-30,-61,66,18,28,-87,-12,81,23,52,36,19,33,16,-71,57,-2,127,26,-56,-32,21,0,17,17,-80,53,63,-63,9,54,-44,18,16,50,-1,-75,5,25,18,-23,61,28,25,50,5,61,-44,-48,-43,-68,-63,-16,1,-3,-3,15,124,49,127,-124,-123,-14,64,60,-6,49,71,70,-10,-20,127,-22,-34,-128,-84,-40,-15,23,-128,11,-29,-18,32,0,57,-73,-97,-106,-25,73,-63,-29,-38,-7,-26,-36,-55,29,70,63,36,52,-84,-71,-16,-7,71,86,-50,-67,16,-24,-47,58,-19,23,10,8,-113,6,-7},{-47,58,-77,-37,71,-128,-67,8,-59,7,-128,-57,5,-31,84,4,74,21,127,49,9,-99,-89,70,-109,20,-62,80,-32,19,30,19,-128,41,50,-67,2,-49,24,5,92,-2,127,-49,-52,-46,-89,-69,31,127,-84,-3,-20,-58,32,-27,20,-38,40,13,39,-51,10,34,72,-26,-74,50,-43,59,-61,24,6,22,43,-31,55,-22,29,-13,-128,-128,-46,-128,13,-66,-38,-85,-30,16,82,67,41,-97,-22,22,110,127,-128,-36,-83,88,27,103,-128,-45,-6,72,45,-50,28,20,-100,47,29,-69,127,-84,23,-82,-13,127,4,69,14,-124,126,-8},{75,12,79,48,-63,65,-28,-36,-29,-1,20,-4,-60,48,19,-36,15,48,-128,-39,-50,-34,-73,-12,-34,-48,2,37,27,-28,-51,37,-14,-32,23,38,-49,71,4,-4,-47,-16,91,22,-54,-5,-11,-20,-17,-101,13,-31,-38,-10,30,29,1,-13,32,-6,7,-5,-22,76,-5,127,36,103,19,64,-48,-42,-8,-77,-37,-26,-35,61,-114,-19,19,80,-41,45,39,95,-97,-32,26,-48,104,14,68,127,-14,34,14,-101,-32,37,29,29,-44,-8,-128,-39,-23,3,-96,81,17,-36,-22,4,-5,-39,-47,-72,-12,-33,-52,-128,5,-28,9,92,-35,24},{69,16,14,22,-24,-106,65,-25,51,-9,-35,21,79,24,19,-15,73,85,32,52,-5,4,-66,-78,-50,-3,-93,-41,-24,28,49,-45,-71,-94,-9,-18,-38,127,69,81,-41,-34,-34,-98,-14,126,55,51,-87,-41,82,-49,-13,-20,72,50,-51,0,24,24,22,-22,-5,74,-19,22,85,-110,-51,36,-27,-39,35,-32,15,-85,18,76,86,-54,127,11,100,-57,2,36,-7,-34,30,-45,6,-50,-128,16,51,-116,109,-12,38,70,-70,-53,62,-39,-92,62,-75,19,-74,-10,11,2,-39,55,-78,87,-16,2,-73,118,68,-128,29,102,-23,-60,33,91},{49,17,13,-11,-75,-128,39,41,-63,1,-36,-23,-2,73,97,57,17,-2,-96,-28,-25,27,-47,-86,37,-26,72,11,-39,24,76,-9,113,16,69,74,18,109,-14,14,38,-10,-22,-6,19,12,0,-31,-13,-12,10,-43,0,70,49,25,38,25,1,-28,-14,-51,-35,69,-22,61,-7,67,68,110,54,-15,58,57,-38,82,88,126,66,-37,3,-54,83,-113,-70,11,-22,23,65,-28,-11,-1,-29,13,-53,43,79,50,13,-24,33,19,32,26,2,-72,-66,3,89,6,-7,31,46,-16,39,-20,-16,25,-49,8,-2,127,-1,18,-30,-117,-42,68},{63,-16,-125,25,-34,-7,-51,-7,-12,-10,-82,7,-18,41,-111,4,-79,-40,87,41,-30,-100,1,10,-41,28,6,2,-30,57,57,42,-113,-88,-19,-44,18,44,-50,13,105,23,-13,-5,33,-58,-43,73,-20,-29,-90,-81,28,-45,27,14,75,-32,47,16,-87,-75,27,18,-14,-58,64,-18,24,40,30,-32,-21,-86,43,-33,12,-12,79,-35,83,12,19,-39,-60,101,11,-12,-32,24,-26,38,15,-70,-123,12,73,127,-48,-13,-58,-12,-34,111,-128,-55,8,-24,63,-17,-6,-62,-128,-58,30,-72,40,-25,-78,107,-37,-33,9,10,29,-4,64,11},{25,-42,5,-38,12,98,-14,16,12,12,-45,-8,-4,15,5,36,31,-29,-77,-38,41,71,15,30,-14,0,59,-49,-32,-70,61,5,111,8,11,98,-74,-34,-1,42,28,-60,-122,84,-74,-56,-34,-118,78,50,0,31,-23,-37,-44,18,-55,4,-128,-21,36,6,-49,111,-36,-29,29,-98,22,-20,40,-14,-34,-92,48,67,58,-28,-106,7,-32,-50,-23,-9,-128,-83,25,55,-23,39,-6,47,-35,71,-40,-31,5,-29,-110,-46,7,33,57,-75,85,-82,30,-32,83,-127,38,-30,12,108,36,-89,24,-68,1,-53,-21,33,-10,20,5,-6,-74,66},{15,43,-5,-6,-84,-96,12,-31,2,-24,18,28,66,-20,95,-48,-35,-17,-128,-4,-14,5,-110,-17,-111,-52,-40,56,0,-5,102,-1,127,2,-50,-55,-28,77,44,31,13,-54,87,-69,-4,22,-10,99,41,76,5,22,-69,99,-12,42,-8,53,-123,0,-37,-14,-12,-8,71,42,75,22,-8,9,90,-10,21,-26,-19,63,-25,80,4,-61,79,-85,-49,127,18,4,23,26,-16,-47,71,3,-42,100,69,38,72,127,14,5,-66,-35,29,-22,23,-98,-42,-60,77,12,-46,-56,-18,-53,42,57,-128,-12,21,56,78,-91,28,40,-2,3,-22,127},{-97,68,-111,-61,52,-100,-19,6,-43,22,48,17,-38,63,-99,-50,-23,-8,106,-39,-5,59,6,-45,71,-27,-45,0,2,-47,98,-2,-45,-78,-35,54,-67,36,-1,-20,-88,-39,71,-24,-53,92,-67,-15,-42,-71,1,63,-8,4,-16,-76,44,-72,17,-67,19,35,-29,-9,-11,-62,75,115,-32,53,55,-23,-74,-45,-53,110,127,60,-16,27,-76,-15,-42,-90,-38,10,8,64,19,-18,28,9,-87,1,81,-34,-77,102,-18,-31,0,-18,71,-52,-128,50,-21,-15,-7,-13,26,31,-28,27,-36,-27,91,-1,44,26,40,127,-39,-43,39,10,51,-21},{88,-73,-52,58,49,51,13,93,-7,-32,-57,-42,24,38,-57,37,-1,-72,-128,29,-20,78,3,61,1,55,11,-35,-50,1,127,65,30,23,-59,-88,-43,-54,-30,19,-128,25,-23,-17,-27,-31,21,-73,40,125,56,56,17,-101,-15,-27,1,6,63,26,18,7,-43,101,-36,89,84,-106,12,-75,-57,7,-122,-28,17,75,53,33,50,-40,86,69,40,-128,89,56,29,-16,-13,-8,-87,2,84,51,-17,-35,73,18,24,36,-7,8,-56,29,23,27,-29,-6,5,14,-38,20,42,-38,-84,-26,-26,-48,-128,35,-18,-43,-53,65,23,67,65,1},{-60,-71,-128,12,71,-59,0,39,27,36,32,-31,10,52,-68,-24,45,-1,53,-56,107,-128,-55,74,65,-30,-128,79,-5,73,-25,-6,-128,35,26,-58,-33,123,-38,-120,-46,15,127,13,-42,-10,-25,127,-15,54,48,-10,-11,26,38,72,-15,-59,-88,-6,-9,-39,15,122,-11,25,46,-108,25,10,-22,-17,-124,22,12,20,71,-84,-120,63,18,23,-8,-88,-128,77,-98,74,44,58,-44,125,-5,127,-27,-25,25,-87,-116,68,113,56,-47,-50,-83,-83,45,-125,-64,-73,0,64,30,83,-1,11,86,-30,4,20,-61,-36,40,-23,-35,28,-45,86},{45,84,-84,15,-18,71,83,-58,19,-68,35,-2,96,21,-50,61,-26,-67,-88,-28,-3,70,36,29,124,-22,-46,6,14,77,11,44,-12,46,39,123,48,-29,-16,17,51,-23,30,-42,37,127,72,38,60,125,-23,127,-27,46,-106,-28,-37,-69,-44,-27,14,-53,-65,73,-17,86,-42,-66,-15,-99,-18,36,-15,-63,-9,32,123,-15,-62,2,42,-24,26,76,-41,-128,65,45,-18,-16,-34,105,114,127,27,-23,51,-97,-6,8,51,26,-83,-10,-8,-119,-1,-27,56,-29,40,-23,127,108,51,65,33,34,33,-27,-11,-41,-5,-16,-36,-119,6,21},{-26,63,5,11,16,127,-33,18,51,36,27,13,-74,20,-39,6,58,7,65,25,21,-88,12,-109,32,55,-80,127,34,63,-90,71,-19,39,69,68,1,-116,90,-5,125,10,-29,13,63,-95,-32,3,-19,-37,111,6,3,-22,25,-5,11,-31,5,69,-3,42,-1,73,11,21,-21,-128,52,63,50,-3,-13,-6,54,-12,41,-44,77,-13,72,-11,60,-21,-103,55,-80,9,49,35,9,54,-67,-118,-7,-53,6,-19,-58,-34,7,12,18,-100,-29,-20,42,-58,-45,-16,42,-51,-25,-1,-2,43,52,-13,-85,27,19,47,-47,-20,-7,-49,-38,21},{102,-11,-45,-10,-55,17,72,-97,35,19,21,-5,-3,30,64,11,23,29,100,-8,-68,43,-41,-17,78,-53,-120,-38,-18,60,117,-84,-73,-4,-23,-49,-56,-70,-29,33,-63,-10,-26,-44,54,53,-22,9,-128,63,73,-46,-19,78,94,84,-13,13,-122,-16,-100,44,47,6,71,127,-124,103,127,45,18,-40,67,-15,73,-22,24,79,55,-34,-128,25,-2,127,40,-115,-33,13,77,-55,7,18,9,-128,-128,22,12,-67,67,-38,13,-38,24,6,-39,62,4,14,-9,-106,-23,-39,-29,45,120,125,-18,-9,11,-14,-4,-128,11,120,-5,-125,-52,-44},{18,40,82,20,32,-66,-8,49,-101,-9,-68,33,48,42,10,95,39,-1,-91,-24,-60,98,-11,-4,63,-68,-38,22,45,79,112,-32,-67,121,-31,127,78,-72,-37,-74,116,-33,81,-71,-67,-128,6,-128,-24,122,54,-7,-36,-14,-35,-34,-52,33,-6,-55,-26,42,-29,-87,42,-11,-13,-128,53,11,104,38,25,84,28,-24,-86,36,0,-36,-17,-128,11,11,-71,32,57,89,12,8,91,-37,117,34,22,52,43,94,-128,50,-29,48,-56,24,-31,110,44,39,-37,-1,-62,53,5,-2,43,-67,10,-59,46,-128,-13,127,6,-27,40,23,30,-128},{59,76,28,43,-17,5,29,-8,20,-47,53,6,13,57,127,67,-20,44,-17,26,-46,-26,-61,-128,30,-28,-66,94,-50,-5,98,50,-36,-24,19,-36,31,-4,-2,-83,-30,-34,12,-25,18,127,31,-95,-29,-23,4,100,16,27,36,19,-105,70,48,33,-56,-17,-1,-74,33,87,73,-128,-15,58,61,66,36,40,2,16,-61,16,39,-51,93,-15,98,-85,72,29,-13,87,65,-52,37,-128,-13,-10,16,42,-39,20,-62,-39,-32,22,-24,4,66,79,-56,36,-55,-29,-6,48,38,33,18,64,-95,-18,51,30,-6,-41,41,18,0,32,40,-79},{99,-47,-41,-16,75,-112,-20,-33,-52,28,-69,-86,-39,-2,32,45,-27,-27,-15,21,-48,24,-92,127,61,24,-28,-50,-83,41,-50,-112,79,81,17,101,-13,19,-45,-26,-71,25,-98,-52,-20,-128,-128,-60,-15,103,12,-37,14,72,19,-81,33,20,70,3,-30,-30,-2,-12,7,76,-72,61,-2,-13,37,-20,-67,-32,-5,-96,-39,121,10,-118,-46,23,-128,-91,25,-31,69,23,-30,34,-10,24,7,-71,-59,-27,1,127,86,-19,-55,41,39,4,56,30,74,59,127,-68,-1,-2,22,22,83,51,-103,-88,28,-117,66,127,9,-36,21,1,19,-71},{59,-29,41,-70,104,-12,82,-78,52,12,-11,-23,28,29,24,34,-24,8,-128,-10,-49,106,-56,127,2,-57,100,73,62,-128,-50,89,40,91,78,-22,44,127,-20,-37,72,25,-46,-3,7,-54,15,101,-27,-18,-29,127,-33,72,-32,76,-48,-73,-6,-4,45,2,-19,-56,-30,14,-38,-31,-81,-37,-42,14,-71,99,34,-56,-116,-42,-127,51,28,-59,-42,82,13,-67,59,-91,-50,-20,-53,113,38,-128,3,-118,-99,127,49,-47,47,26,-51,34,5,-25,-67,33,51,58,-71,28,7,-72,0,-109,-53,18,-23,-111,-78,127,14,-72,-61,-128,45,55},{-32,-67,25,-62,52,-128,75,-45,-59,24,-53,33,50,74,-128,25,54,58,51,-30,7,-34,-6,45,-25,-22,11,66,36,-30,3,23,102,75,13,111,87,38,89,-35,-25,-68,25,73,-128,-107,-128,-25,14,-36,14,-13,-93,58,21,-73,44,-35,-8,-89,19,-41,-73,-27,61,-31,19,127,-1,-18,-5,38,-25,-10,0,24,45,75,-1,-26,-33,20,53,-128,127,-119,-15,-18,23,23,10,86,-67,-77,-46,4,-12,15,-95,39,41,71,48,86,-89,90,81,46,8,72,40,16,48,-41,-9,81,-128,-34,115,32,86,-24,18,-82,-38,-128,-78,52},{49,-93,127,-13,-35,-10,106,43,78,-38,45,12,-22,28,-34,25,39,39,46,-15,64,127,-33,120,87,-128,-77,-93,-18,-38,7,-76,23,36,-28,-9,56,-63,39,-98,-128,0,-128,-34,-44,68,-31,97,14,-51,66,55,-12,127,-44,-69,57,-15,-41,34,-83,109,-19,106,76,48,-37,25,38,62,-49,39,-36,109,15,33,4,66,60,70,-35,12,43,7,-15,46,-28,63,20,57,-27,82,-20,-92,7,112,-27,-71,-67,65,-18,-72,55,54,13,75,-7,91,24,-16,-52,5,64,96,25,74,43,22,105,-87,61,-30,4,10,-8,26,83,-52},{-115,82,29,-2,-9,-39,45,-19,-18,-26,21,48,1,-17,-27,36,-6,27,-128,-1,-42,39,52,58,93,6,-128,13,65,97,24,82,10,127,72,-44,-23,67,11,-87,-64,-59,95,10,-104,-24,-34,-95,-19,-64,66,98,-37,21,48,-18,7,81,15,-14,12,28,-13,-43,42,-81,-4,64,24,-38,9,24,-11,33,17,-38,51,-104,-97,2,41,31,113,-128,42,12,-60,-2,60,5,17,-128,28,57,75,-8,-37,-44,-101,72,54,-7,34,-41,3,82,-3,31,-41,45,27,-4,80,73,44,9,-112,-52,76,-76,-54,-128,27,36,20,-27,-55,-37},{36,125,28,75,-63,-57,13,19,-32,37,27,45,-22,49,127,-7,-23,49,41,0,-25,-10,6,-43,31,45,82,-13,10,-7,127,21,23,-63,-28,81,-13,12,-5,-34,-28,-48,107,-117,2,102,44,-62,52,-37,-13,41,-40,52,55,52,-4,68,-33,23,-2,12,17,32,-23,90,18,-24,-2,-26,7,64,88,15,-2,-20,-22,75,-104,-46,98,-88,50,-24,67,114,23,90,30,-115,73,53,-61,31,-44,-71,64,-78,-51,40,37,-54,40,-67,-41,85,-74,51,65,-25,-12,-29,22,-4,-22,7,-27,9,4,28,125,-64,6,30,11,72,37,13},{127,-2,35,51,-68,-9,58,-41,35,-13,35,-65,-60,53,-63,-5,29,74,-110,-12,-1,73,88,127,93,-118,-81,-60,-10,80,-83,-96,-120,50,-93,55,-2,-49,-23,30,-29,35,-13,22,-37,-128,-65,37,-49,50,65,-60,16,79,12,-63,-4,-90,-128,17,-15,-31,-19,-44,-6,-18,-128,-73,-24,92,69,64,-53,-15,107,18,118,127,16,-24,-128,-61,-61,-15,-103,-128,-4,56,44,69,13,-37,-15,-106,-27,-44,40,-9,127,11,63,-57,38,67,64,4,-33,-17,127,3,-55,-40,-11,109,56,-14,-62,22,52,-70,7,-128,-12,30,-22,-128,-87,17},{19,79,-38,-26,48,-65,-16,34,13,-23,52,42,11,48,23,50,-42,32,-128,6,1,127,79,21,44,-33,-1,45,-9,49,-35,-10,-38,20,81,-59,50,-28,-7,-73,45,20,84,-1,13,69,46,30,-11,40,41,61,36,-32,-18,52,-21,57,14,29,2,29,-12,-31,22,5,69,74,-11,-4,77,-12,48,-18,43,36,-4,127,127,37,-115,-72,43,-128,-3,-37,34,125,-14,-20,-2,-45,-45,-72,-54,-2,73,126,57,66,30,52,-38,-26,1,-62,83,21,100,-68,-19,31,54,-21,38,8,37,18,-13,50,-23,127,-5,-28,17,-40,-31,-5},{92,83,-16,35,80,-28,-3,44,-63,-126,-99,-32,20,64,127,15,44,-18,-79,-33,51,-81,-43,77,-128,-116,-57,-30,-95,9,-128,-34,127,47,25,-85,-2,116,-25,38,127,10,54,88,-66,-63,-76,30,-5,42,-27,-56,-41,-119,-4,-64,28,-4,49,-53,11,-20,-38,15,34,31,6,127,1,25,87,-46,3,-13,-35,1,-128,-7,-128,48,-56,26,-89,-35,-107,67,-13,-128,-37,27,34,64,98,-76,-65,-3,47,102,27,-46,-55,33,-40,85,127,88,-11,7,5,-42,-62,59,-26,3,0,-125,-40,-65,71,-8,-43,127,10,-44,22,96,76,51},{-65,-68,-127,31,-38,-37,-46,51,10,-12,73,-13,22,-10,127,-72,4,-55,-51,5,50,-116,-20,-17,15,-48,-101,64,50,8,36,118,-22,89,-42,36,4,120,-62,-71,-54,12,79,-37,19,127,30,89,-15,73,45,80,46,-120,-106,-48,-106,95,67,13,1,-29,18,34,-50,87,25,-69,-24,20,34,32,-10,19,-46,-9,94,62,108,-34,11,-116,127,-65,-128,22,-73,-41,20,-49,-78,-46,-125,-98,-24,-43,-18,38,-55,-40,25,16,-64,-44,3,-98,-70,-63,-3,-119,-11,24,4,-124,5,-35,89,96,84,86,42,-60,-34,-12,10,-67,16,-86},{57,-45,-26,-37,58,-79,-9,-46,-27,7,23,-35,18,15,-21,-21,-1,44,-21,-4,-32,105,-55,63,-47,-39,105,64,73,9,-12,60,41,-6,69,91,-24,-72,8,51,-77,8,-42,116,51,94,-19,-30,-19,-90,-21,-102,29,22,26,12,-26,-59,-27,-9,61,-65,-21,-69,59,-59,29,-25,18,68,45,72,28,-47,-23,41,99,103,-73,26,28,44,-53,-67,-32,-91,80,2,34,28,46,109,-42,-50,-27,43,11,-3,-128,-89,-52,97,88,70,61,-68,-28,5,80,42,-7,-34,16,9,-10,55,-47,-32,-13,43,-17,-90,8,-7,7,56,-92,27},{-29,26,-23,94,-44,-87,60,29,-18,-9,3,-7,33,-13,0,-8,-18,51,-19,-25,2,-19,24,19,-22,23,8,56,-12,28,92,-19,37,20,58,11,-5,33,59,-4,75,0,107,-88,3,127,-79,-13,50,-79,-18,80,23,34,68,61,76,0,25,-8,-71,-5,24,-6,41,43,5,49,35,-69,37,-69,85,-53,26,-20,30,33,-44,4,50,-39,71,-128,-18,16,-15,-70,9,-27,85,40,-128,-33,85,-45,85,-41,10,-44,26,-18,48,15,-114,-28,-62,68,32,68,48,12,-68,-9,51,20,52,18,-11,-66,12,-128,-3,-7,-26,-64,56,61},{65,99,28,-34,-69,-2,10,-19,-35,-24,-100,37,40,2,31,-4,-23,-4,-26,-39,6,61,-15,63,24,-70,12,-63,47,-19,13,26,-21,-89,77,74,80,-8,6,-20,5,-38,55,-26,-54,-128,-41,-73,118,33,2,10,-23,-8,-128,-6,36,-75,-32,-50,38,-19,-86,67,29,-58,51,-65,6,-23,61,18,-51,24,-80,29,28,28,-18,27,48,37,-89,93,-66,-113,20,40,8,63,-45,-101,12,119,-4,65,3,-128,47,-32,7,-17,31,12,-85,5,71,-71,10,30,-11,3,68,67,33,-40,-128,-39,50,9,7,-41,49,-73,-33,107,4,-7},{-93,-2,-35,36,25,17,51,-9,-30,61,5,51,9,76,-55,106,58,-68,-76,-80,2,34,31,-31,39,-25,-17,96,-10,-71,-80,81,127,87,-6,0,-37,-20,-27,-47,-28,4,-38,-12,44,29,-53,32,-33,-12,35,93,39,-10,12,-48,30,9,54,1,-17,12,-1,-3,21,-19,85,-55,-6,14,-3,6,17,65,7,89,127,-10,-48,-44,12,26,74,-125,-7,72,-89,114,89,-4,35,58,87,-54,62,41,-9,-110,-82,-4,9,-7,-48,-82,35,3,22,60,28,-5,28,52,-3,-15,7,97,-71,2,33,-83,-84,-12,19,20,17,48,-42,20},{127,71,12,16,2,-36,88,51,14,3,19,-57,-43,-23,104,-48,-54,55,28,-45,-23,13,20,70,-21,-92,38,-63,-40,127,-51,35,-128,6,40,87,-60,3,22,-45,66,-13,-27,-7,-28,127,-32,126,-38,84,-12,25,16,71,55,-41,-33,-2,-27,14,-21,-21,-29,-39,77,18,43,-128,53,-84,47,-33,-30,-17,-21,-52,-98,127,80,17,50,-90,111,-95,-128,34,-71,-55,-65,74,10,50,-128,127,-118,-60,94,19,74,-39,42,-24,10,38,-17,-39,49,48,127,17,-20,-25,-5,-8,-35,41,-47,1,-33,39,-27,-54,16,-29,3,105,14,127},{-106,-3,-26,9,33,63,-33,7,33,-71,-3,-16,2,74,24,62,85,-75,65,-17,-16,65,-19,-7,50,-75,-8,70,53,-23,-20,127,127,119,30,-11,-89,-23,29,-9,-49,-64,78,36,-19,127,30,-18,-26,-83,-11,-1,-45,-111,-40,-39,-53,-67,-81,19,20,-76,-62,4,-16,11,-14,127,-36,34,-39,25,22,-44,-11,23,-44,109,-64,19,16,98,121,-100,-48,-103,33,41,1,60,14,-58,79,102,73,-36,-40,-35,37,69,-7,13,-62,-96,127,-65,23,38,1,-63,-33,-22,-9,82,15,75,-72,23,-22,-42,-32,-128,-64,8,38,1,-12,87},{-38,58,-34,-27,34,28,-78,-28,8,41,-10,-12,-17,-29,-61,-10,-49,-38,-128,-17,68,74,-15,118,42,-2,80,19,-39,-4,9,-72,55,67,-77,87,-24,37,61,-28,26,-5,-23,-32,21,-6,-78,1,33,36,60,127,38,58,99,-2,26,66,44,-25,-35,-15,-26,-44,16,-108,-71,-49,-8,-29,38,26,0,34,26,-28,-58,-19,14,-18,100,50,-12,127,56,-52,3,13,42,40,-62,-24,-6,101,-12,55,2,70,7,38,53,27,-19,122,97,127,-2,115,-34,-8,-18,50,-47,64,47,-37,-21,-47,-32,0,-91,127,-21,70,21,42,95,-55},{-128,7,-14,1,79,-78,-3,-1,-34,41,4,-39,-9,52,-128,-15,18,-59,-128,-11,25,-122,-43,85,68,-36,-7,-17,42,76,98,55,12,19,-65,-128,2,15,5,-46,6,30,120,31,-6,-128,-76,-59,0,72,61,124,-4,127,-9,86,-26,-13,-93,-14,-55,-89,-3,35,1,38,24,-128,-32,-74,-52,-13,-54,69,34,-24,-47,72,-69,12,127,1,-82,86,0,124,-108,-7,53,33,-1,127,127,13,-29,-119,7,-128,-128,46,-9,-13,8,-128,31,36,-68,-89,-39,22,-66,-43,-34,35,34,-12,-125,-42,-103,14,37,-50,56,4,-10,-60,-35,53},{-101,-45,-4,-64,-40,-36,-11,-71,-4,67,77,-77,2,-52,52,-17,101,34,65,-8,12,47,-12,-2,-22,102,44,42,55,-90,87,33,127,-51,-48,-53,26,-19,19,1,40,-13,38,-29,-1,75,106,-13,63,-110,6,33,50,61,-24,12,-6,-55,-26,32,-11,64,-22,21,-3,-122,96,-128,-44,-122,-122,11,-2,121,-36,8,-24,-128,20,-1,83,-113,-7,-128,93,36,-27,-40,86,23,24,110,-5,-118,74,-70,-61,32,-128,-8,-43,-31,2,85,27,63,-111,37,-60,47,-104,-6,-6,-20,-99,-38,64,6,-23,43,25,-128,28,-46,-88,71,-122,-14},{-84,-69,-83,-11,-5,-51,37,-46,-5,-11,50,25,-31,-24,-128,-72,19,-10,-73,-54,93,-128,54,40,-55,-58,-8,-77,-23,60,-99,-14,-19,45,-53,58,28,-18,-59,-60,-105,7,-13,-43,13,32,85,83,9,52,86,116,41,-128,-128,11,52,83,127,-51,43,51,-62,-128,12,-4,95,37,-16,-15,24,-41,13,34,-73,-53,-128,-88,10,40,-38,-46,62,-128,-58,-60,-57,89,15,-25,1,-9,-128,-61,-34,-51,9,37,-102,24,18,-35,-16,21,-50,87,-15,-16,-104,-55,-128,63,-9,-128,-55,81,-52,75,127,127,26,47,-52,-128,-57,22,-94,4},{127,-2,-50,54,-19,24,72,5,60,-56,-13,38,-6,14,-47,21,-66,6,-105,-24,-65,38,127,127,19,-97,-75,-36,15,80,64,-1,-8,73,-48,-43,-25,-41,42,-5,52,-15,-5,-55,38,87,64,39,-4,127,52,70,-5,3,-49,33,-50,-38,-35,41,-7,-20,-27,39,42,127,16,-128,0,48,113,-15,37,22,64,10,-4,127,-38,6,76,-128,58,22,-43,-128,-8,84,52,-4,-11,-9,-96,-64,-107,16,-16,-34,127,-1,25,39,-31,56,-24,-112,23,41,127,-128,31,51,34,40,74,90,-67,-2,43,-72,54,18,13,30,-47,-35,-14,62},{1,127,69,29,68,-99,63,23,42,12,-32,-32,8,16,127,5,34,56,127,-14,42,0,11,64,-67,-61,16,15,-48,2,21,2,-63,91,-54,-65,27,-62,-52,-128,-43,12,3,-117,-77,-84,-43,-44,-36,107,-17,46,14,67,-15,50,4,30,-13,-29,-38,19,-36,17,-14,126,18,-128,17,36,3,-23,14,15,7,-19,-128,97,-128,10,43,-49,52,-22,49,95,-38,-17,-42,-4,38,-19,-65,-92,6,104,17,23,-4,-29,-14,43,63,-49,19,69,17,-3,-19,-9,4,22,-77,3,-27,-42,-18,-23,41,-111,-12,-128,60,36,40,-29,116,127},{-53,-74,-128,-46,29,-35,-105,38,-14,20,-36,24,1,-14,-60,-6,-27,-50,74,3,40,47,83,34,16,-33,117,-67,10,-26,-15,-77,5,-27,-93,-19,-16,-83,-25,1,42,-4,-3,-27,-128,-5,-82,56,107,26,19,-59,-23,13,-76,-14,35,-62,5,-63,-7,86,-94,4,-2,-51,29,112,-10,-12,-6,-27,-41,-1,-65,3,-5,-89,-96,50,-10,119,-46,-55,80,-16,74,68,23,-13,24,-8,-3,127,20,15,18,86,-72,-54,13,92,-22,40,51,27,65,9,16,21,53,-14,20,50,-30,-27,12,-53,42,-43,-26,40,-19,-27,24,-91,3,12},{69,-6,76,-73,-128,16,-16,23,42,-62,-1,-66,57,-21,-77,-5,23,80,127,45,-42,-68,22,-59,-51,24,-43,-14,0,73,-15,-22,-107,41,-31,66,-33,-128,38,28,42,-3,-128,51,12,127,23,83,-97,56,71,-128,25,-124,-46,-29,-59,-32,-28,24,45,-46,10,65,-64,-67,-52,-43,73,49,-19,28,85,-93,-19,-37,-92,76,18,5,11,-128,61,-64,-74,-80,-12,-19,-40,9,2,-111,-128,-2,-73,-7,39,-11,48,-67,-9,37,-87,-115,59,-128,26,51,8,35,64,-128,-103,-47,-74,-84,66,29,56,69,30,-112,-19,-101,-41,-38,97,127},{-128,1,-123,-53,40,-3,97,89,-3,-38,37,-50,20,-10,81,-22,27,1,-9,-34,55,-128,-9,7,-12,-54,-52,7,15,127,3,49,54,73,6,-128,-88,19,-71,-3,1,39,127,-60,-55,95,9,5,-1,127,-42,127,32,-6,35,78,-124,76,35,22,-9,-9,0,114,-5,-128,93,64,-13,34,49,-14,-47,-23,-45,-2,-47,-28,-22,8,-57,127,65,-5,-127,39,-128,-37,71,-13,-119,112,-10,46,-123,-128,-69,6,-66,61,-55,-94,-43,-81,53,71,-6,-128,54,-44,-112,-18,-64,-93,-23,90,127,81,88,24,-30,42,-31,11,15,-17,-51,-128},{127,127,33,-50,-5,-74,31,-13,0,23,-92,58,40,55,127,-36,-18,53,-31,6,3,93,6,-27,-43,-103,56,47,-10,97,-29,-3,18,41,22,58,40,11,-38,-20,-23,12,14,105,-22,52,-100,-5,68,127,43,-1,-3,-72,6,-80,21,-5,-70,-44,31,-63,-97,22,-7,127,-21,83,6,-11,61,-31,20,-3,-23,-20,-37,-24,-128,-15,-31,44,49,127,72,-103,9,87,50,75,-36,-66,-37,-51,27,30,65,-111,127,-83,-9,-3,-25,31,-128,-45,62,-53,89,31,-78,8,33,5,37,6,-101,21,-40,-39,1,-30,33,-88,-14,19,-80,-23},{-105,-32,-128,-5,74,-102,37,73,19,4,-30,15,36,-31,-97,7,-33,-116,127,-86,45,-57,28,-18,68,-115,-38,12,-43,127,0,-31,-116,-79,-4,-61,-57,31,-39,-72,-126,-6,127,-41,-40,-48,-19,-71,34,47,32,87,-17,48,89,57,11,53,-128,11,19,-39,-12,107,-26,90,-16,68,-127,-53,-65,-16,-8,-60,-36,48,86,-21,-80,42,127,13,-87,-9,-128,127,-114,-4,4,80,45,41,-39,127,16,-81,13,82,-42,100,20,-22,-55,-24,23,44,16,-96,72,-70,14,50,-12,11,-17,1,86,-53,-128,-6,-93,22,-48,31,47,11,49,-96},{-66,14,41,-29,19,102,22,40,47,-36,21,-1,70,17,-48,73,53,-41,-118,-38,64,-58,33,-47,74,-64,-75,74,-16,-18,70,36,-39,59,4,70,-32,5,-4,16,38,-20,7,41,-26,4,107,-6,45,37,14,-7,-1,35,46,36,-98,-69,2,9,-8,-68,0,127,13,-123,6,-128,-28,77,10,-2,-51,-2,-19,12,15,4,-120,30,127,-24,-13,-108,-95,77,49,-52,25,2,-5,-103,125,-28,10,5,1,34,-128,21,0,49,-23,-37,103,-100,49,19,-37,-76,29,-29,-19,16,53,-19,40,-31,-78,46,-76,14,-21,1,38,-22,-51,-56},{2,-38,-64,4,99,-128,-79,40,-81,-15,-70,22,-25,-14,11,-78,-34,-19,-128,-26,-25,-8,-1,15,121,-72,-3,-26,6,-63,25,-45,-11,7,18,47,-24,-83,-66,62,48,34,-110,93,-28,84,-96,-128,-13,84,54,-28,23,33,47,14,-71,-66,38,-34,-36,51,-40,6,63,54,-2,-128,37,20,-8,-31,-2,31,18,67,78,-31,52,-29,-76,-56,-117,127,-128,39,-128,82,86,33,41,82,83,-3,-6,-91,-55,127,64,-25,3,50,14,-45,100,124,-26,13,-9,60,-25,-41,-22,15,48,-29,-81,-13,-35,34,20,127,11,15,26,3,-69,70},{53,20,-75,-19,42,31,-32,47,1,-11,4,19,44,64,37,76,6,-22,-128,-25,-52,10,-11,-52,1,-8,-75,-63,-3,52,61,32,127,-38,6,-66,-35,3,-63,-21,-1,16,-63,-32,-37,-128,-63,-22,73,-87,36,31,38,-53,-1,-8,-48,23,-95,-6,18,-47,-13,68,48,-1,52,-116,47,-34,-36,-32,3,-27,-21,62,13,-70,-31,-31,82,15,-46,-104,-3,63,35,38,45,14,-13,-31,73,-128,42,23,5,-52,-128,43,44,-7,-42,61,-17,3,45,7,-103,54,19,-18,49,57,-11,51,-128,-95,-3,4,88,-50,-22,-37,0,-128,-62,16},{-29,-3,-24,-30,19,-4,-95,68,-4,-40,-1,22,47,-19,-35,84,61,-50,82,-22,-9,26,74,-13,91,-48,37,5,-14,60,-11,3,-4,35,42,32,-34,70,-34,-21,-68,-8,-14,21,-22,18,62,61,22,-34,3,24,-21,29,-67,-66,21,-85,-75,-41,5,80,-67,-54,12,-1,-5,28,-107,-38,71,44,-31,-17,14,127,127,39,-102,26,26,61,35,61,-99,-128,-12,84,-7,90,21,-43,30,-32,73,-6,-10,17,-28,43,45,90,-10,42,-17,-24,85,30,-30,-114,49,-7,24,43,-9,51,-54,28,47,-6,21,-94,-43,-35,22,37,61,62}},{{-16,17,39,55,-13,90,-70,-31,65,-24,33,35,-128,63,60,66,98,7,-126,-2,60,-64,-7,89,28,8,-26,24,59,-12,-56,-59,58,101,-17,91,33,-96,55,-31,-86,10,-7,-111,-61,-75,33,-15,-106,108,0,-22,51,-37,-27,9,27,-33,-58,27,-34,55,33,-126,38,38,-82,-41,92,103,54,53,-37,-10,34,-1,-17,85,-45,8,-119,3,-96,77,-36,-65,-50,-29,-21,17,4,-69,20,23,-76,25,-6,-101,-68,-56,-8,9,36,14,-21,24,23,2,37,-90,-61,36,13,32,6,7,-2,37,57,-92,25,-119,-13,20,-39,13,-5,-76},{102,-81,83,39,-54,19,99,42,46,-35,-11,-46,-70,49,11,-39,27,-9,127,28,6,65,83,58,67,-80,-81,-63,74,117,-11,-98,-113,104,0,-32,-12,-30,-25,-16,95,23,6,-100,-26,-109,72,-18,12,127,-3,85,45,-14,-30,-31,39,-35,-124,39,-47,-5,2,28,-42,127,-110,-36,-9,-28,127,-6,20,37,17,14,-54,127,20,-17,-128,-105,51,120,-128,-112,16,69,-23,-28,6,-60,-52,127,-14,48,59,-40,113,-22,28,-40,-91,29,68,-71,25,9,21,-75,-11,-47,-29,11,105,101,-26,-12,42,-128,25,-128,-8,-19,12,-128,-63,-29},{51,38,-93,14,55,-128,-83,62,-38,-24,-56,45,49,-27,-9,-8,-30,-34,32,13,27,17,-15,34,21,23,-51,-28,3,79,13,-36,-42,-16,-38,-110,-32,22,0,-44,0,-49,-32,85,-102,12,-11,10,-4,-12,-21,2,-63,7,-52,21,127,-41,-128,-24,8,47,-45,-51,20,-89,-28,62,-85,-32,78,71,-58,-32,39,-5,-7,-45,-17,1,6,-18,17,52,49,-99,-78,-22,28,60,-32,-19,54,-1,19,109,-24,73,-64,-53,38,79,53,127,-128,-102,86,-46,-11,-9,76,38,25,-41,18,-16,-32,3,41,40,-50,-128,-29,10,15,-68,22,44},{-15,114,-82,80,-98,74,-1,48,50,-63,-50,-24,-31,14,99,46,-5,26,106,1,-18,-90,53,10,4,-4,-119,-51,33,67,-8,10,19,62,-38,-13,-79,-53,-5,47,-85,-1,45,16,-4,-39,30,-49,-10,52,-40,-98,31,78,36,37,40,26,103,17,-15,37,-33,-71,-49,49,-35,-70,68,76,68,14,-17,-50,91,-9,-66,19,-59,34,46,91,-29,-53,-128,-121,-3,-50,-9,18,31,27,25,51,-56,-21,8,-92,40,-94,-50,14,-25,1,-78,-54,48,7,69,-36,-50,-15,-17,-38,2,-111,30,20,5,-73,50,127,-43,-7,3,-12,59,94},{-102,31,-15,85,-19,95,-47,-23,7,-120,9,36,-18,-19,-49,-57,-55,45,2,9,-30,38,-58,-48,-83,26,-92,-16,-57,3,8,-10,-16,-119,-30,19,0,-56,-30,-48,89,-7,-51,-89,0,45,-41,-8,1,-16,0,39,15,4,92,-10,30,-21,-10,-35,-3,102,-33,-128,14,-128,-11,51,107,2,37,-84,5,-52,37,-23,60,-81,127,-8,102,-23,-120,-128,-95,47,-117,23,5,-25,16,55,-30,-102,-100,-35,38,127,-69,-32,-24,-59,-12,27,-128,92,-42,11,-27,60,-60,27,48,-33,36,-5,37,-56,70,43,49,-4,14,-7,-26,-113,83,127},{-70,-81,74,24,12,-74,-7,-4,39,86,9,23,-77,-7,18,37,36,-40,-128,-16,-23,73,-43,-89,-53,-8,102,-82,-32,-93,100,18,110,-120,-24,-97,74,-14,26,-33,-128,-1,-21,-17,-38,69,20,-15,44,-6,41,5,3,95,-5,-82,20,-52,11,34,-6,93,-9,-21,-30,-66,8,20,-31,-93,5,-5,49,35,-27,71,25,-45,-25,-8,40,87,-4,2,6,106,101,-21,-17,-46,-41,-22,18,35,60,65,-35,119,-32,43,25,-37,28,-13,-99,-78,-48,31,-9,117,2,59,23,-63,-48,10,-83,64,-48,127,-8,-70,71,-14,-57,127,9,-36},{32,-40,-45,-33,-28,0,112,-103,-62,-37,55,-39,38,-41,5,72,-84,10,-47,23,-62,-42,17,-10,-81,63,74,-51,66,97,15,-8,-88,43,-7,48,16,39,28,-10,-32,15,-52,-115,9,35,-50,-128,55,-22,-65,-44,11,32,56,55,-37,-19,67,16,-90,24,18,43,-114,-118,-53,39,-6,29,26,-32,31,-67,55,74,9,-33,-50,-84,7,-128,-11,127,-86,0,-82,39,-61,-74,-35,-71,-80,24,-16,-84,26,127,27,-41,-21,71,-76,-21,70,96,-14,43,30,-11,94,-11,27,0,-20,-20,22,-64,-48,100,-45,127,-64,42,25,40,-1,127},{66,-17,61,74,-21,-128,55,80,-41,22,87,38,-17,10,-46,46,127,28,-128,19,3,-65,-31,-106,21,58,-42,-44,14,63,127,98,44,103,-14,-103,58,98,-30,-25,24,-3,-32,-107,-113,74,37,-95,-23,6,-29,68,-22,24,-29,-38,32,-34,13,-8,-7,28,8,17,-27,17,-1,-128,19,-65,-45,30,9,31,33,-26,14,-94,127,-20,15,-55,21,-52,-23,-75,62,15,-16,-82,39,-77,-27,67,50,37,25,38,13,28,42,-70,51,-25,-48,-11,-95,7,-31,-13,-4,14,-3,-31,-7,55,9,28,118,-17,123,-11,9,61,-1,-52,-30,-22},{7,6,-36,2,-56,-75,-12,-35,13,-7,-58,25,-7,22,-52,14,39,-22,-92,5,3,-117,1,49,-18,39,54,-73,-63,38,13,50,-46,-33,-34,-27,-22,-86,23,-25,4,-11,42,-122,21,14,90,99,-35,27,-48,-16,-27,12,-17,-21,84,1,52,-22,9,9,7,127,67,-113,27,110,33,71,64,22,-31,62,2,-40,52,-101,64,-30,-82,8,-14,90,21,30,-57,-24,5,-11,61,4,-44,59,-31,-56,38,127,-117,-13,30,-11,-46,-2,-123,71,52,-75,-12,-52,26,12,20,14,-5,26,-97,-6,52,-78,-44,-17,-27,24,33,3,-55,-17},{114,-12,31,19,5,-115,22,14,37,38,-50,-34,14,55,127,14,-33,-33,38,3,61,-53,-43,-61,-57,-26,59,3,-42,-43,67,-49,-15,52,41,-84,7,-96,7,-81,43,-9,29,-23,-51,-116,4,-22,42,-14,-22,19,-15,57,61,-18,86,75,68,-34,9,67,2,-33,93,127,-5,-98,10,-18,44,-21,-14,-25,-43,37,-78,58,-49,15,-128,78,26,127,-12,31,24,-33,7,45,61,95,-47,-70,-37,71,49,-15,29,-21,-68,22,40,109,-26,-36,-24,-25,7,12,-60,-17,-21,43,-36,16,-40,-83,127,-11,64,4,-24,-23,-26,118,-1,34},{-26,45,-29,-54,88,-59,60,-58,-9,19,4,28,-20,-4,118,-39,-29,-47,101,20,-81,18,-3,127,-44,34,-97,-40,33,-29,33,-68,-33,-40,46,-112,20,-56,-71,8,73,14,-30,-6,-61,-36,-77,-115,-8,54,-69,-35,-11,-11,-36,68,-91,102,-46,0,-83,20,32,-95,5,43,-21,-93,65,-14,41,-102,-2,-22,33,-64,19,0,-23,-30,-128,-93,-128,127,-29,-116,-33,5,-13,-11,-30,-23,76,-86,25,96,-24,92,18,-108,3,-47,-47,-53,45,-75,50,-84,92,-36,-121,-96,-54,-54,52,8,28,-49,39,-128,54,32,-48,13,12,-21,35,20},{-20,-21,-81,31,42,-22,75,27,-9,-25,-16,77,-15,-1,-26,45,-38,17,-35,-34,28,-100,-61,-31,-10,-67,123,-25,-26,91,127,91,-78,-56,-28,-13,9,-2,-36,-125,-128,-32,-49,59,-17,27,-44,49,50,1,-26,-117,-1,42,-21,-107,71,-72,46,-37,33,50,-40,-6,34,-29,-18,127,7,91,80,49,-7,-104,41,89,52,-73,9,45,-91,91,-29,127,-9,-79,-29,47,30,68,-1,56,35,-115,-95,62,9,77,-41,52,9,-38,53,35,-70,-29,104,-78,56,-84,60,47,88,50,-18,-8,3,45,88,78,64,-69,-61,-8,-35,41,68,-49},{66,11,86,28,26,-35,-80,-33,4,-18,3,-29,11,37,127,34,12,31,127,31,-45,-18,19,-80,-51,42,31,42,-71,-89,-26,-7,80,-19,-44,37,31,-3,30,21,-32,-19,58,-60,48,127,-8,-27,-37,-6,-40,22,38,21,41,-26,-54,52,35,5,-27,-1,20,22,-60,92,-39,117,-24,13,-22,-43,-53,23,-20,6,12,127,40,-45,37,-43,91,-32,-7,97,74,80,71,-49,30,-79,-22,-29,-76,7,18,-58,35,-11,-5,30,-54,-60,-85,65,-46,34,-60,-62,52,-1,4,-75,-5,72,-106,-31,-113,50,9,127,-38,76,7,16,-9,-25},{68,40,-128,50,51,17,-71,-128,43,53,-33,-68,-84,88,14,4,-50,-47,-128,-12,26,33,32,113,-69,-44,-128,41,0,-30,-95,-25,48,-31,-9,-128,-46,24,14,20,27,40,110,56,26,127,-19,-31,-128,20,16,-107,44,60,-10,49,-24,11,-75,30,-14,44,-26,-95,68,56,-45,48,61,43,-22,24,-25,54,25,-9,-19,127,55,12,48,29,-111,62,-95,33,-58,-41,90,0,-15,-60,-6,61,-68,17,-17,7,127,-29,3,-28,63,5,91,50,66,40,86,58,-47,-75,-11,39,97,-11,-11,-18,-55,-128,66,-128,40,82,-31,-20,13,91},{27,94,-46,10,25,8,108,-3,-45,-68,90,-103,-1,26,60,36,-22,32,15,4,-52,-83,49,-28,-59,-50,25,-2,-60,-41,96,25,94,80,72,38,-45,-57,-43,-13,12,5,79,-49,19,-23,23,32,73,103,-32,9,-8,51,62,-9,-48,88,94,50,-59,30,41,60,-7,32,-50,-39,59,-18,20,11,106,19,46,12,-21,67,43,-12,37,-2,68,117,-87,-13,-29,45,57,-15,43,-64,47,-128,-3,18,59,-69,-37,-34,-36,12,43,-94,13,89,-13,-39,9,-36,0,1,-3,-81,-10,-26,98,-40,-56,-78,77,-128,-9,-22,4,-93,61,106},{-14,7,-63,-73,45,108,-6,39,-50,23,-21,-4,-32,40,-57,71,23,-64,114,21,11,-101,88,127,2,47,-86,27,-7,1,-39,-67,27,127,60,127,-18,-6,-28,68,-43,-11,58,-44,-5,-69,-18,-29,59,52,-61,19,16,-20,-31,25,59,58,-49,42,-5,-46,44,-61,18,-17,-79,75,-5,-3,-12,74,23,-53,8,23,19,48,-112,-112,-93,53,-31,52,-49,-44,-64,-25,-29,-17,25,-56,-26,4,-14,121,-6,127,-5,47,-16,-2,65,-33,47,101,-86,-39,-30,-66,-63,48,-23,60,41,-69,-14,5,72,-128,-3,32,-26,-27,-23,11,45,-121},{-33,58,38,-2,-22,-63,14,38,42,-10,81,-8,-73,4,-76,18,104,3,-62,3,-5,42,93,-9,94,9,-88,19,-4,-68,25,66,58,-44,49,-11,4,-105,-27,-30,75,18,67,35,-60,34,116,46,-29,-99,47,26,56,-9,-48,-46,15,-9,-128,29,52,-18,20,-34,-57,-15,-23,-27,-7,-78,-30,46,1,33,26,-46,51,-10,28,-15,14,10,11,53,-36,-56,45,27,69,-30,26,-121,-23,-21,37,-75,3,-99,37,49,39,-23,-35,33,21,23,-71,62,6,58,-19,44,4,44,36,1,19,63,-14,-24,-44,-91,-16,-13,-8,18,12,50},{29,-75,50,24,69,105,-21,-83,71,59,-30,-31,-45,49,-24,63,13,7,-51,23,-50,-17,44,-2,-23,-92,-24,-46,62,108,-125,-86,-102,14,-55,-90,63,38,-10,-4,48,34,-51,36,-29,-21,4,-55,-27,69,30,-23,63,-43,33,-14,-12,-13,-117,-6,18,-28,3,51,-22,127,-96,55,-16,111,102,43,1,-4,79,-15,26,27,84,28,0,-11,-102,127,-77,-102,23,17,14,-19,46,-75,68,127,-27,50,72,-77,113,-22,39,7,58,-51,-85,-58,106,-30,127,-128,-7,-18,48,-2,105,77,-15,26,-9,-88,66,89,32,-41,-67,22,-60,-123},{107,-28,-97,-5,45,-128,-52,68,-48,55,-97,48,28,22,-44,71,-20,68,127,-32,-52,-22,-42,-49,44,-56,27,-25,-8,-56,37,6,-39,107,0,4,49,-89,9,39,14,8,127,-115,-25,76,-47,-63,21,-3,-81,-52,-21,-80,4,70,-80,44,42,5,4,-23,-13,-12,55,-74,-32,24,-12,-18,28,23,4,19,50,-38,64,-84,-125,-48,-8,-17,7,-128,39,23,84,44,-50,-18,56,44,127,37,40,-3,44,127,22,-38,20,67,55,9,-128,-111,-42,-28,83,-80,11,37,-40,68,-9,-35,110,-43,-42,72,94,127,-18,-11,14,-1,103,-127},{-67,55,68,52,15,31,42,-32,-80,-40,-21,42,9,-3,-37,-28,1,0,4,-19,12,-25,-73,-60,-102,-32,-1,-28,-36,64,-20,-36,-34,-54,-18,-53,-52,-13,-32,78,16,-11,-13,30,-52,-93,2,11,-74,83,-37,16,-5,28,44,114,0,36,16,17,3,-12,-47,-12,-12,26,49,-29,-17,36,40,6,54,-26,29,-55,-83,-54,-98,-67,127,46,-6,-128,0,-33,-47,-26,45,-19,45,-29,66,127,93,18,23,-36,-61,13,-48,-21,-14,-45,42,-45,-70,-57,-10,67,34,-66,-33,-95,-34,-49,-36,-48,-26,4,1,-128,18,-38,-26,127,-28,-42},{-3,-8,-81,48,-2,17,-22,26,49,-28,-9,-42,55,52,31,-29,63,-14,-20,-1,9,-70,-13,68,7,14,-43,-5,-72,63,-54,28,92,-60,-44,-27,-27,47,49,59,75,-7,84,-67,-10,-2,34,-9,-61,68,10,2,-24,26,-20,-1,-15,-32,96,20,-10,25,-21,-17,17,7,-32,67,-20,-6,0,-21,34,1,-19,-26,7,-6,-31,3,1,54,4,52,-16,8,16,43,28,22,-14,74,90,-56,36,-65,53,19,2,36,-28,3,116,-50,-115,65,-104,65,-61,18,67,4,-64,50,9,11,69,14,-26,-46,50,30,48,64,0,-60,77,25},{37,30,-74,10,-21,-99,0,48,-53,-4,-41,18,19,55,110,1,38,-7,79,12,-22,54,-104,40,41,19,-10,19,-33,37,37,86,127,-8,-40,66,-10,83,22,-7,-38,-39,90,9,33,89,-72,-69,-25,-22,-36,56,-58,42,74,65,14,36,-3,-16,-31,7,-29,39,59,127,89,-62,52,104,15,-24,79,38,19,-14,43,38,58,-13,-77,60,33,44,9,22,43,16,18,-23,15,35,-14,-40,6,-23,19,127,54,36,24,21,-25,43,30,-29,-46,8,99,42,-14,31,-7,-85,40,82,-61,22,23,-43,75,-23,4,75,25,-122,25,8},{-67,75,-45,5,-1,-28,-1,-66,13,-64,-25,-47,-30,24,-56,-78,-97,24,-59,-3,-25,-23,-41,10,-102,33,3,-58,-83,-21,-79,12,-65,-128,20,-96,14,-82,-11,-25,-20,30,76,-64,-8,97,-36,24,-72,-70,21,-7,11,-9,92,100,33,-45,-20,16,-94,-54,11,-3,-27,47,-71,-105,-40,-37,61,-50,5,-75,-47,-31,-83,-106,-11,-15,84,-52,0,77,50,-25,-2,-76,21,-57,37,82,23,58,-8,-23,2,37,-114,-48,-75,25,-23,69,-86,-128,-22,-23,14,33,-32,-63,-64,-58,-7,-51,22,-59,-128,45,-53,127,-48,51,-26,118,45,-6},{2,27,14,-20,8,27,2,42,36,-39,24,45,38,88,-63,-21,17,-63,91,-55,-24,9,59,-54,43,-45,42,66,5,39,-22,39,-6,71,52,83,-57,44,-69,21,32,-56,11,5,-17,36,-59,-61,40,32,9,29,-42,36,-25,7,-44,14,47,-2,65,-48,-45,48,-53,36,-30,87,-22,22,18,-30,18,-8,13,1,63,110,-11,-31,-59,-58,57,127,-17,2,10,60,0,46,47,68,85,9,1,-13,11,-23,0,40,20,55,11,-32,31,-12,-29,-45,109,-97,97,6,-4,28,39,-105,-26,-40,19,42,36,-93,-76,29,-4,-81,-6,-98},{127,7,57,26,-17,-123,-44,-42,-62,10,-42,-41,57,-11,62,-60,-53,29,-128,4,-29,53,-34,-11,-108,-8,-49,-60,-2,-26,-24,10,55,-87,-38,-95,4,127,-32,-3,-68,-4,89,-36,-37,-59,-9,-19,63,-9,62,28,-72,39,59,-16,78,-17,42,15,-65,-28,-3,16,54,75,76,127,-33,121,46,41,71,10,-34,-23,-24,81,87,-6,-90,87,-42,-81,11,52,-32,-24,61,-45,92,52,-14,-121,-43,3,29,28,16,-25,-58,-19,22,23,10,-45,-7,18,55,-26,-11,-53,-30,-37,9,-81,-128,-32,9,60,35,80,10,-25,-19,98,-31,73},{36,60,-125,-26,51,-128,-12,33,-3,-12,34,62,-2,-13,97,-62,54,-27,118,-60,81,-4,63,-98,25,-48,-7,18,-58,-33,2,81,-84,41,21,-87,-30,-76,-92,51,-26,-55,32,85,-39,-35,-25,2,9,17,28,2,16,32,-26,28,47,-39,-8,-55,34,77,-57,90,54,-115,-49,-66,-102,-17,81,25,-1,-59,-52,80,80,8,15,-1,-11,95,-44,127,28,-3,-49,33,105,52,48,59,-38,-32,-4,40,-62,50,-72,64,30,-4,-34,47,-110,40,23,-42,24,5,-11,60,-32,65,-40,47,13,-5,65,-25,-10,104,-44,-66,4,63,81,53},{64,-89,21,34,34,14,-15,85,14,-65,-108,1,-44,7,71,28,32,-65,-110,37,-65,-33,-22,1,7,-26,-106,-38,-82,-17,127,-38,25,-14,50,24,55,29,-19,32,-128,14,14,0,-14,-103,-42,19,85,50,-21,37,4,-68,15,-50,-30,-16,-13,9,-45,-58,14,127,-82,109,114,-128,-11,-57,7,-6,-41,-76,11,47,45,127,72,-51,20,55,2,26,-47,-33,-17,79,58,27,-57,11,88,-85,-19,-63,-3,-73,37,13,38,-48,-56,-35,29,66,-31,39,124,71,-73,-34,42,-109,-79,32,-2,-54,-90,-39,18,4,-79,-8,55,49,39,3},{-6,-29,-45,-51,7,-105,-31,58,-5,70,28,-4,2,26,-9,79,-32,10,127,-34,73,-26,-74,-47,33,34,-87,8,59,-3,-72,78,-50,62,58,88,18,127,49,-6,-128,-39,90,45,50,7,-104,-30,-22,-49,55,-65,-43,-40,-49,19,88,-62,-123,3,7,44,-8,127,45,118,-81,-128,-58,42,-25,59,-92,-5,5,-66,93,-102,-84,50,67,-80,-72,27,40,127,-63,-6,-46,57,1,-53,-38,94,-11,23,10,35,-42,84,45,-12,-23,-79,-117,31,-12,-11,-33,-44,2,63,11,67,93,22,31,-61,-53,-30,-9,-125,8,24,2,66,1,-2},{76,31,-128,-58,75,-23,71,9,42,-39,39,51,82,-16,14,-2,-14,-22,-87,-29,55,39,-42,-62,-12,-109,-38,72,77,105,23,30,-50,-13,46,49,73,-87,23,-13,15,0,-43,7,-16,58,40,75,71,1,57,4,-38,-83,-20,-77,-16,-68,2,-32,0,21,-80,-13,-57,-43,-24,127,-51,-30,34,-31,41,-36,-27,50,-9,114,12,34,3,10,95,48,-102,-128,61,-12,41,38,-5,-38,8,39,-43,3,9,63,11,21,53,5,-87,37,-86,-96,-66,44,83,-37,-13,36,109,12,90,-20,86,73,-47,-13,15,-128,-2,-87,-19,-128,-24,43},{-47,13,-42,-55,-43,44,-121,-49,52,3,-13,-12,-24,76,3,-27,60,54,21,0,-23,-44,68,44,86,56,-128,48,14,0,-82,-24,-83,-61,77,-79,-24,15,69,54,111,-16,81,-51,-41,69,10,-22,-9,120,108,16,49,-125,17,-8,-24,-55,55,50,13,-72,31,-2,-2,-74,-22,-110,-39,-10,59,57,52,23,40,26,3,-98,76,46,-51,24,-53,-110,-42,43,-71,8,45,33,5,-128,-100,59,-22,3,15,45,-33,63,60,-2,56,20,0,-52,45,56,-52,-24,61,-15,-33,31,22,18,14,12,-2,-20,-17,-128,-18,-30,12,-34,-21,-2},{23,22,57,63,-38,18,100,-57,-14,-11,84,59,-31,-9,-13,17,-20,37,32,20,-29,100,46,78,127,22,-107,38,99,56,52,-28,-78,15,-42,54,-12,-43,28,15,-107,9,-63,7,28,-26,-20,8,-92,58,55,36,0,63,120,75,75,88,-50,15,-91,4,14,-3,20,41,-128,-82,124,38,38,27,82,13,53,-11,-49,119,42,-21,-128,-6,-41,127,-24,-128,9,18,32,19,9,43,92,-128,-128,6,-8,-47,106,20,21,-59,32,9,57,98,60,-80,2,-65,-31,-45,8,16,109,120,-8,16,21,42,52,-128,-39,37,14,1,-60,17},{-12,-16,58,31,34,59,108,83,-76,-22,-89,-53,13,71,65,78,80,-55,2,-10,13,70,38,-32,-22,-33,-35,-10,-64,65,39,47,43,92,-62,50,9,-95,43,-73,62,-8,51,-88,-128,6,21,-122,72,-3,16,-50,-79,9,-27,11,-45,25,22,-27,-16,58,-29,-108,38,91,26,-128,58,54,63,57,-52,-5,-36,34,-51,26,-28,-55,-5,18,-88,127,93,1,37,21,-31,65,78,-70,10,-11,39,-13,61,-63,-128,21,-25,39,16,-42,-65,-46,-8,25,47,-114,35,-25,-19,9,40,-13,-61,-56,117,-128,5,-1,36,-14,50,38,15,-44},{3,51,119,15,22,-29,41,45,-39,0,31,-19,-48,44,-23,76,43,6,105,28,4,-12,-35,-128,64,-20,-101,75,-23,-24,-48,117,-55,22,-31,25,50,-31,-15,-27,82,-31,71,-15,-83,-13,-70,-104,-58,-88,35,88,-13,36,-56,-17,-56,48,42,21,5,71,20,-128,84,39,62,-128,12,-21,48,-11,-18,45,1,56,-41,64,44,-65,2,-16,43,43,-17,127,-9,2,70,-12,31,-128,-37,28,-19,-18,39,-67,-34,-20,-8,-12,52,-43,16,62,-18,23,-36,-74,22,-37,23,29,19,103,31,-55,-12,-96,86,-76,44,-3,-11,40,9,-26},{61,11,-101,-6,-26,-69,78,28,-43,-51,23,-103,1,50,46,53,5,-60,24,44,-56,-10,-82,127,99,43,-61,-13,-2,-38,-1,1,9,54,-84,127,4,25,15,67,-98,18,56,-21,42,-43,-67,-34,-44,56,51,-17,-24,24,-44,-32,-59,-25,-73,36,-34,-13,9,-68,-19,89,-84,127,-43,33,22,24,-47,-48,13,5,-17,77,87,-100,45,-72,-128,-51,13,10,43,-20,-42,8,7,88,16,-76,13,69,-7,127,127,37,-3,-22,31,42,17,44,24,52,79,-58,1,-50,-11,-11,-3,110,-6,-71,94,-77,-16,118,20,46,14,12,-32,-44},{20,46,8,-34,101,27,22,-3,17,49,37,1,38,45,27,-33,17,57,-3,-40,-52,79,-109,91,-72,10,25,-33,63,-23,-108,-14,86,67,87,-123,78,74,60,-43,-32,16,80,29,-6,73,-77,42,-36,-24,75,127,-10,73,61,15,-128,-44,-47,1,26,34,5,-37,49,30,-64,73,-128,4,-38,45,-116,19,-22,-57,-124,56,19,48,-103,7,27,-31,95,-1,45,17,-58,49,-3,-74,-55,-78,-34,-84,-111,109,-103,42,19,74,-1,-15,-21,39,-2,61,-88,-13,-50,44,19,-32,-11,20,-7,70,-36,-27,-47,127,59,-62,-35,-83,-17,-83},{-58,-77,21,-66,-22,-128,28,-15,-27,46,-37,63,-4,54,43,13,-2,2,13,-31,20,-49,-7,-25,-20,-35,-15,-25,77,39,51,93,86,73,4,-86,39,24,-46,-110,-55,-58,-25,13,-109,-117,-75,-3,-6,-23,24,-40,-91,35,-49,-53,57,-20,17,-83,4,48,-88,83,58,49,-44,-128,-83,4,-75,50,-21,42,47,-70,-47,44,37,21,44,28,58,-128,127,-20,-52,42,58,14,-32,14,-31,-4,-63,-80,-21,74,75,0,78,45,51,5,-34,17,22,-34,-45,11,-16,34,28,-67,-30,40,78,-16,87,-109,0,-7,9,-20,4,-105,-6,-1},{-51,-77,35,-6,20,46,-36,-12,74,-16,45,8,-63,27,-2,31,-29,10,36,-10,127,92,40,53,87,-52,-4,-71,39,69,127,-93,-8,-65,-93,-16,-13,-26,48,-12,-128,6,15,-124,-46,-49,53,90,3,92,-33,4,-8,109,5,2,127,38,-11,-9,-3,115,27,-48,80,77,-45,44,41,-17,-22,52,25,25,27,62,32,127,37,-6,31,47,76,-65,45,99,13,-30,18,40,-16,-43,33,-71,-108,63,24,-78,-125,19,-29,-77,2,101,-80,117,72,125,43,-79,-66,69,27,-20,-3,-28,127,23,113,8,14,-128,17,35,-23,79,75,69},{47,-11,16,-52,-2,78,-17,34,14,-42,23,43,17,20,16,13,-24,27,-128,-49,11,-47,-29,-1,71,-5,-128,111,73,-21,90,10,70,20,77,-32,-46,62,-16,-28,33,-49,52,30,-128,-13,105,-51,63,38,0,64,16,35,59,-46,-83,46,-58,3,5,41,-13,-15,4,30,53,-128,35,-23,28,79,40,30,72,54,-27,-35,-10,1,17,-36,11,-26,50,80,-76,97,48,-5,-45,-128,-39,-24,-12,52,-7,-54,-26,37,74,2,23,-17,-63,-35,75,-57,-84,37,62,-38,69,-41,94,111,-9,0,99,-128,11,11,8,-10,-5,-19,-68,-26},{-13,114,45,65,-43,34,-8,25,-56,29,-5,-12,38,-24,127,56,46,-8,-27,-30,-67,19,-77,-25,41,47,101,-35,-14,-21,127,-13,-3,-31,-46,45,14,-65,48,-26,34,3,127,-34,25,41,-53,14,-6,-4,-12,48,-23,44,-35,14,-2,4,15,10,-69,45,5,-66,40,31,1,-33,5,-22,-13,61,109,37,-23,-5,-40,5,-60,-61,-37,-65,-10,44,48,58,-51,55,19,-51,82,42,28,80,-44,-22,25,-94,-126,26,6,-39,94,-57,-80,-21,-7,-77,-11,-72,9,-51,13,-62,4,78,-60,13,40,52,60,-128,50,42,3,48,45,74},{45,-73,-29,23,36,-70,-4,-85,46,45,-42,-47,-11,-12,-24,67,47,48,-76,25,-37,-19,21,93,73,-61,27,-38,-9,117,-19,-85,-87,21,-97,95,50,-37,34,-45,28,2,-78,50,-20,-108,-30,61,-1,71,-2,-115,46,-57,3,-55,0,-15,-128,-17,-28,17,9,54,90,127,-128,-28,65,59,125,-13,-10,89,27,9,47,-1,-80,44,-128,7,-79,100,-103,-68,39,13,47,50,-7,-54,99,-128,-128,61,-14,12,127,-56,5,15,3,-33,0,32,59,41,54,-78,8,39,32,10,56,43,-6,34,-5,-90,13,-63,57,-52,-68,-128,5,-74},{8,76,-39,-36,-41,69,51,-24,63,45,4,-14,-13,52,127,78,-18,10,-117,-53,-6,127,26,113,25,-78,-128,5,52,17,-31,-26,61,-19,53,-4,15,35,75,-31,12,2,15,34,44,2,85,64,46,46,25,41,-4,-48,-39,13,-5,-23,13,42,14,53,-31,-12,35,48,28,-70,24,68,-9,44,-52,-20,-11,12,59,21,-13,16,41,70,62,-128,-1,-55,-60,56,48,26,7,17,-99,-128,-62,13,-10,123,-25,-10,37,1,-4,24,-14,-18,34,102,-19,8,-64,-41,3,26,56,59,118,87,-9,-17,-27,127,47,38,5,-20,-56,-22},{5,31,-70,-47,28,33,-11,-51,5,-85,44,-25,-32,19,127,-74,-61,23,16,8,8,-54,6,-28,-103,-121,-84,-17,-15,73,-90,73,127,-40,29,-5,-42,-55,39,-19,127,31,74,32,21,-76,-107,-79,-41,98,3,-39,3,-39,-26,-50,84,31,-13,-16,25,43,-33,72,64,105,-53,75,92,-12,28,-66,42,36,-104,3,-66,97,-120,21,-10,-2,-63,-128,29,-87,-11,-68,21,-4,23,71,-53,-128,-28,74,8,127,37,-57,-75,51,-58,91,127,13,62,65,78,-25,-68,72,-51,-54,-44,-81,-37,-54,-17,-4,40,127,-53,-38,-1,70,-53,82},{-23,21,-105,-40,-36,15,52,16,29,-15,-4,-21,19,-9,66,-45,27,-72,-6,36,34,-29,7,-43,-22,19,-91,-39,-7,36,-115,75,127,125,1,-88,37,3,-45,0,-61,8,66,-33,-16,-51,77,-61,44,96,21,47,42,-48,-128,-4,-92,85,16,21,-15,14,-4,-32,13,47,-22,-128,-41,-47,55,28,50,81,-14,61,58,-9,-38,22,81,-94,44,106,-7,51,-44,-47,20,-31,-56,-104,-56,-102,-35,39,1,77,-30,-4,-46,41,-57,30,62,-75,-10,-25,46,49,-41,38,-15,-98,-31,37,66,48,-20,-117,36,31,-33,-98,-11,14,44,-52},{-83,34,-25,29,127,-51,29,15,-5,-21,47,15,-7,-33,-75,18,-94,-22,-116,-27,10,-92,-16,-24,-8,96,13,-33,73,22,12,55,36,-29,-11,-107,-30,39,40,-3,21,2,21,118,-23,-42,-54,-49,-32,123,-6,-26,-36,46,-21,9,-40,-69,-27,50,36,-86,7,-30,4,70,65,52,-1,6,82,5,-40,0,13,-19,90,20,-107,37,82,123,-41,63,19,-73,2,-10,28,16,-46,58,-2,85,-20,-74,38,50,-105,45,36,43,-4,-51,-128,-66,0,-47,13,-27,45,66,20,127,8,-64,-9,46,63,79,23,-128,-29,58,-19,-51,-33,-72},{-45,92,-5,19,64,13,20,-23,-48,-26,-52,-47,-44,3,-92,43,-63,19,-120,-31,71,-21,-32,44,-31,34,87,-29,-71,103,113,-14,32,38,3,85,-22,-36,53,43,106,-24,108,-45,-1,69,-53,26,21,34,-9,26,26,65,-18,17,-14,-51,-65,22,-36,49,17,-91,59,-62,31,35,28,-4,66,-7,19,57,56,-49,38,19,-54,-50,91,-33,-37,94,-5,33,47,-56,21,51,31,44,-3,-119,23,-35,109,-46,34,-62,30,9,51,34,15,-106,-26,-49,-61,57,-30,9,-8,-53,-25,-40,10,-50,26,-81,65,-128,19,59,-30,-15,45,27},{9,30,-104,-13,20,-26,-72,-51,-17,36,-107,44,27,54,74,-69,-45,-60,-88,-30,4,-11,-31,-61,-48,-98,42,-23,30,-1,-36,54,71,-49,94,73,87,-30,-34,53,9,-36,-32,94,-79,-5,-110,-46,127,-1,-15,44,-8,-109,-25,-48,-42,-106,-8,-75,4,-24,-109,-28,-27,-29,37,127,-74,-16,41,-5,-36,-36,-87,64,-77,-43,-64,25,36,-46,-44,-95,-8,-49,6,42,64,82,-45,52,-40,127,11,39,-10,-128,-24,-46,-19,76,25,0,55,62,29,-48,-34,-27,8,19,109,52,19,-17,-127,-84,-9,70,-60,-128,-11,-92,-25,-68,-93,127},{-72,-7,40,20,34,-15,14,53,45,-5,50,-4,13,31,30,64,87,-47,27,-56,28,-20,25,64,83,37,72,111,62,-35,-51,112,-87,69,24,-22,-28,127,29,-73,-28,-27,127,90,22,99,-19,43,56,43,31,113,3,9,-51,-24,77,62,54,-11,-3,8,-47,40,4,-99,38,89,22,45,-3,62,-9,29,-34,69,37,-61,-18,-38,-68,42,89,80,-107,-58,-27,104,55,45,16,1,-25,-62,-7,26,-34,-22,48,-8,49,83,-27,52,-94,13,28,39,-55,-71,-32,-21,24,-15,-39,27,14,-20,-40,44,-12,84,-63,36,36,63,-25,-92},{127,57,-16,-29,31,-30,47,-4,23,-32,-10,37,4,-5,-85,46,-99,2,-128,-50,70,127,57,86,-14,-90,-53,13,25,90,-7,62,-5,-58,71,57,-27,-8,25,-15,38,-17,-21,28,-18,76,-41,89,-41,60,-29,5,8,10,34,71,-3,-8,93,15,-8,4,21,12,98,-16,-43,127,0,31,73,-5,28,0,11,8,33,89,-84,36,84,-19,15,106,-128,-16,-21,23,-38,25,-39,60,-10,-12,-30,35,-7,127,82,4,36,41,-39,23,79,15,88,37,69,-27,-20,-18,9,17,26,-55,-65,-1,-59,89,55,45,-53,42,2,83,40,-12},{-5,52,18,-4,39,-13,31,70,-7,-36,-17,-34,1,48,43,61,76,-86,-48,-70,44,-25,27,-30,1,-53,-128,90,-30,48,-20,78,35,55,5,-35,-70,107,-47,-45,21,-47,61,57,34,123,-24,14,52,74,23,39,1,-111,-55,11,-3,-7,4,0,37,-24,-28,-58,-12,103,-8,57,-2,64,11,51,-41,2,-9,-15,59,-42,-95,-9,-104,93,38,61,-17,-34,32,47,119,58,56,-108,-7,78,-18,15,-30,-10,65,50,-16,16,9,-5,16,-60,30,-11,54,-87,-21,63,27,-55,-12,104,17,-25,-83,16,-50,-9,-58,-75,48,42,-31,-45},{-3,78,-45,-54,80,31,-22,12,30,39,42,3,-41,-10,-121,26,19,-51,-7,-4,85,104,-39,25,-26,60,-46,-56,44,24,-93,-25,-2,14,23,57,57,-15,34,-38,111,34,-55,-31,44,127,43,86,-39,-38,25,51,-6,37,45,7,-21,-31,92,-35,-51,26,4,87,-8,-84,1,127,44,-78,-47,-15,23,32,-45,-67,72,-108,-66,-2,13,-27,5,127,35,20,18,-56,8,-26,-43,127,-117,-119,-20,32,-48,103,-109,11,11,-18,-80,15,24,113,13,33,90,69,-80,44,-50,-44,-54,41,-27,-12,-69,-53,-128,-8,-27,53,-6,-40,127,24},{10,-84,-119,27,112,48,-23,-60,21,-4,-5,-58,0,45,-28,-40,7,-22,-117,16,-12,-90,68,127,-11,70,20,-27,-29,12,31,-15,26,57,-38,-39,-79,-34,-44,22,-104,33,-6,-34,43,-128,41,-72,27,90,22,-5,1,29,37,53,-37,-44,69,49,-27,2,22,-128,10,-61,-72,-45,-12,16,-80,-8,14,-2,-4,-9,55,60,-90,-1,40,48,-74,-14,-48,-6,-48,11,29,-33,-25,-42,70,-103,28,15,21,11,-26,0,1,-58,40,-95,30,11,31,-75,59,45,-60,-16,-22,72,94,49,-70,-33,-42,-18,-42,-1,17,59,-1,-13,-26,-104},{-58,-47,54,-36,-3,-39,-69,4,-5,38,64,-21,-60,-55,-110,-51,83,-13,-30,-26,21,-34,-35,-75,-89,-5,105,60,10,-116,-52,24,127,-98,-4,-17,27,-29,62,-10,32,18,58,33,37,-19,48,-1,62,-67,47,103,12,4,-40,-6,-3,47,-5,33,41,6,29,127,-80,-128,55,116,-27,-57,-25,22,-71,114,-52,54,-38,-128,113,-9,-8,37,-35,28,20,122,5,-45,3,-44,7,24,-47,33,102,-61,-69,-6,-128,36,17,-41,55,-26,-32,127,-55,32,-49,127,-36,-11,34,-78,-50,-25,22,60,-85,126,-50,87,2,-26,-33,127,-70,109},{-67,-101,31,-56,-76,-61,47,-25,-16,7,26,-10,-56,-39,-12,-97,92,-70,-107,5,2,-19,-39,-37,-33,-62,-13,5,-65,106,-51,43,44,61,24,53,110,57,-51,-27,-53,-17,-29,2,-35,-34,-16,41,66,38,-10,53,26,-119,-58,-40,-46,-8,21,-13,48,-17,-15,-106,23,34,-26,38,-19,66,-41,-21,3,41,-17,-96,-70,-19,-128,-44,50,57,-67,-128,21,60,28,71,64,-13,-4,8,-109,-64,6,-33,-73,62,2,28,-36,-14,-58,52,29,32,-76,-86,-70,57,-125,0,-58,-128,-35,-22,-93,-2,127,-33,42,73,-17,-127,-44,-128,-53,55},{60,57,-18,27,66,-44,-45,-41,18,30,-26,-37,19,35,-27,34,32,17,-83,-8,-35,121,65,80,44,-52,-67,-54,-1,114,17,-58,-36,79,1,-79,27,74,27,-39,-98,34,47,42,16,45,55,7,-39,127,62,36,-14,-69,50,-29,-7,-45,-114,26,-28,-59,16,-15,-1,127,26,35,-36,45,85,38,-13,11,58,-50,-37,127,-47,21,43,-20,65,-78,-128,-70,43,13,16,47,18,-33,100,-54,-109,32,-24,9,127,7,42,-29,14,-12,-107,47,73,31,28,-123,-66,-7,-20,4,93,47,15,15,-64,-128,3,127,26,-59,-26,-50,36,-48},{63,68,-10,31,-14,40,49,24,-4,-57,-7,27,60,37,127,42,-19,25,65,-25,92,-15,-65,-33,37,-38,-101,37,-119,59,94,-1,66,64,-95,-75,38,-82,21,-113,-52,-13,6,-23,-128,-119,2,-49,51,63,51,106,23,60,28,12,-38,17,55,-53,-25,102,14,63,40,127,-13,-19,-17,9,8,-15,-31,10,-18,-19,-108,117,-43,1,11,2,-51,-128,-40,89,-48,-17,-35,-5,37,-49,50,-14,-26,-10,44,-41,-77,-41,21,-66,65,-35,-14,-18,-8,-5,21,36,-42,79,37,-63,37,-85,39,-25,110,-17,34,-6,37,19,-19,-36,21,31},{47,-24,-112,-58,11,26,-1,26,-20,-27,-40,-11,29,2,-27,14,57,-67,54,-6,-11,-90,32,-6,9,44,-15,-20,24,59,-19,-34,111,15,31,116,-18,3,-13,11,49,-8,64,-9,-92,62,-7,43,75,-43,34,72,-9,38,-114,-46,22,-69,-40,-51,-28,-20,-59,-43,20,31,-12,-3,-78,-28,-7,49,-38,-4,-88,84,6,-19,-128,44,85,63,42,116,26,-68,37,-19,-25,40,35,-6,-91,43,-24,61,5,-12,9,0,-52,112,-5,92,-40,-54,41,-20,-68,49,-1,-24,42,48,-95,52,96,-70,-20,-10,-74,-12,-44,-52,0,61,100,-11},{-109,-30,-20,4,-128,-80,38,17,-4,-34,-4,-23,7,-32,