//2023-07-21 12:35:11.291981
#ifndef GESTURE_CONV1D_PARAMS_H
#define GESTURE_CONV1D_PARAMS_H

#include <stdint.h>
#include <stdbool.h>

struct Conv1d_Params {
	int input_width;
	int in_channels;
	int out_channels;
	int kernel_size;
	int stride_size;
	int padding_front;
	int padding_back;
	int output_width;
	double out_scale;
	double s1;
	double s2;
	double sb;
	double s4;
	int z1;
	int z2;
	int zb;
	int z4;
	};
struct Dense_Params {
	//I=BATCH_SIZE;
	int K;
	int J;
	double out_scale;
	double s1;
	double s2;
	double sb;
	double s3;
	int z1;
	int z2;
	int zb;
	int z3;
	};
static const elem_t QConv_BN1[3][3][32]=
{{{-74,-28,15,-56,-73,-16,-58,-96,-128,49,-34,37,17,38,35,-71,20,30,69,41,-2,-37,-22,35,21,34,69,35,-9,-26,108,-88},{10,51,-100,-37,-12,-50,-31,94,-128,-57,-20,-43,45,-8,-50,-53,-88,90,-66,20,24,35,-6,-8,24,-19,38,19,-48,-9,4,-40},{-31,24,48,-38,-14,51,36,10,28,13,-10,-50,18,-46,-26,18,-86,9,43,23,127,-68,61,37,28,38,-7,24,54,27,95,-35}},{{-1,-80,27,14,-10,-2,-11,-86,108,57,-14,-6,41,29,9,-30,-53,13,-2,15,110,26,-78,-26,10,-37,20,37,9,25,-37,-41},{50,-73,48,-25,25,43,-30,-78,-128,47,-12,-66,67,-19,-6,105,-115,-102,-44,-36,66,65,-74,33,-26,19,23,14,61,21,85,-12},{-68,78,64,71,-12,2,53,-11,-128,-33,-13,72,103,25,38,-31,17,45,7,23,-98,-57,-103,-35,7,18,-48,23,-63,26,27,40}},{{20,-12,23,-40,-83,2,-41,99,17,78,-50,-2,-75,21,0,105,4,-56,3,-53,-47,14,103,30,22,-39,74,7,-106,30,-91,-45},{70,-40,50,-43,8,12,-56,-75,127,-30,18,13,-73,-67,-45,5,127,89,71,23,-73,64,94,-83,12,30,-48,-17,75,31,-128,28},{-10,-63,-125,12,7,35,-26,74,127,-36,-29,51,-128,18,-19,30,61,-57,-15,53,-75,-26,89,-3,34,33,-46,22,-71,13,-128,13}}};
static const elem_t QConv_BN_flatten_1[9][32]=
{{-74,-28,15,-56,-73,-16,-58,-96,-128,49,-34,37,17,38,35,-71,20,30,69,41,-2,-37,-22,35,21,34,69,35,-9,-26,108,-88},{10,51,-100,-37,-12,-50,-31,94,-128,-57,-20,-43,45,-8,-50,-53,-88,90,-66,20,24,35,-6,-8,24,-19,38,19,-48,-9,4,-40},{-31,24,48,-38,-14,51,36,10,28,13,-10,-50,18,-46,-26,18,-86,9,43,23,127,-68,61,37,28,38,-7,24,54,27,95,-35},{-1,-80,27,14,-10,-2,-11,-86,108,57,-14,-6,41,29,9,-30,-53,13,-2,15,110,26,-78,-26,10,-37,20,37,9,25,-37,-41},{50,-73,48,-25,25,43,-30,-78,-128,47,-12,-66,67,-19,-6,105,-115,-102,-44,-36,66,65,-74,33,-26,19,23,14,61,21,85,-12},{-68,78,64,71,-12,2,53,-11,-128,-33,-13,72,103,25,38,-31,17,45,7,23,-98,-57,-103,-35,7,18,-48,23,-63,26,27,40},{20,-12,23,-40,-83,2,-41,99,17,78,-50,-2,-75,21,0,105,4,-56,3,-53,-47,14,103,30,22,-39,74,7,-106,30,-91,-45},{70,-40,50,-43,8,12,-56,-75,127,-30,18,13,-73,-67,-45,5,127,89,71,23,-73,64,94,-83,12,30,-48,-17,75,31,-128,28},{-10,-63,-125,12,7,35,-26,74,127,-36,-29,51,-128,18,-19,30,61,-57,-15,53,-75,-26,89,-3,34,33,-46,22,-71,13,-128,13}};
static const acc_t QConv_BN_bias1[32] = 
{5347,9141,1316,8193,9971,-8763,8904,3806,4398,1908,13884,1553,1671,5347,5110,-5206,7837,-4376,-1412,-9474,604,4873,-4494,5584,-9356,-7222,2976,-10779,7956,-10067,6651,11987};
const struct Conv1d_Params QConv_BN1_params = {.input_width=100, .in_channels=3,.out_channels = 32,.kernel_size =3,.stride_size=1,.padding_front= 1,.padding_back= 1,.output_width=100,.out_scale=0.003301990727800306,.s1=0.002765723345146408,.z1=-87,.s2=0.04781334820915672,.z2=0,.sb=0.0156796779745855,.zb=12,.s4=0.04004811165528999,.z4=11};
static const elem_t QConv_BN2[3][32][64]=
{{{2,-99,29,53,-8,21,-27,-7,-47,35,-40,40,27,127,19,51,40,-22,89,-84,-12,-32,28,10,47,-65,36,10,6,-16,127,28,-23,-12,-8,-78,-10,-47,-107,-29,5,32,-20,15,-30,7,32,-57,-2,-128,56,127,33,-6,25,127,-4,14,-46,114,96,46,50,-128},{-1,-79,-47,-30,33,-24,-76,-94,9,-57,73,-71,-69,-21,24,-36,45,-5,-84,19,-112,-2,9,-102,-6,-34,52,66,-20,-89,41,127,5,-25,-99,-27,4,34,115,36,-17,15,-99,-39,-26,28,-38,41,-60,15,-59,-1,-18,20,-66,-4,23,-17,-56,112,-2,-22,-1,116},{-26,-30,28,-62,2,25,-14,-17,31,47,-74,-22,-30,-43,-52,14,-2,-6,-40,-39,16,-11,2,14,4,40,63,19,4,18,-128,127,7,-58,-63,8,-38,50,93,12,-27,85,-20,-118,38,-9,17,-20,-52,-34,-19,-40,5,3,13,39,-17,57,-20,10,-1,19,8,29},{-23,42,-48,65,-51,-40,44,33,-25,36,-32,31,-36,49,3,-13,62,-24,127,-35,-60,22,6,10,44,-17,79,15,-14,-14,-60,127,58,-111,55,44,23,16,127,-66,-62,4,-67,-93,-37,-11,-1,70,44,-4,44,-68,47,14,-79,116,-14,25,20,14,54,10,-37,-128},{30,-44,53,-41,-29,52,-21,9,-48,-19,-3,-49,-37,-14,35,42,9,29,72,-128,28,-15,47,-41,-34,0,7,18,27,-27,127,127,39,87,-128,23,11,-13,-36,38,-61,116,2,54,38,47,0,69,65,-66,127,-4,55,15,26,117,31,47,-56,76,98,58,-11,-122},{-27,1,-11,-64,22,8,-39,32,1,47,-69,101,19,46,-13,23,-7,-45,39,62,-93,-35,-17,-15,17,71,43,53,10,7,127,109,26,26,10,-5,-45,46,58,11,-24,38,-5,-25,27,-3,13,-3,-55,1,-31,38,-57,-69,-21,54,-29,61,56,-25,-91,62,13,-128},{-24,33,-20,72,-27,-21,83,-22,2,-115,-3,83,-54,-128,36,32,-5,35,127,90,41,24,6,13,-121,10,31,50,26,-37,1,127,71,-68,-110,54,21,-18,126,-18,-14,-93,-104,-128,32,-62,34,9,-33,-32,66,127,-32,-4,-7,-128,-13,35,-86,81,28,101,-65,-43},{-11,11,-16,39,38,-51,18,-66,-28,18,-14,-5,11,35,-18,13,32,15,-128,-101,-28,3,8,-88,-44,-61,-6,52,-1,-37,127,35,-51,23,36,-6,39,35,-33,27,24,-104,18,45,-76,44,-8,29,-63,103,34,64,11,-43,-46,-93,-23,28,-92,100,34,-8,21,-128},{-9,32,73,-78,42,60,20,70,-3,-84,4,-24,-5,-128,-13,23,36,-4,64,74,-50,-37,-55,-94,-18,-88,39,55,-31,47,-80,34,3,-96,42,48,-20,-86,127,-9,27,-6,-41,-41,-73,70,41,-37,60,54,-4,-50,-70,4,28,-86,-46,18,-118,-71,4,-47,29,-128},{7,-69,20,-43,18,54,-65,-14,-45,-48,-44,19,54,-90,-80,28,6,-47,15,-4,96,-10,45,16,8,-65,43,-40,7,-71,28,94,45,64,-13,35,-22,66,68,41,-11,-44,46,-78,5,-34,63,-109,46,6,34,2,-33,-39,97,-105,73,68,42,6,29,37,-91,-128},{4,-17,-17,51,-83,-5,21,30,41,91,27,-23,46,-18,19,-11,-6,-4,17,23,-28,-7,-9,87,15,127,-50,24,1,4,99,104,-15,15,-115,13,-15,57,-117,30,34,-57,46,41,6,8,-59,43,-33,42,-18,40,-79,-2,-17,127,-1,25,-59,16,-35,-25,90,-128},{-14,-11,72,10,-42,60,-17,-5,-8,-16,22,-39,-55,70,28,12,23,38,72,127,-128,-2,1,-43,46,18,27,10,-18,-44,-128,-107,-19,-51,-102,-12,-21,-38,79,-42,-12,-41,-49,-23,-1,-26,-39,-101,-69,61,42,71,-5,9,59,127,27,-3,15,68,-48,-76,53,127},{1,70,3,37,-24,-78,-85,-49,-28,-62,-21,19,-11,27,10,18,21,-2,68,-128,-58,58,5,-128,36,-9,7,-5,3,-26,-128,-128,-15,-62,-22,27,15,29,96,16,-14,-19,6,-39,-4,-12,15,-28,-18,15,44,-9,61,-34,-10,-128,7,16,-37,95,37,20,-71,-75},{47,43,-52,-51,-12,-66,43,-8,-46,-68,27,-32,25,-30,-28,35,41,-12,116,85,-29,-20,-34,14,59,58,35,-32,11,-37,-52,103,15,-8,73,21,16,72,-18,-48,-76,36,-17,8,-4,11,2,113,-13,-60,-24,-57,-34,-13,20,99,-36,-34,110,-64,-25,30,-54,-128},{17,13,87,-1,-29,39,-22,-35,-40,1,-42,127,-17,55,-34,18,35,-8,-25,-116,54,7,34,118,20,71,72,-38,17,66,-128,127,27,31,50,5,27,-76,55,13,-128,-95,4,56,-12,-9,120,49,127,-11,-29,10,-12,-4,67,127,2,121,-8,21,43,96,3,-128},{-59,12,75,-52,-11,43,73,-17,14,-84,-21,-90,-27,-40,14,-3,-47,-19,-10,-66,-88,-35,-20,-16,29,-3,38,43,40,-14,126,56,8,-43,-39,-13,7,43,54,20,67,-6,14,-24,-39,24,-17,77,11,-50,3,20,94,-29,-3,-67,9,25,90,67,9,38,-79,65},{35,31,7,46,11,29,-65,51,-53,93,6,127,39,48,31,28,-6,10,127,-128,-31,7,-6,63,14,-13,-2,35,23,80,127,127,67,-79,72,95,-31,-84,32,-19,-128,-68,3,-35,-67,45,53,-21,-41,-118,60,92,29,-10,2,127,27,-27,-52,0,-45,-29,-44,-128},{-19,55,21,-79,51,-42,-53,-15,25,46,-20,-18,38,-22,26,26,6,-29,-84,86,71,4,-19,-128,7,-64,13,-16,12,-66,-128,-128,17,-17,-47,19,7,18,81,-18,-35,-4,29,45,33,48,8,88,-93,41,-5,-80,83,-41,60,118,57,60,-87,-39,-32,54,-118,62},{-37,-99,113,41,-15,-11,-59,-34,0,56,-54,10,10,-5,-16,42,-13,-29,127,127,39,4,-7,-30,3,-48,-3,-9,10,-3,75,127,-21,18,-55,-2,6,-53,77,13,23,55,8,44,-8,-56,-27,-90,23,-68,17,-33,-25,-28,9,-128,36,17,59,94,-70,-62,-50,-29},{-86,28,-88,-42,-6,33,-16,-27,37,78,-25,-1,-25,-6,-14,10,19,-13,60,-128,-34,-48,26,-54,62,67,26,4,46,61,-128,127,36,23,85,26,-24,-6,62,-28,0,9,-19,9,-11,26,24,-35,88,-39,-14,50,27,-64,8,-128,-8,90,24,40,12,64,11,-20},{-57,-16,33,-46,-1,31,-87,-18,-28,-5,-13,-46,8,-87,17,-4,1,9,-57,104,-128,52,-39,22,42,45,-35,56,3,20,-128,-128,-12,-10,4,-44,-49,27,-79,-24,82,-15,-8,-74,-31,-11,-47,-128,-6,67,37,11,35,38,-20,-128,-28,-80,-98,57,43,-78,106,127},{-11,-36,33,87,-78,21,-30,79,-18,17,88,21,63,127,0,-21,-1,1,50,-63,18,-39,91,32,21,-19,-6,17,32,55,42,127,-18,123,4,-49,-12,-57,-85,-2,-29,0,5,-90,-14,38,55,-128,104,-50,53,90,-3,20,49,-79,10,-3,-128,18,72,49,111,-66},{-30,1,-63,-59,1,-36,46,35,55,79,-73,44,-4,13,43,28,-34,-20,-95,22,-18,5,-30,-44,24,-94,0,48,19,2,127,127,-41,13,86,-46,-25,-6,34,28,36,5,-1,-31,8,-2,-40,83,-21,87,28,78,21,-25,59,127,3,-16,-42,33,0,48,23,43},{-47,-12,88,7,33,7,-36,-43,3,47,-57,23,-46,-20,17,-33,11,34,103,79,28,-29,-33,19,-34,44,-4,24,-19,14,-16,-128,12,53,-34,-28,-17,47,38,-90,-6,-49,9,-34,19,2,-36,21,-92,111,12,59,19,5,1,-59,-4,49,14,-47,-42,14,-33,28},{-8,-85,-63,35,-6,-26,63,-27,-44,2,10,31,-35,-33,11,45,54,10,-12,-106,-3,-17,36,-46,67,-1,1,15,18,21,120,-16,10,28,59,14,-53,7,-7,24,-24,37,-29,66,1,-42,-22,29,2,-74,-26,-34,-55,-25,59,-106,37,-64,77,71,-1,-26,-22,-113},{-4,50,-51,-54,-36,-11,-117,-47,-34,6,33,99,-28,26,17,48,-9,22,105,-128,1,-95,-37,58,57,-36,50,38,59,38,-87,-99,54,-11,56,-70,-23,43,-17,-6,-49,-89,5,-75,-9,61,31,-74,5,67,48,46,64,8,59,-88,54,67,-56,-17,-69,43,-3,88},{-1,56,25,-40,9,-61,-99,-57,-63,-72,52,1,53,30,32,-18,-16,-18,4,127,-96,-36,50,-28,-6,-39,-30,24,12,-64,-128,-128,38,37,-54,31,-20,-60,-112,18,25,-56,67,78,1,43,18,67,-8,-99,-42,30,-104,-19,41,22,-48,-117,-23,8,28,2,-17,113},{-9,-35,-70,27,-1,15,47,-51,-29,-7,70,-71,6,-18,42,-4,57,13,-44,11,-73,-6,54,47,-4,79,-16,-11,0,29,-128,26,49,-25,-13,-5,7,-61,85,6,-41,49,-9,36,-14,-11,-43,-38,-31,-85,15,-9,-35,-28,-24,-40,-13,34,-76,-83,5,46,52,-111},{34,23,70,52,-21,-27,28,33,-1,38,-24,-44,-2,-31,30,-16,60,53,-14,-76,6,6,46,-2,-37,47,37,-9,24,29,127,53,45,45,33,-28,13,-33,4,-3,-37,51,0,32,12,13,-21,-45,-37,-63,65,108,3,2,51,-128,18,43,-80,-49,99,38,-18,-128},{-32,15,66,8,38,-2,-61,-11,28,-85,-66,9,26,60,24,3,46,-33,-41,-6,70,15,20,-6,44,39,81,58,31,13,46,-77,62,23,10,-8,-3,-13,-83,-10,-19,-55,-36,-50,11,56,34,57,40,-72,-9,-44,-36,-37,68,84,16,82,-114,-2,-17,56,-46,-128},{-20,97,1,-20,-9,-69,57,-27,-18,-128,30,-23,-41,2,0,6,50,-4,-128,127,1,23,-32,-88,14,-60,42,23,-28,0,29,-114,39,102,-22,8,-29,-64,-96,-62,-52,110,-65,37,-62,-34,44,-60,127,-19,-80,-81,-47,26,63,-128,17,-37,-83,-128,59,-4,-28,127},{-54,-42,-79,-27,19,22,-71,-43,-1,123,-98,-50,-64,25,38,43,4,-22,108,-5,-43,10,19,-62,-17,36,-11,-15,28,68,127,-45,-17,-128,-45,15,3,-42,-128,-9,26,74,-25,-30,32,59,-59,18,-23,16,12,100,-60,-39,-78,-104,6,-55,33,-69,33,35,5,-100}},{{-18,-107,-46,-50,9,-59,-36,62,-40,-18,14,-16,-4,62,9,-14,23,41,-24,42,-85,-36,2,-22,49,-22,55,-24,12,30,68,34,-16,62,-57,-83,22,-98,-22,7,-31,3,-56,-26,2,25,35,-68,20,-128,64,47,-99,-17,-2,-117,20,18,-33,29,-6,-36,-10,34},{18,45,52,11,12,-6,-50,-75,3,32,-31,-49,-66,31,16,18,-19,57,-128,90,-41,35,63,-109,-48,8,-5,61,22,-115,29,32,28,73,33,4,-10,-2,18,-9,39,11,-67,-80,-61,75,-2,82,-26,-29,58,13,43,-15,-39,-4,4,19,-57,80,75,-53,38,-90},{12,-59,59,17,39,13,1,-46,32,-62,-44,18,0,-79,-6,4,-16,39,-69,92,82,16,4,82,33,24,31,-27,-15,45,47,-97,5,30,-33,4,-27,-51,-2,27,17,63,9,-42,-13,-2,32,-17,-65,-65,80,-95,30,-25,-19,107,35,-63,-82,-60,-13,25,-35,31},{34,43,38,-27,-5,-18,-25,-8,-30,-74,-55,127,-12,91,7,1,47,22,108,-59,16,8,28,69,-59,56,5,54,-8,17,-91,-106,54,48,54,32,-20,-41,-42,-18,-8,105,-57,-56,-64,1,7,-4,84,-91,71,22,50,41,-2,-48,-55,78,-38,-51,86,27,-27,-54},{-28,-21,-37,19,-26,43,-22,11,-39,5,78,4,11,-1,8,43,60,67,23,-115,-18,26,38,-59,28,15,1,-45,3,14,21,127,37,34,52,-3,-44,11,85,-15,-72,31,-41,-20,-25,3,1,37,58,-55,121,75,28,-5,-6,-18,17,-14,61,-47,98,31,-101,-84},{-68,-11,51,7,34,13,31,-24,19,-37,-18,-34,-3,-44,-11,-40,5,-26,75,-116,-7,-44,-17,12,29,-56,35,46,3,-17,-52,-13,28,26,-16,-42,-17,43,83,20,-25,-76,-16,-3,32,42,-32,-4,24,41,-19,6,-13,-81,27,127,-14,43,93,127,-33,46,-61,-29},{27,-32,85,50,-50,42,-66,33,0,35,-33,102,-69,-128,-10,43,34,-21,30,61,39,10,15,95,-84,-3,64,51,2,-38,-128,16,40,49,-73,-21,5,0,-55,7,56,81,-72,-121,23,-57,46,61,85,-38,53,-39,43,9,-89,-18,-32,22,74,-48,44,14,30,116},{11,-66,27,0,31,-26,-25,7,-46,62,-6,-19,60,24,13,4,16,15,-128,52,-28,-28,0,-77,-45,-15,15,39,19,6,-6,-73,-21,93,10,-35,24,84,-122,-31,10,-31,37,73,-44,57,0,-128,51,-11,-2,-33,-56,-21,-28,77,35,18,6,-41,18,80,20,59},{-14,-9,-25,-73,56,66,-3,-23,11,6,-114,-34,-42,-46,12,-28,18,28,53,51,-126,11,26,-128,-40,-67,-5,20,13,67,64,-1,31,5,24,-49,-45,-72,127,3,-52,45,-51,-109,3,-48,9,-76,30,-128,1,94,-5,16,-13,-128,-59,-19,1,77,-24,-25,-46,-118},{-5,-8,-14,-74,41,-31,42,-11,-68,29,-69,-33,69,-116,-41,13,53,-40,-128,40,54,8,18,-38,32,-92,-12,-35,-22,-11,112,87,-19,58,26,-44,-61,-43,21,20,-58,52,47,-55,37,-25,72,-87,40,-66,-9,-47,62,-13,81,-109,23,22,-21,-56,-13,89,-106,-91},{-6,33,-61,-17,-26,-71,-25,-14,10,-14,1,-80,12,8,-48,-1,20,24,-88,-107,-19,5,9,104,61,79,-25,27,-7,-51,40,127,31,2,-101,8,-20,25,-60,2,45,7,-21,58,31,-54,24,56,32,91,49,-42,-128,-13,-19,127,38,41,95,-21,-28,-69,-19,102},{-34,-7,37,-9,22,2,8,10,-40,-21,50,9,17,56,32,45,-9,12,-72,86,-64,-25,-5,-21,57,-49,14,4,-3,-9,127,126,15,-38,80,-47,9,-11,-60,-36,5,10,13,45,29,11,5,-44,-39,-3,-60,37,38,-20,-27,-128,-35,3,-41,-90,39,25,10,91},{-42,-15,-8,-10,25,-38,-55,7,-12,-38,-68,35,15,-48,-17,18,20,14,102,-128,-15,-3,5,-6,-14,11,33,8,-2,-22,-124,127,-9,-69,69,16,41,23,69,-21,42,20,-4,18,45,78,11,-17,-58,-21,-22,-92,51,-41,-20,63,13,10,124,-26,27,42,-46,-77},{9,38,-7,-24,5,-12,-74,35,-64,-51,-55,-15,24,76,3,7,6,-28,23,126,39,35,34,3,12,-17,-28,-38,-31,-40,90,-35,53,79,127,32,5,22,26,-33,24,-3,-26,52,-37,-45,47,78,43,22,-8,42,85,21,32,-128,28,37,47,-106,14,9,16,104},{0,89,-18,-40,15,-33,-2,36,-59,-28,31,127,42,-67,-33,0,12,3,-90,-128,24,-5,40,55,30,84,65,-3,-12,53,127,127,9,53,78,21,10,-66,-5,-10,-89,15,25,-33,-84,-26,127,74,103,-37,-6,-48,10,-8,58,-35,22,-4,-53,5,73,68,-73,28},{-45,33,4,-42,29,-42,-100,-43,42,-105,33,-63,-12,57,-16,31,-40,7,-37,-26,6,-16,16,-20,25,-64,88,73,37,36,27,100,-30,23,13,-82,22,68,-52,1,18,-104,-38,-57,-2,-12,-59,123,33,37,-54,18,20,15,-9,127,-6,2,48,104,-66,-2,-19,-74},{-7,85,-24,-11,23,-42,-45,50,-98,84,-32,127,-3,9,49,8,60,8,109,-128,-14,-4,-25,49,37,57,9,-19,-27,-13,-60,127,42,-26,34,61,23,-128,-19,9,-128,-57,10,-52,-66,-58,91,9,16,-110,10,127,58,23,1,127,-55,43,-17,48,-36,-37,-61,-128},{-41,-1,59,-128,48,-4,-40,-7,7,-85,-45,-65,-6,7,-43,-4,-53,-3,-78,-89,54,24,-34,-128,49,-54,24,-9,22,-34,-79,49,-2,-3,-29,-57,18,12,-37,-5,-18,-59,7,0,-23,87,-55,33,-84,-16,19,-52,24,-41,-19,65,54,-39,3,70,-65,29,-87,127},{32,-96,78,1,-1,61,82,-36,-21,-3,-15,-64,-62,-71,-12,25,28,48,30,127,64,-36,-27,36,-7,41,23,43,4,-19,39,-128,-4,61,75,-45,-26,-38,111,-13,14,-17,31,33,-9,-49,-18,-14,45,54,38,-30,-41,-10,-57,-30,-10,12,87,-49,32,-82,44,42},{-68,70,2,-55,30,58,-37,29,-39,-15,69,113,-19,11,36,32,-2,-5,25,-105,5,-36,-8,-36,55,24,18,62,59,38,-128,62,49,7,-45,-16,-27,40,-4,19,-53,-85,22,-36,23,-41,56,32,-37,-51,-14,28,-19,-37,32,127,-17,35,-22,108,-51,-20,-26,127},{10,16,-40,-6,-45,48,-22,-17,0,42,-3,44,-16,70,45,-30,3,59,127,-128,-122,28,19,98,36,-1,18,16,41,10,127,43,-6,-33,38,4,-2,44,77,-2,71,20,-30,-85,-9,1,7,-127,31,41,50,-81,60,42,-44,127,14,-39,-72,-68,1,-9,84,-10},{-18,-100,-32,71,-44,14,57,77,-19,47,11,59,38,88,44,37,26,8,30,-118,-97,-5,106,33,30,11,55,41,31,20,-94,-64,11,114,-4,11,11,-77,-38,12,-58,42,19,-73,11,20,18,-62,119,-62,-1,88,2,-33,46,54,-27,-46,12,-8,14,11,62,5},{-50,-82,-22,-53,22,62,25,-28,-2,-5,-64,-40,45,-33,-39,20,2,-23,-10,-1,-39,-52,-47,-8,-8,-77,-28,56,37,29,86,-128,-8,69,103,-26,-30,20,-128,4,-15,-85,37,30,-45,56,17,24,-82,73,-34,-34,3,-42,68,-6,25,10,-35,66,-82,4,25,-128},{-56,23,62,-52,-35,-85,-7,32,-25,-16,47,45,-30,-6,-17,33,-21,5,-9,127,0,15,27,25,-8,38,57,-30,-16,15,53,90,3,64,-17,23,-23,-29,-87,-51,-14,-43,-27,-53,-24,-31,-6,-4,-13,31,-7,-75,-61,-40,-60,-83,-28,49,6,5,63,-6,-12,-99},{-17,-108,28,-17,-38,0,95,-40,15,-53,-32,-45,-13,45,-9,64,20,34,-55,-30,-47,16,8,65,25,-41,-6,10,-10,35,-24,-89,1,40,-34,53,-57,-66,44,-20,63,-40,17,20,-16,-55,-34,59,-60,32,45,59,-7,-12,46,-116,-25,19,36,-19,59,-15,-48,104},{-56,56,38,-17,-26,37,-77,29,-23,6,-97,-32,13,-4,55,21,-9,31,-110,-35,58,-70,25,17,-1,-76,0,10,32,-28,22,49,0,-101,-35,-69,-16,-29,92,25,38,-14,-38,-85,-30,27,77,-49,86,-28,6,-41,29,-54,58,22,46,50,20,-9,5,40,-37,-19},{-60,-47,7,1,-17,-38,-61,14,-72,11,35,-25,85,-32,-19,17,24,-21,37,-67,-32,13,61,-128,38,-7,49,15,0,-107,-80,32,42,39,26,-47,-11,-71,15,11,-2,-50,39,41,-5,2,-5,21,-66,-54,-28,15,-39,3,76,100,-36,-24,-108,73,-58,-50,-62,127},{16,-18,-35,-26,-26,-33,32,-59,-26,62,68,-30,16,-51,31,44,18,53,-16,-2,-68,26,46,110,73,87,70,-11,18,40,95,13,-21,21,44,6,-21,-68,13,-1,48,102,3,4,14,-28,4,73,-67,-36,-9,-73,-26,-6,1,-72,25,-62,32,-72,59,10,-64,127},{55,-60,-40,44,35,-16,127,39,-61,47,21,-14,35,4,-2,54,37,11,25,127,100,-18,63,73,12,4,26,25,-11,-55,58,-89,-9,92,51,-66,-30,-86,127,-22,-74,67,-38,59,-43,-29,13,-61,-87,90,49,54,41,17,49,-4,45,15,55,13,61,-36,-53,127},{-54,-21,-16,-23,14,-26,-69,-47,20,-103,-18,21,44,-43,59,53,13,-24,21,79,-7,4,24,8,1,-15,54,30,15,50,-42,-128,35,-48,28,18,1,1,-93,-6,-22,20,8,-19,-17,14,17,25,45,-13,11,11,-15,-24,-16,-128,32,94,-27,-50,18,23,-14,-47},{40,16,-48,-39,-30,-84,74,-24,-5,-13,84,-38,-26,14,-3,47,93,19,-128,127,8,46,64,-55,-26,-43,65,34,-25,32,-128,-128,61,114,9,-69,48,12,-128,-31,-26,62,-74,-3,-31,10,83,51,127,-43,-17,-14,8,-35,-3,-128,7,21,-73,-128,92,3,-39,124},{-57,12,16,-33,-27,64,35,21,-35,-42,-108,9,-7,6,38,46,18,29,80,-92,34,-35,32,61,-7,-40,15,39,35,2,-126,13,26,-128,-91,-31,5,-55,-59,-20,1,1,-32,-45,-32,13,-11,49,-32,-68,98,4,49,-34,-54,-65,36,-65,-59,53,67,22,-54,-128}},{{51,-128,48,-45,4,2,127,16,-59,-99,11,33,8,41,27,44,-24,25,-33,86,-9,-48,-2,3,32,38,-17,43,5,37,-126,-18,29,74,35,-7,-26,-74,-11,25,-48,-97,-9,4,5,-19,-18,-6,22,59,-77,-15,10,-37,70,127,79,76,127,48,-43,0,-11,46},{52,-54,-28,-33,7,-54,50,-101,43,-55,-26,-51,-65,-30,-11,16,26,39,7,61,83,-18,26,-103,-46,-35,22,9,0,-105,-128,-35,18,41,-9,-37,9,-35,95,-3,25,95,-69,15,17,-2,43,-51,72,-77,-38,-80,23,36,-37,-43,-10,-30,-43,124,30,-30,32,127},{-4,-36,9,-17,-16,-26,-128,-11,-47,38,-76,46,-2,7,-26,16,-2,-25,31,43,6,27,-41,-4,16,-56,54,33,22,-37,15,127,-24,-27,-56,2,-13,24,-60,-10,36,-6,49,-31,79,10,17,6,-63,9,-20,-3,4,21,-57,127,27,10,47,107,14,37,-68,-128},{9,49,61,30,-32,-76,28,34,23,82,28,5,4,18,25,2,40,36,-53,-111,113,30,35,118,-61,19,21,-5,7,22,127,-128,13,19,1,23,-25,19,32,-33,-30,80,18,43,-14,-63,37,57,66,-73,72,51,-25,-15,-56,74,-62,2,2,-71,43,56,-20,71},{-35,-48,-23,21,-31,-23,72,20,30,127,-22,76,-14,22,25,47,-3,69,-8,127,127,-44,-8,70,56,23,0,-42,21,-31,-128,-97,6,-29,18,0,16,-90,127,10,-34,108,-51,17,12,-33,58,-72,43,51,97,-106,-34,-7,-22,127,47,-60,47,-127,-27,-79,-67,127},{-49,-14,-59,-35,29,-23,-47,-17,-15,53,-88,-37,-2,-49,-2,-18,-31,31,-60,71,-36,-70,17,-63,23,-33,-6,40,-12,54,-128,-15,-8,30,0,47,-22,-23,37,1,6,18,-10,-47,-16,41,10,35,-1,78,-46,66,-86,-63,8,105,14,4,-45,-7,-91,34,-44,98},{7,39,41,25,-23,-22,59,-41,-2,-20,25,20,-82,-128,45,45,-1,21,69,-45,63,-15,2,64,-115,-38,2,10,15,-62,-108,-128,86,-23,-28,20,-6,49,-21,-31,-6,124,-39,-123,-2,-63,112,-52,127,-120,-27,-25,-63,-30,14,-99,-39,-98,4,-12,14,117,28,-69},{15,-33,83,21,25,-69,-79,-70,15,-30,18,-1,47,4,32,-46,19,28,-115,-67,116,-23,41,-17,12,55,16,17,25,-23,71,-80,-14,127,102,-3,36,-11,-29,-31,38,-10,34,10,-89,57,55,-128,-32,-7,-61,78,22,5,-18,-128,-40,-31,87,59,23,69,67,76},{31,-128,-16,-45,46,66,33,-62,-18,-40,-105,40,25,-39,-36,22,-40,35,107,-128,-128,-21,-49,-96,-8,-128,-51,-17,21,98,92,127,22,-128,-128,-74,-26,4,98,25,-15,-128,-21,-72,-65,-66,12,-63,-85,-60,-24,127,8,25,111,-4,55,38,88,91,-128,-128,61,-128},{-28,39,32,-62,13,38,-30,37,-2,6,-58,59,11,-55,-78,17,66,-57,-128,-128,25,9,86,-104,16,-79,-6,-9,-10,2,54,58,48,65,-87,0,-67,59,24,4,-25,-12,-35,-71,43,30,7,-36,65,-107,2,-15,-48,-30,61,122,2,71,-94,106,55,82,-8,-128},{-22,-76,-41,15,-57,-21,37,-4,67,65,-43,-34,-25,-45,-36,-20,31,-25,57,127,-12,-28,5,127,25,69,-21,12,11,-63,13,-128,-15,-41,-19,-56,16,0,86,33,33,75,9,15,2,-48,38,117,-60,85,-6,-98,-128,32,-40,-103,-35,-11,24,51,-48,-9,5,64},{9,-27,12,-10,44,24,-49,27,9,-32,-30,-90,-61,-4,13,-8,-26,-2,-60,77,-62,15,34,-128,-14,-25,5,30,-7,-3,-60,-128,-17,33,-50,1,-31,-7,-49,-39,-13,50,-41,81,-23,-61,-54,-128,28,27,-11,1,-81,18,6,127,7,-2,-72,-86,-33,53,52,-76},{-48,-22,25,-55,0,-28,72,-26,-18,127,-128,-1,3,8,-17,-43,-8,19,67,-128,-17,10,-28,51,-6,-86,-15,11,-23,-10,38,127,-19,30,46,-9,-8,-34,127,-18,-37,-40,-22,-10,7,72,13,-5,-97,3,-44,-27,4,-44,2,127,38,-46,13,-11,-21,13,-17,80},{-30,21,-23,22,21,9,-120,-6,-22,-74,107,-3,30,6,3,39,-16,-8,8,-128,109,-4,31,47,-31,41,-20,-24,14,46,-128,-128,23,26,127,74,-13,22,-100,-72,-12,55,-31,-57,-31,24,-15,28,20,21,79,-15,10,22,-55,60,-20,4,-35,-9,62,30,42,127},{12,61,58,22,-9,-28,-2,-5,-32,-24,111,127,3,50,13,6,48,26,65,-128,31,20,51,-15,-11,97,42,18,17,36,3,-128,72,-1,31,-26,15,-6,9,-19,-24,46,-6,3,-74,23,127,127,127,-47,48,-71,53,-11,36,-122,35,50,63,-67,54,63,-37,127},{31,-4,43,16,20,-35,-68,-13,17,-128,-54,-8,19,-32,31,28,22,20,-128,123,-128,1,-6,-13,34,-77,14,19,43,60,7,-35,16,-18,-57,-65,-28,-20,-99,-2,-2,28,-4,-73,15,39,-38,-6,12,43,-73,100,-27,-30,48,-112,11,126,64,-12,45,79,-50,-110},{-62,65,-5,44,-43,77,89,-17,-2,-46,-80,127,38,-22,44,24,-42,40,127,-128,-128,-1,13,48,63,-7,20,24,-18,-15,-38,127,52,-79,5,55,-18,-55,50,-2,-45,-64,-6,85,-126,-7,16,-68,-18,-43,34,31,9,0,-33,62,-49,-6,110,-70,25,-70,-127,-61},{22,8,-65,-128,-5,39,-81,-4,-28,-48,-11,-16,11,21,-48,-1,24,-38,-126,127,58,22,22,-128,38,-107,-10,-9,52,-63,-128,127,-40,67,97,-49,0,29,-12,-3,-36,-6,-17,-43,65,29,-28,-25,-90,-9,6,-87,-32,-109,42,-118,85,56,42,86,22,-42,-77,50},{-10,-62,53,29,-21,34,67,-18,-55,0,34,24,-51,55,-49,-13,-39,4,47,29,57,18,-11,-65,37,-44,32,-7,20,49,-64,102,-13,-3,33,19,-11,56,26,2,37,-46,-38,-2,44,-1,-66,3,-17,-62,-11,87,50,-14,-6,-39,38,-60,15,-9,-64,-84,42,127},{-49,-43,-49,36,6,6,48,37,19,119,-15,-48,24,27,19,20,32,23,-49,125,77,-28,13,29,20,-3,-49,34,24,-35,-52,-128,-3,45,74,31,-29,43,28,3,35,58,11,-79,1,-10,87,26,75,-77,-49,-114,-110,7,-6,92,44,17,-81,-67,16,30,29,119},{-4,81,-33,-21,-7,-8,-47,-11,-37,-58,28,-8,8,-6,18,-25,-26,34,41,-102,-82,62,-51,115,-23,67,2,10,20,19,-39,127,28,-26,-2,-36,17,18,41,-22,42,44,-5,-57,56,0,-51,-15,21,-11,-8,-58,5,0,-44,80,31,-4,-70,-9,-4,48,59,-128},{20,-58,-17,34,-72,-24,127,102,-38,28,-92,-72,88,-53,-23,-9,46,41,-19,127,-9,-46,95,-57,21,2,38,47,15,27,-40,-66,2,61,-128,-80,-6,-44,78,25,-9,51,-62,-62,-20,-23,37,-6,-39,-68,-51,76,-104,23,34,-127,9,2,127,22,-72,-31,35,-21},{-16,-70,-28,-39,0,40,7,32,15,-128,-67,2,10,-40,-37,31,-6,-62,-20,127,-92,13,-59,10,15,-45,68,-8,38,51,127,-92,-11,-38,-74,-66,-19,-12,-118,-8,56,-90,33,-10,-16,-53,-11,56,-19,14,-1,17,2,16,14,-128,47,86,42,115,22,75,-56,-42},{-42,22,-2,19,22,-66,-54,10,-8,9,68,-120,19,17,-36,43,42,16,-25,-36,24,43,39,-51,-30,25,43,-17,-21,50,-38,-81,35,11,67,2,-49,3,-128,-97,34,42,-64,12,-20,19,41,10,-21,54,53,70,66,20,-31,34,-33,-61,-48,-93,41,49,-22,127},{21,-51,-47,52,-18,-48,-56,1,-41,78,40,-23,-34,3,15,62,-5,1,39,-102,42,28,3,51,45,-48,1,36,0,31,-51,24,17,68,-87,-3,-49,-33,3,-29,-22,69,0,18,-8,-10,26,39,33,-46,54,54,12,20,-25,127,-1,-43,-49,-21,65,-66,58,72},{-52,69,49,-2,23,54,-39,11,45,41,-59,-19,-32,-48,47,20,-28,33,70,19,-70,-114,-2,-21,33,4,11,36,51,-48,43,-107,58,-27,75,-15,-14,57,39,18,-55,71,23,49,12,-7,50,-58,70,-3,-36,-47,12,-26,-26,-128,96,14,-77,-10,10,-50,-27,14},{-33,51,-43,50,31,-8,-107,19,-88,-44,70,1,43,-16,18,-26,11,-16,-15,-41,-128,-23,24,-50,31,71,-10,-38,-44,-103,127,-128,11,-54,-63,-45,5,-56,19,-17,-26,9,13,-8,-11,42,54,91,-8,-4,-7,113,6,2,77,10,-27,-42,-128,107,-32,6,56,122},{-54,-128,-90,-31,-8,-38,-16,-3,8,124,32,25,-5,6,13,27,47,-15,-19,-83,40,-19,50,-25,-25,69,23,22,12,12,40,-128,4,100,-49,61,-33,-32,-102,28,13,15,7,-60,-1,-9,57,22,37,-4,77,-39,48,-18,-17,-26,18,14,14,-111,79,-48,38,-76},{30,-85,37,59,7,-1,127,-19,-21,127,69,3,-5,51,17,15,22,90,-128,127,127,13,26,81,65,38,6,2,-18,-90,-128,-128,0,74,127,-7,37,-118,127,31,-33,127,-46,76,38,-18,-6,-12,51,115,22,-128,-50,-36,35,-128,9,27,83,-128,-29,-37,-64,127},{-12,-46,-28,16,43,65,5,-14,-27,-62,67,62,-11,-25,0,67,31,21,67,-79,-128,35,-43,87,30,-33,23,-16,37,49,127,20,55,-27,23,-45,-1,-64,-31,7,-56,-73,29,-87,27,-27,28,36,19,18,26,127,45,10,61,102,-44,94,-52,-29,-18,-33,-1,-71},{44,-19,-14,19,-36,-107,11,-27,-24,-128,90,3,-48,46,-1,20,97,56,-128,127,84,53,119,-83,-9,22,-23,5,-15,31,11,-128,75,116,70,-53,32,20,-128,-58,-57,127,-23,32,63,25,115,19,127,-101,10,-58,49,-44,-24,-128,47,41,-128,-98,80,65,-70,100},{-80,85,-25,-76,-28,51,-13,-29,12,103,-128,5,28,-69,48,-33,40,44,45,98,49,-44,17,39,-22,-37,-24,34,-1,41,-128,-128,-8,-128,103,33,9,-49,2,28,5,-23,7,32,-39,-29,-41,45,-41,25,-45,-18,-77,-37,-11,127,42,-72,18,-118,-12,-51,-56,127}}};
static const elem_t QConv_BN_flatten_2[96][64]=
{{2,-99,29,53,-8,21,-27,-7,-47,35,-40,40,27,127,19,51,40,-22,89,-84,-12,-32,28,10,47,-65,36,10,6,-16,127,28,-23,-12,-8,-78,-10,-47,-107,-29,5,32,-20,15,-30,7,32,-57,-2,-128,56,127,33,-6,25,127,-4,14,-46,114,96,46,50,-128},{-1,-79,-47,-30,33,-24,-76,-94,9,-57,73,-71,-69,-21,24,-36,45,-5,-84,19,-112,-2,9,-102,-6,-34,52,66,-20,-89,41,127,5,-25,-99,-27,4,34,115,36,-17,15,-99,-39,-26,28,-38,41,-60,15,-59,-1,-18,20,-66,-4,23,-17,-56,112,-2,-22,-1,116},{-26,-30,28,-62,2,25,-14,-17,31,47,-74,-22,-30,-43,-52,14,-2,-6,-40,-39,16,-11,2,14,4,40,63,19,4,18,-128,127,7,-58,-63,8,-38,50,93,12,-27,85,-20,-118,38,-9,17,-20,-52,-34,-19,-40,5,3,13,39,-17,57,-20,10,-1,19,8,29},{-23,42,-48,65,-51,-40,44,33,-25,36,-32,31,-36,49,3,-13,62,-24,127,-35,-60,22,6,10,44,-17,79,15,-14,-14,-60,127,58,-111,55,44,23,16,127,-66,-62,4,-67,-93,-37,-11,-1,70,44,-4,44,-68,47,14,-79,116,-14,25,20,14,54,10,-37,-128},{30,-44,53,-41,-29,52,-21,9,-48,-19,-3,-49,-37,-14,35,42,9,29,72,-128,28,-15,47,-41,-34,0,7,18,27,-27,127,127,39,87,-128,23,11,-13,-36,38,-61,116,2,54,38,47,0,69,65,-66,127,-4,55,15,26,117,31,47,-56,76,98,58,-11,-122},{-27,1,-11,-64,22,8,-39,32,1,47,-69,101,19,46,-13,23,-7,-45,39,62,-93,-35,-17,-15,17,71,43,53,10,7,127,109,26,26,10,-5,-45,46,58,11,-24,38,-5,-25,27,-3,13,-3,-55,1,-31,38,-57,-69,-21,54,-29,61,56,-25,-91,62,13,-128},{-24,33,-20,72,-27,-21,83,-22,2,-115,-3,83,-54,-128,36,32,-5,35,127,90,41,24,6,13,-121,10,31,50,26,-37,1,127,71,-68,-110,54,21,-18,126,-18,-14,-93,-104,-128,32,-62,34,9,-33,-32,66,127,-32,-4,-7,-128,-13,35,-86,81,28,101,-65,-43},{-11,11,-16,39,38,-51,18,-66,-28,18,-14,-5,11,35,-18,13,32,15,-128,-101,-28,3,8,-88,-44,-61,-6,52,-1,-37,127,35,-51,23,36,-6,39,35,-33,27,24,-104,18,45,-76,44,-8,29,-63,103,34,64,11,-43,-46,-93,-23,28,-92,100,34,-8,21,-128},{-9,32,73,-78,42,60,20,70,-3,-84,4,-24,-5,-128,-13,23,36,-4,64,74,-50,-37,-55,-94,-18,-88,39,55,-31,47,-80,34,3,-96,42,48,-20,-86,127,-9,27,-6,-41,-41,-73,70,41,-37,60,54,-4,-50,-70,4,28,-86,-46,18,-118,-71,4,-47,29,-128},{7,-69,20,-43,18,54,-65,-14,-45,-48,-44,19,54,-90,-80,28,6,-47,15,-4,96,-10,45,16,8,-65,43,-40,7,-71,28,94,45,64,-13,35,-22,66,68,41,-11,-44,46,-78,5,-34,63,-109,46,6,34,2,-33,-39,97,-105,73,68,42,6,29,37,-91,-128},{4,-17,-17,51,-83,-5,21,30,41,91,27,-23,46,-18,19,-11,-6,-4,17,23,-28,-7,-9,87,15,127,-50,24,1,4,99,104,-15,15,-115,13,-15,57,-117,30,34,-57,46,41,6,8,-59,43,-33,42,-18,40,-79,-2,-17,127,-1,25,-59,16,-35,-25,90,-128},{-14,-11,72,10,-42,60,-17,-5,-8,-16,22,-39,-55,70,28,12,23,38,72,127,-128,-2,1,-43,46,18,27,10,-18,-44,-128,-107,-19,-51,-102,-12,-21,-38,79,-42,-12,-41,-49,-23,-1,-26,-39,-101,-69,61,42,71,-5,9,59,127,27,-3,15,68,-48,-76,53,127},{1,70,3,37,-24,-78,-85,-49,-28,-62,-21,19,-11,27,10,18,21,-2,68,-128,-58,58,5,-128,36,-9,7,-5,3,-26,-128,-128,-15,-62,-22,27,15,29,96,16,-14,-19,6,-39,-4,-12,15,-28,-18,15,44,-9,61,-34,-10,-128,7,16,-37,95,37,20,-71,-75},{47,43,-52,-51,-12,-66,43,-8,-46,-68,27,-32,25,-30,-28,35,41,-12,116,85,-29,-20,-34,14,59,58,35,-32,11,-37,-52,103,15,-8,73,21,16,72,-18,-48,-76,36,-17,8,-4,11,2,113,-13,-60,-24,-57,-34,-13,20,99,-36,-34,110,-64,-25,30,-54,-128},{17,13,87,-1,-29,39,-22,-35,-40,1,-42,127,-17,55,-34,18,35,-8,-25,-116,54,7,34,118,20,71,72,-38,17,66,-128,127,27,31,50,5,27,-76,55,13,-128,-95,4,56,-12,-9,120,49,127,-11,-29,10,-12,-4,67,127,2,121,-8,21,43,96,3,-128},{-59,12,75,-52,-11,43,73,-17,14,-84,-21,-90,-27,-40,14,-3,-47,-19,-10,-66,-88,-35,-20,-16,29,-3,38,43,40,-14,126,56,8,-43,-39,-13,7,43,54,20,67,-6,14,-24,-39,24,-17,77,11,-50,3,20,94,-29,-3,-67,9,25,90,67,9,38,-79,65},{35,31,7,46,11,29,-65,51,-53,93,6,127,39,48,31,28,-6,10,127,-128,-31,7,-6,63,14,-13,-2,35,23,80,127,127,67,-79,72,95,-31,-84,32,-19,-128,-68,3,-35,-67,45,53,-21,-41,-118,60,92,29,-10,2,127,27,-27,-52,0,-45,-29,-44,-128},{-19,55,21,-79,51,-42,-53,-15,25,46,-20,-18,38,-22,26,26,6,-29,-84,86,71,4,-19,-128,7,-64,13,-16,12,-66,-128,-128,17,-17,-47,19,7,18,81,-18,-35,-4,29,45,33,48,8,88,-93,41,-5,-80,83,-41,60,118,57,60,-87,-39,-32,54,-118,62},{-37,-99,113,41,-15,-11,-59,-34,0,56,-54,10,10,-5,-16,42,-13,-29,127,127,39,4,-7,-30,3,-48,-3,-9,10,-3,75,127,-21,18,-55,-2,6,-53,77,13,23,55,8,44,-8,-56,-27,-90,23,-68,17,-33,-25,-28,9,-128,36,17,59,94,-70,-62,-50,-29},{-86,28,-88,-42,-6,33,-16,-27,37,78,-25,-1,-25,-6,-14,10,19,-13,60,-128,-34,-48,26,-54,62,67,26,4,46,61,-128,127,36,23,85,26,-24,-6,62,-28,0,9,-19,9,-11,26,24,-35,88,-39,-14,50,27,-64,8,-128,-8,90,24,40,12,64,11,-20},{-57,-16,33,-46,-1,31,-87,-18,-28,-5,-13,-46,8,-87,17,-4,1,9,-57,104,-128,52,-39,22,42,45,-35,56,3,20,-128,-128,-12,-10,4,-44,-49,27,-79,-24,82,-15,-8,-74,-31,-11,-47,-128,-6,67,37,11,35,38,-20,-128,-28,-80,-98,57,43,-78,106,127},{-11,-36,33,87,-78,21,-30,79,-18,17,88,21,63,127,0,-21,-1,1,50,-63,18,-39,91,32,21,-19,-6,17,32,55,42,127,-18,123,4,-49,-12,-57,-85,-2,-29,0,5,-90,-14,38,55,-128,104,-50,53,90,-3,20,49,-79,10,-3,-128,18,72,49,111,-66},{-30,1,-63,-59,1,-36,46,35,55,79,-73,44,-4,13,43,28,-34,-20,-95,22,-18,5,-30,-44,24,-94,0,48,19,2,127,127,-41,13,86,-46,-25,-6,34,28,36,5,-1,-31,8,-2,-40,83,-21,87,28,78,21,-25,59,127,3,-16,-42,33,0,48,23,43},{-47,-12,88,7,33,7,-36,-43,3,47,-57,23,-46,-20,17,-33,11,34,103,79,28,-29,-33,19,-34,44,-4,24,-19,14,-16,-128,12,53,-34,-28,-17,47,38,-90,-6,-49,9,-34,19,2,-36,21,-92,111,12,59,19,5,1,-59,-4,49,14,-47,-42,14,-33,28},{-8,-85,-63,35,-6,-26,63,-27,-44,2,10,31,-35,-33,11,45,54,10,-12,-106,-3,-17,36,-46,67,-1,1,15,18,21,120,-16,10,28,59,14,-53,7,-7,24,-24,37,-29,66,1,-42,-22,29,2,-74,-26,-34,-55,-25,59,-106,37,-64,77,71,-1,-26,-22,-113},{-4,50,-51,-54,-36,-11,-117,-47,-34,6,33,99,-28,26,17,48,-9,22,105,-128,1,-95,-37,58,57,-36,50,38,59,38,-87,-99,54,-11,56,-70,-23,43,-17,-6,-49,-89,5,-75,-9,61,31,-74,5,67,48,46,64,8,59,-88,54,67,-56,-17,-69,43,-3,88},{-1,56,25,-40,9,-61,-99,-57,-63,-72,52,1,53,30,32,-18,-16,-18,4,127,-96,-36,50,-28,-6,-39,-30,24,12,-64,-128,-128,38,37,-54,31,-20,-60,-112,18,25,-56,67,78,1,43,18,67,-8,-99,-42,30,-104,-19,41,22,-48,-117,-23,8,28,2,-17,113},{-9,-35,-70,27,-1,15,47,-51,-29,-7,70,-71,6,-18,42,-4,57,13,-44,11,-73,-6,54,47,-4,79,-16,-11,0,29,-128,26,49,-25,-13,-5,7,-61,85,6,-41,49,-9,36,-14,-11,-43,-38,-31,-85,15,-9,-35,-28,-24,-40,-13,34,-76,-83,5,46,52,-111},{34,23,70,52,-21,-27,28,33,-1,38,-24,-44,-2,-31,30,-16,60,53,-14,-76,6,6,46,-2,-37,47,37,-9,24,29,127,53,45,45,33,-28,13,-33,4,-3,-37,51,0,32,12,13,-21,-45,-37,-63,65,108,3,2,51,-128,18,43,-80,-49,99,38,-18,-128},{-32,15,66,8,38,-2,-61,-11,28,-85,-66,9,26,60,24,3,46,-33,-41,-6,70,15,20,-6,44,39,81,58,31,13,46,-77,62,23,10,-8,-3,-13,-83,-10,-19,-55,-36,-50,11,56,34,57,40,-72,-9,-44,-36,-37,68,84,16,82,-114,-2,-17,56,-46,-128},{-20,97,1,-20,-9,-69,57,-27,-18,-128,30,-23,-41,2,0,6,50,-4,-128,127,1,23,-32,-88,14,-60,42,23,-28,0,29,-114,39,102,-22,8,-29,-64,-96,-62,-52,110,-65,37,-62,-34,44,-60,127,-19,-80,-81,-47,26,63,-128,17,-37,-83,-128,59,-4,-28,127},{-54,-42,-79,-27,19,22,-71,-43,-1,123,-98,-50,-64,25,38,43,4,-22,108,-5,-43,10,19,-62,-17,36,-11,-15,28,68,127,-45,-17,-128,-45,15,3,-42,-128,-9,26,74,-25,-30,32,59,-59,18,-23,16,12,100,-60,-39,-78,-104,6,-55,33,-69,33,35,5,-100},{-18,-107,-46,-50,9,-59,-36,62,-40,-18,14,-16,-4,62,9,-14,23,41,-24,42,-85,-36,2,-22,49,-22,55,-24,12,30,68,34,-16,62,-57,-83,22,-98,-22,7,-31,3,-56,-26,2,25,35,-68,20,-128,64,47,-99,-17,-2,-117,20,18,-33,29,-6,-36,-10,34},{18,45,52,11,12,-6,-50,-75,3,32,-31,-49,-66,31,16,18,-19,57,-128,90,-41,35,63,-109,-48,8,-5,61,22,-115,29,32,28,73,33,4,-10,-2,18,-9,39,11,-67,-80,-61,75,-2,82,-26,-29,58,13,43,-15,-39,-4,4,19,-57,80,75,-53,38,-90},{12,-59,59,17,39,13,1,-46,32,-62,-44,18,0,-79,-6,4,-16,39,-69,92,82,16,4,82,33,24,31,-27,-15,45,47,-97,5,30,-33,4,-27,-51,-2,27,17,63,9,-42,-13,-2,32,-17,-65,-65,80,-95,30,-25,-19,107,35,-63,-82,-60,-13,25,-35,31},{34,43,38,-27,-5,-18,-25,-8,-30,-74,-55,127,-12,91,7,1,47,22,108,-59,16,8,28,69,-59,56,5,54,-8,17,-91,-106,54,48,54,32,-20,-41,-42,-18,-8,105,-57,-56,-64,1,7,-4,84,-91,71,22,50,41,-2,-48,-55,78,-38,-51,86,27,-27,-54},{-28,-21,-37,19,-26,43,-22,11,-39,5,78,4,11,-1,8,43,60,67,23,-115,-18,26,38,-59,28,15,1,-45,3,14,21,127,37,34,52,-3,-44,11,85,-15,-72,31,-41,-20,-25,3,1,37,58,-55,121,75,28,-5,-6,-18,17,-14,61,-47,98,31,-101,-84},{-68,-11,51,7,34,13,31,-24,19,-37,-18,-34,-3,-44,-11,-40,5,-26,75,-116,-7,-44,-17,12,29,-56,35,46,3,-17,-52,-13,28,26,-16,-42,-17,43,83,20,-25,-76,-16,-3,32,42,-32,-4,24,41,-19,6,-13,-81,27,127,-14,43,93,127,-33,46,-61,-29},{27,-32,85,50,-50,42,-66,33,0,35,-33,102,-69,-128,-10,43,34,-21,30,61,39,10,15,95,-84,-3,64,51,2,-38,-128,16,40,49,-73,-21,5,0,-55,7,56,81,-72,-121,23,-57,46,61,85,-38,53,-39,43,9,-89,-18,-32,22,74,-48,44,14,30,116},{11,-66,27,0,31,-26,-25,7,-46,62,-6,-19,60,24,13,4,16,15,-128,52,-28,-28,0,-77,-45,-15,15,39,19,6,-6,-73,-21,93,10,-35,24,84,-122,-31,10,-31,37,73,-44,57,0,-128,51,-11,-2,-33,-56,-21,-28,77,35,18,6,-41,18,80,20,59},{-14,-9,-25,-73,56,66,-3,-23,11,6,-114,-34,-42,-46,12,-28,18,28,53,51,-126,11,26,-128,-40,-67,-5,20,13,67,64,-1,31,5,24,-49,-45,-72,127,3,-52,45,-51,-109,3,-48,9,-76,30,-128,1,94,-5,16,-13,-128,-59,-19,1,77,-24,-25,-46,-118},{-5,-8,-14,-74,41,-31,42,-11,-68,29,-69,-33,69,-116,-41,13,53,-40,-128,40,54,8,18,-38,32,-92,-12,-35,-22,-11,112,87,-19,58,26,-44,-61,-43,21,20,-58,52,47,-55,37,-25,72,-87,40,-66,-9,-47,62,-13,81,-109,23,22,-21,-56,-13,89,-106,-91},{-6,33,-61,-17,-26,-71,-25,-14,10,-14,1,-80,12,8,-48,-1,20,24,-88,-107,-19,5,9,104,61,79,-25,27,-7,-51,40,127,31,2,-101,8,-20,25,-60,2,45,7,-21,58,31,-54,24,56,32,91,49,-42,-128,-13,-19,127,38,41,95,-21,-28,-69,-19,102},{-34,-7,37,-9,22,2,8,10,-40,-21,50,9,17,56,32,45,-9,12,-72,86,-64,-25,-5,-21,57,-49,14,4,-3,-9,127,126,15,-38,80,-47,9,-11,-60,-36,5,10,13,45,29,11,5,-44,-39,-3,-60,37,38,-20,-27,-128,-35,3,-41,-90,39,25,10,91},{-42,-15,-8,-10,25,-38,-55,7,-12,-38,-68,35,15,-48,-17,18,20,14,102,-128,-15,-3,5,-6,-14,11,33,8,-2,-22,-124,127,-9,-69,69,16,41,23,69,-21,42,20,-4,18,45,78,11,-17,-58,-21,-22,-92,51,-41,-20,63,13,10,124,-26,27,42,-46,-77},{9,38,-7,-24,5,-12,-74,35,-64,-51,-55,-15,24,76,3,7,6,-28,23,126,39,35,34,3,12,-17,-28,-38,-31,-40,90,-35,53,79,127,32,5,22,26,-33,24,-3,-26,52,-37,-45,47,78,43,22,-8,42,85,21,32,-128,28,37,47,-106,14,9,16,104},{0,89,-18,-40,15,-33,-2,36,-59,-28,31,127,42,-67,-33,0,12,3,-90,-128,24,-5,40,55,30,84,65,-3,-12,53,127,127,9,53,78,21,10,-66,-5,-10,-89,15,25,-33,-84,-26,127,74,103,-37,-6,-48,10,-8,58,-35,22,-4,-53,5,73,68,-73,28},{-45,33,4,-42,29,-42,-100,-43,42,-105,33,-63,-12,57,-16,31,-40,7,-37,-26,6,-16,16,-20,25,-64,88,73,37,36,27,100,-30,23,13,-82,22,68,-52,1,18,-104,-38,-57,-2,-12,-59,123,33,37,-54,18,20,15,-9,127,-6,2,48,104,-66,-2,-19,-74},{-7,85,-24,-11,23,-42,-45,50,-98,84,-32,127,-3,9,49,8,60,8,109,-128,-14,-4,-25,49,37,57,9,-19,-27,-13,-60,127,42,-26,34,61,23,-128,-19,9,-128,-57,10,-52,-66,-58,91,9,16,-110,10,127,58,23,1,127,-55,43,-17,48,-36,-37,-61,-128},{-41,-1,59,-128,48,-4,-40,-7,7,-85,-45,-65,-6,7,-43,-4,-53,-3,-78,-89,54,24,-34,-128,49,-54,24,-9,22,-34,-79,49,-2,-3,-29,-57,18,12,-37,-5,-18,-59,7,0,-23,87,-55,33,-84,-16,19,-52,24,-41,-19,65,54,-39,3,70,-65,29,-87,127},{32,-96,78,1,-1,61,82,-36,-21,-3,-15,-64,-62,-71,-12,25,28,48,30,127,64,-36,-27,36,-7,41,23,43,4,-19,39,-128,-4,61,75,-45,-26,-38,111,-13,14,-17,31,33,-9,-49,-18,-14,45,54,38,-30,-41,-10,-57,-30,-10,12,87,-49,32,-82,44,42},{-68,70,2,-55,30,58,-37,29,-39,-15,69,113,-19,11,36,32,-2,-5,25,-105,5,-36,-8,-36,55,24,18,62,59,38,-128,62,49,7,-45,-16,-27,40,-4,19,-53,-85,22,-36,23,-41,56,32,-37,-51,-14,28,-19,-37,32,127,-17,35,-22,108,-51,-20,-26,127},{10,16,-40,-6,-45,48,-22,-17,0,42,-3,44,-16,70,45,-30,3,59,127,-128,-122,28,19,98,36,-1,18,16,41,10,127,43,-6,-33,38,4,-2,44,77,-2,71,20,-30,-85,-9,1,7,-127,31,41,50,-81,60,42,-44,127,14,-39,-72,-68,1,-9,84,-10},{-18,-100,-32,71,-44,14,57,77,-19,47,11,59,38,88,44,37,26,8,30,-118,-97,-5,106,33,30,11,55,41,31,20,-94,-64,11,114,-4,11,11,-77,-38,12,-58,42,19,-73,11,20,18,-62,119,-62,-1,88,2,-33,46,54,-27,-46,12,-8,14,11,62,5},{-50,-82,-22,-53,22,62,25,-28,-2,-5,-64,-40,45,-33,-39,20,2,-23,-10,-1,-39,-52,-47,-8,-8,-77,-28,56,37,29,86,-128,-8,69,103,-26,-30,20,-128,4,-15,-85,37,30,-45,56,17,24,-82,73,-34,-34,3,-42,68,-6,25,10,-35,66,-82,4,25,-128},{-56,23,62,-52,-35,-85,-7,32,-25,-16,47,45,-30,-6,-17,33,-21,5,-9,127,0,15,27,25,-8,38,57,-30,-16,15,53,90,3,64,-17,23,-23,-29,-87,-51,-14,-43,-27,-53,-24,-31,-6,-4,-13,31,-7,-75,-61,-40,-60,-83,-28,49,6,5,63,-6,-12,-99},{-17,-108,28,-17,-38,0,95,-40,15,-53,-32,-45,-13,45,-9,64,20,34,-55,-30,-47,16,8,65,25,-41,-6,10,-10,35,-24,-89,1,40,-34,53,-57,-66,44,-20,63,-40,17,20,-16,-55,-34,59,-60,32,45,59,-7,-12,46,-116,-25,19,36,-19,59,-15,-48,104},{-56,56,38,-17,-26,37,-77,29,-23,6,-97,-32,13,-4,55,21,-9,31,-110,-35,58,-70,25,17,-1,-76,0,10,32,-28,22,49,0,-101,-35,-69,-16,-29,92,25,38,-14,-38,-85,-30,27,77,-49,86,-28,6,-41,29,-54,58,22,46,50,20,-9,5,40,-37,-19},{-60,-47,7,1,-17,-38,-61,14,-72,11,35,-25,85,-32,-19,17,24,-21,37,-67,-32,13,61,-128,38,-7,49,15,0,-107,-80,32,42,39,26,-47,-11,-71,15,11,-2,-50,39,41,-5,2,-5,21,-66,-54,-28,15,-39,3,76,100,-36,-24,-108,73,-58,-50,-62,127},{16,-18,-35,-26,-26,-33,32,-59,-26,62,68,-30,16,-51,31,44,18,53,-16,-2,-68,26,46,110,73,87,70,-11,18,40,95,13,-21,21,44,6,-21,-68,13,-1,48,102,3,4,14,-28,4,73,-67,-36,-9,-73,-26,-6,1,-72,25,-62,32,-72,59,10,-64,127},{55,-60,-40,44,35,-16,127,39,-61,47,21,-14,35,4,-2,54,37,11,25,127,100,-18,63,73,12,4,26,25,-11,-55,58,-89,-9,92,51,-66,-30,-86,127,-22,-74,67,-38,59,-43,-29,13,-61,-87,90,49,54,41,17,49,-4,45,15,55,13,61,-36,-53,127},{-54,-21,-16,-23,14,-26,-69,-47,20,-103,-18,21,44,-43,59,53,13,-24,21,79,-7,4,24,8,1,-15,54,30,15,50,-42,-128,35,-48,28,18,1,1,-93,-6,-22,20,8,-19,-17,14,17,25,45,-13,11,11,-15,-24,-16,-128,32,94,-27,-50,18,23,-14,-47},{40,16,-48,-39,-30,-84,74,-24,-5,-13,84,-38,-26,14,-3,47,93,19,-128,127,8,46,64,-55,-26,-43,65,34,-25,32,-128,-128,61,114,9,-69,48,12,-128,-31,-26,62,-74,-3,-31,10,83,51,127,-43,-17,-14,8,-35,-3,-128,7,21,-73,-128,92,3,-39,124},{-57,12,16,-33,-27,64,35,21,-35,-42,-108,9,-7,6,38,46,18,29,80,-92,34,-35,32,61,-7,-40,15,39,35,2,-126,13,26,-128,-91,-31,5,-55,-59,-20,1,1,-32,-45,-32,13,-11,49,-32,-68,98,4,49,-34,-54,-65,36,-65,-59,53,67,22,-54,-128},{51,-128,48,-45,4,2,127,16,-59,-99,11,33,8,41,27,44,-24,25,-33,86,-9,-48,-2,3,32,38,-17,43,5,37,-126,-18,29,74,35,-7,-26,-74,-11,25,-48,-97,-9,4,5,-19,-18,-6,22,59,-77,-15,10,-37,70,127,79,76,127,48,-43,0,-11,46},{52,-54,-28,-33,7,-54,50,-101,43,-55,-26,-51,-65,-30,-11,16,26,39,7,61,83,-18,26,-103,-46,-35,22,9,0,-105,-128,-35,18,41,-9,-37,9,-35,95,-3,25,95,-69,15,17,-2,43,-51,72,-77,-38,-80,23,36,-37,-43,-10,-30,-43,124,30,-30,32,127},{-4,-36,9,-17,-16,-26,-128,-11,-47,38,-76,46,-2,7,-26,16,-2,-25,31,43,6,27,-41,-4,16,-56,54,33,22,-37,15,127,-24,-27,-56,2,-13,24,-60,-10,36,-6,49,-31,79,10,17,6,-63,9,-20,-3,4,21,-57,127,27,10,47,107,14,37,-68,-128},{9,49,61,30,-32,-76,28,34,23,82,28,5,4,18,25,2,40,36,-53,-111,113,30,35,118,-61,19,21,-5,7,22,127,-128,13,19,1,23,-25,19,32,-33,-30,80,18,43,-14,-63,37,57,66,-73,72,51,-25,-15,-56,74,-62,2,2,-71,43,56,-20,71},{-35,-48,-23,21,-31,-23,72,20,30,127,-22,76,-14,22,25,47,-3,69,-8,127,127,-44,-8,70,56,23,0,-42,21,-31,-128,-97,6,-29,18,0,16,-90,127,10,-34,108,-51,17,12,-33,58,-72,43,51,97,-106,-34,-7,-22,127,47,-60,47,-127,-27,-79,-67,127},{-49,-14,-59,-35,29,-23,-47,-17,-15,53,-88,-37,-2,-49,-2,-18,-31,31,-60,71,-36,-70,17,-63,23,-33,-6,40,-12,54,-128,-15,-8,30,0,47,-22,-23,37,1,6,18,-10,-47,-16,41,10,35,-1,78,-46,66,-86,-63,8,105,14,4,-45,-7,-91,34,-44,98},{7,39,41,25,-23,-22,59,-41,-2,-20,25,20,-82,-128,45,45,-1,21,69,-45,63,-15,2,64,-115,-38,2,10,15,-62,-108,-128,86,-23,-28,20,-6,49,-21,-31,-6,124,-39,-123,-2,-63,112,-52,127,-120,-27,-25,-63,-30,14,-99,-39,-98,4,-12,14,117,28,-69},{15,-33,83,21,25,-69,-79,-70,15,-30,18,-1,47,4,32,-46,19,28,-115,-67,116,-23,41,-17,12,55,16,17,25,-23,71,-80,-14,127,102,-3,36,-11,-29,-31,38,-10,34,10,-89,57,55,-128,-32,-7,-61,78,22,5,-18,-128,-40,-31,87,59,23,69,67,76},{31,-128,-16,-45,46,66,33,-62,-18,-40,-105,40,25,-39,-36,22,-40,35,107,-128,-128,-21,-49,-96,-8,-128,-51,-17,21,98,92,127,22,-128,-128,-74,-26,4,98,25,-15,-128,-21,-72,-65,-66,12,-63,-85,-60,-24,127,8,25,111,-4,55,38,88,91,-128,-128,61,-128},{-28,39,32,-62,13,38,-30,37,-2,6,-58,59,11,-55,-78,17,66,-57,-128,-128,25,9,86,-104,16,-79,-6,-9,-10,2,54,58,48,65,-87,0,-67,59,24,4,-25,-12,-35,-71,43,30,7,-36,65,-107,2,-15,-48,-30,61,122,2,71,-94,106,55,82,-8,-128},{-22,-76,-41,15,-57,-21,37,-4,67,65,-43,-34,-25,-45,-36,-20,31,-25,57,127,-12,-28,5,127,25,69,-21,12,11,-63,13,-128,-15,-41,-19,-56,16,0,86,33,33,75,9,15,2,-48,38,117,-60,85,-6,-98,-128,32,-40,-103,-35,-11,24,51,-48,-9,5,64},{9,-27,12,-10,44,24,-49,27,9,-32,-30,-90,-61,-4,13,-8,-26,-2,-60,77,-62,15,34,-128,-14,-25,5,30,-7,-3,-60,-128,-17,33,-50,1,-31,-7,-49,-39,-13,50,-41,81,-23,-61,-54,-128,28,27,-11,1,-81,18,6,127,7,-2,-72,-86,-33,53,52,-76},{-48,-22,25,-55,0,-28,72,-26,-18,127,-128,-1,3,8,-17,-43,-8,19,67,-128,-17,10,-28,51,-6,-86,-15,11,-23,-10,38,127,-19,30,46,-9,-8,-34,127,-18,-37,-40,-22,-10,7,72,13,-5,-97,3,-44,-27,4,-44,2,127,38,-46,13,-11,-21,13,-17,80},{-30,21,-23,22,21,9,-120,-6,-22,-74,107,-3,30,6,3,39,-16,-8,8,-128,109,-4,31,47,-31,41,-20,-24,14,46,-128,-128,23,26,127,74,-13,22,-100,-72,-12,55,-31,-57,-31,24,-15,28,20,21,79,-15,10,22,-55,60,-20,4,-35,-9,62,30,42,127},{12,61,58,22,-9,-28,-2,-5,-32,-24,111,127,3,50,13,6,48,26,65,-128,31,20,51,-15,-11,97,42,18,17,36,3,-128,72,-1,31,-26,15,-6,9,-19,-24,46,-6,3,-74,23,127,127,127,-47,48,-71,53,-11,36,-122,35,50,63,-67,54,63,-37,127},{31,-4,43,16,20,-35,-68,-13,17,-128,-54,-8,19,-32,31,28,22,20,-128,123,-128,1,-6,-13,34,-77,14,19,43,60,7,-35,16,-18,-57,-65,-28,-20,-99,-2,-2,28,-4,-73,15,39,-38,-6,12,43,-73,100,-27,-30,48,-112,11,126,64,-12,45,79,-50,-110},{-62,65,-5,44,-43,77,89,-17,-2,-46,-80,127,38,-22,44,24,-42,40,127,-128,-128,-1,13,48,63,-7,20,24,-18,-15,-38,127,52,-79,5,55,-18,-55,50,-2,-45,-64,-6,85,-126,-7,16,-68,-18,-43,34,31,9,0,-33,62,-49,-6,110,-70,25,-70,-127,-61},{22,8,-65,-128,-5,39,-81,-4,-28,-48,-11,-16,11,21,-48,-1,24,-38,-126,127,58,22,22,-128,38,-107,-10,-9,52,-63,-128,127,-40,67,97,-49,0,29,-12,-3,-36,-6,-17,-43,65,29,-28,-25,-90,-9,6,-87,-32,-109,42,-118,85,56,42,86,22,-42,-77,50},{-10,-62,53,29,-21,34,67,-18,-55,0,34,24,-51,55,-49,-13,-39,4,47,29,57,18,-11,-65,37,-44,32,-7,20,49,-64,102,-13,-3,33,19,-11,56,26,2,37,-46,-38,-2,44,-1,-66,3,-17,-62,-11,87,50,-14,-6,-39,38,-60,15,-9,-64,-84,42,127},{-49,-43,-49,36,6,6,48,37,19,119,-15,-48,24,27,19,20,32,23,-49,125,77,-28,13,29,20,-3,-49,34,24,-35,-52,-128,-3,45,74,31,-29,43,28,3,35,58,11,-79,1,-10,87,26,75,-77,-49,-114,-110,7,-6,92,44,17,-81,-67,16,30,29,119},{-4,81,-33,-21,-7,-8,-47,-11,-37,-58,28,-8,8,-6,18,-25,-26,34,41,-102,-82,62,-51,115,-23,67,2,10,20,19,-39,127,28,-26,-2,-36,17,18,41,-22,42,44,-5,-57,56,0,-51,-15,21,-11,-8,-58,5,0,-44,80,31,-4,-70,-9,-4,48,59,-128},{20,-58,-17,34,-72,-24,127,102,-38,28,-92,-72,88,-53,-23,-9,46,41,-19,127,-9,-46,95,-57,21,2,38,47,15,27,-40,-66,2,61,-128,-80,-6,-44,78,25,-9,51,-62,-62,-20,-23,37,-6,-39,-68,-51,76,-104,23,34,-127,9,2,127,22,-72,-31,35,-21},{-16,-70,-28,-39,0,40,7,32,15,-128,-67,2,10,-40,-37,31,-6,-62,-20,127,-92,13,-59,10,15,-45,68,-8,38,51,127,-92,-11,-38,-74,-66,-19,-12,-118,-8,56,-90,33,-10,-16,-53,-11,56,-19,14,-1,17,2,16,14,-128,47,86,42,115,22,75,-56,-42},{-42,22,-2,19,22,-66,-54,10,-8,9,68,-120,19,17,-36,43,42,16,-25,-36,24,43,39,-51,-30,25,43,-17,-21,50,-38,-81,35,11,67,2,-49,3,-128,-97,34,42,-64,12,-20,19,41,10,-21,54,53,70,66,20,-31,34,-33,-61,-48,-93,41,49,-22,127},{21,-51,-47,52,-18,-48,-56,1,-41,78,40,-23,-34,3,15,62,-5,1,39,-102,42,28,3,51,45,-48,1,36,0,31,-51,24,17,68,-87,-3,-49,-33,3,-29,-22,69,0,18,-8,-10,26,39,33,-46,54,54,12,20,-25,127,-1,-43,-49,-21,65,-66,58,72},{-52,69,49,-2,23,54,-39,11,45,41,-59,-19,-32,-48,47,20,-28,33,70,19,-70,-114,-2,-21,33,4,11,36,51,-48,43,-107,58,-27,75,-15,-14,57,39,18,-55,71,23,49,12,-7,50,-58,70,-3,-36,-47,12,-26,-26,-128,96,14,-77,-10,10,-50,-27,14},{-33,51,-43,50,31,-8,-107,19,-88,-44,70,1,43,-16,18,-26,11,-16,-15,-41,-128,-23,24,-50,31,71,-10,-38,-44,-103,127,-128,11,-54,-63,-45,5,-56,19,-17,-26,9,13,-8,-11,42,54,91,-8,-4,-7,113,6,2,77,10,-27,-42,-128,107,-32,6,56,122},{-54,-128,-90,-31,-8,-38,-16,-3,8,124,32,25,-5,6,13,27,47,-15,-19,-83,40,-19,50,-25,-25,69,23,22,12,12,40,-128,4,100,-49,61,-33,-32,-102,28,13,15,7,-60,-1,-9,57,22,37,-4,77,-39,48,-18,-17,-26,18,14,14,-111,79,-48,38,-76},{30,-85,37,59,7,-1,127,-19,-21,127,69,3,-5,51,17,15,22,90,-128,127,127,13,26,81,65,38,6,2,-18,-90,-128,-128,0,74,127,-7,37,-118,127,31,-33,127,-46,76,38,-18,-6,-12,51,115,22,-128,-50,-36,35,-128,9,27,83,-128,-29,-37,-64,127},{-12,-46,-28,16,43,65,5,-14,-27,-62,67,62,-11,-25,0,67,31,21,67,-79,-128,35,-43,87,30,-33,23,-16,37,49,127,20,55,-27,23,-45,-1,-64,-31,7,-56,-73,29,-87,27,-27,28,36,19,18,26,127,45,10,61,102,-44,94,-52,-29,-18,-33,-1,-71},{44,-19,-14,19,-36,-107,11,-27,-24,-128,90,3,-48,46,-1,20,97,56,-128,127,84,53,119,-83,-9,22,-23,5,-15,31,11,-128,75,116,70,-53,32,20,-128,-58,-57,127,-23,32,63,25,115,19,127,-101,10,-58,49,-44,-24,-128,47,41,-128,-98,80,65,-70,100},{-80,85,-25,-76,-28,51,-13,-29,12,103,-128,5,28,-69,48,-33,40,44,45,98,49,-44,17,39,-22,-37,-24,34,-1,41,-128,-128,-8,-128,103,33,9,-49,2,28,5,-23,7,32,-39,-29,-41,45,-41,25,-45,-18,-77,-37,-11,127,42,-72,18,-118,-12,-51,-56,127}};
static const acc_t QConv_BN_bias2[64] = 
{8990,8625,1082,4732,2785,2055,2907,2785,9842,-500,6070,-1716,-865,4610,-1716,-8165,-6705,-2811,839,1934,4489,6070,-8043,3029,-5245,3515,-6826,-5245,-3663,1204,839,3515,-8165,-4758,-13,5705,6557,9964,595,3150,7044,-3055,6557,9477,4367,2177,-7678,2664,-5610,12397,-4880,-2811,5219,7530,-3298,4367,-2446,-4636,6800,2907,-3906,-3298,6557,3759};
const struct Conv1d_Params QConv_BN2_params = {.input_width=100, .in_channels=32,.out_channels = 64,.kernel_size =3,.stride_size=1,.padding_front= 1,.padding_back= 1,.output_width=100,.out_scale=0.0037184970327550334,.s1=0.04004811165528999,.z1=11,.s2=0.004562640657611922,.z2=0,.sb=0.022231700959803657,.zb=8,.s4=0.049139515478818875,.z4=9};
static const elem_t QConv_BN3[3][64][128]=
{{{20,-44,-36,7,62,11,-15,-43,22,3,-21,22,99,-7,-8,51,-22,-5,27,-20,-33,-3,-45,-80,29,12,61,11,28,57,-11,-77,-8,41,-46,51,-18,29,-49,-9,-71,6,-48,-24,-54,-37,18,54,-12,17,9,55,9,34,-37,-22,66,15,36,30,-8,27,-2,-61,77,33,95,-23,5,-37,33,-18,25,-10,-7,-74,26,-25,29,3,46,39,-55,-22,30,-19,60,48,46,85,19,-18,34,18,-3,62,-8,56,17,-18,15,-35,26,41,-31,-69,20,-14,-18,12,11,46,38,-114,48,-48,25,48,-2,-44,-14,-45,29,22,6,2,25,22},{5,-67,-32,37,42,51,11,-93,20,7,6,7,-77,35,-10,41,36,-62,-10,-36,-21,-1,-11,121,2,22,5,-4,-7,-47,22,-128,-30,66,-52,-1,33,49,46,-5,-20,-2,-47,29,12,-47,11,111,3,6,-19,20,23,-63,4,-8,-104,45,-3,51,-8,-14,52,1,-27,6,-73,-52,-40,22,-32,-33,24,-68,35,-66,12,23,36,-91,-107,-5,48,35,30,-38,-32,9,-16,19,-123,43,117,73,-12,-86,5,68,-40,-50,33,44,-42,-8,-32,-17,-34,-45,-83,-11,13,-11,116,-128,-75,70,10,-76,-25,-10,-23,-5,27,-46,19,-24,-37,-33},{-9,-19,1,21,46,54,4,-16,-29,54,15,3,88,31,-36,-46,61,-6,-29,-58,24,15,14,-105,21,46,-27,34,21,-58,0,66,-18,46,64,-2,18,12,86,70,13,-44,-81,8,-23,-30,8,-28,-37,6,-38,-61,6,-29,28,11,-28,24,16,87,21,23,52,80,-6,36,17,-86,-8,-35,8,5,7,21,18,-3,13,10,-31,82,-10,105,73,-47,-50,39,-37,-99,14,-63,13,58,-128,42,-4,45,8,44,-12,10,18,45,35,-16,-18,66,-43,36,-45,-11,-1,-7,127,71,-13,21,-33,52,-30,26,21,78,9,-2,14,-96,1,-37},{-5,11,43,-21,-5,-30,26,44,53,32,-19,64,4,37,9,-9,52,-75,13,-64,46,-35,-40,-22,-21,-21,52,52,-3,30,-17,58,20,85,59,18,34,4,-120,-54,-84,14,65,-31,-43,-43,-42,56,-43,-13,-16,82,-24,14,-55,-29,97,20,-5,27,-9,16,4,75,6,42,52,-4,14,-39,3,-19,0,-7,11,35,-16,-79,11,17,-60,87,22,48,1,-80,78,35,42,20,-17,88,52,-8,-53,67,-31,-83,21,-24,50,-25,2,14,-128,-40,-12,32,62,36,30,33,99,-17,31,11,-15,62,-8,-7,23,57,10,2,-2,-38,10,37},{7,74,-58,1,-52,10,43,-11,41,-5,4,10,18,33,-33,-44,42,26,49,-42,-10,-34,15,-2,1,26,-85,-54,11,33,-25,-5,-73,-42,63,15,18,73,-12,-7,18,18,-60,-6,-22,20,-12,6,16,14,-15,-35,61,-23,-30,37,-72,-12,-53,14,23,9,-50,-49,-11,44,55,3,30,17,46,11,-55,12,-16,-18,1,18,-2,-30,11,4,-6,-31,79,36,33,19,-3,16,-46,-34,-102,-33,16,63,5,14,-9,-26,9,25,-31,-4,59,-26,-49,3,-26,-54,-38,-15,23,25,48,19,-39,-63,-29,-6,-56,3,46,-11,-28,-30,-6,-23},{13,-39,-35,-6,-72,-36,-3,-35,-16,-47,47,36,-8,37,-6,-114,-30,50,28,32,1,51,-13,-49,-36,18,3,-15,6,-27,-5,13,1,-32,12,-22,-26,-24,78,21,-70,-9,34,62,-28,-28,-17,-66,-31,-22,-2,-15,-41,4,3,18,-13,-41,24,18,-75,-60,-15,5,20,-39,-40,-30,62,-25,-50,8,24,4,-19,-62,51,-22,7,27,8,-3,-7,24,-86,34,-2,-29,6,98,-44,-67,-20,34,27,7,22,-20,-3,0,-5,-44,-10,0,-128,4,-49,32,-38,12,16,41,-29,-33,-35,-61,-18,-35,-16,11,55,-41,-33,-50,83,-49,-19,3},{-4,8,6,-30,-105,-62,48,127,85,71,25,44,99,17,7,26,-41,13,-5,-128,41,29,20,64,-20,-46,-37,-32,20,-29,-16,-101,-5,8,-15,5,47,-41,-93,12,12,11,17,-58,-30,18,27,92,19,-38,-6,-19,3,-9,57,29,-42,-3,36,-47,-1,-28,-30,33,64,119,4,-42,7,-27,30,-27,45,35,3,58,39,15,-63,6,31,-50,-46,18,-8,-17,25,-63,-7,-35,48,58,-4,-49,-31,54,-37,-74,-14,48,43,-3,27,-1,34,-89,14,-32,-18,30,-112,-13,-128,98,92,0,44,33,-33,12,-24,-39,34,25,1,26,11,58},{-23,-27,9,-6,26,-9,1,62,-40,-45,-8,48,-23,35,0,16,93,-68,47,-39,-26,-26,15,127,-30,-22,-19,-94,-21,2,-12,-70,2,-86,75,8,-111,-11,-128,-4,-80,-30,36,-128,-69,13,5,5,48,-102,20,58,0,42,37,-19,55,40,63,-5,47,-13,20,-17,-12,-74,-96,8,21,-52,59,24,33,-1,-4,17,-4,-94,8,-70,10,-29,24,-3,-128,-16,-50,-12,-34,-31,16,-70,50,15,-55,-48,9,-66,88,-30,11,6,49,4,-70,-128,-24,30,-61,19,-6,66,121,78,-50,-24,41,31,-14,-17,51,46,1,-4,77,-8,21,-72},{-32,-55,38,8,6,-33,13,60,-26,-128,27,116,-8,24,-32,-29,-58,-128,-36,108,26,-28,27,-8,-15,63,3,-87,-33,28,-34,127,49,120,-31,-70,-35,-67,46,83,-55,-85,-17,16,-51,-74,22,127,35,-13,-65,16,20,-22,-60,-49,78,-18,-63,2,33,-38,-19,2,-10,10,-15,-56,19,-29,-17,-12,-28,14,31,46,41,-22,33,-69,-82,110,-37,59,56,-24,38,2,-40,-7,-54,-128,43,13,-23,38,30,51,48,-14,64,10,-69,-41,-3,0,23,-18,10,52,-55,-26,76,59,-24,69,-48,12,25,-39,28,21,-18,-44,-21,-38,-27,-42},{9,-46,27,10,32,-3,-7,32,32,75,4,-59,118,-15,30,-3,-18,-72,72,-23,84,33,-16,19,8,-13,-24,9,-4,-14,13,57,-36,-28,95,-15,127,-128,-3,-49,-21,-11,-89,-19,-21,-7,-103,107,37,-10,-26,20,-8,-51,-97,-17,-39,5,-7,-33,55,0,-24,27,-6,65,-18,-12,36,-1,52,-55,95,78,19,22,-31,2,-65,-58,10,-16,-57,58,-104,-87,-54,19,-49,34,26,115,-52,37,-55,-66,23,-72,7,29,20,-26,21,11,127,-16,39,38,-51,107,-29,-11,-128,20,8,51,36,36,14,47,-24,-61,4,3,30,-25,-42,48},{-7,-63,44,-5,60,89,33,65,39,20,-72,-20,9,74,19,-128,-5,-47,38,-11,44,17,4,-62,17,14,37,-7,41,-14,34,-19,-21,-4,-98,-13,-94,120,-32,18,-15,-32,70,-13,-49,-39,-27,-89,30,28,-36,26,48,84,-25,-23,-26,-17,-4,53,-92,5,-17,-80,12,-67,-39,-40,37,14,-8,-43,80,-2,26,-45,-17,-30,29,60,118,-12,-22,25,33,-23,-16,68,-10,27,-1,127,-10,11,-11,-40,19,42,-44,-4,50,13,-10,-21,120,-54,-11,-33,36,19,-37,18,-117,-52,52,-37,21,2,0,-57,33,-49,-1,44,-21,36,-8,0},{44,47,-62,-5,31,59,-63,-124,-46,29,8,48,50,64,0,-26,8,33,49,-28,-42,6,10,21,61,76,33,12,35,79,18,-94,19,68,-43,22,-16,-128,6,20,-87,-12,-2,-31,46,19,-69,22,61,41,29,-96,25,-65,-128,-3,9,-20,-11,18,7,21,29,15,-13,-2,7,23,1,63,-7,-13,-10,-1,-34,4,16,-3,38,-128,34,16,-91,1,44,-30,7,-8,-21,63,-12,-128,-50,72,3,-128,-31,-80,124,-21,-70,38,37,-2,15,11,-124,18,-48,-1,-23,2,-67,-40,-62,11,-27,-63,-48,-34,-82,-28,-16,-43,46,25,7,60},{28,-10,-34,73,39,-37,-109,26,21,124,-18,-25,61,10,39,77,61,11,-29,-36,-42,-28,-6,-102,-20,8,-38,38,1,4,3,91,-7,-57,-62,38,-3,-92,-60,-46,16,-33,31,-64,-72,41,-71,-128,40,12,-52,-62,16,39,-80,16,77,-32,43,-14,-46,-3,-52,-99,61,11,22,-52,-23,-1,33,-13,55,-18,-17,-29,-40,-46,20,-104,-17,90,-103,-11,-44,-2,-47,-45,-38,125,77,4,-15,-17,33,-25,-35,-14,-128,-40,38,-8,53,-50,56,-108,25,-57,37,33,27,31,127,33,77,-46,12,-23,-6,-98,-73,16,-31,36,-7,32,3,-46},{-10,59,-10,22,-19,-33,2,54,9,-54,17,80,17,17,-26,22,-39,-101,7,21,52,26,-12,108,-66,-6,38,-128,-5,-1,-42,123,8,40,85,-52,-66,76,29,-33,-25,-92,9,-45,13,-5,35,106,85,-65,-60,-65,4,-17,-71,8,114,-5,-21,-8,35,-99,-103,9,69,94,56,-84,57,2,-6,-5,-18,58,36,19,44,-40,-14,-68,70,41,87,-107,16,-47,88,14,-32,-94,34,-121,-17,45,3,38,17,-10,72,9,-12,-25,36,-55,39,8,75,-32,52,-2,-94,-37,105,62,-15,-39,-70,11,12,35,15,-35,54,55,-1,-49,-9,74},{-6,35,32,7,46,7,23,84,3,54,-17,47,-6,-6,13,-15,13,-17,8,-102,4,79,3,-48,-4,30,3,-2,-14,15,-8,52,8,-9,23,-15,-41,39,62,-14,54,-44,-51,15,-128,4,-14,-107,66,7,21,-21,-46,27,56,16,-45,16,25,34,-4,-2,-43,83,20,-36,45,0,44,22,-37,-82,35,75,-19,-43,-15,4,-31,-24,7,-6,-48,24,-22,-51,100,59,-73,66,26,-26,6,-2,-15,-128,40,-36,-2,22,38,-28,14,6,-128,10,29,20,14,39,-57,-23,-128,25,31,40,-5,-13,7,15,10,26,-3,0,28,-11,-27,16},{6,49,44,46,88,39,19,-36,15,-82,21,-89,-46,14,8,26,12,-37,42,50,53,8,-20,-33,-17,59,-68,-43,28,-66,-36,-3,28,-16,31,-23,51,30,-20,87,59,-10,6,-19,52,35,-12,-14,0,-3,-21,-33,-3,-49,39,-30,38,-5,-50,39,-7,-17,-51,81,-27,49,-67,-77,62,14,-29,-51,86,33,4,-43,-42,8,-29,-37,-39,82,-11,12,-110,14,-28,92,-28,-6,-26,93,4,15,-10,-11,-9,-43,-26,35,-52,33,-48,56,93,-61,18,-7,36,-6,47,-64,-87,-67,3,18,-24,-34,-28,3,-59,-26,21,-17,27,6,17,76},{47,8,32,1,26,0,2,37,-22,-27,41,60,-14,8,12,38,74,30,59,-33,27,-37,0,80,48,47,-19,6,31,36,47,-17,47,38,-17,28,-21,-62,69,30,-24,-33,-56,14,-62,18,-45,-32,-31,18,4,-34,26,1,-28,-9,27,13,16,-7,-1,-13,-47,42,22,-15,54,5,-21,-24,-40,2,-7,44,25,29,-28,-48,-5,-91,-55,21,-104,26,-64,-32,77,8,-50,14,10,127,57,14,-60,-93,22,25,-3,-19,-62,25,-27,-19,-47,-40,-128,-18,55,-49,-56,2,-128,-76,2,-30,-11,-47,-7,43,-15,-74,-89,12,-8,-10,-4,-42},{31,21,26,-39,-60,-31,-20,31,12,-4,-20,19,94,7,34,91,1,12,-4,14,-17,40,10,-63,-15,36,-1,-31,-15,0,-28,81,12,-1,16,-4,-38,-51,-64,-26,-1,-50,-57,55,-32,15,-82,3,11,-10,-2,-1,0,5,-67,-19,-18,4,6,34,43,36,-42,66,82,-5,-61,-50,74,-7,-22,-41,35,54,-8,7,-6,-30,-52,-80,34,-40,-83,10,-45,-63,-59,-41,-66,-60,15,-37,-91,4,-16,-49,32,8,39,33,-38,-25,-5,40,-96,67,-57,61,34,44,41,-53,-63,21,115,-2,41,-7,-21,37,-47,-20,-42,8,2,10,21,30},{-11,-49,-8,52,35,54,13,-128,-108,-3,41,16,90,-34,12,103,127,-19,-3,87,7,-38,34,-38,-22,36,44,12,-13,9,20,127,49,108,94,29,-118,-128,27,30,-53,-18,102,-59,-35,-43,-24,31,-13,-2,19,-45,-14,-128,-128,-61,69,26,-7,11,127,6,44,121,-7,94,84,-52,-88,30,-14,-14,-72,20,9,6,20,53,40,-128,-79,-22,-59,3,-108,-68,59,52,14,6,-60,-128,17,27,-21,0,19,-93,56,1,19,10,-8,13,-66,20,-128,-11,2,41,1,9,87,19,13,6,-32,-47,-67,4,6,32,-31,-56,-74,-45,-68,-60},{-7,-27,46,34,-1,30,84,98,49,9,3,-128,-22,-22,-33,-18,-17,-21,-63,-124,-27,1,-24,-79,-15,66,-24,49,-1,-82,-35,-91,-17,-49,-128,-14,-78,113,41,24,85,2,-97,98,20,-16,16,-69,-53,33,-2,-74,37,33,20,17,-78,-21,-68,-39,4,-12,-14,-106,-20,-23,-72,49,20,-27,-36,-57,-39,-93,21,49,3,-9,-20,64,105,-6,32,44,-84,-1,-92,-90,29,-91,-50,92,-69,15,8,-45,3,99,25,17,-16,30,-52,90,106,58,-18,27,-1,-30,-40,-96,37,-32,-33,-21,17,-41,0,-12,-58,-52,15,-9,-2,-10,-29,79},{-11,56,-14,-16,-14,26,-9,123,32,70,88,-50,72,-27,58,-102,-48,77,20,-41,24,54,-39,-55,32,-11,-20,-15,-10,62,12,-6,25,-18,57,12,-31,-107,5,8,6,-12,-60,-5,-29,16,-46,-57,32,8,3,-23,-25,-14,-123,-10,-71,14,16,-22,-34,35,-15,-62,-30,70,38,-9,29,-6,-49,25,59,35,-16,56,-47,-14,-22,-82,-71,-61,68,5,85,-128,-17,91,41,47,-13,-40,20,-10,-3,73,13,-14,14,43,-77,-21,-7,39,-13,7,-43,77,-61,74,11,-4,-4,-60,20,-13,-2,16,-16,41,-23,-45,-34,-19,27,-21,3,40},{-17,-1,-1,25,-21,-32,29,-66,58,22,19,36,-4,24,6,-49,32,-62,-36,-64,-9,33,-1,93,43,-52,15,-33,21,5,-36,-93,-37,-32,1,31,23,56,80,-59,6,-40,-35,-102,11,-21,21,-38,19,-18,10,-6,51,-53,17,12,-110,23,3,61,-41,32,72,21,-43,79,49,-34,61,2,14,18,77,-24,30,-74,-36,-104,18,-87,9,-45,127,4,65,-115,-43,73,19,-66,-37,-66,54,29,-23,41,19,102,63,8,31,-21,-15,-12,-49,91,86,-35,-128,15,-49,-2,72,-113,-13,-15,-50,29,-25,41,-6,6,-4,-51,-16,33,12,-14},{3,53,64,30,-41,57,-28,51,8,1,14,-25,-37,61,46,-128,-84,-43,60,102,68,-19,-17,-72,38,2,36,-81,-3,67,-15,116,58,25,44,36,-25,-32,-18,47,-67,10,-28,-93,-27,-17,46,105,-39,18,-12,-41,49,-23,-128,-3,-8,29,-31,-2,7,19,-21,37,-53,-79,29,42,13,31,-46,-33,-31,46,28,-9,-10,6,28,-83,10,60,-4,44,-34,-60,73,76,-19,-14,-67,51,-58,30,5,-31,-21,-83,43,7,65,17,-22,3,34,-107,41,3,55,20,-22,-34,-111,24,-46,-11,-25,-6,-12,25,-60,-53,-40,10,50,15,17,-38},{25,-61,32,-87,-41,-35,-25,25,60,60,33,127,32,-4,-1,-72,-11,-7,-41,26,15,-14,-39,22,16,-85,-18,27,15,-46,48,48,25,62,46,38,17,66,-61,-101,19,-28,-10,-61,-29,-21,-82,-61,-6,-57,28,77,12,-56,48,-41,49,33,13,16,2,-1,91,86,16,32,66,2,41,-39,-22,2,-32,13,16,59,41,-24,-32,31,80,-83,72,6,80,72,-65,-55,42,39,-5,54,-5,-34,-23,16,-53,-33,-89,-12,-29,-6,21,27,-85,57,57,25,45,40,75,16,-26,-5,56,21,40,68,1,35,84,19,-25,-25,7,-27,10,65},{22,-1,-40,53,-13,11,-7,9,26,11,-48,-5,77,45,13,-10,96,-27,22,7,73,-5,14,-63,23,-67,38,-31,-8,-33,37,-91,20,-89,42,-18,-79,68,-3,7,90,-58,-39,5,-35,10,28,41,-3,19,-32,114,7,-14,-18,32,105,-42,64,65,43,-36,-5,-58,54,-14,103,-18,18,9,87,-67,27,-6,-27,-55,-33,65,26,41,-36,6,62,-128,-128,2,37,9,-99,45,2,-91,19,-17,50,-5,-34,20,25,50,30,-5,-40,6,51,-56,-23,-42,62,-52,-46,48,127,-76,32,44,-25,-77,-14,35,22,-80,6,41,-64,4,-19,21},{40,-97,68,-49,21,-29,34,23,-27,-68,-20,15,-29,-73,-2,-35,-50,-40,-74,8,-56,14,-19,31,12,0,68,58,37,7,1,-18,-34,88,52,26,-46,26,-28,-13,61,49,67,-49,20,-4,24,28,-8,-98,-2,107,-20,37,18,-12,53,29,45,11,36,1,49,-5,-22,-57,45,37,29,-58,-7,-11,-41,42,57,59,-28,11,8,-7,13,53,127,35,57,4,-21,-76,-14,-49,16,100,30,-2,-9,58,-12,-22,-87,-8,50,14,33,30,0,37,-94,6,62,-52,26,48,-29,63,44,27,-18,75,-12,14,24,84,-25,4,-23,-21,-16,-20},{9,-5,8,-15,12,7,30,52,21,-98,11,-119,30,-42,8,7,25,-12,36,54,20,29,1,-48,7,-6,-67,-34,1,10,-5,2,3,54,33,-9,32,33,0,61,-25,-43,-24,-17,-11,48,-52,-124,0,-34,6,73,-13,-51,52,15,-17,18,-21,71,52,-16,33,-15,-35,29,53,-23,-31,2,-56,-4,-7,-58,-8,-54,-63,12,-33,-4,30,66,2,-57,-89,29,-48,-81,11,31,-9,-29,-58,62,14,109,15,-41,42,14,13,-15,-44,18,64,29,-4,-3,-7,-47,61,17,-54,47,9,-42,-38,-82,3,-12,-13,60,-32,7,-7,-38,-24,-18},{-10,-15,3,-67,13,-7,-49,-71,-19,-52,12,-43,78,17,24,13,18,-60,-2,26,32,17,2,-90,1,-10,-45,-102,-31,-14,16,-128,36,58,-6,-13,-58,78,33,18,32,-6,-61,81,-128,28,43,-71,-33,-113,-10,-26,15,5,-8,-25,127,28,1,-22,-3,-18,-48,-2,41,16,74,-20,15,18,-127,-92,12,69,13,-32,0,-29,-15,17,-36,-29,88,-26,127,21,52,-49,-100,-31,-9,116,18,-10,-14,-42,27,46,56,19,48,17,-55,1,-108,-46,-38,16,41,-11,28,-76,-128,85,-25,23,6,1,8,5,48,26,-28,-23,13,2,1,30},{-13,15,-4,31,20,-34,-46,-38,11,27,-13,-55,-27,37,11,-22,-6,-53,-13,-46,31,88,21,33,-7,2,-20,-34,-54,-4,13,-69,25,3,65,-4,-68,4,-34,28,-64,8,-5,-57,-35,-49,30,-2,77,4,-35,29,-36,18,-39,-28,26,-13,-34,44,-8,-36,-50,2,22,-41,6,7,24,8,-35,-22,35,44,-1,-48,30,4,-36,1,37,-18,-37,-6,-19,54,77,97,-46,7,45,122,65,17,16,-32,25,6,-34,38,-56,-18,-54,-30,121,-71,-10,69,-7,58,0,3,-128,74,-2,-34,-38,-25,18,-5,34,-18,4,40,33,8,40,29},{-4,-76,-5,95,-20,18,61,-30,-33,124,37,28,9,-3,22,18,15,34,6,67,-53,-7,42,127,1,23,13,-3,27,30,55,-56,63,-87,-17,13,-10,-7,45,1,32,52,-56,-24,64,-5,56,49,-20,-55,6,72,15,-2,-20,-19,44,-18,21,93,-13,-39,-19,3,-65,-18,-51,-45,14,69,4,-3,-25,-60,-31,-47,-28,-52,12,-54,-91,11,-20,-11,47,81,-7,44,-2,-48,-26,81,-14,13,-20,-99,-1,-6,-10,-23,-28,8,-29,-10,-128,-18,-6,-67,-48,3,-22,38,127,-86,-8,22,15,-5,13,-63,-35,0,1,-22,-2,-24,-13,-58},{-16,-67,21,-12,32,-53,0,-20,25,72,55,127,10,-14,39,-64,-79,-51,-15,-55,-1,30,-26,12,23,-7,17,-55,23,-12,5,104,53,-40,82,1,9,-3,33,38,-102,2,-128,-73,20,10,-11,127,33,-81,-37,-55,21,-18,-6,17,-36,39,-19,16,23,-17,15,119,48,-13,-15,62,81,-39,-41,-13,36,51,7,63,19,13,26,-109,-90,-5,-21,41,94,-128,22,70,-4,68,13,127,-27,32,11,-61,12,-128,36,38,44,-8,65,-14,59,47,42,-41,5,40,-86,-86,-128,34,36,-1,-9,-18,-12,39,1,-37,7,0,-24,-5,40,51},{-18,40,-36,25,16,-12,-11,-17,-27,-68,-20,2,-41,-22,-85,-128,98,-14,-11,-53,-20,-38,-4,-123,-1,-15,-111,-59,32,30,-47,-128,-48,23,-9,27,19,-54,80,-18,-33,-35,110,-70,14,-45,-44,-82,27,54,-10,-128,-14,-43,-18,2,-111,-29,25,28,53,-7,-6,-39,-54,56,-101,-118,-21,-20,31,-54,14,5,-48,-57,-11,3,-54,11,-128,-9,-66,13,47,27,-31,-1,-26,-67,-6,-61,56,4,-6,-55,30,-53,31,-64,29,-51,-23,35,-49,35,-93,-48,-9,-46,22,-66,127,127,-38,-22,-78,-72,35,-3,-88,42,-11,-64,15,-20,39,8},{23,105,10,59,36,-19,-55,-45,-3,-28,-9,-66,-30,74,-4,71,-4,22,11,-112,-16,-50,1,114,11,-7,-28,-45,7,50,41,81,41,51,-9,15,-35,12,-38,28,-47,-25,-80,-24,44,38,-124,-24,30,-21,32,16,-15,-14,39,-10,4,-3,-12,33,36,18,-13,-55,16,45,41,-2,-54,-15,-41,29,-44,-7,-4,27,-37,11,36,-48,64,80,-128,6,38,-108,16,34,-13,-2,30,-11,-48,-3,-17,-73,-9,15,68,11,-56,9,27,-8,-119,59,-95,-58,31,-34,-46,30,18,-6,-4,-62,19,-77,-32,-12,-70,-40,10,2,-3,7,-13,-1},{21,-54,15,0,46,38,65,57,-3,64,11,-21,-15,68,76,-89,-51,-26,43,69,12,-17,-6,-70,19,48,-27,-124,53,24,-29,-48,3,-56,-128,47,-25,13,63,7,46,7,32,-128,9,6,46,75,51,-11,-79,9,34,42,-33,-15,-1,3,28,35,-107,-30,-9,-45,-104,-12,-20,20,39,-14,8,-22,-16,-96,-37,-15,0,-76,-17,-19,127,22,-128,2,8,-6,-85,-64,-68,49,17,56,-38,6,15,-125,58,3,20,34,61,-19,11,-38,85,-112,23,16,-26,6,59,9,27,44,-47,-3,-5,-69,-13,-89,-23,-88,-26,45,56,0,45,17},{-17,-59,-59,51,20,13,68,56,10,-50,-15,24,-8,-41,-30,3,10,-21,9,36,-38,-8,-4,80,3,33,51,-50,-8,-2,-48,27,-40,-14,52,16,61,25,21,69,96,-47,2,-3,-11,-22,-2,-74,18,-5,-55,51,-7,-17,-1,-8,24,12,-11,22,32,25,4,25,18,-33,66,-9,-2,-11,-15,2,-18,-31,-16,-23,-30,14,28,-14,-26,66,101,0,-128,16,-47,-29,-41,14,1,-108,-28,2,-24,40,60,-116,1,-4,-6,1,-4,38,10,-43,6,54,34,31,69,55,89,-14,24,8,44,-24,11,-26,-24,14,4,15,-49,-43,61,15},{21,-12,-60,-34,41,56,-59,-43,57,32,24,41,65,25,-17,1,36,87,27,-49,33,7,32,-42,23,36,-42,-20,15,8,23,-25,-27,-13,47,41,-45,-76,50,24,45,47,21,-19,18,-1,-50,-24,10,-19,45,-58,23,-14,-56,11,-52,17,62,4,72,-10,61,28,-25,4,-46,66,15,23,28,55,82,16,2,-26,-28,-10,22,-94,-94,40,104,36,22,-3,24,-18,-23,83,-72,-108,17,78,-24,-57,15,-73,48,34,26,61,-2,-7,95,24,-2,25,9,2,52,-23,63,-73,-2,44,-10,23,-57,23,0,-48,-38,-65,6,26,-9,-6},{8,-55,20,-58,-9,-41,-33,18,37,2,13,-42,-24,56,32,34,-31,30,23,40,-43,21,-5,21,4,12,-2,-7,16,-20,16,-27,26,42,-53,1,-74,-102,10,-29,-13,3,-15,21,-81,58,-40,-40,50,-41,-15,-11,-22,-22,-57,-1,25,23,11,-39,-24,22,-29,-31,45,-48,-37,57,-2,45,16,-1,14,4,52,57,-9,2,-32,-27,-7,-23,15,49,33,-59,27,10,-59,-52,7,127,27,20,6,-58,-3,-43,27,-19,27,7,28,-7,-32,28,75,66,23,61,-59,-8,-128,-106,58,-42,19,-33,10,8,3,-17,-23,-3,15,-33,-15,-2},{19,-31,-10,64,63,47,50,79,30,-79,-45,-52,37,34,18,-60,-128,-13,18,68,23,40,-32,-128,28,29,38,-21,-32,31,6,99,0,-43,-83,32,94,-89,-128,62,-9,43,26,-53,-25,-84,40,127,0,13,-41,-70,56,2,13,17,-6,-8,-19,76,-51,26,3,-46,-9,83,-53,41,-15,-13,-35,51,-14,54,15,17,4,-1,40,-45,0,38,-48,13,22,-47,11,5,6,39,-55,31,-64,72,0,41,-6,7,105,-35,7,1,-70,-15,13,-121,82,-65,10,-39,15,39,-80,127,36,23,-14,-1,20,-32,-15,-5,12,-40,6,29,26,-1},{4,24,26,11,14,10,-3,-23,-61,-1,17,45,-24,32,20,-84,62,33,-30,57,42,-41,28,-6,3,23,-28,-30,6,4,17,-54,17,115,-80,20,-20,-15,64,61,78,-15,-128,46,-12,16,-94,36,-12,-26,-28,-41,63,-45,-53,11,51,-1,-8,4,53,-17,-56,63,38,-53,-8,-116,-59,-12,34,25,49,-16,9,17,15,13,5,-76,48,-25,84,-32,-20,-33,-9,58,-45,-31,15,89,-38,25,21,-88,43,13,24,5,-10,13,1,16,92,-65,-113,-19,59,-3,44,81,-128,-30,-48,43,37,-36,0,-1,63,1,-10,-46,-22,-56,24,32},{-18,-71,-29,20,-19,-78,-42,52,15,37,-59,50,-2,-40,-6,-86,10,-58,13,-1,-36,20,10,13,3,24,69,-30,-42,-17,-54,22,-27,43,-54,-13,23,55,-49,-35,-51,3,-17,-9,-24,-9,-25,127,40,-29,0,52,-55,-1,26,-8,60,-11,-17,23,-17,-71,25,25,-30,-24,34,-67,23,-33,-66,-94,1,2,-37,-75,-5,-30,11,-72,-69,10,33,19,-41,16,-15,24,8,-50,-16,-110,26,45,3,48,-15,-32,-8,21,-15,-16,-44,-6,-109,-18,-97,47,-41,-16,-51,-56,-114,5,16,22,-78,56,23,44,32,-8,-29,45,53,-41,47,-19},{-35,24,32,5,8,1,77,53,13,-64,-93,-56,57,14,-11,30,84,-92,9,-11,29,34,2,-27,2,33,50,-98,-1,34,-20,-38,-47,-4,-37,-63,-40,-92,-7,59,-52,-108,16,63,-85,-53,88,28,-15,4,-32,60,-4,-24,-10,-39,30,-13,-43,-7,15,4,-38,-28,-9,-15,18,-128,63,-34,20,-90,23,20,7,-19,59,-59,5,-34,58,-8,-18,-33,-6,-72,87,25,-65,89,-16,34,-30,-19,-38,-26,11,-70,8,-81,-41,-4,-70,-48,-38,56,-48,37,13,52,18,-60,-64,-5,23,43,-119,-28,22,15,13,49,-13,-32,-11,-39,-49,20},{26,39,-16,61,24,41,39,-33,69,-26,42,48,-33,67,52,20,-42,-3,68,-58,11,15,19,-9,31,10,-44,-10,2,61,34,-56,60,-46,-67,2,2,-102,69,10,-11,64,59,30,-7,43,125,-43,18,-18,-43,-18,37,-24,-34,4,-9,-7,0,-20,24,34,-93,-31,6,85,-3,11,15,38,30,-20,7,40,-18,15,-52,8,-16,33,89,-9,17,14,-53,38,47,5,-25,47,21,91,-8,6,10,-128,32,-64,107,36,-37,13,-9,-36,90,-47,-37,-17,35,26,-118,-23,-128,81,74,-58,-3,-78,-42,42,-37,-58,-30,-26,-42,11,3,30},{-1,29,-18,9,23,-58,-55,-5,-20,7,-51,3,43,73,3,86,49,6,51,-25,9,-4,-26,-128,11,18,-62,-86,18,34,-20,90,-34,-30,41,3,-69,-94,-7,64,-44,-59,83,16,-111,-30,-71,23,31,-40,-5,-56,-37,0,56,8,37,-45,-14,2,-47,22,-13,4,22,18,2,-61,36,-40,-45,-35,-16,22,6,-44,-34,-32,3,-64,-50,-28,-106,-17,-99,-7,4,76,-12,-53,63,-27,-53,33,10,-64,36,89,101,2,-28,-58,7,-16,108,-45,-46,-28,45,3,68,-5,-128,27,95,36,-4,-35,9,-49,-95,-78,-28,12,-32,36,-4,-28},{1,99,29,97,21,44,36,74,24,-4,-32,-80,80,16,-44,93,11,63,7,45,14,-23,-13,-31,1,59,18,39,4,-17,10,-70,-29,4,6,32,29,28,-14,38,-23,11,-12,-24,0,52,-80,-38,-7,2,2,71,7,55,-21,-11,51,-9,44,-41,-78,5,39,-74,5,-19,70,-50,-26,10,13,-14,-28,4,6,-19,-28,-9,-16,-24,102,40,-16,-10,-46,-12,57,-8,32,37,31,58,-57,-2,-26,-33,-5,-30,87,-41,41,-34,31,39,-101,-34,-119,-39,38,-71,-53,36,79,24,9,-17,-8,-1,-17,-67,-15,-6,-17,54,-49,25,29,-20},{-27,-53,-9,16,4,-14,31,90,-34,95,-46,-102,102,36,-21,-29,30,-60,-24,92,7,-43,39,26,6,-12,-30,-101,-41,11,-43,127,-40,28,-56,-34,-36,-79,11,-32,43,-60,80,14,-30,-52,-43,84,-43,56,22,-25,-15,8,33,12,12,-38,-4,7,-31,-36,3,-2,40,-29,-39,-32,8,56,62,-92,-58,11,44,-10,-49,-5,24,-31,54,-6,-63,35,54,2,8,18,-47,33,3,-49,39,-10,16,19,45,34,76,47,-31,15,-53,-39,13,-44,30,2,49,18,31,13,-128,38,-18,28,-32,13,-7,-23,-33,-40,33,-33,25,-5,-55,6},{-12,60,-19,15,-45,-42,-46,36,-1,3,-55,-13,-96,1,3,-55,29,86,7,51,51,-1,6,2,2,-27,5,-43,-28,11,-21,-19,44,28,37,-18,-33,88,42,36,-57,49,115,-52,21,-12,41,7,28,57,17,14,-50,-2,-2,9,-128,-40,-40,11,9,-19,-40,-39,15,-76,110,43,83,-2,-90,18,57,-20,-38,-64,38,8,-46,9,99,-7,21,42,127,3,49,-17,-78,-13,63,14,14,-10,-15,-78,36,51,23,37,33,-37,10,-52,127,-8,-59,63,-5,24,5,-37,-8,-79,-23,-21,20,26,0,-23,49,10,24,32,64,-21,69,97},{39,116,4,95,26,-34,18,-75,1,-93,-6,-38,32,30,35,-88,52,-51,62,19,41,-2,-18,-29,10,18,-10,-17,19,58,-12,-128,47,-14,-44,13,-55,0,-74,23,-30,38,17,22,-3,-14,35,79,61,35,37,-28,13,9,-93,-39,4,11,41,-9,-35,-14,-13,50,-49,-15,-2,-22,61,29,-49,51,-21,-16,-17,-52,31,-8,47,-84,42,62,-105,-16,47,2,101,88,-59,8,21,-18,-42,5,-39,-65,-9,1,19,-35,38,27,-30,-54,-14,-62,-128,-32,-76,-45,36,77,127,-62,-69,15,8,-43,-19,5,-41,-91,-60,-53,40,19,61,-24},{36,-121,43,-34,-12,-61,-74,5,-1,76,-15,45,52,-56,15,-14,13,22,-55,53,-34,-14,-19,-22,-7,-55,18,30,-19,23,0,-44,-10,-49,-95,-2,-39,52,127,-127,111,-12,65,117,-11,36,-12,121,16,-36,51,114,0,4,0,1,-11,-10,18,-58,-6,1,-14,28,28,14,-22,39,-41,-88,-42,-8,-60,-17,5,74,-82,23,-39,-10,-128,-128,90,41,-128,21,-71,-37,-3,-41,18,-30,33,-33,-9,83,-26,38,-17,-52,33,-21,41,7,125,-24,33,10,-3,23,7,17,-26,-128,22,22,56,16,22,16,68,116,-43,-49,-18,24,-81,2},{32,17,41,90,67,1,2,-50,-1,-31,-38,38,-23,58,41,-54,26,19,28,-65,6,-49,-3,27,26,70,5,24,-15,48,2,35,18,28,90,18,-50,-63,15,31,-49,-8,23,28,45,-31,0,-33,31,9,24,-120,64,-25,-59,-22,-46,-13,2,9,38,27,-61,55,35,6,10,-43,-36,47,68,20,20,-36,39,24,-46,8,24,55,28,52,-80,8,7,-17,73,65,-2,-79,-65,-40,-66,42,-29,-95,-26,-39,68,10,-17,-17,32,-6,-21,-54,-53,9,-18,-55,-22,19,127,55,-24,33,11,-58,-4,-30,-51,-39,-15,3,64,-32,26,-41},{-16,25,-11,88,-68,-66,-48,31,11,-39,-75,35,-26,6,14,-81,2,2,30,-13,43,29,-20,35,3,31,-80,-78,-38,18,-20,-20,22,54,9,-25,-35,31,-8,41,-107,-29,92,74,-114,23,-48,-89,35,-58,11,-29,-30,41,18,-30,0,-26,-12,-30,-100,-34,-11,-12,-34,-7,81,-35,7,-53,-25,21,-29,-40,-4,-12,-43,6,-42,91,35,-21,-91,75,66,-67,13,37,-42,28,60,-56,-28,7,-3,-36,30,67,19,26,-54,-48,29,31,-70,31,-27,17,-29,62,0,-65,45,-13,3,-17,20,-11,23,-37,24,-43,-15,-4,51,-19,-47,27},{15,94,51,-13,-23,46,13,-17,18,69,11,-90,85,28,33,-5,71,69,71,-37,90,14,-14,39,-3,37,-46,8,30,70,39,62,3,58,127,13,-5,-44,14,-23,-21,-3,-52,-35,-53,24,-81,127,19,-26,-12,-21,16,-58,-128,-25,37,-4,16,-46,72,-4,18,98,49,-29,-37,-48,-9,45,-36,27,91,101,-8,38,-34,12,22,-44,70,36,-79,5,37,-4,71,46,-56,-17,44,127,-68,17,-4,1,-26,-33,45,17,9,-13,-3,-43,127,-8,-73,30,-34,40,-30,-34,-128,83,39,-15,12,-49,-10,92,-14,9,-1,-1,49,-27,-32,69},{10,51,-7,-55,43,52,3,-128,-55,62,-22,5,25,28,3,-28,50,-47,46,5,6,4,21,33,-12,-39,-64,-84,-17,38,17,120,30,-24,16,21,-52,26,49,2,-1,-68,-61,-4,-4,25,50,-47,-75,-32,10,-57,45,-71,-22,0,-17,20,56,17,6,-37,-36,12,12,40,37,-43,-37,4,-7,-29,-76,-16,10,-56,68,-64,-21,-128,-70,-13,90,-23,41,-37,31,-21,-66,26,-27,-30,-27,75,-5,14,55,-29,-18,-71,-33,26,7,-18,29,-51,-42,19,32,25,-34,-39,-95,127,29,-26,-61,46,-39,-22,-30,44,29,23,30,-59,-18,-23},{14,-22,-1,-11,-51,-25,14,-17,3,27,2,39,15,2,-16,-68,-26,-8,7,58,-14,15,23,60,11,38,54,-79,17,-48,-12,-44,43,82,34,10,7,51,54,-8,51,4,-114,29,5,-31,9,9,45,17,-34,20,-9,19,102,-37,-54,-15,-89,32,2,-27,-13,-3,21,-21,13,48,-18,-11,-117,-40,-8,14,1,8,-22,32,-5,-6,29,16,-22,63,-38,10,26,-12,5,-128,37,-114,-51,-1,-32,64,22,-50,-24,-37,79,-28,-66,18,-108,71,59,-20,-94,-53,-50,14,126,19,-37,-4,-36,-29,-3,41,-14,73,69,-24,-35,-48,-13,-1},{3,-14,22,-17,9,-5,13,-36,8,-38,0,47,-13,-39,-53,60,62,-30,1,-58,28,0,-54,-55,-4,34,72,-67,-25,35,-24,-40,-38,-5,76,34,48,114,-56,-35,-39,39,-6,-53,-56,-11,17,-39,-4,-3,-2,103,5,28,-31,-38,62,16,33,51,-5,2,0,-72,15,-30,14,-41,-5,-56,65,0,18,15,-32,10,30,-67,-40,43,-36,-21,-9,-8,-128,-80,30,61,40,-34,-22,-49,63,17,-33,21,-10,18,-24,-24,1,3,1,16,72,32,81,-34,-12,-2,31,-3,-106,108,-47,-14,48,46,-22,24,-10,34,11,25,33,24,-26,-34},{15,-89,-33,30,13,20,13,36,-29,57,-20,-128,-25,-57,1,71,-25,-5,-110,42,-76,-8,4,-128,-6,11,-87,46,-2,52,11,-82,-53,19,-119,-16,-24,44,-80,-63,-39,-60,41,-63,-51,-10,-57,-53,-14,-2,39,-6,-6,-8,-7,3,-90,0,10,-33,-85,-28,-13,-128,-20,-34,-53,-23,50,-16,-30,-47,-14,-39,-17,-91,-51,30,-1,-75,42,-13,-87,-6,52,92,-57,-17,-89,27,-12,-3,-23,0,43,-32,11,-102,-46,55,25,-29,50,-33,-128,-100,63,57,18,40,26,25,98,65,-29,-9,41,-16,-17,-109,-50,-65,15,18,49,-6,-22,-50},{36,57,3,-58,-18,10,-122,53,8,6,43,72,-22,-25,45,33,45,59,2,94,50,-57,-52,110,19,15,-35,-22,-3,75,9,71,-68,-53,127,25,80,-87,31,-60,36,38,24,-128,35,25,-44,11,-46,-39,32,27,33,28,-41,-102,4,12,36,26,45,-17,45,-33,-37,-82,29,37,-40,-89,37,46,14,53,18,74,-26,6,-19,-128,-128,2,47,45,8,42,-5,34,7,73,50,-89,38,-38,-68,-20,-43,-112,21,-16,39,-10,-3,14,32,4,117,-52,-20,-35,107,-22,127,-121,-19,-33,40,-15,-8,6,39,79,-77,-23,34,1,-13,-65},{10,-61,20,-28,-48,-79,-61,-29,23,-84,-31,3,-110,-18,-18,-79,57,-24,55,-46,27,27,25,10,-27,14,29,-10,-50,27,15,41,-11,-14,24,-28,-53,69,3,51,16,-8,9,-28,45,-1,-6,-51,31,-1,17,13,-28,-46,-16,17,-9,-34,-28,25,-68,-42,29,49,33,-98,50,-27,24,28,-25,37,85,11,-49,-102,-35,23,-52,-52,79,-27,-75,46,-3,61,63,97,-47,-128,-21,119,-13,38,-19,20,48,-14,30,39,-66,4,-17,-57,11,-15,14,41,-38,41,36,-33,-55,-78,-3,-23,-19,12,1,28,-10,-50,9,-5,74,10,55,37},{-13,67,-13,93,-16,25,13,3,10,-11,44,9,23,-9,-28,7,119,-23,34,-30,21,-4,24,57,-6,39,-63,9,45,26,-3,45,43,73,12,17,-53,54,46,32,-2,17,-44,-9,105,36,-38,-73,30,24,-20,110,40,-26,-82,-1,92,-1,-9,73,-6,-45,-38,-17,2,-8,111,-71,-31,2,-109,35,8,-5,6,-41,3,-1,2,12,-11,22,-1,-85,8,-14,69,-57,23,-29,-19,-54,105,-5,-10,6,-7,-38,29,29,-11,8,-37,-64,117,-35,-81,-65,-54,-59,-24,-11,86,-15,16,4,-34,-58,18,6,13,-43,-51,-18,-30,-37,51,-1},{-19,-10,55,57,-55,1,-40,29,-65,25,-13,-60,-75,-6,-18,-7,-128,-85,54,-1,5,76,25,-13,-30,0,-50,-69,33,-16,-12,107,-6,-62,44,18,-40,-4,-72,-1,30,16,36,22,-16,-8,-51,61,76,-41,-17,18,-42,44,21,12,82,1,-8,-24,10,-58,-31,-13,-49,53,-17,111,-21,8,72,3,102,-33,17,-19,-36,21,-35,-77,62,0,38,-10,47,11,-38,52,9,47,-7,-65,17,25,16,-43,18,11,-4,-18,-53,7,14,12,-128,-18,34,60,-58,-15,59,-76,27,-39,1,1,-51,-6,-11,24,-9,-10,45,7,76,-45,9,-47},{-18,48,-6,8,-53,-59,83,-34,-46,94,-27,82,-21,-21,45,6,-47,43,-30,-8,14,-9,-12,-19,9,24,32,-72,-68,33,-41,-2,55,21,-10,6,-30,10,14,-1,-73,-44,-25,40,-8,-37,36,74,38,9,37,-73,-30,-36,43,-3,109,-64,-35,-30,-20,-32,-19,-42,30,-37,88,53,44,18,46,-50,24,10,-42,20,14,-9,-9,-116,-30,23,-101,30,-83,-90,37,-26,-29,-81,23,-19,4,6,-19,24,7,-31,2,-33,-23,-28,15,-34,30,-52,-3,2,24,34,-48,-45,-128,-64,3,-37,48,13,-7,-1,-36,28,8,-9,36,-7,30,-27},{5,17,-9,66,25,42,-53,-11,60,-24,-54,-78,69,66,-16,-21,35,78,22,17,66,-31,2,81,24,17,-58,-68,-24,39,26,43,92,-83,-34,-8,-33,50,1,29,-46,-17,-112,-98,-16,49,-6,-128,37,-13,3,-54,10,-6,67,-8,12,18,44,51,-5,-7,-10,18,56,7,32,10,51,0,-68,53,-48,63,20,22,-42,-17,16,118,-105,18,-73,-21,-55,83,13,-26,-8,-62,-24,127,-52,39,-3,-53,0,-106,84,25,-67,5,4,20,92,-15,-38,-14,18,-49,13,56,-128,0,86,-29,29,-93,-53,54,-47,-9,-21,-53,-86,-38,-7,26},{-3,73,-91,-33,57,30,32,-29,18,-36,-39,4,5,42,11,-42,11,42,21,-72,-21,65,4,67,30,35,2,-36,5,-13,-5,37,-34,-1,-17,20,30,66,-31,45,85,3,6,14,19,31,-35,37,-35,-30,-32,2,13,15,85,-15,35,20,5,70,-35,6,74,-10,3,-18,7,0,-46,-9,-7,25,32,41,2,-16,-28,-1,-3,-36,55,9,-38,-59,36,25,-66,-53,-10,-20,36,-43,-4,45,-29,48,-2,-35,-24,-15,-3,34,45,-19,-67,-102,9,0,-19,20,34,4,-70,0,21,-53,30,24,20,10,-42,-25,-42,-25,-2,-11,-4,-18},{-22,-72,-15,37,84,99,86,57,32,85,-66,-85,27,10,-26,42,-29,-59,55,-77,-16,-24,6,-64,-27,-10,17,29,-54,34,4,-46,21,-23,-46,-23,22,20,15,68,35,-33,7,18,5,-81,59,10,-16,43,-81,-101,0,16,-20,-32,-21,-4,-29,40,-33,23,-2,-11,46,22,10,4,-2,29,20,-63,-13,-74,9,-13,17,-74,32,71,-47,63,-47,-36,-67,-88,58,43,13,68,23,72,38,54,16,-39,27,20,-14,0,-48,12,-105,26,23,-77,-8,-41,15,5,8,-54,-103,50,-8,-40,-46,1,8,26,-39,-24,-17,-5,-15,-26,8,18},{-12,-65,29,-13,-51,-17,97,4,90,80,-120,-7,-128,11,-11,-36,-7,-128,10,-50,-12,-15,-21,-45,15,22,37,-48,-23,-69,33,-55,4,58,-128,-28,84,-22,-72,-53,-8,-46,-65,85,3,-36,40,72,0,-64,-100,34,-51,55,-22,6,-68,-18,-15,11,-47,-2,-3,-117,22,-30,-25,28,13,-89,-76,-26,-35,-90,29,-61,7,22,-26,45,127,-37,-51,-9,-128,-82,-54,-81,13,-7,-21,-111,2,31,48,-89,-1,-10,26,26,-32,-16,-16,7,-36,-60,32,-10,-60,-20,-39,6,127,127,-1,13,5,-91,-22,-31,-120,47,-34,7,-24,-34,-18,24}},{{23,70,17,12,67,1,-58,-36,12,52,38,-41,34,42,-36,78,-14,-55,8,43,-27,9,-65,80,37,1,26,-38,21,26,-1,3,28,5,35,30,31,39,-51,6,-35,-23,24,-35,-43,-59,60,42,26,-11,29,-10,-24,25,-50,0,-1,-17,-25,73,2,41,-2,-15,19,26,41,11,54,-11,3,9,-38,-44,10,-89,17,-47,-23,20,-40,-9,53,21,-107,-68,2,-3,37,-3,33,-70,-34,36,16,-20,-16,49,3,0,-31,15,-13,68,94,-81,-64,-11,-85,39,-25,-17,-56,69,45,-8,14,50,-1,26,3,37,19,-16,-8,24,5,88},{15,2,-28,32,18,-18,-5,-8,36,-7,10,-26,7,-6,-1,31,61,-19,-38,-30,-62,-58,8,53,-3,8,62,26,11,-47,27,-128,-15,-26,-78,-13,44,-6,36,-26,83,-42,-46,11,-33,-83,18,127,-43,7,-6,-2,7,-40,41,-16,-40,14,2,8,37,8,14,-9,50,-16,-87,11,-25,-7,-74,-22,-32,-40,32,-64,-36,5,10,-109,-73,-30,8,-7,-128,-52,12,-3,14,98,-68,18,102,81,-39,28,9,127,6,-60,-53,10,-41,-35,-16,-86,34,41,-30,-57,-93,10,-45,-9,-23,89,1,-66,-11,-36,-47,47,-44,-46,55,-21,-11,12},{-18,15,-9,26,101,40,21,59,12,77,21,-67,44,48,-28,-14,71,-13,1,0,35,11,19,-115,25,66,18,37,-5,-21,13,127,-40,-26,89,16,-19,58,76,-29,36,9,-95,-63,-2,-36,-10,47,-34,25,-51,-23,54,-39,35,-1,-64,21,10,97,-21,-25,-3,21,-35,-24,4,-31,25,-31,-7,0,13,32,-18,-17,18,-17,-37,22,-12,91,127,-93,-89,21,-60,-4,-30,-122,-27,74,-63,55,19,87,49,-9,81,-43,-9,40,21,66,-17,34,5,52,25,2,-5,-29,-9,120,-17,-10,-44,-13,-13,15,2,72,-57,-39,-34,-78,-46,24},{1,-39,48,-7,-25,18,12,-26,14,-51,27,-73,-15,43,1,-19,-13,40,39,51,-30,48,-49,-5,8,-17,75,-17,15,44,52,82,-21,-5,127,25,-72,49,-60,-43,4,-3,-31,-53,-29,9,-33,25,20,-57,-17,-11,14,-14,14,-8,77,-15,13,12,17,10,15,67,65,-14,-27,-41,33,2,-49,10,-49,7,-10,-42,-14,-38,-40,41,7,11,48,36,69,57,4,73,55,-126,42,30,-55,-18,-35,-11,-7,-72,-28,-12,22,-11,10,76,-128,25,-15,-47,25,-21,-7,-3,127,95,73,-12,85,39,8,19,33,46,-17,4,1,13,-25,76},{14,-25,-7,38,6,-31,9,21,54,16,8,-9,38,-8,1,21,52,-57,13,16,53,21,11,-31,2,-4,-37,19,11,20,-47,-16,-6,-95,72,-16,-36,-14,51,49,48,17,-47,58,32,51,-19,-114,-45,19,23,61,36,13,-56,27,-19,18,-47,35,34,16,-27,30,5,-17,34,1,-2,-27,25,10,8,6,-30,-56,26,50,0,-18,-3,16,78,-37,43,-28,67,-11,-34,34,16,41,-128,9,4,54,20,8,70,33,-26,23,-29,17,9,-39,-17,45,17,-85,-42,48,80,2,19,40,-16,8,-34,2,-30,-1,-12,18,-21,-19,31,-33},{22,-26,11,49,-37,-25,2,42,22,-75,47,-9,-84,-25,21,-95,-29,-24,46,27,-6,2,4,27,-29,35,-45,-3,13,14,-9,22,-36,-112,-124,-29,3,-33,24,-64,0,8,9,21,-32,-29,11,77,47,8,-18,44,-44,-10,72,24,-54,-4,-35,-4,-68,-58,-17,-18,-5,-65,30,-12,60,20,38,-34,37,-25,-5,-9,57,26,-8,7,32,-35,-118,2,57,-32,34,74,-49,108,14,127,-49,24,8,57,48,-9,-36,10,-111,-63,32,-18,-128,18,-23,6,-28,68,-3,18,-26,-80,-36,-84,-6,-39,34,27,-8,-43,10,-36,61,-25,-23,9},{37,-27,40,-36,-16,-75,27,-54,41,-111,55,7,127,47,32,-53,127,-71,9,-63,41,20,-31,1,-16,23,36,47,-11,-50,12,-128,26,53,-28,18,-14,26,-4,11,-23,-31,86,33,34,-18,-43,123,-1,-36,39,-26,-19,-25,13,13,-47,-3,7,-50,6,10,15,36,71,71,-71,-42,32,46,11,-21,31,-4,0,53,34,-5,-50,22,71,-8,-101,49,16,-78,-78,3,3,89,74,32,22,-15,32,-9,-8,33,16,32,4,47,27,3,53,-128,53,3,-28,26,-23,-3,-77,49,79,36,70,1,-31,35,10,-12,-11,-28,46,37,-42,103},{15,50,8,-21,-6,-64,-30,-42,-46,-64,-4,-97,-80,41,1,19,78,-16,-32,-80,36,23,-22,79,-2,-20,13,-28,5,-18,-3,36,-27,-15,127,14,-78,-50,-90,33,-62,2,72,-78,-10,8,-39,-128,-27,-74,53,5,-15,50,-38,-5,43,-10,22,-37,11,6,53,21,-8,-65,-93,6,25,-48,65,-46,-60,4,5,-1,34,-39,1,33,18,-17,-44,-14,-77,6,-41,30,39,27,5,127,-25,-29,-50,-54,-5,-99,20,3,-11,-4,42,-18,48,-110,-34,-29,7,8,84,43,-71,108,-2,5,71,-16,-17,-27,55,26,-5,9,65,-8,-32,-52},{-25,67,11,51,24,-26,16,94,-11,-71,15,74,63,4,-39,13,45,-110,18,37,-22,-45,-8,-48,4,-7,80,-117,-56,11,-59,127,22,91,-38,-66,40,-38,1,23,-80,-81,41,-19,-56,-88,38,127,-10,-25,-71,6,8,-57,-24,-24,125,-12,-49,41,-21,-2,49,13,-33,39,3,-128,12,-3,30,-52,10,13,57,20,74,-13,-2,-11,45,56,-74,35,79,-27,-52,26,-43,77,-1,-19,-25,-39,-34,-45,22,-41,-30,-23,1,-30,-74,-63,-100,-26,78,40,-19,11,-31,-14,-110,20,-35,56,-80,-62,-17,-28,47,-26,28,7,-9,-20,12,54},{35,-71,-18,0,-26,1,17,62,15,80,47,-84,84,-20,65,17,-26,37,68,-49,50,7,4,18,33,30,5,56,32,31,19,-48,11,-61,61,0,46,-13,-39,31,77,3,61,-64,-50,-38,-80,-49,51,14,-23,-65,-18,16,-68,7,-67,-18,-18,25,27,-5,4,34,15,-19,-6,-29,64,-33,46,-31,87,59,-4,-1,-79,18,-71,-61,-44,31,1,34,-90,-1,-16,89,-5,8,56,-61,-41,44,-6,-21,4,-82,-28,-12,-23,19,22,46,55,25,-19,12,-68,88,43,-6,77,-12,16,-18,69,-53,2,12,-32,-20,26,-20,8,12,38,-46},{13,-18,6,30,9,31,37,40,52,-18,-78,-81,-55,19,-13,-117,30,-29,10,-4,-16,55,0,-2,6,57,46,-19,42,41,-15,-1,31,20,86,30,-24,-18,39,16,96,-30,41,-82,47,-68,21,-72,25,13,-20,19,57,127,32,6,-13,25,33,52,28,30,-55,-35,-16,-22,35,26,50,13,23,-54,51,41,-8,-42,18,-105,0,49,13,10,-128,58,72,-36,33,24,-5,-99,21,-49,-32,84,-4,74,23,62,-7,-36,10,43,-43,-16,127,-30,-116,-38,24,-38,-26,-41,-128,6,55,-11,16,-29,-9,-4,18,-8,54,31,-27,7,7,23},{10,55,-24,30,-29,24,-52,-68,-46,39,23,77,17,61,43,-22,18,10,31,9,26,-11,5,71,23,60,40,33,5,12,17,-74,34,7,-21,8,-16,-103,38,5,-70,-32,49,-27,28,25,-45,-90,-18,0,20,-50,14,-28,-83,-24,33,23,13,18,61,-11,-71,16,35,-29,-47,-35,50,24,-25,1,11,25,-18,-47,-65,-39,10,-119,34,9,-50,-21,-5,-82,83,-21,-39,21,-16,-128,25,46,-33,-122,14,-25,44,-15,-57,24,27,-31,17,-90,-27,-3,-38,-32,-91,-38,-76,47,-46,-4,-42,-26,-16,-17,-17,-68,15,-56,27,14,-2,-50},{-14,-99,19,72,2,2,-25,76,-10,82,-30,-39,-30,40,37,54,35,16,-75,27,24,22,-39,21,-7,30,-65,-37,25,5,43,24,-34,-73,38,-11,-74,-85,-72,-26,-59,22,-20,-124,-30,-27,-54,-77,57,-28,-4,23,6,15,-8,-8,111,25,27,21,-18,15,-42,-23,12,-50,0,-30,39,-51,18,-56,-16,45,-3,10,10,-74,11,6,-7,72,-66,0,-128,3,-6,-36,-27,75,45,24,-9,41,-3,-40,-4,-16,-75,14,25,-27,-26,-49,-7,-41,-42,-31,10,-19,34,-34,85,38,39,-75,20,-36,-3,10,-45,-68,-60,14,-15,25,-10,20},{-33,29,-40,36,-54,-7,-16,-18,0,-18,-20,83,-5,25,-28,-26,-50,-43,0,-63,-8,0,0,39,-33,42,-6,-128,1,47,-13,71,14,-4,-69,-37,6,-12,2,14,41,-50,-1,12,37,42,65,75,-7,-58,3,-20,14,-14,-33,12,109,-22,-5,-51,-13,-83,3,-55,54,-25,65,-53,50,21,-62,-54,29,24,-3,3,8,-29,10,51,-17,27,53,-119,-87,12,104,56,-22,-43,-10,-91,32,15,-12,-64,47,-22,50,43,13,-19,10,-11,-110,47,3,-37,-46,-22,25,-74,0,-5,16,-29,-59,-24,13,44,-16,36,21,23,56,2,-7,68},{-22,-25,-13,10,21,51,34,8,12,-45,-36,-24,-23,34,22,82,9,-32,11,-30,46,71,25,21,-3,21,27,-15,-15,-8,-21,-43,40,-36,-11,-1,-66,-20,2,22,-27,-55,-8,17,-128,13,-8,-51,59,-31,38,-24,-14,-22,50,-23,48,1,11,-35,36,3,-26,14,110,53,-13,43,76,50,1,-53,-1,25,-27,39,11,-53,0,-43,92,27,-10,14,-45,-23,49,-52,-64,-85,90,-30,32,8,4,-92,45,10,22,3,-39,-31,25,16,-128,-15,45,30,-25,-15,26,-49,-94,-14,79,2,3,-35,-27,54,-11,-61,28,-22,-25,-13,-45,47},{8,85,48,88,-9,-14,-17,78,11,-23,-20,6,-44,2,25,32,-6,-35,41,-16,30,51,-6,-73,5,54,-72,-15,9,-16,-1,-128,-20,34,7,-2,32,10,4,87,-4,-4,16,-94,36,5,-42,10,44,19,-19,57,-19,-20,-26,7,57,-11,-3,77,30,18,-59,-15,23,-30,18,19,62,60,-58,15,23,5,-6,-37,13,-23,20,-96,-82,16,8,-24,-8,43,-65,56,29,82,-21,-22,-109,13,11,27,39,35,38,-22,-18,17,-37,-2,-67,-66,-19,27,-49,-4,17,-27,-17,27,-48,-25,30,-50,-6,-11,-47,11,-8,5,-9,-36,49,32},{-4,41,5,83,7,4,6,28,20,9,17,-77,-35,60,-3,14,54,-37,7,28,-25,13,21,-60,22,21,15,-34,20,48,33,1,50,-20,23,29,-32,1,34,23,3,-1,-38,24,1,42,24,-34,31,-31,26,37,15,12,-25,-28,25,6,41,12,-6,11,7,32,-7,-17,-11,1,8,7,36,35,-55,42,18,41,-10,-9,18,11,3,-32,41,21,40,-1,-29,68,-63,-50,-18,-48,31,4,-45,20,-22,19,66,10,-41,13,3,0,-18,-113,-2,-61,-22,19,-43,-21,-75,-89,13,10,-18,14,-28,25,-27,-68,-66,-12,18,-7,44,4},{4,41,36,9,-51,-26,65,123,37,74,-17,-78,18,40,-34,30,82,1,26,36,-13,31,-5,26,-19,36,24,-49,-5,52,29,-24,27,-54,45,11,-66,-5,19,68,54,-51,-128,15,-119,36,-47,-21,31,-29,25,20,-38,1,-75,14,-84,15,45,11,14,-12,-57,19,86,27,45,5,55,0,-22,-45,58,38,32,0,17,26,-36,-27,19,-40,-63,-3,-55,-102,6,-15,-87,33,58,-128,16,17,-35,-28,28,-36,-21,15,-33,-30,4,26,-91,-5,-51,69,21,23,38,1,127,-75,55,40,48,-35,-16,48,-42,-20,-40,3,-27,-13,36,41},{2,21,9,16,44,-28,-22,-122,-58,92,46,48,58,-53,22,37,52,69,4,22,31,-32,1,-50,-16,-32,-20,33,-13,75,47,127,-34,34,-60,9,-98,-108,-3,38,-67,-7,4,26,-65,27,-46,5,8,-78,35,49,1,-57,-31,-19,-12,18,12,7,86,13,-40,104,-6,18,70,41,-82,-49,-23,-34,5,15,20,34,-7,-30,-6,-115,65,26,68,-18,3,16,30,-37,-10,62,-43,-40,22,7,4,-91,-21,-77,38,-36,9,42,23,47,36,-49,2,4,32,-42,50,25,-62,95,16,12,38,-48,-38,-25,17,11,5,-48,-61,-10,-26,11},{-14,52,25,17,31,9,68,60,13,78,-46,71,-35,16,14,-17,-14,7,-62,19,23,-10,-4,57,-4,24,-28,38,15,11,-27,-128,-52,-68,-55,10,-24,30,-32,8,-44,31,-51,57,15,-36,12,38,-30,-26,-31,21,-3,41,27,-24,-89,3,-61,42,-35,9,21,0,38,65,-6,54,33,32,5,-47,25,-27,17,-8,-40,11,21,51,-110,-22,61,-15,28,-3,10,-29,-35,0,14,127,-20,0,44,31,41,79,42,18,41,9,-2,65,56,49,-65,15,-20,-59,-76,-67,-128,-96,14,27,-38,-10,0,-23,15,7,2,-2,11,-11,29,49},{-2,5,33,32,-16,-1,4,65,11,14,57,-30,17,60,48,-119,-70,16,-33,-62,1,46,-30,-8,-15,-9,-64,19,15,51,-26,-67,31,-87,-83,4,-36,-44,24,12,-37,57,-23,-16,-18,48,-55,-34,17,-8,16,-36,-6,5,-76,17,-69,21,18,28,9,15,-51,-63,19,-12,-46,64,50,-14,-7,63,82,-8,-13,-6,-71,-39,27,-48,86,38,64,-4,127,-112,-19,73,10,16,21,70,-52,-12,18,-18,-7,-25,-52,-6,-20,-25,-18,-24,-128,5,62,36,-13,30,-51,40,127,21,41,13,12,14,-5,7,-10,24,21,-20,63,23,45,44},{-5,-73,-5,-16,-14,-46,-34,22,-31,19,-3,-14,-47,64,1,-18,-31,60,-17,56,-4,-33,-22,127,25,-27,32,-50,22,38,17,-45,-56,18,-17,36,-25,-20,20,-1,47,41,84,-103,25,-2,5,54,38,-16,41,45,-12,-48,10,17,-113,16,-23,67,-33,39,-20,18,-96,43,23,-18,-26,-28,-78,11,14,-74,16,-35,10,-73,10,-26,-46,-78,-5,35,52,-35,-40,-28,3,20,-58,-28,28,7,-15,8,-4,86,-10,-1,-23,19,11,26,9,2,-34,-15,-128,-48,14,27,-31,3,29,-31,-17,22,4,-38,-60,44,3,-10,48,30,2,32},{31,42,77,5,4,37,8,64,-44,-34,34,27,-128,73,73,-118,-42,-94,39,-25,78,-7,-11,-19,-1,-6,47,-60,34,98,37,127,-1,-17,122,31,-43,-42,1,13,-25,33,-38,-21,-41,-28,37,127,-27,-28,40,-17,-4,16,-39,5,-1,3,-8,-9,-50,-23,-18,63,-102,-42,-19,45,6,-19,50,45,-26,33,27,49,-6,-14,33,-16,66,21,-78,37,101,-128,29,25,-24,62,3,59,29,-2,-12,38,20,25,26,-1,-28,9,3,-35,0,-128,36,-56,18,-14,-27,41,-22,-11,-70,-41,-5,-31,-12,7,-42,4,-10,45,66,-20,86,-4},{21,-19,7,-91,-4,-56,-6,9,24,102,49,39,-4,-51,-12,42,17,81,-16,48,-25,0,-60,-49,-4,-86,20,-31,14,11,56,-71,-32,-30,19,26,23,-3,-59,12,28,-24,15,57,50,-3,-65,-59,58,-62,89,64,-7,-43,-3,-34,58,26,48,20,-5,-2,66,17,30,13,3,25,18,-22,42,18,-35,-8,42,28,35,-12,-18,-12,18,-35,99,41,7,53,-24,-37,7,-17,30,-26,-44,-69,-2,91,-38,65,26,-11,28,33,17,13,2,-2,45,-26,-38,31,6,28,6,115,6,5,4,43,-37,9,33,58,-8,-41,-58,14,2,57},{24,58,-62,27,61,41,-24,-63,70,4,-25,29,-20,5,-18,-57,37,-12,35,44,71,2,32,23,23,-70,52,-28,-16,17,39,54,-15,-64,-4,-14,-1,52,35,-91,77,-84,53,-48,-3,-40,47,7,57,17,11,103,45,-28,67,46,36,-48,10,8,-23,-36,-11,-38,8,39,40,-1,50,66,-13,-74,-33,31,-45,-25,-26,45,-5,14,84,13,-10,-128,-39,-1,101,39,-85,40,-41,13,24,-18,52,-40,-22,19,54,22,-75,19,-32,-52,-60,-24,-50,-4,58,16,48,5,127,-19,7,16,-62,-8,-1,49,-5,-15,-15,6,-84,-12,-42,20},{31,-74,33,-87,6,11,28,-7,1,-60,-26,-63,-25,-74,-22,8,-13,-5,-9,-22,-37,-52,-44,52,8,-9,3,31,-2,-40,-3,60,33,89,-13,17,-91,127,48,18,36,43,-49,43,29,14,6,-11,-20,-58,13,23,-36,44,96,-52,-45,-10,34,-23,17,-12,65,54,-36,20,6,-6,22,-5,-3,-17,-1,38,35,52,-37,-17,-3,65,1,33,127,43,-27,48,-30,-77,25,-86,44,-14,20,-46,-48,50,-34,13,-24,2,20,25,-22,24,-88,97,-39,0,46,-38,26,48,86,53,-31,61,41,37,-17,-1,33,42,-10,15,-70,23,11,4},{27,-8,-19,57,74,26,6,22,-39,-46,-2,-102,-38,-21,24,-21,-6,-9,-19,-72,22,-15,-14,-18,-2,43,-114,-30,-22,15,-29,-79,12,18,-7,3,-6,42,11,64,16,12,-41,-69,-37,25,-51,5,-35,10,-10,-25,31,-9,-7,-14,47,30,16,77,-6,20,-36,17,37,-19,-43,18,31,25,-19,-7,26,19,21,13,-21,27,24,-60,-42,67,93,-77,-99,53,13,-92,29,8,7,-128,-47,18,7,15,18,-52,30,5,34,42,0,56,8,31,-41,-9,-29,-63,-11,-50,46,-49,76,6,-19,-3,-7,-21,-23,46,-43,-7,32,-48,10,1},{-9,3,-16,-10,15,9,-2,-95,-25,-71,-2,-56,47,64,-9,68,11,-44,62,-102,32,1,5,-75,9,30,23,-89,-15,11,-36,-58,-6,3,34,-4,-108,52,9,27,50,-39,14,12,-56,10,59,-90,-33,-49,13,46,21,-39,86,-6,127,22,-15,60,14,-18,-15,40,32,35,57,-45,11,33,-39,-26,33,-2,-10,-23,-19,-13,-4,-38,3,-20,-40,9,24,45,80,49,-58,69,27,124,-39,30,3,-79,-8,86,9,-8,24,8,-69,-31,-43,-40,-2,47,27,-42,-41,-31,1,3,48,33,-38,-33,-1,-2,12,-28,-10,1,-21,-23,-32,-12},{-13,-68,41,0,2,-34,-73,-26,49,25,-13,-7,-21,17,-11,-52,14,-67,66,-19,71,63,1,6,2,17,-1,-20,-45,-17,-11,-61,-24,-8,87,-18,-29,19,27,-44,-67,-28,61,0,1,-40,7,-69,14,45,17,42,-16,-43,-41,3,-40,-54,19,-36,-11,-32,-55,43,-12,-19,50,-14,0,44,12,-14,81,-6,4,17,-4,-33,-15,32,53,-21,-54,25,97,22,39,127,0,-30,46,-31,-19,13,-11,-35,3,-4,52,14,-34,-42,-41,5,72,-112,-57,67,-61,46,-53,-31,-29,-41,16,-19,-14,4,28,7,27,-66,7,36,31,-29,58,86},{-6,29,-48,14,30,31,51,-39,32,122,-34,71,56,-19,-31,-66,31,-27,21,45,-23,-49,23,70,-8,67,-52,-2,-14,-9,22,-48,82,-9,-83,-26,-31,-31,-1,-1,-56,49,-36,-79,-2,44,3,-19,2,-11,8,54,-14,-43,-29,8,-2,-37,0,56,3,-56,-15,-104,-55,38,1,-28,-39,10,-9,40,-91,-76,-4,-16,-39,-35,-21,-45,24,-12,-128,0,-50,4,11,-47,-27,-127,9,50,-26,-23,19,-83,8,-44,47,26,42,-26,-43,-28,-16,-14,-36,-16,47,0,0,-4,127,-69,25,-36,-10,-24,-8,-10,-3,-64,14,22,26,-42,4,-4},{23,-88,-17,8,-8,0,-2,-65,8,43,-25,33,22,67,10,40,14,-8,78,18,49,13,21,-14,-7,-11,37,43,14,54,-5,-91,-18,-88,-10,30,39,-46,-79,-51,-25,-6,-63,-18,6,-7,-29,82,41,-75,19,-5,16,32,-18,-27,-38,-18,26,-49,13,-5,7,78,-31,-40,28,28,29,-36,17,-40,68,39,23,17,30,-12,-1,-63,41,-50,-86,-9,22,-20,6,66,-19,-81,82,101,-98,42,2,-47,34,-72,-45,-31,34,-26,40,-16,127,34,-75,53,-15,60,23,-72,-128,101,2,-7,78,34,-14,15,-30,39,11,-18,38,0,-10,26},{5,-7,-4,-25,24,10,16,53,-56,-67,-4,2,-72,-48,-16,-27,66,-46,-33,60,35,-36,-2,-14,-33,-12,-81,-17,19,18,-111,-36,-67,101,1,18,20,10,-34,-40,-15,-50,100,-7,2,-49,-28,-65,80,56,16,12,-9,-32,-22,17,-75,-19,-5,1,45,8,23,-62,-106,39,-68,-128,22,-31,32,-52,23,47,-63,21,19,-9,-30,51,-89,-5,-23,-33,87,17,-17,-8,-11,41,-25,107,59,0,4,-69,39,32,-58,-49,-84,-38,-92,29,2,-65,-95,17,-47,-63,35,-85,-97,41,-57,-68,-43,-73,2,28,-71,71,7,-41,-4,23,20,73},{3,83,11,75,17,-18,-20,-1,-2,-13,24,77,44,76,-17,62,20,5,80,-74,60,-30,-21,-49,-3,19,-42,-35,12,52,25,127,-4,-19,6,5,-59,-53,-51,-2,15,-9,-97,-26,-32,42,-116,-102,-25,-15,21,11,19,19,102,-44,74,0,41,68,-52,-11,71,-35,-9,-6,49,9,-14,15,32,-5,31,32,-26,18,-28,-25,4,30,-83,78,-7,12,-18,-4,91,78,-44,110,-56,-72,34,38,-25,-100,14,-55,103,9,-43,29,-11,14,-7,83,11,15,-21,-47,-28,61,-60,12,-47,5,33,-51,-32,18,-47,-15,-48,-3,-34,-29,1,-28},{11,-19,-8,7,-2,-2,20,78,17,48,-16,-44,-65,47,72,-128,-43,-5,21,73,-7,-23,-14,76,2,14,38,-127,17,-1,9,-64,9,-30,-116,70,17,-30,-23,-27,14,24,100,-122,-12,-59,30,52,-48,-26,-65,72,64,32,-46,15,9,23,-15,18,-88,-38,-92,-29,-57,-38,-26,9,2,-34,21,7,58,-50,34,-26,-1,-29,14,16,-50,12,83,-11,-39,3,-46,16,-23,81,-3,-49,18,4,-10,-46,21,51,27,2,60,18,-34,-32,114,-35,22,-18,-26,27,-4,-31,-128,-4,-47,2,-36,-24,-14,-47,7,15,-31,50,65,-28,35,64},{15,30,-28,29,26,34,22,-16,45,-20,-13,5,-30,-7,-30,75,75,-66,-50,49,0,37,1,64,-14,41,53,-49,4,-44,-43,-9,-17,-85,-60,-17,-1,75,-62,68,51,-36,-20,-44,-12,28,-34,16,-47,-37,-15,43,6,9,-57,1,63,8,-51,-31,-22,20,54,25,64,-9,16,21,-27,-36,-84,13,-20,-17,-42,16,39,-47,-3,-49,2,12,127,-4,-47,13,-27,3,18,-58,40,-91,-65,32,18,14,10,-115,19,9,63,41,-31,-6,-15,6,73,56,42,-13,60,78,127,-16,18,44,-39,36,25,13,-27,59,-22,9,-43,-82,66,-20},{40,-52,-3,-71,88,69,2,5,-3,30,39,38,28,-22,14,33,-32,-29,53,-87,38,3,24,3,54,32,-20,29,22,-11,23,73,18,-3,-48,41,13,39,-2,-53,77,40,25,30,-10,-26,-37,-13,69,-38,21,63,0,-23,-43,5,31,59,32,46,16,-7,-15,5,18,54,2,35,20,34,-38,-22,33,-31,46,-79,-31,-21,36,-16,90,29,12,40,-83,52,-8,-27,15,50,-52,-27,26,31,2,-81,-20,35,17,-1,-14,61,25,5,27,-22,-47,52,-39,32,-8,43,99,-13,-31,76,23,-18,-52,26,-31,-28,-5,-34,25,6,15,-17},{-12,0,18,-4,-54,-24,8,6,17,54,42,2,-33,10,-8,87,-34,63,-1,30,-39,-11,-23,30,-9,-6,10,54,-10,2,45,23,-1,33,6,-3,-110,-7,-10,6,40,-10,-33,-32,-14,62,-42,-18,7,-54,-6,-60,-38,42,-20,-15,20,-27,-15,-16,11,-23,-43,-3,86,-20,42,12,-24,46,45,-41,-14,43,32,55,-49,-32,-34,-18,11,-8,49,-32,-102,33,-46,-66,-69,-14,11,38,5,10,-1,46,9,41,29,-14,29,24,60,23,-86,0,-2,16,-47,40,2,1,74,-82,53,29,-15,-40,-28,34,-46,19,4,-20,-25,-10,-44,-28},{-29,34,-23,3,33,-1,-7,90,21,-22,-16,-71,-36,51,52,-45,31,-87,25,22,24,2,-28,-28,-25,-28,53,-22,7,41,-16,-51,-10,-33,-15,17,33,-68,-31,-20,-12,10,-27,15,-44,-62,79,127,-64,67,-5,-88,42,2,-18,10,-1,9,-51,14,19,25,52,-21,-95,88,-55,-6,-68,16,-3,-54,-10,2,-21,44,-53,25,7,2,-5,24,-16,18,73,-46,-64,-17,48,-30,-94,-25,-116,32,21,5,-27,-66,64,-41,74,-39,-15,4,127,-46,42,-89,-33,12,-73,12,41,77,-42,-21,20,24,-3,-28,-62,-2,8,-42,43,-27,-40,-67},{-8,57,-37,7,-23,-45,-22,-67,-3,-63,17,-45,-57,-2,-29,-45,20,-68,47,45,40,-44,-12,48,2,45,19,47,-20,-49,-30,-25,16,41,-15,5,-61,-6,87,-20,18,30,-3,-35,-9,-23,-59,112,26,-13,33,2,6,-4,68,-2,-30,-17,13,-24,-11,10,-31,-29,-46,36,11,-56,26,-23,-2,-54,10,-29,7,29,-33,39,16,-2,-63,27,40,31,30,-48,-24,-14,3,-34,-32,-58,6,42,9,12,38,-14,-11,-27,-65,-1,-61,-33,115,-24,-55,-19,52,-14,36,47,-1,48,51,-8,-52,5,1,-10,58,8,26,0,-52,-21,84,6},{-22,-42,12,-47,-14,-125,-50,45,43,57,-28,-105,-33,-39,6,9,-31,4,32,-1,20,-7,-4,30,13,-2,4,-86,-63,-91,-44,127,9,64,-90,-19,-19,55,45,-21,31,-31,-5,20,-19,18,0,59,-22,16,32,-11,0,-19,36,19,-13,-33,-3,49,-62,-31,37,19,-12,-72,-17,-45,21,-33,-34,-50,-56,-30,7,-23,14,-40,26,37,-58,-7,60,24,-32,28,-22,42,-19,-55,-45,57,5,31,11,-25,35,23,51,-28,56,-53,1,-6,-75,36,17,5,-33,-36,10,12,11,-42,-15,12,-1,-8,32,-24,38,31,24,-1,3,-50,17,-40},{4,56,-15,25,-27,23,-8,34,-13,8,-30,-51,1,46,-29,-54,6,-12,4,57,49,-6,-12,-51,-26,-3,5,-69,-39,49,-77,127,37,12,-10,-27,7,-16,-10,92,-16,-100,-12,31,-89,-45,44,83,-11,21,-89,-49,5,-24,30,0,26,-18,-49,-42,27,-5,22,18,33,34,56,-102,-11,-5,35,-128,22,-7,36,5,53,25,52,26,68,32,81,-14,-68,-25,69,28,-65,-57,-23,-4,-17,-45,-50,1,-18,18,-13,-71,49,-3,-100,-36,-83,17,-12,-25,22,62,-79,-31,-32,22,69,56,-110,29,2,3,-33,-39,2,25,16,-29,-51,47},{-1,71,45,30,-13,24,55,64,61,34,-28,-122,32,11,13,-13,3,34,10,29,2,-6,-13,-51,37,11,-58,-70,3,74,19,5,96,44,127,9,3,-5,-12,21,22,9,93,13,-74,26,75,-10,54,42,-32,-80,-39,20,-53,-23,52,7,19,-36,20,16,-128,-28,-17,72,-48,20,3,4,-49,23,14,24,21,-22,-43,-42,1,-19,35,-27,-126,21,-14,12,76,25,3,-64,19,-28,-9,15,2,-85,2,-20,61,-18,-15,-1,23,-8,-1,-75,84,19,3,51,-91,-18,-31,-33,44,22,-35,-79,-28,9,-61,-34,-21,-29,-38,8,-39,-17},{-38,39,59,38,-8,-5,-31,103,18,8,-37,-50,63,84,5,-41,-5,-66,52,20,19,-33,-5,-10,-13,41,50,-72,-17,42,-25,3,19,76,127,-1,27,-72,28,1,-125,-68,46,30,-73,-57,-62,-15,22,14,-27,-60,4,23,38,-33,60,-6,-37,4,29,7,2,-25,9,-42,-18,-8,54,36,-46,-88,-5,83,1,-9,-11,6,-17,-13,-40,31,-79,19,39,-14,9,43,-78,68,61,-119,54,40,19,-71,3,-36,106,-11,64,-42,-77,-53,5,-14,-31,-8,41,-13,96,-56,92,31,41,39,-22,-45,-14,-14,-18,-59,-5,-11,19,0,44,47},{1,18,-22,54,12,21,14,-22,20,34,-26,-128,-51,0,-34,15,58,49,-43,-38,1,36,-19,105,6,-19,-38,42,-25,3,25,-79,-14,-31,-10,21,-34,-15,-18,-22,58,-6,40,9,-66,53,-56,-19,-41,-5,-15,-45,13,17,30,15,127,9,28,-47,-44,21,-32,12,61,20,44,-44,-10,8,35,-32,-30,14,14,-2,-56,-10,3,77,104,83,-79,9,19,-51,34,18,-28,-16,89,41,23,19,-18,71,-12,33,14,18,-55,-11,8,60,71,12,-49,10,8,-35,15,19,84,6,-30,20,4,-34,23,4,16,-35,38,13,-61,22,7,-23},{-12,-8,-17,61,-11,-59,-21,97,33,95,6,9,8,-35,-14,-18,52,-3,-4,-19,7,28,6,-35,-29,20,-23,-71,-14,25,-46,30,39,-5,-128,-3,-7,28,68,45,-44,-21,73,29,-46,11,-60,59,-40,-14,5,15,45,19,44,-9,-1,-16,-4,-9,-22,-34,4,43,-15,16,3,-27,-46,41,26,-75,32,-29,34,2,22,-26,31,30,22,0,-15,23,127,-26,25,-43,-4,41,15,127,63,-20,-9,-56,18,-73,93,-5,33,-1,-67,-16,95,44,9,-42,-35,4,-5,14,-54,127,30,-11,-53,4,-6,-9,22,-5,2,3,-18,-4,-36,22},{1,39,-31,-56,-28,-54,-69,19,67,-10,-21,93,20,39,24,-23,0,54,-24,59,54,52,-21,74,4,-20,-45,-36,-44,-33,-50,30,50,13,-65,-41,2,103,-62,44,12,50,127,34,-47,19,1,3,72,18,-21,-61,-91,-46,-15,1,-74,-61,-28,-63,-70,-4,6,-25,-38,-8,65,0,64,21,-25,-5,29,-7,-19,-30,20,38,-52,-7,105,0,37,7,127,2,30,82,-18,-96,10,62,73,0,-15,-31,44,53,-54,40,-40,-49,-13,-44,127,26,-79,-15,-22,-13,-44,24,124,-77,19,-43,-12,61,44,-22,-2,-32,-42,-6,54,10,55,44},{32,88,-14,70,-44,8,9,-5,19,-79,-9,-56,-89,20,39,-85,21,-54,81,9,23,-61,-13,-46,44,37,-42,-85,34,24,-28,-79,-3,15,35,1,5,-24,-13,12,-2,42,88,67,-34,29,51,36,-13,22,50,-34,18,26,-15,-5,42,17,24,-36,7,-15,-76,-48,-83,-14,-36,-35,55,32,47,24,20,-11,23,5,-3,-12,33,31,78,31,-128,-23,35,-58,66,-13,-56,-22,-9,-128,68,11,-19,-101,-8,15,76,-6,-11,31,-32,-57,-23,-22,25,-37,-103,4,-57,-8,-1,1,-14,-5,-12,-24,-31,39,-77,-80,13,-7,97,18,82,9},{23,-125,57,-71,-31,-80,-31,76,-53,48,8,-36,-5,-68,-9,-17,64,68,-124,58,-42,11,-33,38,46,5,27,-2,18,25,28,-54,-3,-28,-128,12,-28,39,118,-38,111,12,80,63,9,38,-17,7,-65,-58,26,80,-29,-40,102,-10,-48,12,47,-37,16,-22,-4,41,26,6,4,46,-56,0,-77,12,-45,-35,47,63,-8,56,-33,62,-43,-82,84,3,-41,-1,-48,-43,-1,-52,4,23,14,-36,-35,34,-7,88,-112,-49,42,-13,4,-29,95,20,-74,15,-55,29,36,29,-83,-103,-20,-13,8,38,14,-16,43,34,5,-3,4,-10,-69,-25},{3,47,-16,108,-4,-13,24,56,13,58,-19,82,-31,63,23,-10,29,-47,80,-115,45,3,14,-27,40,69,3,-11,16,26,-17,103,68,4,37,12,22,-71,-39,-11,-51,16,94,3,26,-28,-11,-128,36,-7,1,-45,32,35,-77,-37,21,17,-31,38,20,27,-30,-26,8,35,-30,14,-34,63,-7,8,-7,22,35,10,-57,-22,9,90,47,-6,-128,10,-77,-15,58,68,-11,56,24,-11,41,33,-17,-46,14,10,77,30,-37,-12,-36,-28,-52,-85,20,-45,12,-45,-109,-26,43,-37,-13,67,-41,-73,-17,-11,-14,-111,-2,-10,43,-17,-1,-59},{-28,32,-22,71,-51,-46,-31,127,48,24,-42,22,-77,45,-28,-13,-20,39,39,-69,73,11,-19,25,-24,45,-48,-17,-59,-34,-8,127,63,13,26,-38,-39,-6,60,19,-113,-44,77,30,-83,2,4,-108,-22,-11,-22,20,-54,-28,-76,21,22,-51,-35,-91,-52,-15,11,-39,18,-9,3,24,97,-29,-35,-33,49,-39,9,17,-14,-29,-54,75,51,-12,-84,1,63,5,49,28,-24,-14,21,-64,14,14,-16,-4,64,64,62,9,1,-57,-8,32,38,51,-31,15,-59,27,30,-58,-23,127,-4,-23,-25,0,53,-69,-42,12,-24,15,4,4,-45,13},{39,25,-12,-5,-49,-12,-19,-45,16,33,20,-21,-11,-21,40,61,-9,83,88,20,75,-21,-13,28,15,53,-41,-39,-3,60,21,19,15,-50,57,-2,24,-93,-81,37,-9,67,-86,15,-8,61,-23,2,14,34,-8,-99,4,0,-93,11,-29,-25,-4,-51,14,-4,-35,-34,24,29,-10,26,47,15,47,41,30,27,9,-23,-61,-30,-45,-42,-47,44,-26,-21,-78,19,-30,17,-10,-7,5,91,-55,-1,-31,-37,-18,-40,70,-3,-50,-21,32,30,127,42,-84,47,1,42,-75,29,-5,55,10,-15,6,-51,-2,29,-37,-50,-22,6,1,-12,7,50},{-12,59,11,51,-17,15,-7,-88,-14,30,-39,20,60,-1,29,47,-11,-83,52,19,-48,5,1,-14,-17,-19,5,-86,5,-24,30,-26,21,-18,-110,21,-33,-36,36,-35,13,-35,-86,-3,-57,-8,50,81,9,-60,-18,-63,20,-64,-31,12,-32,25,14,24,46,-51,-18,-39,30,39,54,-40,-28,-5,9,-35,-67,17,-23,-7,7,-1,-25,-38,31,36,4,-80,-19,-72,31,-45,6,77,-20,-81,-31,32,-21,19,46,0,-12,-18,38,24,-23,-36,64,-127,-17,28,36,-53,-25,-36,-128,16,52,5,-55,-27,-29,2,-43,-16,14,52,3,-54,-9,-78},{6,12,-1,22,-29,39,-37,46,2,-50,18,-67,-50,-5,-42,6,-9,-58,-77,110,-56,-10,22,127,-24,8,59,-4,-12,-33,-29,-69,9,113,33,0,38,64,-7,26,40,31,-22,70,-29,-10,-61,65,3,18,26,11,-14,-24,99,5,-76,-14,-30,-19,-3,-6,66,6,4,-4,13,-50,3,10,-103,-13,-70,18,-35,49,27,38,-15,12,40,7,127,22,42,83,-1,-30,-4,-128,35,-105,-66,5,5,14,26,9,-21,-5,40,41,-26,-21,22,87,-43,18,-89,-32,-56,-36,20,-66,24,29,-19,-22,16,-15,-33,-3,-15,-27,-3,-66,49,4},{-17,30,29,47,32,17,-15,60,-50,82,-37,36,-81,-31,-61,-26,31,-33,-21,31,-25,23,-46,52,28,8,76,-96,31,29,27,-34,25,77,57,27,25,3,-10,-39,-2,-23,-71,38,-61,-18,12,-52,42,-11,12,19,-22,-16,53,-48,57,-5,7,43,6,15,27,-17,-25,-18,81,-12,52,-9,-51,23,31,-25,22,-4,-3,-43,-39,-10,-21,30,42,-1,-128,-37,-1,-17,-8,7,5,50,10,57,-25,12,-6,-29,-48,-49,22,-19,-15,29,35,24,-83,20,-67,12,-4,31,-50,10,-14,12,-6,25,-28,30,2,-3,17,9,9,20,-16,-1},{-25,-69,-9,-12,5,-53,10,86,-7,113,-6,-23,-44,12,10,26,36,-53,-128,-48,-73,58,-2,29,-20,-28,-114,59,-24,35,46,-16,-36,121,-90,14,-34,23,26,24,71,-26,17,-40,-44,-73,-32,54,57,12,38,-32,-5,-49,-69,22,-98,-20,32,-101,-43,8,-62,-114,40,-3,-75,21,53,-43,8,-33,52,25,-21,16,-40,51,48,-35,38,16,9,33,59,31,-102,-40,-45,-70,10,28,5,-4,7,12,-18,-17,-113,23,38,-2,7,-86,-65,-28,-62,39,0,8,9,-2,-17,-13,6,2,42,-21,-1,-25,-31,-12,-3,17,32,24,28,-23},{-10,36,20,38,2,-22,-41,85,-4,21,64,-75,-16,-7,32,-60,8,4,-7,104,34,-5,-35,-22,26,-49,-33,-59,-9,24,29,112,-2,41,-79,17,55,14,45,-42,-11,-6,100,9,-6,-6,-25,41,35,-117,-7,18,-25,45,-40,-40,13,3,-1,36,25,7,-8,6,-24,-81,76,1,-37,-86,3,36,22,51,-19,30,-34,-76,16,-13,59,3,-80,-6,-21,37,16,-9,-17,-34,23,-94,46,-43,-23,-38,-34,-91,-15,-73,19,-14,-14,29,21,-62,36,-43,-63,10,78,0,89,99,-57,-9,-25,-30,17,24,-1,48,14,-17,-13,-31,9,-68},{-5,1,-6,-76,15,-71,-19,-93,27,-128,-14,10,-71,-25,26,-45,47,14,24,32,14,55,22,-76,-11,32,-10,34,-20,-17,-28,5,12,44,-90,-27,3,65,8,7,-88,50,45,-48,55,-25,-66,-43,62,52,-26,-5,-23,-64,-27,5,-120,-33,17,-30,-30,-27,0,1,32,-79,75,-40,82,5,-84,62,84,-7,-24,-27,3,-7,0,-43,48,31,-40,-17,-49,-18,48,82,-10,-128,29,47,75,17,14,-9,-8,15,-8,17,-45,-36,23,-47,-40,53,-91,83,-45,-21,3,-6,47,26,15,-31,28,66,38,32,14,-59,-16,25,105,-8,58,33},{1,-27,-19,42,25,1,10,26,36,-112,10,50,24,16,-24,34,49,-7,-27,79,40,30,20,-10,-23,-39,-33,-46,5,4,13,-43,-18,-2,-21,2,-40,8,-13,-59,63,-2,42,-11,80,15,13,22,8,-5,2,65,22,-57,34,-21,66,-20,-33,12,-57,-44,4,60,37,-30,81,-4,-27,-13,-52,2,-78,62,-40,-30,-1,20,-9,12,34,42,71,-42,-128,98,-8,-59,-58,-23,50,-12,107,-2,-7,49,47,-27,42,30,27,-39,-20,26,127,-128,15,-35,-35,-10,4,2,-128,-48,-3,-12,-22,-73,27,14,-26,-5,-47,-21,15,-35,58,-38},{-17,-9,-4,27,-61,-11,-72,35,17,-128,2,-103,-21,-19,-20,31,-29,-67,-3,-83,-36,7,11,35,4,-17,-89,28,24,-69,5,42,-18,-53,23,-3,-13,-27,23,18,-82,30,-79,75,-36,39,-43,-26,65,63,26,-78,-13,27,37,40,103,-34,-13,15,-39,-62,7,37,2,-25,-27,90,44,-14,76,-40,-38,-16,12,-32,11,-11,-70,-46,-70,10,18,-31,28,32,0,14,92,47,8,-79,54,29,-1,-13,-19,91,4,29,-92,34,-43,-12,-9,49,72,77,13,-4,-6,-36,-128,71,17,31,-36,-9,-16,10,-1,-20,50,0,63,-23,14,94},{-21,49,-51,67,-41,6,-15,71,-18,74,-69,48,-25,5,28,-23,56,-21,27,-37,7,-13,20,-10,-23,0,22,9,-56,87,-23,-31,22,42,-48,0,36,52,-13,13,8,9,-62,23,-42,-2,93,-73,-18,32,40,13,-31,-27,16,-16,34,-41,-46,-79,13,-22,-12,9,-25,32,113,43,29,-11,-5,19,12,24,-76,40,39,-18,8,