//2023-07-18 16:13:11.280382
#ifndef GESTURE_CONV1D_PARAMS_H
#define GESTURE_CONV1D_PARAMS_H

#include <stdint.h>
#include <stdbool.h>

struct Conv1d_Params {
	int input_width;
	int in_channels;
	int out_channels;
	int kernel_size;
	int stride_size;
	int padding_front;
	int padding_back;
	int output_width;
	double out_scale;
	double s1;
	double s2;
	double sb;
	double s4;
	int z1;
	int z2;
	int zb;
	int z4;
	};
struct Dense_Params {
	//I=BATCH_SIZE;
	int K;
	int J;
	double out_scale;
	double s1;
	double s2;
	double sb;
	double s3;
	int z1;
	int z2;
	int zb;
	int z3;
	};
static const elem_t QConv_BN1[3][3][32]=
{{{52,-128,-128,-53,-21,48,-33,-48,-51,-18,127,-53,-4,-21,-72,-128,-114,50,-4,-71,-128,-24,86,28,27,30,75,15,62,-5,-37,-124},{-36,127,-38,46,81,-4,-24,-23,71,65,50,-27,-95,17,48,-3,84,-78,8,-94,-84,79,120,5,15,22,47,42,3,4,10,-128},{-37,-39,-81,56,33,-98,1,34,-58,30,-84,30,-9,16,-25,85,-4,34,27,-51,-38,-42,61,17,38,27,-53,17,-104,7,46,-70}},{{4,5,-5,54,77,98,-4,-43,89,-15,-34,-55,48,-39,-28,-59,127,37,25,100,-59,22,106,17,-35,14,119,6,41,-1,-31,8},{-20,-84,48,-9,-3,-16,32,23,-65,3,123,-43,-39,-24,52,53,81,-18,-27,120,71,79,-2,32,-40,10,-81,31,50,16,-45,-11},{3,115,5,-84,-78,13,14,-14,67,8,27,49,-36,-26,-56,61,-41,27,13,-18,-83,-44,-81,26,36,8,-79,15,-51,50,12,87}},{{66,33,2,-115,-47,-24,-6,-76,-76,-92,-128,-97,47,-36,11,127,-17,35,36,-20,127,13,-42,4,-38,39,-56,4,27,0,-24,20},{-31,-79,-26,-128,64,-41,38,21,4,-7,-79,19,43,-29,43,-38,-128,41,27,92,16,-48,-44,-37,-25,15,114,24,-14,1,-99,127},{-8,-77,68,77,-53,53,58,-27,65,-33,-29,-46,17,-42,-54,-82,110,-31,29,-32,125,-21,-128,39,62,27,19,-2,23,29,-5,14}}};
static const elem_t QConv_BN_flatten_1[9][32]=
{{52,-128,-128,-53,-21,48,-33,-48,-51,-18,127,-53,-4,-21,-72,-128,-114,50,-4,-71,-128,-24,86,28,27,30,75,15,62,-5,-37,-124},{-36,127,-38,46,81,-4,-24,-23,71,65,50,-27,-95,17,48,-3,84,-78,8,-94,-84,79,120,5,15,22,47,42,3,4,10,-128},{-37,-39,-81,56,33,-98,1,34,-58,30,-84,30,-9,16,-25,85,-4,34,27,-51,-38,-42,61,17,38,27,-53,17,-104,7,46,-70},{4,5,-5,54,77,98,-4,-43,89,-15,-34,-55,48,-39,-28,-59,127,37,25,100,-59,22,106,17,-35,14,119,6,41,-1,-31,8},{-20,-84,48,-9,-3,-16,32,23,-65,3,123,-43,-39,-24,52,53,81,-18,-27,120,71,79,-2,32,-40,10,-81,31,50,16,-45,-11},{3,115,5,-84,-78,13,14,-14,67,8,27,49,-36,-26,-56,61,-41,27,13,-18,-83,-44,-81,26,36,8,-79,15,-51,50,12,87},{66,33,2,-115,-47,-24,-6,-76,-76,-92,-128,-97,47,-36,11,127,-17,35,36,-20,127,13,-42,4,-38,39,-56,4,27,0,-24,20},{-31,-79,-26,-128,64,-41,38,21,4,-7,-79,19,43,-29,43,-38,-128,41,27,92,16,-48,-44,-37,-25,15,114,24,-14,1,-99,127},{-8,-77,68,77,-53,53,58,-27,65,-33,-29,-46,17,-42,-54,-82,110,-31,29,-32,125,-21,-128,39,62,27,19,-2,23,29,-5,14}};
static const acc_t QConv_BN_bias1[32] = 
{9201,10572,10768,11748,581,1756,-6668,11356,-4121,6262,8417,15274,5087,18213,9201,-4121,-4709,-3141,-9214,2736,4303,3716,3716,-10978,-5296,-13329,385,-8039,4891,-9802,11748,12923};
const struct Conv1d_Params QConv_BN1_params = {.input_width=100, .in_channels=3,.out_channels = 32,.kernel_size =3,.stride_size=1,.padding_front= 1,.padding_back= 1,.output_width=100,.out_scale=0.0031650261865576457,.s1=0.002771748804581297,.z1=-87,.s2=0.043414942423502606,.z2=0,.sb=0.02357487762135203,.zb=7,.s4=0.038020322003777356,.z4=13};
static const elem_t QConv_BN2[3][32][64]=
{{{-5,-27,-45,112,-53,9,27,-90,39,44,-87,-39,-53,11,-1,-67,17,22,19,-86,38,24,10,-77,44,-35,81,57,49,22,-25,-19,-22,21,42,67,74,127,63,-88,-27,44,-49,-87,100,-6,41,4,14,-125,-48,53,18,-15,17,13,-47,50,-24,-70,10,4,24,82},{-55,-42,68,-128,61,15,10,9,-50,49,41,39,127,-24,61,-40,-61,-2,-9,-22,8,38,46,-8,38,-128,11,60,32,23,25,-12,-51,-26,-83,-101,127,51,-121,2,-33,51,12,68,-53,49,-29,-88,13,124,1,-10,-46,16,-16,-49,2,39,-17,62,-53,15,5,92},{127,-15,127,-51,39,-8,12,13,-53,-44,-13,18,127,-23,29,-48,-104,-36,0,67,25,12,19,36,-42,-124,60,-37,80,35,61,34,28,46,-101,24,99,32,-128,-38,-122,-19,13,39,36,30,-69,-70,34,10,-69,-35,0,-36,-42,127,0,13,10,26,63,-42,25,-128},{-12,-14,59,-128,57,-10,20,24,-82,-7,-67,-107,-23,12,-31,25,-12,15,-13,7,3,-9,-36,24,-33,73,13,-48,53,-3,78,-47,-67,-68,-34,10,35,100,-60,49,34,-64,44,55,42,13,-7,-5,-10,56,-27,-7,24,-128,-19,-37,-25,-10,112,71,10,31,-2,83},{25,-32,18,-128,4,-12,75,8,-52,-36,-51,25,117,13,-42,-8,47,40,-5,-128,-48,-27,-25,26,-24,37,20,46,-3,19,-28,19,-2,-52,32,127,-67,44,-63,6,-45,-128,20,91,-17,2,-63,-16,3,24,-35,45,-3,-9,-23,-31,-34,56,-54,-94,3,21,-36,-34},{-9,63,28,77,-95,-15,-119,29,5,-66,-13,-26,-14,-14,-65,-13,-70,-48,-12,35,13,-60,-3,-46,12,34,78,31,-6,33,11,12,-31,-6,80,-77,-128,-96,46,-35,11,110,-44,-128,-85,-36,6,-7,-6,-128,-27,-92,-2,-40,-7,44,-52,16,-128,-70,-14,15,51,32},{-27,21,58,-95,-15,-17,127,-3,54,-29,-44,-21,5,-47,72,-53,1,61,9,23,-53,4,45,-18,-5,61,22,45,2,8,-41,48,21,15,58,-76,127,-85,-40,-66,7,57,69,-73,57,29,-17,44,7,-43,-96,44,43,32,27,10,4,-6,-49,-95,-67,-45,46,64},{67,-4,127,-128,-20,4,26,9,52,-12,-3,-35,-15,23,-72,37,-11,18,50,6,46,23,11,14,37,58,-37,40,12,12,39,-36,-28,62,21,-71,49,5,-13,-72,42,-37,-66,39,-67,-26,-16,-35,0,-15,39,-40,-25,13,11,-35,-41,-34,127,18,-52,1,31,41},{-25,-7,-121,-127,-34,-24,23,-40,-51,-5,-71,-11,110,-67,-15,-31,41,34,-33,-62,-46,92,-55,-7,6,-42,-61,53,7,-76,-34,2,2,-15,34,-98,123,-9,-111,-3,-42,114,46,35,-90,-64,-32,5,31,-72,-6,-65,5,23,-34,7,-30,35,70,5,-74,-4,-46,-78},{12,59,127,50,46,-61,39,0,9,-35,-30,30,-7,-84,51,-70,-8,67,-9,46,-79,10,-50,41,24,-44,3,24,11,1,-24,32,4,47,27,65,-113,-60,-8,18,-15,-70,-42,-23,-25,-15,-97,32,-1,-15,-37,-9,-9,-46,17,-38,-10,-20,127,69,27,-50,14,-39},{-55,0,-128,59,-76,23,25,-25,-22,-45,49,39,-81,10,-36,3,-93,-48,20,-77,13,100,14,14,8,-7,-20,-3,1,28,-64,6,50,11,121,16,-128,15,-7,58,45,-4,-36,-60,38,107,-6,2,4,-5,26,-24,-8,32,48,33,13,25,-128,-26,-42,-33,-10,-55},{57,-16,80,51,5,-23,-14,25,20,11,7,-18,115,25,7,28,51,-28,-9,-102,-52,-89,34,-39,-21,-128,-12,28,-27,-64,-18,-60,-15,-28,-93,60,127,96,-17,7,10,-128,16,83,38,-62,11,-35,56,23,13,-55,20,-35,-26,47,19,-56,127,-42,-17,-57,-23,93},{70,127,27,127,-22,-3,-128,-46,-32,53,-59,1,-128,-9,-128,-38,-19,-24,29,4,43,-105,35,-22,81,127,-69,58,46,-15,-88,32,-65,26,2,127,43,111,-20,30,-12,-128,-21,-116,3,-13,-57,35,58,-84,38,73,-3,-70,-2,49,-71,-10,-33,-101,-104,20,29,-41},{59,-67,-37,-14,48,4,17,10,77,79,46,29,-22,23,-18,35,88,8,16,-55,-32,-76,-11,-18,47,-103,68,41,-37,-67,10,-53,5,51,-14,10,-115,9,-11,-70,30,-128,-17,-28,46,-14,1,-23,14,22,-51,-33,-12,101,11,-74,32,-53,68,82,-18,-50,-42,114},{52,-7,127,-128,-24,-19,-24,62,5,40,12,44,118,-45,42,11,-40,57,-20,14,8,-128,-16,28,-3,-21,127,11,-5,-19,-48,-33,36,59,2,56,127,127,-128,0,-27,-21,-48,89,31,84,12,14,-29,43,-7,-33,-31,-7,33,84,76,4,127,127,-47,0,19,-80},{-92,-37,96,-128,24,-11,-70,51,-31,-9,25,11,81,-24,13,-30,-13,65,-39,-68,-6,-16,-68,-43,30,-64,-15,59,-44,-102,37,26,17,28,-27,-8,95,16,-18,-32,-17,-128,-27,52,47,-40,11,13,19,20,-17,35,-11,49,-43,-15,-43,80,78,120,-46,-15,-32,11},{-80,-58,-18,-128,46,-6,92,9,52,-39,34,-23,127,-63,125,43,42,108,-22,-24,-16,-52,-64,40,33,27,48,-28,-18,-26,-28,63,12,3,28,-88,-6,-60,-4,15,48,80,-9,63,17,-67,29,1,4,35,47,-55,25,6,-66,-45,-38,43,63,-3,-34,25,-22,-101},{36,25,-128,127,-74,-5,-53,54,2,-19,46,-24,54,-28,-4,11,-17,-6,43,-45,-1,-128,27,33,48,106,-43,-108,35,31,14,-6,3,0,-70,-31,127,89,-50,62,26,-9,-11,-35,-42,31,-7,55,26,-38,72,-69,-7,-25,40,-21,-53,7,127,1,0,-9,12,-67},{39,43,127,81,1,13,-107,28,-24,-19,-24,-13,32,23,-26,-28,20,-15,-21,47,-15,4,1,12,37,-49,59,-40,34,-35,7,9,2,-14,21,7,-2,-27,60,-4,20,23,-32,40,-1,5,-23,18,45,-55,24,-17,-14,-19,-9,-39,36,50,127,-47,15,20,-16,-39},{2,-33,15,-128,64,-1,-14,-12,-70,-67,-34,31,-22,30,-69,27,-79,17,3,94,-10,41,-62,22,9,-21,-9,-33,48,36,-27,39,19,18,5,-9,-109,-128,-87,-7,-49,127,-32,1,-66,8,12,-19,16,49,4,79,17,-45,17,28,25,10,-119,81,-58,-23,-9,-4},{1,-16,13,-128,-26,-8,68,47,-43,-64,7,4,127,-9,54,-37,-16,122,-21,127,6,-85,31,-63,14,-42,41,26,11,-128,12,46,-25,-25,-17,-126,-128,-66,-59,15,-128,-23,-113,95,-62,-61,-56,9,28,127,13,-5,17,-37,21,18,43,20,127,127,-60,-109,-21,53},{43,14,76,127,24,12,-46,25,-71,-67,-27,30,127,-4,18,18,-63,16,-39,-39,14,-33,-24,-57,-21,-1,-22,1,48,-15,19,9,76,8,39,-14,74,127,-92,19,-13,-122,-49,78,-22,71,9,-40,-1,44,28,-31,-22,11,-47,76,45,-30,-44,127,-108,-22,-3,-56},{-22,44,20,22,28,-18,84,-100,-16,-46,-23,-20,50,14,-14,-39,39,1,-98,-83,-63,-83,-30,-8,-16,-98,-27,-9,5,-12,10,-57,-21,-28,56,23,-124,-58,117,-75,-7,82,79,46,-59,-7,42,44,1,127,-24,5,-25,-41,70,31,-37,-46,-128,9,84,-13,-23,127},{70,30,97,103,-5,32,-79,13,-18,-45,25,-2,-95,-4,72,30,30,-26,-14,48,-12,-57,0,-31,38,-111,78,-37,8,-8,-13,-54,-20,71,-14,-24,-120,-95,37,78,50,125,-65,6,-56,-44,48,42,53,-33,0,-81,19,26,10,-73,19,-13,79,-47,24,-22,24,-33},{-29,11,32,35,4,-11,-38,-8,4,-31,65,21,19,6,-11,-54,-44,6,25,-52,-13,2,-51,48,29,3,27,-29,-22,25,-51,-15,-3,28,63,95,127,33,38,-11,48,-128,34,-21,-8,8,25,3,37,88,21,-24,-11,23,32,77,-25,51,104,-13,30,-17,5,-66},{112,63,127,89,42,16,32,-43,22,-56,72,-30,-73,51,-17,-28,-26,38,-10,114,-8,-60,82,-42,-7,74,6,-55,10,41,3,-33,43,48,20,86,21,127,56,-44,-2,-128,-65,18,54,55,-25,35,-11,-42,-8,104,12,3,6,49,36,123,-128,-9,-69,28,31,-122},{17,26,85,50,75,-3,-36,-46,-50,-6,3,23,-33,4,-102,0,81,10,-50,-98,-13,-67,7,19,1,-128,59,75,-30,-9,-56,8,9,28,47,19,76,127,34,16,106,-128,25,-1,6,-32,23,54,27,42,-11,-10,-35,-6,-31,93,-27,-28,-128,-36,97,-25,25,-77},{57,53,-128,-98,39,15,-42,-54,55,64,-13,-2,86,-1,48,-42,35,25,43,-41,24,51,65,-7,-20,60,39,-27,50,-30,31,-13,-36,8,50,20,-38,-98,-32,-35,-24,100,27,10,23,71,-33,2,0,47,-36,-2,8,58,22,51,8,92,44,-128,-28,-28,16,-4},{-33,79,127,127,-80,14,85,-57,-38,-30,-58,27,90,6,45,-12,10,-87,-58,46,5,-128,-47,9,-25,-82,127,32,9,2,-47,17,21,62,73,52,1,53,49,-50,21,-12,23,2,92,-1,8,-27,-17,-82,-21,-28,-8,-7,-68,99,33,-19,-101,-12,-35,-9,37,-18},{-63,6,47,127,17,-25,9,-18,-43,37,-21,13,-99,2,-98,7,42,2,8,-118,-36,-61,-22,16,-14,55,51,-34,37,-63,36,1,-41,-39,71,39,127,90,14,-63,-51,15,81,-52,30,-48,21,11,24,77,-88,-31,50,28,-65,-37,-30,67,-128,-61,-60,-3,-28,8},{-10,33,-22,61,51,3,98,0,6,21,-17,-7,72,7,-23,-61,-13,70,-18,-102,-45,-66,48,15,50,40,-64,-29,57,31,-128,-55,-26,-126,-29,-79,127,-44,-15,50,-68,61,-34,34,-2,-9,-28,72,20,58,-42,-15,-17,0,51,-59,-21,74,23,13,-40,25,43,13},{127,105,118,127,-28,5,-92,-16,-23,83,-75,-76,-101,0,-124,-28,-73,11,31,127,-39,-128,-1,39,20,25,-94,-51,74,100,17,48,-13,-30,23,127,127,127,-128,25,-128,-128,98,-34,41,16,-65,0,28,-128,8,71,26,-123,9,94,-22,-18,127,-37,-8,-9,33,-128}},{{30,-5,98,-128,-19,10,34,-47,4,11,26,-14,-41,-3,31,-67,35,3,23,-63,47,107,-1,16,27,16,-17,18,-3,7,-83,-8,-51,-13,20,99,122,-64,67,-95,-24,127,19,-58,65,-44,23,-15,-31,-37,9,99,33,63,-16,-7,-56,58,51,-68,-60,-8,46,-37},{62,25,54,-128,-24,-4,46,-42,42,1,-2,14,14,1,102,13,4,-31,-8,-29,44,19,75,-109,3,-80,-32,19,-13,28,-26,17,-51,13,6,83,42,-70,72,-14,-25,-18,-57,37,-93,-12,23,-54,-16,55,-12,68,-15,24,-38,-34,27,32,64,-44,-74,-48,64,-110},{127,56,127,-128,-1,-7,-48,35,-47,-16,30,-20,-14,-5,-15,-32,5,-5,10,21,39,39,67,21,26,-9,127,-24,-8,70,76,-4,-2,11,-36,21,7,-12,87,32,-33,-110,13,8,-91,-53,-70,-53,36,-107,-9,-54,12,-8,-27,87,-18,24,65,-19,93,-20,47,-120},{10,16,14,-128,26,19,44,6,-64,38,-56,-78,-29,-32,-10,20,8,-27,17,27,4,114,78,29,18,-51,46,24,63,-49,46,40,-70,-82,6,-43,15,-19,8,-20,30,83,-18,-32,-68,-3,-8,11,-32,81,25,-35,4,-128,-6,-1,-18,-38,18,67,16,-22,27,6},{7,25,78,39,20,26,-78,-31,-47,-31,-24,15,-27,4,-107,31,22,31,10,-115,-58,-46,34,39,-6,-60,53,-3,7,9,-26,13,30,-23,9,127,-96,45,25,-13,8,-128,99,-3,37,22,-46,22,38,34,-18,-1,-12,18,-41,38,-38,29,56,7,1,-7,20,-81},{51,-5,20,-49,-21,-4,5,39,-63,-10,-18,-7,-37,-8,-80,8,-85,-23,-9,-45,-8,-11,97,-92,65,54,-7,25,8,-47,-2,42,-27,56,58,-23,6,-128,-47,-91,58,127,-15,-60,-116,-4,-33,12,33,-14,-25,-106,-22,10,-12,68,-21,63,16,1,42,-39,15,-64},{30,-14,119,2,-15,-22,56,20,-38,-4,9,-34,-110,-9,-14,-46,43,50,32,29,-51,50,-33,-18,31,81,102,60,-4,-12,-39,-25,-1,-29,-14,49,25,-128,5,-17,-37,127,72,-2,-9,-46,-35,32,20,-61,-67,55,28,14,-29,-66,8,15,22,30,22,-31,7,124},{-11,-9,87,55,-46,0,32,-35,17,34,57,-17,51,3,-5,-17,-23,35,13,31,28,51,52,29,-16,51,12,42,-21,-58,38,-70,20,41,-21,-102,18,90,111,-19,27,127,-3,32,13,-44,-16,-62,-17,-98,45,40,-28,-35,68,47,-48,-22,-58,-9,78,5,61,41},{-10,-65,-95,74,18,-10,-128,21,44,6,-28,19,-50,-75,-28,-17,-34,54,1,-6,15,-47,-25,-40,-6,13,-22,-3,-46,-75,-13,58,-10,39,44,-108,83,-83,-90,-44,-22,-108,96,24,-5,-10,-8,27,53,-43,35,-107,2,4,-39,32,-14,14,-58,21,86,-52,-43,2},{-48,0,3,23,-37,-61,-55,3,-2,-87,-4,-9,49,-60,-77,-63,-1,8,-25,-30,-68,77,41,-42,-20,10,78,51,10,-26,-1,-17,23,-28,74,-105,-119,-40,-50,23,-56,-106,53,24,-61,19,-86,50,24,54,-64,-84,-2,-35,61,-34,19,29,-42,-5,-71,-71,-17,90},{18,25,-28,127,-39,-11,-22,28,-3,-75,79,-5,41,-4,-70,-58,-17,-7,19,-26,-16,57,68,-27,56,70,-13,33,27,-51,-40,-120,53,-24,48,-40,-128,94,5,77,15,127,-28,97,-19,51,46,3,17,-4,-6,-18,-42,35,27,39,16,47,-128,53,-27,-27,69,-76},{75,16,-27,-45,9,0,-11,8,-43,85,32,-19,70,8,13,-29,29,-2,13,-41,-28,-38,44,-46,-9,-128,6,-35,25,36,1,-50,-32,-69,-50,-58,-14,-28,101,-3,26,86,-13,58,68,5,-27,-30,6,41,-29,13,-31,29,-41,55,-28,26,-47,19,68,-57,-10,-23},{60,127,-53,-78,-35,-4,20,-59,-28,25,-22,-33,-67,-30,-67,-21,-20,12,6,-16,39,-20,81,-77,53,70,24,2,-2,5,-16,-4,-33,14,87,54,17,-110,66,-55,-15,127,-21,-79,-24,-56,16,-11,11,-84,-9,-26,-4,6,27,-38,-5,67,127,-104,-5,13,100,-92},{-61,1,80,-4,55,7,-103,25,0,43,72,45,-12,21,8,5,54,-26,0,12,4,-15,3,16,-8,-25,15,-18,-14,-49,-44,-36,35,-8,6,-48,-115,68,70,-81,-31,-16,-5,38,127,10,15,-70,-26,45,-17,-72,30,36,-41,-12,17,16,-97,-25,-103,-57,8,34},{62,38,70,-85,-3,-8,-97,39,28,31,67,10,-79,-41,-31,-86,34,-21,-32,-24,45,-128,69,43,-24,127,119,-92,3,-7,-43,20,14,25,12,80,127,36,90,57,-55,127,3,-28,6,72,-35,-34,9,38,-16,-66,-25,54,1,108,61,73,127,127,26,19,24,-92},{-35,-32,49,-6,-4,-35,-19,2,35,4,-42,-25,127,-30,12,-32,-24,44,-9,-84,0,15,-80,-12,18,9,-59,53,-37,-100,48,18,-9,-11,51,-128,-19,-6,81,2,37,-97,64,33,19,-86,-25,29,24,21,23,-56,11,-3,-84,-53,-38,68,-63,42,-35,-10,-19,-58},{-30,-22,-63,9,-6,7,9,-15,-20,19,26,-32,59,-43,4,13,-27,16,6,-45,-29,-77,-27,43,-25,-20,93,64,-18,-120,19,60,10,53,39,-1,-51,55,37,28,-20,-128,111,23,63,-25,45,-5,32,-40,53,-61,7,0,-19,-1,19,20,-56,59,-65,-57,-34,32},{-16,-72,-60,-52,-77,18,-128,31,-73,30,3,-18,122,22,-14,22,-103,28,33,57,17,40,-21,-15,11,30,4,-108,27,-16,-24,-34,-12,25,26,-49,83,79,-25,41,66,-85,22,28,-122,10,-16,14,7,34,69,-114,20,0,60,-29,-28,8,9,-2,-51,1,-18,81},{99,-2,40,-123,-3,14,-128,-6,-38,51,29,-25,-71,27,38,52,47,-27,-28,30,42,-109,-21,-3,14,-46,20,-74,31,-25,15,-64,33,21,-46,98,-128,-40,64,26,-2,-13,-51,15,11,17,-7,26,12,-59,9,36,36,10,-24,-27,-28,43,-128,91,23,23,-36,-5},{12,9,87,-89,78,1,17,-4,-128,-50,7,-24,-19,27,-54,2,15,4,27,79,-35,68,-33,44,21,-36,-49,31,12,33,17,-16,29,18,-1,95,-103,50,95,-24,82,79,32,41,32,-36,-12,46,5,-5,-19,-46,-37,-24,-40,41,1,14,127,95,-39,-4,-20,86},{-18,10,-128,-128,-51,-31,74,-1,25,-59,-30,-43,127,-33,-7,18,10,60,-27,112,-23,-107,36,-62,41,-22,69,-19,12,-47,30,32,23,0,-36,-75,127,57,49,-36,-67,5,-66,89,12,-10,-3,-42,10,10,19,-60,28,39,-55,-11,-8,8,96,77,51,-87,-20,-53},{-25,3,-108,-123,54,22,12,-9,-56,-6,17,34,43,10,-111,4,-47,8,-57,-21,-20,-67,-48,-53,-1,-61,127,26,43,19,-3,-15,17,18,40,15,-34,53,-37,-22,-12,-7,-2,-30,2,83,-16,-48,-15,-48,-26,48,-8,-60,30,65,35,40,127,68,-111,20,26,-64},{-35,34,-128,-128,0,-3,24,-6,-27,-14,36,-25,82,24,-42,-56,27,-41,-90,-9,-34,15,36,-64,-16,-111,-96,32,52,-37,-34,-12,16,-29,38,109,67,-128,7,-70,21,127,14,47,7,25,32,12,30,20,50,49,5,-68,59,33,49,55,120,-76,5,-6,62,56},{66,-47,10,-25,31,-11,57,42,-46,-54,-15,12,-101,0,82,5,26,0,11,25,19,9,7,-4,19,-2,48,-41,-41,51,39,0,-21,-5,-33,36,-128,56,84,106,-3,-85,16,-7,14,22,18,-5,40,-51,15,-17,32,-5,-26,-32,30,55,127,-32,-47,24,-11,-60},{7,-10,-128,75,0,-7,-10,29,-87,-46,1,3,-43,9,-23,-3,-63,29,13,-48,-1,-128,-45,0,20,-16,51,-56,-1,-26,-51,47,-20,30,62,94,-101,79,43,12,-26,127,21,32,-32,-19,34,-16,23,-5,10,-86,8,19,20,56,-20,56,127,-9,32,19,21,-10},{14,72,2,-44,71,33,-18,-5,5,-16,68,-9,-36,35,-33,25,21,-37,-3,-23,9,-78,23,-50,57,28,37,-31,56,14,26,-4,-9,35,-76,-26,-22,21,127,-29,-50,-11,22,33,-42,57,-32,38,-2,41,35,-23,31,13,28,9,-35,16,31,-29,-58,-3,-6,14},{-11,19,54,127,5,-8,90,20,-69,-77,11,-19,-23,14,-38,23,44,-54,-65,81,3,-7,18,-14,-10,-55,-78,30,-20,46,15,-26,-41,-20,14,-25,-128,-58,-52,-79,53,75,11,23,-34,-19,24,38,7,43,13,-55,-28,-32,-50,7,-11,-37,-63,-82,17,37,9,-62},{-10,51,-128,-37,7,-11,-83,-47,-45,43,-36,25,-82,18,-15,19,-21,-33,27,-76,-49,-84,22,28,-18,17,-28,-37,43,-40,-10,-27,-26,22,57,91,57,57,93,24,31,17,52,9,69,-19,-49,52,-2,17,13,-10,59,56,17,0,-19,10,22,-34,42,-4,48,-109},{21,45,15,-7,-65,7,111,-55,-43,18,27,11,94,26,-7,-43,-32,-46,-14,-57,-2,33,-48,38,58,65,127,71,32,23,57,56,48,60,55,126,58,87,-69,20,-29,30,-9,10,-15,-58,7,-33,-66,24,-5,-16,-19,82,5,24,48,19,3,-85,52,-22,4,-128},{-6,-3,39,104,41,-8,19,-28,17,-33,26,12,-2,-22,-71,-19,-3,-27,18,-86,-1,-48,-72,-16,17,-67,-38,-27,0,15,-40,3,-46,-36,-2,-11,18,-9,-71,-46,-29,77,77,6,7,18,-29,4,59,-54,-99,-1,42,5,4,-25,-51,76,127,58,-76,-45,-1,-88},{16,92,-13,0,8,3,87,-4,-4,20,-27,-17,60,-8,-42,-73,-45,52,13,-37,-23,-25,94,3,24,60,-97,-30,43,-61,-110,3,-44,-102,-10,-27,27,-28,-62,-19,25,33,87,32,46,1,4,-5,0,14,42,55,-21,39,-8,38,10,9,-96,66,-70,-20,107,21},{122,63,30,127,-4,-13,-78,58,15,48,41,-66,-103,-25,-116,-67,57,29,52,67,-38,-63,6,-20,19,38,87,-42,37,86,14,-48,-40,-48,-66,127,49,127,66,-40,13,-93,14,56,47,-38,-35,21,-29,-39,25,87,-18,4,-9,21,-20,24,127,-30,88,2,78,-128}},{{-23,27,62,-128,17,-7,127,-99,-45,-31,-100,-36,14,28,107,-48,-36,36,11,-51,31,76,10,-44,-6,58,25,38,42,-64,-107,-2,-19,40,106,-4,-3,-128,57,-99,10,16,-58,19,97,3,29,13,-45,-2,8,110,-16,9,-24,-14,-25,67,-128,-31,-63,26,-14,31},{31,61,30,111,28,-6,75,23,-60,102,21,-20,-86,-8,80,35,-17,-17,-21,45,8,126,46,-122,-24,-2,-128,-42,33,26,-27,-6,-6,-45,7,-67,-49,-128,68,-80,-33,27,-62,10,-39,74,0,42,-15,38,33,52,-13,-39,55,-5,18,17,83,-124,6,51,-10,127},{21,26,127,109,-24,-5,29,-45,-62,18,43,-26,37,2,13,-37,-23,-54,12,-18,18,-45,-35,-53,-23,-69,117,60,2,-9,-14,-43,26,-1,36,49,-128,127,-110,34,73,34,-4,-64,-85,-50,-38,-46,43,-27,0,-78,-8,22,16,-38,-64,16,-128,-22,85,-48,-21,-56},{2,105,-128,-16,-9,7,127,-99,-66,11,23,-74,-128,-1,40,93,-83,15,35,-27,-31,127,114,29,-57,-65,24,4,55,-39,49,-6,-37,-106,-20,16,-128,-128,-92,62,127,127,46,-7,-37,78,26,58,2,74,22,-45,-53,-128,53,-20,-67,60,-128,13,-68,-10,29,47},{12,-22,-99,56,97,-12,-90,-58,-84,4,12,23,91,6,-31,37,21,-23,-22,14,-34,-54,37,49,-27,-64,-72,11,5,37,39,-41,28,-18,48,123,-75,-110,-26,-28,11,-4,94,39,-29,51,-70,18,28,-91,-33,65,-24,4,14,49,-20,37,-42,-7,-50,38,-2,-29},{14,37,124,-128,-84,1,51,-10,-75,30,-101,4,87,-21,38,-1,-74,-13,20,11,5,-42,10,-76,-5,-46,27,-29,13,-20,-50,-50,-38,47,94,-13,-128,-71,-90,-95,36,-103,-99,-88,-128,-2,-47,-33,17,8,55,-7,9,-6,6,-6,-29,20,7,-15,2,-40,41,-109},{-74,39,-82,-10,-7,-33,127,-16,-46,49,-47,21,-58,-29,-33,-66,19,4,-2,41,-43,82,17,51,21,80,-5,52,1,-2,6,-48,-29,6,17,20,-30,-85,39,-51,-28,-51,28,-49,18,43,20,-16,6,-84,-87,98,66,-9,25,-24,-60,-8,99,8,29,2,33,50},{19,-28,-128,12,-65,10,-71,-3,2,-41,83,8,-128,-23,-37,-60,31,21,2,54,5,-54,22,27,7,25,-68,-57,28,-33,62,-49,25,-79,-48,-69,52,-72,121,28,84,16,-19,-71,-17,17,40,-63,15,-72,41,55,19,9,37,34,-63,22,-32,-39,81,49,31,88},{-75,-31,-128,127,22,-4,2,-10,-21,-18,24,15,75,-72,-31,-1,8,75,-5,-40,-3,0,-106,-2,-4,-70,50,-9,-20,-104,52,-9,-29,55,60,17,-119,-7,-11,-20,38,55,53,-28,-23,-110,-28,-26,4,-36,11,-50,49,-52,27,-33,-25,6,-50,64,-21,-7,-36,-63},{16,67,-14,108,17,-74,-58,0,0,-73,40,10,-29,-45,-128,-16,-3,-7,37,64,-37,103,45,-11,21,-14,-69,-7,-29,-27,11,-44,18,-3,1,-67,-80,-45,-55,-52,45,-118,7,-25,-5,54,-48,29,5,-80,-65,-128,8,-4,69,-57,-35,-39,-128,-76,23,-52,48,-82},{-32,17,-128,84,-59,-17,-30,-16,25,-65,127,-3,-123,-59,-66,28,-55,-13,40,69,-54,50,47,-51,-67,114,-128,-103,-6,-20,53,-41,66,-2,53,-36,-94,19,-33,25,31,-32,26,49,-49,67,31,71,22,60,-25,-24,-36,-2,117,44,-57,-8,-128,-15,-68,78,55,-15},{52,26,-119,127,65,-16,-121,23,-31,95,38,-20,-118,18,30,-29,75,25,24,28,-42,-34,39,-34,-23,-74,-128,-20,0,1,-23,-22,30,-123,-108,61,-128,-114,-6,-37,40,127,35,30,31,-36,-18,-3,0,33,16,64,15,21,95,58,17,41,-128,-10,22,-27,-7,127},{-22,123,-98,36,-13,7,122,-108,2,-53,-21,27,-128,19,-81,-14,-46,52,19,-58,44,23,127,-99,86,94,127,40,61,15,-31,6,-55,47,31,90,78,2,27,-28,9,-128,-23,-18,-86,19,-43,-13,17,-104,4,-60,0,-32,37,-41,-57,4,-14,-5,-77,9,69,-9},{-50,-19,-128,100,-26,16,-58,11,66,49,59,6,1,-34,108,54,52,-2,19,39,-35,127,-15,-50,22,17,-59,10,-33,-35,22,-62,44,10,-43,-84,-128,-112,25,-36,-10,106,-18,-6,111,37,-3,-2,-28,23,-49,-47,-16,55,28,-40,49,37,-44,-56,-22,5,11,127},{79,25,-128,39,12,5,14,-3,-69,-64,127,32,-127,-6,-77,-101,-13,-10,29,-46,9,-116,-17,1,-9,9,-88,-88,-25,39,-47,-32,71,-8,15,-87,127,-52,127,40,79,126,46,17,-12,29,-39,6,-20,127,0,-43,-60,26,122,112,25,60,11,127,-45,-6,5,-6},{-11,17,59,-73,18,-14,-20,31,1,1,-62,32,99,-71,45,2,-42,19,7,53,-22,-73,-63,-12,38,16,-30,61,-39,-115,-21,50,-33,-16,21,-65,-43,-89,26,-12,-14,-19,-18,-48,-55,-5,-17,49,-9,41,13,-89,41,50,-109,6,-35,33,127,-17,-60,14,-61,-49},{-84,5,-45,-128,-69,3,-73,-41,43,-15,2,-20,32,-64,116,-19,-19,82,0,59,41,13,-29,-49,-3,-38,-113,-39,-13,-108,8,29,-45,39,13,77,-25,-128,-107,-31,-12,127,95,-36,-6,-98,58,3,-13,-94,93,40,13,-29,-11,-20,17,13,-91,-60,-8,-78,4,5},{36,-43,-128,16,-92,-8,-10,12,-32,-58,20,-6,33,-1,21,15,-59,7,-10,-15,-6,-91,-29,61,47,54,-74,-128,1,-19,5,-21,-32,-38,47,-89,-77,29,-17,-10,-1,127,-54,55,-26,1,4,10,3,-4,-8,-62,-16,52,39,-48,-46,58,-59,127,63,20,2,38},{21,-52,-93,127,16,9,-113,22,-18,-12,12,-31,-41,31,5,-26,-46,-2,-30,-36,-3,-92,59,-13,64,7,-61,12,19,76,34,17,33,30,-25,-10,55,-3,-14,40,-39,-128,21,32,40,6,21,-45,31,64,2,-5,38,43,48,-4,16,-19,-91,-10,-49,34,10,-68},{48,-59,-128,100,36,19,-81,-45,-99,-63,64,4,23,-1,-87,-6,75,47,-53,-55,-30,-34,19,71,-24,42,15,-57,0,93,18,50,4,-8,79,100,52,119,-4,-28,39,-94,17,-38,-40,42,-50,4,-16,-97,21,37,-48,-12,-25,50,23,-19,2,78,-68,-14,39,-128},{22,74,127,-128,-72,-20,-128,18,20,-128,-128,-13,116,26,38,1,-65,41,-7,-23,-29,-128,-17,37,0,-128,127,24,2,-65,56,57,-25,16,-12,-124,127,-116,-76,49,-75,-128,-128,-85,-128,37,-69,-42,-57,-128,-92,23,59,-11,-128,-45,0,-3,127,31,23,-66,-24,-128},{-17,28,-64,101,8,-2,62,-6,-128,-13,23,-17,-64,-21,-79,9,-47,9,-42,42,-15,-92,13,-16,21,105,-112,-51,8,-44,40,57,-27,-53,44,19,-39,-128,22,14,25,99,23,-20,-4,97,-8,-28,-24,31,12,59,-31,-43,15,-70,38,-1,24,-17,-80,20,25,-13},{-76,4,-128,-128,26,-9,127,-115,-117,-49,-38,-18,-95,-32,33,-90,12,-44,-82,49,-12,-107,11,-49,-15,-71,-128,-90,23,-7,30,-54,-9,23,56,-1,127,-128,98,-10,-35,64,-24,20,15,127,-35,77,-22,110,-31,39,-38,15,103,9,82,-29,127,-120,7,14,79,127},{60,2,101,-62,-12,13,-19,-13,-47,16,62,17,13,2,-42,-44,44,24,-7,81,-11,-44,-41,46,20,-85,69,-3,14,-45,45,-10,-36,-13,53,106,-128,-120,99,68,-14,-107,16,42,30,9,21,-16,11,-66,62,60,33,-10,-4,-87,16,1,-128,-19,-47,-35,22,-49},{-49,27,-128,21,-84,-27,-30,-27,-4,-38,111,-42,-54,-6,63,-58,-13,-3,7,59,-3,61,27,6,35,-30,-32,6,42,-64,-62,74,26,-1,76,74,11,-58,-2,37,-4,127,14,60,22,25,-24,38,43,8,14,-128,0,-50,57,93,3,65,-128,-94,64,-27,20,6},{60,49,-119,18,43,21,94,3,-39,28,-33,-27,-128,27,10,-29,-17,12,-19,-36,28,41,63,-45,23,-33,-38,-11,28,17,-18,3,-25,5,-11,127,-63,127,1,-5,-14,26,-15,22,-13,-19,9,-9,35,-69,11,-11,16,-24,-25,-10,45,93,-65,-78,35,9,36,32},{-33,1,-99,-22,36,19,-112,-43,-118,-32,35,8,-91,-6,-71,-4,67,-49,-38,-90,1,58,20,-59,21,-128,47,-18,-27,32,-35,-20,-57,70,27,49,95,127,-128,-70,44,34,76,-34,-93,25,10,0,-3,-3,15,39,-44,-30,-17,93,-52,-17,127,127,11,-6,11,-81},{41,51,-32,-26,67,-11,-5,-14,-38,53,-52,15,-88,-24,15,-25,49,33,28,-72,-49,-12,79,13,53,-33,-24,-3,56,-8,0,-20,12,41,0,-35,127,-25,83,47,26,74,4,45,44,17,-15,12,31,34,-74,1,46,37,-3,20,-12,68,-62,-76,104,-19,26,-5},{-68,30,-62,-88,-12,7,89,-74,-6,27,19,9,-15,28,-71,-22,-37,2,-43,-37,12,-13,-6,-52,47,8,-6,45,9,51,-26,48,8,62,64,-46,3,-106,-7,2,63,-50,3,-29,99,-13,-12,-60,-56,75,19,-85,12,27,-3,-30,-14,16,127,-15,15,10,-4,-128},{39,-20,42,40,26,3,127,-9,14,20,-57,1,-124,-43,-30,-46,41,28,-7,2,-40,76,5,10,52,54,93,17,-16,-33,-1,-14,-9,25,84,-68,82,101,31,-31,-33,-23,58,-26,47,-38,-32,26,58,-3,-116,103,60,-21,22,31,-52,14,60,-31,-67,-39,-47,83},{50,118,56,-117,-41,3,127,8,18,-37,4,-16,31,-7,77,-28,-51,60,20,-14,17,127,127,42,-55,-20,-75,-67,10,-69,-128,0,-64,-115,59,-45,-113,-128,-38,-8,46,127,78,77,54,60,21,28,-11,83,26,71,4,-51,74,-31,-2,43,-128,-91,-17,-11,83,127},{30,9,-86,127,2,-26,-128,6,22,-1,-22,-59,-128,17,-37,-95,2,-41,21,-52,0,-111,21,20,-33,29,98,39,37,82,27,5,-2,-55,-36,16,127,127,39,29,42,-87,84,-40,31,49,4,5,-43,-18,-5,59,18,-68,-33,18,-18,8,127,127,-106,43,-14,-128}}};
static const elem_t QConv_BN_flatten_2[96][64]=
{{-5,-27,-45,112,-53,9,27,-90,39,44,-87,-39,-53,11,-1,-67,17,22,19,-86,38,24,10,-77,44,-35,81,57,49,22,-25,-19,-22,21,42,67,74,127,63,-88,-27,44,-49,-87,100,-6,41,4,14,-125,-48,53,18,-15,17,13,-47,50,-24,-70,10,4,24,82},{-55,-42,68,-128,61,15,10,9,-50,49,41,39,127,-24,61,-40,-61,-2,-9,-22,8,38,46,-8,38,-128,11,60,32,23,25,-12,-51,-26,-83,-101,127,51,-121,2,-33,51,12,68,-53,49,-29,-88,13,124,1,-10,-46,16,-16,-49,2,39,-17,62,-53,15,5,92},{127,-15,127,-51,39,-8,12,13,-53,-44,-13,18,127,-23,29,-48,-104,-36,0,67,25,12,19,36,-42,-124,60,-37,80,35,61,34,28,46,-101,24,99,32,-128,-38,-122,-19,13,39,36,30,-69,-70,34,10,-69,-35,0,-36,-42,127,0,13,10,26,63,-42,25,-128},{-12,-14,59,-128,57,-10,20,24,-82,-7,-67,-107,-23,12,-31,25,-12,15,-13,7,3,-9,-36,24,-33,73,13,-48,53,-3,78,-47,-67,-68,-34,10,35,100,-60,49,34,-64,44,55,42,13,-7,-5,-10,56,-27,-7,24,-128,-19,-37,-25,-10,112,71,10,31,-2,83},{25,-32,18,-128,4,-12,75,8,-52,-36,-51,25,117,13,-42,-8,47,40,-5,-128,-48,-27,-25,26,-24,37,20,46,-3,19,-28,19,-2,-52,32,127,-67,44,-63,6,-45,-128,20,91,-17,2,-63,-16,3,24,-35,45,-3,-9,-23,-31,-34,56,-54,-94,3,21,-36,-34},{-9,63,28,77,-95,-15,-119,29,5,-66,-13,-26,-14,-14,-65,-13,-70,-48,-12,35,13,-60,-3,-46,12,34,78,31,-6,33,11,12,-31,-6,80,-77,-128,-96,46,-35,11,110,-44,-128,-85,-36,6,-7,-6,-128,-27,-92,-2,-40,-7,44,-52,16,-128,-70,-14,15,51,32},{-27,21,58,-95,-15,-17,127,-3,54,-29,-44,-21,5,-47,72,-53,1,61,9,23,-53,4,45,-18,-5,61,22,45,2,8,-41,48,21,15,58,-76,127,-85,-40,-66,7,57,69,-73,57,29,-17,44,7,-43,-96,44,43,32,27,10,4,-6,-49,-95,-67,-45,46,64},{67,-4,127,-128,-20,4,26,9,52,-12,-3,-35,-15,23,-72,37,-11,18,50,6,46,23,11,14,37,58,-37,40,12,12,39,-36,-28,62,21,-71,49,5,-13,-72,42,-37,-66,39,-67,-26,-16,-35,0,-15,39,-40,-25,13,11,-35,-41,-34,127,18,-52,1,31,41},{-25,-7,-121,-127,-34,-24,23,-40,-51,-5,-71,-11,110,-67,-15,-31,41,34,-33,-62,-46,92,-55,-7,6,-42,-61,53,7,-76,-34,2,2,-15,34,-98,123,-9,-111,-3,-42,114,46,35,-90,-64,-32,5,31,-72,-6,-65,5,23,-34,7,-30,35,70,5,-74,-4,-46,-78},{12,59,127,50,46,-61,39,0,9,-35,-30,30,-7,-84,51,-70,-8,67,-9,46,-79,10,-50,41,24,-44,3,24,11,1,-24,32,4,47,27,65,-113,-60,-8,18,-15,-70,-42,-23,-25,-15,-97,32,-1,-15,-37,-9,-9,-46,17,-38,-10,-20,127,69,27,-50,14,-39},{-55,0,-128,59,-76,23,25,-25,-22,-45,49,39,-81,10,-36,3,-93,-48,20,-77,13,100,14,14,8,-7,-20,-3,1,28,-64,6,50,11,121,16,-128,15,-7,58,45,-4,-36,-60,38,107,-6,2,4,-5,26,-24,-8,32,48,33,13,25,-128,-26,-42,-33,-10,-55},{57,-16,80,51,5,-23,-14,25,20,11,7,-18,115,25,7,28,51,-28,-9,-102,-52,-89,34,-39,-21,-128,-12,28,-27,-64,-18,-60,-15,-28,-93,60,127,96,-17,7,10,-128,16,83,38,-62,11,-35,56,23,13,-55,20,-35,-26,47,19,-56,127,-42,-17,-57,-23,93},{70,127,27,127,-22,-3,-128,-46,-32,53,-59,1,-128,-9,-128,-38,-19,-24,29,4,43,-105,35,-22,81,127,-69,58,46,-15,-88,32,-65,26,2,127,43,111,-20,30,-12,-128,-21,-116,3,-13,-57,35,58,-84,38,73,-3,-70,-2,49,-71,-10,-33,-101,-104,20,29,-41},{59,-67,-37,-14,48,4,17,10,77,79,46,29,-22,23,-18,35,88,8,16,-55,-32,-76,-11,-18,47,-103,68,41,-37,-67,10,-53,5,51,-14,10,-115,9,-11,-70,30,-128,-17,-28,46,-14,1,-23,14,22,-51,-33,-12,101,11,-74,32,-53,68,82,-18,-50,-42,114},{52,-7,127,-128,-24,-19,-24,62,5,40,12,44,118,-45,42,11,-40,57,-20,14,8,-128,-16,28,-3,-21,127,11,-5,-19,-48,-33,36,59,2,56,127,127,-128,0,-27,-21,-48,89,31,84,12,14,-29,43,-7,-33,-31,-7,33,84,76,4,127,127,-47,0,19,-80},{-92,-37,96,-128,24,-11,-70,51,-31,-9,25,11,81,-24,13,-30,-13,65,-39,-68,-6,-16,-68,-43,30,-64,-15,59,-44,-102,37,26,17,28,-27,-8,95,16,-18,-32,-17,-128,-27,52,47,-40,11,13,19,20,-17,35,-11,49,-43,-15,-43,80,78,120,-46,-15,-32,11},{-80,-58,-18,-128,46,-6,92,9,52,-39,34,-23,127,-63,125,43,42,108,-22,-24,-16,-52,-64,40,33,27,48,-28,-18,-26,-28,63,12,3,28,-88,-6,-60,-4,15,48,80,-9,63,17,-67,29,1,4,35,47,-55,25,6,-66,-45,-38,43,63,-3,-34,25,-22,-101},{36,25,-128,127,-74,-5,-53,54,2,-19,46,-24,54,-28,-4,11,-17,-6,43,-45,-1,-128,27,33,48,106,-43,-108,35,31,14,-6,3,0,-70,-31,127,89,-50,62,26,-9,-11,-35,-42,31,-7,55,26,-38,72,-69,-7,-25,40,-21,-53,7,127,1,0,-9,12,-67},{39,43,127,81,1,13,-107,28,-24,-19,-24,-13,32,23,-26,-28,20,-15,-21,47,-15,4,1,12,37,-49,59,-40,34,-35,7,9,2,-14,21,7,-2,-27,60,-4,20,23,-32,40,-1,5,-23,18,45,-55,24,-17,-14,-19,-9,-39,36,50,127,-47,15,20,-16,-39},{2,-33,15,-128,64,-1,-14,-12,-70,-67,-34,31,-22,30,-69,27,-79,17,3,94,-10,41,-62,22,9,-21,-9,-33,48,36,-27,39,19,18,5,-9,-109,-128,-87,-7,-49,127,-32,1,-66,8,12,-19,16,49,4,79,17,-45,17,28,25,10,-119,81,-58,-23,-9,-4},{1,-16,13,-128,-26,-8,68,47,-43,-64,7,4,127,-9,54,-37,-16,122,-21,127,6,-85,31,-63,14,-42,41,26,11,-128,12,46,-25,-25,-17,-126,-128,-66,-59,15,-128,-23,-113,95,-62,-61,-56,9,28,127,13,-5,17,-37,21,18,43,20,127,127,-60,-109,-21,53},{43,14,76,127,24,12,-46,25,-71,-67,-27,30,127,-4,18,18,-63,16,-39,-39,14,-33,-24,-57,-21,-1,-22,1,48,-15,19,9,76,8,39,-14,74,127,-92,19,-13,-122,-49,78,-22,71,9,-40,-1,44,28,-31,-22,11,-47,76,45,-30,-44,127,-108,-22,-3,-56},{-22,44,20,22,28,-18,84,-100,-16,-46,-23,-20,50,14,-14,-39,39,1,-98,-83,-63,-83,-30,-8,-16,-98,-27,-9,5,-12,10,-57,-21,-28,56,23,-124,-58,117,-75,-7,82,79,46,-59,-7,42,44,1,127,-24,5,-25,-41,70,31,-37,-46,-128,9,84,-13,-23,127},{70,30,97,103,-5,32,-79,13,-18,-45,25,-2,-95,-4,72,30,30,-26,-14,48,-12,-57,0,-31,38,-111,78,-37,8,-8,-13,-54,-20,71,-14,-24,-120,-95,37,78,50,125,-65,6,-56,-44,48,42,53,-33,0,-81,19,26,10,-73,19,-13,79,-47,24,-22,24,-33},{-29,11,32,35,4,-11,-38,-8,4,-31,65,21,19,6,-11,-54,-44,6,25,-52,-13,2,-51,48,29,3,27,-29,-22,25,-51,-15,-3,28,63,95,127,33,38,-11,48,-128,34,-21,-8,8,25,3,37,88,21,-24,-11,23,32,77,-25,51,104,-13,30,-17,5,-66},{112,63,127,89,42,16,32,-43,22,-56,72,-30,-73,51,-17,-28,-26,38,-10,114,-8,-60,82,-42,-7,74,6,-55,10,41,3,-33,43,48,20,86,21,127,56,-44,-2,-128,-65,18,54,55,-25,35,-11,-42,-8,104,12,3,6,49,36,123,-128,-9,-69,28,31,-122},{17,26,85,50,75,-3,-36,-46,-50,-6,3,23,-33,4,-102,0,81,10,-50,-98,-13,-67,7,19,1,-128,59,75,-30,-9,-56,8,9,28,47,19,76,127,34,16,106,-128,25,-1,6,-32,23,54,27,42,-11,-10,-35,-6,-31,93,-27,-28,-128,-36,97,-25,25,-77},{57,53,-128,-98,39,15,-42,-54,55,64,-13,-2,86,-1,48,-42,35,25,43,-41,24,51,65,-7,-20,60,39,-27,50,-30,31,-13,-36,8,50,20,-38,-98,-32,-35,-24,100,27,10,23,71,-33,2,0,47,-36,-2,8,58,22,51,8,92,44,-128,-28,-28,16,-4},{-33,79,127,127,-80,14,85,-57,-38,-30,-58,27,90,6,45,-12,10,-87,-58,46,5,-128,-47,9,-25,-82,127,32,9,2,-47,17,21,62,73,52,1,53,49,-50,21,-12,23,2,92,-1,8,-27,-17,-82,-21,-28,-8,-7,-68,99,33,-19,-101,-12,-35,-9,37,-18},{-63,6,47,127,17,-25,9,-18,-43,37,-21,13,-99,2,-98,7,42,2,8,-118,-36,-61,-22,16,-14,55,51,-34,37,-63,36,1,-41,-39,71,39,127,90,14,-63,-51,15,81,-52,30,-48,21,11,24,77,-88,-31,50,28,-65,-37,-30,67,-128,-61,-60,-3,-28,8},{-10,33,-22,61,51,3,98,0,6,21,-17,-7,72,7,-23,-61,-13,70,-18,-102,-45,-66,48,15,50,40,-64,-29,57,31,-128,-55,-26,-126,-29,-79,127,-44,-15,50,-68,61,-34,34,-2,-9,-28,72,20,58,-42,-15,-17,0,51,-59,-21,74,23,13,-40,25,43,13},{127,105,118,127,-28,5,-92,-16,-23,83,-75,-76,-101,0,-124,-28,-73,11,31,127,-39,-128,-1,39,20,25,-94,-51,74,100,17,48,-13,-30,23,127,127,127,-128,25,-128,-128,98,-34,41,16,-65,0,28,-128,8,71,26,-123,9,94,-22,-18,127,-37,-8,-9,33,-128},{30,-5,98,-128,-19,10,34,-47,4,11,26,-14,-41,-3,31,-67,35,3,23,-63,47,107,-1,16,27,16,-17,18,-3,7,-83,-8,-51,-13,20,99,122,-64,67,-95,-24,127,19,-58,65,-44,23,-15,-31,-37,9,99,33,63,-16,-7,-56,58,51,-68,-60,-8,46,-37},{62,25,54,-128,-24,-4,46,-42,42,1,-2,14,14,1,102,13,4,-31,-8,-29,44,19,75,-109,3,-80,-32,19,-13,28,-26,17,-51,13,6,83,42,-70,72,-14,-25,-18,-57,37,-93,-12,23,-54,-16,55,-12,68,-15,24,-38,-34,27,32,64,-44,-74,-48,64,-110},{127,56,127,-128,-1,-7,-48,35,-47,-16,30,-20,-14,-5,-15,-32,5,-5,10,21,39,39,67,21,26,-9,127,-24,-8,70,76,-4,-2,11,-36,21,7,-12,87,32,-33,-110,13,8,-91,-53,-70,-53,36,-107,-9,-54,12,-8,-27,87,-18,24,65,-19,93,-20,47,-120},{10,16,14,-128,26,19,44,6,-64,38,-56,-78,-29,-32,-10,20,8,-27,17,27,4,114,78,29,18,-51,46,24,63,-49,46,40,-70,-82,6,-43,15,-19,8,-20,30,83,-18,-32,-68,-3,-8,11,-32,81,25,-35,4,-128,-6,-1,-18,-38,18,67,16,-22,27,6},{7,25,78,39,20,26,-78,-31,-47,-31,-24,15,-27,4,-107,31,22,31,10,-115,-58,-46,34,39,-6,-60,53,-3,7,9,-26,13,30,-23,9,127,-96,45,25,-13,8,-128,99,-3,37,22,-46,22,38,34,-18,-1,-12,18,-41,38,-38,29,56,7,1,-7,20,-81},{51,-5,20,-49,-21,-4,5,39,-63,-10,-18,-7,-37,-8,-80,8,-85,-23,-9,-45,-8,-11,97,-92,65,54,-7,25,8,-47,-2,42,-27,56,58,-23,6,-128,-47,-91,58,127,-15,-60,-116,-4,-33,12,33,-14,-25,-106,-22,10,-12,68,-21,63,16,1,42,-39,15,-64},{30,-14,119,2,-15,-22,56,20,-38,-4,9,-34,-110,-9,-14,-46,43,50,32,29,-51,50,-33,-18,31,81,102,60,-4,-12,-39,-25,-1,-29,-14,49,25,-128,5,-17,-37,127,72,-2,-9,-46,-35,32,20,-61,-67,55,28,14,-29,-66,8,15,22,30,22,-31,7,124},{-11,-9,87,55,-46,0,32,-35,17,34,57,-17,51,3,-5,-17,-23,35,13,31,28,51,52,29,-16,51,12,42,-21,-58,38,-70,20,41,-21,-102,18,90,111,-19,27,127,-3,32,13,-44,-16,-62,-17,-98,45,40,-28,-35,68,47,-48,-22,-58,-9,78,5,61,41},{-10,-65,-95,74,18,-10,-128,21,44,6,-28,19,-50,-75,-28,-17,-34,54,1,-6,15,-47,-25,-40,-6,13,-22,-3,-46,-75,-13,58,-10,39,44,-108,83,-83,-90,-44,-22,-108,96,24,-5,-10,-8,27,53,-43,35,-107,2,4,-39,32,-14,14,-58,21,86,-52,-43,2},{-48,0,3,23,-37,-61,-55,3,-2,-87,-4,-9,49,-60,-77,-63,-1,8,-25,-30,-68,77,41,-42,-20,10,78,51,10,-26,-1,-17,23,-28,74,-105,-119,-40,-50,23,-56,-106,53,24,-61,19,-86,50,24,54,-64,-84,-2,-35,61,-34,19,29,-42,-5,-71,-71,-17,90},{18,25,-28,127,-39,-11,-22,28,-3,-75,79,-5,41,-4,-70,-58,-17,-7,19,-26,-16,57,68,-27,56,70,-13,33,27,-51,-40,-120,53,-24,48,-40,-128,94,5,77,15,127,-28,97,-19,51,46,3,17,-4,-6,-18,-42,35,27,39,16,47,-128,53,-27,-27,69,-76},{75,16,-27,-45,9,0,-11,8,-43,85,32,-19,70,8,13,-29,29,-2,13,-41,-28,-38,44,-46,-9,-128,6,-35,25,36,1,-50,-32,-69,-50,-58,-14,-28,101,-3,26,86,-13,58,68,5,-27,-30,6,41,-29,13,-31,29,-41,55,-28,26,-47,19,68,-57,-10,-23},{60,127,-53,-78,-35,-4,20,-59,-28,25,-22,-33,-67,-30,-67,-21,-20,12,6,-16,39,-20,81,-77,53,70,24,2,-2,5,-16,-4,-33,14,87,54,17,-110,66,-55,-15,127,-21,-79,-24,-56,16,-11,11,-84,-9,-26,-4,6,27,-38,-5,67,127,-104,-5,13,100,-92},{-61,1,80,-4,55,7,-103,25,0,43,72,45,-12,21,8,5,54,-26,0,12,4,-15,3,16,-8,-25,15,-18,-14,-49,-44,-36,35,-8,6,-48,-115,68,70,-81,-31,-16,-5,38,127,10,15,-70,-26,45,-17,-72,30,36,-41,-12,17,16,-97,-25,-103,-57,8,34},{62,38,70,-85,-3,-8,-97,39,28,31,67,10,-79,-41,-31,-86,34,-21,-32,-24,45,-128,69,43,-24,127,119,-92,3,-7,-43,20,14,25,12,80,127,36,90,57,-55,127,3,-28,6,72,-35,-34,9,38,-16,-66,-25,54,1,108,61,73,127,127,26,19,24,-92},{-35,-32,49,-6,-4,-35,-19,2,35,4,-42,-25,127,-30,12,-32,-24,44,-9,-84,0,15,-80,-12,18,9,-59,53,-37,-100,48,18,-9,-11,51,-128,-19,-6,81,2,37,-97,64,33,19,-86,-25,29,24,21,23,-56,11,-3,-84,-53,-38,68,-63,42,-35,-10,-19,-58},{-30,-22,-63,9,-6,7,9,-15,-20,19,26,-32,59,-43,4,13,-27,16,6,-45,-29,-77,-27,43,-25,-20,93,64,-18,-120,19,60,10,53,39,-1,-51,55,37,28,-20,-128,111,23,63,-25,45,-5,32,-40,53,-61,7,0,-19,-1,19,20,-56,59,-65,-57,-34,32},{-16,-72,-60,-52,-77,18,-128,31,-73,30,3,-18,122,22,-14,22,-103,28,33,57,17,40,-21,-15,11,30,4,-108,27,-16,-24,-34,-12,25,26,-49,83,79,-25,41,66,-85,22,28,-122,10,-16,14,7,34,69,-114,20,0,60,-29,-28,8,9,-2,-51,1,-18,81},{99,-2,40,-123,-3,14,-128,-6,-38,51,29,-25,-71,27,38,52,47,-27,-28,30,42,-109,-21,-3,14,-46,20,-74,31,-25,15,-64,33,21,-46,98,-128,-40,64,26,-2,-13,-51,15,11,17,-7,26,12,-59,9,36,36,10,-24,-27,-28,43,-128,91,23,23,-36,-5},{12,9,87,-89,78,1,17,-4,-128,-50,7,-24,-19,27,-54,2,15,4,27,79,-35,68,-33,44,21,-36,-49,31,12,33,17,-16,29,18,-1,95,-103,50,95,-24,82,79,32,41,32,-36,-12,46,5,-5,-19,-46,-37,-24,-40,41,1,14,127,95,-39,-4,-20,86},{-18,10,-128,-128,-51,-31,74,-1,25,-59,-30,-43,127,-33,-7,18,10,60,-27,112,-23,-107,36,-62,41,-22,69,-19,12,-47,30,32,23,0,-36,-75,127,57,49,-36,-67,5,-66,89,12,-10,-3,-42,10,10,19,-60,28,39,-55,-11,-8,8,96,77,51,-87,-20,-53},{-25,3,-108,-123,54,22,12,-9,-56,-6,17,34,43,10,-111,4,-47,8,-57,-21,-20,-67,-48,-53,-1,-61,127,26,43,19,-3,-15,17,18,40,15,-34,53,-37,-22,-12,-7,-2,-30,2,83,-16,-48,-15,-48,-26,48,-8,-60,30,65,35,40,127,68,-111,20,26,-64},{-35,34,-128,-128,0,-3,24,-6,-27,-14,36,-25,82,24,-42,-56,27,-41,-90,-9,-34,15,36,-64,-16,-111,-96,32,52,-37,-34,-12,16,-29,38,109,67,-128,7,-70,21,127,14,47,7,25,32,12,30,20,50,49,5,-68,59,33,49,55,120,-76,5,-6,62,56},{66,-47,10,-25,31,-11,57,42,-46,-54,-15,12,-101,0,82,5,26,0,11,25,19,9,7,-4,19,-2,48,-41,-41,51,39,0,-21,-5,-33,36,-128,56,84,106,-3,-85,16,-7,14,22,18,-5,40,-51,15,-17,32,-5,-26,-32,30,55,127,-32,-47,24,-11,-60},{7,-10,-128,75,0,-7,-10,29,-87,-46,1,3,-43,9,-23,-3,-63,29,13,-48,-1,-128,-45,0,20,-16,51,-56,-1,-26,-51,47,-20,30,62,94,-101,79,43,12,-26,127,21,32,-32,-19,34,-16,23,-5,10,-86,8,19,20,56,-20,56,127,-9,32,19,21,-10},{14,72,2,-44,71,33,-18,-5,5,-16,68,-9,-36,35,-33,25,21,-37,-3,-23,9,-78,23,-50,57,28,37,-31,56,14,26,-4,-9,35,-76,-26,-22,21,127,-29,-50,-11,22,33,-42,57,-32,38,-2,41,35,-23,31,13,28,9,-35,16,31,-29,-58,-3,-6,14},{-11,19,54,127,5,-8,90,20,-69,-77,11,-19,-23,14,-38,23,44,-54,-65,81,3,-7,18,-14,-10,-55,-78,30,-20,46,15,-26,-41,-20,14,-25,-128,-58,-52,-79,53,75,11,23,-34,-19,24,38,7,43,13,-55,-28,-32,-50,7,-11,-37,-63,-82,17,37,9,-62},{-10,51,-128,-37,7,-11,-83,-47,-45,43,-36,25,-82,18,-15,19,-21,-33,27,-76,-49,-84,22,28,-18,17,-28,-37,43,-40,-10,-27,-26,22,57,91,57,57,93,24,31,17,52,9,69,-19,-49,52,-2,17,13,-10,59,56,17,0,-19,10,22,-34,42,-4,48,-109},{21,45,15,-7,-65,7,111,-55,-43,18,27,11,94,26,-7,-43,-32,-46,-14,-57,-2,33,-48,38,58,65,127,71,32,23,57,56,48,60,55,126,58,87,-69,20,-29,30,-9,10,-15,-58,7,-33,-66,24,-5,-16,-19,82,5,24,48,19,3,-85,52,-22,4,-128},{-6,-3,39,104,41,-8,19,-28,17,-33,26,12,-2,-22,-71,-19,-3,-27,18,-86,-1,-48,-72,-16,17,-67,-38,-27,0,15,-40,3,-46,-36,-2,-11,18,-9,-71,-46,-29,77,77,6,7,18,-29,4,59,-54,-99,-1,42,5,4,-25,-51,76,127,58,-76,-45,-1,-88},{16,92,-13,0,8,3,87,-4,-4,20,-27,-17,60,-8,-42,-73,-45,52,13,-37,-23,-25,94,3,24,60,-97,-30,43,-61,-110,3,-44,-102,-10,-27,27,-28,-62,-19,25,33,87,32,46,1,4,-5,0,14,42,55,-21,39,-8,38,10,9,-96,66,-70,-20,107,21},{122,63,30,127,-4,-13,-78,58,15,48,41,-66,-103,-25,-116,-67,57,29,52,67,-38,-63,6,-20,19,38,87,-42,37,86,14,-48,-40,-48,-66,127,49,127,66,-40,13,-93,14,56,47,-38,-35,21,-29,-39,25,87,-18,4,-9,21,-20,24,127,-30,88,2,78,-128},{-23,27,62,-128,17,-7,127,-99,-45,-31,-100,-36,14,28,107,-48,-36,36,11,-51,31,76,10,-44,-6,58,25,38,42,-64,-107,-2,-19,40,106,-4,-3,-128,57,-99,10,16,-58,19,97,3,29,13,-45,-2,8,110,-16,9,-24,-14,-25,67,-128,-31,-63,26,-14,31},{31,61,30,111,28,-6,75,23,-60,102,21,-20,-86,-8,80,35,-17,-17,-21,45,8,126,46,-122,-24,-2,-128,-42,33,26,-27,-6,-6,-45,7,-67,-49,-128,68,-80,-33,27,-62,10,-39,74,0,42,-15,38,33,52,-13,-39,55,-5,18,17,83,-124,6,51,-10,127},{21,26,127,109,-24,-5,29,-45,-62,18,43,-26,37,2,13,-37,-23,-54,12,-18,18,-45,-35,-53,-23,-69,117,60,2,-9,-14,-43,26,-1,36,49,-128,127,-110,34,73,34,-4,-64,-85,-50,-38,-46,43,-27,0,-78,-8,22,16,-38,-64,16,-128,-22,85,-48,-21,-56},{2,105,-128,-16,-9,7,127,-99,-66,11,23,-74,-128,-1,40,93,-83,15,35,-27,-31,127,114,29,-57,-65,24,4,55,-39,49,-6,-37,-106,-20,16,-128,-128,-92,62,127,127,46,-7,-37,78,26,58,2,74,22,-45,-53,-128,53,-20,-67,60,-128,13,-68,-10,29,47},{12,-22,-99,56,97,-12,-90,-58,-84,4,12,23,91,6,-31,37,21,-23,-22,14,-34,-54,37,49,-27,-64,-72,11,5,37,39,-41,28,-18,48,123,-75,-110,-26,-28,11,-4,94,39,-29,51,-70,18,28,-91,-33,65,-24,4,14,49,-20,37,-42,-7,-50,38,-2,-29},{14,37,124,-128,-84,1,51,-10,-75,30,-101,4,87,-21,38,-1,-74,-13,20,11,5,-42,10,-76,-5,-46,27,-29,13,-20,-50,-50,-38,47,94,-13,-128,-71,-90,-95,36,-103,-99,-88,-128,-2,-47,-33,17,8,55,-7,9,-6,6,-6,-29,20,7,-15,2,-40,41,-109},{-74,39,-82,-10,-7,-33,127,-16,-46,49,-47,21,-58,-29,-33,-66,19,4,-2,41,-43,82,17,51,21,80,-5,52,1,-2,6,-48,-29,6,17,20,-30,-85,39,-51,-28,-51,28,-49,18,43,20,-16,6,-84,-87,98,66,-9,25,-24,-60,-8,99,8,29,2,33,50},{19,-28,-128,12,-65,10,-71,-3,2,-41,83,8,-128,-23,-37,-60,31,21,2,54,5,-54,22,27,7,25,-68,-57,28,-33,62,-49,25,-79,-48,-69,52,-72,121,28,84,16,-19,-71,-17,17,40,-63,15,-72,41,55,19,9,37,34,-63,22,-32,-39,81,49,31,88},{-75,-31,-128,127,22,-4,2,-10,-21,-18,24,15,75,-72,-31,-1,8,75,-5,-40,-3,0,-106,-2,-4,-70,50,-9,-20,-104,52,-9,-29,55,60,17,-119,-7,-11,-20,38,55,53,-28,-23,-110,-28,-26,4,-36,11,-50,49,-52,27,-33,-25,6,-50,64,-21,-7,-36,-63},{16,67,-14,108,17,-74,-58,0,0,-73,40,10,-29,-45,-128,-16,-3,-7,37,64,-37,103,45,-11,21,-14,-69,-7,-29,-27,11,-44,18,-3,1,-67,-80,-45,-55,-52,45,-118,7,-25,-5,54,-48,29,5,-80,-65,-128,8,-4,69,-57,-35,-39,-128,-76,23,-52,48,-82},{-32,17,-128,84,-59,-17,-30,-16,25,-65,127,-3,-123,-59,-66,28,-55,-13,40,69,-54,50,47,-51,-67,114,-128,-103,-6,-20,53,-41,66,-2,53,-36,-94,19,-33,25,31,-32,26,49,-49,67,31,71,22,60,-25,-24,-36,-2,117,44,-57,-8,-128,-15,-68,78,55,-15},{52,26,-119,127,65,-16,-121,23,-31,95,38,-20,-118,18,30,-29,75,25,24,28,-42,-34,39,-34,-23,-74,-128,-20,0,1,-23,-22,30,-123,-108,61,-128,-114,-6,-37,40,127,35,30,31,-36,-18,-3,0,33,16,64,15,21,95,58,17,41,-128,-10,22,-27,-7,127},{-22,123,-98,36,-13,7,122,-108,2,-53,-21,27,-128,19,-81,-14,-46,52,19,-58,44,23,127,-99,86,94,127,40,61,15,-31,6,-55,47,31,90,78,2,27,-28,9,-128,-23,-18,-86,19,-43,-13,17,-104,4,-60,0,-32,37,-41,-57,4,-14,-5,-77,9,69,-9},{-50,-19,-128,100,-26,16,-58,11,66,49,59,6,1,-34,108,54,52,-2,19,39,-35,127,-15,-50,22,17,-59,10,-33,-35,22,-62,44,10,-43,-84,-128,-112,25,-36,-10,106,-18,-6,111,37,-3,-2,-28,23,-49,-47,-16,55,28,-40,49,37,-44,-56,-22,5,11,127},{79,25,-128,39,12,5,14,-3,-69,-64,127,32,-127,-6,-77,-101,-13,-10,29,-46,9,-116,-17,1,-9,9,-88,-88,-25,39,-47,-32,71,-8,15,-87,127,-52,127,40,79,126,46,17,-12,29,-39,6,-20,127,0,-43,-60,26,122,112,25,60,11,127,-45,-6,5,-6},{-11,17,59,-73,18,-14,-20,31,1,1,-62,32,99,-71,45,2,-42,19,7,53,-22,-73,-63,-12,38,16,-30,61,-39,-115,-21,50,-33,-16,21,-65,-43,-89,26,-12,-14,-19,-18,-48,-55,-5,-17,49,-9,41,13,-89,41,50,-109,6,-35,33,127,-17,-60,14,-61,-49},{-84,5,-45,-128,-69,3,-73,-41,43,-15,2,-20,32,-64,116,-19,-19,82,0,59,41,13,-29,-49,-3,-38,-113,-39,-13,-108,8,29,-45,39,13,77,-25,-128,-107,-31,-12,127,95,-36,-6,-98,58,3,-13,-94,93,40,13,-29,-11,-20,17,13,-91,-60,-8,-78,4,5},{36,-43,-128,16,-92,-8,-10,12,-32,-58,20,-6,33,-1,21,15,-59,7,-10,-15,-6,-91,-29,61,47,54,-74,-128,1,-19,5,-21,-32,-38,47,-89,-77,29,-17,-10,-1,127,-54,55,-26,1,4,10,3,-4,-8,-62,-16,52,39,-48,-46,58,-59,127,63,20,2,38},{21,-52,-93,127,16,9,-113,22,-18,-12,12,-31,-41,31,5,-26,-46,-2,-30,-36,-3,-92,59,-13,64,7,-61,12,19,76,34,17,33,30,-25,-10,55,-3,-14,40,-39,-128,21,32,40,6,21,-45,31,64,2,-5,38,43,48,-4,16,-19,-91,-10,-49,34,10,-68},{48,-59,-128,100,36,19,-81,-45,-99,-63,64,4,23,-1,-87,-6,75,47,-53,-55,-30,-34,19,71,-24,42,15,-57,0,93,18,50,4,-8,79,100,52,119,-4,-28,39,-94,17,-38,-40,42,-50,4,-16,-97,21,37,-48,-12,-25,50,23,-19,2,78,-68,-14,39,-128},{22,74,127,-128,-72,-20,-128,18,20,-128,-128,-13,116,26,38,1,-65,41,-7,-23,-29,-128,-17,37,0,-128,127,24,2,-65,56,57,-25,16,-12,-124,127,-116,-76,49,-75,-128,-128,-85,-128,37,-69,-42,-57,-128,-92,23,59,-11,-128,-45,0,-3,127,31,23,-66,-24,-128},{-17,28,-64,101,8,-2,62,-6,-128,-13,23,-17,-64,-21,-79,9,-47,9,-42,42,-15,-92,13,-16,21,105,-112,-51,8,-44,40,57,-27,-53,44,19,-39,-128,22,14,25,99,23,-20,-4,97,-8,-28,-24,31,12,59,-31,-43,15,-70,38,-1,24,-17,-80,20,25,-13},{-76,4,-128,-128,26,-9,127,-115,-117,-49,-38,-18,-95,-32,33,-90,12,-44,-82,49,-12,-107,11,-49,-15,-71,-128,-90,23,-7,30,-54,-9,23,56,-1,127,-128,98,-10,-35,64,-24,20,15,127,-35,77,-22,110,-31,39,-38,15,103,9,82,-29,127,-120,7,14,79,127},{60,2,101,-62,-12,13,-19,-13,-47,16,62,17,13,2,-42,-44,44,24,-7,81,-11,-44,-41,46,20,-85,69,-3,14,-45,45,-10,-36,-13,53,106,-128,-120,99,68,-14,-107,16,42,30,9,21,-16,11,-66,62,60,33,-10,-4,-87,16,1,-128,-19,-47,-35,22,-49},{-49,27,-128,21,-84,-27,-30,-27,-4,-38,111,-42,-54,-6,63,-58,-13,-3,7,59,-3,61,27,6,35,-30,-32,6,42,-64,-62,74,26,-1,76,74,11,-58,-2,37,-4,127,14,60,22,25,-24,38,43,8,14,-128,0,-50,57,93,3,65,-128,-94,64,-27,20,6},{60,49,-119,18,43,21,94,3,-39,28,-33,-27,-128,27,10,-29,-17,12,-19,-36,28,41,63,-45,23,-33,-38,-11,28,17,-18,3,-25,5,-11,127,-63,127,1,-5,-14,26,-15,22,-13,-19,9,-9,35,-69,11,-11,16,-24,-25,-10,45,93,-65,-78,35,9,36,32},{-33,1,-99,-22,36,19,-112,-43,-118,-32,35,8,-91,-6,-71,-4,67,-49,-38,-90,1,58,20,-59,21,-128,47,-18,-27,32,-35,-20,-57,70,27,49,95,127,-128,-70,44,34,76,-34,-93,25,10,0,-3,-3,15,39,-44,-30,-17,93,-52,-17,127,127,11,-6,11,-81},{41,51,-32,-26,67,-11,-5,-14,-38,53,-52,15,-88,-24,15,-25,49,33,28,-72,-49,-12,79,13,53,-33,-24,-3,56,-8,0,-20,12,41,0,-35,127,-25,83,47,26,74,4,45,44,17,-15,12,31,34,-74,1,46,37,-3,20,-12,68,-62,-76,104,-19,26,-5},{-68,30,-62,-88,-12,7,89,-74,-6,27,19,9,-15,28,-71,-22,-37,2,-43,-37,12,-13,-6,-52,47,8,-6,45,9,51,-26,48,8,62,64,-46,3,-106,-7,2,63,-50,3,-29,99,-13,-12,-60,-56,75,19,-85,12,27,-3,-30,-14,16,127,-15,15,10,-4,-128},{39,-20,42,40,26,3,127,-9,14,20,-57,1,-124,-43,-30,-46,41,28,-7,2,-40,76,5,10,52,54,93,17,-16,-33,-1,-14,-9,25,84,-68,82,101,31,-31,-33,-23,58,-26,47,-38,-32,26,58,-3,-116,103,60,-21,22,31,-52,14,60,-31,-67,-39,-47,83},{50,118,56,-117,-41,3,127,8,18,-37,4,-16,31,-7,77,-28,-51,60,20,-14,17,127,127,42,-55,-20,-75,-67,10,-69,-128,0,-64,-115,59,-45,-113,-128,-38,-8,46,127,78,77,54,60,21,28,-11,83,26,71,4,-51,74,-31,-2,43,-128,-91,-17,-11,83,127},{30,9,-86,127,2,-26,-128,6,22,-1,-22,-59,-128,17,-37,-95,2,-41,21,-52,0,-111,21,20,-33,29,98,39,37,82,27,5,-2,-55,-36,16,127,127,39,29,42,-87,84,-40,31,49,4,5,-43,-18,-5,59,18,-68,-33,18,-18,8,127,127,-106,43,-14,-128}};
static const acc_t QConv_BN_bias2[64] = 
{-5857,-9985,7043,6011,2012,4850,-181,8333,12073,2657,-1213,6785,9622,5366,7946,13105,2399,-1471,722,7559,8075,9622,-6244,5366,-3535,5366,3689,4463,-6373,8461,6011,6914,3947,2657,-6889,-5470,-3019,6785,-2632,7946,1496,-2116,-2503,-2245,-697,-2632,7946,-439,-826,2399,5882,4205,206,2270,-3664,-4309,6398,-12307,2270,4592,5624,7430,-6502,6785};
const struct Conv1d_Params QConv_BN2_params = {.input_width=100, .in_channels=32,.out_channels = 64,.kernel_size =3,.stride_size=1,.padding_front= 1,.padding_back= 1,.output_width=100,.out_scale=0.002528370927479287,.s1=0.038020322003777356,.z1=13,.s2=0.004013119491876341,.z2=0,.sb=0.019682405779729153,.zb=9,.s4=0.0603471957624872,.z4=9};
static const elem_t QConv_BN3[3][64][128]=
{{{-22,14,42,-9,-47,9,-88,-33,127,-38,13,36,-12,-58,12,24,12,25,120,25,-20,27,-9,15,30,45,47,1,-2,-5,0,30,13,46,41,76,-24,-128,43,74,-3,-6,-5,-44,-65,2,11,-38,25,39,42,28,40,7,39,-4,45,-45,-7,17,16,40,17,-23,12,-66,-61,-37,20,5,39,-5,-29,64,-89,-10,21,47,-16,4,-3,8,-3,-80,-104,-27,-35,69,74,-92,-83,6,56,-34,-55,25,7,36,52,96,41,25,-3,-57,75,58,-33,-84,-1,54,-17,-19,-16,-4,-4,-9,-54,-41,50,-40,3,-55,2,41,-128,4,-16,-107},{-40,3,94,10,-50,14,-29,-19,127,-5,-3,-19,-25,-84,12,-6,-16,62,127,-9,18,-1,21,-12,4,-25,-8,101,31,-30,-13,-50,40,14,-115,59,-43,-98,0,-9,73,-22,26,-123,-38,44,-33,26,-65,-60,111,53,-38,-3,78,24,-26,-14,54,-11,12,-10,-3,5,15,-68,-44,-56,57,28,18,47,2,-54,-21,-1,21,75,-3,-57,0,-1,-33,28,-36,-11,14,-35,-61,-128,-53,5,-30,67,72,-55,10,16,-11,127,-56,-27,-69,-10,72,-25,70,29,26,6,-37,-105,44,-10,10,-4,-22,-79,11,-25,79,-91,35,64,-36,-14,-62,89},{-19,38,-25,-18,-72,-5,-1,-18,41,69,25,30,16,-30,-14,38,0,-43,-15,13,27,91,-27,57,-13,48,79,-46,-69,6,-44,-28,12,23,-28,7,-42,-110,22,-30,67,-20,-8,-84,-93,35,70,-122,-58,45,62,56,56,43,68,-120,60,69,-13,-14,-24,37,17,10,28,-70,17,-30,-6,-104,-19,-5,-34,-101,-14,-32,-37,60,7,-32,34,3,32,15,-9,-12,-33,39,-11,-43,-68,4,-77,2,16,8,-51,-98,40,121,27,63,-39,-15,64,-54,26,-128,11,25,17,57,44,73,-42,5,-95,-31,35,53,-23,-29,-42,-43,-77,-33,18,-8},{-7,-38,-49,-52,-12,19,-1,-6,127,-13,-19,26,38,8,-63,-20,-38,-9,-46,-3,-33,-37,12,-1,49,-17,35,114,7,6,-39,-37,-17,17,79,-32,-128,14,34,-19,1,7,0,-23,23,21,-28,43,10,-29,41,17,-90,-22,62,57,10,-10,51,-33,25,76,-79,14,14,30,-116,-12,-33,-35,-128,8,-4,28,2,20,31,119,-15,-19,-7,2,-17,22,2,-24,4,12,-19,-13,-13,5,39,-28,-128,-4,10,-33,1,-70,-97,-21,-57,-73,41,-28,-7,29,-5,-30,-41,-128,-26,-50,12,-2,47,-88,39,-13,-16,-106,-21,-77,19,17,-92,31},{16,-31,-4,-8,3,71,-44,7,32,99,38,-46,-64,-80,10,-13,-33,-23,80,33,29,31,20,31,-28,-42,2,34,7,40,46,-14,-42,-4,62,-30,-50,-19,10,-16,30,2,40,-43,6,-10,-3,-8,-18,-13,-1,13,-76,4,-3,-8,32,-13,-56,-25,25,38,-10,-35,31,-26,38,49,5,-14,-51,-26,61,-43,11,-24,18,28,-37,58,-69,10,-7,-2,46,-46,12,17,-55,-21,-9,-89,-17,23,30,68,8,30,19,85,122,2,-11,79,35,46,-65,2,35,82,-13,4,-61,58,31,17,77,15,-39,76,-4,34,-4,23,77,14,2,-26},{32,46,36,21,5,-6,-10,14,44,-25,-29,-12,-3,8,14,60,1,32,0,-4,-13,-20,-30,38,17,0,-24,-53,16,17,19,11,2,12,20,-23,17,-4,-6,-18,-30,-38,-34,12,8,36,-30,-15,0,-21,54,49,-16,-33,8,65,-15,16,69,-14,10,-2,32,28,7,-38,68,-42,-9,-8,38,9,-6,-67,-13,-71,-32,-10,-13,6,27,-23,58,-58,-11,8,7,2,24,26,61,15,5,-6,6,-31,-12,18,34,78,-45,-7,-30,-16,29,2,61,76,35,27,16,39,-4,23,-15,-50,-17,-41,-21,-4,27,-128,3,55,-14,-10,-14,0},{-1,-16,23,-8,82,8,57,14,-22,15,-9,-14,16,21,-2,-42,27,-89,-44,-46,-65,-39,13,21,59,-7,12,2,26,-45,-32,35,-2,-88,-38,53,7,-36,-3,-101,-9,-83,-23,-10,-11,-6,-52,-8,-55,21,90,10,31,-87,-92,113,-52,27,-54,-65,-17,-55,37,-3,-16,88,29,20,3,-53,-16,13,20,0,30,-18,-54,-36,17,-62,-22,34,-6,45,-35,5,-102,-71,-53,-79,12,10,-11,34,18,-67,-3,-47,40,-59,-3,33,45,-12,71,-22,25,-19,57,-57,-44,-9,-13,-20,-3,-5,-26,-36,-123,-56,-118,-21,-11,-18,24,-9,-40,40},{-5,3,32,-52,-24,-22,-16,71,-108,85,31,-12,78,1,-50,10,-35,-10,41,18,-21,-13,-2,-7,-18,-10,52,-20,-15,36,31,37,19,-41,-54,46,-41,-22,-11,-14,-29,61,-1,22,-81,-52,-11,-41,17,5,-30,26,86,101,-42,9,-14,4,-32,22,-15,49,-128,-47,-35,34,-10,-42,-32,-1,20,-52,20,-37,-19,69,33,57,-37,37,-38,12,19,-28,-9,0,-54,17,1,-20,0,-7,23,-42,91,11,-34,41,7,-23,107,10,-40,10,57,-14,-22,-22,-24,47,13,-15,-67,38,-49,36,0,31,-54,7,-42,50,-87,-21,-20,31,40,50},{-22,3,75,-8,10,-7,-61,24,60,37,-2,-30,7,-3,-18,5,57,3,3,-28,12,-67,-14,-17,26,-8,-23,-39,26,-22,15,25,-26,39,-40,46,-29,-12,-38,-66,-1,9,36,11,29,-8,-10,-34,6,38,73,9,18,-8,41,127,-38,2,-70,21,8,-12,-91,-96,-20,-64,47,3,-45,32,-25,8,7,0,7,25,9,127,-45,-11,-10,25,52,-37,-30,0,-72,44,-11,-8,-19,9,-43,45,-30,-12,10,80,-45,113,-14,-35,-63,21,66,53,22,-4,-15,10,27,13,-42,23,-31,-1,24,-32,48,5,25,79,-6,2,-12,43,32,3},{-6,-33,-35,15,-7,-11,6,-8,114,25,18,0,42,10,4,-9,46,-7,29,-47,20,29,27,11,-50,16,9,-75,2,13,10,6,21,30,-7,-70,-26,24,9,-39,-45,-20,37,-1,-16,26,-36,21,26,38,-43,32,-34,23,4,109,-7,-23,-17,-22,-37,28,-14,34,16,-31,-44,39,14,66,-15,13,-54,29,-6,1,-25,45,-21,-9,24,51,-20,30,30,18,33,-11,-9,82,14,3,-24,12,-25,8,10,30,50,-128,-19,8,27,73,-26,14,21,23,-31,49,17,39,3,-17,14,1,46,-49,25,28,-12,-39,-4,-68,-52,10,-39,-51},{24,6,76,-21,-62,-32,-3,15,73,60,-24,55,-8,4,1,7,19,53,-128,43,-3,-11,18,4,40,50,83,17,35,-17,-18,28,18,19,91,12,5,11,20,1,37,22,-15,-46,24,7,14,-4,47,33,-11,-34,-18,10,-48,-47,42,-39,20,6,-33,36,-19,-73,-18,2,-20,36,-39,-43,4,47,-56,-2,-34,-37,17,-8,-8,64,-33,19,-1,-74,11,7,-57,33,-128,17,19,68,-6,-99,12,47,24,-7,19,68,0,3,-106,-6,12,-35,-30,-42,23,-6,-34,-44,3,-75,37,18,-3,-50,-16,19,-5,44,37,11,69,-22,101,6},{7,-22,17,-54,-2,-9,2,-10,54,0,6,-32,10,39,17,-10,-69,6,-31,-1,29,41,-18,-13,-26,-17,-39,0,-7,0,-25,-5,7,-21,33,25,-22,21,-25,42,80,51,42,-9,29,-22,5,-19,9,22,13,-24,-44,63,-47,127,12,72,-86,44,7,-21,12,-12,5,-4,11,-34,18,9,-31,-32,52,-50,37,28,7,71,-7,37,-34,-9,-86,-24,30,6,-56,-28,-34,33,-55,-12,-33,11,55,-45,-7,29,57,111,26,-55,22,3,5,63,-6,-52,13,-95,-29,-58,19,23,-22,34,61,-39,12,13,-10,-54,-19,81,-10,67,1,-33},{3,14,83,-10,-4,3,-24,36,42,5,-38,2,-8,-38,-15,-19,4,42,-18,-19,-2,10,-2,-1,49,8,-56,-31,-23,41,-38,-4,20,1,-10,22,2,-13,-20,34,39,10,31,48,14,-86,-50,-128,12,-7,90,1,50,24,-10,-2,8,18,-41,-8,-12,-32,59,-33,13,-37,-53,15,16,-19,-18,-36,-26,1,44,-8,1,-56,-19,0,0,-29,42,-20,-27,36,-128,31,9,-18,-16,4,9,-21,43,-7,-17,-74,52,51,34,-36,-40,2,51,127,-13,-114,-3,-1,44,6,40,27,-10,2,-128,-80,-12,-51,4,-98,24,-22,-11,40,-103,29},{23,11,-49,39,55,14,49,12,-19,-102,-2,30,29,57,-26,26,11,-14,-29,-14,-49,2,-19,20,20,14,-34,27,-6,-39,-28,-25,23,-51,-63,48,46,16,21,-82,-23,-62,-8,8,-52,12,-53,9,-43,1,29,25,-19,-36,10,-48,-24,-45,15,-62,15,-1,-11,12,25,7,93,-3,41,-14,45,25,5,-38,-17,-77,-128,35,-27,6,-42,-25,9,-70,23,-3,-23,-58,-26,-67,66,-4,-19,-22,-32,-32,25,-77,5,-35,-35,26,27,7,24,48,31,22,16,-17,-4,-18,18,7,7,-78,-25,24,-4,5,27,-70,23,-51,-30,-52,-47,47},{-41,-9,-3,-2,-49,21,-21,24,-128,51,-10,-35,80,-125,-38,25,-31,23,26,-14,25,-8,7,-36,7,-34,27,-11,6,-18,-11,20,-30,-66,-12,2,11,-13,-33,-41,-18,35,47,-39,56,45,-87,-26,-21,6,54,-72,33,-20,-4,127,-10,-19,-85,11,54,-128,-17,-7,-33,-63,74,-8,0,-31,43,-4,35,-40,26,24,-37,19,-20,-28,21,14,31,-11,-42,20,7,36,28,-15,-46,-53,72,-17,-80,11,-7,-78,-12,85,12,-15,-78,35,-17,38,-52,-80,-27,-76,17,-97,-83,-26,-8,-11,33,69,-39,10,-27,-10,-5,27,-26,32,-26,2},{29,-33,91,16,7,4,-47,-14,120,34,20,-35,17,-10,-11,12,-62,98,40,-7,-20,12,-6,11,43,-82,-46,8,-11,13,18,9,-43,-15,26,58,-2,-67,-32,-31,7,-23,19,-6,33,-31,-30,-41,36,46,48,24,46,26,31,82,-5,29,-99,8,-1,5,-3,-42,-43,-24,71,-58,8,47,22,2,-14,49,-44,34,26,59,-56,15,19,18,56,-15,4,18,-105,47,-21,-23,56,-90,0,32,-16,-23,-7,5,-25,-11,15,20,-10,55,98,114,17,-37,23,11,4,-33,-53,43,3,-4,-53,-37,14,12,-6,-36,-14,-31,-127,36,-50,46},{35,-34,14,16,73,31,-36,31,20,24,-2,-12,52,-31,32,-9,20,56,100,55,-29,21,-18,-4,-5,-19,12,-24,41,71,94,-8,-37,21,110,42,7,-1,-5,20,30,18,-55,48,52,-30,-74,17,27,-23,45,22,9,127,-32,-30,-5,33,35,-1,58,-21,32,-16,14,16,-34,10,34,3,-25,-22,24,39,-8,-31,37,-11,-74,-9,1,-30,2,22,-18,8,-10,-26,-48,-11,85,0,15,56,7,35,7,4,-13,26,58,-2,-52,95,18,72,10,10,21,-65,4,26,-49,14,11,12,-27,-12,7,59,46,-9,25,-40,41,5,-26,24},{10,17,-7,-35,25,-10,47,33,66,-14,6,3,-65,31,-40,57,-28,27,-92,-6,16,-20,27,23,23,-5,49,68,9,10,-9,3,22,23,-32,53,-9,-4,-5,-26,36,-2,26,-43,-11,46,53,-52,-32,-77,-12,-32,73,15,48,60,26,25,0,-8,1,-3,-61,-1,28,-31,-61,33,-52,-43,-60,-6,-25,-39,32,35,1,-30,-10,36,-28,-7,-35,-38,-28,28,27,34,53,-47,-15,17,-10,15,8,-4,-31,-84,-6,-20,16,-8,-28,53,42,49,-1,-40,-16,6,21,29,-25,20,-17,41,-67,4,6,-25,2,-98,-58,61,-81,-15,22,40},{-20,17,26,-31,-25,-30,8,-14,37,63,39,46,-81,22,8,31,31,74,101,-19,5,11,-11,42,7,26,27,54,36,27,16,-53,31,91,86,33,-25,12,13,12,19,24,1,-8,-12,44,-34,24,-42,-12,4,37,-1,-10,-86,17,15,-72,14,-43,-37,33,-72,15,50,58,-2,6,-24,-82,19,31,11,-50,-31,3,-12,-24,11,24,-13,12,1,-34,-128,-22,-84,-1,-47,-128,-34,5,-60,4,0,30,-22,-12,-4,-67,47,-25,-37,-37,49,-63,44,12,-18,-5,-82,-37,31,-65,18,-7,62,-29,8,-39,-42,-41,8,3,-17,-5,84,45},{-16,18,-41,14,-73,16,-25,20,-72,-34,4,7,84,33,24,6,26,-46,81,-1,-32,-17,-35,-20,-10,5,21,22,-10,-13,-12,6,22,-68,-34,32,-6,127,-71,25,25,-26,-11,63,-51,-75,-56,54,69,-2,-6,32,14,62,-94,114,6,5,7,3,-31,60,45,-26,-40,9,65,3,-35,85,74,8,-23,5,-106,4,56,80,-5,-2,-12,-51,62,31,-82,39,25,4,-2,50,68,-24,81,28,15,-28,-28,42,4,28,-22,22,19,26,-9,19,-46,-98,-40,-11,19,-77,-28,12,41,18,-12,67,12,46,-37,77,-47,26,54,-1,-65,11},{41,49,3,13,-83,-58,20,8,-34,42,-29,43,43,-24,-27,-6,13,-11,30,-37,-36,-13,-34,4,-35,7,-8,-55,37,-66,-18,2,-20,-13,-121,-8,88,-54,-49,-84,-2,-84,50,-57,-30,47,64,-52,-21,39,79,73,-1,-57,-6,-90,-6,-3,-17,-60,4,-21,-51,-13,-53,-28,78,68,-46,-1,-10,7,25,-28,-3,-90,4,-14,-48,37,9,22,45,25,-6,24,-25,-93,21,26,7,-19,-11,-66,-120,-4,15,-15,84,43,-50,16,12,-63,6,19,32,-53,-4,-17,-11,8,8,-39,28,-52,21,-10,7,-18,-28,-1,13,-25,50,-41,42,5},{4,-5,56,-33,-121,-18,-56,32,-44,82,42,-8,49,-15,-9,-115,10,-3,-46,13,0,23,2,7,55,-89,-64,55,22,38,7,1,-21,-21,41,20,-7,-58,-54,37,-11,-17,5,4,12,37,32,24,30,2,39,-65,-4,25,78,48,21,127,9,39,-45,-49,-35,26,-10,26,57,-46,-58,62,25,-8,31,-49,-72,18,16,-50,9,-26,22,30,-21,-20,37,-11,-116,44,18,-45,-25,-18,-5,5,-14,-26,12,-120,-102,-58,60,-26,39,-36,-60,15,-15,-2,-33,-110,-9,-19,-56,-22,-19,53,76,69,-3,-50,30,-46,-9,4,12,11,-29,81},{-65,28,112,10,-42,1,-56,0,28,39,38,-39,37,-37,38,-13,-8,28,-128,4,-7,19,-13,18,39,-22,5,29,27,-7,30,5,60,54,-35,0,-53,-39,24,0,35,-6,21,-70,-19,-16,81,-36,-15,-26,55,-29,46,27,3,-31,29,26,-57,7,7,39,2,-30,6,-32,-44,-37,44,-128,-4,9,39,-57,-64,3,30,7,19,-2,17,-9,-8,21,-21,-23,-128,71,-57,-64,-33,19,-35,32,-17,48,-16,11,22,89,12,31,-46,-5,48,61,-31,-96,3,-2,3,-67,-21,28,3,23,-9,-1,26,-4,-21,36,-13,63,16,-17,-64,-24},{51,8,-61,-20,-14,2,6,32,-13,7,45,-45,-41,63,34,-53,25,65,109,30,1,-3,-24,-13,-36,-10,-2,-55,-5,79,35,-5,-13,16,0,11,-13,39,-8,-10,-42,-3,63,20,52,-47,7,32,52,-30,-38,20,11,44,41,127,2,-33,1,-12,-19,-4,-23,8,49,127,-66,-25,14,1,-65,-41,-21,18,24,20,-20,-34,8,-25,5,-3,-5,6,32,-41,50,-7,66,43,15,13,-18,26,-6,42,-10,-23,-26,13,-1,-15,28,-55,-8,46,15,34,22,-72,1,9,20,-7,11,34,1,44,-31,-15,-4,-49,14,30,-22,-11,-52,-24},{19,49,-69,14,9,-58,68,72,88,-29,-11,24,-20,-14,-41,17,-6,25,3,-38,-65,-7,-25,29,-52,9,13,-18,30,-21,-33,-12,-7,-25,56,-18,10,11,-8,-35,-52,-3,38,9,17,41,-65,-12,-27,-5,-13,104,-79,33,-74,-128,-47,69,24,-29,14,54,32,2,2,1,35,60,-5,76,20,4,16,-50,16,-40,-26,61,-23,0,-3,15,4,-47,-1,-30,50,-50,4,-25,56,-16,-16,-28,51,-61,-36,26,-15,80,7,35,-47,-11,9,46,73,-4,9,12,19,-21,-20,-13,34,-63,107,-7,41,1,34,-30,19,45,40,-30,60,49},{15,42,-87,-56,23,-75,97,94,66,10,-2,53,0,20,-73,-16,-63,8,70,-7,-41,-96,-3,-7,-14,-60,64,62,39,7,-55,-43,-14,32,83,-32,-42,61,-33,-33,-57,-36,77,15,-71,24,-47,-23,-19,32,31,115,-7,48,37,-33,-32,-60,47,-40,-7,-13,-83,-20,9,64,21,127,-96,-2,-34,18,-11,13,52,31,55,55,-23,-35,2,18,4,-25,87,13,41,-97,7,-37,-43,-7,6,-50,-63,11,18,21,38,127,-27,-16,-39,-11,5,57,62,32,11,-11,-33,0,34,-42,3,-48,-22,-4,-67,-20,-63,-68,-6,52,40,-56,82,31},{11,67,-16,-44,-120,17,-28,-15,-77,-4,54,39,-92,27,-42,-27,-36,20,-16,23,-20,51,-20,21,-22,4,-8,-38,-19,-3,-73,37,-8,-21,-63,18,-34,-3,27,-59,26,-46,42,-13,29,-15,19,-72,-45,-50,-15,-21,32,32,23,-106,-44,-8,31,-6,19,18,27,-7,21,-80,103,-53,-54,-25,-68,3,30,-128,31,-57,-87,33,-37,-11,-38,14,-48,-67,6,-3,24,-10,46,-56,-11,10,-70,-16,23,-31,4,-91,32,2,-34,46,33,-128,5,-41,-29,-102,-11,53,43,-13,1,16,-69,-3,30,100,-8,-63,-31,-56,-20,0,84,4,-20,32},{36,8,-4,-10,16,-2,-6,2,-58,18,15,18,-10,-65,-8,43,32,58,45,-36,-19,55,-21,-3,-16,21,9,-19,1,58,-63,-34,10,-101,43,53,22,-2,32,-85,-62,7,-70,44,-63,19,97,32,-15,-1,-7,7,17,127,4,-86,-15,54,-2,-1,-23,-25,53,-7,5,8,45,-41,16,5,-8,-6,-30,43,48,-17,-125,-57,-72,-14,-10,-32,32,-16,-48,7,-14,-100,7,-35,-36,15,-93,-24,80,-32,-29,-11,44,71,-10,12,52,-26,20,32,2,18,3,33,-21,55,21,5,-31,29,15,6,-125,-50,-27,-21,14,-75,-96,-2,-102,10},{-31,2,-4,19,19,29,-89,2,37,33,53,-26,15,-6,26,9,27,-9,127,42,-35,-12,-22,-13,8,7,65,90,6,-32,5,6,34,-6,9,-26,-48,12,5,-45,9,-20,73,-30,19,-24,33,65,-69,-48,-9,41,-45,18,-111,-33,36,-55,-7,-32,8,37,-36,-5,65,3,-32,-9,27,45,1,30,32,-25,-46,12,-2,37,2,-79,-17,-2,2,-22,-68,9,33,24,-28,-27,103,18,-31,20,-8,33,23,42,-44,-2,1,-8,-72,-26,71,-36,34,-4,-6,-7,-78,-64,6,-3,43,-3,9,-17,-63,-26,-44,-11,15,22,30,15,41,26},{-67,28,-51,-11,-32,11,-43,39,-16,-30,-24,-12,36,1,-12,60,-30,36,-71,-25,-14,56,7,42,-24,24,5,-16,-28,-32,48,-21,-52,62,-128,-12,-39,-128,8,-34,-10,-93,46,-17,-48,58,15,39,-48,25,52,-7,43,-53,48,-48,0,-24,33,-50,34,-3,-22,71,9,-21,23,-62,7,-72,-42,-5,-4,0,-27,-34,88,10,-42,-4,-38,3,36,18,-14,-20,-32,69,7,-18,-9,20,-34,105,-26,2,34,-27,23,-39,29,-1,8,-63,76,11,49,47,-20,42,5,-5,-26,-27,14,14,67,-128,53,12,46,-14,-3,64,-85,-7,27,50},{42,-42,-52,0,-21,4,16,4,-4,-97,53,-47,-19,109,38,-13,-27,80,43,61,-38,18,-7,-18,-52,-71,8,-92,-26,-20,17,13,-28,-18,39,-49,-41,40,-60,-37,19,-27,-53,12,31,17,-102,-11,16,38,-61,29,22,48,-48,65,19,106,-29,9,5,0,26,-41,20,30,17,-17,5,59,-65,-34,31,-7,70,-26,53,69,20,-20,-40,-13,9,-51,13,-11,31,7,-59,97,31,-13,-12,-24,14,13,38,47,83,-107,-45,-4,18,23,-37,64,-37,-78,21,21,5,-36,-41,-9,13,10,-128,-2,17,-38,33,-21,-20,-113,21,-4,-22,-3},{19,29,-77,-27,22,-34,50,6,-21,-24,4,-24,-65,14,-9,-29,-65,-98,17,-12,-13,-72,8,-16,34,-25,8,55,-32,44,-51,18,-21,-35,58,-68,13,49,-28,-70,-24,-31,-24,-31,14,9,-39,2,41,5,-3,-102,37,-43,1,-7,5,-98,-20,2,16,-39,-10,26,-51,19,-13,46,-14,8,-76,-3,0,37,17,39,-33,-13,-2,-34,34,9,48,25,7,-25,29,31,38,-1,20,-23,57,7,-128,6,-44,-96,-55,-3,-9,-5,-20,-23,-14,25,13,-27,25,-11,2,-60,26,-33,-43,-27,2,-1,24,32,-62,24,34,15,-18,-21,-1,-4},{58,19,18,-45,4,-11,23,-18,-86,81,27,31,34,76,-60,-118,-27,-2,-128,30,10,-7,19,-8,14,25,15,7,4,-27,17,28,-4,19,-77,0,-62,-12,30,1,43,14,-33,19,31,-128,30,28,-62,6,28,-56,13,28,3,-59,19,-1,-34,-1,48,11,-10,-21,-4,89,-100,45,0,-72,-11,-15,-24,-11,-6,0,18,70,-6,-34,-37,20,-101,-53,85,-6,-93,-11,-112,0,-67,-11,-41,-46,10,0,11,-14,13,35,-13,-26,24,38,-48,-56,-25,-11,10,-31,-8,-51,-89,-9,-23,29,7,37,16,32,42,0,-2,40,40,44,25,32},{-57,1,67,8,7,-15,-44,-55,5,3,-7,48,9,-55,-54,21,-11,20,-98,7,-25,-73,14,-74,19,-76,36,-4,-2,-15,15,11,-14,-54,-29,-6,-56,-117,4,17,15,4,-48,74,-79,-47,43,18,18,-39,58,-45,4,62,-87,51,-3,37,-128,-21,67,-17,-60,-32,-77,39,107,-41,24,69,23,18,50,-54,-13,-48,-78,4,16,5,-68,-79,30,-53,-24,-2,-64,-1,-76,-57,-21,-37,-13,-15,-80,8,-18,41,-19,24,-54,29,6,-7,52,98,-72,-5,-19,34,-19,-12,-71,32,-44,-11,-68,38,-56,40,29,90,4,-52,-35,40,-128,-85},{64,-6,21,-27,14,-16,50,62,13,-15,-18,-19,-20,-83,1,14,-87,13,14,9,44,17,-25,-12,36,-28,-26,-76,-3,39,-20,-46,-11,-19,10,-7,-14,-41,-28,6,58,27,38,35,66,30,13,15,78,-40,-18,-20,-30,9,30,-1,-12,3,-54,24,-3,-10,-14,37,-52,-42,24,12,-18,50,-5,19,-11,-90,-3,-22,-20,6,0,39,-15,-45,-32,-71,-56,17,13,-40,-9,-51,-97,2,-2,-38,-7,53,17,21,-38,-128,26,-24,47,-39,13,89,-26,-5,38,-65,-10,-108,-22,6,-7,20,108,75,-42,72,-4,45,33,-115,-65,44,-16,67},{31,-23,39,-14,24,-8,-18,14,127,127,26,-38,-28,-53,0,35,14,44,86,51,-65,-9,-4,9,27,31,43,32,-21,-5,14,-18,8,34,42,30,-69,-114,39,-67,58,-46,-33,-7,-32,51,44,5,-7,1,67,-23,-44,73,47,-61,-14,-41,18,-17,42,70,-15,90,1,-23,11,-35,47,15,-64,11,40,-26,-40,-31,4,80,-25,-3,34,-30,33,-5,-60,-58,13,-77,53,-67,-108,-38,-6,24,0,28,48,76,65,12,60,9,-13,-10,99,12,116,6,70,-36,-21,10,36,31,53,-47,127,-111,67,59,-18,73,16,-16,-128,-7,25,64},{-27,-2,40,12,-60,-19,-60,-38,127,16,5,9,-3,15,3,17,-39,17,-31,14,75,22,18,-19,51,13,37,-25,-8,-38,10,-1,-11,75,-66,15,-10,-74,35,-8,-48,-22,6,-96,23,54,24,-79,-47,-14,-47,-20,76,-72,14,-114,56,-16,-44,18,-9,39,-20,-14,56,-46,-44,-15,15,-59,1,20,2,28,-39,-1,-26,-73,-21,18,13,9,18,5,-5,5,-45,29,48,-62,20,47,9,-5,-43,11,11,-2,-14,-54,66,-6,-1,-11,23,25,6,-83,-28,53,-28,45,19,11,-4,-5,-128,-128,-30,22,6,43,-27,13,-70,-19,-4,-61},{-128,-34,32,3,-48,5,-91,13,-24,86,17,2,86,-4,-38,-55,-23,-23,-128,-8,22,49,-15,16,54,4,36,-11,-30,33,-31,-20,-61,7,-128,14,-37,-114,36,-28,11,-34,84,-4,-94,12,106,33,-19,-43,61,16,26,-77,0,-1,47,54,-65,-47,42,18,-56,36,-78,-122,-20,-50,-29,-71,-28,4,-31,-45,-5,-3,-29,17,-102,-43,9,-16,67,7,23,1,-94,7,77,-43,-59,-51,-17,74,29,25,-13,-37,-46,-85,-39,-56,44,-74,16,-57,-47,18,-75,-13,8,-18,-83,11,-21,-25,59,36,93,48,17,-39,-15,62,8,-9,-19,-47},{58,-23,-38,29,91,1,58,-29,73,8,-44,5,40,-85,11,13,41,25,117,23,-17,-2,27,-19,20,13,34,-13,12,-24,20,0,4,-49,24,31,53,10,-34,28,-30,0,-11,36,-4,-42,-90,1,32,0,-17,3,52,-14,-52,-9,-1,-58,38,-32,-12,53,58,-19,-34,70,1,45,-3,91,41,19,11,31,17,-43,68,59,-77,-20,-27,12,-1,5,-66,28,21,-14,-25,-46,22,38,5,43,25,-14,-6,89,-35,-35,77,20,11,53,7,111,46,-54,32,-95,1,-30,28,-42,37,-34,-53,-7,-17,-9,-40,106,58,-32,41,-23,6,-3},{49,-30,17,-54,-16,3,8,68,73,-53,37,-55,-20,-27,-6,-29,-91,42,88,19,3,-46,-14,-3,-29,1,1,-17,-3,-8,-22,3,20,-45,-23,-43,-45,50,7,11,-74,65,35,-8,51,-4,-11,25,4,-4,-88,-59,-37,-2,-58,101,14,2,-1,-1,-22,-44,-20,-60,30,54,-18,-118,-39,-8,-30,-21,-14,87,-59,21,-13,39,-41,9,-27,7,0,-55,50,7,-26,-11,-42,-27,53,-21,62,-44,-22,-16,2,-8,-38,-63,14,8,14,-10,-19,-13,-49,-46,-30,-24,-32,-92,-60,-31,-15,32,-22,54,-88,-83,-15,12,-41,-4,52,43,-116,13},{8,40,3,-8,-2,15,19,19,-8,-95,-30,43,59,-19,-14,-8,28,74,41,-24,-24,15,38,-11,-1,-23,-38,21,30,-50,17,-22,-4,-10,38,17,52,-8,25,-77,-18,-17,38,2,34,-3,-11,65,-60,27,-13,2,-35,25,-24,33,10,-3,-1,5,15,-74,-31,3,-45,85,105,-2,-8,-25,2,33,25,-92,46,15,-26,11,-16,15,7,35,-25,3,-15,37,-61,-24,-34,23,3,21,20,30,-42,10,27,11,7,-65,-83,-12,19,66,18,39,-29,82,44,18,10,-33,-32,-37,17,22,55,33,-43,3,31,47,27,-38,97,-11,27,27},{-19,23,-12,-2,75,-41,42,18,-128,10,-128,-26,-66,-95,9,-26,-14,48,-26,-39,41,-7,-31,-68,53,-91,-38,23,35,-31,-6,-21,-11,-128,-74,-14,107,9,-18,-30,-44,-21,6,38,105,-44,54,50,-69,9,33,-5,-81,-50,-40,127,-26,-73,-69,4,-29,-102,-2,9,-127,-32,127,55,-15,-49,31,39,10,-82,30,-84,58,26,-16,33,8,12,-18,22,12,40,-68,-32,-30,-48,24,32,38,19,-30,-34,31,-33,-20,-32,-13,21,-57,86,-13,9,-60,-2,34,-111,-50,-39,-68,-85,31,-17,46,53,-128,-24,0,88,20,-83,75,26,-22,14},{17,43,-11,-16,-14,27,-47,15,57,-13,13,-36,-70,-95,27,34,-21,27,-68,-1,64,-11,-8,24,-6,-36,8,-10,15,-37,38,-66,17,-16,-1,24,-42,3,13,-17,23,-14,54,-21,-10,39,66,30,-65,-116,-14,30,-17,5,6,-1,17,5,-2,3,-31,37,-42,-32,49,60,-53,-66,-4,-22,-2,-29,24,18,-21,-10,45,2,8,42,-86,-37,-58,-59,-37,-54,32,17,40,-54,-94,15,27,2,-36,16,10,42,15,101,56,20,31,-40,-22,-13,-18,8,-4,-65,-21,22,-17,-6,22,24,-13,23,-31,17,-2,0,-26,35,-18,-29,-87,-15},{24,15,-1,-17,34,12,60,28,-17,61,-33,-15,15,19,12,-15,3,-50,58,16,8,4,-18,-37,-12,-2,59,-18,17,-16,-6,42,8,-21,71,48,25,-48,-17,44,51,50,20,-7,22,-26,87,-42,0,-17,37,-18,71,34,-19,-62,25,-6,46,15,-16,19,3,-66,12,35,20,79,17,-8,3,-21,46,47,75,17,-2,-27,3,60,-33,8,-34,-53,-13,8,15,14,44,-65,17,2,-31,-24,47,-33,16,6,27,-1,58,5,-39,77,12,-37,-22,-86,12,62,1,-36,30,2,6,8,-96,-9,-17,65,-50,47,19,10,-14,8,-7,-41},{-6,5,-54,22,60,22,54,1,38,-33,-3,0,-37,63,23,-6,57,-63,102,-1,-12,25,25,-30,-58,34,3,-83,-21,10,-10,59,25,-23,-51,-56,37,12,37,-26,-40,-26,1,10,-59,13,-20,-34,-19,3,-28,-32,1,-13,5,60,24,-25,-10,8,3,-4,-4,-13,-37,-41,30,38,-18,85,30,5,-60,21,49,-53,-77,-2,-42,3,-6,4,8,-3,77,18,62,-17,19,12,13,-11,2,12,-48,-31,19,-3,49,-128,51,49,26,4,-43,86,9,8,-37,20,-46,48,-8,0,-2,-58,-27,-51,-54,-16,-1,-42,-9,-104,-25,3,18,-76},{-14,-83,18,-2,1,-1,-18,62,34,69,-8,-12,85,58,-3,18,-22,14,36,25,2,-28,24,-60,1,0,-1,-5,44,-22,18,45,-31,-26,26,30,-16,33,-20,9,53,-40,-10,-30,61,36,37,-5,-24,20,-41,-47,-34,-40,52,-107,5,-35,-53,30,22,63,2,-16,21,-65,14,28,48,-78,13,15,29,-54,43,-28,-46,5,-27,62,-8,52,18,57,5,-58,-106,-30,63,-15,-38,5,109,59,32,26,7,60,-42,46,68,-1,-27,-40,-44,-49,-45,-11,86,-42,-12,43,3,22,11,13,124,-25,-13,46,11,51,74,80,-21,-18,118,-26},{-51,16,34,6,23,-17,-15,-46,3,-6,-36,60,6,-33,-82,10,-30,-19,13,-30,-13,-86,22,-25,29,-23,-19,70,11,44,-22,-4,-31,17,127,102,38,-30,-8,-12,-13,-12,-27,-16,-14,1,-44,9,29,2,62,-64,-22,23,-11,100,-52,-36,106,-24,25,-8,20,-11,-67,-12,15,-16,33,51,14,13,25,-83,23,15,-93,40,27,11,63,19,22,33,-47,1,42,0,23,-33,16,-26,23,-25,-40,29,41,-25,-17,-2,-26,20,-29,-37,-7,25,-6,29,-13,-29,-36,21,-51,-28,16,-21,-11,10,-5,-6,-13,-52,51,17,-14,-29,1,7},{-12,-61,46,18,-6,22,4,65,-29,47,10,-37,48,-11,-21,-3,-38,13,-66,31,-6,-75,-12,14,54,-31,42,70,-17,21,31,-54,-17,-13,67,-10,-34,-8,7,18,61,-20,-20,-10,41,32,-31,-46,35,-6,59,-4,23,20,0,-19,21,14,-22,-14,2,-14,-18,-9,8,-22,-40,-63,11,-36,50,-10,-3,-13,43,22,-25,66,25,-31,-1,-34,50,32,-50,-14,46,52,-37,-23,3,-39,68,-3,34,16,-4,53,-101,44,7,-18,-7,41,67,-83,43,85,24,17,29,-41,-18,18,9,-1,-53,-32,7,21,5,37,32,-27,-21,-36,-46,27},{22,40,63,-34,8,-13,36,75,97,25,6,-55,-40,-15,17,-16,23,-49,-51,-3,52,-24,-13,34,24,-20,64,-3,-19,-43,12,-48,17,45,-33,0,-14,43,-11,1,55,21,13,-13,75,54,29,0,22,-43,23,-37,8,-47,16,-63,20,2,46,27,-7,4,2,3,48,10,-33,5,18,0,42,-36,0,1,-10,-57,-84,6,26,-13,2,-42,-35,56,-52,10,-32,38,-19,-36,-38,20,39,-24,-31,42,-28,-12,-39,104,60,-3,-22,29,29,37,10,-40,-21,-17,0,45,0,-2,-16,16,-48,52,-18,18,11,-81,-45,50,-6,-21,-72,6},{-17,16,-13,34,71,34,2,48,66,-24,-56,-65,12,-68,54,59,19,81,34,-26,-46,-14,33,-49,-6,-17,13,12,37,-27,63,11,17,-53,30,1,15,91,57,36,-8,10,12,45,-2,1,75,16,12,17,37,-7,-23,16,-112,-81,1,-79,-127,-69,-29,-15,-15,-33,46,37,-18,67,34,-32,-21,12,-1,-74,-35,-36,-82,-56,-16,47,-51,15,39,-5,-18,-10,-97,-13,-36,-32,70,13,62,27,-25,36,43,7,42,-15,41,23,-18,0,-37,12,-26,-18,-16,43,19,-14,1,45,2,-31,38,-82,-58,25,-11,121,10,-33,127,-67,68,-32},{-18,2,-45,-33,18,-2,66,51,67,65,31,48,62,-27,-26,-11,-5,-27,-128,24,-27,-104,11,-17,-5,-12,48,80,2,-20,-44,-18,14,15,1,-15,-29,-27,28,22,-36,19,9,-32,-41,-49,61,-8,-41,23,2,39,5,-26,-34,-49,-36,-38,4,-96,-13,23,-71,25,2,-7,3,51,-43,-44,19,-6,37,-33,57,43,20,33,40,32,34,-9,-20,-36,2,20,-6,-36,-36,-84,39,-68,-9,12,-93,0,-17,16,32,-9,52,26,-98,-76,53,-13,7,-2,-5,-1,21,-34,-22,-62,7,-34,-45,-7,2,20,-46,39,-5,1,-16,6,28,37},{26,-19,13,5,-15,37,11,-21,53,85,30,-43,-37,-9,14,71,41,85,127,45,-87,-12,16,-20,-32,0,8,30,8,-16,24,-13,-20,17,-58,-51,-52,-69,1,-2,-51,-90,13,-1,-51,20,-107,-20,-48,49,49,-10,2,0,3,123,-13,-52,-11,-93,5,0,7,69,48,-8,-45,-28,35,31,-32,16,38,5,15,-27,-3,-15,-11,-11,15,-3,39,30,-57,-13,25,9,-49,-42,11,16,-13,70,-107,52,17,-11,-8,-99,86,-38,17,99,58,-14,62,45,9,-59,28,-25,33,-12,3,1,86,-42,46,-12,-11,-53,0,17,-90,-64,-26,31},{28,-7,83,-12,-41,53,-61,29,62,15,-6,-13,22,-9,22,59,21,26,53,-87,32,30,8,-18,-5,-14,36,-54,-17,37,7,5,-27,-48,-53,43,-68,21,18,-30,59,13,30,-15,-4,9,-8,50,59,11,98,-59,-66,9,-54,73,1,-71,-30,25,49,8,-10,-11,16,-70,94,-1,32,42,-23,-17,-2,15,-21,-11,-35,4,-10,-8,-36,13,18,-12,17,-25,21,23,-29,16,13,1,-12,58,-57,-9,-56,94,-48,-22,3,-18,-11,-30,35,-17,-49,-46,15,47,12,-17,-40,-12,-41,30,-4,12,-92,38,16,-34,-40,9,-12,-7,77,11},{8,-19,13,-35,-35,0,-1,-35,105,-11,-25,-21,29,31,-23,8,-113,-6,32,0,34,-17,6,11,-9,24,3,6,-28,125,44,-55,-8,-18,38,77,17,49,-3,6,26,34,-20,16,2,-4,50,8,81,-78,45,13,-18,102,23,-36,18,19,-47,34,67,-45,-2,-4,8,-51,44,-21,15,67,-26,3,14,-25,63,-17,-21,10,9,3,-24,-71,-1,-15,22,8,-27,11,-59,-31,13,-20,-55,66,13,52,-7,6,25,14,16,-93,46,88,-9,47,24,16,13,-111,17,-55,-37,25,-15,11,0,18,-43,42,6,-5,2,-44,27,35,-62,48},{2,-21,98,-1,51,5,39,4,-12,-57,-6,4,-37,-10,12,0,44,1,-4,25,22,4,12,5,16,34,0,26,42,-53,-27,34,23,-19,-18,10,31,13,-48,26,25,-7,15,-40,-12,-5,-27,-17,26,39,44,-126,-34,-14,19,-16,23,-39,16,22,-63,38,49,-47,-9,54,19,-6,8,-32,76,10,15,-57,-3,-20,-44,6,-13,46,35,-8,-19,-30,-21,0,-46,-31,-103,-23,-54,23,47,17,-82,-6,17,-59,-19,-57,-29,-33,13,1,26,28,-2,-24,29,-32,26,23,72,-28,30,-11,0,-45,-26,-85,-25,-98,17,-44,21,-33,36,9},{25,-21,77,-14,-28,-14,-109,-104,-29,7,-3,-43,-44,30,3,24,-35,16,-128,-15,-21,-15,-32,-68,14,0,5,-74,44,-28,-21,-7,0,15,-25,71,47,-53,-33,-82,23,-13,-20,-95,22,-5,105,-6,-26,5,-6,-79,-12,-2,47,-92,71,27,-43,15,55,25,7,-29,40,42,55,-9,22,-50,11,22,67,-84,-33,-28,0,-34,3,3,-1,-28,20,2,7,-44,-13,-14,17,-27,-128,32,-45,18,-13,-26,28,9,-27,73,-25,-12,-34,-19,20,99,60,-39,62,22,21,-40,-1,35,32,2,-5,9,-104,-38,6,47,19,-17,-53,24,27,23},{-16,13,-25,46,75,58,-79,44,1,51,-8,18,5,-13,20,31,20,-12,-2,-10,-13,-51,13,-31,-31,-10,29,-1,40,14,10,33,11,-14,34,27,5,3,-11,23,-24,-4,32,-47,-21,8,105,42,2,-37,15,-1,49,-12,-79,14,-33,29,-16,-8,-3,27,13,-4,10,-55,50,58,1,-68,-33,4,16,-61,-21,-8,-20,-52,-51,29,6,-34,38,-26,22,-4,-28,-40,-47,-34,-6,-13,-4,-22,-17,12,3,40,-19,65,70,37,15,-83,31,54,19,-65,13,-47,16,9,-23,28,38,-33,-59,-36,-24,48,-36,7,61,0,30,-10,94,-81},{-37,61,38,1,-56,-44,-30,47,116,-45,-26,-16,-68,-36,33,39,-30,-11,11,59,46,10,-42,11,-29,-24,55,-5,58,51,-31,17,40,32,35,44,44,-19,-17,26,59,6,66,-23,68,12,127,-38,7,-19,40,90,12,1,30,17,-12,59,21,24,-9,32,13,27,-23,-120,65,-9,-11,-5,47,27,81,-19,28,-22,-12,13,-23,23,5,11,-3,80,-6,-1,9,15,-83,-57,46,-16,46,4,-39,-6,-19,52,51,73,-62,-27,-82,-51,82,52,40,-53,27,-11,2,-128,77,-4,9,31,-55,-51,40,74,-10,61,5,4,69,49,33,29},{-14,-67,-115,-37,-86,17,-7,23,-50,-52,26,-30,44,20,17,2,-26,114,42,-33,-70,31,-19,-34,-71,-94,-6,13,-51,24,-123,-8,-7,-95,-63,-62,-36,17,7,12,-104,0,-41,-41,-7,-3,-9,-11,32,19,-38,-67,4,34,-17,66,-23,29,-68,2,-24,57,20,-58,18,-12,17,-67,-93,24,-64,13,-69,10,25,-54,-120,-6,-47,-57,-37,-4,-47,-25,-77,21,-15,-95,-109,18,17,-17,37,-96,-1,-26,30,-44,67,35,-89,4,-57,21,-40,-62,20,-33,-87,31,11,-15,59,42,-34,-31,54,-107,-54,-16,-10,-35,-22,-101,127,-45,21,-33},{-16,-19,27,-18,3,29,13,65,-29,82,40,-34,41,23,-38,3,-42,-39,-96,1,-19,27,-40,3,41,-8,65,-20,47,57,-14,-18,21,6,97,12,14,104,23,48,1,26,20,2,0,-33,37,-120,-26,-21,82,-11,73,-40,-72,61,23,59,-15,7,-11,3,-9,-66,14,56,-9,116,-27,-36,-39,1,4,-23,24,-34,-106,6,-9,-15,-87,21,-8,-58,-18,17,-81,28,-37,-38,36,-5,-88,-83,-49,4,-1,-24,-34,-9,68,-33,89,8,31,-109,-110,-94,29,37,44,-57,35,32,-7,10,-128,13,-73,-9,-9,45,19,-12,85,7,113,-17},{43,-10,-5,-15,42,-8,-23,50,-40,-31,16,-15,-33,68,13,15,0,-23,77,-8,35,-8,-42,24,-23,13,24,-33,-59,-26,-14,-12,11,10,-4,30,15,-16,31,53,-8,24,-7,-17,-72,-14,58,15,-2,-22,-22,16,-6,31,15,47,-6,-1,83,21,1,62,46,6,39,15,0,22,1,-34,42,-6,31,93,-49,-7,51,-4,-6,53,-33,-48,-50,28,8,33,-7,1,6,69,52,-11,-35,8,-7,11,-105,-19,31,-49,-6,39,-62,11,-38,89,-3,-38,-10,62,-8,2,-58,1,-21,35,55,59,-36,-9,48,-1,-42,-3,-39,-37,17,-1},{-35,33,1,12,28,-54,30,-7,-101,12,11,-13,18,5,-12,7,-2,-4,15,16,-11,-62,-16,33,14,-65,11,27,-19,34,17,-29,-7,30,26,48,24,67,-37,-10,36,-23,33,31,49,-16,5,-35,-9,40,49,58,16,-33,-14,-92,1,53,15,-21,-9,-41,-5,29,-34,-25,49,28,-4,15,-3,-7,11,66,11,31,29,42,-50,15,36,27,6,62,-27,3,13,36,-21,-58,5,14,8,12,-74,23,4,-5,48,108,12,-27,-44,-3,-27,75,14,42,-11,-15,25,-24,39,-9,1,24,-107,-8,-18,-44,17,30,26,54,-4,9,27,23},{-29,-17,89,-9,-76,-37,-7,-2,54,-1,-26,23,43,-13,20,-10,-38,8,-128,10,-17,-29,16,24,6,-3,12,70,49,-24,-28,32,31,22,-89,33,-11,-76,4,-41,43,-56,8,-97,-6,22,-26,-8,-28,29,52,10,36,16,-5,-72,23,23,-2,-26,25,6,-26,1,21,-4,46,-38,7,-43,18,55,54,-27,-8,14,46,42,10,21,19,29,-24,10,-47,19,-64,-35,-16,-74,-106,-3,-73,35,-48,-34,21,20,13,95,23,-24,-65,-53,60,-44,54,8,75,36,0,14,18,12,11,-17,-53,12,-12,3,28,-109,18,45,-58,-25,-3,91},{29,23,-21,-2,127,16,107,60,40,-44,-89,-10,13,16,27,-27,12,16,23,-37,-43,-17,34,-16,26,41,-43,26,45,34,39,0,11,-38,74,42,-65,76,22,-32,-53,50,-35,29,-17,-12,-106,28,43,-3,78,35,-27,105,-128,15,-48,-51,27,66,-38,-35,30,9,-14,0,67,16,2,-9,20,10,-86,31,-6,-37,-128,-50,-23,-30,5,9,6,-30,-39,-5,-79,32,-40,-29,41,-5,73,-2,-28,-6,15,39,-36,29,-23,3,24,127,-18,-71,-33,47,-16,-8,-10,8,27,10,7,19,-26,-45,-22,-23,-27,-75,29,-42,108,-71,-65,-24}},{{-38,17,76,25,96,-27,-13,16,-36,-13,34,18,20,-28,38,3,9,50,63,-35,15,19,25,-8,28,43,-12,45,2,3,38,35,36,26,93,52,-28,-104,15,89,38,33,48,-63,-21,-14,-28,10,35,5,53,7,-3,19,63,-70,30,-4,-5,19,-24,20,39,-31,-16,0,-48,7,-2,-22,16,19,-46,58,-87,-3,65,34,-14,60,-29,0,-28,-32,-100,-38,9,63,17,-54,-39,-9,-13,-39,-36,7,3,-15,-2,94,-20,18,-56,-22,68,60,7,31,-8,45,-20,-63,23,-2,9,12,-45,-48,29,-43,-5,47,-4,70,-93,-24,-7,-73},{-8,4,49,35,25,28,42,-18,-11,13,-3,-9,-40,-92,11,-4,-18,-39,-20,-44,42,50,8,9,74,0,-42,91,17,-12,-1,-34,48,-23,-14,122,-2,-27,-4,-22,23,-26,22,-125,15,5,-45,-17,-27,-13,127,2,-18,-37,-12,-68,-22,42,-1,2,14,-21,30,16,4,-99,-10,-16,32,-37,8,38,40,-32,19,14,34,46,19,-20,-22,13,-4,-40,-71,26,-36,-10,-64,-115,-50,6,-23,5,39,-35,-13,-11,1,106,-33,20,-43,-43,101,1,17,28,26,0,-8,-80,59,-52,25,21,-20,37,-90,16,10,-61,21,32,35,2,-58,69},{-26,12,-11,17,16,7,52,-17,-46,53,-12,33,-32,-3,-1,6,43,51,-20,15,-20,27,0,28,-30,75,46,-51,-50,-29,1,-9,33,12,12,38,-8,-69,6,3,68,-13,34,-55,-44,17,-6,-27,-20,49,-28,53,39,-3,18,24,59,62,-49,-21,18,39,39,1,-21,-79,-10,81,-9,-10,50,-5,25,14,-28,-8,-14,32,-10,24,9,-8,25,53,-42,-7,22,22,-22,-27,-26,-14,-106,28,53,-18,-69,32,56,-61,0,48,32,-34,19,-35,22,-74,16,60,-7,68,65,0,-32,-4,-58,1,7,12,-18,23,-6,26,-82,6,-33,-24},{34,11,-7,-48,5,-16,-71,-4,127,-41,9,-35,-31,24,-56,-43,-4,-31,-67,-37,-6,-8,21,23,38,-19,46,87,58,14,-23,20,-3,18,67,-14,-127,39,-1,-7,33,6,28,16,67,32,-54,-10,25,-2,-50,-1,43,79,43,-31,23,-20,9,-5,-6,2,-13,35,-32,-14,10,31,-45,-28,-126,-1,-30,71,-18,19,0,70,14,-13,-4,-20,-10,-10,41,23,36,54,-14,-38,6,-10,30,-41,17,-115,54,-7,-10,-24,-29,-21,-70,-75,28,-37,1,16,-24,-11,-22,-33,15,2,21,28,-12,-81,50,-30,32,-97,-53,-39,28,43,-52,-8},{-12,-5,25,-14,-30,26,-60,-33,76,127,27,-30,-44,-23,23,26,-13,-20,10,57,9,19,-18,19,-23,-62,23,19,4,29,61,-16,-38,-53,-13,-79,11,-1,44,57,39,24,9,-4,-60,9,-48,8,8,-31,50,-15,-50,10,43,41,-13,-13,-36,4,15,44,-12,-17,-4,-27,24,-50,52,23,9,-29,67,-13,9,23,-22,30,-17,9,-62,-16,50,16,27,-57,-4,26,-2,14,37,-89,-25,42,48,108,30,34,34,39,68,-13,-34,37,-15,52,-24,-65,52,77,28,-24,1,22,-12,-12,68,41,-44,8,48,85,38,11,75,-20,23,-37},{-14,5,30,41,17,40,29,15,9,-70,1,14,33,-17,-19,45,4,-3,-55,-48,-9,-54,-26,-11,-55,14,16,15,24,-7,-33,16,11,-39,-53,-29,38,-42,-17,-6,-66,-40,-26,-20,3,34,-2,-28,-12,24,-3,3,-8,30,-4,27,-4,-26,-3,-26,15,-25,36,4,36,8,89,52,0,32,32,18,-27,-3,44,-67,-62,9,-41,15,19,12,32,-46,-19,-28,-21,-39,-40,-4,24,-9,-44,11,7,-39,-7,20,-1,-76,-20,23,-20,38,3,45,41,14,10,23,18,-8,46,22,30,-48,-26,49,-48,14,-54,-6,-2,60,11,-26,1,29},{55,29,53,-17,-7,9,14,60,13,2,-45,-7,-5,19,15,-8,-7,-125,-96,-61,-86,-13,41,-25,54,18,-18,29,23,-37,-11,24,21,-81,-106,27,22,9,32,-107,-33,-59,36,-19,-53,5,-52,-32,-29,9,86,-55,55,-128,-87,96,-66,-52,-53,-21,-33,-8,-15,13,-14,2,71,28,3,12,1,2,-17,65,37,-37,-45,-39,-28,-53,28,30,-9,-1,-32,46,-99,-75,-53,-76,-54,7,-29,-39,17,-25,9,-65,-47,38,36,-2,6,-36,-2,-54,17,-35,33,-51,-34,12,-11,-24,-18,-1,-26,-20,-102,-33,-118,33,-20,-16,29,-43,16,54},{-6,-10,-33,-67,66,-5,-23,-2,-50,64,-24,-17,48,-35,-67,24,-13,45,-13,-9,-8,7,-3,3,-45,-39,14,5,-28,28,-9,-24,-25,22,24,32,-69,-35,-10,-11,28,22,-1,-22,-89,-7,74,-14,48,39,-9,56,-3,78,-28,-69,5,51,-37,13,10,14,-92,-34,21,10,-21,-87,-15,-28,45,-51,8,106,-48,72,16,-4,14,1,-42,-24,12,-80,-28,40,-44,15,-13,-42,6,-22,12,-24,68,-18,-4,33,46,54,71,25,-4,19,23,-7,7,-6,-6,3,12,-13,-66,16,-16,12,66,-43,-55,28,15,52,-96,-18,-41,6,-42,0},{-21,-39,98,4,31,1,-21,-8,-8,36,-36,-8,53,-51,-42,3,50,-31,50,-37,-32,-32,-17,-13,39,-25,-29,-6,20,22,-9,-37,5,-34,3,22,-37,10,-52,-26,32,-7,-2,38,-44,35,-46,1,40,11,92,-42,13,27,24,109,-13,48,-40,20,25,89,-82,-114,-44,-36,43,6,-23,68,16,-13,21,5,7,-14,-10,127,-31,45,7,-2,11,-49,-57,0,-69,45,59,-48,6,-7,-16,53,-10,-14,13,20,26,127,-2,-15,-33,-21,64,32,-20,11,-3,24,-6,-13,-36,-7,-31,37,-18,-21,-6,-25,-7,4,-20,40,-17,20,41,32},{-7,-20,-6,15,-15,-9,59,17,-33,33,-24,-34,27,46,-15,27,-7,36,41,-26,26,-12,22,10,9,52,35,-33,-4,25,-25,26,-2,45,-13,-35,24,-24,30,-15,5,1,28,6,-58,7,50,-30,31,16,-35,-26,-15,44,-79,49,-5,-65,-12,5,-20,20,43,10,-10,25,-24,-35,21,20,9,-5,-55,34,30,-41,67,-61,-33,-35,2,10,4,-14,28,3,47,32,24,75,43,8,9,9,-58,-28,6,67,49,-128,-5,56,30,20,-33,57,4,41,12,25,-22,55,35,-15,-16,-36,23,-8,50,15,-30,26,-3,-86,-49,-14,3,-62},{30,-18,27,-7,-7,-23,3,23,23,-2,-23,16,6,26,-15,-9,3,-3,-11,16,-2,12,7,-54,44,-11,5,27,57,0,-28,47,22,9,35,21,23,55,-33,67,34,-21,-65,25,42,6,-41,32,35,72,19,11,-21,-30,-64,-24,37,-41,49,14,3,-52,22,-67,-1,60,45,-1,-17,95,29,11,-21,124,-51,2,-7,1,11,50,-22,11,-15,-99,-12,-2,5,-31,-106,-28,42,69,-13,-88,20,36,20,-34,-71,87,-8,30,-20,56,-8,-17,-62,28,-7,-19,-46,-72,9,-38,15,-31,32,14,-13,39,-27,-40,45,39,60,14,44,48},{1,-12,77,-60,2,-44,-12,7,-9,-40,28,-18,-34,6,-26,-20,-96,-11,-54,23,40,15,14,-1,-32,13,25,-11,-29,31,35,8,20,14,-8,2,16,-53,-56,29,23,-5,10,10,-2,-24,-25,-24,-5,-51,2,14,6,82,-81,127,24,60,-36,24,-2,-72,26,-60,2,28,-2,32,21,22,-30,-27,54,-23,12,39,73,-46,-18,6,-32,-21,-30,1,-50,-5,-92,6,10,-35,-27,10,-68,36,-38,11,17,7,-23,79,11,-42,33,30,45,20,7,9,8,-8,-21,-40,10,19,-38,43,18,25,24,-25,28,-46,18,52,21,52,-61,-3},{56,28,92,-8,-6,-8,10,2,32,-55,-1,21,34,9,-35,23,32,10,44,-5,-32,30,12,6,-11,-12,-3,53,-1,-33,37,-6,17,-4,-73,17,-19,-61,-88,4,0,-65,11,-22,-46,-78,32,19,-9,30,82,-9,42,66,57,68,-18,-28,-48,-10,35,30,32,-59,11,-20,-29,-50,-9,41,27,-18,-10,25,51,38,10,-25,-8,60,37,-14,-1,-13,-40,-11,-61,-16,19,-22,-38,2,-54,34,29,-2,-8,-23,15,111,-23,-51,25,-14,44,83,3,-8,-6,11,27,-16,45,-22,-13,-12,38,-13,13,-23,41,-128,-4,13,-40,22,-87,16},{17,38,10,11,8,5,-14,-22,57,-41,-14,-22,28,5,0,23,30,-67,-12,-60,-47,2,-15,7,-35,37,28,-14,-17,1,4,-45,-11,-34,-63,-38,-3,-47,27,-45,5,-45,9,-52,-40,9,-46,21,-32,5,27,6,23,23,15,-38,-18,-58,22,-66,11,-7,27,64,-12,-41,61,36,-11,47,29,-9,-41,-11,-3,-82,-15,27,-9,-46,-10,-4,17,-66,-17,5,-28,11,13,-52,-9,1,28,-20,-6,7,17,-33,-45,65,18,8,26,67,68,104,68,76,30,17,-4,48,-11,4,29,-73,-56,-38,-31,-47,-24,-15,1,3,4,-51,50,37},{-27,25,78,15,4,-2,-45,73,-55,-38,-6,-7,62,-109,-12,-23,-35,5,-74,8,29,-55,-30,15,60,12,-36,-32,24,27,-36,-27,2,-6,-21,26,4,15,-47,-25,26,26,4,-47,58,69,-120,-22,40,-41,82,-73,30,32,35,9,-41,-52,3,10,30,-82,-44,-50,-29,-52,37,3,19,-44,16,11,3,49,18,3,13,86,-42,-71,2,11,-4,-45,2,29,-3,23,-11,-76,7,-30,75,-1,-19,52,-10,-21,-10,77,1,15,-78,11,34,14,-22,-33,-34,-120,35,-46,-14,-30,3,31,44,53,25,-2,-20,-50,8,38,55,-1,-27,26},{0,-6,70,22,-1,-22,-34,-10,57,38,-36,-66,56,-73,-34,21,-41,102,-5,12,-35,9,-2,-26,12,-58,-15,26,-12,13,39,27,-55,-55,-33,67,-16,-54,-17,3,-32,0,50,7,26,-10,-2,1,1,29,96,44,57,-11,-9,69,-34,-2,-67,11,17,-30,52,-48,4,6,6,-66,6,43,4,-13,-3,9,-32,30,35,21,-75,3,15,4,29,13,-2,-7,-84,12,-28,-66,46,-80,-43,10,-66,-21,-11,15,18,123,44,-17,14,89,8,102,-42,-5,-1,23,32,-62,-56,38,-2,20,25,-64,-62,-10,-6,-30,-1,-47,0,-11,-27,20},{24,-45,-27,10,70,15,-67,-26,34,63,28,-26,57,15,-12,28,2,7,-78,83,-32,-26,-22,-2,9,33,-15,-14,17,34,85,27,-8,-37,56,-39,0,-27,-2,23,46,13,9,36,13,14,44,8,-11,-14,-27,22,-14,107,-21,0,13,-20,21,4,44,-5,25,-34,-11,-30,-10,-42,24,-8,-7,-12,65,-37,7,-20,-41,30,-12,26,-16,-19,1,28,-13,23,39,19,12,-15,13,9,-5,69,48,49,30,-41,-72,23,91,-3,-42,81,-29,10,-4,-19,29,-77,-6,17,-48,32,18,-21,40,-10,-6,33,39,17,14,57,-16,-3,-42,14},{64,14,-18,-37,14,14,12,15,0,-39,-28,-4,-39,-50,-64,0,19,-44,-35,25,29,28,-8,28,32,-73,16,81,-38,30,-18,-38,-1,3,-7,85,-23,42,16,23,18,-6,21,-14,24,16,28,-56,-5,-38,82,13,54,-38,-10,79,-20,24,-37,-29,-20,29,-94,-35,39,-37,-18,-29,-9,20,-27,-30,42,37,31,1,6,-14,28,-6,-5,4,-9,-50,8,3,-24,10,2,1,-48,23,6,-9,-27,-10,-48,-89,-21,118,-27,-9,-16,14,4,-37,-9,-16,3,-24,13,30,-18,29,5,-5,-6,19,-16,-22,15,-53,-29,39,-38,-15,-34,18},{-32,40,-1,-14,-11,-27,57,-3,18,11,50,28,-38,13,-6,22,13,-26,95,-32,14,-7,-13,14,33,-10,28,19,9,42,-17,-7,-16,19,31,26,-45,-22,30,27,36,-18,37,-12,-52,11,20,6,-23,-25,50,27,-73,6,-19,101,-9,-31,59,-35,-7,35,-84,19,34,8,-14,84,-35,-20,-27,17,50,43,-4,12,4,33,-3,31,-17,18,-8,-16,-79,21,-48,-34,-24,-72,1,-26,-25,-53,-12,-12,11,-14,-44,28,94,2,-83,-2,23,-54,-29,24,14,-2,-55,-42,-58,-43,-2,-11,27,-34,-2,-59,-66,13,-6,-47,73,-41,93,15},{-22,-20,40,23,110,-25,0,17,-14,-11,-17,5,40,18,12,-8,-21,-32,16,33,30,-29,-31,-41,22,29,-37,-5,29,-4,37,16,-12,-14,46,40,-14,21,-54,32,49,-25,-46,8,44,-56,21,-89,50,19,-3,71,0,9,-2,42,10,10,-7,-15,-2,-11,-14,-24,-50,-9,9,38,-6,43,19,16,-60,127,-102,-9,59,43,11,28,-22,-22,-2,34,-29,25,-78,18,73,45,66,-7,-33,51,-6,38,7,29,21,11,-6,1,62,45,15,-106,30,6,8,50,8,-18,-34,-3,9,13,7,22,44,33,11,-46,41,-22,-21,13,-20,-12},{-8,59,-4,32,-19,-56,58,13,-55,-1,-71,39,8,-44,11,35,18,12,33,-1,-19,-23,-42,-26,1,-1,28,-36,56,-22,-44,-39,20,-18,-44,17,11,-6,-32,-69,-37,-110,44,-16,-66,32,11,-25,-52,-23,-20,-8,-20,-66,-8,-54,3,-37,55,-49,5,14,5,-9,-46,52,58,93,-10,22,47,35,-11,63,-1,-37,-57,-49,-70,3,-7,39,26,-48,-11,10,-13,-86,-44,-7,-47,8,18,-42,-49,23,38,27,48,-55,0,17,-9,-43,5,-18,21,-48,-12,20,-46,24,26,-35,38,-82,51,-5,11,-17,-25,45,24,45,109,-3,123,37},{11,15,22,-37,-27,19,2,74,21,125,54,-15,-5,-8,-21,-78,12,-62,-112,-75,3,18,7,26,29,-30,-21,-7,5,17,9,20,3,-20,68,2,-14,20,-77,3,19,-28,-18,-11,-36,29,-11,4,47,-21,50,-49,-52,30,72,6,-22,127,51,12,-45,-9,-50,25,4,0,54,-19,-40,21,-4,13,-8,46,-38,20,19,-7,25,-24,-26,14,22,-39,-24,-20,4,25,79,-6,-76,2,-6,30,-18,-36,15,-110,-76,-24,-32,-1,-29,-44,45,47,-12,32,-40,0,-18,65,22,-11,0,41,-20,34,34,45,9,34,-22,-59,37,-4,28,96},{-9,-20,33,5,-84,-8,-88,29,-30,49,28,-2,37,-68,-4,30,-3,3,-128,-5,17,-13,34,-8,53,28,-12,73,15,27,-14,37,15,42,7,49,-22,-54,14,-4,83,-6,34,-4,-19,20,39,-6,-17,18,33,38,-13,1,-26,-11,52,35,-70,9,-12,28,22,1,9,21,2,-81,3,-128,2,18,39,29,-54,-34,11,-47,-32,20,-34,14,34,21,-33,-10,-67,36,-54,-76,-38,-13,-13,-25,-48,-18,-10,59,-51,127,14,24,-37,52,44,11,-38,-14,0,23,-9,-67,-7,30,13,27,20,21,28,20,-25,59,22,75,55,-10,-60,-16},{68,-12,-26,-44,17,0,30,-3,35,-47,56,-40,23,24,26,-52,-35,2,123,36,-23,15,8,26,-1,-9,18,-49,-18,55,-25,-18,-13,33,-58,2,-31,87,21,-17,-26,24,21,-17,37,-23,-24,5,22,-25,-42,-96,-10,-39,39,-6,20,49,-35,0,-16,-27,26,-17,49,99,-49,-5,-6,-8,-42,-26,-26,-41,17,3,20,5,13,-20,-25,7,-49,-45,-20,-21,44,-6,6,21,-7,21,50,6,64,-6,7,-3,33,-46,49,-50,40,-3,-7,17,-35,-8,-20,-8,8,-1,17,9,10,30,16,-2,-74,-44,27,-7,-3,-18,57,-2,2,-29},{40,52,-60,22,28,-45,-8,70,53,-18,-27,31,-22,13,-18,-29,2,16,-69,11,-69,-1,-30,27,9,3,51,18,-16,-25,4,-10,22,5,-9,1,-10,5,-20,-34,2,-17,76,-20,42,18,-28,-29,-15,14,-52,71,-75,-5,-105,-44,9,-47,26,-54,-4,27,56,-4,-2,-24,41,26,-25,0,17,18,29,26,35,-21,-4,-43,-21,-45,-9,48,-7,-23,-9,8,14,-68,-1,24,11,-8,4,8,59,-43,-10,21,20,-8,18,15,9,-35,5,0,60,73,19,34,-10,-31,-3,-30,16,-51,-27,-38,-47,48,24,-27,-26,-40,35,42,54,3},{28,89,-72,-45,51,-100,93,104,51,-12,-13,38,-9,65,-69,-6,-55,37,107,-3,12,-30,-28,16,-37,-56,14,13,14,26,-48,27,0,-28,98,42,-13,19,-50,-3,-7,-45,52,-2,-31,8,-8,-74,-3,24,41,86,-7,55,-18,-3,-60,-8,25,-46,-15,45,-60,21,-29,12,30,106,-73,72,-20,0,37,46,46,-21,-12,80,-29,-30,3,2,16,-35,54,21,15,-106,-7,26,38,-7,-28,-100,26,-34,25,-39,4,22,-30,3,13,17,27,49,-4,40,31,53,-14,31,-26,-2,-3,-11,-20,5,-57,-41,-26,-62,27,14,89,-40,127,81},{35,66,4,-20,36,23,-8,36,-29,48,12,27,-56,8,-23,-68,-20,-54,-50,-23,-6,52,-14,45,16,16,-18,18,-1,23,8,0,-17,-34,57,22,-30,11,-27,-28,55,16,68,22,-15,21,115,-26,21,-36,-72,27,2,-31,9,63,23,16,52,-12,11,0,-26,-25,5,-33,59,-27,-20,16,-67,7,-7,-58,36,2,13,18,53,-3,-38,4,-60,-28,-36,-21,43,-4,75,-50,2,-19,24,25,-2,-58,16,-105,-67,-32,-7,52,-15,19,11,3,23,18,1,62,15,2,19,40,-14,-2,7,-14,-24,-11,4,-37,-38,51,-2,18,35,-3},{24,-7,19,21,12,41,10,-50,3,-27,26,10,25,-76,-7,-7,27,-41,-42,-38,9,100,-15,-19,-71,-1,-9,-42,-35,46,-25,-17,20,-79,46,77,58,-68,13,-30,-27,18,-18,5,-45,-8,93,38,10,14,61,-70,4,26,-11,-69,27,73,-8,7,-21,8,0,-14,-35,-18,8,-61,10,4,0,5,-33,65,4,12,-27,13,-11,19,-2,1,-37,-36,-11,14,-30,-35,18,-31,-73,20,-50,14,12,-18,-20,13,22,13,-48,-3,69,2,-2,22,5,-16,-31,6,-18,59,3,24,15,0,-38,20,-92,-40,0,-4,-11,-42,-47,46,-23,30},{-24,11,-6,12,-26,31,-52,-3,90,-15,32,8,-41,-15,27,27,15,4,127,22,-8,-46,8,16,55,8,39,81,50,-92,44,-44,25,28,29,23,-22,7,17,16,3,-5,16,15,-9,1,-4,50,-74,-30,85,45,9,6,-128,-15,-14,17,14,-51,3,-25,-26,-17,51,4,-12,25,-2,21,-10,13,7,-47,9,1,-47,-31,27,-53,10,12,1,22,-57,-15,32,3,-12,0,103,-9,-18,21,77,65,-23,22,-45,66,30,-38,-62,10,58,13,32,41,22,-10,-31,-64,36,-52,45,-22,62,-69,6,-39,-1,13,14,66,67,-3,-13,41},{18,0,-11,31,47,6,44,67,-29,-24,25,-17,-18,-55,14,83,22,27,-53,-16,-13,-12,-15,-4,61,8,-6,-42,17,-39,-10,-44,3,-9,-14,-19,31,-65,0,-29,26,-96,-6,-24,-44,2,-11,19,-33,24,20,-41,5,48,-6,-11,49,-74,-36,-40,-8,14,11,43,-54,-60,56,-19,46,-30,-9,4,-45,-25,-15,-97,45,-97,-11,-22,-49,25,48,38,-9,-36,-76,-3,23,-64,-6,6,-61,35,37,2,6,40,-10,74,-12,-1,47,10,57,68,8,54,-9,59,-20,-26,-25,3,47,-2,24,-78,-6,34,19,-6,20,0,22,-28,-18,-11},{59,-45,25,-15,55,-23,-21,45,51,-24,49,-75,-49,60,22,-10,-19,72,127,22,-24,-33,-1,-6,-79,-12,-31,-57,-25,-5,36,-4,-15,-29,60,-25,6,52,-36,9,-2,21,-49,-7,-30,6,-62,-27,-20,32,-103,-4,16,43,-13,62,-31,78,-59,-13,-20,-13,-38,-26,14,78,7,21,-4,62,-33,-36,7,104,23,6,76,6,24,13,21,-11,8,-14,6,-19,-15,9,-23,76,33,5,13,5,80,54,40,6,59,13,-98,-12,2,54,-66,56,-40,3,36,56,10,-35,26,29,-9,7,-65,-4,-9,-12,33,-6,-2,-96,-66,42,32,-27},{42,19,17,-15,41,17,88,-33,-20,23,45,-9,-53,34,16,17,-18,-19,65,11,-5,-95,3,-42,62,-49,51,39,10,32,-24,12,-6,-41,11,-49,-30,8,-1,-33,-19,-16,-22,-16,43,20,-117,22,11,-10,24,-111,12,-44,-76,-98,-37,-46,-71,-35,15,21,-30,-9,-6,20,-27,28,-45,23,-76,-4,-6,117,42,20,37,48,7,-45,-23,-14,48,64,-23,-37,13,1,36,58,43,-7,96,-33,-88,-33,4,-106,22,-24,-22,-18,-30,-33,-48,-40,17,2,-6,10,12,-77,-5,5,-10,-18,51,9,0,-2,-53,14,33,25,24,-19,-5,-19},{21,18,-26,-47,-16,-6,46,-15,-46,-14,2,1,24,-15,-18,-32,-45,-31,63,-16,-11,37,-30,8,-6,4,11,44,40,-22,-49,0,3,-13,-69,-25,1,23,-19,-6,70,-41,-14,36,-13,-128,-34,-12,-54,-45,-30,-3,-3,-25,40,60,7,34,41,6,41,-19,-3,-61,2,16,-50,-11,-26,-18,-50,4,2,44,23,8,7,77,19,7,-13,-10,-66,-19,41,-13,-19,-25,-108,12,4,29,-92,-32,25,51,-1,24,-13,70,5,-28,-20,30,31,-67,-5,-30,-20,7,-7,-94,-63,-30,-4,-17,57,1,46,9,62,-7,36,11,49,8,-17,2},{-31,27,127,14,-78,21,-52,-38,60,-17,-28,-10,-18,-54,-4,57,-49,49,-104,-19,4,-22,-4,-27,-14,-51,1,35,-5,33,26,-1,-25,2,55,-58,-49,-127,34,4,8,-47,-67,75,-60,-11,-65,4,3,-6,-17,-50,56,-5,-21,87,1,-5,-58,-26,39,-52,-12,-34,-71,48,114,-56,-8,20,28,5,31,-35,-72,-41,2,-18,1,44,-38,-39,14,-57,-79,2,-75,44,20,-80,3,-32,-43,34,-24,1,30,11,-51,36,-5,22,-60,68,19,22,-41,29,-20,-18,-28,-44,-15,51,-21,-7,-6,16,-22,54,64,71,-5,-49,-81,32,-101,-17},{16,11,-18,-14,5,2,56,18,26,-42,-27,-30,43,-96,-43,-11,-30,-8,73,38,47,35,-3,-13,-9,-63,32,-107,4,-25,7,-39,-4,29,15,37,-54,-29,-24,27,62,8,27,25,8,24,52,22,15,-34,50,-17,19,2,9,101,2,1,-42,19,-4,-19,11,-8,-66,-4,-24,30,-7,39,-32,-17,5,-3,-24,-16,-69,-58,-13,48,-35,-14,-34,-31,-18,-32,0,-25,-17,-22,-57,-9,-27,-22,-56,-10,15,-39,8,-128,-17,-29,19,-5,17,-12,36,-3,-28,-52,12,-92,-64,36,-27,-9,43,36,7,52,3,-32,-5,-88,-70,41,-38,10},{31,-35,14,9,76,53,11,22,79,127,15,-48,-5,-35,29,28,-9,63,-64,65,-50,-16,-7,-12,40,-24,33,-53,12,15,64,-14,6,-35,99,48,22,-109,4,-79,-41,-71,-20,20,-41,71,-24,48,-19,-2,25,-18,-69,24,-37,-13,-12,2,27,-53,-4,43,25,52,23,53,32,10,28,23,2,4,66,127,1,-61,14,72,16,18,-9,2,45,45,-49,-65,3,-77,-39,-12,-15,-27,-42,86,35,64,31,27,-62,-50,84,-6,28,46,14,-38,75,37,84,11,12,55,-8,0,54,-51,66,-74,16,63,9,11,19,-3,-42,-22,-2,82},{-2,31,1,7,-57,-15,-51,-23,-17,43,-14,5,-51,-13,-18,20,-5,65,-25,29,21,23,-15,-9,-5,-30,7,-25,0,-110,-29,8,-6,36,-38,-10,12,-7,-1,17,-21,4,13,-73,27,41,-61,-58,-68,27,-34,-25,36,7,-33,20,15,-48,-35,2,-6,36,17,25,27,-62,-45,-31,13,-68,-22,20,-2,-87,-53,-36,-14,-66,-29,53,-3,40,32,-11,-5,-8,4,1,36,28,-22,20,-8,26,-72,74,5,34,25,64,28,6,-30,-14,33,5,36,-69,5,14,-13,-6,-6,-21,13,26,-20,-116,-50,38,-50,11,25,14,-59,12,15,-25},{-6,-18,-3,21,95,28,-16,73,-46,4,-79,-32,47,-82,-11,-19,17,-64,-46,-47,-8,11,-31,-15,-11,26,37,24,-17,60,17,-47,-44,9,28,53,2,-40,-9,-1,-24,-33,34,-37,-4,-9,-3,45,32,-59,-25,-4,16,-2,-33,74,-1,-27,30,-12,27,45,-36,-5,-44,-79,33,-4,-1,1,-17,-14,-35,-15,15,-11,-7,-13,-53,-43,-2,-3,57,-39,-28,30,-39,-4,15,-48,-13,-59,30,49,57,28,-37,33,-71,-50,50,-27,-28,-6,34,46,-13,-1,-33,20,7,50,-101,22,-3,-35,-14,-19,66,31,20,-21,42,-16,-38,0,-28,-68},{-11,-30,3,49,111,-11,38,-11,63,-4,-15,-51,19,-55,30,15,15,39,-25,-34,-15,-1,17,-50,-11,-36,-37,-2,-9,-21,38,53,2,-93,-36,2,13,50,-36,-8,10,-38,-35,19,32,-11,-65,6,10,57,57,8,6,-10,-86,58,38,-14,-82,-13,-19,-2,20,-12,-23,-2,41,-26,6,11,-18,28,-9,83,40,-29,29,31,-30,29,38,14,52,-23,32,-3,81,-41,-4,-33,-6,10,33,-18,49,-29,19,78,-75,29,-24,7,-3,70,5,48,14,14,22,13,-2,-12,10,-1,30,-26,-25,74,23,24,-44,62,41,-7,-14,-74,-22,39},{11,12,-13,-32,13,-2,-20,-16,2,-40,1,-28,2,-39,2,20,-46,57,76,25,-11,-24,2,-21,-1,-69,-20,-2,-11,8,23,-47,23,-37,-20,-6,-73,43,-26,38,-34,51,-14,41,9,-53,-15,10,35,-31,-33,-60,18,94,31,5,20,35,-43,13,-15,-16,-16,-5,-23,84,47,-29,-35,-24,-62,-20,24,39,-9,47,57,13,-29,-35,-50,-31,8,-99,16,17,48,2,-15,14,50,-11,37,-80,-9,6,14,-25,-21,-84,26,-46,-38,-62,-91,-13,-38,-55,-6,7,19,-54,-49,-37,-25,35,-13,-14,-9,-84,-2,-1,-5,-26,-35,40,-66,-42},{10,3,-12,12,5,-18,46,43,-88,-32,20,-1,9,39,-2,9,-29,-47,70,-76,-30,-13,0,-23,0,-22,-50,55,56,-47,-34,18,5,-50,51,-2,23,18,-7,-44,-17,-45,-22,7,-31,-6,-43,3,-26,41,15,35,-36,22,-2,26,-11,-26,-51,4,19,-11,-17,-21,-4,21,-5,-13,6,-13,4,25,-19,-71,22,-17,-43,52,-17,-9,0,-9,-13,5,44,24,16,-24,-1,-21,51,35,0,-35,-41,-60,40,-74,-61,-35,-83,6,-14,72,-23,-57,3,97,13,19,7,5,10,-18,36,-20,-84,29,-55,-49,12,-10,-8,-24,11,-21,20,25},{-35,1,16,-16,36,-24,50,-24,-128,-12,-87,-10,-31,-32,-18,-32,-62,-9,34,-43,12,36,41,-72,23,-7,-59,-8,38,-32,-6,24,11,-75,5,44,112,31,-60,42,-10,-34,73,30,45,23,10,20,90,26,20,47,-49,-58,-64,47,-12,-87,-19,-4,-73,-111,-9,0,-31,6,100,-42,-9,-56,38,25,-13,45,13,38,12,66,-23,-13,-4,5,-63,19,-22,9,53,6,21,6,2,35,101,18,-68,-29,39,14,4,-4,-10,14,-23,103,12,-98,-39,124,21,-19,-59,-16,-47,30,34,-19,-45,86,-33,62,-21,46,9,-32,31,-24,-36,0},{62,-11,26,-7,19,36,1,-29,24,9,28,-43,-77,-121,-6,15,2,61,-28,19,49,13,-18,19,39,-24,-5,-22,18,-59,26,-49,6,41,-83,31,-43,11,-11,14,37,-17,1,-39,28,26,22,36,-87,-80,42,20,11,-29,-13,-6,6,-9,-7,-10,-23,25,-10,21,11,49,-5,-58,8,-44,-15,-31,1,18,-55,-27,-32,18,35,17,-24,-21,-22,-30,-41,-43,29,9,-35,14,-66,-5,23,-13,-30,17,-6,-18,-23,20,61,-3,26,9,1,-87,-13,-22,0,1,-22,-27,-43,30,-1,14,54,24,6,26,44,-7,-84,42,-22,24,-45,17},{56,8,-33,-27,64,29,-37,-7,-32,6,-7,-4,-7,-78,6,-5,-6,-16,-40,8,-10,-15,26,-56,12,-38,29,-29,-18,32,38,24,-33,1,8,-28,-11,-97,-22,56,5,17,-2,-62,-15,27,7,-38,-32,26,-17,-24,12,71,-18,0,37,-44,-43,-7,-12,26,44,-35,48,-6,50,19,12,44,36,14,38,95,20,21,10,-43,4,65,-86,49,6,-29,20,-34,-52,10,-2,-17,-50,-34,37,0,-42,7,27,-18,15,-94,78,6,-4,62,-50,54,-33,32,3,72,-39,19,-67,-5,-22,14,-34,29,13,6,-28,24,24,23,-35,-29,-13,-12},{52,-19,-104,17,5,36,2,-1,57,1,-22,6,-34,8,18,-28,15,-36,127,-45,-13,-9,35,-44,-56,48,10,-25,12,27,-23,43,22,2,-22,-82,16,-12,48,-7,-10,-5,8,48,-84,11,-24,28,-2,35,-86,18,3,64,-1,-22,-12,-37,11,-13,1,8,20,28,14,24,25,35,8,73,6,-14,-20,99,-10,-33,8,1,-57,-22,-24,17,41,-28,2,-24,48,2,-11,46,47,-4,-29,-2,-44,-16,24,-21,19,-126,-24,46,32,12,-9,24,-3,-49,-18,31,-45,37,35,5,18,-24,11,-45,-42,20,12,-40,-24,-62,-33,-50,-47,-6},{-16,-114,69,15,-2,10,-32,-2,17,63,-33,-18,65,-27,-4,-17,-21,40,-31,-22,-5,-8,7,-98,13,-38,-37,11,21,-24,25,23,-31,-20,19,18,-1,-9,-28,39,36,9,7,-6,51,20,6,-11,17,46,-61,5,-41,-3,65,-54,12,14,-5,-3,13,54,-39,14,19,-22,-36,44,22,-50,1,4,60,-43,-13,32,-44,64,15,30,30,56,15,48,-17,-79,-18,-9,58,4,-4,-1,81,68,-10,-40,-7,80,-56,-47,87,5,-28,-36,-53,-65,6,22,31,-46,-5,28,7,10,27,8,61,0,61,-18,15,45,42,7,9,-19,55,25},{-28,47,43,-8,-84,3,39,-26,47,-45,-3,26,15,32,-46,14,17,-25,64,-22,-36,-46,-6,-28,12,-5,20,65,-11,69,-39,-15,-18,-12,127,33,-6,6,7,-13,-23,5,-1,-26,59,-2,-30,-15,54,15,22,5,25,62,-25,43,-24,-11,15,-16,-17,-24,35,-17,8,-19,38,-24,22,37,-17,-4,42,-41,25,10,-9,88,-9,-57,34,5,20,39,-61,16,-22,23,-48,-82,10,-11,7,-36,-74,-41,6,-40,1,127,-33,23,-13,-59,59,27,-18,33,-12,12,-24,-6,-23,-21,16,-33,-43,19,15,-40,-29,-50,11,-25,8,-5,-19,44},{-33,-22,-52,2,42,5,25,62,58,22,53,-25,19,-33,-1,-3,-39,51,23,61,-14,-56,-30,-6,49,17,35,77,2,83,-1,-60,-10,-3,89,-4,-18,46,-5,23,41,10,-26,12,-1,39,-36,-40,39,7,97,14,3,81,-15,-55,4,-1,3,-24,35,3,-10,26,20,20,-20,-12,20,41,36,8,37,51,24,30,-2,24,-37,-16,-15,-53,34,64,-25,-16,-5,15,-44,-28,46,-60,42,-19,6,67,25,15,-64,51,42,-30,-70,25,-3,2,-17,58,42,-11,23,-18,-10,14,-3,2,83,12,19,-8,44,-7,34,-21,-21,-41,-7,29},{69,32,74,-33,-43,24,6,49,-40,-3,45,-40,-40,-24,-31,-28,15,-29,65,28,63,-16,-24,31,5,-12,13,47,-28,-26,-22,0,-14,8,-75,14,-45,32,2,4,12,-12,3,-38,29,17,16,-50,6,-11,-2,-45,-10,-73,-11,-69,17,-19,33,10,-8,1,6,26,17,30,-31,-5,-4,47,15,-52,38,-53,3,-52,30,54,7,-13,-14,-50,8,-8,-77,-26,-19,28,3,49,-72,-14,-5,-21,-6,23,0,-20,27,8,-20,2,-33,-42,-19,61,17,12,-1,15,41,6,6,3,13,15,31,2,-17,45,35,-92,-51,27,15,19,35,27},{-37,50,45,52,-9,26,-53,14,57,16,-33,-41,34,-23,1,33,30,11,70,-1,12,-53,53,-28,31,-37,-21,4,21,-115,-23,26,-6,-50,20,5,28,33,59,37,-14,-2,57,-3,-14,9,39,30,-40,33,16,-17,-23,-48,-31,-68,10,-26,-73,-61,-54,14,-18,1,5,7,-19,-19,-16,-30,-12,6,29,-59,-2,30,7,-8,-44,43,-67,42,44,-27,41,-28,59,45,14,23,46,-11,54,-8,22,34,16,31,-6,37,11,19,17,-63,-10,91,-78,-14,1,-3,29,-13,-38,11,40,-15,20,-17,50,26,-11,71,22,15,30,-18,22,-34},{-36,13,-41,-3,24,-34,47,64,14,-16,15,27,59,5,-37,29,-15,-9,-128,28,-28,-55,56,-8,11,15,20,62,21,-49,12,16,14,28,68,25,14,13,-4,41,-7,-18,21,-23,13,-24,-43,-52,9,-20,2,40,7,-23,18,-6,-52,-86,-10,-101,-15,-28,-64,-6,-31,0,12,58,-14,-7,5,25,0,101,51,48,-10,38,3,-19,2,-6,31,-19,-78,32,31,13,15,-75,-28,-31,-5,-48,-87,7,-39,-62,-40,54,-2,16,-53,-88,36,19,-45,30,7,45,32,42,-23,-3,19,-57,-10,36,59,-20,-49,30,-6,26,40,-21,58,47},{19,-11,40,-6,-25,8,58,-23,-62,101,1,-34,-15,-27,5,28,40,29,-67,18,-48,-1,-9,28,15,26,-61,9,12,8,22,-9,20,-19,-83,-41,-23,-33,4,-53,-37,-86,-3,-27,-93,-6,-78,-11,-36,-6,76,-44,-11,10,-43,85,10,9,-41,-91,4,45,-13,2,-19,-10,39,-56,18,21,32,10,63,-5,22,-36,45,6,-39,-44,-26,-9,26,27,-16,-12,11,12,-64,-7,-29,-2,-8,1,-25,25,13,59,-18,-10,40,-14,-3,-13,48,-27,14,-57,5,-32,-16,26,-16,-4,6,-12,99,40,50,30,12,-16,4,13,-7,-69,9,19},{-35,-9,35,-30,-50,15,-29,20,18,-19,19,-35,-35,-6,13,77,-2,98,-35,-64,32,-36,22,9,20,-30,44,12,-55,58,59,44,20,13,26,-5,-58,1,-30,-44,7,3,38,-34,48,61,1,8,-6,48,90,-76,11,25,-27,85,13,-68,-6,-19,31,34,9,-11,6,-51,74,-40,-1,-9,-22,-35,-3,-85,25,-15,27,43,-10,47,9,13,76,-11,-36,25,12,55,-47,-25,6,-27,-27,72,-58,-65,-34,6,-5,-26,0,-17,28,-10,-13,25,-24,-28,-8,31,2,-7,-60,17,-46,12,20,12,-16,13,-10,-20,2,35,-94,38,93,14},{-24,-26,41,-21,17,-2,-67,27,4,32,-30,-33,28,-25,-22,-33,-43,-36,42,-13,31,18,-22,-29,-44,33,8,-2,0,110,23,-33,13,0,58,-1,-47,1,-55,-8,73,27,-33,42,-16,49,55,26,87,-73,18,37,-13,110,24,86,-21,-9,-29,33,19,-25,-20,-23,38,-76,-4,-1,6,10,-38,4,16,-27,22,-32,49,67,-18,19,-49,-76,36,-17,37,15,-27,-1,-11,-18,-48,-7,8,-8,-34,50,-24,42,-55,0,45,-25,5,50,-29,53,11,-22,33,-27,-1,-36,-65,37,-18,-15,53,17,-11,-7,26,2,20,-31,-12,13,-23,-12},{43,38,8,-2,-45,-31,14,-7,-9,-67,-17,-44,20,4,-29,-55,35,-1,-43,25,15,20,-1,-24,-25,-26,6,13,-7,0,-66,19,6,-3,-23,-11,26,-14,6,17,-25,13,-36,-34,42,13,-7,6,45,53,22,-78,22,-12,29,0,-4,24,27,12,-55,-58,-20,-40,33,73,8,-13,-33,-5,64,-9,-29,-78,-24,18,-56,88,-9,46,17,24,-6,-15,-19,-3,-6,0,-87,38,-49,53,20,-41,-77,7,23,-83,-7,85,-21,8,-28,-42,-28,44,-12,1,3,-11,-14,-30,3,-21,26,-17,64,-37,-9,-83,-16,-54,-12,-49,2,-8,31,6},{33,-4,84,3,21,3,-8,-65,-42,-28,47,-56,19,9,-19,13,1,15,-57,28,31,-23,4,-41,19,-2,4,8,8,-80,1,-39,2,24,-122,6,32,-31,-18,-37,-8,-30,-8,-43,-7,-22,89,27,-82,32,-29,-29,-17,-63,53,-17,48,30,-10,7,30,18,-34,9,44,35,21,28,31,-23,26,10,44,-6,-53,35,-44,-22,4,23,4,-16,-5,42,7,-32,-55,-45,26,27,-60,-6,-16,34,18,43,54,15,26,79,-18,-14,-67,-43,-1,-26,-11,30,40,32,-24,-70,23,3,8,2,-23,-8,-47,6,-12,29,31,5,-26,40,54,20},{-30,-2,38,27,3,48,-58,-18,1,57,-6,22,-15,-61,0,21,46,-6,-11,-34,-53,-18,15,-1,13,-15,17,-10,13,-22,-1,-24,-15,-50,46,20,36,5,14,22,-12,-54,-18,2,19,31,73,-23,-42,35,37,4,-1,-89,9,45,7,-19,7,-19,-21,13,50,11,-26,-43,7,48,19,13,-12,28,22,59,-9,19,-18,-9,-52,6,2,-39,45,-10,34,-17,67,-45,-22,27,10,8,4,12,9,-2,10,-5,31,94,59,18,19,-20,64,-9,37,-70,-16,-24,-21,-12,-22,-24,36,-9,-33,9,40,81,30,11,28,38,-7,-12,70,-23},{-8,-6,22,15,-25,19,-11,16,9,-84,-23,39,-4,-35,35,34,-25,12,47,64,57,-5,-31,-11,29,-42,24,21,34,53,21,-11,50,37,-17,37,74,-22,-22,39,62,-28,96,2,29,40,124,-26,17,-22,59,13,9,-52,21,-5,16,-7,19,-2,-19,11,14,7,14,-72,5,33,14,25,35,33,6,103,40,26,-22,-66,11,38,25,24,-18,62,-9,17,16,16,-3,-24,-9,-2,65,21,-123,50,13,87,12,62,-32,-60,-31,-27,58,22,58,32,23,15,-23,-128,52,-22,16,-15,24,7,1,37,23,81,-1,41,-1,34,68,37},{30,1,-6,-24,78,9,-17,17,-128,-80,-6,9,-15,-100,-24,3,-42,56,-101,-44,-26,-14,22,22,-70,-59,-91,4,18,-49,10,13,-17,-21,54,-5,2,31,-41,-37,39,19,-56,33,41,-9,-11,-3,4,6,-4,-50,30,-45,30,56,3,1,-49,7,-3,-30,85,-14,39,-30,4,3,-27,-19,-14,10,-39,-12,32,-5,41,-31,61,9,-38,-6,23,-30,-22,2,22,-8,-40,-36,-23,3,-42,-79,5,-65,60,5,6,107,-39,51,13,44,-36,63,-15,65,-41,52,21,-24,50,24,-20,-19,-18,19,-4,-55,-21,-28,43,-3,3,-59,-33,3},{1,26,11,-14,-34,-26,12,-29,22,-40,-3,25,113,-5,-47,2,-73,33,-119,-13,-27,26,17,1,-5,-39,15,-47,23,28,-24,-35,4,17,34,42,41,-53,3,21,-48,11,-7,-20,-19,-24,55,-41,20,-27,-15,-59,6,-6,-61,-20,15,39,-2,-13,13,-32,-87,-43,24,60,-55,15,-11,-22,-27,27,-17,-73,13,-9,-72,-32,-18,18,-46,27,-49,-69,-7,8,-10,54,-29,-10,1,18,15,-98,6,36,26,-40,-3,-99,-22,-31,46,-26,-3,-9,-91,-32,-41,31,2,-96,-32,23,14,1,-50,-36,-31,-74,12,25,43,-86,-88,8,32,-58},{31,4,-38,-28,76,-24,51,4,-28,48,-7,-15,-55,22,-3,27,5,-102,127,-29,43,7,4,-37,-35,-39,-11,-16,-76,1,29,-6,13,-2,10,34,-49,-29,0,-14,29,20,-27,-35,-12,-41,28,-13,20,58,-21,-1,-24,43,-42,10,25,13,64,1,-46,-5,10,13,53,-49,25,-25,-10,26,23,-37,-9,127,-35,-9,11,-102,52,63,-31,-15,23,-52,-11,36,-86,-62,-74,49,-11,-6,23,6,2,-25,-48,-29,9,64,60,27,7,-25,3,45,-20,35,-53,71,-34,15,-47,2,0,-5,17,11,-43,34,-3,-62,-50,27,19,-13,