//2023-07-18 18:34:39.824018
#ifndef GESTURE_CONV1D_PARAMS_H
#define GESTURE_CONV1D_PARAMS_H

#include <stdint.h>
#include <stdbool.h>

struct Conv1d_Params {
	int input_width;
	int in_channels;
	int out_channels;
	int kernel_size;
	int stride_size;
	int padding_front;
	int padding_back;
	int output_width;
	double out_scale;
	double s1;
	double s2;
	double sb;
	double s4;
	int z1;
	int z2;
	int zb;
	int z4;
	};
struct Dense_Params {
	//I=BATCH_SIZE;
	int K;
	int J;
	double out_scale;
	double s1;
	double s2;
	double sb;
	double s3;
	int z1;
	int z2;
	int zb;
	int z3;
	};
static const elem_t QConv_BN1[3][3][32]=
{{{0,20,41,17,43,-14,70,-15,20,2,-8,46,-119,-10,-4,51,6,-64,68,45,35,-6,-6,90,-30,-23,23,70,-88,32,7,43},{22,19,-81,-25,25,-5,-8,-52,41,-4,1,27,-128,47,33,48,13,17,-44,38,1,49,5,-77,47,2,10,-79,-81,57,27,-5},{-31,13,-27,-28,-25,-12,5,-35,28,30,28,-25,79,-33,-89,70,12,-6,-94,-36,-10,-12,-4,18,1,34,-28,-71,-29,-15,16,9}},{{24,-2,25,3,-3,-20,65,2,52,29,4,18,-33,-36,-56,-61,-7,-36,24,21,23,-19,-24,-61,0,13,26,-49,-41,-45,-5,-36},{28,3,-8,-3,5,15,-60,56,30,14,-3,22,-101,16,-55,-21,15,-36,18,17,-16,21,25,-58,-15,-17,31,-38,30,41,29,14},{-24,27,1,-4,6,-7,74,16,-7,24,27,-33,-82,19,-27,-53,1,9,-15,-29,10,-19,-11,26,-14,8,-27,43,43,14,9,21}},{{15,22,7,27,38,-71,-61,0,-40,42,10,-19,127,37,32,14,6,-49,-100,29,17,7,-58,-95,55,-22,-34,7,53,-21,17,-68},{20,0,52,-14,-6,3,58,-83,-76,-23,1,19,127,-4,25,-12,13,-11,54,-36,-49,-1,-13,108,14,5,31,73,29,-48,-17,-81},{-22,8,0,-8,-28,1,-86,29,-55,-7,28,-15,-3,9,94,-71,13,12,90,12,-15,-38,-22,-5,-9,39,20,53,20,-47,3,-5}}};
static const elem_t QConv_BN_flatten_1[9][32]=
{{1,21,42,18,44,-13,71,-14,21,3,-7,47,-118,-9,-3,52,7,-63,69,46,36,-5,-5,91,-29,-22,24,71,-87,33,8,44},{23,20,-80,-24,26,-4,-7,-51,42,-3,2,28,-127,48,34,49,14,18,-43,39,2,50,6,-76,48,3,11,-78,-80,58,28,-4},{-30,14,-26,-27,-24,-11,6,-34,29,31,29,-24,80,-32,-88,71,13,-5,-93,-35,-9,-11,-3,19,2,35,-27,-70,-28,-14,17,10},{25,-1,26,4,-2,-19,66,3,53,30,5,19,-32,-35,-55,-60,-6,-35,25,22,24,-18,-23,-60,1,14,27,-48,-40,-44,-4,-35},{29,4,-7,-2,6,16,-59,57,31,15,-2,23,-100,17,-54,-20,16,-35,19,18,-15,22,26,-57,-14,-16,32,-37,31,42,30,15},{-23,28,2,-3,7,-6,75,17,-6,25,28,-32,-81,20,-26,-52,2,10,-14,-28,11,-18,-10,27,-13,9,-26,44,44,15,10,22},{16,23,8,28,39,-70,-60,1,-39,43,11,-18,127,38,33,15,7,-48,-99,30,18,8,-57,-94,56,-21,-33,8,54,-20,18,-67},{21,1,53,-13,-5,4,59,-82,-75,-22,2,20,127,-3,26,-11,14,-10,55,-35,-48,0,-12,109,15,6,32,74,30,-47,-16,-80},{-21,9,1,-7,-27,2,-85,30,-54,-6,29,-14,-2,10,95,-70,14,13,91,13,-14,-37,-21,-4,-8,40,21,54,21,-46,4,-4}};
static const acc_t QConv_BN_bias1[32] = 
{1714,-10934,2366,5757,-242,7452,-2849,3801,2106,-9499,-11846,1193,3931,-4023,4583,4844,-8587,8495,1454,-242,1975,3801,8625,1584,-1545,-7543,-1415,-502,1975,2888,-9499,5105};
const struct Conv1d_Params QConv_BN1_params = {.input_width=100, .in_channels=3,.out_channels = 32,.kernel_size =3,.stride_size=1,.padding_front= 1,.padding_back= 1,.output_width=100,.out_scale=0.006313260426381719,.s1=0.002764708558028062,.z1=-87,.s2=0.07145039614509137,.z2=-1,.sb=0.025757555376306362,.zb=10,.s4=0.03128962031589183,.z4=10};
static const elem_t QConv_BN2[3][32][64]=
{{{37,49,73,-17,-32,12,11,55,30,-58,-33,13,-57,-3,-28,-42,27,25,25,32,-3,34,-21,17,17,51,21,40,-52,-40,46,9,-23,19,-64,34,-11,4,17,11,5,69,-50,-8,62,64,16,-72,14,-53,40,-9,74,-14,49,-9,-72,-3,-71,53,-50,-5,-23,26},{27,0,65,-5,-34,53,10,-23,20,-114,60,-2,-21,69,66,36,69,-13,-63,38,-38,-4,38,88,2,-7,93,-83,-113,-90,62,46,19,-32,35,-30,35,-19,36,-26,77,-5,-46,68,-10,56,41,-11,70,5,2,5,11,-93,43,3,-60,26,96,55,-44,41,-32,29},{-15,-21,76,-40,-98,-24,-8,46,-15,-4,78,-15,-3,95,4,-23,-59,26,-26,26,-9,-64,16,127,-3,-37,-113,-65,66,111,-102,-24,-16,-44,-58,7,4,-45,33,37,70,4,9,-7,-128,-31,-25,14,16,-31,-12,11,44,-15,-128,-31,-110,-21,28,77,-36,-13,35,6},{20,12,77,19,56,52,15,19,-52,-100,-43,-17,-25,26,29,-35,-57,-17,-38,46,25,-47,21,76,9,-4,89,-2,-3,127,-85,-24,3,-104,3,67,11,17,20,-4,28,-28,84,-20,-26,25,-12,6,-17,42,10,-4,-44,-44,-76,-41,-23,5,40,-88,17,46,-2,17},{22,31,-24,-84,44,3,43,21,13,-10,-54,3,68,93,13,-31,40,23,46,-36,5,-23,-30,9,-16,-1,-4,0,-95,43,45,-45,27,53,-23,-19,-29,-33,11,22,-23,38,-55,73,-22,25,17,-15,-2,-18,2,-3,-128,-26,-33,30,6,-31,3,-38,13,44,10,-24},{1,-13,-5,18,97,-7,-1,-55,54,-45,25,4,-53,-128,4,1,43,-13,-68,2,20,60,-6,-61,-43,60,13,41,40,-60,23,-59,-17,-58,30,63,-37,-28,0,-12,-4,6,-27,-23,46,-8,30,23,9,44,-4,15,34,23,3,0,9,24,25,36,-42,41,-30,-45},{7,-78,-6,-61,2,-14,-12,-9,28,82,59,-39,9,23,9,52,-101,42,-33,-50,-23,-3,16,-84,-1,58,-101,-59,-70,-21,39,-79,-62,38,8,-56,10,-5,-39,2,-15,-7,56,-2,-5,-43,32,17,69,-8,3,-4,61,21,16,-26,71,15,-15,79,-17,38,-31,-74},{14,12,127,19,127,22,94,-36,-49,1,69,-2,-47,127,66,-47,-128,11,53,3,31,-4,15,76,-24,-28,14,-33,1,86,-87,3,55,127,-7,81,19,-16,55,6,86,32,62,4,-10,-1,24,-17,98,-62,108,18,-27,-112,-7,-50,-128,11,32,-56,-65,-8,14,23},{1,58,22,-10,-75,97,4,1,65,94,-17,-24,86,-83,-33,22,-128,4,-40,-127,11,17,33,-82,25,-16,115,2,-6,32,105,-10,-27,49,-2,-41,32,-25,0,37,-26,-25,-22,48,9,42,-7,16,-73,26,38,19,19,-70,29,19,127,-21,11,-128,21,-28,-9,52},{-12,-33,28,-47,-44,9,106,-10,80,-29,-12,-11,68,-39,3,63,27,48,-36,26,4,13,-55,29,23,-18,36,-57,-41,-101,64,15,17,22,26,-98,42,22,27,20,50,-7,-44,51,90,16,47,-22,70,40,4,4,113,-97,10,9,61,-59,17,-10,-42,44,-29,-42},{-41,4,-34,-31,13,53,74,-20,12,127,30,-58,26,-77,-9,-6,-26,21,61,-63,41,-34,14,-10,28,80,-13,-36,-51,-64,-25,54,30,111,5,21,35,-93,37,44,73,0,-68,-4,-40,2,28,-61,-77,66,32,38,-76,-50,17,9,29,76,-75,-66,38,-8,-9,22},{24,40,9,-45,-115,-49,81,37,-9,-104,-70,-3,-44,127,-44,-3,-14,-18,1,-35,-18,9,41,-81,-13,60,-6,23,-37,-97,60,-32,43,-60,-47,-21,25,-16,53,-30,49,13,-31,-26,90,-12,-2,-75,-53,27,44,-4,5,10,20,0,57,-6,0,-128,-25,-24,-35,2},{28,-18,66,2,127,16,-40,-12,-84,-128,83,-4,-128,127,79,8,-38,20,97,43,42,29,-34,127,-44,37,-18,19,-42,79,-48,90,23,-76,65,56,-17,2,13,0,82,5,-7,-40,-128,3,28,48,127,15,53,24,-128,13,30,-30,-128,8,65,89,-49,30,32,9},{-46,-63,40,-22,45,8,-47,-85,-126,56,42,-6,13,-35,-7,-82,-46,-55,-5,37,-49,8,6,29,8,-8,15,-43,32,-37,-45,-32,3,39,1,48,19,-84,-39,41,-58,23,-9,-47,27,24,-27,34,54,-6,-1,-4,-128,-2,42,3,-76,60,-10,88,8,-3,35,-27},{-42,11,40,27,53,-76,-24,0,44,-100,-39,-40,-128,40,23,8,-22,-62,-12,-83,-6,5,-5,-31,-25,56,-69,40,-26,-26,-118,-28,-65,127,24,127,-17,9,-3,-16,51,21,-46,7,127,-19,16,-1,6,-58,-27,29,117,26,-23,16,7,14,18,80,-36,22,20,1},{-28,-9,16,29,115,127,55,37,55,86,6,-23,68,91,-7,12,-128,38,18,-97,-25,-26,87,-77,43,-24,91,24,-19,127,52,-22,12,46,-10,58,-11,-19,12,16,47,-17,-72,2,-29,33,7,46,1,69,5,14,-81,56,-42,35,-25,66,-5,-92,23,-8,-29,49},{-40,8,-16,6,83,-50,-1,7,-92,12,38,-31,-66,26,15,-50,26,-52,36,20,-21,10,12,32,20,28,34,2,13,-36,-20,39,0,93,-13,94,16,2,-44,32,-35,-47,64,-68,-64,40,0,-36,16,-2,23,0,58,-21,-23,-18,1,54,26,10,24,5,-1,-7},{-6,-40,26,-52,127,-22,-5,-24,-2,-3,3,-6,-28,-128,22,17,93,-14,88,-128,-3,40,-9,21,-18,-4,40,-1,-64,-73,-13,-58,-28,68,82,100,-26,16,-8,-26,52,35,19,-11,-58,-36,3,-46,58,72,38,-15,41,-24,37,-25,-128,15,122,127,-28,19,-44,-86},{-52,38,-51,19,-128,37,-16,18,-73,109,-35,21,-24,-62,1,-35,-47,-70,13,16,49,-11,-54,-14,-73,-51,18,-21,11,-64,-25,-20,-1,-69,35,-39,-2,-29,-50,15,-2,12,-22,-33,114,16,3,-3,-47,14,9,-10,-66,-4,51,10,13,-4,-22,-128,-8,11,0,13},{43,10,-35,-48,59,0,20,80,8,47,-45,2,-43,-128,3,-53,100,12,44,-102,-41,-4,-14,8,-41,37,12,-17,-73,60,62,9,-8,-70,-64,25,-28,-47,-18,-5,32,10,-54,34,-16,-31,22,-32,-64,-13,7,-27,-128,-50,49,6,-47,-31,-28,-128,-29,9,6,9},{-44,80,24,29,76,-10,-3,3,38,26,-46,-1,-53,-33,55,-3,-31,-18,-55,64,-1,-60,-41,81,4,12,-10,5,-53,-31,-48,-2,-34,-128,13,22,-9,-41,17,47,15,16,17,48,-122,12,35,10,-30,-13,18,-11,-21,5,-95,-55,10,9,69,127,22,14,-19,63},{-9,39,-25,-16,127,30,36,43,-67,-30,-23,1,25,21,34,10,-30,2,27,-78,-9,25,-19,30,22,19,73,19,-95,46,29,48,40,52,15,11,10,35,-38,14,21,37,34,30,11,48,-8,22,11,-10,38,33,70,-27,-79,45,-29,-26,-39,-5,-45,13,19,23},{-37,-60,16,50,127,81,-12,-33,-5,-72,-37,13,-26,-128,-8,48,39,-18,-52,16,-8,41,-12,-13,-3,-21,20,43,-8,-38,28,30,6,81,7,49,9,-19,27,46,72,-16,35,-12,-42,32,12,10,99,-19,-59,-15,-13,-6,30,-12,-93,-21,3,53,32,13,-20,-20},{30,8,48,-2,51,-59,-32,38,-83,-122,-80,10,-23,89,-30,-74,37,-15,38,63,-33,-1,-4,65,-4,-120,54,-55,-3,-5,-9,13,-44,-128,-9,-41,-26,-9,-29,-35,-57,22,-128,35,-128,50,19,5,127,-3,14,-25,-127,-4,46,-13,78,-9,-36,-27,2,-59,14,-16},{19,21,31,-33,-31,50,-6,-14,-75,-34,25,-29,18,-38,67,-39,41,38,14,77,-40,-18,4,47,-4,27,24,7,-39,93,27,50,42,48,0,-40,26,-10,12,-26,1,-20,45,40,-64,37,-10,40,23,11,-13,7,97,-34,-14,24,-30,1,74,51,29,6,3,49},{-55,49,22,37,127,-17,17,6,-95,-71,-4,-74,76,12,-4,18,-46,-37,9,-22,-23,-50,-5,-62,-26,50,4,-21,-45,9,9,29,28,70,8,62,8,-67,-108,41,-13,28,83,0,127,16,12,-24,-53,-20,-8,22,117,5,-15,12,-102,33,-66,62,-28,-14,-20,-34},{9,24,36,51,-128,-21,-34,-15,-8,89,6,-13,-51,127,6,-6,-86,-32,-19,3,-46,-4,-32,-13,16,56,55,3,12,85,-79,35,-22,-90,5,-49,-6,-62,-49,15,5,6,69,-6,-83,3,-7,-16,110,-2,-2,14,-86,-22,19,-15,76,43,72,-33,24,24,22,7},{6,-36,23,-35,95,-53,44,-52,16,100,-15,18,-77,-22,-18,-45,-18,54,-57,72,-3,1,-118,118,11,-117,47,-72,-54,82,-23,10,-67,-11,-22,-88,-1,25,21,24,-99,73,50,-32,-128,-49,21,48,96,-30,-35,-28,-26,-114,-90,-66,-66,9,-48,-46,-72,-3,3,-54},{12,37,8,8,127,22,9,-26,0,12,-76,13,-63,-128,10,-60,97,-6,64,-46,-5,-4,6,-77,-82,-66,-1,27,82,-111,-21,30,-33,60,-4,117,-21,-5,-38,-10,-115,44,-128,60,-128,-16,46,-35,5,78,12,12,-43,65,8,5,-76,-42,26,127,-27,-3,-30,-82},{-26,28,-57,19,101,-36,12,18,-26,63,16,-25,107,-79,26,46,14,24,-46,-4,-59,38,-32,13,6,-31,-36,-38,-51,-12,112,-43,-22,106,-31,-111,-56,1,-17,70,-123,-33,-80,33,127,-8,-3,-7,54,-68,-11,27,-104,-66,-44,5,40,31,30,37,26,-12,8,3},{-30,34,46,-48,-128,-2,-27,11,-48,-49,55,-46,40,127,-8,-50,-11,-27,11,88,-13,7,12,70,26,8,-28,-91,-81,23,16,7,68,9,-15,51,34,-19,-5,41,57,32,104,-38,76,6,-5,25,25,-89,-16,35,51,-71,40,26,52,86,40,-86,24,-13,-17,44},{7,46,42,38,-8,55,55,-12,8,-15,42,11,3,6,55,4,8,31,73,34,-12,28,-52,84,10,-95,38,23,-123,37,58,77,-8,-89,-27,53,-12,7,37,-44,37,14,-8,61,-41,16,15,-2,32,-102,57,-3,-60,-4,53,-18,-117,60,73,-41,-47,-84,-24,42}},{{-18,65,11,-33,-52,-6,93,15,-21,14,-54,-22,46,7,5,13,26,-41,39,55,-32,29,-8,-101,-21,-37,39,28,3,-83,-15,-13,-5,-80,-45,-50,3,5,-25,-25,0,38,-68,9,-29,-1,-6,-100,16,23,14,14,37,59,7,-14,48,49,-66,13,9,-28,21,35},{39,66,24,-27,-11,-30,18,0,26,-98,14,-33,-80,109,15,-12,75,21,-69,77,-7,3,-28,50,0,-10,76,-51,-93,-114,42,48,47,64,31,-55,14,23,17,27,69,25,-83,-4,-35,-12,-6,-15,74,65,18,-8,37,-13,35,6,75,-1,87,-7,-84,80,24,66},{-8,51,18,21,-96,-12,-72,16,-40,-46,-34,17,-70,102,27,-24,-73,17,-60,33,10,8,-41,-18,3,84,-95,-51,7,119,-90,-3,-23,28,-34,58,19,-29,8,22,1,-9,4,49,-6,1,-14,-28,44,27,14,-15,3,47,-101,-60,-21,-36,27,20,9,42,13,44},{10,42,23,-32,79,-1,-34,13,-82,2,37,-23,-9,115,21,24,46,9,-36,46,-17,-22,21,25,35,-25,3,-65,-17,52,-36,20,48,-76,33,60,32,30,-14,6,-19,39,34,30,78,64,1,-7,127,42,60,-15,38,0,-51,-13,15,38,-30,-3,37,41,29,-41},{30,32,18,-23,-2,-47,23,27,-4,15,-26,4,-30,-7,-5,-20,-40,-31,-29,-59,-33,-13,24,-55,-30,-9,17,7,-10,95,32,1,-3,127,-61,-5,19,-13,25,15,22,13,23,4,-19,19,28,-31,-11,50,57,-17,19,24,57,36,-72,31,-11,-87,-17,18,-41,-15},{-38,6,-21,-4,-128,28,6,-64,68,-4,51,-6,48,69,10,-19,127,-2,-32,35,12,61,45,5,-35,-2,-99,0,4,97,36,-31,8,-62,17,74,-18,23,-19,30,-22,19,45,-7,90,-50,-19,8,-2,61,-70,19,-37,63,-40,-3,-51,37,10,-57,2,45,-32,28},{14,-53,-57,-103,120,-35,29,-36,50,-18,47,18,-20,-128,39,56,-93,31,-20,3,-10,65,-25,14,-17,-13,31,-29,10,9,40,-67,-31,65,40,-39,29,21,-67,26,-18,-62,106,-5,29,-17,-4,14,-11,8,-43,3,41,-3,-38,-33,-28,-17,-28,-28,9,22,-10,-62},{25,15,127,31,19,45,13,24,-11,33,68,6,-25,-128,63,26,-44,-42,65,-24,4,-8,39,23,30,-78,-3,17,-88,7,-29,40,26,62,-20,26,56,14,45,-17,15,31,-17,64,29,78,44,-7,73,-50,127,-13,51,-36,67,-33,111,-33,9,71,-36,-41,34,49},{-11,118,-24,-53,15,20,-8,19,-2,3,0,-6,76,1,4,46,37,16,36,32,17,-1,-33,-57,47,-34,58,43,-20,2,-29,20,10,7,35,-56,14,-14,26,23,38,-4,2,30,-103,76,19,33,-73,22,2,23,49,-43,-58,27,50,6,-23,-53,10,40,1,-38},{-3,6,15,-9,87,41,60,-32,41,36,31,-2,-30,-126,22,52,-38,41,-103,37,25,14,28,-43,39,-10,60,9,-2,-59,57,45,-39,-92,36,-115,33,25,-37,31,-22,38,-29,9,24,64,42,-19,-83,16,-76,2,44,22,-22,-13,-60,-59,88,-11,-54,50,29,-31},{-18,60,-12,-23,-128,12,78,-33,67,89,46,-56,35,124,47,36,40,-16,110,-52,21,-25,61,18,22,-22,-9,28,8,-28,-20,22,8,17,37,-41,37,-47,35,65,43,41,-24,35,-17,51,-2,-57,-128,-12,42,29,-118,23,-23,15,-12,70,-81,41,45,47,-26,24},{18,72,8,-41,-128,10,55,28,15,36,-75,-17,-50,127,-37,-11,-4,-27,11,57,-7,-11,47,-9,25,-36,55,-7,37,-50,47,-3,49,-70,-38,78,28,20,-24,-27,-23,67,-33,39,110,47,30,-81,82,45,51,21,33,-48,15,35,-28,55,-19,59,15,26,1,31},{-3,46,7,-53,63,23,-8,24,-99,-98,24,-10,20,7,46,11,-113,3,48,43,-6,14,52,127,-32,6,22,-46,-54,-71,9,9,-41,-45,65,-33,-17,-4,-13,-11,67,57,38,-59,-128,24,37,-29,127,26,53,16,15,-10,-20,9,-128,30,31,3,25,-27,-17,7},{-20,-55,-3,3,3,-56,-39,-51,-55,40,-33,-14,52,-29,-17,-35,-30,-57,28,69,-74,-42,29,50,-38,-67,-26,-53,-5,-5,-20,8,-38,29,26,38,-5,-60,-29,70,23,16,-16,-23,-82,-4,-18,26,27,-21,-66,1,-85,41,-41,10,-84,5,-16,36,13,10,0,-14},{-29,-13,42,14,110,-12,-2,-20,43,-36,-11,-36,-128,-82,18,-18,-128,-63,30,8,-34,54,55,-50,-8,-15,-73,-22,3,120,14,49,13,-87,23,70,-14,-19,21,12,43,22,-75,10,92,25,20,33,50,-29,-17,5,-49,11,-58,33,-12,-36,33,80,-67,9,-26,40},{-10,25,-3,-32,-128,127,25,-11,-23,99,0,-43,-12,61,8,53,-35,5,16,1,19,42,21,-26,57,25,81,-14,-1,11,-7,43,48,61,-37,30,4,4,2,35,-23,41,-4,61,-68,38,27,24,70,54,54,33,-75,13,-8,17,-37,6,-40,-108,59,-27,-26,-46},{-44,-36,11,39,-116,6,-34,-57,-88,-6,-50,1,-60,25,-29,-65,-61,-7,-19,57,-12,-14,-17,-66,-8,-17,37,-57,-19,106,44,41,22,21,-2,83,28,-50,-40,16,-10,-40,75,-65,-17,-7,4,18,-79,-34,-21,26,-80,6,-20,-19,-25,37,-36,-111,-34,-15,16,-30},{50,-65,46,-46,127,-4,56,-44,-40,-3,97,-28,53,-128,73,33,-27,-32,5,-126,-8,96,18,-61,-16,-41,8,-47,-37,78,44,-13,-26,106,-24,-12,1,32,-12,-41,62,44,42,-5,70,0,36,-13,-45,26,22,-15,-72,36,19,2,-86,-11,80,99,-20,20,-88,25},{-2,33,9,26,70,-39,19,48,28,-19,-25,25,0,77,-16,-7,88,-35,15,-46,-38,2,-13,-44,-44,24,17,-69,-8,-96,-21,-17,-50,-94,6,60,-18,-72,-85,9,-8,11,-67,32,127,-23,-36,-30,76,-78,2,-5,68,60,62,2,1,-54,23,26,15,5,27,37},{16,-26,-19,-4,-9,22,-44,31,-68,-55,-32,-9,-3,68,5,36,-77,-25,-10,-96,-17,-28,21,-16,6,-38,8,-36,-18,-49,-11,-67,12,25,-80,-3,-10,10,44,17,-42,26,18,53,100,17,-3,-43,-11,4,-5,4,-87,-28,53,24,13,0,20,-116,-11,37,7,-42},{15,69,51,15,-91,-32,41,-6,-53,89,72,37,2,-2,51,-6,63,-28,-35,37,-8,-14,-58,14,40,41,4,-28,11,-9,-4,36,-11,-76,-14,50,22,-13,5,-14,11,33,-48,30,24,63,6,-19,41,16,39,-3,-89,39,32,-65,59,12,21,86,-18,0,29,39},{1,42,20,14,-30,-8,14,32,-20,15,-29,-5,-11,22,43,40,-88,27,33,-39,0,12,-72,81,-12,-57,-48,6,-1,-123,-5,-18,53,15,-23,-12,-3,1,-55,66,6,42,-4,19,-99,63,-38,24,-117,-70,23,15,34,-53,-75,16,54,-31,41,-7,31,-2,-25,-29},{-8,5,-17,27,-128,11,4,-2,74,0,34,16,-30,-128,21,10,-69,-9,-56,-6,-2,0,26,13,22,44,3,-22,-30,2,8,23,49,-50,-1,18,12,26,-34,15,54,2,84,43,44,-5,-11,-4,69,23,-14,17,41,30,-44,27,-88,38,42,16,7,37,-27,33},{18,0,-22,-70,23,-55,-31,3,-31,-38,-39,-18,-60,115,-21,-25,-63,-41,38,-15,-11,7,15,46,-42,-75,63,-76,36,-44,55,38,-67,-55,-38,-62,-18,-17,5,-29,-102,21,0,34,20,27,38,-18,40,-36,56,0,-69,-36,-39,-10,14,-11,-7,-128,23,-38,-33,-4},{18,-45,28,48,29,57,2,4,-68,42,48,-1,-105,39,6,19,4,-7,57,35,-20,10,5,15,-13,15,-69,46,-36,-44,-19,73,49,74,19,-42,11,-42,-27,15,21,15,-39,-18,-74,7,-32,43,14,-82,19,1,58,32,47,25,-108,7,60,74,-21,-15,-1,-7},{-41,52,-25,-12,-86,-14,-13,41,-71,33,42,-128,60,-128,21,3,-128,-22,57,-29,16,5,-16,-40,1,-16,11,18,-41,101,23,-46,41,-16,-37,62,-7,-63,-116,8,-5,0,0,3,69,39,14,0,70,21,53,18,97,-24,0,13,23,49,-62,5,54,-4,-32,40},{0,-16,22,58,-25,-24,-2,-49,-29,0,42,13,-9,10,40,-57,-113,-32,48,58,-45,18,30,26,18,-28,-25,-12,7,118,-37,44,-2,-25,-24,63,-5,-27,-13,46,-35,15,-31,38,-10,16,-53,-15,-80,-84,51,-16,-55,-36,40,0,-1,-10,71,58,16,-16,25,-31},{-16,-8,28,-26,-86,34,16,6,47,-47,-16,24,40,14,25,-6,-8,55,-42,17,-32,7,-105,-9,-15,-40,80,-92,-40,34,7,46,-49,107,-31,-72,14,-20,-52,25,-60,62,-31,-39,-65,11,46,35,-57,-32,-30,7,62,-47,5,-46,21,-52,-42,-23,-92,-24,40,-46},{-9,-65,-10,-63,29,-17,7,4,20,61,-41,16,-55,-128,24,33,-39,-5,28,-57,-29,-25,48,24,-45,24,46,28,-52,41,7,-1,-53,59,-36,-60,-31,1,0,-25,-10,29,-3,95,-128,-21,9,23,9,-10,-8,16,-18,71,26,43,4,18,-41,-1,-9,-38,-46,34},{7,12,-14,32,22,7,-42,-37,-45,45,18,-6,-19,95,32,-19,58,20,4,27,-34,43,-22,63,44,-41,-65,-16,-70,-85,10,-19,-3,-40,-1,-46,-44,-16,36,9,-53,56,-97,21,-50,36,9,44,-41,-7,20,60,0,-65,-78,3,80,21,-18,105,-27,28,-36,-6},{-3,-2,-44,-10,49,66,-7,-20,-19,17,-18,-43,-31,-125,28,23,52,-23,-48,-1,7,-2,23,-61,45,-13,88,-50,-18,44,-34,17,7,-38,-35,43,26,-23,7,25,50,3,9,14,-109,45,-28,-3,-15,-35,-45,11,50,-16,48,-10,-89,36,5,42,-46,7,4,-1},{-17,33,-8,-35,28,45,35,55,-75,93,36,-2,-34,101,74,-17,65,24,23,-2,17,13,-86,-27,16,-67,-58,-35,-128,26,-21,43,13,-8,-18,18,21,-26,-42,-50,13,22,12,78,37,72,10,-3,-122,-79,48,-20,26,-25,61,6,32,22,67,-1,6,-62,-21,21}},{{-3,54,9,3,74,23,17,23,-7,-15,-72,4,-21,-128,-19,27,-11,20,-25,2,-33,55,-13,-90,-28,2,58,15,14,18,45,17,-33,-64,-88,-20,1,27,4,-15,24,67,7,35,-18,-3,30,-95,36,-20,13,7,42,-11,-32,-11,-98,56,-24,82,-13,-6,-35,56},{-7,-32,55,-59,92,22,7,-10,28,13,44,-28,-101,82,45,-4,45,59,-50,-9,-22,-36,38,-19,21,-72,77,-3,-51,20,-37,42,34,-107,-16,20,1,-18,48,-1,-15,-1,10,36,-47,52,40,-16,-6,63,-1,4,1,42,9,-18,17,32,7,22,-82,79,-9,36},{-18,56,11,16,-128,-32,-116,-5,21,-30,52,0,49,127,2,-19,-78,10,-58,25,-21,1,-5,-1,-14,41,-94,17,63,41,-25,-14,-78,39,5,2,16,-13,-44,1,-53,35,-58,50,86,1,10,-23,55,-57,-49,11,-55,-13,-8,-60,-46,-77,16,20,-51,12,11,18},{21,7,20,18,7,36,-54,49,-99,-29,-35,-10,66,-128,13,-15,109,-55,-34,-7,-5,-39,79,-52,-1,-38,91,-50,-65,-128,24,-44,36,-99,2,-43,24,-24,-33,40,65,27,56,-38,-36,59,21,9,-72,54,57,2,-101,19,-25,12,-28,-6,-41,-45,-10,3,42,2},{28,-15,-45,-5,8,-15,-31,15,-27,85,44,-35,40,-67,3,6,-38,-2,22,-77,-32,-9,-21,-29,-35,-93,45,3,-9,-57,-57,24,26,56,-104,54,10,-4,-59,-9,-2,-20,5,38,-116,8,1,-20,-73,69,22,-23,-41,18,0,24,-4,29,-17,-60,-7,26,8,-50},{-43,49,-41,-27,-128,19,30,-70,-5,107,43,13,-65,127,19,-5,26,25,5,63,4,53,-19,118,-1,80,-57,-10,18,43,-73,62,15,-128,3,-57,-9,-20,21,31,46,4,-47,-14,33,-61,33,-1,15,-33,-78,27,54,41,-65,22,16,12,72,-8,4,51,-38,70},{-2,-15,-39,-95,21,-78,-79,-65,64,-76,127,-2,-40,-30,-28,30,-100,2,7,-68,29,44,35,37,-7,61,-79,32,73,14,-43,-87,-46,32,13,-7,-29,10,-51,24,13,-31,-56,5,-12,-20,30,-19,127,-40,-66,7,73,46,-31,-26,-15,-10,-23,-59,-62,24,-28,5},{34,-7,81,43,-71,33,-12,55,-43,-52,19,-24,-7,-128,72,-4,127,28,4,-9,-22,45,66,-36,7,-15,63,-23,-72,-94,51,40,32,35,-63,-48,43,28,43,-36,49,-39,-24,-9,96,29,-16,9,-128,-85,66,11,127,-12,94,-28,97,-12,41,14,-70,-8,33,-12},{8,42,-5,-42,55,16,2,37,-41,76,2,-7,-13,5,24,-7,-62,0,-36,7,31,-15,38,-37,37,-128,73,56,-40,-103,30,-34,41,-128,-59,43,17,-23,-61,-7,-71,1,-27,56,-92,33,33,23,12,47,7,26,-128,-66,16,8,-73,51,15,19,51,0,-5,36},{32,-75,2,-36,-12,-10,108,20,-47,-18,-9,-2,-84,22,-13,-1,85,15,-81,-61,26,51,-2,0,59,-64,10,-8,5,-29,3,55,23,-77,23,-53,72,39,14,25,3,34,25,-14,-56,63,37,-12,-37,48,3,-29,82,-43,-13,9,-40,-53,32,4,-48,55,38,-4},{-13,73,23,-29,11,58,75,12,-4,63,61,-72,-11,-128,20,23,44,-18,68,26,19,22,55,-28,28,-123,91,-27,7,-45,72,-29,3,73,50,-33,-6,-46,7,36,-3,3,-81,24,48,22,34,-67,-32,62,7,8,-104,41,-7,-19,6,67,-68,13,77,39,-27,40},{-10,21,-42,-11,-78,-10,-9,-23,-9,41,34,-19,-39,-122,12,4,21,4,-21,61,-21,27,-31,-40,25,-34,74,3,40,-100,52,50,-27,-81,-71,1,-11,-6,-58,-44,30,32,12,58,27,-25,-5,-83,11,-61,-6,-17,82,24,-21,-1,20,52,-47,-1,-10,19,-20,44},{-32,-20,27,8,127,20,-128,29,-89,-128,-50,-30,127,-120,-49,-6,-128,53,15,-5,13,24,107,-71,-26,11,-18,-35,-26,127,13,49,-23,121,126,-5,-32,24,24,26,34,73,-92,-76,-128,19,-18,-67,127,-40,71,11,-128,-7,36,18,-128,-9,-35,81,74,-9,-9,60},{-10,-49,-5,-6,127,-13,-24,-57,-61,6,-33,-21,3,-128,-8,-53,57,-85,-28,23,-47,-38,49,-87,19,-54,-2,-23,15,4,-55,27,-7,73,11,-18,-10,-70,-91,37,-10,15,-55,-64,-21,9,-8,13,21,-40,-26,14,-117,7,-44,7,38,19,-7,-15,-5,-46,36,4},{-72,-31,21,1,-32,-77,-74,29,39,-69,-59,-34,-70,85,10,-38,-123,-26,36,5,-6,-12,29,-57,-46,107,16,-21,-14,127,5,26,-11,-74,-3,-6,-41,-24,-10,37,-9,-26,-52,29,5,44,-32,-11,77,40,7,6,-22,-45,-121,-22,44,-52,-58,-34,-21,17,-15,31},{-13,61,36,-65,-126,127,55,22,31,105,30,-14,-31,-16,-18,19,-128,35,-2,31,3,4,5,-76,2,-14,26,19,3,-74,14,51,9,8,-37,-74,-13,25,-38,53,-31,24,27,61,-128,16,35,-3,-128,-32,6,40,-37,60,-3,7,6,0,-22,-40,90,38,-16,1},{-60,19,20,-19,17,19,15,-7,-69,-116,15,-8,-70,90,-29,1,-128,-62,-14,65,17,28,28,-1,-27,-57,-7,-34,32,65,-28,35,-31,-85,27,112,40,-45,26,49,28,2,41,-1,42,0,19,-25,45,-78,-31,24,-78,31,34,-7,-58,31,-25,-46,-6,15,16,-19},{5,-25,-31,-50,-128,-14,50,-33,-11,108,43,-13,32,127,75,-5,62,-8,-16,-55,-20,97,-6,-43,1,36,-9,-20,-63,-105,-35,63,24,50,-17,-58,-36,21,13,-42,-18,36,17,-39,-78,-55,7,-6,-128,-35,-7,12,39,-63,-33,14,127,62,122,-128,-29,40,-97,58},{-46,-42,0,-7,97,-56,7,-30,39,-50,8,-15,-21,127,-32,-90,-66,-71,21,73,-29,5,17,114,1,119,102,-67,-7,127,-7,8,-4,-128,-50,48,18,-58,-79,-9,-22,-44,-128,19,127,-49,-34,-1,127,-72,5,25,-126,73,-6,-1,43,-35,-31,-19,23,31,-11,42},{8,-1,7,-31,127,6,5,45,-60,50,49,-31,56,127,14,-27,44,-31,43,-1,-34,-20,-25,55,7,-68,-11,-40,-61,-28,-41,-64,-40,90,-18,51,-32,23,-14,-30,-12,24,7,60,-26,-15,28,-2,-88,62,53,-5,-52,-19,-53,36,22,45,-12,-128,6,-9,27,-15},{21,35,52,78,-128,12,-15,-18,-4,84,-8,6,15,15,12,30,127,-53,-71,6,7,-41,-86,-102,41,-95,41,56,-13,-128,-27,11,-27,-13,-7,-46,-7,-17,14,-14,-57,27,23,34,127,22,48,-6,-128,65,73,16,-57,-9,14,-86,127,-58,36,127,-16,-23,17,-29},{18,98,-2,27,17,46,47,-24,14,11,45,18,-9,24,38,15,-40,7,-78,45,7,32,-65,-63,38,-47,12,-11,17,-128,10,69,15,61,10,-49,19,3,4,38,-55,48,-10,30,-65,23,14,47,9,-87,54,39,90,0,-22,23,-13,-12,-7,31,49,33,18,47},{-54,24,-21,16,-104,72,-55,-18,10,103,47,-6,-70,127,8,-5,-127,-2,-14,85,6,23,-47,90,-9,90,-58,15,55,-88,-63,76,-12,-103,12,-75,-18,14,-76,53,69,43,72,48,-128,31,-17,-6,-55,7,-56,41,-38,-30,38,1,127,-57,12,-83,12,27,-50,61},{29,10,51,-60,-128,-43,-105,-5,5,-56,-37,2,-14,127,-1,-75,-128,23,13,90,-15,11,-40,127,-49,-20,-69,-88,7,127,-6,77,-63,-128,-26,-20,-22,-22,-49,-6,-91,-10,-63,57,-92,20,9,7,127,29,40,-25,-4,-18,-50,-2,112,-59,41,-117,27,-17,-64,77},{17,38,7,56,34,29,54,4,-40,-51,-1,22,-94,-128,29,-2,-83,8,79,-6,-36,-2,5,-108,15,-106,-46,9,-13,45,43,-1,34,127,9,-7,-12,-12,-26,-5,40,-10,-6,3,10,16,-16,3,84,-75,-26,18,-59,42,-46,0,-99,74,7,90,4,-27,30,34},{-32,51,-4,-1,-52,-9,15,36,-74,28,-6,-128,-57,127,0,-9,-128,-7,10,-12,14,0,29,-18,-10,-33,-18,-4,13,127,-35,36,-26,12,-15,52,-15,-5,-126,28,8,-39,-31,43,-8,-9,19,8,-39,11,15,36,-12,-6,-31,-15,43,46,-33,-128,-19,-10,-29,52},{16,4,26,16,78,2,10,-3,31,-36,22,-14,-68,127,-3,-51,33,-56,17,45,-22,-10,13,91,-2,-2,-35,-4,65,41,-30,57,22,-128,-35,66,31,-30,-39,71,61,30,-24,1,-128,40,-61,-22,-107,-91,-16,24,-80,-5,42,15,107,20,-5,77,-33,-30,29,61},{14,23,-39,-21,51,-78,46,0,-48,47,-1,12,80,52,5,-17,26,47,16,41,-29,41,-128,7,28,25,71,-128,-88,120,100,46,-39,-25,-49,-91,-2,29,-76,-10,-128,52,53,34,52,27,13,31,120,-80,24,-50,55,-119,-28,-47,33,-7,-34,28,-112,9,18,-32},{8,-21,7,-80,126,-40,-67,26,43,-14,-22,-14,47,127,-14,5,-42,15,15,-63,0,30,3,117,-80,-84,30,-66,-18,24,-22,42,-31,-54,-16,-63,-38,-34,-15,-3,-93,-16,-128,54,-59,32,45,-4,21,56,25,-5,-104,-36,-31,-10,-44,43,-53,78,-29,7,-23,-28},{-22,60,32,-14,-91,17,3,-31,-37,-4,50,11,34,127,50,2,127,20,-38,64,-29,4,-69,67,-52,-42,-77,-65,-5,-50,2,-13,3,29,-45,-128,-42,17,-85,14,-95,22,38,48,54,24,28,24,-113,22,18,70,-47,-104,-69,20,7,-70,-13,-6,67,13,17,84},{-41,-16,-23,-31,127,76,51,32,-20,-30,35,-50,-100,-39,-4,-9,-128,3,37,75,-22,11,4,-108,-9,-116,99,-65,-61,-17,57,31,47,68,4,77,-15,17,-26,34,-15,-10,2,2,-66,60,9,-14,110,-52,20,1,21,-23,-57,9,-127,48,-40,42,-22,19,15,-15},{-1,-30,11,27,-116,-1,90,56,-23,85,72,26,39,-90,61,-74,100,7,55,-14,4,24,-89,-8,8,-108,-24,38,-98,-117,36,46,35,47,-118,-103,-3,-13,-65,-72,40,6,-57,42,3,-12,16,27,-128,-41,15,27,127,-84,34,-17,127,41,18,-7,-23,-61,-40,-15}}};
static const elem_t QConv_BN_flatten_2[96][64]=
{{37,49,73,-17,-32,12,11,55,30,-58,-33,13,-57,-3,-28,-42,27,25,25,32,-3,34,-21,17,17,51,21,40,-52,-40,46,9,-23,19,-64,34,-11,4,17,11,5,69,-50,-8,62,64,16,-72,14,-53,40,-9,74,-14,49,-9,-72,-3,-71,53,-50,-5,-23,26},{27,0,65,-5,-34,53,10,-23,20,-114,60,-2,-21,69,66,36,69,-13,-63,38,-38,-4,38,88,2,-7,93,-83,-113,-90,62,46,19,-32,35,-30,35,-19,36,-26,77,-5,-46,68,-10,56,41,-11,70,5,2,5,11,-93,43,3,-60,26,96,55,-44,41,-32,29},{-15,-21,76,-40,-98,-24,-8,46,-15,-4,78,-15,-3,95,4,-23,-59,26,-26,26,-9,-64,16,127,-3,-37,-113,-65,66,111,-102,-24,-16,-44,-58,7,4,-45,33,37,70,4,9,-7,-128,-31,-25,14,16,-31,-12,11,44,-15,-128,-31,-110,-21,28,77,-36,-13,35,6},{20,12,77,19,56,52,15,19,-52,-100,-43,-17,-25,26,29,-35,-57,-17,-38,46,25,-47,21,76,9,-4,89,-2,-3,127,-85,-24,3,-104,3,67,11,17,20,-4,28,-28,84,-20,-26,25,-12,6,-17,42,10,-4,-44,-44,-76,-41,-23,5,40,-88,17,46,-2,17},{22,31,-24,-84,44,3,43,21,13,-10,-54,3,68,93,13,-31,40,23,46,-36,5,-23,-30,9,-16,-1,-4,0,-95,43,45,-45,27,53,-23,-19,-29,-33,11,22,-23,38,-55,73,-22,25,17,-15,-2,-18,2,-3,-128,-26,-33,30,6,-31,3,-38,13,44,10,-24},{1,-13,-5,18,97,-7,-1,-55,54,-45,25,4,-53,-128,4,1,43,-13,-68,2,20,60,-6,-61,-43,60,13,41,40,-60,23,-59,-17,-58,30,63,-37,-28,0,-12,-4,6,-27,-23,46,-8,30,23,9,44,-4,15,34,23,3,0,9,24,25,36,-42,41,-30,-45},{7,-78,-6,-61,2,-14,-12,-9,28,82,59,-39,9,23,9,52,-101,42,-33,-50,-23,-3,16,-84,-1,58,-101,-59,-70,-21,39,-79,-62,38,8,-56,10,-5,-39,2,-15,-7,56,-2,-5,-43,32,17,69,-8,3,-4,61,21,16,-26,71,15,-15,79,-17,38,-31,-74},{14,12,127,19,127,22,94,-36,-49,1,69,-2,-47,127,66,-47,-128,11,53,3,31,-4,15,76,-24,-28,14,-33,1,86,-87,3,55,127,-7,81,19,-16,55,6,86,32,62,4,-10,-1,24,-17,98,-62,108,18,-27,-112,-7,-50,-128,11,32,-56,-65,-8,14,23},{1,58,22,-10,-75,97,4,1,65,94,-17,-24,86,-83,-33,22,-128,4,-40,-127,11,17,33,-82,25,-16,115,2,-6,32,105,-10,-27,49,-2,-41,32,-25,0,37,-26,-25,-22,48,9,42,-7,16,-73,26,38,19,19,-70,29,19,127,-21,11,-128,21,-28,-9,52},{-12,-33,28,-47,-44,9,106,-10,80,-29,-12,-11,68,-39,3,63,27,48,-36,26,4,13,-55,29,23,-18,36,-57,-41,-101,64,15,17,22,26,-98,42,22,27,20,50,-7,-44,51,90,16,47,-22,70,40,4,4,113,-97,10,9,61,-59,17,-10,-42,44,-29,-42},{-41,4,-34,-31,13,53,74,-20,12,127,30,-58,26,-77,-9,-6,-26,21,61,-63,41,-34,14,-10,28,80,-13,-36,-51,-64,-25,54,30,111,5,21,35,-93,37,44,73,0,-68,-4,-40,2,28,-61,-77,66,32,38,-76,-50,17,9,29,76,-75,-66,38,-8,-9,22},{24,40,9,-45,-115,-49,81,37,-9,-104,-70,-3,-44,127,-44,-3,-14,-18,1,-35,-18,9,41,-81,-13,60,-6,23,-37,-97,60,-32,43,-60,-47,-21,25,-16,53,-30,49,13,-31,-26,90,-12,-2,-75,-53,27,44,-4,5,10,20,0,57,-6,0,-128,-25,-24,-35,2},{28,-18,66,2,127,16,-40,-12,-84,-128,83,-4,-128,127,79,8,-38,20,97,43,42,29,-34,127,-44,37,-18,19,-42,79,-48,90,23,-76,65,56,-17,2,13,0,82,5,-7,-40,-128,3,28,48,127,15,53,24,-128,13,30,-30,-128,8,65,89,-49,30,32,9},{-46,-63,40,-22,45,8,-47,-85,-126,56,42,-6,13,-35,-7,-82,-46,-55,-5,37,-49,8,6,29,8,-8,15,-43,32,-37,-45,-32,3,39,1,48,19,-84,-39,41,-58,23,-9,-47,27,24,-27,34,54,-6,-1,-4,-128,-2,42,3,-76,60,-10,88,8,-3,35,-27},{-42,11,40,27,53,-76,-24,0,44,-100,-39,-40,-128,40,23,8,-22,-62,-12,-83,-6,5,-5,-31,-25,56,-69,40,-26,-26,-118,-28,-65,127,24,127,-17,9,-3,-16,51,21,-46,7,127,-19,16,-1,6,-58,-27,29,117,26,-23,16,7,14,18,80,-36,22,20,1},{-28,-9,16,29,115,127,55,37,55,86,6,-23,68,91,-7,12,-128,38,18,-97,-25,-26,87,-77,43,-24,91,24,-19,127,52,-22,12,46,-10,58,-11,-19,12,16,47,-17,-72,2,-29,33,7,46,1,69,5,14,-81,56,-42,35,-25,66,-5,-92,23,-8,-29,49},{-40,8,-16,6,83,-50,-1,7,-92,12,38,-31,-66,26,15,-50,26,-52,36,20,-21,10,12,32,20,28,34,2,13,-36,-20,39,0,93,-13,94,16,2,-44,32,-35,-47,64,-68,-64,40,0,-36,16,-2,23,0,58,-21,-23,-18,1,54,26,10,24,5,-1,-7},{-6,-40,26,-52,127,-22,-5,-24,-2,-3,3,-6,-28,-128,22,17,93,-14,88,-128,-3,40,-9,21,-18,-4,40,-1,-64,-73,-13,-58,-28,68,82,100,-26,16,-8,-26,52,35,19,-11,-58,-36,3,-46,58,72,38,-15,41,-24,37,-25,-128,15,122,127,-28,19,-44,-86},{-52,38,-51,19,-128,37,-16,18,-73,109,-35,21,-24,-62,1,-35,-47,-70,13,16,49,-11,-54,-14,-73,-51,18,-21,11,-64,-25,-20,-1,-69,35,-39,-2,-29,-50,15,-2,12,-22,-33,114,16,3,-3,-47,14,9,-10,-66,-4,51,10,13,-4,-22,-128,-8,11,0,13},{43,10,-35,-48,59,0,20,80,8,47,-45,2,-43,-128,3,-53,100,12,44,-102,-41,-4,-14,8,-41,37,12,-17,-73,60,62,9,-8,-70,-64,25,-28,-47,-18,-5,32,10,-54,34,-16,-31,22,-32,-64,-13,7,-27,-128,-50,49,6,-47,-31,-28,-128,-29,9,6,9},{-44,80,24,29,76,-10,-3,3,38,26,-46,-1,-53,-33,55,-3,-31,-18,-55,64,-1,-60,-41,81,4,12,-10,5,-53,-31,-48,-2,-34,-128,13,22,-9,-41,17,47,15,16,17,48,-122,12,35,10,-30,-13,18,-11,-21,5,-95,-55,10,9,69,127,22,14,-19,63},{-9,39,-25,-16,127,30,36,43,-67,-30,-23,1,25,21,34,10,-30,2,27,-78,-9,25,-19,30,22,19,73,19,-95,46,29,48,40,52,15,11,10,35,-38,14,21,37,34,30,11,48,-8,22,11,-10,38,33,70,-27,-79,45,-29,-26,-39,-5,-45,13,19,23},{-37,-60,16,50,127,81,-12,-33,-5,-72,-37,13,-26,-128,-8,48,39,-18,-52,16,-8,41,-12,-13,-3,-21,20,43,-8,-38,28,30,6,81,7,49,9,-19,27,46,72,-16,35,-12,-42,32,12,10,99,-19,-59,-15,-13,-6,30,-12,-93,-21,3,53,32,13,-20,-20},{30,8,48,-2,51,-59,-32,38,-83,-122,-80,10,-23,89,-30,-74,37,-15,38,63,-33,-1,-4,65,-4,-120,54,-55,-3,-5,-9,13,-44,-128,-9,-41,-26,-9,-29,-35,-57,22,-128,35,-128,50,19,5,127,-3,14,-25,-127,-4,46,-13,78,-9,-36,-27,2,-59,14,-16},{19,21,31,-33,-31,50,-6,-14,-75,-34,25,-29,18,-38,67,-39,41,38,14,77,-40,-18,4,47,-4,27,24,7,-39,93,27,50,42,48,0,-40,26,-10,12,-26,1,-20,45,40,-64,37,-10,40,23,11,-13,7,97,-34,-14,24,-30,1,74,51,29,6,3,49},{-55,49,22,37,127,-17,17,6,-95,-71,-4,-74,76,12,-4,18,-46,-37,9,-22,-23,-50,-5,-62,-26,50,4,-21,-45,9,9,29,28,70,8,62,8,-67,-108,41,-13,28,83,0,127,16,12,-24,-53,-20,-8,22,117,5,-15,12,-102,33,-66,62,-28,-14,-20,-34},{9,24,36,51,-128,-21,-34,-15,-8,89,6,-13,-51,127,6,-6,-86,-32,-19,3,-46,-4,-32,-13,16,56,55,3,12,85,-79,35,-22,-90,5,-49,-6,-62,-49,15,5,6,69,-6,-83,3,-7,-16,110,-2,-2,14,-86,-22,19,-15,76,43,72,-33,24,24,22,7},{6,-36,23,-35,95,-53,44,-52,16,100,-15,18,-77,-22,-18,-45,-18,54,-57,72,-3,1,-118,118,11,-117,47,-72,-54,82,-23,10,-67,-11,-22,-88,-1,25,21,24,-99,73,50,-32,-128,-49,21,48,96,-30,-35,-28,-26,-114,-90,-66,-66,9,-48,-46,-72,-3,3,-54},{12,37,8,8,127,22,9,-26,0,12,-76,13,-63,-128,10,-60,97,-6,64,-46,-5,-4,6,-77,-82,-66,-1,27,82,-111,-21,30,-33,60,-4,117,-21,-5,-38,-10,-115,44,-128,60,-128,-16,46,-35,5,78,12,12,-43,65,8,5,-76,-42,26,127,-27,-3,-30,-82},{-26,28,-57,19,101,-36,12,18,-26,63,16,-25,107,-79,26,46,14,24,-46,-4,-59,38,-32,13,6,-31,-36,-38,-51,-12,112,-43,-22,106,-31,-111,-56,1,-17,70,-123,-33,-80,33,127,-8,-3,-7,54,-68,-11,27,-104,-66,-44,5,40,31,30,37,26,-12,8,3},{-30,34,46,-48,-128,-2,-27,11,-48,-49,55,-46,40,127,-8,-50,-11,-27,11,88,-13,7,12,70,26,8,-28,-91,-81,23,16,7,68,9,-15,51,34,-19,-5,41,57,32,104,-38,76,6,-5,25,25,-89,-16,35,51,-71,40,26,52,86,40,-86,24,-13,-17,44},{7,46,42,38,-8,55,55,-12,8,-15,42,11,3,6,55,4,8,31,73,34,-12,28,-52,84,10,-95,38,23,-123,37,58,77,-8,-89,-27,53,-12,7,37,-44,37,14,-8,61,-41,16,15,-2,32,-102,57,-3,-60,-4,53,-18,-117,60,73,-41,-47,-84,-24,42},{-18,65,11,-33,-52,-6,93,15,-21,14,-54,-22,46,7,5,13,26,-41,39,55,-32,29,-8,-101,-21,-37,39,28,3,-83,-15,-13,-5,-80,-45,-50,3,5,-25,-25,0,38,-68,9,-29,-1,-6,-100,16,23,14,14,37,59,7,-14,48,49,-66,13,9,-28,21,35},{39,66,24,-27,-11,-30,18,0,26,-98,14,-33,-80,109,15,-12,75,21,-69,77,-7,3,-28,50,0,-10,76,-51,-93,-114,42,48,47,64,31,-55,14,23,17,27,69,25,-83,-4,-35,-12,-6,-15,74,65,18,-8,37,-13,35,6,75,-1,87,-7,-84,80,24,66},{-8,51,18,21,-96,-12,-72,16,-40,-46,-34,17,-70,102,27,-24,-73,17,-60,33,10,8,-41,-18,3,84,-95,-51,7,119,-90,-3,-23,28,-34,58,19,-29,8,22,1,-9,4,49,-6,1,-14,-28,44,27,14,-15,3,47,-101,-60,-21,-36,27,20,9,42,13,44},{10,42,23,-32,79,-1,-34,13,-82,2,37,-23,-9,115,21,24,46,9,-36,46,-17,-22,21,25,35,-25,3,-65,-17,52,-36,20,48,-76,33,60,32,30,-14,6,-19,39,34,30,78,64,1,-7,127,42,60,-15,38,0,-51,-13,15,38,-30,-3,37,41,29,-41},{30,32,18,-23,-2,-47,23,27,-4,15,-26,4,-30,-7,-5,-20,-40,-31,-29,-59,-33,-13,24,-55,-30,-9,17,7,-10,95,32,1,-3,127,-61,-5,19,-13,25,15,22,13,23,4,-19,19,28,-31,-11,50,57,-17,19,24,57,36,-72,31,-11,-87,-17,18,-41,-15},{-38,6,-21,-4,-128,28,6,-64,68,-4,51,-6,48,69,10,-19,127,-2,-32,35,12,61,45,5,-35,-2,-99,0,4,97,36,-31,8,-62,17,74,-18,23,-19,30,-22,19,45,-7,90,-50,-19,8,-2,61,-70,19,-37,63,-40,-3,-51,37,10,-57,2,45,-32,28},{14,-53,-57,-103,120,-35,29,-36,50,-18,47,18,-20,-128,39,56,-93,31,-20,3,-10,65,-25,14,-17,-13,31,-29,10,9,40,-67,-31,65,40,-39,29,21,-67,26,-18,-62,106,-5,29,-17,-4,14,-11,8,-43,3,41,-3,-38,-33,-28,-17,-28,-28,9,22,-10,-62},{25,15,127,31,19,45,13,24,-11,33,68,6,-25,-128,63,26,-44,-42,65,-24,4,-8,39,23,30,-78,-3,17,-88,7,-29,40,26,62,-20,26,56,14,45,-17,15,31,-17,64,29,78,44,-7,73,-50,127,-13,51,-36,67,-33,111,-33,9,71,-36,-41,34,49},{-11,118,-24,-53,15,20,-8,19,-2,3,0,-6,76,1,4,46,37,16,36,32,17,-1,-33,-57,47,-34,58,43,-20,2,-29,20,10,7,35,-56,14,-14,26,23,38,-4,2,30,-103,76,19,33,-73,22,2,23,49,-43,-58,27,50,6,-23,-53,10,40,1,-38},{-3,6,15,-9,87,41,60,-32,41,36,31,-2,-30,-126,22,52,-38,41,-103,37,25,14,28,-43,39,-10,60,9,-2,-59,57,45,-39,-92,36,-115,33,25,-37,31,-22,38,-29,9,24,64,42,-19,-83,16,-76,2,44,22,-22,-13,-60,-59,88,-11,-54,50,29,-31},{-18,60,-12,-23,-128,12,78,-33,67,89,46,-56,35,124,47,36,40,-16,110,-52,21,-25,61,18,22,-22,-9,28,8,-28,-20,22,8,17,37,-41,37,-47,35,65,43,41,-24,35,-17,51,-2,-57,-128,-12,42,29,-118,23,-23,15,-12,70,-81,41,45,47,-26,24},{18,72,8,-41,-128,10,55,28,15,36,-75,-17,-50,127,-37,-11,-4,-27,11,57,-7,-11,47,-9,25,-36,55,-7,37,-50,47,-3,49,-70,-38,78,28,20,-24,-27,-23,67,-33,39,110,47,30,-81,82,45,51,21,33,-48,15,35,-28,55,-19,59,15,26,1,31},{-3,46,7,-53,63,23,-8,24,-99,-98,24,-10,20,7,46,11,-113,3,48,43,-6,14,52,127,-32,6,22,-46,-54,-71,9,9,-41,-45,65,-33,-17,-4,-13,-11,67,57,38,-59,-128,24,37,-29,127,26,53,16,15,-10,-20,9,-128,30,31,3,25,-27,-17,7},{-20,-55,-3,3,3,-56,-39,-51,-55,40,-33,-14,52,-29,-17,-35,-30,-57,28,69,-74,-42,29,50,-38,-67,-26,-53,-5,-5,-20,8,-38,29,26,38,-5,-60,-29,70,23,16,-16,-23,-82,-4,-18,26,27,-21,-66,1,-85,41,-41,10,-84,5,-16,36,13,10,0,-14},{-29,-13,42,14,110,-12,-2,-20,43,-36,-11,-36,-128,-82,18,-18,-128,-63,30,8,-34,54,55,-50,-8,-15,-73,-22,3,120,14,49,13,-87,23,70,-14,-19,21,12,43,22,-75,10,92,25,20,33,50,-29,-17,5,-49,11,-58,33,-12,-36,33,80,-67,9,-26,40},{-10,25,-3,-32,-128,127,25,-11,-23,99,0,-43,-12,61,8,53,-35,5,16,1,19,42,21,-26,57,25,81,-14,-1,11,-7,43,48,61,-37,30,4,4,2,35,-23,41,-4,61,-68,38,27,24,70,54,54,33,-75,13,-8,17,-37,6,-40,-108,59,-27,-26,-46},{-44,-36,11,39,-116,6,-34,-57,-88,-6,-50,1,-60,25,-29,-65,-61,-7,-19,57,-12,-14,-17,-66,-8,-17,37,-57,-19,106,44,41,22,21,-2,83,28,-50,-40,16,-10,-40,75,-65,-17,-7,4,18,-79,-34,-21,26,-80,6,-20,-19,-25,37,-36,-111,-34,-15,16,-30},{50,-65,46,-46,127,-4,56,-44,-40,-3,97,-28,53,-128,73,33,-27,-32,5,-126,-8,96,18,-61,-16,-41,8,-47,-37,78,44,-13,-26,106,-24,-12,1,32,-12,-41,62,44,42,-5,70,0,36,-13,-45,26,22,-15,-72,36,19,2,-86,-11,80,99,-20,20,-88,25},{-2,33,9,26,70,-39,19,48,28,-19,-25,25,0,77,-16,-7,88,-35,15,-46,-38,2,-13,-44,-44,24,17,-69,-8,-96,-21,-17,-50,-94,6,60,-18,-72,-85,9,-8,11,-67,32,127,-23,-36,-30,76,-78,2,-5,68,60,62,2,1,-54,23,26,15,5,27,37},{16,-26,-19,-4,-9,22,-44,31,-68,-55,-32,-9,-3,68,5,36,-77,-25,-10,-96,-17,-28,21,-16,6,-38,8,-36,-18,-49,-11,-67,12,25,-80,-3,-10,10,44,17,-42,26,18,53,100,17,-3,-43,-11,4,-5,4,-87,-28,53,24,13,0,20,-116,-11,37,7,-42},{15,69,51,15,-91,-32,41,-6,-53,89,72,37,2,-2,51,-6,63,-28,-35,37,-8,-14,-58,14,40,41,4,-28,11,-9,-4,36,-11,-76,-14,50,22,-13,5,-14,11,33,-48,30,24,63,6,-19,41,16,39,-3,-89,39,32,-65,59,12,21,86,-18,0,29,39},{1,42,20,14,-30,-8,14,32,-20,15,-29,-5,-11,22,43,40,-88,27,33,-39,0,12,-72,81,-12,-57,-48,6,-1,-123,-5,-18,53,15,-23,-12,-3,1,-55,66,6,42,-4,19,-99,63,-38,24,-117,-70,23,15,34,-53,-75,16,54,-31,41,-7,31,-2,-25,-29},{-8,5,-17,27,-128,11,4,-2,74,0,34,16,-30,-128,21,10,-69,-9,-56,-6,-2,0,26,13,22,44,3,-22,-30,2,8,23,49,-50,-1,18,12,26,-34,15,54,2,84,43,44,-5,-11,-4,69,23,-14,17,41,30,-44,27,-88,38,42,16,7,37,-27,33},{18,0,-22,-70,23,-55,-31,3,-31,-38,-39,-18,-60,115,-21,-25,-63,-41,38,-15,-11,7,15,46,-42,-75,63,-76,36,-44,55,38,-67,-55,-38,-62,-18,-17,5,-29,-102,21,0,34,20,27,38,-18,40,-36,56,0,-69,-36,-39,-10,14,-11,-7,-128,23,-38,-33,-4},{18,-45,28,48,29,57,2,4,-68,42,48,-1,-105,39,6,19,4,-7,57,35,-20,10,5,15,-13,15,-69,46,-36,-44,-19,73,49,74,19,-42,11,-42,-27,15,21,15,-39,-18,-74,7,-32,43,14,-82,19,1,58,32,47,25,-108,7,60,74,-21,-15,-1,-7},{-41,52,-25,-12,-86,-14,-13,41,-71,33,42,-128,60,-128,21,3,-128,-22,57,-29,16,5,-16,-40,1,-16,11,18,-41,101,23,-46,41,-16,-37,62,-7,-63,-116,8,-5,0,0,3,69,39,14,0,70,21,53,18,97,-24,0,13,23,49,-62,5,54,-4,-32,40},{0,-16,22,58,-25,-24,-2,-49,-29,0,42,13,-9,10,40,-57,-113,-32,48,58,-45,18,30,26,18,-28,-25,-12,7,118,-37,44,-2,-25,-24,63,-5,-27,-13,46,-35,15,-31,38,-10,16,-53,-15,-80,-84,51,-16,-55,-36,40,0,-1,-10,71,58,16,-16,25,-31},{-16,-8,28,-26,-86,34,16,6,47,-47,-16,24,40,14,25,-6,-8,55,-42,17,-32,7,-105,-9,-15,-40,80,-92,-40,34,7,46,-49,107,-31,-72,14,-20,-52,25,-60,62,-31,-39,-65,11,46,35,-57,-32,-30,7,62,-47,5,-46,21,-52,-42,-23,-92,-24,40,-46},{-9,-65,-10,-63,29,-17,7,4,20,61,-41,16,-55,-128,24,33,-39,-5,28,-57,-29,-25,48,24,-45,24,46,28,-52,41,7,-1,-53,59,-36,-60,-31,1,0,-25,-10,29,-3,95,-128,-21,9,23,9,-10,-8,16,-18,71,26,43,4,18,-41,-1,-9,-38,-46,34},{7,12,-14,32,22,7,-42,-37,-45,45,18,-6,-19,95,32,-19,58,20,4,27,-34,43,-22,63,44,-41,-65,-16,-70,-85,10,-19,-3,-40,-1,-46,-44,-16,36,9,-53,56,-97,21,-50,36,9,44,-41,-7,20,60,0,-65,-78,3,80,21,-18,105,-27,28,-36,-6},{-3,-2,-44,-10,49,66,-7,-20,-19,17,-18,-43,-31,-125,28,23,52,-23,-48,-1,7,-2,23,-61,45,-13,88,-50,-18,44,-34,17,7,-38,-35,43,26,-23,7,25,50,3,9,14,-109,45,-28,-3,-15,-35,-45,11,50,-16,48,-10,-89,36,5,42,-46,7,4,-1},{-17,33,-8,-35,28,45,35,55,-75,93,36,-2,-34,101,74,-17,65,24,23,-2,17,13,-86,-27,16,-67,-58,-35,-128,26,-21,43,13,-8,-18,18,21,-26,-42,-50,13,22,12,78,37,72,10,-3,-122,-79,48,-20,26,-25,61,6,32,22,67,-1,6,-62,-21,21},{-3,54,9,3,74,23,17,23,-7,-15,-72,4,-21,-128,-19,27,-11,20,-25,2,-33,55,-13,-90,-28,2,58,15,14,18,45,17,-33,-64,-88,-20,1,27,4,-15,24,67,7,35,-18,-3,30,-95,36,-20,13,7,42,-11,-32,-11,-98,56,-24,82,-13,-6,-35,56},{-7,-32,55,-59,92,22,7,-10,28,13,44,-28,-101,82,45,-4,45,59,-50,-9,-22,-36,38,-19,21,-72,77,-3,-51,20,-37,42,34,-107,-16,20,1,-18,48,-1,-15,-1,10,36,-47,52,40,-16,-6,63,-1,4,1,42,9,-18,17,32,7,22,-82,79,-9,36},{-18,56,11,16,-128,-32,-116,-5,21,-30,52,0,49,127,2,-19,-78,10,-58,25,-21,1,-5,-1,-14,41,-94,17,63,41,-25,-14,-78,39,5,2,16,-13,-44,1,-53,35,-58,50,86,1,10,-23,55,-57,-49,11,-55,-13,-8,-60,-46,-77,16,20,-51,12,11,18},{21,7,20,18,7,36,-54,49,-99,-29,-35,-10,66,-128,13,-15,109,-55,-34,-7,-5,-39,79,-52,-1,-38,91,-50,-65,-128,24,-44,36,-99,2,-43,24,-24,-33,40,65,27,56,-38,-36,59,21,9,-72,54,57,2,-101,19,-25,12,-28,-6,-41,-45,-10,3,42,2},{28,-15,-45,-5,8,-15,-31,15,-27,85,44,-35,40,-67,3,6,-38,-2,22,-77,-32,-9,-21,-29,-35,-93,45,3,-9,-57,-57,24,26,56,-104,54,10,-4,-59,-9,-2,-20,5,38,-116,8,1,-20,-73,69,22,-23,-41,18,0,24,-4,29,-17,-60,-7,26,8,-50},{-43,49,-41,-27,-128,19,30,-70,-5,107,43,13,-65,127,19,-5,26,25,5,63,4,53,-19,118,-1,80,-57,-10,18,43,-73,62,15,-128,3,-57,-9,-20,21,31,46,4,-47,-14,33,-61,33,-1,15,-33,-78,27,54,41,-65,22,16,12,72,-8,4,51,-38,70},{-2,-15,-39,-95,21,-78,-79,-65,64,-76,127,-2,-40,-30,-28,30,-100,2,7,-68,29,44,35,37,-7,61,-79,32,73,14,-43,-87,-46,32,13,-7,-29,10,-51,24,13,-31,-56,5,-12,-20,30,-19,127,-40,-66,7,73,46,-31,-26,-15,-10,-23,-59,-62,24,-28,5},{34,-7,81,43,-71,33,-12,55,-43,-52,19,-24,-7,-128,72,-4,127,28,4,-9,-22,45,66,-36,7,-15,63,-23,-72,-94,51,40,32,35,-63,-48,43,28,43,-36,49,-39,-24,-9,96,29,-16,9,-128,-85,66,11,127,-12,94,-28,97,-12,41,14,-70,-8,33,-12},{8,42,-5,-42,55,16,2,37,-41,76,2,-7,-13,5,24,-7,-62,0,-36,7,31,-15,38,-37,37,-128,73,56,-40,-103,30,-34,41,-128,-59,43,17,-23,-61,-7,-71,1,-27,56,-92,33,33,23,12,47,7,26,-128,-66,16,8,-73,51,15,19,51,0,-5,36},{32,-75,2,-36,-12,-10,108,20,-47,-18,-9,-2,-84,22,-13,-1,85,15,-81,-61,26,51,-2,0,59,-64,10,-8,5,-29,3,55,23,-77,23,-53,72,39,14,25,3,34,25,-14,-56,63,37,-12,-37,48,3,-29,82,-43,-13,9,-40,-53,32,4,-48,55,38,-4},{-13,73,23,-29,11,58,75,12,-4,63,61,-72,-11,-128,20,23,44,-18,68,26,19,22,55,-28,28,-123,91,-27,7,-45,72,-29,3,73,50,-33,-6,-46,7,36,-3,3,-81,24,48,22,34,-67,-32,62,7,8,-104,41,-7,-19,6,67,-68,13,77,39,-27,40},{-10,21,-42,-11,-78,-10,-9,-23,-9,41,34,-19,-39,-122,12,4,21,4,-21,61,-21,27,-31,-40,25,-34,74,3,40,-100,52,50,-27,-81,-71,1,-11,-6,-58,-44,30,32,12,58,27,-25,-5,-83,11,-61,-6,-17,82,24,-21,-1,20,52,-47,-1,-10,19,-20,44},{-32,-20,27,8,127,20,-128,29,-89,-128,-50,-30,127,-120,-49,-6,-128,53,15,-5,13,24,107,-71,-26,11,-18,-35,-26,127,13,49,-23,121,126,-5,-32,24,24,26,34,73,-92,-76,-128,19,-18,-67,127,-40,71,11,-128,-7,36,18,-128,-9,-35,81,74,-9,-9,60},{-10,-49,-5,-6,127,-13,-24,-57,-61,6,-33,-21,3,-128,-8,-53,57,-85,-28,23,-47,-38,49,-87,19,-54,-2,-23,15,4,-55,27,-7,73,11,-18,-10,-70,-91,37,-10,15,-55,-64,-21,9,-8,13,21,-40,-26,14,-117,7,-44,7,38,19,-7,-15,-5,-46,36,4},{-72,-31,21,1,-32,-77,-74,29,39,-69,-59,-34,-70,85,10,-38,-123,-26,36,5,-6,-12,29,-57,-46,107,16,-21,-14,127,5,26,-11,-74,-3,-6,-41,-24,-10,37,-9,-26,-52,29,5,44,-32,-11,77,40,7,6,-22,-45,-121,-22,44,-52,-58,-34,-21,17,-15,31},{-13,61,36,-65,-126,127,55,22,31,105,30,-14,-31,-16,-18,19,-128,35,-2,31,3,4,5,-76,2,-14,26,19,3,-74,14,51,9,8,-37,-74,-13,25,-38,53,-31,24,27,61,-128,16,35,-3,-128,-32,6,40,-37,60,-3,7,6,0,-22,-40,90,38,-16,1},{-60,19,20,-19,17,19,15,-7,-69,-116,15,-8,-70,90,-29,1,-128,-62,-14,65,17,28,28,-1,-27,-57,-7,-34,32,65,-28,35,-31,-85,27,112,40,-45,26,49,28,2,41,-1,42,0,19,-25,45,-78,-31,24,-78,31,34,-7,-58,31,-25,-46,-6,15,16,-19},{5,-25,-31,-50,-128,-14,50,-33,-11,108,43,-13,32,127,75,-5,62,-8,-16,-55,-20,97,-6,-43,1,36,-9,-20,-63,-105,-35,63,24,50,-17,-58,-36,21,13,-42,-18,36,17,-39,-78,-55,7,-6,-128,-35,-7,12,39,-63,-33,14,127,62,122,-128,-29,40,-97,58},{-46,-42,0,-7,97,-56,7,-30,39,-50,8,-15,-21,127,-32,-90,-66,-71,21,73,-29,5,17,114,1,119,102,-67,-7,127,-7,8,-4,-128,-50,48,18,-58,-79,-9,-22,-44,-128,19,127,-49,-34,-1,127,-72,5,25,-126,73,-6,-1,43,-35,-31,-19,23,31,-11,42},{8,-1,7,-31,127,6,5,45,-60,50,49,-31,56,127,14,-27,44,-31,43,-1,-34,-20,-25,55,7,-68,-11,-40,-61,-28,-41,-64,-40,90,-18,51,-32,23,-14,-30,-12,24,7,60,-26,-15,28,-2,-88,62,53,-5,-52,-19,-53,36,22,45,-12,-128,6,-9,27,-15},{21,35,52,78,-128,12,-15,-18,-4,84,-8,6,15,15,12,30,127,-53,-71,6,7,-41,-86,-102,41,-95,41,56,-13,-128,-27,11,-27,-13,-7,-46,-7,-17,14,-14,-57,27,23,34,127,22,48,-6,-128,65,73,16,-57,-9,14,-86,127,-58,36,127,-16,-23,17,-29},{18,98,-2,27,17,46,47,-24,14,11,45,18,-9,24,38,15,-40,7,-78,45,7,32,-65,-63,38,-47,12,-11,17,-128,10,69,15,61,10,-49,19,3,4,38,-55,48,-10,30,-65,23,14,47,9,-87,54,39,90,0,-22,23,-13,-12,-7,31,49,33,18,47},{-54,24,-21,16,-104,72,-55,-18,10,103,47,-6,-70,127,8,-5,-127,-2,-14,85,6,23,-47,90,-9,90,-58,15,55,-88,-63,76,-12,-103,12,-75,-18,14,-76,53,69,43,72,48,-128,31,-17,-6,-55,7,-56,41,-38,-30,38,1,127,-57,12,-83,12,27,-50,61},{29,10,51,-60,-128,-43,-105,-5,5,-56,-37,2,-14,127,-1,-75,-128,23,13,90,-15,11,-40,127,-49,-20,-69,-88,7,127,-6,77,-63,-128,-26,-20,-22,-22,-49,-6,-91,-10,-63,57,-92,20,9,7,127,29,40,-25,-4,-18,-50,-2,112,-59,41,-117,27,-17,-64,77},{17,38,7,56,34,29,54,4,-40,-51,-1,22,-94,-128,29,-2,-83,8,79,-6,-36,-2,5,-108,15,-106,-46,9,-13,45,43,-1,34,127,9,-7,-12,-12,-26,-5,40,-10,-6,3,10,16,-16,3,84,-75,-26,18,-59,42,-46,0,-99,74,7,90,4,-27,30,34},{-32,51,-4,-1,-52,-9,15,36,-74,28,-6,-128,-57,127,0,-9,-128,-7,10,-12,14,0,29,-18,-10,-33,-18,-4,13,127,-35,36,-26,12,-15,52,-15,-5,-126,28,8,-39,-31,43,-8,-9,19,8,-39,11,15,36,-12,-6,-31,-15,43,46,-33,-128,-19,-10,-29,52},{16,4,26,16,78,2,10,-3,31,-36,22,-14,-68,127,-3,-51,33,-56,17,45,-22,-10,13,91,-2,-2,-35,-4,65,41,-30,57,22,-128,-35,66,31,-30,-39,71,61,30,-24,1,-128,40,-61,-22,-107,-91,-16,24,-80,-5,42,15,107,20,-5,77,-33,-30,29,61},{14,23,-39,-21,51,-78,46,0,-48,47,-1,12,80,52,5,-17,26,47,16,41,-29,41,-128,7,28,25,71,-128,-88,120,100,46,-39,-25,-49,-91,-2,29,-76,-10,-128,52,53,34,52,27,13,31,120,-80,24,-50,55,-119,-28,-47,33,-7,-34,28,-112,9,18,-32},{8,-21,7,-80,126,-40,-67,26,43,-14,-22,-14,47,127,-14,5,-42,15,15,-63,0,30,3,117,-80,-84,30,-66,-18,24,-22,42,-31,-54,-16,-63,-38,-34,-15,-3,-93,-16,-128,54,-59,32,45,-4,21,56,25,-5,-104,-36,-31,-10,-44,43,-53,78,-29,7,-23,-28},{-22,60,32,-14,-91,17,3,-31,-37,-4,50,11,34,127,50,2,127,20,-38,64,-29,4,-69,67,-52,-42,-77,-65,-5,-50,2,-13,3,29,-45,-128,-42,17,-85,14,-95,22,38,48,54,24,28,24,-113,22,18,70,-47,-104,-69,20,7,-70,-13,-6,67,13,17,84},{-41,-16,-23,-31,127,76,51,32,-20,-30,35,-50,-100,-39,-4,-9,-128,3,37,75,-22,11,4,-108,-9,-116,99,-65,-61,-17,57,31,47,68,4,77,-15,17,-26,34,-15,-10,2,2,-66,60,9,-14,110,-52,20,1,21,-23,-57,9,-127,48,-40,42,-22,19,15,-15},{-1,-30,11,27,-116,-1,90,56,-23,85,72,26,39,-90,61,-74,100,7,55,-14,4,24,-89,-8,8,-108,-24,38,-98,-117,36,46,35,47,-118,-103,-3,-13,-65,-72,40,6,-57,42,3,-12,16,27,-128,-41,15,27,127,-84,34,-17,127,41,18,-7,-23,-61,-40,-15}};
static const acc_t QConv_BN_bias2[64] = 
{4418,-4646,-8379,9217,-1980,-1980,-1625,4596,15437,2108,-5535,12416,14193,-6068,-9800,4951,11527,6551,1752,-736,9217,-4646,3885,-4291,3885,10994,-6424,14726,17570,686,2641,-9445,2108,8150,7084,1397,330,10816,13305,-5535,-914,-10867,7262,-7490,15971,-8556,-4824,9572,-7134,5307,-6246,-2336,9217,7973,7973,5840,14371,-4113,-5002,-2158,8506,-3402,7795,-3758};
const struct Conv1d_Params QConv_BN2_params = {.input_width=100, .in_channels=32,.out_channels = 64,.kernel_size =3,.stride_size=1,.padding_front= 1,.padding_back= 1,.output_width=100,.out_scale=0.0025941542955696183,.s1=0.03128962031589183,.z1=10,.s2=0.00446496908571206,.z2=0,.sb=0.024830257682471463,.zb=9,.s4=0.05385461753478641,.z4=11};
static const elem_t QConv_BN3[3][64][128]=
{{{-2,-21,-59,-44,-13,-55,27,2,-12,-29,-35,-30,38,-21,-30,38,-3,-46,-6,-29,30,-39,41,-26,-96,-20,4,-35,-30,37,56,1,-24,10,-36,-14,-120,-26,-39,8,44,-47,48,36,-8,24,-31,15,-22,20,-14,-8,-28,-26,-20,2,-4,-54,-13,-23,-13,22,-3,-32,17,-45,-59,43,-35,-50,-6,-14,1,0,-33,-21,-3,21,-26,6,-24,-32,-57,60,-46,-53,-26,-20,-25,-7,-8,-104,11,-18,10,-2,20,9,-79,-67,-19,-19,2,31,16,41,-8,10,-21,-15,23,25,-63,28,-11,-17,14,-4,19,-8,-31,-2,-16,-26,40,-55,23,-5},{7,-52,-24,57,11,-18,-4,-16,-54,-32,-48,-42,42,11,58,-73,42,20,62,-14,-18,-58,53,56,-41,-48,-24,20,11,32,-8,-12,25,-12,18,-59,-5,37,59,22,29,46,-31,-34,18,-50,-57,15,21,68,6,-51,-99,-21,-13,31,6,1,56,21,-2,-46,-33,33,-46,-31,2,-67,-4,-20,6,55,16,5,32,38,36,-7,56,11,44,-8,3,-38,84,-1,68,28,27,6,7,-44,-17,-41,-23,-57,1,25,20,-82,-30,-1,10,-84,5,-50,-40,-26,-3,61,-1,38,17,39,-15,8,0,28,-20,16,1,2,77,46,7,14,11,-10},{33,-7,-62,-49,-12,-31,-43,20,-70,-7,-107,13,0,-32,6,-48,-30,-68,-29,15,24,3,46,-34,-128,-56,-91,18,56,96,88,24,30,-9,10,-28,-53,-4,48,-72,54,3,-32,54,58,48,-56,31,127,-64,27,-115,-56,-11,29,56,51,-15,47,22,-5,-7,43,28,51,2,-30,-42,-70,-66,11,47,91,-128,53,-34,-49,-115,-35,7,-25,-56,-20,-31,-12,-14,17,-13,-21,-12,24,-61,22,5,36,-25,-49,14,-122,-128,41,22,-54,-47,-99,9,-18,43,-10,-17,-26,71,-66,4,-39,20,-13,50,-105,84,62,-18,2,31,-7,-41,-9,1},{30,39,30,44,-62,-35,16,17,-60,-37,-40,-34,-6,-46,-19,45,-2,33,12,35,-5,2,44,13,111,-14,-112,30,10,-12,-39,75,-6,-26,-49,-36,15,98,-27,-38,-30,-128,-9,-7,24,-26,33,-39,13,53,20,-42,75,17,24,5,31,-20,13,-10,-18,19,35,20,-31,24,28,-13,-68,-51,6,-28,-8,-53,24,27,18,13,-50,11,-10,10,-29,-53,3,35,40,59,34,20,-50,43,-63,13,-36,-86,-45,17,7,-5,6,-49,52,10,14,34,-41,15,16,15,-18,-12,37,15,35,-4,29,-5,8,27,-17,43,-43,-9,10,18,-29,5},{2,-2,10,-6,-39,39,127,5,127,-66,49,-63,-34,24,2,-16,-36,31,-38,-26,-58,13,10,-9,-52,13,-11,-20,-46,-42,12,-37,67,-4,-78,0,-21,-16,26,-15,16,-2,20,-20,-9,38,103,19,56,49,-21,-41,87,15,33,-6,0,-10,-23,-44,-3,-11,-63,-36,0,26,15,30,5,-63,-15,-3,-44,-17,-35,69,90,87,-58,-31,30,-57,6,38,-49,-6,-52,27,0,39,13,-128,-49,-3,-20,-4,-37,-59,-128,29,82,-38,35,-36,-23,-127,-68,61,-24,-2,-49,-69,-97,35,-82,-11,-18,-128,-122,-1,-55,11,69,-49,-66,-65,-38,-49},{-9,-65,-24,52,-30,-7,-17,-31,-64,-2,15,-1,-22,-14,-46,5,36,11,34,-10,-17,38,34,89,36,-7,-5,105,-38,3,84,-63,17,-35,27,-25,-8,65,-11,1,-23,55,-9,-31,35,-64,21,-39,-61,6,21,39,-31,-6,37,6,-2,-6,69,56,8,12,36,41,-30,-63,33,63,61,-33,-39,23,-6,92,69,66,95,-22,44,18,-10,8,9,-58,105,-29,83,58,17,48,-29,-39,-20,34,-31,1,35,14,38,35,39,44,7,-5,67,24,-44,-55,-14,32,-6,-2,127,75,16,24,19,59,59,11,11,33,50,27,-19,9,-27,-10},{40,1,-26,-5,43,-8,51,-27,31,51,51,-21,20,6,-53,15,8,-38,-12,-8,-8,34,-18,-33,-60,14,-2,40,12,-16,31,29,68,0,-46,-15,-47,-44,-54,31,-6,127,-35,2,29,-31,47,16,46,26,2,67,22,-11,19,13,-3,-77,2,7,-22,22,42,-34,30,-45,20,-27,10,-83,-6,2,12,-87,40,-6,-41,-18,-47,16,2,-7,32,-17,58,39,26,-39,7,-34,104,-65,4,-19,7,49,50,-1,-97,-39,9,-1,-47,38,-43,-40,-4,67,-5,-1,-3,35,28,7,24,61,19,2,43,38,25,-48,-43,23,-1,22,-14,74},{-2,9,-49,-27,17,-13,32,16,-18,65,-7,83,22,-86,-51,-53,-45,20,-46,-31,-12,-14,-12,-36,-45,-21,11,-41,21,18,66,-14,-20,25,-23,-35,-12,31,29,8,46,-78,31,46,9,-36,-56,25,-29,9,-2,-125,-65,-1,-21,38,27,-84,-5,-25,-44,14,-39,-42,19,2,-12,29,-14,-51,11,38,-2,-37,12,-57,-57,56,34,27,1,45,-48,-63,-12,-14,-31,-3,-27,-43,-33,64,-32,-41,25,-42,-12,25,59,-12,20,-45,10,-88,-2,1,20,-42,-5,-27,-40,-53,37,-20,31,-11,13,12,11,7,17,-10,41,-2,-65,-11,-16,15},{-12,27,-27,-43,0,-11,4,-13,11,0,39,-6,-17,10,10,-43,29,-27,26,-29,-12,-30,16,36,-61,-9,44,-17,-19,75,79,44,-9,7,32,-92,-21,-8,-61,-6,-16,15,54,-35,44,49,45,37,59,-43,5,-57,-13,19,-74,54,-47,13,43,42,-1,7,-79,16,-48,-7,37,-128,-2,-56,-1,-21,-44,-63,31,-35,48,16,2,12,-3,1,25,-20,9,-17,68,39,-8,38,-26,13,9,13,-16,30,64,94,-13,-34,31,74,7,-58,-45,-105,34,17,21,5,69,26,71,43,-34,86,-6,36,-46,-19,-47,-107,35,-40,124,-32,-9,25},{-13,20,-65,-6,-67,54,-7,16,-104,65,71,13,-2,34,18,58,26,24,-8,-19,27,1,8,49,-24,-15,44,17,30,1,-46,-20,1,2,-42,-23,-16,59,-29,-38,27,73,-17,58,-13,-60,-42,39,28,113,18,-47,-45,-19,25,25,2,31,-13,25,40,21,-55,0,-7,13,18,-48,3,-66,34,-38,-16,75,2,12,5,36,43,3,4,-34,23,66,-49,12,48,41,14,6,-15,-18,-19,-7,-5,90,59,-85,94,-25,-65,59,0,-4,34,-27,-24,22,-18,3,-17,-53,63,65,-118,9,-10,-15,19,-40,-22,-56,-31,3,75,18,-84,17},{26,3,-26,-38,22,-40,-85,-11,46,-45,101,-23,9,-30,-2,-65,-10,-95,-24,-7,15,-12,98,-16,-60,35,26,-26,58,47,10,58,-11,-23,-12,-34,-50,9,-30,-33,-8,-34,-49,47,-3,-28,-38,15,52,40,40,12,-32,6,-25,-64,18,-30,-2,-7,-12,-2,-22,-9,-75,-23,17,124,-49,-10,-16,16,43,44,5,32,30,-19,-37,-18,-69,-55,-9,16,60,18,-13,-12,7,6,-15,-61,17,-11,-4,33,16,-18,31,11,46,-24,-44,47,-64,46,-10,17,20,42,74,-29,12,-7,-25,3,-16,32,76,-37,44,14,-28,20,38,-12,-13,-7},{-48,37,-96,-1,16,-64,22,-8,-41,-2,-95,54,1,12,26,-31,30,-22,-41,16,-11,35,30,18,65,30,28,1,21,-29,-85,-3,-89,21,-12,-2,12,65,25,-128,-13,-50,9,41,21,-101,65,-44,-38,-45,-6,-76,38,40,22,57,16,1,18,-32,15,1,-35,27,28,-1,28,-37,-24,-52,13,-27,-15,-22,-3,-9,43,42,21,-20,-71,6,-29,-31,36,33,55,20,-4,16,35,-9,65,62,17,-55,-68,-23,-44,-10,-128,15,-56,-82,26,-21,-97,28,-9,36,36,-89,16,22,-20,-24,37,33,-88,-61,35,-39,-47,-32,-24,-25,-41,30},{-49,0,47,7,20,4,62,11,-37,-25,65,86,15,45,-13,16,10,1,-34,-33,5,-44,27,40,-63,-59,-78,-18,-55,28,-67,-25,47,6,15,-16,-46,27,11,-9,-61,-4,2,-5,59,-15,-64,37,-34,101,-38,17,-2,-3,-63,35,52,22,29,-43,-32,43,40,-27,0,15,-62,-83,-12,-33,57,-26,-2,32,-24,16,-14,101,88,45,-14,3,20,24,-109,-28,0,25,1,-31,-52,111,63,-49,13,53,127,-26,127,43,-11,5,-106,-61,113,-47,-26,9,61,-2,15,11,31,-24,29,-5,-55,-123,-8,-50,-65,-38,-19,-37,24,15,-87,24},{17,-25,18,17,-4,-8,-82,-23,50,0,10,52,25,-27,-35,51,-2,-19,5,-46,31,-14,-40,12,91,34,-15,-6,-9,14,66,36,22,-23,-14,0,17,29,-18,12,-14,-89,-3,2,-38,-54,-10,9,-88,4,-28,-18,-6,-3,-19,-76,-13,-19,-11,30,-9,-61,49,23,6,-6,-75,24,-15,24,-76,40,-9,-29,7,33,9,-44,-105,-1,38,-8,-8,-19,-128,-40,29,-20,1,-57,40,-15,2,-36,25,-13,15,-3,-88,44,28,-8,42,-72,-10,-22,52,-10,-11,2,-4,-11,-41,16,34,37,4,5,1,-22,-14,79,23,7,69,28,8,-34},{-7,-22,-4,-30,-6,2,61,7,91,39,-3,-18,5,38,127,-11,6,-50,28,1,18,12,5,24,-128,13,-14,27,91,78,89,-47,30,-32,-12,3,-2,-5,14,48,28,16,42,98,-6,-27,71,17,126,-39,11,6,8,28,-15,-31,-4,29,33,36,22,-4,-14,-9,-42,-60,11,70,-18,-39,-2,45,36,40,20,1,-9,41,-44,3,31,-31,12,42,-15,41,39,29,29,30,35,-61,26,23,33,-92,-34,55,-3,-48,7,-60,-9,-73,-19,15,-23,23,12,0,19,54,51,35,-16,2,3,-66,-42,-24,-69,-25,-3,6,53,1,-33,10},{1,-93,37,40,5,-25,-12,-18,-116,-7,84,9,-9,6,-29,92,-10,-72,34,-16,27,-44,94,6,-111,40,-23,-11,-3,33,73,66,-11,-51,-48,19,-32,10,-15,-87,22,56,-17,-15,28,-33,-14,23,-29,114,7,-4,-121,18,-3,25,17,-48,9,0,3,44,-16,19,1,-14,-6,51,16,93,-10,9,47,112,6,33,-17,-32,-45,31,113,-37,-31,-58,11,-18,13,18,19,-3,24,49,41,4,4,24,53,51,32,-82,-19,1,-68,61,15,12,49,62,5,-11,24,43,-17,22,14,35,22,40,92,-16,27,23,33,-23,1,-17,-48,26},{-48,35,-36,-9,-54,-29,58,32,33,-16,-45,-11,0,14,45,-52,15,6,-12,-27,8,-9,1,-14,7,-40,26,-1,-54,-19,-63,-38,-24,3,26,62,-127,2,3,-51,26,-128,-14,58,-36,21,22,26,56,50,-32,-74,119,-43,-4,18,80,-1,3,31,-10,14,-7,-12,-26,-24,0,-51,43,-3,22,-12,35,19,-7,22,27,-5,-4,-1,40,11,-13,18,-48,5,11,25,-19,-37,25,5,49,-20,-2,-93,8,-114,-15,-66,13,76,37,8,-22,31,-24,13,16,-1,0,45,-96,-13,29,-57,-23,71,6,29,-19,16,20,-42,-19,21,40,27},{36,-38,-23,-39,-41,5,46,12,-20,-12,44,116,-17,-37,-79,51,27,-26,-25,-36,27,21,65,-25,12,-74,49,34,-11,36,38,-54,33,-52,-25,-46,-80,-34,-33,52,-7,26,-16,-12,31,-60,-27,70,21,90,10,-6,-86,-12,-13,18,28,-53,63,-11,-70,8,-61,-28,19,-17,-36,-115,8,11,24,-21,-3,-128,-40,1,-5,-8,-48,15,4,-58,-34,-1,-21,-10,-96,-6,4,10,37,-69,43,13,8,-55,-32,-20,-31,-46,52,-17,22,24,-42,69,-9,-82,30,3,11,4,23,-13,31,-27,10,-46,-46,-22,8,31,63,-51,10,-40,-42,-25},{-128,7,15,-5,-17,44,77,8,33,24,-72,-35,18,19,68,-117,9,19,22,-31,32,34,7,-39,115,18,32,52,-40,28,-43,-36,24,-11,-59,79,-20,-92,-13,-35,6,46,27,42,-37,-84,-9,53,-30,-109,-128,-2,-76,-122,-10,14,-3,-1,3,35,-15,-38,-96,-7,14,-19,29,6,17,39,9,-22,-25,-14,-45,6,-35,81,43,-8,118,-8,25,-1,25,-51,56,-19,11,-10,11,-67,39,4,14,-23,-74,123,-42,12,24,-43,-128,42,-12,0,5,17,-18,5,-128,67,55,71,46,-6,-97,12,4,-22,-25,24,-5,4,68,-22,42,-74},{63,-14,4,-6,-34,-30,-10,9,-106,-10,93,-69,-7,8,-48,61,-2,-35,-20,-64,9,-59,55,9,-84,-14,-51,12,35,40,33,-6,-15,-16,-34,-15,-34,5,-41,-92,-29,-52,-77,-15,-9,44,-67,-52,-30,51,-2,-18,47,73,17,15,84,-2,17,-9,-13,-9,57,-55,-59,6,-33,-25,-47,9,-21,15,-26,-121,17,-28,24,-40,-107,-2,-20,-4,-29,-53,87,31,-81,12,-14,-62,46,62,-63,-115,-11,20,4,-79,31,12,-73,-99,101,-66,-72,-35,-34,32,-9,-38,-11,-19,-50,-27,18,-8,25,58,-14,40,-13,-55,-33,-7,34,-27,-38,-19},{37,14,-48,16,2,15,-20,-17,90,54,-48,58,-26,4,52,-7,-1,-4,-33,14,21,24,40,-14,16,20,-91,24,11,61,-64,14,-8,-25,-7,0,6,42,-64,-8,-42,-36,6,-10,53,-56,62,29,-12,28,24,0,76,52,30,-16,-1,-23,25,4,-5,15,23,-20,-25,-4,27,40,-27,8,13,-8,-14,24,-21,23,0,36,-32,10,-68,-18,-22,-22,6,4,-27,27,25,7,22,45,50,12,11,-89,34,-48,2,-35,-3,11,-37,-21,5,55,11,-34,20,22,16,-4,43,29,-38,6,33,58,29,-14,-11,33,-25,-5,-32,20,4,19},{2,8,48,-26,57,1,1,3,127,-27,14,24,-37,112,36,48,38,25,-53,4,2,48,86,-12,-53,51,-38,52,-33,46,-102,0,15,0,23,-27,35,10,-7,-7,29,-32,-12,-16,-66,-28,48,32,-12,-15,-13,29,-45,28,5,-116,-6,-16,-46,-30,40,11,11,-35,-4,28,65,-2,-1,83,1,-55,9,21,3,38,6,-22,-45,-6,-11,-62,16,1,-27,-47,-70,16,30,-3,-71,32,-44,52,-3,-48,53,-128,10,-2,-39,-105,-9,-128,-5,31,-128,36,-19,10,-47,3,38,44,37,-41,6,-118,39,-127,66,57,-33,-8,64,-43,-106,-34},{13,0,4,4,-46,5,-7,13,-6,9,44,-1,22,13,30,44,-54,68,22,1,-7,-35,-12,-6,-79,16,-45,-5,-36,50,36,-3,46,39,-39,-39,2,20,-42,-19,26,-63,-46,37,-52,-8,-18,41,24,17,-25,-42,48,-33,37,-24,-22,46,-1,-9,-20,-17,-29,41,30,-13,33,-69,50,-12,-81,11,-25,5,-9,7,35,2,-27,6,-53,1,81,22,-30,-5,72,-44,13,1,-42,21,51,-19,-21,-6,-1,-50,-13,64,-30,13,-22,-63,-37,-19,-18,-2,-99,17,2,-52,9,9,64,25,-1,59,46,24,2,12,-3,14,45,23,1,-5},{1,-10,-66,-56,17,51,52,-15,112,29,28,-62,3,1,7,-42,1,-54,-10,-6,32,60,36,-45,-16,-33,-23,54,9,3,60,-30,-20,-25,-10,57,-33,-22,45,-63,-2,-59,17,4,39,-8,47,36,68,-27,-16,-7,-8,-27,37,-4,66,4,-34,-7,-23,10,29,36,-8,-35,46,-88,-62,-1,-3,43,55,-25,1,-10,20,-128,-128,-17,-42,-60,13,23,20,4,-52,11,-23,35,49,-128,-10,6,-5,-81,23,-20,-92,58,-24,14,35,-16,-128,35,-22,11,46,-18,-97,22,4,23,-114,-90,-19,-2,-65,-12,28,8,15,-39,-18,-82,51,6},{47,6,20,33,18,-48,-39,24,26,-50,-15,34,14,-24,-64,30,39,14,-24,-28,20,-26,57,34,57,-15,-128,48,-11,-1,29,-2,34,-12,26,-22,-71,-18,-51,-17,8,2,-21,-24,15,9,26,52,-78,18,12,-33,-5,-17,-28,16,10,-29,2,-44,-28,-19,-22,-6,4,10,29,-34,24,55,-21,9,50,-16,23,-1,0,28,51,1,84,4,54,-73,2,0,-40,-8,8,51,-46,-26,3,16,2,17,28,3,-26,-38,-39,-22,-96,-85,82,-6,-9,12,0,-23,-2,-61,28,76,34,10,8,-24,-33,18,39,46,3,0,-3,21,27,25},{18,26,-33,-25,3,-13,-41,-13,-11,69,-59,5,-59,3,17,-29,8,41,60,70,-27,21,-32,35,3,-12,29,-5,-36,22,19,16,33,5,-49,-69,38,-6,14,35,24,39,8,19,-20,109,66,-29,41,-62,-8,44,95,1,-19,127,69,-6,6,-6,18,-7,33,6,58,37,-24,-4,-16,-44,25,-16,22,-7,21,0,32,-58,-66,-32,34,-20,-36,-18,63,-18,-24,-27,33,-37,13,-81,-17,50,-32,22,-66,-56,-69,5,59,-5,63,-37,9,53,50,59,-6,8,-70,61,-49,-17,-55,-27,8,0,-65,2,66,-7,-39,-3,-23,-40,6,-7},{20,16,2,45,115,-14,-84,-19,1,56,-34,-58,-11,23,-15,19,21,-62,-15,6,-12,24,-1,14,-51,3,-29,10,-35,20,-40,24,32,-26,-44,-5,-5,22,17,10,12,91,80,-16,23,11,7,26,41,64,-23,23,65,-32,40,-10,31,-4,-23,-10,-14,11,43,-4,53,13,1,70,23,-15,16,-62,52,6,-23,-5,-2,28,-49,-18,18,-21,8,-1,-54,58,-39,3,13,44,75,-25,15,31,-4,-7,-33,-69,-3,-27,-54,38,23,-76,23,-10,-30,115,-26,25,46,11,-4,36,-25,55,14,14,-28,-11,73,46,-43,-5,-40,28,-80,11},{-5,-19,-17,36,9,-51,57,-39,-99,58,39,-74,-46,14,24,59,74,-29,44,-7,-50,-2,-3,10,28,-18,-66,60,-25,-9,34,-53,34,-24,26,-86,3,108,-22,-88,-18,-24,44,-1,-4,-85,-14,18,44,-98,-6,-5,-57,14,-19,-24,-14,14,10,25,-9,2,-8,52,-36,-40,34,61,-62,-34,2,10,-25,-2,14,-7,10,-62,-73,-13,-69,-10,17,-59,3,-24,78,40,44,55,15,16,30,51,-68,-114,-58,-22,24,11,21,-2,-48,-60,-23,3,-81,47,-11,22,7,23,12,-3,-128,25,49,-77,29,-78,-78,9,-7,-12,33,27,-31,-12},{-49,3,19,-29,53,-53,-17,4,-62,-88,37,-95,-55,-10,-46,-123,-52,37,30,10,-128,-68,-23,-7,-128,-19,34,40,-39,-7,36,-15,0,27,45,-85,-18,1,8,6,15,-41,-16,-5,-43,96,0,35,9,18,-33,38,-19,34,-53,-38,-4,14,62,34,21,-20,58,-12,32,-46,4,-113,109,-59,0,59,-36,115,12,5,75,5,2,4,83,-23,-25,-60,55,-47,25,7,12,1,-29,60,-72,-14,-89,23,3,23,21,73,-50,0,-39,-70,-24,30,-80,10,-21,22,-1,5,-103,2,31,-66,-34,76,-16,-37,95,-25,63,21,25,-65,-4,0},{-16,7,-35,-30,-35,21,8,45,-59,29,-3,0,26,-26,-100,-128,-13,-13,-11,-8,-37,57,-25,33,63,31,-78,66,-2,34,116,-10,33,-28,3,-40,16,-35,50,33,-5,66,-32,-1,11,-56,25,3,-35,35,7,-24,-23,1,18,48,47,-6,-57,-60,-42,27,-95,39,60,2,2,-18,103,11,6,1,-17,35,2,-3,-53,-128,-43,-26,-9,-25,-19,14,27,-11,-46,-21,-6,-79,27,-26,-29,39,-2,69,14,65,-106,-6,4,-35,4,-23,-64,58,33,35,14,-17,16,26,95,-22,-60,4,-13,4,51,-1,29,-15,-11,-25,39,-70,12,21},{26,16,-48,20,34,17,60,-21,-7,59,66,-102,-7,-24,-39,80,-73,-73,39,-25,17,75,31,-14,-29,18,-46,34,-10,42,79,-23,19,-14,-6,1,-41,-13,-28,45,-1,-16,-8,9,-20,-11,-30,21,-30,27,-18,-7,3,-30,9,11,-40,6,-21,81,-18,18,-7,-22,18,-14,30,40,-6,7,-26,-6,5,-31,5,6,-2,-30,6,7,50,-2,50,-38,-17,33,64,6,-67,41,81,19,4,-40,-12,8,85,83,1,-8,-2,66,48,-8,-21,-31,-62,37,8,17,-29,-33,0,-23,24,51,-40,-64,64,25,34,-67,-27,-4,-36,3,-58,36},{-6,-38,9,-11,21,50,18,-26,70,39,16,1,4,23,11,11,-42,-8,-6,-43,-13,2,-54,-11,-105,33,5,36,10,-12,42,-57,19,-17,-38,8,0,-63,-66,-34,4,-34,41,37,17,-1,-9,46,32,-128,-14,31,-83,-21,-20,-58,-21,40,-1,-23,8,-18,5,-13,9,-34,19,75,13,-92,2,1,12,-85,-13,-29,-38,-52,-39,2,-105,-4,43,-16,12,43,-62,15,21,-27,64,-50,45,6,6,-34,9,-14,-69,20,5,-12,-22,38,-60,-13,-55,42,-25,-9,-93,61,-10,1,30,25,-40,-108,-41,-6,-6,-20,-22,9,33,-54,33,25},{8,-51,12,-3,70,-56,-16,-32,-74,-2,-2,-44,1,28,-55,18,-19,7,16,14,-36,53,-3,57,83,-8,27,60,18,-29,16,-33,40,-53,-51,27,-4,34,62,-21,-14,-9,-30,-12,43,28,52,8,-35,64,-22,-2,23,2,-7,39,6,13,81,6,2,-4,52,8,24,-30,76,14,17,17,-6,35,31,68,42,51,53,46,56,-5,41,-20,0,-26,24,29,7,32,12,15,22,8,21,-10,-12,-29,-38,72,-5,16,-28,9,-29,27,26,49,-35,-2,-22,3,-5,2,-4,11,3,5,38,31,-36,38,-36,-7,19,21,-49,-15,-51,37},{-23,18,20,36,41,-16,96,-7,-16,-20,41,-69,27,4,61,70,-29,30,30,8,31,44,-35,-29,4,-71,1,-24,3,1,-49,45,-24,-13,-49,-10,-16,49,-4,25,11,-24,-54,7,-23,2,-2,-3,-64,97,-18,39,23,-42,-5,-18,-40,19,-19,108,-39,24,48,-2,-119,-34,-32,-45,-72,1,-21,-15,-69,59,50,15,42,11,16,12,-7,-15,31,-22,54,-9,68,19,-24,40,-3,84,20,-41,31,-28,76,-28,-13,-8,77,92,2,-6,18,-17,49,-62,-2,-23,-125,-5,23,58,-3,8,-62,50,83,-21,-128,-13,33,-8,-7,-5,-46,-1},{-16,23,35,42,-14,30,32,-10,45,-14,50,-70,-15,-9,-6,-53,-74,53,-26,-63,-32,19,65,-25,4,17,70,-14,18,-7,108,-36,58,29,-23,-25,26,-21,5,26,36,13,-17,-33,-1,7,30,-6,6,-17,45,-36,127,-54,-23,10,18,52,-32,62,33,-12,6,-39,-25,27,-66,-4,1,33,-9,40,27,25,2,62,-24,-20,19,-2,36,15,-11,-5,24,34,-30,-15,-14,24,-6,-9,67,-63,-46,31,34,25,0,17,13,-54,-68,61,-13,-121,-10,55,-18,-12,4,-48,-40,-74,-57,2,-3,-55,-42,7,-19,5,10,-20,-21,14,3,41},{-54,-14,-27,37,-18,-23,43,0,97,19,-32,37,-11,7,25,-128,-59,9,18,2,-16,-2,-57,28,-29,27,-29,20,-31,27,0,32,35,-13,-47,-16,44,-45,-16,-69,92,27,-95,-22,9,15,28,-25,-4,47,-39,-35,39,-1,29,46,-100,4,6,23,-1,-27,-15,20,26,17,41,-31,-60,25,-58,62,-14,-103,45,-27,27,2,27,28,-32,24,-23,15,-11,12,63,-27,4,22,13,-41,-39,-46,-32,22,-84,45,-36,-15,28,2,-14,79,-30,-90,25,68,-45,45,51,-34,46,-20,48,-17,-2,-24,-115,-20,18,-33,18,-10,120,19,-39,-61},{9,-4,4,-43,44,2,-67,12,9,-14,22,16,-25,-18,-99,47,8,23,-29,-2,47,30,-5,4,115,1,-86,10,26,-6,41,46,43,12,18,-53,-22,-39,-32,33,-19,126,-89,-62,-8,-8,25,35,-9,-26,8,37,46,38,-19,42,-18,-19,-19,-68,-27,-16,0,18,24,-11,-10,2,-5,24,-8,-20,10,-83,-42,-9,33,3,35,-23,-34,-14,47,-84,-31,15,25,-21,-25,2,50,-5,-49,-37,33,18,15,-3,-79,-36,-9,-26,41,19,12,-21,1,1,-19,-8,-20,-49,16,-12,27,10,16,-122,-31,12,15,67,10,-9,-78,-19,53,1},{-34,-39,1,25,-48,-4,9,-21,-17,54,9,-34,2,1,-24,69,91,-18,46,0,-6,7,38,14,26,61,26,-14,-40,-30,-113,-3,6,1,-4,10,-20,61,11,41,-5,-16,59,51,51,-15,23,11,-23,-23,11,46,71,45,41,52,28,-24,-23,21,0,11,-35,21,-93,6,63,28,7,17,3,1,-26,127,-18,46,47,23,-77,39,53,31,0,0,-29,42,-5,27,18,42,30,-4,-19,55,22,38,27,-23,71,27,-13,-43,57,105,1,27,-13,1,10,4,33,15,-74,3,14,6,17,89,62,-71,-60,90,2,-16,24,1,-42,20},{-8,7,-65,-26,53,-95,-7,21,14,9,-94,39,-19,-60,-26,-68,-56,-9,-4,20,-3,-60,40,-45,33,-34,-66,-8,37,34,-67,-14,-52,0,-5,-6,-41,36,22,-69,10,-80,68,-24,49,-43,-69,32,86,-27,35,-67,28,50,-17,21,40,-30,62,-11,-13,11,14,-8,-32,15,-29,82,-37,3,24,13,19,-32,2,-28,-19,-50,-15,-30,-71,-26,-35,-36,-11,-29,24,-32,-10,-8,37,-77,50,-4,30,-128,-66,18,-9,-104,-22,-55,85,-29,-19,57,-9,7,27,-13,-45,34,-46,-44,-5,47,2,65,-18,-6,19,-30,-46,-14,31,44,108,32},{13,27,-13,-19,21,28,-68,-28,-31,67,-21,48,40,59,-75,-39,-101,37,-13,42,14,-102,15,-40,-92,41,-45,-30,-30,-11,-25,13,30,21,-83,4,0,-12,-48,-12,47,-88,8,10,1,-5,-14,17,26,24,-60,46,52,-89,19,20,-14,48,1,22,31,34,102,38,-23,-11,-21,-56,-33,-39,-19,13,-12,28,-35,-13,4,28,-54,35,28,5,46,71,-23,20,22,-14,25,-7,31,-45,14,-85,27,-82,-18,89,-108,-28,-18,34,3,22,-53,-21,9,-71,-30,7,-21,7,4,-25,6,26,22,-18,-59,-42,-22,-28,27,-11,76,-77,-54,5},{-12,-53,-41,43,-37,-23,36,16,-113,1,-35,-7,15,37,20,-87,21,1,6,-23,-36,-6,27,4,120,13,42,54,-22,-61,48,-26,46,-71,20,-8,0,15,17,37,5,38,-4,-62,20,55,-29,-18,-51,5,7,2,25,-37,37,25,-35,15,80,68,1,-16,-58,33,7,-19,28,82,-13,-60,-12,40,17,52,62,74,26,2,66,21,26,13,10,-88,-40,23,37,13,34,5,34,-49,-11,42,-46,-81,-43,57,51,-32,4,13,-41,37,19,21,-74,-15,-37,3,-26,-10,61,67,-7,-9,26,-1,-20,19,3,43,-20,28,-60,8,36,-26},{14,6,12,-44,8,12,-54,-18,-77,118,-23,3,70,40,81,-128,33,9,20,-42,7,-16,79,3,-40,-50,-18,14,2,37,34,-2,-10,-9,-60,-11,13,-76,-42,-104,30,48,24,-19,13,10,-15,7,40,54,-6,38,31,-14,-68,-40,-5,-25,-33,37,14,3,-22,25,-46,-3,39,-61,3,0,23,3,-25,-59,47,-7,-5,-52,-7,15,98,-43,-10,4,52,34,50,30,3,15,35,-128,2,31,-24,-90,-62,46,-110,65,-54,-46,7,26,-52,-32,44,57,25,32,-30,15,15,13,-3,100,-30,-110,-41,56,-75,-63,34,23,20,-27,-37,-8},{11,-6,-32,-7,12,-33,-51,1,43,17,68,42,14,15,-80,-51,10,1,8,23,16,36,3,39,127,-16,-37,29,35,-1,6,52,-4,-13,-29,-39,21,26,10,52,44,22,-86,-20,-5,-9,-62,-51,-64,-46,12,27,-19,13,24,1,-8,-16,49,19,1,44,-14,22,35,13,42,109,-16,-9,8,-2,24,-16,37,25,40,-5,17,-11,-71,-7,-3,9,23,-13,11,-1,37,-22,-19,27,-37,0,-10,65,6,98,-2,16,99,-128,-59,54,37,35,55,-18,-9,18,-10,-108,30,24,-20,8,12,22,49,1,28,69,3,4,-49,16,25,25},{17,-15,-52,-32,-17,-25,43,-21,2,-61,127,-34,49,11,47,82,9,-54,-3,-19,25,37,40,-8,-116,-73,-55,17,17,-15,49,-7,-3,-56,-37,24,-9,-25,4,-14,7,92,56,61,23,-9,-3,42,35,13,16,-33,-128,-9,-38,1,31,28,34,46,-5,28,8,-29,-33,-55,-20,-50,77,-104,-14,53,-13,43,17,21,-2,76,102,74,80,-27,-4,-62,24,27,-2,-7,1,-10,-29,-41,-37,-11,-8,-128,-47,18,8,-20,51,-18,-21,-68,10,-48,-14,2,-13,-9,-27,-24,-28,16,-31,7,-28,-41,19,90,-35,11,32,30,55,-23,-2,-20},{37,56,7,-34,-29,27,-42,-6,-18,29,-51,5,2,16,113,117,17,59,21,-26,-14,-38,89,31,-128,-40,21,-15,-93,71,7,39,-17,-18,59,-22,-10,-45,-37,-3,-37,-43,21,-25,-7,-51,62,-1,85,21,29,-65,97,39,-89,-35,30,20,-6,-69,10,24,-37,14,-15,12,66,-128,40,34,5,-32,25,102,-24,-5,42,23,51,26,-30,4,-1,17,45,42,46,-4,-9,50,-70,-104,54,-12,7,-24,41,-119,-40,-6,-3,92,-4,-82,64,-101,-13,42,13,15,-14,-16,44,-2,-49,4,-19,-12,-23,-3,-70,-128,-114,-38,26,-1,-128,12},{41,9,-10,54,82,1,-29,-34,25,95,24,-58,37,20,-39,47,-9,-10,23,12,22,-21,22,10,-21,-69,40,5,-14,-12,40,-27,31,3,-9,34,-57,-62,-21,-27,-6,59,7,19,36,93,-2,3,-38,109,-5,-115,-3,21,30,-78,25,-27,12,-25,13,-2,76,-23,-15,-17,50,-78,30,52,-4,36,20,-12,-4,24,34,1,12,3,110,-27,-40,-29,-4,33,-36,22,6,17,74,-39,-50,-19,0,5,-5,42,16,-41,-14,-38,-14,-21,-12,10,-10,41,2,-12,-32,-21,-63,2,62,72,10,21,4,8,64,-27,66,23,-23,28,-22,22},{48,-11,2,-14,-62,28,11,13,-69,-34,25,-4,19,31,21,-14,-2,-91,42,-27,32,5,2,15,-47,-38,-51,20,16,33,39,-19,-9,-43,-27,36,-22,-97,-43,20,30,63,-24,40,12,-24,-26,-1,-2,4,-7,-11,-28,46,-10,10,9,-13,-18,9,32,9,-86,-28,-68,-25,1,-18,-19,34,-5,74,30,8,-10,-27,11,-57,10,31,75,-40,20,-18,1,-1,-36,41,-1,43,-15,-62,-9,38,-21,-118,-30,20,-76,-41,-41,-47,37,39,-83,22,-42,-61,12,-5,-58,52,-32,15,-99,34,-8,3,13,74,-56,11,78,7,46,22,19,-19},{25,-2,11,28,37,20,44,-1,27,32,62,1,1,-4,-102,20,-72,-5,3,6,-6,113,-27,18,71,-3,-5,26,-10,20,85,3,31,-9,-2,42,-27,-21,30,4,-41,52,-26,12,31,73,23,-41,-61,16,22,75,55,-3,61,1,39,-32,-6,-31,21,29,-19,-34,24,-7,-30,53,24,-33,29,3,18,-10,-10,-14,-18,-54,-20,-6,-125,-23,-50,-28,-16,-10,-122,-28,20,15,12,-34,-1,-72,27,-23,-28,-13,-69,23,-1,-58,-26,33,-66,10,1,-26,9,23,-13,11,-29,-10,6,-55,-22,25,26,-15,38,66,49,11,-75,6,-65,-8},{-53,-20,-54,-29,40,20,-96,17,36,-18,-103,38,-26,-14,87,70,-5,38,45,-28,-42,-51,-27,21,-38,-5,112,12,41,25,-62,-44,-14,-37,-56,18,46,-66,31,-128,18,-56,-64,-64,-38,77,-3,-3,63,-22,22,-4,127,-64,24,23,-82,18,0,-11,-9,-72,-8,-14,12,-23,-13,-22,-27,53,-41,-80,0,125,-4,1,67,32,-14,-44,-70,-63,30,-33,-12,-41,-35,21,-8,-30,-80,-57,12,13,-49,-7,34,-106,23,-51,11,25,-18,46,26,25,-45,12,-38,-50,-96,-33,-67,-6,-56,-53,10,54,-21,31,22,-12,32,-33,-30,-94,81,3},{-23,11,-25,17,-4,-24,60,-42,54,-14,75,-108,4,-30,-42,10,5,-37,-7,-64,6,25,-57,3,-113,41,-40,25,-12,-10,20,-117,50,-4,42,39,26,17,64,-75,3,6,-9,81,-20,-66,67,8,-7,97,-30,-32,16,-16,35,-48,47,13,-15,8,-22,-1,19,-71,-42,-54,-10,97,55,-128,-27,39,-5,-5,17,18,-36,-107,13,-28,116,5,7,-42,116,-49,-100,3,5,17,14,-41,7,-1,-20,66,-10,8,-57,-35,-6,-31,-68,-31,-16,-68,-66,21,-61,0,-30,38,3,-45,-88,-3,-9,-15,-92,-45,-12,-66,24,11,-4,9,-33,22},{-8,4,-72,-41,58,5,39,11,17,-10,-51,-32,20,-6,27,-96,-39,-48,8,-33,-2,48,49,10,-29,-108,-34,-36,7,54,51,-59,51,-19,-30,42,-42,-15,68,-16,19,64,12,2,42,53,-23,24,77,37,5,1,58,22,-15,47,4,-14,-27,14,-4,-7,45,-31,32,-36,5,-105,60,-29,-5,56,60,-116,-20,-40,50,-5,-45,1,32,-12,-72,-14,-25,0,2,43,-18,18,9,-49,26,29,-1,-38,-13,-59,-79,52,-11,29,52,-41,-51,6,-19,31,29,-11,-75,10,-119,-26,-116,41,-30,28,-64,85,10,-109,-5,1,-35,-16,-24,19},{14,-35,6,11,-50,-25,47,-3,95,-5,-29,13,20,42,-1,50,-28,22,57,-16,15,59,-7,44,-10,17,13,7,-4,7,6,-10,-19,-19,21,-8,-18,-3,-32,-7,43,-20,-6,-32,-13,19,67,-32,13,-17,16,-3,-3,-26,2,19,-6,20,17,48,38,4,34,32,-36,-19,23,27,-23,48,-30,56,-29,-74,63,14,48,24,-21,30,-46,9,-4,-14,-52,2,51,14,39,24,-27,-59,30,17,22,-31,-33,-19,-21,-14,-9,-40,-11,-11,30,-24,39,-9,11,58,-35,-3,44,58,71,-29,22,-10,-69,14,-4,-10,62,49,-7,11,14,-37},{35,-15,30,3,-55,-40,16,14,-83,15,127,7,8,14,-40,1,-25,60,-29,-10,19,12,-10,-28,20,19,61,-38,24,47,14,11,-6,-18,-58,57,-67,-35,-3,-2,-55,-14,-107,-29,-19,6,94,-33,-53,61,45,-10,45,3,-24,18,79,-103,-4,-31,19,-12,-14,-20,-24,4,4,21,-55,22,-23,-27,37,-103,32,7,-30,-69,-22,37,2,5,-48,-33,55,49,-11,-58,13,-23,33,65,-17,-4,-2,-13,-23,-21,69,23,90,-58,43,-7,39,36,39,35,12,-37,15,-7,33,20,-49,-30,45,-28,-12,52,23,64,34,-6,-79,7,4,50},{-43,27,-6,-18,-13,-24,80,13,101,-2,88,-49,-13,27,-10,-49,-17,32,-50,-25,-37,22,-30,23,60,-15,22,-22,-46,-10,2,-13,31,18,0,-3,-14,-22,24,-64,8,27,-97,-33,-2,43,35,-3,-12,45,-49,6,35,-3,-26,-13,-60,-1,59,-51,28,-94,20,-20,45,-14,-2,-96,79,-33,-38,38,-26,-28,12,5,-3,-17,71,16,50,-18,-34,20,22,18,-13,-65,-3,-17,-47,94,-59,-9,-36,88,13,-13,87,38,31,9,-12,17,-67,-62,-9,-3,-42,-4,38,-9,-29,4,-19,-44,8,-1,-20,-103,18,-35,13,-10,17,-4,9,-55},{-35,3,44,61,32,7,47,-19,13,54,76,-87,5,2,102,42,-15,-55,29,-18,-1,46,39,-45,-24,-16,-33,-8,-79,-7,0,-10,20,-21,-11,110,-65,-8,-71,-39,-26,127,-31,20,-53,-55,34,-46,45,-54,-91,-2,-54,-110,19,-68,-27,-21,19,51,18,-14,-10,-2,101,-43,29,-26,18,20,-5,-18,-18,38,-9,32,40,-80,-59,30,127,-6,4,-25,-3,-1,70,28,-26,16,36,20,73,-46,-1,-2,3,0,-10,-64,26,20,-20,-9,-64,-9,11,41,-26,-28,-100,40,-73,29,3,-14,-104,-47,-30,-20,49,-3,52,10,27,-23,47,-38},{-35,6,-7,19,26,-14,48,-15,15,4,72,-56,-16,48,-27,47,20,33,-25,10,-13,31,29,27,4,-8,84,15,-128,-5,44,17,39,-13,-17,-57,15,13,10,-17,12,-47,-29,24,-56,4,-8,28,3,27,-117,88,16,-128,-16,-16,-39,56,-95,-15,0,-31,68,-36,-17,14,52,-78,5,-17,-33,11,-28,-14,1,-41,-20,-4,-70,-28,-75,-13,88,41,-8,-16,-16,-22,15,17,9,-7,-62,59,-20,-8,1,-128,24,-5,-21,25,-46,-52,-9,44,-28,18,-7,16,-23,-42,50,-5,-22,-34,37,13,-48,-5,-23,-76,-21,-19,48,21,-54,-53},{2,30,-4,-18,26,8,-5,9,-128,40,-48,29,1,49,57,123,64,26,-13,44,1,-58,20,-38,-40,-8,6,-10,-95,19,-57,7,22,-13,-45,39,15,44,8,-15,51,46,-91,-70,-33,-7,-80,4,-55,118,-14,-45,25,22,-67,-85,-2,-8,81,-2,-2,21,22,6,32,-8,-30,-41,99,75,4,-31,23,127,0,16,45,102,127,17,-53,-48,5,39,30,-45,88,-26,36,-84,-128,116,-23,-99,-12,-52,6,48,127,-68,-15,16,15,-58,127,11,8,-23,24,4,-128,-33,71,-33,-31,44,-67,31,99,8,17,-27,22,-34,-12,60,-65,11},{20,17,-33,22,62,-10,35,-32,-105,60,57,28,11,27,58,8,-40,45,4,-32,1,-31,1,-56,-36,51,7,23,-18,31,-7,32,5,22,-45,8,52,0,-128,-104,30,13,-12,-8,-38,-123,-55,1,56,45,-6,-110,17,-22,-16,59,-43,-11,6,-32,21,-18,22,69,44,21,16,-10,4,44,-40,11,14,-45,-23,-15,-3,-1,49,-24,-49,11,33,23,55,24,17,12,-7,-12,49,-26,84,-30,24,19,35,6,-38,8,-45,-42,3,4,-1,-24,-13,89,-38,11,36,8,14,-10,-28,59,8,-8,-85,18,26,-128,-53,10,127,18,13,-7},{10,-42,2,28,39,0,78,13,38,19,16,-58,-18,57,47,11,-4,3,3,19,-6,42,-6,13,-128,58,50,39,-1,31,3,16,25,-9,-26,-3,-10,48,39,5,90,68,-1,51,3,-32,1,109,127,92,3,22,-52,27,17,-11,51,7,-2,41,58,16,18,-57,-3,-28,34,127,-19,-5,18,-26,-16,-25,-20,0,84,1,-53,12,-49,-30,-19,8,9,-14,-53,12,23,45,48,-15,44,2,16,-65,6,37,-2,19,-32,-72,-61,-128,-44,-42,-42,16,-4,16,38,71,-99,-15,-31,-3,-43,-16,-20,-108,36,4,-4,11,43,22,-85,-11},{-42,-52,21,4,-42,17,87,2,88,-31,104,-108,-43,9,-34,38,10,-31,8,17,-4,56,107,11,-14,-30,3,-58,-28,26,22,36,-41,-25,-14,16,-14,-49,-16,18,22,-14,-128,29,-14,59,88,34,33,-42,9,22,-56,0,22,-59,-33,4,-20,8,-19,-30,-33,-1,-18,-26,-57,-18,-31,-23,-22,-55,-26,-128,-6,9,-36,-119,-128,-20,36,-20,-19,45,10,-73,15,15,-17,70,-8,-44,-23,6,-27,43,-48,52,-128,6,72,26,-14,-33,-83,-89,-84,31,-17,-24,-76,-7,-73,-5,-6,-66,-56,-128,-128,-16,-19,-118,4,-53,17,-62,34,-6},{-40,-32,-14,-24,-18,20,-31,-11,-77,-24,63,35,-17,-3,-105,-53,28,50,35,21,-30,27,29,-16,-119,58,-5,0,3,-24,-2,-12,17,-7,11,-1,-9,5,-14,-19,52,-53,-64,23,-17,-50,-62,20,-13,15,-9,61,6,-11,-48,22,42,33,-58,13,24,-33,26,41,23,-2,74,-2,81,-48,6,43,7,116,6,-17,11,-73,1,20,39,-1,83,43,-7,-73,16,-28,15,-10,-40,61,-2,19,-33,92,35,-50,37,-19,-122,20,-78,-49,31,63,12,-37,-34,-1,-47,3,30,4,1,-43,38,64,109,-27,89,-4,45,41,59,16,34,8},{23,2,-24,-17,-43,-23,36,-10,66,48,-111,-21,5,90,40,12,-11,-9,-5,11,31,20,-26,38,18,0,79,-32,-35,-53,29,1,34,8,20,31,25,-14,4,50,12,-13,-1,-67,-16,44,-14,6,42,33,-42,8,89,33,-17,19,-32,1,19,36,19,-42,7,12,-23,-51,9,23,-30,-128,-37,-1,-31,-87,28,26,-6,48,-22,9,84,-55,-6,-23,-14,20,46,52,-20,43,36,-122,-24,-15,3,-16,-71,6,5,-41,16,24,-16,44,47,-72,-60,41,-46,29,14,-44,-12,-24,5,1,-35,-44,-78,25,-22,-41,8,-6,44,-63,-49,-2},{-12,0,22,5,43,-70,7,16,82,59,27,28,3,-36,-46,18,-5,23,-106,-128,48,49,30,6,-45,-18,-18,3,-19,-10,49,-6,-15,5,11,-67,-68,54,-33,29,-26,12,-110,-11,-62,-12,26,-13,-42,46,-8,-65,-38,33,-39,-13,-14,-6,-12,-22,-84,-21,-20,-71,-28,-37,25,28,25,-60,5,17,-7,81,21,7,-28,7,-6,-5,26,-23,-31,-92,4,31,-35,-3,-12,-61,31,17,-44,-13,2,63,9,-48,14,38,4,-2,42,-34,46,-23,-15,20,-2,-63,35,-53,46,21,69,-4,25,-41,-10,34,0,61,-41,-30,1,-38,-29,-31},{-37,0,-19,-12,30,13,-46,4,9,-24,-128,-18,10,-10,-29,26,-3,-35,31,-15,4,-2,-45,17,-2,-5,23,22,-12,19,55,35,13,9,-29,35,7,-13,-13,-48,8,-74,-29,12,-11,-11,-32,-30,12,-1,2,-6,-25,11,-3,19,10,31,94,86,43,-21,13,51,-30,4,-1,75,-3,26,-53,50,-4,-9,52,1,40,61,64,-17,6,8,5,-41,-22,-36,42,27,1,-20,-26,-3,5,10,2,-128,-85,92,-29,-31,3,5,-30,28,28,22,11,-53,15,17,14,7,23,72,-24,25,15,29,-9,-17,-4,35,51,34,-31,-20,23,-23}},{{-14,11,-60,-52,-14,-53,11,3,-41,13,-24,-73,25,-22,4,-19,-31,-22,16,-36,-1,-41,97,-2,43,5,69,-25,12,18,-33,-9,8,-2,1,-21,-91,-5,5,-63,6,-38,41,66,-48,18,10,10,67,115,11,-25,22,-25,-28,63,28,-21,7,-24,-25,4,17,-10,-52,-57,-39,32,18,-15,12,-41,-5,19,-8,28,-7,29,11,9,34,-37,-7,19,-1,-1,25,-48,-33,8,5,-30,-41,-15,6,58,-22,-68,-48,-39,-31,62,-35,-4,-27,-31,-26,-51,26,-36,-16,6,-28,-10,-1,-23,-32,-13,-2,-4,15,5,44,-59,8,-59,-1,2},{6,-71,21,72,24,-31,-31,-31,5,11,-116,-71,2,6,48,-32,51,32,50,14,-5,-32,40,25,-37,-18,-5,47,11,-11,57,7,-14,-42,-18,21,-19,23,31,-81,-7,6,-11,14,32,21,29,32,58,12,2,-6,-5,-4,29,-16,10,-9,46,42,12,-52,-9,70,15,-27,73,-67,41,29,-8,30,1,9,59,44,111,-14,20,32,79,13,-24,-10,60,12,5,58,24,35,-22,-14,-26,38,-21,-42,22,-36,83,-55,-43,-11,-41,-31,4,-30,-18,-19,19,32,-58,30,66,66,14,32,-5,87,-30,1,-41,15,70,33,-8,19,26,12},{19,-17,-45,-22,-7,-12,-22,27,-88,-11,-73,9,-5,-47,37,-37,8,5,28,-2,29,45,26,39,-118,-114,-65,-26,18,97,82,-15,31,-4,19,-17,-22,22,45,22,24,-9,-35,39,-6,44,-20,47,120,-17,-3,-61,46,22,24,69,38,-46,-6,49,-36,-22,38,-23,47,4,-18,-42,-36,-62,9,49,67,-83,-6,-36,-29,-8,-10,-10,25,-56,-17,23,4,10,60,-16,8,35,16,44,-4,-22,17,-28,-4,-6,36,-128,-30,30,29,-85,-64,-5,8,40,-1,10,10,66,-33,-19,-70,28,19,0,-67,41,51,-27,14,-11,44,-17,-22,6},{-20,-1,-18,47,13,-38,8,16,17,-73,23,-20,-3,-43,-39,-13,19,10,38,-9,-1,-13,13,-8,-41,7,-113,5,45,20,59,-5,5,19,-22,-9,10,-10,21,-38,-30,-128,-58,-10,-24,9,67,7,-39,18,24,-45,-35,15,38,8,-5,-29,34,28,14,22,83,26,-48,6,29,-32,-59,14,-6,-32,19,-42,17,22,49,28,7,-6,-11,-1,-42,-61,73,-15,20,43,0,-4,-8,-33,-51,29,-45,-64,14,-18,-50,-33,22,-32,14,27,34,16,10,8,-32,27,-37,34,35,28,100,-42,13,-79,44,22,-12,70,0,0,5,-9,-41,10},{9,26,32,3,0,9,41,11,-6,-60,102,42,14,37,-24,-49,-18,-20,-5,0,-7,6,-34,12,42,2,-15,-15,42,-7,22,36,55,6,-14,21,-2,-22,0,-37,27,-16,39,-40,3,18,54,26,-22,55,-22,5,8,36,8,40,1,2,19,-32,-4,-23,45,-41,-29,-9,58,58,13,-24,18,-23,-23,49,21,1,26,18,54,-29,34,-43,-20,23,-6,22,3,36,18,39,-63,-16,-39,43,-9,-11,-73,-43,-33,69,74,-37,87,18,52,22,-98,7,-9,-8,8,4,23,-25,19,-12,-29,-37,-65,-30,-23,9,66,-30,-63,-8,-37,-36},{-16,-54,19,40,-13,1,49,-52,-15,40,0,12,21,18,-37,11,57,-34,44,1,-21,35,18,102,120,-9,12,93,-4,-10,54,-57,35,-74,32,22,-6,55,55,-43,14,-12,-20,23,20,-8,-6,-37,-80,43,-12,35,39,-5,13,-35,12,33,71,69,15,10,-43,79,36,-29,82,39,-8,-24,-16,78,22,-13,64,60,74,40,54,33,-5,8,29,-3,127,-8,98,44,32,75,24,50,7,40,-29,100,61,65,-13,47,6,42,20,38,55,57,-5,0,0,23,17,-58,127,69,-53,-19,-5,79,31,-8,-25,30,68,28,2,-5,-42,-10},{18,3,-56,2,76,-26,22,-30,-46,66,81,18,-18,22,2,-29,-5,49,-6,-7,-21,36,-10,8,-96,-11,-23,37,1,4,-41,-3,68,-46,-2,-35,-42,40,-7,-44,-50,31,-34,-14,-1,-18,11,-12,-7,15,23,50,66,29,-2,21,-8,-52,-13,7,-14,0,66,14,12,-61,22,33,-1,-101,-22,-12,-5,0,2,-9,4,-24,-17,12,5,5,2,-34,2,49,13,-35,-13,19,67,46,8,39,-2,1,12,-4,16,29,54,6,-64,49,26,-15,-35,97,2,16,-15,-9,-25,34,-44,35,-29,-27,58,25,62,-34,16,-5,5,45,-42,22},{16,34,-73,-30,16,-26,28,-8,-29,-8,-13,67,20,-71,-42,-55,1,-19,-65,14,12,3,27,-7,-43,-21,71,-5,7,-4,5,55,1,7,18,20,8,2,36,35,48,-9,-44,48,35,23,3,8,-18,52,12,-128,52,-10,-4,-67,-7,-81,30,8,-58,-21,11,-38,-12,-18,4,10,-8,-33,25,36,-11,-39,3,-18,2,30,-3,7,0,5,-58,-43,24,-31,-38,-23,9,9,-12,45,-32,-6,13,22,2,25,44,-28,-28,-28,0,4,4,32,-11,-23,-3,-10,-13,-14,-30,-27,26,-35,32,-16,35,-1,-60,13,-21,18,-32,-26,-29,-13},{18,20,1,-25,-67,-11,7,0,-34,34,-19,-32,0,-18,20,-50,49,-1,22,7,3,-38,-8,14,-52,37,0,12,3,52,47,31,9,-14,31,-56,-26,-43,-60,-38,-39,62,86,-82,42,38,22,32,39,3,12,-69,-54,3,-93,78,-73,46,-27,1,16,-3,-52,46,-80,-20,13,-128,-66,6,16,-16,-20,19,14,1,86,18,-1,-8,16,15,-20,10,-1,-27,93,30,-10,49,-14,41,42,-25,12,-65,30,-15,63,-70,1,42,69,4,-17,-13,-33,5,9,24,0,-32,-21,-3,-29,27,-10,-31,18,26,-50,3,-61,-31,52,-46,35,14},{-8,-44,-44,4,-23,17,8,-15,68,-49,101,-16,16,28,3,16,72,-7,23,-10,-21,42,47,35,-100,-15,-26,-1,25,-2,-28,-52,22,2,-26,-28,28,87,-22,-3,44,13,-51,69,6,-52,6,47,-10,-56,-33,21,-91,-3,-7,5,6,9,5,4,20,43,-49,-8,-2,-19,-18,-10,65,-128,2,8,30,40,3,32,-36,-18,2,16,-56,-37,4,55,-52,1,-26,12,24,10,34,-41,-8,63,6,82,36,-47,-41,7,-36,2,-45,-59,52,-21,47,52,18,-9,-50,43,19,0,-38,31,-4,58,4,-51,1,-48,12,-5,9,-13,-58,19},{24,-9,30,-3,-60,-26,-96,-19,-15,41,36,-24,-13,7,64,-52,26,-59,33,-9,0,-6,17,-25,43,26,86,3,19,70,-11,4,1,-8,-17,-25,-31,53,-2,17,2,-2,-56,-18,-21,20,-6,16,6,25,32,28,-57,-9,-54,-18,-6,-37,4,14,-9,-9,-4,-7,-9,-18,24,127,-37,-24,15,-28,23,24,-5,23,20,13,58,25,18,-4,-49,4,43,7,-38,-15,25,19,-35,7,9,26,-15,6,-32,47,9,-9,54,108,-67,36,-26,-10,16,-32,-22,10,60,-12,-1,17,44,11,20,61,65,-94,-5,-30,-20,-7,38,31,79,22},{0,32,-84,-18,-44,-47,14,-18,-22,59,-12,-32,6,-19,47,-7,44,2,-28,48,15,47,-12,6,21,28,6,7,61,-8,-65,-15,-67,-15,-10,42,54,48,-36,-128,34,-80,12,-11,22,-48,-20,-19,-54,-27,21,-103,63,-13,-2,8,-52,-27,9,-34,28,-11,-12,6,-5,-41,59,-14,-1,23,-13,-44,2,-93,-39,-21,-50,10,6,-7,-36,18,-14,-5,-15,-18,1,17,38,8,48,-34,45,10,-3,-58,4,-16,-7,-30,-119,82,0,-69,15,-49,-48,6,-6,23,31,-45,21,20,-59,16,33,3,-25,-35,-10,45,-13,-8,-57,31,35,17},{-16,35,23,-27,20,-7,-12,14,73,-11,91,32,17,10,17,76,-31,-7,-21,1,7,-25,-11,23,28,-50,-19,13,-60,-5,-1,-34,20,-12,-5,17,-38,-10,-42,-12,-52,-16,36,-15,43,-49,-11,-3,16,29,-62,-15,-31,-22,-50,-48,-21,5,-21,-3,-32,1,22,4,-33,-24,29,-89,4,-11,44,-19,-26,39,-24,-32,8,72,-25,11,42,-28,-46,-32,-43,-30,-46,-12,-12,-66,54,17,10,-54,-7,30,68,-42,19,99,44,34,-96,-66,56,-44,4,2,20,1,54,-22,-2,53,-36,-43,-46,-64,-23,-46,-43,-48,19,-4,8,-51,1,31},{53,-69,-18,3,32,-15,-118,-42,38,-39,-62,-54,8,8,-51,22,-16,-23,47,21,12,3,-52,-31,58,-33,-45,-21,17,13,26,-43,26,16,-4,3,12,69,-25,84,17,-38,-50,-19,3,18,72,-20,-28,-42,-10,-11,-12,15,3,-31,-14,9,-4,29,-4,-24,44,26,13,-25,-63,17,-6,-48,-26,-3,7,-5,-11,27,5,-17,-37,-6,17,-13,32,1,-83,-29,21,-28,17,-17,-38,-50,-2,-95,-11,-75,-37,58,19,-16,-5,-19,19,27,53,-26,41,-25,12,-4,40,-60,-27,-20,69,8,-4,80,33,-43,2,79,38,-17,-17,10,8,-4},{32,1,15,24,-36,25,51,10,26,-8,8,-3,22,36,103,-4,-3,-28,33,11,-5,-49,-5,29,-128,38,37,29,37,75,16,-10,24,-59,-4,4,-17,15,35,-12,38,-47,33,64,7,-24,3,20,56,-40,12,21,-74,-5,-2,-2,47,16,7,28,13,-8,17,40,-52,-68,38,77,-21,-32,-14,37,41,7,21,9,21,31,57,6,29,-13,-20,69,36,-11,2,35,-6,23,3,1,-7,7,13,-64,-46,45,35,-25,-86,-112,-48,-78,18,3,-51,-13,8,-4,-12,69,14,39,-10,47,14,-13,-1,35,-61,-44,-9,31,61,-26,-5,-4},{26,-38,35,-11,-5,-49,-63,-39,-91,3,102,-44,4,-17,18,23,-39,-76,10,-27,2,-37,11,-10,-26,14,9,11,-7,54,61,23,-6,-36,-46,-1,23,-12,-21,-76,30,3,-44,8,6,-15,22,6,42,68,18,21,-21,-21,-14,7,61,-29,60,-6,-15,-27,-26,-17,13,10,8,74,-22,43,-8,0,34,26,14,-5,37,-15,8,6,73,-22,-5,-25,-4,-27,-37,-23,19,-21,-20,6,42,10,9,77,86,36,63,-2,20,-17,-42,-15,6,-2,24,21,4,-12,9,-28,32,-10,18,27,3,48,-19,-47,38,14,-7,-10,12,-18,-30,-12},{-63,-45,-39,3,-47,-71,50,0,16,14,-95,31,-3,14,39,-26,-14,10,10,-32,10,-42,58,7,24,-44,38,-22,-69,6,-61,-47,15,12,11,71,-100,-84,61,0,-21,-18,-55,67,-48,8,-29,-1,-22,-49,-14,-128,122,-5,-4,-3,69,0,-15,-5,-12,-2,-39,-5,-56,-30,-18,-66,59,0,10,-39,18,79,-7,-22,-37,53,4,40,59,3,-2,23,-68,15,-82,-31,-4,10,-37,26,9,-15,-2,-29,4,-73,11,-30,6,73,5,36,36,-35,-23,-26,-13,7,-9,-27,-43,29,55,-68,-32,1,19,13,-21,-37,29,-16,10,-44,-26,12},{38,-33,-24,-47,-1,-23,85,1,-41,13,62,87,-15,-31,-25,51,-41,-33,-56,-57,13,-1,4,-28,-37,-22,-10,28,-29,30,27,-50,-7,-14,0,29,-111,-1,-25,-13,-17,-4,-11,69,-27,15,20,41,2,107,-31,21,-25,2,18,22,30,-86,-16,-19,-64,3,1,-28,-16,-28,-7,-53,17,-38,5,-8,31,-14,-41,-48,18,14,9,-18,-45,-39,-87,-53,33,-1,-11,-39,6,-56,-22,-43,25,7,9,12,25,-67,-53,33,-11,35,-26,-25,-29,50,39,-62,6,-3,8,-8,10,15,-36,-40,-23,24,-52,31,26,-55,18,-21,-10,-43,-82,-28},{-128,-3,-12,33,-16,43,-22,-13,-9,-12,33,-57,33,34,1,22,52,-23,63,-22,18,16,31,-27,127,7,11,18,-83,-20,-45,-21,21,-13,-21,27,-32,-66,-8,5,-1,-32,-16,34,-19,-96,38,9,67,-12,-128,-46,-76,-128,26,-3,5,37,34,-10,23,-1,-36,17,27,9,-3,-57,59,37,12,-25,-16,69,9,22,-4,98,7,-12,58,-5,14,3,64,-26,-2,28,26,23,11,-20,38,19,-4,-73,-63,30,33,57,-22,-7,-128,31,-46,-29,10,-3,7,-2,-110,91,29,45,-14,-2,-75,-53,-16,-40,19,33,-18,34,58,-52,41,-60},{27,-19,-30,-6,7,-9,59,-39,-31,21,70,-36,-18,-2,-6,7,10,-22,-31,-69,-15,11,40,-22,-43,-29,-67,17,0,-8,12,19,-20,8,-76,-12,-33,-1,-48,-117,8,0,-82,41,-42,41,-25,-50,41,-11,2,-21,-33,74,27,7,61,-62,26,-27,12,-7,41,-18,-63,-23,13,-97,-8,11,-16,13,-21,-128,-3,-11,22,41,19,17,17,18,-30,-36,80,26,-45,4,11,-58,47,-18,-41,-66,6,-10,-7,-44,28,-18,-38,-85,108,-66,-17,22,24,-28,-32,-2,-5,3,-30,-47,40,-10,25,13,-38,-7,9,-35,26,-22,21,29,-17,-44},{-13,20,6,-3,-12,-11,-21,-38,88,53,-31,75,-23,-28,7,2,17,-1,8,-7,-13,33,4,8,40,48,-48,-15,-10,32,-46,5,12,7,12,-4,2,29,-35,-26,-14,23,57,1,24,-78,35,25,51,-52,3,-4,-4,18,-1,-15,19,-3,37,-30,17,20,9,11,-17,-20,-3,48,-79,39,32,-28,27,41,-24,35,-20,26,-28,-8,-105,-13,-31,-10,-41,-1,-33,-17,-9,-13,61,-18,0,-2,1,-100,-28,-39,15,-40,17,-20,24,-5,-4,87,20,8,3,-4,76,8,44,19,-99,39,13,0,53,-16,3,95,49,-11,-25,14,47,41},{-18,-1,42,9,29,13,59,24,43,-33,-44,40,-30,89,21,-1,57,-7,-73,-31,-1,65,34,32,36,1,-18,25,11,38,-81,6,-11,-28,9,-14,38,-5,-54,-23,0,-96,-8,11,-100,-34,47,46,58,-21,-24,-15,-72,-13,12,-98,8,-4,-51,-37,8,12,19,3,61,4,26,-4,35,76,21,-82,14,61,-26,34,47,-48,-43,-26,-46,-25,-24,6,35,-29,-5,16,37,15,-41,45,-41,31,-15,-96,31,-128,-7,-22,-21,-69,10,-128,8,56,-128,27,-6,11,-41,-21,40,33,84,-40,-34,8,35,-63,81,25,-37,-21,32,-45,-70,-18},{-18,32,28,7,-1,11,25,2,16,53,-2,5,-8,-6,-4,18,-1,20,14,17,23,10,15,-12,-28,13,25,-16,-41,10,26,20,21,42,2,-12,15,15,-18,18,46,11,-25,-6,-66,-43,-45,-15,78,-41,-7,-14,21,17,34,-57,-2,35,-41,29,-25,-51,-33,35,26,3,-3,-83,71,-31,-118,-8,-29,47,-9,-18,46,27,-10,-9,3,-13,30,48,-54,38,48,13,-31,17,17,-55,13,-59,9,-48,17,-19,-45,39,-8,-67,3,-48,-35,10,-7,84,-98,9,-11,-25,34,29,15,27,15,-66,-24,21,-15,24,-10,-11,40,6,-3,-38},{-29,11,-55,-68,73,4,20,6,44,48,-74,-13,25,10,17,33,65,-12,31,-27,18,30,27,-35,0,-18,-9,59,-4,-21,45,9,3,19,24,5,12,6,-18,-31,6,-90,9,56,-28,16,-12,22,35,-60,-31,33,18,-24,-22,-12,30,-37,-15,27,-15,-3,37,-33,-12,-15,25,-13,-50,22,14,-11,53,-56,-28,34,46,-114,-46,-22,-31,-41,-5,-10,71,10,48,-25,24,-19,79,-39,33,-11,-15,36,26,54,0,-10,-22,12,19,-14,-85,6,-1,5,2,-9,-27,76,1,46,0,-31,-11,-20,-4,7,-28,25,21,-18,36,-59,44,9},{12,27,-6,27,-8,-74,-44,-6,-28,-11,35,23,-28,-46,-23,66,65,-15,19,3,14,-12,17,7,114,-57,-53,33,32,25,-30,29,-19,-16,1,-62,-45,39,-68,-44,28,49,14,-10,-44,-13,35,6,23,-40,25,-24,-20,-49,-2,-28,20,11,-9,0,-33,7,28,31,5,18,59,-61,26,-33,-23,-35,21,17,2,-29,16,37,-25,2,105,-18,16,-90,67,-10,3,31,-13,0,26,85,19,-35,-24,64,4,-16,43,-98,12,-51,-70,-18,25,-26,26,27,-21,-10,17,-67,-11,40,8,31,-10,-1,-69,-44,22,16,3,-5,-73,43,-20,-24},{45,-8,21,-60,48,-43,17,16,-56,33,51,-105,-69,-10,-19,-12,-50,34,5,27,-42,15,-4,-7,-128,8,-16,-24,8,17,-15,23,-4,14,-24,-63,-20,-15,-58,59,25,62,17,-46,-22,11,17,0,-25,35,37,38,-17,-23,3,122,13,-14,39,10,45,-58,31,30,60,-20,0,-34,-2,-15,8,35,26,14,22,12,4,30,15,-14,23,-52,2,-60,72,-36,21,-16,-1,4,90,-24,14,-5,-28,-11,-54,-32,13,13,-22,-40,-17,35,14,10,-5,31,6,31,-43,12,7,-65,-105,-5,11,-36,-28,5,74,23,11,21,-55,-34,-15,-17},{33,16,-30,-8,107,5,5,-37,19,77,61,-64,14,32,34,-41,3,-71,24,-5,0,42,-12,12,-54,13,0,29,-19,9,6,45,46,-7,-67,6,-24,14,40,36,7,127,33,-17,7,73,-1,-4,-1,11,21,16,-17,18,21,19,4,-11,-9,-36,5,29,45,-13,77,14,25,34,48,20,-3,-53,17,14,-4,-7,31,15,38,33,0,-7,-15,-56,10,50,-40,-11,5,-20,45,-46,73,-47,31,-16,-39,-7,14,-25,-65,44,-62,29,33,46,13,82,0,30,21,16,-8,13,-50,75,18,-30,31,-33,73,11,-27,6,-2,29,-15,42},{4,19,-45,-26,42,-83,25,8,-105,48,30,-86,-31,21,19,37,49,22,31,7,-37,47,-10,-4,-58,24,10,0,6,13,80,-59,44,-3,-21,-15,-24,84,0,-34,12,-93,37,73,2,-52,33,3,24,-114,-22,-12,30,-5,-24,-7,-26,24,-18,62,-15,8,-7,32,10,-10,36,58,-42,-41,-9,-4,-12,80,31,16,10,-50,-16,1,-14,4,29,-14,-7,-9,46,24,9,17,28,-45,2,69,-39,-22,-62,-39,-48,-28,8,17,-6,-10,-27,14,-78,70,-32,12,-8,32,4,2,-49,-1,38,-39,-35,-2,-21,4,-21,13,-22,13,-38,2},{-2,22,37,-72,35,-22,24,-18,-50,-47,37,-110,-59,19,-36,-3,-18,26,-28,-20,-128,-4,51,57,-100,-66,33,42,-29,49,104,-13,0,31,-1,-38,-21,3,-3,16,1,55,-4,0,-12,105,-25,11,36,62,-14,5,-7,14,-98,-1,40,29,50,20,-8,-26,54,-26,51,-32,29,-3,76,-57,19,33,-23,-8,47,31,67,-24,2,-26,61,-23,-51,3,102,-46,1,10,-22,12,-13,29,-9,-9,-122,-51,-25,65,-65,18,-11,4,6,-128,40,-36,-42,2,-11,15,-26,15,-9,2,-27,-43,-41,-42,-4,0,99,-56,-3,30,42,-43,2,4},{3,16,-23,-18,-24,15,-1,36,68,68,-21,53,8,15,-78,24,-17,-9,-49,-15,15,44,27,23,48,17,-25,90,9,23,114,-28,20,-25,-22,-10,-5,41,27,53,-42,55,45,4,-8,16,-16,15,31,1,-7,-1,-35,4,50,70,70,-30,-17,8,-19,1,-102,8,52,1,22,61,69,30,21,-9,-1,5,9,36,-50,-128,-51,-39,-60,-30,24,8,39,-1,58,-40,0,-7,-4,-13,-45,31,10,42,-8,12,-83,6,-36,-9,-26,19,-36,89,0,31,41,5,40,9,83,35,-53,5,-5,21,23,16,22,-15,-36,-46,60,-74,11,0},{19,18,-20,41,51,7,44,-24,-97,61,-27,-118,-21,-35,6,-51,-1,-64,1,46,-10,7,-7,29,-42,22,47,38,3,-32,36,-3,-15,-8,18,-26,-15,-5,-38,43,-38,-11,-20,-10,-17,-14,-32,4,-32,79,34,8,50,-40,-36,-23,6,-30,6,10,-52,-2,32,-6,-41,-30,24,63,8,-30,-1,-43,25,-7,6,33,26,-33,12,26,-15,5,18,-9,36,17,-36,-2,-38,32,9,13,-8,-50,-4,60,-1,3,3,-13,-11,-11,36,-18,12,-4,-6,49,-3,2,-6,-51,-41,-35,29,-12,-36,19,-2,18,5,-20,5,-23,-58,38,15,-4},{-13,-15,-37,-5,37,19,40,-8,-44,54,-87,22,-20,19,30,-102,-4,20,-14,9,-5,24,-28,-28,-77,75,-16,9,15,44,31,-81,16,-23,4,60,37,35,-63,30,-5,54,17,70,4,-68,-15,30,-25,-74,-16,37,-19,-15,19,-62,10,39,-25,12,-13,-8,27,13,47,-14,40,43,7,-88,-22,6,4,10,6,27,24,-59,-62,11,-75,-26,32,-25,63,-10,-38,-29,11,1,30,34,14,2,-23,-59,32,-21,-4,57,24,-25,16,5,-7,17,18,-14,-13,-4,-59,34,-36,-8,24,5,16,-18,34,-20,31,-25,-7,8,72,-38,-11,12},{40,-39,6,31,48,-14,22,-50,25,21,22,-53,7,45,17,-19,45,-55,-10,19,-27,45,7,56,27,6,3,23,12,0,73,-4,41,-63,-30,-4,17,29,11,4,-2,54,-50,-5,45,-7,-12,16,17,-26,-31,-16,-44,-19,11,-20,-12,-38,42,28,17,-18,46,34,-6,-31,41,65,-6,-42,-34,5,0,-10,50,70,63,63,18,-5,-1,22,1,14,47,-6,46,52,28,22,-10,-16,-21,30,4,37,41,58,34,-48,-20,4,-59,-39,51,-8,-35,59,-34,32,-34,-67,2,40,-23,6,11,76,-11,26,4,35,7,40,-47,-30,-22,2},{-3,-24,12,46,-15,-22,6,-3,18,23,-74,-25,19,-37,-19,98,-78,-28,44,-19,20,76,-28,40,-43,-103,-34,-37,-6,15,-17,-46,12,27,-30,9,-22,58,16,41,-20,-61,-32,50,14,-103,45,-23,47,54,-11,50,-15,-50,25,-56,37,20,-59,30,-33,24,38,-18,-61,-33,-25,-24,-117,-41,11,21,-61,-25,12,-7,33,-29,-11,-21,5,-22,19,17,5,-35,-33,45,-46,3,33,-14,12,-39,26,-85,27,-3,58,41,1,40,-28,41,-64,-16,14,11,8,-15,-99,28,44,4,-32,-50,-31,39,47,-29,-83,51,1,-37,-1,-22,36,5},{-17,-24,75,24,36,-3,-2,-6,71,26,32,5,-34,23,-8,-89,-21,7,-23,-66,-20,-23,38,-21,-30,-48,18,-5,31,-45,38,-27,47,13,-3,-48,9,-89,-14,29,8,96,-25,-21,-31,64,12,4,-83,49,42,-70,92,-4,-25,-7,-23,43,-5,38,23,-14,-6,-31,14,31,-19,-128,-22,12,-26,-3,-16,106,29,46,-74,-64,44,2,64,-17,-31,26,13,25,12,-3,-8,-29,-6,69,28,-103,-42,39,21,18,11,30,-57,-34,-77,20,3,-22,-2,17,-49,6,21,-11,30,-22,-21,47,20,9,-46,27,-19,35,58,-31,-15,30,1,9},{-24,-16,11,50,-1,-20,73,17,78,53,-57,18,-10,-2,6,-95,-50,-9,0,-16,7,34,-54,12,-25,-3,-79,-5,-27,-22,-45,-8,65,-7,-13,-50,8,0,30,-67,57,108,-17,-76,36,-23,22,-19,29,25,-26,-78,106,-5,60,-1,-61,11,3,41,-20,-27,-24,48,83,-11,23,7,59,5,-34,18,-15,-46,6,-10,-27,-31,9,-18,34,-6,-11,10,2,17,50,3,-12,29,-10,-39,-4,-40,-20,-25,-24,67,-7,-17,23,-7,-17,56,11,6,39,29,-50,20,23,-13,-14,-18,5,-3,20,-60,-113,21,55,62,8,18,78,-26,-32,-13},{26,8,13,-21,51,4,-53,17,44,39,-62,-7,-12,-5,-51,51,-33,59,-6,-62,24,-5,4,-32,61,6,4,14,18,-20,52,14,43,2,57,-61,-41,-45,-70,59,11,-1,-27,-63,6,16,16,-21,17,-15,48,7,56,-6,-51,10,15,24,-35,-54,-16,-31,18,-12,91,-22,22,-17,24,22,7,14,29,-15,-34,8,-17,18,-5,8,31,11,8,-89,5,27,-28,-2,-47,-44,0,48,-43,16,7,62,-9,2,-33,-69,-2,13,66,32,41,0,2,34,16,7,4,-6,27,4,27,24,18,-25,-15,1,47,82,14,-6,-78,24,-9,6},{0,-2,-6,-4,-8,32,18,-11,62,27,36,22,8,9,30,-7,81,-9,6,4,5,11,36,29,-75,23,39,-18,47,-58,-18,-15,-11,-19,25,33,-13,-8,-51,15,-20,37,61,8,9,-77,-9,-36,-23,-56,10,-7,32,49,10,38,25,5,-19,6,16,32,-25,29,-57,4,32,12,-79,35,8,-8,2,93,27,19,2,-2,-57,23,51,3,-51,-1,-17,51,-49,0,8,-1,66,3,3,45,3,64,60,-42,-68,53,42,-23,-7,13,-3,85,-17,-66,33,-9,58,16,-82,0,30,38,36,65,51,-46,-37,54,10,-7,1,35,-32,2},{-4,1,-39,9,41,-94,70,10,-50,-32,-75,26,-7,-11,56,-28,-32,2,-1,1,13,13,15,-38,-39,8,24,-39,19,58,-11,-50,-48,-20,24,3,-22,36,4,-107,17,41,-7,-14,13,-1,-57,16,66,-19,28,-128,69,43,-33,17,17,-3,31,-19,12,-11,18,-8,5,8,-6,-11,-69,9,16,17,37,-91,6,-39,-75,28,-13,-17,11,-19,-93,-6,-14,2,45,-43,-5,1,4,-88,43,-5,-2,-113,-70,60,6,-18,-52,-43,108,-5,6,29,-17,-39,6,-13,-19,-22,17,0,-20,61,20,-42,-49,0,-18,-32,19,22,18,22,-6,34},{-15,9,13,18,13,-15,-62,-42,-18,5,0,65,27,-3,-60,-94,-47,6,-8,57,-5,-56,8,-63,-62,52,-100,-13,-32,-69,-28,-33,23,25,-70,20,-9,1,-5,-48,17,-116,22,-33,-37,13,46,63,27,-37,-30,-15,43,-76,-18,35,-2,22,11,-3,13,-5,119,14,-34,-6,-1,-41,-44,-69,-44,33,10,42,14,-20,-11,-6,-12,18,19,5,35,6,-17,-24,-32,1,15,22,30,-29,18,-40,32,-106,-54,68,-41,26,-51,63,-31,-57,-27,-6,20,-93,-31,-21,-3,5,-28,-30,95,28,-16,-3,14,22,-38,-44,34,-2,55,-81,-8,-23},{18,-29,-60,12,15,22,-32,-3,-104,-7,57,-6,-7,32,-13,-32,37,-11,50,-14,-35,40,52,50,122,-8,34,67,-5,-20,30,-27,41,-34,-9,-31,-24,35,45,70,4,-39,-3,5,52,-8,26,-57,-71,46,-4,-4,62,0,-9,-10,-50,-6,41,24,-5,-18,7,37,19,-44,34,49,25,-12,-17,48,23,93,61,23,32,43,31,1,-37,25,-45,-21,26,0,80,64,32,22,-28,39,1,-17,-57,-27,-13,6,39,-42,24,-5,-6,20,32,5,-79,26,-17,20,-36,-7,70,22,9,-23,25,-12,-28,14,6,45,27,12,-20,-21,-22,-20},{11,28,-26,-26,37,18,-48,12,-47,54,-5,24,65,21,7,-110,39,-8,18,-14,8,-11,87,15,-91,-47,-2,8,59,2,-43,-24,-16,-12,-27,17,1,-20,14,-21,-4,127,45,24,3,28,-8,31,90,86,5,5,4,33,-46,-46,9,1,-48,-8,-4,21,2,32,16,-20,-6,-114,12,-11,20,3,17,19,30,7,-34,-55,19,7,103,-14,13,49,-35,31,56,17,-3,-41,-5,-71,35,55,-28,-40,-55,-27,-67,53,-22,-19,26,-32,-22,14,48,27,10,31,49,11,-31,10,-45,97,-30,-68,27,53,10,-56,52,27,60,-44,17,24},{-18,35,35,46,11,-2,9,-16,112,-6,107,33,13,21,-82,75,41,5,4,17,-16,-9,-24,-12,80,33,-58,-1,11,-6,25,6,14,-29,12,-82,19,57,19,37,31,6,-86,8,10,-41,27,-26,-85,23,-10,-51,-18,7,15,-2,-22,-57,41,-14,4,1,-34,41,23,-49,-9,26,-27,22,5,-4,16,41,-5,24,-23,-3,21,24,4,-9,-46,21,48,19,52,13,9,39,-24,15,1,26,13,65,-22,47,50,23,32,-128,-74,110,68,83,32,39,-3,8,11,-48,30,-3,-23,25,13,5,43,-14,38,24,11,19,-11,-37,65,-6},{44,-14,16,-37,-40,-18,109,4,-29,-81,127,-14,40,16,0,45,15,-51,12,8,23,37,14,5,-69,-100,10,15,28,29,23,-23,36,-61,-40,-7,-6,46,16,26,15,98,29,82,-12,-74,21,21,66,47,-5,-8,-15,45,8,-15,36,-15,-20,15,-21,-5,-58,20,-46,-67,4,-99,19,-98,27,50,-8,8,-18,16,29,19,5,64,100,-36,21,17,30,20,-10,40,17,61,34,33,-17,5,9,-51,8,-12,39,15,-16,-24,14,-23,33,-21,-93,-10,1,8,-29,-14,-68,-16,16,9,15,-19,53,50,-88,-19,-23,1,-5,-9,28,-22},{-43,25,-4,-62,-6,4,21,10,39,28,-78,-12,9,-6,75,72,35,36,-27,-10,1,-47,34,2,-13,-18,-25,10,-7,55,67,-16,39,-29,14,16,12,-52,-20,-24,-24,-47,-1,40,-12,-76,-68,-17,98,80,16,-70,78,11,-99,-11,-57,-11,4,-43,-23,-12,6,-39,-15,-35,-1,-11,14,14,-4,11,-6,87,5,12,29,114,73,33,10,15,-42,19,43,61,13,34,-25,-5,-56,-22,4,47,-4,-39,38,-22,-45,11,14,9,27,-20,43,-7,19,63,29,-10,5,-51,-52,39,45,4,2,-14,-35,19,9,-110,-69,-46,8,-4,-84,25},{11,33,-1,87,65,-19,1,-20,-48,69,127,-57,32,32,30,-20,4,-50,11,-20,2,-31,50,-23,-70,-62,62,45,14,12,58,1,18,0,-43,-23,-28,5,-1,-26,-22,59,-23,-40,47,27,-58,45,-4,24,3,-127,32,8,28,-27,0,-16,-12,-39,-31,-19,35,6,68,-8,11,-53,54,25,-6,-4,10,5,27,5,-23,106,-40,-6,127,6,-45,-58,43,-4,-41,13,-1,-1,21,12,-8,-61,8,20,23,-70,-32,43,-50,-27,31,-46,-10,-4,-30,85,1,6,11,27,-55,46,58,19,13,7,-47,3,53,0,45,27,23,-2,-83,16},{-5,-26,26,-5,-71,-9,-42,-7,-25,22,87,3,22,25,37,-15,1,-77,55,-24,28,-33,24,-18,8,4,5,27,32,9,-26,-7,7,-33,-21,-8,17,-1,54,-32,59,9,46,9,48,-70,9,53,49,-79,-2,15,18,2,-31,5,62,24,17,-14,-15,-10,-90,31,-62,2,30,-67,-11,-9,25,48,33,34,-7,7,-4,-31,-6,7,63,3,-2,-17,-6,-14,-39,28,2,18,-41,-9,-16,72,-9,-50,3,-43,46,-64,46,-1,38,-32,-18,41,-11,-90,10,25,-17,61,10,25,-73,63,28,-39,-16,62,-47,-46,47,17,32,11,-28,22},{-12,-20,4,20,19,33,46,-14,68,74,47,-23,21,4,-38,-15,1,-1,-24,15,-12,127,0,5,-4,18,-13,8,-15,-5,96,-23,21,21,-5,42,-39,21,71,26,-24,83,-5,17,2,48,-14,-11,1,39,5,8,9,-9,22,12,83,4,-58,-62,42,2,14,-1,-7,12,-14,19,38,48,28,15,9,-9,-32,0,-48,65,41,-14,-128,9,-22,9,-39,26,-20,-20,25,15,77,-31,-37,-40,11,-3,10,-33,12,12,-32,-3,-21,74,3,43,12,50,22,18,-23,17,-29,-12,-36,-17,-23,-43,61,-57,-19,18,37,-3,8,-27,-87,6},{-27,12,-8,-56,-30,4,21,8,-44,-10,47,-21,-20,-15,48,4,-26,-7,-2,-31,-21,-5,12,11,-118,22,41,-35,25,11,-66,-46,-19,-30,-41,-30,11,-53,23,-57,20,-45,-25,-38,-3,-9,37,14,54,21,-3,21,81,-79,-30,-4,-65,-27,-24,-10,15,-43,21,-6,9,11,1,-34,-44,-17,-27,-61,-23,18,12,-13,-18,30,62,-26,-69,-30,30,15,-41,-46,-1,-22,2,23,-64,-14,-29,14,-36,-43,-10,-84,-22,-44,-12,43,20,-16,69,-17,-30,5,-24,-16,-48,20,-36,-11,-66,-9,40,30,3,35,-23,22,45,-3,-47,-49,23,26},{11,11,-20,82,27,-24,-10,-27,48,17,106,-55,-2,-32,-4,-18,-38,-54,-20,-61,5,-3,-13,34,-88,3,-86,5,-19,41,47,-81,0,8,62,-15,-15,49,54,-60,11,-40,27,61,8,-86,45,-9,78,18,-20,-46,9,-20,25,-45,28,3,19,-43,-5,0,-34,-94,10,-50,-14,-27,0,-57,5,29,-4,-59,-12,19,-34,-33,24,-28,96,-48,-28,-7,97,-46,-85,-16,29,-40,11,-5,29,9,-14,23,-29,35,-70,-101,-49,-12,-18,-63,8,-15,6,9,-44,1,10,29,-39,17,-74,38,4,50,-33,-8,-10,-1,90,10,-41,61,-76,-32},{14,25,-12,-34,37,2,16,25,62,-25,-7,-41,40,1,9,-83,30,-7,55,15,-5,26,26,-4,-128,-105,18,-30,-33,44,93,-75,18,12,-31,25,-37,-44,36,17,-7,10,-34,21,36,10,54,56,27,-31,16,-4,-23,-4,-22,46,-2,-41,-15,-20,-2,-21,-23,-19,19,-52,-7,-128,21,-88,-14,62,40,-75,-18,-11,17,-15,6,-2,39,-16,-53,-3,-11,-1,-25,32,19,41,9,-39,45,-3,27,-14,-19,1,-46,-32,-24,-12,46,-37,33,-27,20,57,30,3,-50,72,-34,35,-128,68,-21,-26,-114,67,-17,-66,-8,6,19,9,14,25},{-27,-19,-40,-8,38,-25,36,13,0,38,-119,47,-5,24,8,-32,29,38,38,1,13,7,20,-3,-25,-27,-50,27,2,1,44,-1,-8,2,12,-16,10,-2,-11,-19,51,-113,1,-46,21,-4,20,-18,38,-28,6,-25,-49,9,-5,-57,0,15,55,41,23,10,81,48,33,15,33,-60,-18,31,-38,63,-18,-17,45,41,9,46,-1,10,-48,12,-21,21,-60,1,49,50,9,44,-5,3,13,-15,25,-56,-31,51,-11,5,32,38,15,-42,40,-40,1,20,-13,43,-43,4,64,24,35,11,-20,-1,-41,42,-3,64,17,36,-1,20,36,2},{-6,-48,-14,-17,14,-45,77,2,-121,38,99,11,5,-10,16,-18,-27,89,-14,-14,-15,0,28,-35,-41,4,79,32,-24,36,64,-17,21,-57,-47,49,-90,-44,-16,-34,-58,-30,-35,-39,-21,18,-20,-40,-24,11,-27,-21,38,-9,-9,-25,43,-128,-27,4,17,6,-3,-20,-30,-12,43,-26,3,23,-2,24,31,-38,-30,7,0,30,37,44,12,-21,-66,-34,17,27,21,-40,20,-14,-17,60,-1,16,-24,73,-13,65,68,37,35,-128,53,19,21,3,20,26,-8,-24,-6,-23,75,-24,-39,6,-25,60,4,44,27,67,-30,-7,-51,-23,49,33},{-21,34,30,-14,39,-4,-22,1,6,11,16,-30,-64,14,-9,3,-24,17,-77,14,8,33,-25,11,30,-1,-50,-29,32,-28,-24,8,7,27,16,-33,10,-40,38,6,14,80,-50,-36,-13,-25,29,-24,-17,-15,-51,-44,-56,0,7,11,-9,-6,-2,-11,20,-66,-39,-34,56,25,-4,-128,93,38,-26,12,-46,-78,-1,14,-28,-71,0,-6,78,0,-3,34,-13,24,-30,-5,-13,-43,-1,7,-34,-27,-22,50,8,10,65,-24,28,-51,-82,12,-11,-64,-47,12,-29,-8,16,9,-43,-1,14,-23,-36,10,-1,-106,63,27,18,9,4,6,3,-34},{-20,26,42,67,82,-33,78,-3,119,28,50,-33,21,-5,104,21,-18,-62,-17,-23,-7,42,28,-50,-27,3,-17,11,-41,35,-83,-55,26,-28,-7,63,-26,40,-2,9,-42,91,-39,85,-22,-62,25,-6,52,43,-82,-30,-5,-122,-15,-28,11,13,44,28,-21,-11,-6,-40,53,-9,-10,-98,60,-41,12,-45,-16,63,15,-2,62,-29,-98,18,127,-19,-11,-8,50,-17,70,1,-2,-25,77,10,45,-44,5,46,-20,-36,-80,-72,27,-20,-9,-10,-10,-11,-18,50,-20,-28,-78,56,-19,11,50,39,-98,-15,37,-7,0,77,33,5,-50,-26,-29,-24},{-62,43,-27,10,50,-25,3,12,19,-14,13,-21,-5,49,-54,-14,39,13,3,-10,-15,-1,-3,23,-13,32,39,15,-128,6,32,6,6,32,48,-29,-22,35,6,59,13,15,-21,-49,-98,42,-38,32,60,3,-108,17,-9,-103,-58,-56,-41,-3,-67,15,18,-16,17,-29,34,-6,-21,-44,46,-46,-34,13,-14,91,-27,3,-1,14,17,-4,-47,-21,49,21,-2,-8,-74,9,16,-24,5,2,-58,15,1,58,-2,-77,85,-44,0,29,-75,-27,16,2,10,12,-22,-22,-50,-17,62,8,-49,19,-8,64,14,-30,-3,-22,-37,5,19,7,55,-78},{28,31,10,-15,55,-15,-128,10,-48,18,-26,-5,17,54,-20,66,-26,-40,-39,16,-17,19,2,-46,-7,13,15,-29,-16,6,-36,26,28,14,-25,4,33,74,-2,12,38,79,-48,-92,-36,-11,-80,59,19,66,-8,-12,127,-22,-60,-62,50,-24,65,-25,0,-3,41,-48,12,9,-56,57,67,13,6,-21,30,62,-27,23,38,29,91,36,-26,-89,-16,68,52,-46,36,-6,25,-18,-38,75,-40,-62,9,-27,3,51,42,-84,-72,39,13,7,58,11,-32,38,12,-35,-77,20,-16,-39,-79,-44,-91,60,20,-47,72,4,-72,23,-19,2,-11,-9},{11,34,-28,-16,79,-46,-60,-22,20,86,48,43,5,52,47,-20,2,57,32,-22,31,-52,-22,-16,9,-9,-62,-16,8,13,-61,47,21,16,-41,28,39,-28,-127,-105,39,48,-41,13,3,-128,-33,-42,4,-4,3,-103,28,30,22,94,-39,4,17,0,-14,5,-22,21,42,-14,22,57,11,34,-13,3,18,44,-29,-3,25,66,10,-31,-69,1,-17,45,25,37,42,12,-7,8,18,-58,33,17,17,-18,-24,-46,1,-24,-17,-18,97,-63,47,30,1,123,-20,17,1,32,62,-36,-86,33,11,-59,-24,-24,-2,-83,-59,-17,90,1,42,32},{22,-63,-18,-6,15,33,9,12,-35,7,69,-48,-21,20,54,7,31,-17,31,10,-29,24,13,3,-126,49,39,-13,35,62,27,-24,0,-22,-52,-6,-30,5,0,-12,56,12,-16,63,-44,32,-12,127,87,62,-5,17,-46,-29,-28,-40,36,12,20,17,20,39,14,-1,-39,-11,-22,98,-34,51,10,-8,28,25,17,35,57,16,42,-3,-24,-32,16,47,86,13,-49,54,11,17,9,-26,-4,-42,20,-15,-56,55,5,-23,-45,-82,-24,-128,30,-1,-48,-16,2,-8,33,64,-11,26,50,30,3,51,66,-120,-9,-31,26,-20,8,50,-48,-17},{-39,1,2,-4,27,-5,55,-3,-24,-23,72,-33,-40,-22,-1,-114,2,-32,-11,4,-9,40,94,18,45,-36,18,-40,29,63,-47,-13,-16,9,20,21,9,-63,1,-45,11,15,-91,59,20,-52,64,8,-31,-6,-15,-24,-69,-28,14,-94,-10,15,3,36,-4,4,43,-12,24,3,18,-38,7,62,-1,-9,10,24,27,13,-29,-22,39,-12,15,1,14,-13,-4,-33,-12,-14,4,34,1,4,28,13,-2,11,-2,-15,-18,2,64,55,-81,-60,-69,-21,-37,4,-29,-1,-11,11,5,28,-20,-57,-56,-78,-28,8,-6,-128,-24,-25,1,-46,21,-33},{-2,-18,30,35,23,1,-60,-25,51,-47,27,11,-19,-8,-22,0,5,28,-10,33,-39,-22,23,-20,-16,33,-13,36,-41,-1,-16,-31,-8,-6,-3,-35,8,-22,0,6,44,29,-63,37,-30,23,-35,19,15,-24,-23,47,-57,-23,8,6,17,24,-52,24,5,-14,-10,-2,21,-21,73,-28,33,-1,-33,49,8,55,-13,-9,-3,32,-26,-5,18,-22,70,40,-7,-52,-7,32,32,35,-23,32,-60,-3,-45,56,70,-94,11,-29,-72,45,-35,-49,40,12,-29,48,-44,22,-53,-32,19,36,8,-42,23,-26,-3,4,63,-37,10,36,68,-14,26,6},{37,-8,-74,16,-36,-41,12,0,49,37,-65,19,0,59,36,-87,12,2,15,35,-8,30,-12,24,36,-19,34,-22,13,-16,20,-55,55,-17,5,28,-8,0,32,-22,4,-77,2,-57,-5,-37,72,10,7,-54,-7,30,90,-27,-42,10,-62,-21,16,16,15,-22,-43,1,22,-27,1,52,20,-128,-9,13,-31,-74,13,39,39,-18,7,-4,94,-17,11,-61,2,12,24,29,-7,-6,58,-51,-48,-21,-19,1,-29,-34,-5,-86,30,33,-18,12,-9,-14,-45,16,-9,25,-34,-45,54,44,-14,17,9,-22,10,83,-30,5,31,32,4,-15,27,-30},{30,-7,25,-48,3,-61,6,-12,55,34,12,65,29,-31,-67,48,1,60,-66,-128,46,-6,46,22,49,-35,22,26,-44,-3,24,15,40,-27,27,-109,-10,-7,-6,21,-30,37,-38,-39,-66,-27,59,-60,35,52,-2,1,-56,43,-40,-64,-27,-25,-44,-34,-101,-40,-10,-44,-36,-32,24,20,33,-7,-27,9,7,104,-42,-6,-28,11,-14,-8,42,17,0,-101,69,3,-42,9,-38,-52,-3,70,-127,-3,15,70,76,-105,-6,71,-43,23,49,-71,29,-33,-49,62,-6,-71,36,2,16,-11,75,-9,17,49,-29,-27,-57,77,6,-22,33,-8,8,-24},{-6,2,-17,11,10,0,-16,-2,1,-11,-21,-30,-17,31,19,-8,2,9,41,27,-2,-9,-4,28,23,19,-67,20,-25,33,9,-29,-16,-31,-11,-10,-10,1,-53,-20,30,-3,18,-47,13,-8,-78,-2,23,-5,-39,-15,-86,14,-16,-25,-14,23,107,69,39,0,52,12,15,-26,25,56,-29,-4,-68,-7,23,-52,68,21,35,34,2,21,-10,-8,-33,-5,15,-4,62,15,22,