//2023-07-25 14:47:09.398928
#ifndef GESTURE_CONV1D_PARAMS_H
#define GESTURE_CONV1D_PARAMS_H

#include <stdint.h>
#include <stdbool.h>

struct Conv1d_Params {
	int input_width;
	int in_channels;
	int out_channels;
	int kernel_size;
	int stride_size;
	int padding_front;
	int padding_back;
	int output_width;
	double out_scale;
	double s1;
	double s2;
	double sb;
	double s4;
	int z1;
	int z2;
	int zb;
	int z4;
	};
struct Dense_Params {
	//I=BATCH_SIZE;
	int K;
	int J;
	double out_scale;
	double s1;
	double s2;
	double sb;
	double s3;
	int z1;
	int z2;
	int zb;
	int z3;
	};
static const elem_t QConv_BN1[3][3][16]=
{{{10,61,13,7,-86,127,-45,26,33,-1,21,-91,17,-72,53,-47},{-73,-65,36,11,-9,-45,19,35,-11,23,-29,-5,-23,67,21,-32},{1,0,8,21,-2,127,-16,-67,9,-27,0,45,5,-23,-37,-46}},{{1,-60,-12,26,4,-51,-24,-35,25,-2,0,-21,-17,83,-8,-35},{4,12,26,-5,-6,4,5,-1,27,-5,-21,69,-11,24,-24,-33},{-2,35,16,27,42,-73,-4,26,38,-35,-18,-81,0,-17,26,10}},{{-8,-70,8,15,-34,-128,-6,-36,-18,19,41,78,-66,41,43,20},{-22,18,-5,-14,-1,44,34,68,23,3,-26,-89,-48,-75,-39,68},{12,37,14,28,-27,-69,-31,-45,-5,-17,14,90,37,-24,-12,86}}};
static const elem_t QConv_BN_flatten_1[9][16]=
{{8,59,11,5,-88,125,-47,24,31,-3,19,-93,15,-74,51,-49},{-75,-67,34,9,-11,-47,17,33,-13,21,-31,-7,-25,65,19,-34},{-1,-2,6,19,-4,125,-18,-69,7,-29,-2,43,3,-25,-39,-48},{-1,-62,-14,24,2,-53,-26,-37,23,-4,-2,-23,-19,81,-10,-37},{2,10,24,-7,-8,2,3,-3,25,-7,-23,67,-13,22,-26,-35},{-4,33,14,25,40,-75,-6,24,36,-37,-20,-83,-2,-19,24,8},{-10,-72,6,13,-36,-128,-8,-38,-20,17,39,76,-68,39,41,18},{-24,16,-7,-16,-3,42,32,66,21,1,-28,-91,-50,-77,-41,66},{10,35,12,26,-29,-71,-33,-47,-7,-19,12,88,35,-26,-14,84}};
static const acc_t QConv_BN_bias1[16] = 
{6061,1822,-5915,-8247,9029,6379,7121,4895,-7611,8499,5001,338,7757,4577,1822,656};
const struct Conv1d_Params QConv_BN1_params = {.input_width=100, .in_channels=3,.out_channels = 16,.kernel_size =3,.stride_size=1,.padding_front= 1,.padding_back= 1,.output_width=100,.out_scale=0.007314726482309193,.s1=0.002764505155123528,.z1=-87,.s2=0.0681972110972685,.z2=2,.sb=0.019981269846862684,.zb=-11,.s4=0.025774243520849813,.z4=11};
static const elem_t QConv_BN2[3][16][32]=
{{{49,-13,19,-100,23,-19,-19,48,127,113,56,-52,22,26,-13,127,-44,-10,63,-13,-67,-128,-3,60,21,7,-12,39,59,-64,-46,23},{10,-13,34,64,10,39,19,-29,104,25,-21,14,73,13,3,81,-3,-19,73,21,-20,-61,-26,15,14,28,44,-42,20,-12,-5,-17},{-36,-22,28,70,89,51,10,8,33,-128,-13,21,6,-27,-41,29,5,-26,69,-42,28,105,-25,34,7,8,23,-19,-9,-68,-11,40},{11,15,28,-23,-83,71,11,52,-71,94,-24,-18,-63,5,26,-7,-4,-16,-76,5,-8,-127,-3,12,5,-11,0,41,-22,80,-13,4},{-22,-7,-19,-47,115,27,3,68,-19,127,11,-19,19,6,-40,-14,14,2,-75,-61,-35,42,26,48,-29,19,41,12,14,-71,-3,-4},{12,-46,-25,-101,19,17,28,50,-112,-90,55,42,-37,8,-24,80,-9,14,2,-33,2,-80,-52,-19,14,-35,11,-28,7,7,-26,18},{-35,47,-28,-95,127,-48,38,-22,104,127,49,27,-24,-28,-15,95,54,-10,-53,-52,-87,5,-23,18,8,11,-17,-4,-1,-3,28,22},{-31,70,-23,-118,22,-43,48,20,127,67,-61,-58,-1,9,-33,28,1,21,-29,26,-103,-128,-11,23,-26,-15,-117,-27,24,119,38,34},{-21,-5,-19,-27,11,62,50,-9,-45,-128,24,-39,33,31,-15,115,3,-11,91,51,34,-128,10,29,12,7,-69,-17,-10,-9,-25,-5},{-54,-1,-37,-37,127,23,3,-57,94,69,22,56,-19,31,-20,127,11,15,29,29,-53,-2,-55,21,17,-18,59,12,13,-36,9,13},{-15,-33,15,-35,111,6,-30,19,39,3,-20,9,37,-28,29,127,-30,-20,75,-36,-75,-128,7,84,46,9,35,-54,26,-8,-56,29},{-29,68,35,70,127,40,-39,-43,-43,127,1,-6,14,-19,-11,-92,17,-28,15,13,-43,-128,-26,-4,-15,21,-35,-9,19,24,39,-9},{24,-15,-11,-106,18,34,-7,10,59,17,32,38,65,5,6,55,-74,-21,-72,-21,42,-128,-8,1,-18,8,-44,30,34,28,-8,40},{-22,-13,8,34,-30,-38,5,39,81,14,19,21,27,-33,15,-38,26,-1,-1,-16,-49,-128,-28,29,-31,-13,23,34,3,69,-41,-22},{-27,-42,-12,-128,-94,18,-10,2,32,16,-44,14,-18,-27,-16,1,19,12,77,17,-43,-128,-17,37,-14,14,-48,-81,-3,63,-40,36},{11,16,15,-61,52,12,38,35,-67,-56,-31,16,65,-6,5,-52,18,-41,60,12,5,-25,-12,-14,-9,34,62,70,5,12,-32,17}},{{16,-36,-6,-28,-75,-35,-23,60,56,27,51,34,36,34,-16,-86,-42,-15,68,83,3,61,18,-10,56,-23,-32,0,25,15,5,58},{-13,-42,24,80,-15,26,20,-1,23,-108,-50,9,0,-40,22,-81,-10,8,60,-28,-12,-10,-13,-12,13,-2,-37,3,0,-64,13,5},{-8,-10,-16,34,120,-30,31,25,63,-43,9,-38,36,5,-21,-2,35,3,74,-57,60,0,19,33,-4,1,44,-40,9,16,-25,26},{-26,-1,32,-128,41,64,10,-25,51,-63,0,-46,-16,13,24,-48,8,-17,-83,46,-40,108,6,56,9,10,-30,-36,-2,-12,15,-5},{-20,-9,0,35,-8,79,32,51,-46,127,43,-41,-31,14,-35,7,-21,-22,12,-15,12,48,16,34,-13,-5,-54,-47,15,-3,44,7},{6,7,-42,-16,-46,55,28,16,-44,-61,-16,-27,34,28,-12,-7,-11,-18,13,13,52,72,6,-43,40,-20,82,-3,20,-39,8,12},{-48,43,-6,72,-4,44,36,-7,19,36,7,-88,20,44,-34,43,-8,-6,-28,29,-51,22,-20,28,-28,23,34,-16,-8,35,15,2},{-18,26,-5,84,-61,58,-8,36,11,59,-44,-28,18,15,2,-63,18,26,48,54,-76,12,-12,39,-11,-23,-70,29,4,81,21,25},{18,-46,-11,-15,-37,-8,24,-10,44,-56,33,46,41,-45,13,-4,-24,11,75,29,-41,109,-29,27,-13,24,-19,-9,-8,-34,20,29},{-58,24,13,-7,-68,-47,31,-57,-24,-9,38,28,4,15,3,60,-4,-7,41,3,5,14,-37,3,-2,-33,39,79,5,65,18,-28},{-27,-43,-13,39,7,-44,33,11,-11,110,-17,-57,26,-39,7,127,-9,12,29,-105,-23,81,8,56,12,4,-45,27,7,66,-21,15},{11,-5,9,84,73,-29,-3,30,65,-94,-8,-73,64,22,-7,-16,-32,2,-7,-57,-53,11,-12,2,-35,21,-11,42,32,-81,4,-14},{27,-30,8,48,29,-8,-35,34,-65,-44,27,2,33,-15,-4,-17,-51,-33,10,24,-30,-112,-6,-28,33,1,46,24,21,-55,-24,-5},{-12,24,-13,-81,77,-45,27,41,40,20,-4,87,60,-22,15,-35,28,-14,46,-26,-27,80,-32,9,12,-2,53,38,-6,81,-25,23},{-29,6,19,33,-43,22,-13,-22,-100,-116,-12,-18,52,15,5,-17,-10,-5,-28,-22,-28,88,-1,40,18,13,3,-68,8,72,-14,0},{-19,-38,-1,56,54,-40,17,-27,-52,46,-8,50,-1,-28,-36,-25,5,-40,31,-3,16,-110,-10,-15,-78,-6,16,54,-7,20,27,20}},{{42,33,-5,98,-77,50,12,46,0,-128,-19,-40,46,18,-4,-7,20,-21,10,-38,-15,127,0,-9,4,8,12,-56,6,-31,9,65},{-4,34,31,-85,-128,-16,39,17,-2,-60,-35,-18,-30,-26,-26,-16,-42,-32,-17,-13,-23,127,-16,38,-31,-20,-38,-32,18,26,26,25},{-2,19,-3,67,81,-8,-18,39,-50,108,34,-60,61,-38,4,-51,28,-30,70,-40,-46,-69,-25,29,40,-4,-51,-44,-3,15,-43,7},{-41,-30,-1,-118,-30,27,4,-8,-26,-83,-15,-41,20,-25,-3,-81,-17,-15,-74,54,-58,48,-12,53,38,36,-84,9,20,-20,12,4},{-27,-14,-26,-9,-128,43,-21,69,-38,-110,-10,43,3,-1,-38,-128,3,-25,-53,-63,-5,-21,25,29,-18,11,2,-53,-21,-72,17,-10},{-49,31,-36,-128,-128,33,37,77,-117,-128,16,-61,-26,55,-16,-4,-45,-21,-14,-24,70,77,19,-42,10,-13,26,-107,7,6,11,-7},{-14,33,-32,0,-63,51,2,18,-50,-128,17,-38,-62,30,10,-41,12,-18,-13,-34,62,-46,-4,20,21,-7,-22,-33,11,1,42,24},{-12,47,-34,40,19,46,67,-29,-103,-128,-24,-78,31,43,-34,91,2,20,-4,26,-95,57,4,9,-18,-36,-57,-89,0,105,85,1},{1,-10,12,101,-107,8,15,45,-44,127,7,41,38,4,-16,127,13,20,-23,-3,-61,-31,3,31,-16,0,-68,30,-9,55,-23,25},{-7,29,1,-29,82,35,7,-58,40,-43,55,42,4,43,-4,-124,17,26,-23,28,95,-65,-66,12,-4,-45,-14,13,-22,-16,36,2},{7,-5,-8,127,85,37,-29,28,-10,42,24,49,-20,-37,18,-128,-26,-5,70,-108,-27,127,-25,-10,-20,10,63,-48,15,-14,-33,31},{-24,-43,16,-57,127,21,-35,-66,35,-95,-9,-21,37,18,7,-10,-8,-35,9,-35,6,127,17,46,28,-8,41,38,9,-30,22,19},{10,38,16,102,-128,33,-9,55,-118,-13,23,-8,-34,-12,-5,-128,-27,-48,-28,-65,50,127,22,-14,-4,-21,-69,39,9,-40,32,23},{39,7,8,100,-50,-15,32,6,-28,46,-24,116,-21,-46,4,-128,0,-19,24,-33,63,127,-36,-3,-7,-17,-6,-94,3,-10,35,9},{1,-20,-13,71,67,-24,-15,24,-7,-117,-57,46,-5,-30,22,-128,11,-3,-52,57,14,127,-18,-1,27,-5,-56,-88,35,13,-30,39},{-13,-19,13,-128,-54,21,21,-50,-79,63,10,40,24,-82,-14,127,-25,-37,79,91,53,-20,7,-9,-80,-17,51,-31,4,32,-22,-17}}};
static const elem_t QConv_BN_flatten_2[48][32]=
{{49,-13,19,-100,23,-19,-19,48,127,113,56,-52,22,26,-13,127,-44,-10,63,-13,-67,-128,-3,60,21,7,-12,39,59,-64,-46,23},{10,-13,34,64,10,39,19,-29,104,25,-21,14,73,13,3,81,-3,-19,73,21,-20,-61,-26,15,14,28,44,-42,20,-12,-5,-17},{-36,-22,28,70,89,51,10,8,33,-128,-13,21,6,-27,-41,29,5,-26,69,-42,28,105,-25,34,7,8,23,-19,-9,-68,-11,40},{11,15,28,-23,-83,71,11,52,-71,94,-24,-18,-63,5,26,-7,-4,-16,-76,5,-8,-127,-3,12,5,-11,0,41,-22,80,-13,4},{-22,-7,-19,-47,115,27,3,68,-19,127,11,-19,19,6,-40,-14,14,2,-75,-61,-35,42,26,48,-29,19,41,12,14,-71,-3,-4},{12,-46,-25,-101,19,17,28,50,-112,-90,55,42,-37,8,-24,80,-9,14,2,-33,2,-80,-52,-19,14,-35,11,-28,7,7,-26,18},{-35,47,-28,-95,127,-48,38,-22,104,127,49,27,-24,-28,-15,95,54,-10,-53,-52,-87,5,-23,18,8,11,-17,-4,-1,-3,28,22},{-31,70,-23,-118,22,-43,48,20,127,67,-61,-58,-1,9,-33,28,1,21,-29,26,-103,-128,-11,23,-26,-15,-117,-27,24,119,38,34},{-21,-5,-19,-27,11,62,50,-9,-45,-128,24,-39,33,31,-15,115,3,-11,91,51,34,-128,10,29,12,7,-69,-17,-10,-9,-25,-5},{-54,-1,-37,-37,127,23,3,-57,94,69,22,56,-19,31,-20,127,11,15,29,29,-53,-2,-55,21,17,-18,59,12,13,-36,9,13},{-15,-33,15,-35,111,6,-30,19,39,3,-20,9,37,-28,29,127,-30,-20,75,-36,-75,-128,7,84,46,9,35,-54,26,-8,-56,29},{-29,68,35,70,127,40,-39,-43,-43,127,1,-6,14,-19,-11,-92,17,-28,15,13,-43,-128,-26,-4,-15,21,-35,-9,19,24,39,-9},{24,-15,-11,-106,18,34,-7,10,59,17,32,38,65,5,6,55,-74,-21,-72,-21,42,-128,-8,1,-18,8,-44,30,34,28,-8,40},{-22,-13,8,34,-30,-38,5,39,81,14,19,21,27,-33,15,-38,26,-1,-1,-16,-49,-128,-28,29,-31,-13,23,34,3,69,-41,-22},{-27,-42,-12,-128,-94,18,-10,2,32,16,-44,14,-18,-27,-16,1,19,12,77,17,-43,-128,-17,37,-14,14,-48,-81,-3,63,-40,36},{11,16,15,-61,52,12,38,35,-67,-56,-31,16,65,-6,5,-52,18,-41,60,12,5,-25,-12,-14,-9,34,62,70,5,12,-32,17},{16,-36,-6,-28,-75,-35,-23,60,56,27,51,34,36,34,-16,-86,-42,-15,68,83,3,61,18,-10,56,-23,-32,0,25,15,5,58},{-13,-42,24,80,-15,26,20,-1,23,-108,-50,9,0,-40,22,-81,-10,8,60,-28,-12,-10,-13,-12,13,-2,-37,3,0,-64,13,5},{-8,-10,-16,34,120,-30,31,25,63,-43,9,-38,36,5,-21,-2,35,3,74,-57,60,0,19,33,-4,1,44,-40,9,16,-25,26},{-26,-1,32,-128,41,64,10,-25,51,-63,0,-46,-16,13,24,-48,8,-17,-83,46,-40,108,6,56,9,10,-30,-36,-2,-12,15,-5},{-20,-9,0,35,-8,79,32,51,-46,127,43,-41,-31,14,-35,7,-21,-22,12,-15,12,48,16,34,-13,-5,-54,-47,15,-3,44,7},{6,7,-42,-16,-46,55,28,16,-44,-61,-16,-27,34,28,-12,-7,-11,-18,13,13,52,72,6,-43,40,-20,82,-3,20,-39,8,12},{-48,43,-6,72,-4,44,36,-7,19,36,7,-88,20,44,-34,43,-8,-6,-28,29,-51,22,-20,28,-28,23,34,-16,-8,35,15,2},{-18,26,-5,84,-61,58,-8,36,11,59,-44,-28,18,15,2,-63,18,26,48,54,-76,12,-12,39,-11,-23,-70,29,4,81,21,25},{18,-46,-11,-15,-37,-8,24,-10,44,-56,33,46,41,-45,13,-4,-24,11,75,29,-41,109,-29,27,-13,24,-19,-9,-8,-34,20,29},{-58,24,13,-7,-68,-47,31,-57,-24,-9,38,28,4,15,3,60,-4,-7,41,3,5,14,-37,3,-2,-33,39,79,5,65,18,-28},{-27,-43,-13,39,7,-44,33,11,-11,110,-17,-57,26,-39,7,127,-9,12,29,-105,-23,81,8,56,12,4,-45,27,7,66,-21,15},{11,-5,9,84,73,-29,-3,30,65,-94,-8,-73,64,22,-7,-16,-32,2,-7,-57,-53,11,-12,2,-35,21,-11,42,32,-81,4,-14},{27,-30,8,48,29,-8,-35,34,-65,-44,27,2,33,-15,-4,-17,-51,-33,10,24,-30,-112,-6,-28,33,1,46,24,21,-55,-24,-5},{-12,24,-13,-81,77,-45,27,41,40,20,-4,87,60,-22,15,-35,28,-14,46,-26,-27,80,-32,9,12,-2,53,38,-6,81,-25,23},{-29,6,19,33,-43,22,-13,-22,-100,-116,-12,-18,52,15,5,-17,-10,-5,-28,-22,-28,88,-1,40,18,13,3,-68,8,72,-14,0},{-19,-38,-1,56,54,-40,17,-27,-52,46,-8,50,-1,-28,-36,-25,5,-40,31,-3,16,-110,-10,-15,-78,-6,16,54,-7,20,27,20},{42,33,-5,98,-77,50,12,46,0,-128,-19,-40,46,18,-4,-7,20,-21,10,-38,-15,127,0,-9,4,8,12,-56,6,-31,9,65},{-4,34,31,-85,-128,-16,39,17,-2,-60,-35,-18,-30,-26,-26,-16,-42,-32,-17,-13,-23,127,-16,38,-31,-20,-38,-32,18,26,26,25},{-2,19,-3,67,81,-8,-18,39,-50,108,34,-60,61,-38,4,-51,28,-30,70,-40,-46,-69,-25,29,40,-4,-51,-44,-3,15,-43,7},{-41,-30,-1,-118,-30,27,4,-8,-26,-83,-15,-41,20,-25,-3,-81,-17,-15,-74,54,-58,48,-12,53,38,36,-84,9,20,-20,12,4},{-27,-14,-26,-9,-128,43,-21,69,-38,-110,-10,43,3,-1,-38,-128,3,-25,-53,-63,-5,-21,25,29,-18,11,2,-53,-21,-72,17,-10},{-49,31,-36,-128,-128,33,37,77,-117,-128,16,-61,-26,55,-16,-4,-45,-21,-14,-24,70,77,19,-42,10,-13,26,-107,7,6,11,-7},{-14,33,-32,0,-63,51,2,18,-50,-128,17,-38,-62,30,10,-41,12,-18,-13,-34,62,-46,-4,20,21,-7,-22,-33,11,1,42,24},{-12,47,-34,40,19,46,67,-29,-103,-128,-24,-78,31,43,-34,91,2,20,-4,26,-95,57,4,9,-18,-36,-57,-89,0,105,85,1},{1,-10,12,101,-107,8,15,45,-44,127,7,41,38,4,-16,127,13,20,-23,-3,-61,-31,3,31,-16,0,-68,30,-9,55,-23,25},{-7,29,1,-29,82,35,7,-58,40,-43,55,42,4,43,-4,-124,17,26,-23,28,95,-65,-66,12,-4,-45,-14,13,-22,-16,36,2},{7,-5,-8,127,85,37,-29,28,-10,42,24,49,-20,-37,18,-128,-26,-5,70,-108,-27,127,-25,-10,-20,10,63,-48,15,-14,-33,31},{-24,-43,16,-57,127,21,-35,-66,35,-95,-9,-21,37,18,7,-10,-8,-35,9,-35,6,127,17,46,28,-8,41,38,9,-30,22,19},{10,38,16,102,-128,33,-9,55,-118,-13,23,-8,-34,-12,-5,-128,-27,-48,-28,-65,50,127,22,-14,-4,-21,-69,39,9,-40,32,23},{39,7,8,100,-50,-15,32,6,-28,46,-24,116,-21,-46,4,-128,0,-19,24,-33,63,127,-36,-3,-7,-17,-6,-94,3,-10,35,9},{1,-20,-13,71,67,-24,-15,24,-7,-117,-57,46,-5,-30,22,-128,11,-3,-52,57,14,127,-18,-1,27,-5,-56,-88,35,13,-30,39},{-13,-19,13,-128,-54,21,21,-50,-79,63,10,40,24,-82,-14,127,-25,-37,79,91,53,-20,7,-9,-80,-17,51,-31,4,32,-22,-17}};
static const acc_t QConv_BN_bias2[32] = 
{6085,1460,2077,1974,-1931,-6761,-4603,-5219,-492,4132,-595,2283,-6247,1974,5160,1255,4132,6496,-6555,6496,8962,947,6085,-9330,124,1974,5263,7729,-1314,-698,1049,-6042};
const struct Conv1d_Params QConv_BN2_params = {.input_width=100, .in_channels=16,.out_channels = 32,.kernel_size =3,.stride_size=1,.padding_front= 1,.padding_back= 1,.output_width=100,.out_scale=0.00377300320386375,.s1=0.025774243520849813,.z1=11,.s2=0.0077126562361623735,.z2=0,.sb=0.020428949020590958,.zb=14,.s4=0.052686909944810255,.z4=9};
static const elem_t QConv_BN3[3][32][64]=
{{{12,41,-115,20,11,-69,-18,-60,59,-128,-89,-8,49,70,-23,8,-35,-69,34,56,127,39,37,-104,29,41,-72,48,-82,-1,8,-2,14,40,14,-44,-63,-26,-115,-59,-68,-79,-31,48,-71,-69,-16,68,16,26,30,-105,94,-20,-1,98,-7,96,127,-7,-24,7,-35,36},{-61,-40,-17,77,-55,75,5,35,39,-128,14,37,18,35,-62,8,111,42,-44,-115,0,50,-35,-45,73,-71,8,-57,19,-33,0,59,-22,27,127,-107,31,17,108,-12,127,-65,-74,0,60,-3,32,-41,-92,-51,-37,1,-40,5,-8,52,26,55,-99,10,0,-44,14,-33},{127,75,-64,18,-4,-23,-12,33,88,7,-46,28,59,-15,43,19,22,27,8,-45,-23,17,-50,-79,39,27,-2,64,-7,-15,-73,-15,-5,54,33,-32,-58,-4,22,-67,23,-87,-97,68,-55,-66,8,8,-9,55,-84,-16,-4,-40,-64,-56,-13,-4,106,26,-28,-57,27,25},{-48,20,-43,50,-62,3,-24,-8,127,50,75,-52,-127,-27,74,8,-64,16,17,25,-11,59,-46,-19,-26,-4,21,-128,-100,12,-71,58,-8,119,-55,35,107,-12,10,31,7,-46,71,65,13,-28,32,31,16,41,21,85,69,10,66,48,-37,45,127,16,-45,31,50,8},{64,37,18,72,34,-40,-46,-32,-48,-128,44,70,-69,-37,-69,-69,73,-12,44,-15,-36,87,-38,5,62,-128,7,-41,-34,19,127,-24,-93,-128,-59,36,-14,-12,46,74,-35,8,-9,-62,48,18,-27,-64,18,77,20,120,-120,22,41,127,65,27,-128,-28,-85,-29,-59,-15},{16,52,-5,-55,21,-4,-26,-28,-41,34,46,30,29,-112,-49,-41,-3,35,-18,-67,127,-50,-28,-15,49,-8,-4,94,-18,38,44,7,-36,-128,24,-1,41,97,-52,-32,53,-33,6,-68,-77,5,-23,-52,29,29,-39,-53,-50,40,-6,55,-18,-93,25,65,78,6,-24,-43},{65,-50,-28,-53,70,-8,-92,44,62,-30,80,67,3,-109,41,-39,118,-28,-44,28,-15,41,-29,38,127,127,26,-10,-9,-6,-58,-5,-1,-45,84,-41,47,66,77,10,-120,2,-51,-1,-8,-21,23,-16,32,74,-39,-101,11,24,-41,16,-21,52,116,11,92,49,-37,10},{3,45,63,-41,45,-70,-110,-16,127,-127,96,68,32,-23,0,-2,40,1,-74,16,127,61,46,80,-81,15,-64,-32,-112,-27,68,84,27,-44,57,85,50,81,25,-2,114,-4,-4,-10,87,-9,-26,-105,3,-13,56,10,99,33,-87,-32,46,-30,127,16,22,-42,14,36},{43,-60,7,33,57,11,19,59,53,-11,35,17,-1,-51,19,53,48,-91,87,-2,-94,-23,26,-54,-128,14,-32,-128,-64,70,127,44,24,90,111,59,-77,-20,11,-14,127,8,9,127,-128,20,63,30,11,23,-28,67,49,-70,15,40,-65,21,37,95,62,-42,10,26},{-113,26,75,-42,-73,6,-10,-6,54,-128,121,-20,74,23,6,-16,127,-61,-119,-128,66,-16,30,-15,-128,-128,-12,-128,127,6,88,14,-128,-54,79,69,-99,-17,116,-24,57,-66,25,-19,113,17,16,-83,20,22,-60,1,-20,61,-100,10,12,-9,69,-2,-128,-101,35,-21},{35,93,66,-12,12,55,13,-1,45,67,14,-22,-20,31,50,7,-11,-24,-51,-128,-12,-29,14,-42,-36,-15,-30,11,20,23,-58,-46,-97,15,-41,4,13,-81,17,-48,-30,1,54,-18,-113,-2,-3,-53,-46,-31,13,18,-5,36,36,-12,35,-51,-5,-66,-61,-59,0,-1},{-46,-59,7,-7,1,-56,6,49,12,-30,-66,-74,-63,-7,36,7,-58,32,-55,1,-73,-47,42,-81,57,-102,-123,114,2,72,53,-29,-54,-66,33,20,-15,55,-8,-46,2,1,-7,12,-26,-27,8,11,-19,-46,-19,124,117,-14,-72,-25,25,-73,127,29,21,66,-13,46},{79,-21,-61,-1,-22,-53,100,44,127,-117,-3,67,-50,29,-54,25,4,-22,-9,-70,74,108,55,-78,-128,85,1,-1,-24,24,127,-9,6,1,43,-8,-41,50,52,51,127,-43,-27,3,-34,29,-37,-48,16,39,8,-34,1,-14,27,-31,-77,-63,21,21,3,-9,-67,16},{127,11,2,-39,44,24,53,-2,11,22,-2,24,12,61,22,11,-43,-37,-61,-79,57,72,-37,-83,-27,7,42,53,-8,-15,-56,23,5,-57,97,-61,83,8,-25,52,127,-6,-42,-56,17,12,1,28,25,37,-27,53,-103,54,33,-14,17,-27,25,57,-81,19,34,-57},{-1,-128,-88,29,-38,-61,-6,-17,43,55,10,-24,68,-50,-23,20,51,-22,-41,-12,88,-25,-13,124,81,41,18,-14,-17,21,8,30,-8,-105,42,-9,-6,30,60,8,-50,-9,-33,-40,-43,-16,49,65,11,79,-28,-108,-51,33,38,92,-89,101,127,-39,-28,-69,-7,-40},{-83,20,-25,35,-69,-16,-23,-15,-114,127,-99,25,68,-22,29,4,-72,-52,65,31,0,-105,31,23,-54,56,1,-128,-49,-22,45,-39,8,75,27,2,-31,2,-122,-70,98,18,62,-10,9,13,17,8,-52,14,10,64,-14,-73,-51,56,-11,-40,-118,-27,120,29,-5,-9},{122,21,-58,76,61,-4,-16,-92,127,-128,28,36,-82,-35,-15,-8,43,112,-31,-87,-128,65,58,9,87,37,36,39,-3,-25,91,18,-13,-128,60,90,-16,18,40,-53,55,-30,-57,57,7,-23,10,25,38,109,-114,127,-89,9,-64,20,5,-5,-128,-45,-14,65,-1,-12},{3,104,-12,-36,95,-28,-18,16,-1,-98,24,52,-25,-8,61,19,55,-8,14,-70,30,0,36,0,-110,-41,-9,-59,27,-53,39,34,-74,-26,-28,-41,54,-2,30,-55,15,-14,-21,-6,3,-14,36,101,33,37,56,33,5,1,-8,6,37,-21,-89,69,28,47,45,-18},{127,-65,-2,59,3,5,55,-31,127,86,-35,32,-94,21,-30,85,-128,-78,86,-12,-110,40,39,52,22,127,-34,21,-33,15,-85,-4,68,127,-89,-74,-81,69,-128,17,127,106,16,10,-86,19,-55,61,47,-27,-50,39,70,-20,-10,26,-27,-55,-81,-2,99,69,-62,52},{-41,22,-55,24,-23,29,-41,-21,61,12,-45,68,-72,34,-3,-12,65,26,-14,-40,-87,-48,71,-25,-24,-82,29,88,15,44,-128,58,-1,-85,88,-128,17,64,73,84,-97,124,-20,11,71,-9,-10,-43,-15,68,-45,-44,18,19,-128,8,-32,-122,127,117,-7,42,-114,27},{-93,34,43,-47,-56,-6,-11,1,57,84,94,106,17,-50,27,-20,62,15,-29,-23,-19,60,40,38,-47,-43,11,-76,-46,49,-62,-7,81,-94,106,36,-12,57,62,62,9,-11,27,99,-25,-64,-59,0,6,65,-128,-2,-4,-50,-128,75,9,-75,47,43,127,91,-46,27},{50,-17,-27,-96,16,-117,4,-128,9,-79,-3,24,-112,22,109,4,-87,-23,29,77,58,18,5,-25,127,-38,3,24,16,-75,-125,-30,-8,-124,-45,-6,48,-50,39,-40,-128,-22,-10,37,85,-53,-16,-56,35,33,-8,-16,-4,-41,-12,37,34,-52,49,-5,-112,8,11,3},{17,33,-90,-37,-15,-38,19,-117,-3,-81,-13,-32,53,49,-22,-33,5,-2,57,24,-128,127,-34,-18,0,-85,-12,-21,-15,-56,34,-47,49,104,-113,-36,-32,27,-121,-38,-128,-19,-40,68,-60,0,8,4,18,24,-36,-10,-38,-24,20,8,31,75,127,-35,-102,3,-24,2},{113,-23,1,1,-48,16,55,19,61,83,127,59,-13,-44,78,62,35,-35,-22,-128,-64,34,-28,127,-122,-85,-15,-128,-35,33,22,68,-13,-24,67,0,10,12,64,-46,127,13,19,76,23,1,39,-77,32,53,-62,49,11,-1,6,-61,54,-9,-4,16,75,-38,15,41},{-64,-77,26,16,-19,-19,29,42,-77,81,-53,55,18,34,-53,76,60,-92,28,-3,54,-13,16,51,-67,85,-21,-81,56,16,-1,18,38,20,37,92,-7,19,1,-22,51,-18,69,-63,-31,-7,-10,46,32,80,73,50,75,46,38,75,-44,40,127,89,77,-55,41,28},{84,-9,-118,41,55,-62,-22,15,-17,0,-26,-29,38,23,26,30,53,-18,-77,0,112,116,9,91,23,-71,55,-16,-12,16,-51,-6,-27,15,-17,-26,-92,-11,13,-10,77,-46,-30,-32,-20,-28,39,19,-12,-25,-13,-41,-8,-30,44,-18,-41,43,127,33,-128,-3,-8,9},{34,64,40,-59,41,-19,10,0,-8,63,18,-100,-13,27,5,-8,-15,21,-3,8,-1,-26,54,-6,70,-54,-1,70,38,11,84,-34,-100,-39,-113,24,-61,-84,-12,-43,-128,-56,-24,-53,-72,-28,-18,28,-58,-7,26,50,34,-32,31,-45,-7,-119,68,-16,-83,2,-30,34},{63,53,-87,18,-9,14,-18,44,31,28,0,49,43,-12,97,-10,-83,-32,-32,47,16,7,3,-25,4,107,19,1,18,-6,-33,-74,-57,-121,22,-128,-41,53,103,59,-40,20,-80,39,-31,-88,-4,-10,27,11,-33,52,-4,-45,-22,115,-26,31,-14,-22,47,17,-6,3},{-31,21,-11,40,-128,-9,-1,49,127,5,-16,38,53,0,-24,79,50,30,-7,-82,127,-34,14,-81,-128,-76,0,-63,1,-5,127,53,9,120,-16,63,-27,18,-9,13,127,-72,53,65,-72,22,-5,-44,-15,49,47,-9,108,-41,-37,22,-55,4,126,93,19,-83,35,-32},{-94,53,3,18,-68,9,-73,78,89,-40,-7,-41,65,-49,-3,8,61,-79,-84,22,-64,96,-26,6,21,-54,-68,8,42,52,30,-41,16,-45,41,-128,42,20,33,-21,-7,50,-85,122,102,-11,62,26,-86,-59,31,94,56,-128,60,51,1,8,-128,-68,65,-37,9,38},{-21,-23,-68,-71,-41,33,-41,4,65,-65,78,15,50,15,-42,13,-12,67,74,-84,127,45,23,-37,32,66,57,-16,97,52,-50,18,-21,18,76,40,46,67,74,-44,73,-49,-65,37,-33,-14,31,-16,-95,50,-26,-21,-5,32,-60,56,-17,25,62,12,-29,-105,20,15},{-59,-38,49,33,-43,-14,-63,-11,127,-78,73,80,-21,-96,-31,90,-68,-51,22,-109,-5,-76,26,65,-88,-98,-74,34,11,-8,53,52,-16,63,95,-6,-11,45,24,-34,86,26,18,3,33,-8,25,-50,30,25,-12,-67,64,45,-16,20,-7,-5,-23,107,118,-95,-42,47}},{{50,-15,-128,32,-90,-63,46,-115,8,-116,-42,-18,59,-35,62,16,-72,-24,-44,-10,-30,111,-26,-123,73,-70,37,57,-42,-65,60,2,34,90,18,-36,-7,26,-122,-66,-67,-72,-36,45,33,-71,51,31,40,38,-16,42,80,-15,45,1,-24,66,108,-36,-128,-73,-53,33},{-104,-18,-73,11,-25,-6,-22,30,86,63,-8,-16,-27,44,-62,-4,-1,-6,-45,22,127,9,-31,7,2,-39,45,22,-6,-11,15,31,-32,-34,59,-49,78,-1,53,41,-13,-63,5,-80,-49,22,5,-46,-85,42,7,57,-91,-15,1,49,9,83,17,0,30,-39,6,-23},{127,70,48,46,4,-42,55,54,87,17,10,38,41,27,16,7,-51,14,-70,22,127,-66,-21,-23,-7,-46,-8,-35,39,-9,-56,43,-47,-46,-8,7,-63,-29,-35,-87,-56,-78,-68,102,-20,-47,47,-47,6,26,-53,45,-27,-67,-16,12,-44,6,127,26,-124,-44,-22,-3},{-12,51,29,5,28,-38,51,-31,5,-105,51,-63,-100,-69,24,-6,38,20,74,-62,-126,-10,11,53,18,-26,11,-109,-63,-52,-32,31,-32,71,-33,31,15,-26,20,67,-7,-60,40,-11,-59,18,50,53,4,19,5,-50,-9,-73,-18,-1,10,-3,18,3,23,6,49,1},{8,1,72,-26,-3,-45,-37,8,-23,59,-45,26,-24,-71,-62,-36,28,56,-17,30,-66,-45,27,-7,127,-103,11,77,11,5,120,-3,-27,-125,-18,-12,58,10,58,-42,47,55,31,-92,-95,21,21,-7,-19,48,9,48,10,5,19,42,8,-36,-28,26,13,-18,-41,-24},{69,-3,-20,34,-16,-9,37,17,-25,27,68,7,-24,-79,36,-17,-45,43,56,-45,83,-27,13,68,-43,92,4,98,42,46,35,49,5,-128,-102,-30,0,66,-9,6,69,-8,-12,-65,17,8,-15,12,28,49,-8,-10,1,42,2,-49,19,-57,118,24,39,70,-4,-70},{68,-75,-13,12,-21,5,-52,57,-28,-56,90,15,11,-69,-23,-14,60,-40,65,69,-25,17,8,-23,33,107,21,-80,61,13,-3,8,-36,-70,-11,-86,-17,116,-11,41,-128,52,-40,-18,-7,9,-18,-35,0,-4,-11,44,58,-15,-16,66,-27,-3,-14,14,79,-5,-35,-37},{-78,35,19,1,-7,-77,-128,-37,-15,81,8,36,43,-87,32,26,-55,41,40,72,127,11,53,26,-48,-73,-5,16,-28,0,-38,99,88,28,8,101,14,59,60,44,26,-45,-28,4,-15,-12,53,-38,59,-5,-31,12,-6,114,-59,-105,2,-23,-11,50,-14,-14,11,97},{-33,-64,-14,50,-13,63,-56,-27,60,-118,-53,-8,75,48,17,19,49,-17,-17,-10,81,94,62,-36,-88,-40,-48,-128,23,54,38,36,-55,59,34,3,12,-36,-13,-9,51,46,26,58,-35,-15,9,55,25,-11,-25,-96,-19,-56,-17,32,20,26,-105,48,-40,-105,28,45},{29,28,6,-50,13,57,67,-25,57,-53,18,-69,53,54,102,19,127,37,-91,45,-69,-42,4,-68,-45,-61,-57,24,105,-5,-91,55,-23,-103,51,4,-20,-50,15,-13,4,-18,-28,-38,30,-25,-20,-72,-18,-65,54,22,30,6,32,63,41,29,-50,15,-25,-117,14,-15},{-9,-11,75,-32,55,-1,69,-6,61,-5,-41,-94,-53,-8,5,-17,-38,2,-7,5,23,-31,6,7,-74,-49,-9,-50,-19,63,-73,-3,-62,-96,-59,-6,-45,-44,-74,14,16,-5,-31,-37,-62,8,-71,-60,-33,2,87,-36,-56,-12,38,-38,20,-50,127,-55,-63,61,52,-30},{-15,-75,51,-8,-22,1,22,10,-77,43,-47,5,-19,34,85,21,53,17,-52,37,-3,-78,32,-18,62,-43,-128,96,-12,98,-55,16,-66,35,50,31,9,31,-91,-24,-122,66,47,-13,-35,-17,-33,55,26,59,46,5,80,-85,41,-17,-4,-13,-24,-27,77,45,20,46},{-30,58,-82,-27,-36,-10,19,9,-36,-128,-64,-23,-16,-23,-59,52,-48,27,23,3,38,64,18,-32,-128,-19,-27,26,38,2,-37,-8,-21,-41,-51,46,-74,-55,-45,19,63,-26,-76,83,9,37,-21,-2,-1,-16,-74,59,60,5,9,9,-28,-14,-6,13,-103,-69,-44,45},{89,50,-12,-24,39,52,2,-25,-68,83,1,20,40,42,-31,-2,-73,-63,-35,-18,123,33,-38,-61,33,45,-1,-11,-18,-5,2,9,21,97,-35,58,78,-73,8,70,20,-57,54,-72,-7,-10,-55,-6,22,41,-54,70,-34,-40,73,-11,-16,19,19,11,-61,5,-15,-45},{69,-128,-21,-27,32,-1,-65,-4,-60,-30,43,86,36,-21,20,-4,-34,-50,32,-4,-65,86,-35,26,-56,43,25,-46,82,0,-74,7,-34,-100,59,-10,20,-86,20,117,120,-33,-45,-62,19,12,36,75,62,82,-44,-110,-38,22,-28,110,-103,30,95,-11,37,11,54,-14},{-35,19,46,39,-18,11,-61,-25,-71,11,8,107,-24,-20,-9,-11,-4,23,-40,14,31,-36,21,59,-68,-92,-60,-87,47,-13,-25,-34,-18,-54,-67,38,-17,-45,-128,-3,-34,-65,64,3,-40,-4,32,-59,-39,36,-59,-33,-23,14,-88,-34,46,-8,-88,-24,-62,-73,-27,13},{109,83,38,6,34,-46,36,-43,118,-80,20,113,7,-49,8,-35,-33,61,57,-29,1,-57,30,98,52,-36,37,-84,61,-15,-14,33,4,-123,40,107,9,101,-29,-56,88,46,-17,52,70,36,7,0,44,70,-40,20,-34,47,-38,89,26,-74,-49,-1,-8,36,-67,1},{73,26,-85,-50,54,-8,-29,49,116,40,-72,8,43,-1,34,-17,39,-24,41,-77,40,71,19,45,12,-40,37,-23,-45,15,-9,41,-85,-61,5,-22,74,22,62,69,49,66,23,64,55,-41,26,36,34,58,69,-34,-59,47,2,-44,-23,-28,-25,32,-39,-24,39,10},{84,-3,-16,28,53,-10,21,-42,-16,19,-5,61,-90,-49,11,12,-24,-67,20,21,-122,-8,-21,17,29,37,27,-59,39,54,-115,-9,33,-53,-124,-89,-37,4,-72,13,-88,78,-26,23,48,26,-42,26,60,40,-91,-3,-36,33,-68,-102,33,-16,-43,-21,74,18,-40,63},{-66,-19,-80,-19,-68,-13,-24,59,-81,-36,-41,13,-35,43,-24,25,120,0,-24,-8,-43,-54,49,-30,9,-71,-6,75,41,67,-128,66,-42,-79,82,-93,-31,19,47,-7,-124,49,45,76,79,2,-24,-53,60,45,-122,-18,-36,-32,-128,-9,-3,-100,88,105,86,-54,-128,67},{-3,32,-41,-11,-54,8,-27,-49,68,-20,1,127,3,-18,43,18,-107,1,-2,-45,-33,47,-20,-14,-36,-26,-30,45,16,33,-1,65,60,23,63,36,-4,49,-32,54,-17,-29,4,-35,-23,-14,1,34,-50,102,-103,53,-35,-31,-116,17,67,33,112,68,80,-8,-60,-6},{1,-7,-16,-49,-35,-73,13,-50,-128,-79,-32,-20,-35,-28,-44,-44,56,-4,25,1,-44,-74,-11,32,70,-37,-1,-28,16,-30,-72,-18,-9,-50,-22,-15,40,41,-71,-25,88,-39,13,-70,72,-33,33,-37,24,-82,7,-108,-37,-9,-7,20,-24,57,87,25,-24,-8,4,-21},{-46,127,-92,17,-18,-14,23,-78,-76,-1,8,40,13,6,-3,-29,-66,-19,-23,73,-16,64,-53,81,42,-118,51,-43,46,-63,5,-32,19,57,-28,7,-14,26,-128,-68,-128,31,-63,60,-6,-40,-34,24,-29,90,-24,-49,4,-79,3,30,-2,86,-44,14,-46,33,33,45},{70,-59,-72,29,-33,-22,88,25,-7,124,68,102,-41,-70,75,16,-6,-51,-46,-15,49,68,-23,127,37,27,27,-29,46,54,-56,39,15,-61,12,0,15,74,77,61,23,52,-33,63,-17,-11,-17,-7,4,72,36,-14,57,-32,-46,-79,32,-21,52,53,38,-18,-10,74},{-19,-87,-8,-5,7,17,41,6,12,107,-19,49,-30,10,28,73,75,-9,-3,-33,10,-22,53,18,-89,-32,-42,-45,88,-2,84,6,0,32,-86,42,-55,-15,-29,-15,-96,6,49,10,25,14,43,22,18,-3,66,94,-19,4,48,-10,-42,8,106,118,-44,9,25,13},{42,18,-119,28,-11,-17,-15,-50,123,127,-12,52,24,-4,-21,19,74,31,23,63,-58,62,26,84,-81,-62,-4,47,-9,8,-88,30,-48,9,18,14,-3,-20,-31,-18,-37,35,-18,47,-94,-42,34,-38,-24,42,10,82,-45,-4,-57,80,-64,65,121,56,-54,18,17,-25},{73,-46,-13,9,9,-32,14,61,-25,72,-63,14,-53,41,61,20,-75,1,-113,-19,61,-12,64,-37,-104,-62,0,114,-20,27,-40,-2,-22,42,-67,27,-32,-90,33,34,88,-56,15,-48,-122,-5,3,9,-24,24,32,106,13,-10,-3,9,42,-52,91,34,-28,72,-71,-8},{62,-18,-16,-14,57,27,-94,38,50,-37,-20,56,8,-4,35,-29,-58,-3,19,-29,114,-25,28,40,-38,-8,8,127,14,37,-78,-49,4,-44,81,-103,11,80,99,-22,127,24,-72,43,-44,-46,-13,-1,28,72,-123,64,41,-22,-60,63,20,16,-49,-2,-5,-35,-43,-31},{10,-3,35,75,-128,7,-18,55,-33,-106,13,-50,-30,-73,48,31,45,-30,65,32,-21,-36,29,-100,-27,-4,-39,77,-30,31,9,15,4,106,39,89,-79,-77,23,2,-67,5,-1,78,16,-1,28,-29,-36,-25,-43,-31,77,5,-47,63,-18,28,42,6,-83,-70,-37,15},{-79,-36,-78,-49,-122,27,-26,77,15,20,-12,37,50,-21,-2,7,-32,-22,15,30,114,114,-20,28,48,22,-96,111,-44,7,-123,0,-63,42,-47,-53,-72,-71,44,-5,-17,86,26,115,-19,17,60,25,-100,-37,-6,13,-60,-128,36,1,-31,-26,-68,22,0,-83,-40,65},{43,50,-43,-76,33,-12,-81,-22,6,68,3,-17,-40,36,-111,-32,-7,31,46,-57,-25,24,11,32,-21,-55,90,-96,24,-23,-27,79,-33,21,-8,-4,47,-14,-23,25,127,3,-2,-85,-64,10,2,30,-86,52,-49,-128,-14,36,-42,22,13,39,60,79,53,-11,4,22},{-61,-91,-4,-4,-61,18,-43,-25,68,-30,42,11,-15,-39,-15,59,-49,-7,62,-42,60,-77,32,40,127,-32,0,73,-18,-19,66,57,-2,-70,-19,1,32,-7,77,-2,-128,-26,-50,-33,-13,4,37,-49,-7,69,29,4,-35,10,-51,1,-31,-11,32,78,27,-6,18,118}},{{60,40,-125,-21,-48,24,26,-91,18,-123,-114,18,1,38,9,-2,-2,-47,1,69,-87,3,54,-116,-24,24,-4,72,-10,-35,-32,50,-14,13,46,-106,1,-48,-104,-128,-33,-19,-48,42,-13,-25,71,37,-13,28,-19,-15,-10,5,70,70,-60,110,-80,36,-51,-39,0,47},{5,-20,-94,55,1,-17,1,37,-47,48,39,1,-3,59,-30,-8,14,-44,78,46,-128,86,-3,12,127,17,68,69,-12,21,67,40,-4,-18,-104,-34,11,-9,-2,127,-102,27,65,-30,-72,17,33,20,-82,-37,-24,-5,-26,-16,9,-26,42,28,-61,33,-79,18,-18,-40},{84,88,78,24,-31,-14,33,-46,86,112,-71,49,56,-25,31,-22,90,-2,-26,34,-57,-83,32,-56,-45,-126,34,42,-8,6,7,51,-5,-88,-20,-55,-17,32,-15,-19,-106,-24,-31,56,-11,-59,36,34,-85,31,-112,36,5,9,-54,-26,-20,43,34,34,-37,15,22,-52},{-3,23,-19,2,7,-44,4,-104,-128,-11,60,-3,-73,-35,38,-6,14,-103,1,13,117,45,16,33,68,25,35,-12,125,-2,-128,-26,-59,-19,57,-28,117,-9,-109,48,25,-1,-1,-4,49,26,72,49,65,34,-89,-19,-58,34,-19,29,0,50,-128,21,-81,-57,8,-32},{35,-12,-16,-37,-28,-105,-68,-41,-104,9,-26,7,-79,-115,-27,-10,89,62,-12,-28,127,-2,-20,10,38,-111,-58,119,12,53,58,22,2,18,-33,15,28,40,-23,-128,-128,-1,36,-91,40,47,50,45,26,93,-9,-97,0,6,-69,127,-59,51,127,38,-14,68,-71,-19},{25,105,-69,21,59,-72,-28,16,-85,89,17,98,-31,-57,-36,-68,-2,11,107,47,-128,-30,-13,-13,26,8,-17,125,76,-3,-30,24,53,-128,-49,10,26,75,-73,127,-60,-51,-30,28,-54,7,11,20,-22,94,7,-28,-83,-1,-31,-109,-30,-59,-128,1,-15,70,35,-25},{71,-101,-128,-44,12,-9,13,53,-128,59,17,-9,-56,-48,-88,-52,-73,-1,67,40,-114,16,-13,55,-43,114,-42,-29,71,-29,-33,-34,27,87,-125,-21,49,80,0,127,-128,69,33,7,13,31,5,-33,7,58,-29,-73,-70,-16,-19,41,-24,-82,-128,61,-20,-27,-74,-63},{-50,28,20,13,26,-15,-128,-20,-51,80,-23,71,-24,-90,-50,17,-128,-27,93,33,-128,-28,42,0,112,98,67,123,14,-21,-44,113,62,35,84,98,81,-15,85,125,-107,-48,25,-69,59,-44,76,-22,-8,64,12,65,-76,90,-12,-128,6,-31,59,35,38,21,-19,30},{-27,-46,41,-52,18,70,8,-86,-51,-128,-60,-28,-8,-28,44,45,-12,17,-7,-6,127,52,51,-20,106,59,23,-128,-14,66,-128,6,31,-83,115,-48,-19,32,-39,-82,2,34,27,33,-4,-15,-11,71,-22,-45,-13,-128,44,-36,13,-5,-43,-5,127,50,13,-63,63,46},{-105,8,78,-94,-1,77,12,-16,-62,73,-29,8,14,-42,92,-5,-41,67,-41,65,127,27,-13,12,-86,-64,-27,-38,119,-16,-128,46,-64,27,127,-18,-17,-33,-65,-128,-128,-37,-42,2,-59,30,-72,55,35,-11,-24,-126,3,-12,-29,7,-13,83,127,-23,61,-10,11,4},{60,29,77,-55,105,17,25,-43,-92,-31,-7,-20,-49,72,-26,19,21,-37,-90,-104,117,-25,-16,3,2,28,49,34,-65,58,-31,-25,-76,15,-62,27,-11,-38,-64,34,104,-49,10,-83,-50,20,-7,12,-17,40,84,86,-57,61,24,-55,-34,-6,45,-54,23,76,38,-18},{82,-115,63,2,-49,-58,-111,-71,-45,38,-12,-93,-24,-77,105,-9,26,17,-54,-46,-107,-128,90,-3,-43,-14,-120,60,-47,95,63,-33,32,-100,127,-21,-29,-35,-19,-45,-69,61,54,69,-76,9,-26,67,-5,-32,2,-25,117,-13,24,-40,-13,25,-49,-17,111,-4,73,69},{10,86,-22,-6,-55,-62,26,-19,-112,-72,6,-49,-37,10,-31,38,72,26,-11,37,-42,22,65,-66,119,-37,54,-70,91,-13,-22,4,15,2,-8,-91,45,-2,-45,-18,-95,20,-92,77,-37,24,20,5,-34,47,-38,-5,32,30,12,-14,-29,-1,-128,27,-48,-45,-30,55},{38,41,-22,-9,5,-13,9,71,82,-27,78,21,28,95,-30,19,-37,-61,21,-85,69,127,-50,54,127,-66,4,41,-81,-14,-32,-3,2,78,-93,-27,-1,-14,61,3,37,5,45,-42,-62,7,21,-32,18,26,20,-3,-112,2,19,48,-12,-63,-21,-25,-18,81,7,-59},{86,-128,-60,-6,-6,-18,-40,-32,23,-35,70,43,81,44,22,2,123,-55,50,-38,113,6,58,17,-128,28,56,-51,-21,-4,-28,86,17,-119,47,-55,-29,-15,71,48,3,50,-44,-60,29,-41,-8,35,81,-23,-44,-12,16,-21,-22,122,-86,49,8,-14,-28,-27,13,-20},{-28,23,26,18,-4,-23,68,74,61,-44,-69,5,19,2,-20,13,-128,30,31,80,119,94,55,54,-113,4,-35,127,-4,59,-119,-13,-19,58,-73,10,33,36,-97,25,-128,-87,33,28,-16,19,16,-120,7,3,-128,-30,-7,-81,-128,97,41,-86,127,45,-128,-64,-128,-37},{93,-19,29,-20,-26,-61,-48,-48,18,25,-10,93,-36,-61,1,11,3,0,-18,-52,127,-67,-25,62,46,-93,7,-33,-20,10,1,-1,20,-8,-13,15,-59,48,-35,-68,-71,67,76,53,42,2,41,-7,44,48,-62,85,-12,50,-128,127,44,-78,49,34,-5,28,-119,9},{-10,127,-64,-47,-23,-49,-10,52,94,10,-44,97,27,-84,45,0,-5,-30,20,-58,106,34,7,9,74,-121,-6,-17,-94,19,-92,-19,2,-108,18,-1,-2,-18,21,10,-128,-2,32,72,35,-62,57,-4,-3,51,24,-28,-53,33,-76,55,-13,29,127,68,44,-79,-25,20},{39,32,91,3,-36,15,-44,-78,87,-45,32,-38,-77,11,-59,5,62,-33,-37,-1,113,18,50,6,12,11,-68,16,115,-10,-115,-27,61,-40,11,-82,47,51,-13,-31,-66,70,-3,44,-71,38,4,67,39,27,-78,1,-84,-39,-116,-72,15,19,127,-25,-29,-29,-75,72},{-44,75,-72,18,-31,-20,-24,11,-40,-2,4,82,-93,56,56,-22,103,-27,-7,-9,16,-18,55,20,29,-88,-50,67,27,77,-128,2,24,41,37,-77,-42,59,-25,-31,-128,62,76,43,-35,-21,-22,-26,-28,47,-101,6,-73,-63,-128,87,12,-82,-70,32,36,-41,-128,51},{-12,-41,61,0,14,-36,-42,18,65,19,-11,48,41,-15,-18,6,-90,49,17,-38,52,-56,37,65,-128,-84,32,94,-3,14,-81,20,-46,18,18,10,3,19,6,100,14,21,18,41,-53,-36,24,-19,-45,64,-102,34,-72,-58,-128,53,23,-48,9,47,90,61,-63,-8},{-67,37,-56,20,0,-86,-128,-36,-128,-20,-95,15,3,-52,-32,-27,127,7,-15,-23,-128,-128,127,17,127,-98,40,84,127,8,-124,37,86,-128,11,-128,118,-25,10,-2,-64,13,-17,-45,-7,13,127,-20,-14,-66,-10,-94,-128,-11,-52,127,4,25,-128,-52,26,47,9,37},{18,47,-95,-12,-36,-13,-24,-16,-64,-13,-22,90,66,88,-20,-53,12,-45,20,44,70,33,-37,50,36,25,53,-56,-17,8,43,16,-37,32,-111,-58,-41,45,-114,-84,-42,-33,-19,4,-38,-59,24,60,17,3,-53,7,-5,-35,-4,48,-14,61,10,-22,-47,-36,14,10},{-52,58,-51,-63,-45,-13,1,20,-128,127,58,46,5,-55,94,2,0,-87,52,-1,-38,-67,-36,47,24,33,43,27,6,17,-113,-28,-67,-128,-6,24,37,88,46,85,-128,66,-50,19,-69,-14,-46,-82,29,53,-2,-33,48,-26,-37,-90,7,-55,-48,54,-64,-31,-25,81},{-40,-108,43,7,-25,-49,83,-58,-47,123,-42,86,30,14,-63,70,14,23,67,-64,-49,-27,113,-5,66,-26,33,-116,24,3,3,35,92,2,-21,-2,15,16,-54,2,40,8,-35,-76,20,26,80,22,23,8,-25,54,-44,52,39,36,-30,-23,-128,43,-54,53,-4,-7},{98,59,-52,4,54,-6,-1,-1,34,49,18,6,19,5,-18,-12,-21,-39,10,-12,83,-61,43,40,-65,-46,82,-4,35,-6,-58,56,-45,7,-4,37,-62,-29,-9,-10,-102,-8,-74,-38,-28,-2,-11,21,29,15,-15,26,16,-11,-47,101,-62,20,-128,18,-69,-43,11,-43},{64,-84,-43,62,44,-6,37,-20,-72,26,-9,-81,-39,-39,10,16,-79,-27,-115,-52,111,-73,64,-99,-119,18,-14,127,-39,27,-91,-37,77,37,15,12,10,-38,-27,-15,-124,-53,-7,-46,-128,13,-14,90,-42,-13,42,55,-42,2,60,0,44,-2,-68,-6,-7,29,-46,5},{15,5,-95,8,82,34,-73,-6,-38,4,46,-8,-13,-103,-19,4,-89,-6,-49,18,-86,-30,-47,-9,44,-16,-56,127,22,17,26,-105,9,-128,5,-108,94,92,39,-22,-56,-21,-119,6,6,-78,-19,-15,-28,76,-97,58,-23,43,-86,21,-14,76,-86,15,-26,-41,7,26},{85,-18,38,46,-93,-11,-75,-21,-90,-54,-42,4,0,-22,-38,14,69,-12,59,-71,-71,-5,88,-76,44,-26,25,-43,53,-11,-1,-12,-14,53,-85,-18,30,-77,-18,-1,31,-66,-54,36,12,6,31,-45,-36,66,25,-31,-4,-43,30,19,-43,21,-128,43,-42,-85,-21,11},{-46,46,-64,-40,-128,-30,-18,65,-128,33,-63,-83,51,17,-65,-36,-24,-45,-27,25,-40,49,-58,-9,-49,-16,-128,127,-82,45,-103,-32,-30,14,33,-116,-10,-55,-12,5,-77,51,58,90,-54,6,48,-10,-29,-44,-41,-78,-47,-128,-5,-16,-1,23,127,50,-22,-21,-13,24},{-95,-7,-68,-77,-56,10,48,46,66,23,14,51,35,19,-114,-36,-36,42,105,-14,-128,-34,30,-35,-34,101,102,42,-92,-23,10,-21,20,95,-42,43,-10,32,-25,127,-127,-59,60,-15,-30,-15,-15,10,-20,0,-74,-116,-70,7,43,0,41,0,-128,44,-3,34,-36,-42},{-103,-65,-53,7,-87,-36,-116,16,55,-44,-13,66,27,-15,33,-9,17,-58,9,-29,-93,-78,109,-8,119,38,-1,16,76,-2,-21,45,-11,42,-14,-18,67,2,58,94,-85,38,18,-65,74,-17,2,-82,-44,94,-22,-28,-25,35,-18,81,-1,-6,-128,31,70,24,-57,88}}};
static const elem_t QConv_BN_flatten_3[96][64]=
{{12,41,-115,20,11,-69,-18,-60,59,-128,-89,-8,49,70,-23,8,-35,-69,34,56,127,39,37,-104,29,41,-72,48,-82,-1,8,-2,14,40,14,-44,-63,-26,-115,-59,-68,-79,-31,48,-71,-69,-16,68,16,26,30,-105,94,-20,-1,98,-7,96,127,-7,-24,7,-35,36},{-61,-40,-17,77,-55,75,5,35,39,-128,14,37,18,35,-62,8,111,42,-44,-115,0,50,-35,-45,73,-71,8,-57,19,-33,0,59,-22,27,127,-107,31,17,108,-12,127,-65,-74,0,60,-3,32,-41,-92,-51,-37,1,-40,5,-8,52,26,55,-99,10,0,-44,14,-33},{127,75,-64,18,-4,-23,-12,33,88,7,-46,28,59,-15,43,19,22,27,8,-45,-23,17,-50,-79,39,27,-2,64,-7,-15,-73,-15,-5,54,33,-32,-58,-4,22,-67,23,-87,-97,68,-55,-66,8,8,-9,55,-84,-16,-4,-40,-64,-56,-13,-4,106,26,-28,-57,27,25},{-48,20,-43,50,-62,3,-24,-8,127,50,75,-52,-127,-27,74,8,-64,16,17,25,-11,59,-46,-19,-26,-4,21,-128,-100,12,-71,58,-8,119,-55,35,107,-12,10,31,7,-46,71,65,13,-28,32,31,16,41,21,85,69,10,66,48,-37,45,127,16,-45,31,50,8},{64,37,18,72,34,-40,-46,-32,-48,-128,44,70,-69,-37,-69,-69,73,-12,44,-15,-36,87,-38,5,62,-128,7,-41,-34,19,127,-24,-93,-128,-59,36,-14,-12,46,74,-35,8,-9,-62,48,18,-27,-64,18,77,20,120,-120,22,41,127,65,27,-128,-28,-85,-29,-59,-15},{16,52,-5,-55,21,-4,-26,-28,-41,34,46,30,29,-112,-49,-41,-3,35,-18,-67,127,-50,-28,-15,49,-8,-4,94,-18,38,44,7,-36,-128,24,-1,41,97,-52,-32,53,-33,6,-68,-77,5,-23,-52,29,29,-39,-53,-50,40,-6,55,-18,-93,25,65,78,6,-24,-43},{65,-50,-28,-53,70,-8,-92,44,62,-30,80,67,3,-109,41,-39,118,-28,-44,28,-15,41,-29,38,127,127,26,-10,-9,-6,-58,-5,-1,-45,84,-41,47,66,77,10,-120,2,-51,-1,-8,-21,23,-16,32,74,-39,-101,11,24,-41,16,-21,52,116,11,92,49,-37,10},{3,45,63,-41,45,-70,-110,-16,127,-127,96,68,32,-23,0,-2,40,1,-74,16,127,61,46,80,-81,15,-64,-32,-112,-27,68,84,27,-44,57,85,50,81,25,-2,114,-4,-4,-10,87,-9,-26,-105,3,-13,56,10,99,33,-87,-32,46,-30,127,16,22,-42,14,36},{43,-60,7,33,57,11,19,59,53,-11,35,17,-1,-51,19,53,48,-91,87,-2,-94,-23,26,-54,-128,14,-32,-128,-64,70,127,44,24,90,111,59,-77,-20,11,-14,127,8,9,127,-128,20,63,30,11,23,-28,67,49,-70,15,40,-65,21,37,95,62,-42,10,26},{-113,26,75,-42,-73,6,-10,-6,54,-128,121,-20,74,23,6,-16,127,-61,-119,-128,66,-16,30,-15,-128,-128,-12,-128,127,6,88,14,-128,-54,79,69,-99,-17,116,-24,57,-66,25,-19,113,17,16,-83,20,22,-60,1,-20,61,-100,10,12,-9,69,-2,-128,-101,35,-21},{35,93,66,-12,12,55,13,-1,45,67,14,-22,-20,31,50,7,-11,-24,-51,-128,-12,-29,14,-42,-36,-15,-30,11,20,23,-58,-46,-97,15,-41,4,13,-81,17,-48,-30,1,54,-18,-113,-2,-3,-53,-46,-31,13,18,-5,36,36,-12,35,-51,-5,-66,-61,-59,0,-1},{-46,-59,7,-7,1,-56,6,49,12,-30,-66,-74,-63,-7,36,7,-58,32,-55,1,-73,-47,42,-81,57,-102,-123,114,2,72,53,-29,-54,-66,33,20,-15,55,-8,-46,2,1,-7,12,-26,-27,8,11,-19,-46,-19,124,117,-14,-72,-25,25,-73,127,29,21,66,-13,46},{79,-21,-61,-1,-22,-53,100,44,127,-117,-3,67,-50,29,-54,25,4,-22,-9,-70,74,108,55,-78,-128,85,1,-1,-24,24,127,-9,6,1,43,-8,-41,50,52,51,127,-43,-27,3,-34,29,-37,-48,16,39,8,-34,1,-14,27,-31,-77,-63,21,21,3,-9,-67,16},{127,11,2,-39,44,24,53,-2,11,22,-2,24,12,61,22,11,-43,-37,-61,-79,57,72,-37,-83,-27,7,42,53,-8,-15,-56,23,5,-57,97,-61,83,8,-25,52,127,-6,-42,-56,17,12,1,28,25,37,-27,53,-103,54,33,-14,17,-27,25,57,-81,19,34,-57},{-1,-128,-88,29,-38,-61,-6,-17,43,55,10,-24,68,-50,-23,20,51,-22,-41,-12,88,-25,-13,124,81,41,18,-14,-17,21,8,30,-8,-105,42,-9,-6,30,60,8,-50,-9,-33,-40,-43,-16,49,65,11,79,-28,-108,-51,33,38,92,-89,101,127,-39,-28,-69,-7,-40},{-83,20,-25,35,-69,-16,-23,-15,-114,127,-99,25,68,-22,29,4,-72,-52,65,31,0,-105,31,23,-54,56,1,-128,-49,-22,45,-39,8,75,27,2,-31,2,-122,-70,98,18,62,-10,9,13,17,8,-52,14,10,64,-14,-73,-51,56,-11,-40,-118,-27,120,29,-5,-9},{122,21,-58,76,61,-4,-16,-92,127,-128,28,36,-82,-35,-15,-8,43,112,-31,-87,-128,65,58,9,87,37,36,39,-3,-25,91,18,-13,-128,60,90,-16,18,40,-53,55,-30,-57,57,7,-23,10,25,38,109,-114,127,-89,9,-64,20,5,-5,-128,-45,-14,65,-1,-12},{3,104,-12,-36,95,-28,-18,16,-1,-98,24,52,-25,-8,61,19,55,-8,14,-70,30,0,36,0,-110,-41,-9,-59,27,-53,39,34,-74,-26,-28,-41,54,-2,30,-55,15,-14,-21,-6,3,-14,36,101,33,37,56,33,5,1,-8,6,37,-21,-89,69,28,47,45,-18},{127,-65,-2,59,3,5,55,-31,127,86,-35,32,-94,21,-30,85,-128,-78,86,-12,-110,40,39,52,22,127,-34,21,-33,15,-85,-4,68,127,-89,-74,-81,69,-128,17,127,106,16,10,-86,19,-55,61,47,-27,-50,39,70,-20,-10,26,-27,-55,-81,-2,99,69,-62,52},{-41,22,-55,24,-23,29,-41,-21,61,12,-45,68,-72,34,-3,-12,65,26,-14,-40,-87,-48,71,-25,-24,-82,29,88,15,44,-128,58,-1,-85,88,-128,17,64,73,84,-97,124,-20,11,71,-9,-10,-43,-15,68,-45,-44,18,19,-128,8,-32,-122,127,117,-7,42,-114,27},{-93,34,43,-47,-56,-6,-11,1,57,84,94,106,17,-50,27,-20,62,15,-29,-23,-19,60,40,38,-47,-43,11,-76,-46,49,-62,-7,81,-94,106,36,-12,57,62,62,9,-11,27,99,-25,-64,-59,0,6,65,-128,-2,-4,-50,-128,75,9,-75,47,43,127,91,-46,27},{50,-17,-27,-96,16,-117,4,-128,9,-79,-3,24,-112,22,109,4,-87,-23,29,77,58,18,5,-25,127,-38,3,24,16,-75,-125,-30,-8,-124,-45,-6,48,-50,39,-40,-128,-22,-10,37,85,-53,-16,-56,35,33,-8,-16,-4,-41,-12,37,34,-52,49,-5,-112,8,11,3},{17,33,-90,-37,-15,-38,19,-117,-3,-81,-13,-32,53,49,-22,-33,5,-2,57,24,-128,127,-34,-18,0,-85,-12,-21,-15,-56,34,-47,49,104,-113,-36,-32,27,-121,-38,-128,-19,-40,68,-60,0,8,4,18,24,-36,-10,-38,-24,20,8,31,75,127,-35,-102,3,-24,2},{113,-23,1,1,-48,16,55,19,61,83,127,59,-13,-44,78,62,35,-35,-22,-128,-64,34,-28,127,-122,-85,-15,-128,-35,33,22,68,-13,-24,67,0,10,12,64,-46,127,13,19,76,23,1,39,-77,32,53,-62,49,11,-1,6,-61,54,-9,-4,16,75,-38,15,41},{-64,-77,26,16,-19,-19,29,42,-77,81,-53,55,18,34,-53,76,60,-92,28,-3,54,-13,16,51,-67,85,-21,-81,56,16,-1,18,38,20,37,92,-7,19,1,-22,51,-18,69,-63,-31,-7,-10,46,32,80,73,50,75,46,38,75,-44,40,127,89,77,-55,41,28},{84,-9,-118,41,55,-62,-22,15,-17,0,-26,-29,38,23,26,30,53,-18,-77,0,112,116,9,91,23,-71,55,-16,-12,16,-51,-6,-27,15,-17,-26,-92,-11,13,-10,77,-46,-30,-32,-20,-28,39,19,-12,-25,-13,-41,-8,-30,44,-18,-41,43,127,33,-128,-3,-8,9},{34,64,40,-59,41,-19,10,0,-8,63,18,-100,-13,27,5,-8,-15,21,-3,8,-1,-26,54,-6,70,-54,-1,70,38,11,84,-34,-100,-39,-113,24,-61,-84,-12,-43,-128,-56,-24,-53,-72,-28,-18,28,-58,-7,26,50,34,-32,31,-45,-7,-119,68,-16,-83,2,-30,34},{63,53,-87,18,-9,14,-18,44,31,28,0,49,43,-12,97,-10,-83,-32,-32,47,16,7,3,-25,4,107,19,1,18,-6,-33,-74,-57,-121,22,-128,-41,53,103,59,-40,20,-80,39,-31,-88,-4,-10,27,11,-33,52,-4,-45,-22,115,-26,31,-14,-22,47,17,-6,3},{-31,21,-11,40,-128,-9,-1,49,127,5,-16,38,53,0,-24,79,50,30,-7,-82,127,-34,14,-81,-128,-76,0,-63,1,-5,127,53,9,120,-16,63,-27,18,-9,13,127,-72,53,65,-72,22,-5,-44,-15,49,47,-9,108,-41,-37,22,-55,4,126,93,19,-83,35,-32},{-94,53,3,18,-68,9,-73,78,89,-40,-7,-41,65,-49,-3,8,61,-79,-84,22,-64,96,-26,6,21,-54,-68,8,42,52,30,-41,16,-45,41,-128,42,20,33,-21,-7,50,-85,122,102,-11,62,26,-86,-59,31,94,56,-128,60,51,1,8,-128,-68,65,-37,9,38},{-21,-23,-68,-71,-41,33,-41,4,65,-65,78,15,50,15,-42,13,-12,67,74,-84,127,45,23,-37,32,66,57,-16,97,52,-50,18,-21,18,76,40,46,67,74,-44,73,-49,-65,37,-33,-14,31,-16,-95,50,-26,-21,-5,32,-60,56,-17,25,62,12,-29,-105,20,15},{-59,-38,49,33,-43,-14,-63,-11,127,-78,73,80,-21,-96,-31,90,-68,-51,22,-109,-5,-76,26,65,-88,-98,-74,34,11,-8,53,52,-16,63,95,-6,-11,45,24,-34,86,26,18,3,33,-8,25,-50,30,25,-12,-67,64,45,-16,20,-7,-5,-23,107,118,-95,-42,47},{50,-15,-128,32,-90,-63,46,-115,8,-116,-42,-18,59,-35,62,16,-72,-24,-44,-10,-30,111,-26,-123,73,-70,37,57,-42,-65,60,2,34,90,18,-36,-7,26,-122,-66,-67,-72,-36,45,33,-71,51,31,40,38,-16,42,80,-15,45,1,-24,66,108,-36,-128,-73,-53,33},{-104,-18,-73,11,-25,-6,-22,30,86,63,-8,-16,-27,44,-62,-4,-1,-6,-45,22,127,9,-31,7,2,-39,45,22,-6,-11,15,31,-32,-34,59,-49,78,-1,53,41,-13,-63,5,-80,-49,22,5,-46,-85,42,7,57,-91,-15,1,49,9,83,17,0,30,-39,6,-23},{127,70,48,46,4,-42,55,54,87,17,10,38,41,27,16,7,-51,14,-70,22,127,-66,-21,-23,-7,-46,-8,-35,39,-9,-56,43,-47,-46,-8,7,-63,-29,-35,-87,-56,-78,-68,102,-20,-47,47,-47,6,26,-53,45,-27,-67,-16,12,-44,6,127,26,-124,-44,-22,-3},{-12,51,29,5,28,-38,51,-31,5,-105,51,-63,-100,-69,24,-6,38,20,74,-62,-126,-10,11,53,18,-26,11,-109,-63,-52,-32,31,-32,71,-33,31,15,-26,20,67,-7,-60,40,-11,-59,18,50,53,4,19,5,-50,-9,-73,-18,-1,10,-3,18,3,23,6,49,1},{8,1,72,-26,-3,-45,-37,8,-23,59,-45,26,-24,-71,-62,-36,28,56,-17,30,-66,-45,27,-7,127,-103,11,77,11,5,120,-3,-27,-125,-18,-12,58,10,58,-42,47,55,31,-92,-95,21,21,-7,-19,48,9,48,10,5,19,42,8,-36,-28,26,13,-18,-41,-24},{69,-3,-20,34,-16,-9,37,17,-25,27,68,7,-24,-79,36,-17,-45,43,56,-45,83,-27,13,68,-43,92,4,98,42,46,35,49,5,-128,-102,-30,0,66,-9,6,69,-8,-12,-65,17,8,-15,12,28,49,-8,-10,1,42,2,-49,19,-57,118,24,39,70,-4,-70},{68,-75,-13,12,-21,5,-52,57,-28,-56,90,15,11,-69,-23,-14,60,-40,65,69,-25,17,8,-23,33,107,21,-80,61,13,-3,8,-36,-70,-11,-86,-17,116,-11,41,-128,52,-40,-18,-7,9,-18,-35,0,-4,-11,44,58,-15,-16,66,-27,-3,-14,14,79,-5,-35,-37},{-78,35,19,1,-7,-77,-128,-37,-15,81,8,36,43,-87,32,26,-55,41,40,72,127,11,53,26,-48,-73,-5,16,-28,0,-38,99,88,28,8,101,14,59,60,44,26,-45,-28,4,-15,-12,53,-38,59,-5,-31,12,-6,114,-59,-105,2,-23,-11,50,-14,-14,11,97},{-33,-64,-14,50,-13,63,-56,-27,60,-118,-53,-8,75,48,17,19,49,-17,-17,-10,81,94,62,-36,-88,-40,-48,-128,23,54,38,36,-55,59,34,3,12,-36,-13,-9,51,46,26,58,-35,-15,9,55,25,-11,-25,-96,-19,-56,-17,32,20,26,-105,48,-40,-105,28,45},{29,28,6,-50,13,57,67,-25,57,-53,18,-69,53,54,102,19,127,37,-91,45,-69,-42,4,-68,-45,-61,-57,24,105,-5,-91,55,-23,-103,51,4,-20,-50,15,-13,4,-18,-28,-38,30,-25,-20,-72,-18,-65,54,22,30,6,32,63,41,29,-50,15,-25,-117,14,-15},{-9,-11,75,-32,55,-1,69,-6,61,-5,-41,-94,-53,-8,5,-17,-38,2,-7,5,23,-31,6,7,-74,-49,-9,-50,-19,63,-73,-3,-62,-96,-59,-6,-45,-44,-74,14,16,-5,-31,-37,-62,8,-71,-60,-33,2,87,-36,-56,-12,38,-38,20,-50,127,-55,-63,61,52,-30},{-15,-75,51,-8,-22,1,22,10,-77,43,-47,5,-19,34,85,21,53,17,-52,37,-3,-78,32,-18,62,-43,-128,96,-12,98,-55,16,-66,35,50,31,9,31,-91,-24,-122,66,47,-13,-35,-17,-33,55,26,59,46,5,80,-85,41,-17,-4,-13,-24,-27,77,45,20,46},{-30,58,-82,-27,-36,-10,19,9,-36,-128,-64,-23,-16,-23,-59,52,-48,27,23,3,38,64,18,-32,-128,-19,-27,26,38,2,-37,-8,-21,-41,-51,46,-74,-55,-45,19,63,-26,-76,83,9,37,-21,-2,-1,-16,-74,59,60,5,9,9,-28,-14,-6,13,-103,-69,-44,45},{89,50,-12,-24,39,52,2,-25,-68,83,1,20,40,42,-31,-2,-73,-63,-35,-18,123,33,-38,-61,33,45,-1,-11,-18,-5,2,9,21,97,-35,58,78,-73,8,70,20,-57,54,-72,-7,-10,-55,-6,22,41,-54,70,-34,-40,73,-11,-16,19,19,11,-61,5,-15,-45},{69,-128,-21,-27,32,-1,-65,-4,-60,-30,43,86,36,-21,20,-4,-34,-50,32,-4,-65,86,-35,26,-56,43,25,-46,82,0,-74,7,-34,-100,59,-10,20,-86,20,117,120,-33,-45,-62,19,12,36,75,62,82,-44,-110,-38,22,-28,110,-103,30,95,-11,37,11,54,-14},{-35,19,46,39,-18,11,-61,-25,-71,11,8,107,-24,-20,-9,-11,-4,23,-40,14,31,-36,21,59,-68,-92,-60,-87,47,-13,-25,-34,-18,-54,-67,38,-17,-45,-128,-3,-34,-65,64,3,-40,-4,32,-59,-39,36,-59,-33,-23,14,-88,-34,46,-8,-88,-24,-62,-73,-27,13},{109,83,38,6,34,-46,36,-43,118,-80,20,113,7,-49,8,-35,-33,61,57,-29,1,-57,30,98,52,-36,37,-84,61,-15,-14,33,4,-123,40,107,9,101,-29,-56,88,46,-17,52,70,36,7,0,44,70,-40,20,-34,47,-38,89,26,-74,-49,-1,-8,36,-67,1},{73,26,-85,-50,54,-8,-29,49,116,40,-72,8,43,-1,34,-17,39,-24,41,-77,40,71,19,45,12,-40,37,-23,-45,15,-9,41,-85,-61,5,-22,74,22,62,69,49,66,23,64,55,-41,26,36,34,58,69,-34,-59,47,2,-44,-23,-28,-25,32,-39,-24,39,10},{84,-3,-16,28,53,-10,21,-42,-16,19,-5,61,-90,-49,11,12,-24,-67,20,21,-122,-8,-21,17,29,37,27,-59,39,54,-115,-9,33,-53,-124,-89,-37,4,-72,13,-88,78,-26,23,48,26,-42,26,60,40,-91,-3,-36,33,-68,-102,33,-16,-43,-21,74,18,-40,63},{-66,-19,-80,-19,-68,-13,-24,59,-81,-36,-41,13,-35,43,-24,25,120,0,-24,-8,-43,-54,49,-30,9,-71,-6,75,41,67,-128,66,-42,-79,82,-93,-31,19,47,-7,-124,49,45,76,79,2,-24,-53,60,45,-122,-18,-36,-32,-128,-9,-3,-100,88,105,86,-54,-128,67},{-3,32,-41,-11,-54,8,-27,-49,68,-20,1,127,3,-18,43,18,-107,1,-2,-45,-33,47,-20,-14,-36,-26,-30,45,16,33,-1,65,60,23,63,36,-4,49,-32,54,-17,-29,4,-35,-23,-14,1,34,-50,102,-103,53,-35,-31,-116,17,67,33,112,68,80,-8,-60,-6},{1,-7,-16,-49,-35,-73,13,-50,-128,-79,-32,-20,-35,-28,-44,-44,56,-4,25,1,-44,-74,-11,32,70,-37,-1,-28,16,-30,-72,-18,-9,-50,-22,-15,40,41,-71,-25,88,-39,13,-70,72,-33,33,-37,24,-82,7,-108,-37,-9,-7,20,-24,57,87,25,-24,-8,4,-21},{-46,127,-92,17,-18,-14,23,-78,-76,-1,8,40,13,6,-3,-29,-66,-19,-23,73,-16,64,-53,81,42,-118,51,-43,46,-63,5,-32,19,57,-28,7,-14,26,-128,-68,-128,31,-63,60,-6,-40,-34,24,-29,90,-24,-49,4,-79,3,30,-2,86,-44,14,-46,33,33,45},{70,-59,-72,29,-33,-22,88,25,-7,124,68,102,-41,-70,75,16,-6,-51,-46,-15,49,68,-23,127,37,27,27,-29,46,54,-56,39,15,-61,12,0,15,74,77,61,23,52,-33,63,-17,-11,-17,-7,4,72,36,-14,57,-32,-46,-79,32,-21,52,53,38,-18,-10,74},{-19,-87,-8,-5,7,17,41,6,12,107,-19,49,-30,10,28,73,75,-9,-3,-33,10,-22,53,18,-89,-32,-42,-45,88,-2,84,6,0,32,-86,42,-55,-15,-29,-15,-96,6,49,10,25,14,43,22,18,-3,66,94,-19,4,48,-10,-42,8,106,118,-44,9,25,13},{42,18,-119,28,-11,-17,-15,-50,123,127,-12,52,24,-4,-21,19,74,31,23,63,-58,62,26,84,-81,-62,-4,47,-9,8,-88,30,-48,9,18,14,-3,-20,-31,-18,-37,35,-18,47,-94,-42,34,-38,-24,42,10,82,-45,-4,-57,80,-64,65,121,56,-54,18,17,-25},{73,-46,-13,9,9,-32,14,61,-25,72,-63,14,-53,41,61,20,-75,1,-113,-19,61,-12,64,-37,-104,-62,0,114,-20,27,-40,-2,-22,42,-67,27,-32,-90,33,34,88,-56,15,-48,-122,-5,3,9,-24,24,32,106,13,-10,-3,9,42,-52,91,34,-28,72,-71,-8},{62,-18,-16,-14,57,27,-94,38,50,-37,-20,56,8,-4,35,-29,-58,-3,19,-29,114,-25,28,40,-38,-8,8,127,14,37,-78,-49,4,-44,81,-103,11,80,99,-22,127,24,-72,43,-44,-46,-13,-1,28,72,-123,64,41,-22,-60,63,20,16,-49,-2,-5,-35,-43,-31},{10,-3,35,75,-128,7,-18,55,-33,-106,13,-50,-30,-73,48,31,45,-30,65,32,-21,-36,29,-100,-27,-4,-39,77,-30,31,9,15,4,106,39,89,-79,-77,23,2,-67,5,-1,78,16,-1,28,-29,-36,-25,-43,-31,77,5,-47,63,-18,28,42,6,-83,-70,-37,15},{-79,-36,-78,-49,-122,27,-26,77,15,20,-12,37,50,-21,-2,7,-32,-22,15,30,114,114,-20,28,48,22,-96,111,-44,7,-123,0,-63,42,-47,-53,-72,-71,44,-5,-17,86,26,115,-19,17,60,25,-100,-37,-6,13,-60,-128,36,1,-31,-26,-68,22,0,-83,-40,65},{43,50,-43,-76,33,-12,-81,-22,6,68,3,-17,-40,36,-111,-32,-7,31,46,-57,-25,24,11,32,-21,-55,90,-96,24,-23,-27,79,-33,21,-8,-4,47,-14,-23,25,127,3,-2,-85,-64,10,2,30,-86,52,-49,-128,-14,36,-42,22,13,39,60,79,53,-11,4,22},{-61,-91,-4,-4,-61,18,-43,-25,68,-30,42,11,-15,-39,-15,59,-49,-7,62,-42,60,-77,32,40,127,-32,0,73,-18,-19,66,57,-2,-70,-19,1,32,-7,77,-2,-128,-26,-50,-33,-13,4,37,-49,-7,69,29,4,-35,10,-51,1,-31,-11,32,78,27,-6,18,118},{60,40,-125,-21,-48,24,26,-91,18,-123,-114,18,1,38,9,-2,-2,-47,1,69,-87,3,54,-116,-24,24,-4,72,-10,-35,-32,50,-14,13,46,-106,1,-48,-104,-128,-33,-19,-48,42,-13,-25,71,37,-13,28,-19,-15,-10,5,70,70,-60,110,-80,36,-51,-39,0,47},{5,-20,-94,55,1,-17,1,37,-47,48,39,1,-3,59,-30,-8,14,-44,78,46,-128,86,-3,12,127,17,68,69,-12,21,67,40,-4,-18,-104,-34,11,-9,-2,127,-102,27,65,-30,-72,17,33,20,-82,-37,-24,-5,-26,-16,9,-26,42,28,-61,33,-79,18,-18,-40},{84,88,78,24,-31,-14,33,-46,86,112,-71,49,56,-25,31,-22,90,-2,-26,34,-57,-83,32,-56,-45,-126,34,42,-8,6,7,51,-5,-88,-20,-55,-17,32,-15,-19,-106,-24,-31,56,-11,-59,36,34,-85,31,-112,36,5,9,-54,-26,-20,43,34,34,-37,15,22,-52},{-3,23,-19,2,7,-44,4,-104,-128,-11,60,-3,-73,-35,38,-6,14,-103,1,13,117,45,16,33,68,25,35,-12,125,-2,-128,-26,-59,-19,57,-28,117,-9,-109,48,25,-1,-1,-4,49,26,72,49,65,34,-89,-19,-58,34,-19,29,0,50,-128,21,-81,-57,8,-32},{35,-12,-16,-37,-28,-105,-68,-41,-104,9,-26,7,-79,-115,-27,-10,89,62,-12,-28,127,-2,-20,10,38,-111,-58,119,12,53,58,22,2,18,-33,15,28,40,-23,-128,-128,-1,36,-91,40,47,50,45,26,93,-9,-97,0,6,-69,127,-59,51,127,38,-14,68,-71,-19},{25,105,-69,21,59,-72,-28,16,-85,89,17,98,-31,-57,-36,-68,-2,11,107,47,-128,-30,-13,-13,26,8,-17,125,76,-3,-30,24,53,-128,-49,10,26,75,-73,127,-60,-51,-30,28,-54,7,11,20,-22,94,7,-28,-83,-1,-31,-109,-30,-59,-128,1,-15,70,35,-25},{71,-101,-128,-44,12,-9,13,53,-128,59,17,-9,-56,-48,-88,-52,-73,-1,67,40,-114,16,-13,55,-43,114,-42,-29,71,-29,-33,-34,27,87,-125,-21,49,80,0,127,-128,69,33,7,13,31,5,-33,7,58,-29,-73,-70,-16,-19,41,-24,-82,-128,61,-20,-27,-74,-63},{-50,28,20,13,26,-15,-128,-20,-51,80,-23,71,-24,-90,-50,17,-128,-27,93,33,-128,-28,42,0,112,98,67,123,14,-21,-44,113,62,35,84,98,81,-15,85,125,-107,-48,25,-69,59,-44,76,-22,-8,64,12,65,-76,90,-12,-128,6,-31,59,35,38,21,-19,30},{-27,-46,41,-52,18,70,8,-86,-51,-128,-60,-28,-8,-28,44,45,-12,17,-7,-6,127,52,51,-20,106,59,23,-128,-14,66,-128,6,31,-83,115,-48,-19,32,-39,-82,2,34,27,33,-4,-15,-11,71,-22,-45,-13,-128,44,-36,13,-5,-43,-5,127,50,13,-63,63,46},{-105,8,78,-94,-1,77,12,-16,-62,73,-29,8,14,-42,92,-5,-41,67,-41,65,127,27,-13,12,-86,-64,-27,-38,119,-16,-128,46,-64,27,127,-18,-17,-33,-65,-128,-128,-37,-42,2,-59,30,-72,55,35,-11,-24,-126,3,-12,-29,7,-13,83,127,-23,61,-10,11,4},{60,29,77,-55,105,17,25,-43,-92,-31,-7,-20,-49,72,-26,19,21,-37,-90,-104,117,-25,-16,3,2,28,49,34,-65,58,-31,-25,-76,15,-62,27,-11,-38,-64,34,104,-49,10,-83,-50,20,-7,12,-17,40,84,86,-57,61,24,-55,-34,-6,45,-54,23,76,38,-18},{82,-115,63,2,-49,-58,-111,-71,-45,38,-12,-93,-24,-77,105,-9,26,17,-54,-46,-107,-128,90,-3,-43,-14,-120,60,-47,95,63,-33,32,-100,127,-21,-29,-35,-19,-45,-69,61,54,69,-76,9,-26,67,-5,-32,2,-25,117,-13,24,-40,-13,25,-49,-17,111,-4,73,69},{10,86,-22,-6,-55,-62,26,-19,-112,-72,6,-49,-37,10,-31,38,72,26,-11,37,-42,22,65,-66,119,-37,54,-70,91,-13,-22,4,15,2,-8,-91,45,-2,-45,-18,-95,20,-92,77,-37,24,20,5,-34,47,-38,-5,32,30,12,-14,-29,-1,-128,27,-48,-45,-30,55},{38,41,-22,-9,5,-13,9,71,82,-27,78,21,28,95,-30,19,-37,-61,21,-85,69,127,-50,54,127,-66,4,41,-81,-14,-32,-3,2,78,-93,-27,-1,-14,61,3,37,5,45,-42,-62,7,21,-32,18,26,20,-3,-112,2,19,48,-12,-63,-21,-25,-18,81,7,-59},{86,-128,-60,-6,-6,-18,-40,-32,23,-35,70,43,81,44,22,2,123,-55,50,-38,113,6,58,17,-128,28,56,-51,-21,-4,-28,86,17,-119,47,-55,-29,-15,71,48,3,50,-44,-60,29,-41,-8,35,81,-23,-44,-12,16,-21,-22,122,-86,49,8,-14,-28,-27,13,-20},{-28,23,26,18,-4,-23,68,74,61,-44,-69,5,19,2,-20,13,-128,30,31,80,119,94,55,54,-113,4,-35,127,-4,59,-119,-13,-19,58,-73,10,33,36,-97,25,-128,-87,33,28,-16,19,16,-120,7,3,-128,-30,-7,-81,-128,97,41,-86,127,45,-128,-64,-128,-37},{93,-19,29,-20,-26,-61,-48,-48,18,25,-10,93,-36,-61,1,11,3,0,-18,-52,127,-67,-25,62,46,-93,7,-33,-20,10,1,-1,20,-8,-13,15,-59,48,-35,-68,-71,67,76,53,42,2,41,-7,44,48,-62,85,-12,50,-128,127,44,-78,49,34,-5,28,-119,9},{-10,127,-64,-47,-23,-49,-10,52,94,10,-44,97,27,-84,45,0,-5,-30,20,-58,106,34,7,9,74,-121,-6,-17,-94,19,-92,-19,2,-108,18,-1,-2,-18,21,10,-128,-2,32,72,35,-62,57,-4,-3,51,24,-28,-53,33,-76,55,-13,29,127,68,44,-79,-25,20},{39,32,91,3,-36,15,-44,-78,87,-45,32,-38,-77,11,-59,5,62,-33,-37,-1,113,18,50,6,12,11,-68,16,115,-10,-115,-27,61,-40,11,-82,47,51,-13,-31,-66,70,-3,44,-71,38,4,67,39,27,-78,1,-84,-39,-116,-72,15,19,127,-25,-29,-29,-75,72},{-44,75,-72,18,-31,-20,-24,11,-40,-2,4,82,-93,56,56,-22,103,-27,-7,-9,16,-18,55,20,29,-88,-50,67,27,77,-128,2,24,41,37,-77,-42,59,-25,-31,-128,62,76,43,-35,-21,-22,-26,-28,47,-101,6,-73,-63,-128,87,12,-82,-70,32,36,-41,-128,51},{-12,-41,61,0,14,-36,-42,18,65,19,-11,48,41,-15,-18,6,-90,49,17,-38,52,-56,37,65,-128,-84,32,94,-3,14,-81,20,-46,18,18,10,3,19,6,100,14,21,18,41,-53,-36,24,-19,-45,64,-102,34,-72,-58,-128,53,23,-48,9,47,90,61,-63,-8},{-67,37,-56,20,0,-86,-128,-36,-128,-20,-95,15,3,-52,-32,-27,127,7,-15,-23,-128,-128,127,17,127,-98,40,84,127,8,-124,37,86,-128,11,-128,118,-25,10,-2,-64,13,-17,-45,-7,13,127,-20,-14,-66,-10,-94,-128,-11,-52,127,4,25,-128,-52,26,47,9,37},{18,47,-95,-12,-36,-13,-24,-16,-64,-13,-22,90,66,88,-20,-53,12,-45,20,44,70,33,-37,50,36,25,53,-56,-17,8,43,16,-37,32,-111,-58,-41,45,-114,-84,-42,-33,-19,4,-38,-59,24,60,17,3,-53,7,-5,-35,-4,48,-14,61,10,-22,-47,-36,14,10},{-52,58,-51,-63,-45,-13,1,20,-128,127,58,46,5,-55,94,2,0,-87,52,-1,-38,-67,-36,47,24,33,43,27,6,17,-113,-28,-67,-128,-6,24,37,88,46,85,-128,66,-50,19,-69,-14,-46,-82,29,53,-2,-33,48,-26,-37,-90,7,-55,-48,54,-64,-31,-25,81},{-40,-108,43,7,-25,-49,83,-58,-47,123,-42,86,30,14,-63,70,14,23,67,-64,-49,-27,113,-5,66,-26,33,-116,24,3,3,35,92,2,-21,-2,15,16,-54,2,40,8,-35,-76,20,26,80,22,23,8,-25,54,-44,52,39,36,-30,-23,-128,43,-54,53,-4,-7},{98,59,-52,4,54,-6,-1,-1,34,49,18,6,19,5,-18,-12,-21,-39,10,-12,83,-61,43,40,-65,-46,82,-4,35,-6,-58,56,-45,7,-4,37,-62,-29,-9,-10,-102,-8,-74,-38,-28,-2,-11,21,29,15,-15,26,16,-11,-47,101,-62,20,-128,18,-69,-43,11,-43},{64,-84,-43,62,44,-6,37,-20,-72,26,-9,-81,-39,-39,10,16,-79,-27,-115,-52,111,-73,64,-99,-119,18,-14,127,-39,27,-91,-37,77,37,15,12,10,-38,-27,-15,-124,-53,-7,-46,-128,13,-14,90,-42,-13,42,55,-42,2,60,0,44,-2,-68,-6,-7,29,-46,5},{15,5,-95,8,82,34,-73,-6,-38,4,46,-8,-13,-103,-19,4,-89,-6,-49,18,-86,-30,-47,-9,44,-16,-56,127,22,17,26,-105,9,-128,5,-108,94,92,39,-22,-56,-21,-119,6,6,-78,-19,-15,-28,76,-97,58,-23,43,-86,21,-14,76,-86,15,-26,-41,7,26},{85,-18,38,46,-93,-11,-75,-21,-90,-54,-42,4,0,-22,-38,14,69,-12,59,-71,-71,-5,88,-76,44,-26,25,-43,53,-11,-1,-12,-14,53,-85,-18,30,-77,-18,-1,31,-66,-54,36,12,6,31,-45,-36,66,25,-31,-4,-43,30,19,-43,21,-128,43,-42,-85,-21,11},{-46,46,-64,-40,-128,-30,-18,65,-128,33,-63,-83,51,17,-65,-36,-24,-45,-27,25,-40,49,-58,-9,-49,-16,-128,127,-82,45,-103,-32,-30,14,33,-116,-10,-55,-12,5,-77,51,58,90,-54,6,48,-10,-29,-44,-41,-78,-47,-128,-5,-16,-1,23,127,50,-22,-21,-13,24},{-95,-7,-68,-77,-56,10,48,46,66,23,14,51,35,19,-114,-36,-36,42,105,-14,-128,-34,30,-35,-34,101,102,42,-92,-23,10,-21,20,95,-42,43,-10,32,-25,127,-127,-59,60,-15,-30,-15,-15,10,-20,0,-74,-116,-70,7,43,0,41,0,-128,44,-3,34,-36,-42},{-103,-65,-53,7,-87,-36,-116,16,55,-44,-13,66,27,-15,33,-9,17,-58,9,-29,-93,-78,109,-8,119,38,-1,16,76,-2,-21,45,-11,42,-14,-18,67,2,58,94,-85,38,18,-65,74,-17,2,-82,-44,94,-22,-28,-25,35,-18,81,-1,-6,-128,31,70,24,-57,88}};
static const acc_t QConv_BN_bias3[64] = 
{-4140,821,9814,3612,9038,9814,13690,3767,-3520,7023,201,-13132,5162,10279,-729,356,-574,5162,2062,8418,46,2837,-8791,-1194,3457,12139,4542,-3210,-3210,-5535,16635,-5690,5938,14155,-6621,8418,-884,-6155,1907,-1194,13379,1597,3767,-3830,6713,6403,-3830,4852,3302,-16078,17100,1286,6558,5007,19891,-8946,3612,5472,-3055,-10341,1131,7798,12139,-6155};
const struct Conv1d_Params QConv_BN3_params = {.input_width=100, .in_channels=32,.out_channels = 64,.kernel_size =3,.stride_size=1,.padding_front= 1,.padding_back= 1,.output_width=100,.out_scale=0.0030285138850566816,.s1=0.052686909944810255,.z1=9,.s2=0.0027065043589648077,.z2=0,.sb=0.022108074144918503,.zb=4,.s4=0.047084925755044506,.z4=10};
static const elem_t QConv_BNd[3][64][128]=
{{{61,-68,-70,-19,-6,-6,-24,-12,18,-50,76,41,-20,-11,-19,6,-4,-27,-36,86,5,3,-38,49,17,-28,11,32,-3,89,24,-34,-17,-57,17,-66,22,-64,-48,-24,-98,56,-24,14,19,20,2,-31,18,62,17,-9,-15,-8,-84,0,-28,9,-22,6,71,-61,-20,-40,-19,-53,19,-9,35,5,-14,3,-7,14,-105,-33,-4,-18,30,-17,60,21,33,-13,34,-3,36,-93,49,1,-26,-38,-7,5,5,-65,17,-12,-31,14,42,30,27,4,-67,10,-23,7,6,-2,37,30,-128,-9,-33,-53,4,27,-47,-53,24,-17,18,-34,-38,29,49,15},{-10,4,-27,-13,0,-16,-22,48,-3,20,43,-42,5,-8,-94,-42,-30,17,52,-47,-48,7,30,-4,-40,-80,-26,48,3,43,-10,10,42,-5,97,16,58,-24,-55,-17,-22,30,-54,-64,-56,22,-60,-27,-79,38,-14,-96,-26,22,13,-4,-15,-44,-80,27,44,-23,-49,-6,0,27,32,37,47,-42,35,-7,41,1,-16,-24,22,-98,-50,-4,2,0,-7,-128,-69,-5,-55,57,-29,-35,41,-58,43,-128,-75,23,1,-54,12,-36,17,66,-46,-7,-29,-39,-25,-53,46,-27,-22,104,-16,-22,42,3,-92,21,-24,55,54,-17,-27,-69,-28,-24,-44,-15},{-6,32,-20,34,-34,24,68,28,-1,60,-46,-9,12,95,-57,16,-49,-49,85,75,-58,-35,-34,13,-34,38,-51,-48,18,66,-18,127,33,-26,4,75,-39,83,21,25,22,-3,0,64,15,-5,14,-20,-23,-49,-8,-60,-10,27,2,7,-13,23,36,29,44,-76,-9,-41,-7,18,51,-103,14,5,-22,17,-32,-4,41,18,-24,18,-51,22,57,-8,-17,-20,-17,-2,15,-5,-53,-11,37,-21,79,-82,41,-54,100,3,37,34,-26,80,-28,11,-128,24,-75,-12,11,12,49,-76,7,36,-45,-14,18,0,9,26,-62,-42,-7,-28,-9,63,-54,1},{-42,-46,-6,-44,67,23,-31,34,12,-17,53,12,-1,-22,-9,0,-17,-61,-33,64,-39,27,-69,-42,31,34,14,55,32,-89,-39,-45,-49,-29,-17,-62,-38,-1,36,11,25,2,21,36,6,18,39,2,-2,40,25,-8,-39,34,-10,12,39,-32,-27,18,54,-36,-26,-28,-11,-19,1,-109,-8,3,15,15,71,-8,-8,-2,45,-31,59,-63,24,-33,-8,-30,9,-14,14,-73,19,1,-85,0,58,6,-7,7,5,-29,-20,62,47,-32,-26,-5,95,-2,15,-13,-70,-41,64,2,-50,-13,-15,-102,-1,-31,-103,20,45,30,-21,-37,6,6,-9,-37},{33,-23,18,-103,-11,91,89,15,-23,-6,-6,53,-14,-5,5,34,22,-54,14,7,53,-31,-17,49,-11,-17,13,-43,-20,52,7,3,67,13,23,51,82,41,52,16,15,-23,29,7,-42,-8,-24,-23,26,53,-27,-58,0,127,-64,-45,-57,5,-4,26,-13,127,53,22,-35,27,-48,36,-1,-7,44,-76,10,-53,-82,-10,50,-24,46,45,26,1,-47,-25,-5,36,6,-4,25,-82,-91,30,-10,-19,37,35,30,-19,1,74,26,21,17,-29,46,23,-77,104,-94,-28,37,14,5,24,32,32,-44,45,-23,-11,-21,-82,92,-49,-23,-13,-1,13},{16,41,61,-12,-54,6,-15,30,-1,49,-47,-8,-4,37,-78,-24,-7,15,45,2,16,79,10,72,14,-4,11,-68,45,4,45,9,55,-12,87,27,49,25,-8,-59,-4,86,-25,-52,35,-9,-31,-10,1,59,-47,-14,16,-71,-23,-66,-57,9,-38,-3,-61,1,16,-22,-31,37,12,-20,-10,-11,17,-2,63,-91,-58,34,-124,65,-17,23,-34,39,10,-23,-32,46,2,-20,-59,1,36,-9,-29,-41,-16,59,55,5,77,40,-69,-37,28,-20,-128,-10,-22,-60,15,-12,-30,-22,-63,0,-26,35,7,19,-15,-9,-84,-19,11,-26,-5,-36,26,24},{-7,1,59,33,39,49,5,33,14,10,-22,53,-52,-22,-37,20,26,-16,66,-12,-5,-93,3,36,30,34,-59,59,25,-3,-31,22,33,-3,74,20,43,28,-12,-9,-15,-18,36,-31,-4,42,43,12,6,14,7,-6,42,4,3,-3,-65,27,-6,17,-27,-101,84,-53,-3,-4,-34,5,28,26,5,48,-19,-28,-51,-4,-41,-64,-36,-35,-14,7,-10,25,41,89,18,-27,-8,2,-24,-6,-14,-35,-13,-34,35,21,83,58,43,48,-33,-6,127,-27,-15,12,-26,14,-27,50,-33,-2,-19,23,-2,-20,-18,15,23,-29,32,20,17,50,-16,-95},{53,75,3,38,-12,13,-13,-13,31,-22,36,-23,10,24,-9,4,-18,-49,-44,-54,-19,1,35,47,14,34,-17,-64,13,-61,19,-32,11,-30,33,-15,1,14,16,-14,-45,-17,57,-99,25,-16,-4,51,28,42,2,-8,41,-70,-34,-17,-27,-12,5,-33,1,-13,11,-20,-16,25,-25,85,28,79,-46,47,-36,53,28,26,-82,0,-37,12,26,47,39,34,51,-21,16,41,56,-18,32,-43,-80,27,15,-10,-4,12,13,-100,-128,-113,-16,-6,-128,31,30,4,27,-5,29,7,-4,-38,-11,63,24,-6,2,-64,-16,-25,-38,77,13,46,68,68},{-6,-67,-1,-17,-40,55,-52,-3,-55,-31,45,-21,-5,-45,73,50,47,-53,-33,0,-19,43,-118,20,-41,-7,-1,11,16,53,-10,-31,-20,45,82,-18,47,34,51,-40,28,-13,-31,-2,31,13,19,-90,47,39,-42,21,-38,-75,-69,-15,2,20,-59,20,74,-73,66,20,-21,12,-30,-128,-43,4,-9,10,83,-67,-24,46,29,-46,64,-5,-27,-7,-18,-40,-51,-74,3,-41,71,-43,28,-16,55,-31,-100,63,-45,-66,-14,-50,53,-46,-90,1,115,45,-28,-74,5,-57,6,15,30,-23,-45,-17,-48,2,-39,2,111,-72,-50,-22,37,14,-53,-18},{-59,-20,58,-26,32,-21,-16,9,40,27,43,-6,-47,-28,14,10,45,-12,-21,-123,74,-77,103,-51,-46,-78,-33,18,-32,4,-9,-1,-34,-26,-58,32,-58,-45,-84,28,4,5,-46,-120,9,-41,-50,-60,4,-91,-3,-1,19,25,-93,63,15,-1,26,-28,-109,-99,-5,-26,-12,-4,1,-23,-9,-56,43,-64,-7,22,8,-14,-13,-98,42,10,-6,-93,18,-64,-13,-40,-6,-19,-128,36,-107,2,-22,-79,-57,32,-43,7,-38,17,-7,10,32,-16,-24,-16,24,-88,-16,-17,-20,26,-12,-6,1,9,-8,-11,-63,84,-63,-39,98,-33,-2,65,68,-55},{34,124,-67,-36,-44,64,25,-56,8,0,10,-57,24,-1,-15,-35,11,23,4,14,6,0,-74,13,22,-8,40,-72,-6,46,42,-1,67,-28,27,5,-8,5,-59,-1,-15,-4,17,-20,4,10,-4,-1,84,-128,-44,19,13,-23,78,-11,-46,-16,-18,-20,-19,-87,-2,36,-9,-27,-13,-80,30,34,-58,-25,22,17,-9,37,-52,-26,44,-34,28,19,12,-47,45,19,43,-121,-65,-26,103,-41,-21,-2,-20,-58,-1,-39,53,-128,37,33,23,-37,-49,60,21,-30,13,2,-3,-9,23,18,-54,-21,-13,-46,9,-70,-4,-9,-38,1,-16,-25,9,-24},{-58,10,-45,-54,17,62,10,-18,63,-3,22,25,18,-31,22,75,3,-38,-7,-68,45,-12,-21,-13,14,-47,-61,52,61,-91,31,9,48,88,-32,-28,51,-12,27,-59,33,25,56,0,49,22,111,-9,-12,82,-28,37,-22,21,-10,-11,-12,-66,40,41,-4,27,42,-39,26,-25,-44,-73,33,40,29,39,19,-41,39,21,-7,-12,60,-48,-4,37,16,29,30,-1,-15,-128,30,21,12,-16,7,-22,59,-56,-46,13,5,-18,-67,19,-20,3,1,40,-30,15,-47,-23,10,-47,34,-13,15,-2,30,-15,-4,31,98,17,-42,0,92,-54,26,-114},{33,28,18,-66,-42,3,-68,21,-10,24,-99,-27,9,-84,28,13,56,3,-24,69,23,-13,-32,-110,-15,-76,-66,-128,25,-77,-23,-37,-18,-33,4,-128,-3,44,54,-34,13,-98,-21,-48,-26,39,8,27,-23,15,7,9,-21,-42,-12,4,43,-33,-25,-7,38,11,-12,20,4,0,18,-68,-28,33,55,44,41,30,30,-16,84,-31,19,55,-35,-25,-17,-62,-35,10,9,-52,-7,-4,6,-14,29,-55,16,-35,-75,-5,50,83,-53,-5,39,25,113,-47,-7,15,-86,-60,-56,-88,-84,-21,-23,-23,-6,85,-77,13,49,6,-33,-58,37,-59,79,-13},{-56,-49,63,-76,-2,8,30,42,3,53,17,-29,1,33,23,47,-2,-2,39,-9,-42,-41,-39,19,1,7,-8,61,27,-73,-38,-15,-42,41,-22,33,76,-32,-16,1,79,-83,29,83,-12,-6,-6,-102,35,7,-65,-16,-2,-41,-128,-72,-46,-43,16,48,12,-9,37,44,-55,28,-10,10,-15,-38,-13,-14,25,-60,-61,-32,-35,-30,7,-9,-21,9,-41,-74,27,47,22,-65,-36,-47,37,-49,-27,-89,-69,16,-40,4,48,78,-128,-23,5,-46,0,42,-16,-9,-91,-30,16,-13,-47,2,38,-29,0,49,-22,17,-69,-47,3,-8,25,-40,-22,8},{-40,-97,-1,38,-13,81,35,28,8,69,62,4,-18,48,7,-14,-20,-81,7,-30,-128,-36,-16,43,-86,19,-49,-80,17,86,-16,-1,-58,9,-28,23,-92,46,-29,54,22,70,-30,-128,58,-26,12,-27,5,23,-18,34,15,44,-94,64,-31,-17,7,-30,-19,30,43,42,16,21,-11,-128,-4,7,17,3,24,-59,-62,21,49,-4,-16,6,-18,41,28,35,52,-25,0,9,18,21,-22,-18,41,16,-36,-15,38,-10,36,-75,20,79,26,17,-97,-15,-25,47,-79,18,-10,-46,30,37,-10,-8,2,1,-1,12,94,-49,74,-47,-20,-51,70,-47},{-23,-61,34,61,25,-12,34,63,26,-3,-58,-24,-2,-20,-15,-3,-13,-30,-15,-74,57,-11,-4,-43,-74,38,-28,-113,68,-23,-28,34,-12,-80,-62,25,-72,-4,61,23,3,23,12,51,28,18,10,-12,50,-32,-59,20,-11,49,-74,24,-26,49,29,29,-32,41,-14,-44,-17,-4,16,-128,-15,46,-72,23,-36,65,-35,18,23,-22,-6,28,27,56,-2,68,42,8,15,14,-3,59,27,-5,-79,63,59,-45,19,26,-5,-15,-53,-36,-9,30,127,21,25,13,-1,28,-63,-32,-33,4,-71,20,14,7,14,-20,-60,-27,-5,36,7,-2,-5,-8},{-127,-43,0,6,-4,83,-8,30,-11,-4,-1,-56,-9,45,-4,-53,-38,-101,5,-63,-27,15,0,-104,-6,-22,-17,-52,50,-9,-26,18,-97,-23,-44,8,53,43,10,52,-5,33,49,-21,-19,5,2,-4,41,-7,27,-40,4,-6,-84,62,13,-14,8,14,-20,-5,28,10,26,0,42,-38,-22,-26,-15,-50,15,14,64,32,5,-28,21,39,-12,-20,32,25,1,-9,-7,-22,-11,14,-18,2,54,15,92,-8,-18,1,54,-103,-48,-17,34,7,-75,-20,-8,48,-28,-54,66,-27,-20,-8,32,-15,16,-33,-64,-2,-21,22,-51,-90,10,-60,12,13},{-18,23,-11,-28,-9,17,11,10,-19,32,82,-18,18,-3,-5,-9,21,-46,55,-54,32,26,55,14,-19,22,-42,51,-14,53,14,32,71,13,78,-36,61,1,28,-22,48,-32,-3,24,-33,35,-37,-23,23,37,13,-7,-75,6,-34,-10,0,-82,6,39,4,-44,68,1,23,37,11,55,18,-5,84,33,60,-43,-47,-75,-95,-50,-12,-98,-14,-30,-30,12,17,10,43,-1,-118,-8,9,-28,39,-83,10,41,26,-74,9,-61,36,48,-54,-14,44,4,34,-41,14,-11,17,21,37,16,-27,7,3,-84,-45,13,4,-2,39,7,30,1,-42,9},{-37,7,-80,-41,83,-46,-47,5,40,-11,54,10,-18,14,51,24,-8,19,-22,32,47,-41,-12,0,74,-16,7,-5,3,14,-12,-65,-2,-44,-20,30,22,-37,-8,-33,101,50,21,-22,57,18,8,-1,8,15,-31,20,-30,7,40,-30,17,-8,43,13,17,-118,-20,-16,76,-37,-31,-72,48,-17,-25,11,16,-19,-43,-15,-70,-48,-39,-25,52,37,38,34,48,-16,36,-102,-15,13,-118,-13,-3,60,-39,-18,-47,25,-19,58,2,-71,-7,0,97,35,-7,-46,-19,-37,9,-3,-3,-9,-2,-45,3,15,18,-12,-114,58,41,-22,26,-34,-36,-22},{-78,-121,-4,13,46,14,-2,-82,-9,-72,53,-5,-19,45,83,-30,15,5,-21,-31,11,-49,88,96,-11,-4,63,-1,-8,-2,-11,4,-31,-61,-36,54,-42,-48,-56,-16,-3,22,49,-128,-14,-6,53,-23,55,-78,14,91,-18,34,50,17,-3,-8,26,6,-35,-58,74,29,-30,-15,-43,57,19,5,-7,8,-11,90,-25,43,-58,10,29,-48,-5,-83,23,-32,46,-29,-15,-17,-13,-4,-128,-18,8,69,-41,69,-20,0,-43,78,10,-14,27,-17,61,-42,-2,-123,-59,9,-81,76,32,21,37,-16,-35,-81,-4,-33,72,-94,110,49,-49,70,-11,-27},{63,73,55,-10,-32,30,14,-21,-10,19,-18,-3,-32,52,-70,32,-5,-6,67,-16,-68,-37,-27,-45,67,-7,-14,-109,60,-67,39,11,-6,-69,-94,42,98,60,26,-6,10,-36,-43,23,9,-37,52,-25,15,-60,-94,-21,-1,-53,35,-23,-42,16,35,-17,-43,-6,34,-40,-40,21,44,-96,9,4,-92,-80,30,-1,127,-2,-40,-3,68,-12,-48,11,-6,-56,-1,-35,-48,9,-25,-45,-16,4,11,-100,-10,-75,-29,3,27,78,-86,55,-98,-17,36,-64,-54,127,-62,-71,-41,-11,-27,13,-36,-4,-13,62,-17,-2,25,-79,-19,-62,-42,36,-94,13},{-16,-36,69,-28,10,46,14,-33,-19,21,46,-13,-4,30,34,-48,-22,-90,7,72,45,-15,-67,-4,-9,-6,41,10,-30,50,14,-16,48,-9,5,76,83,26,-52,1,39,-65,7,-11,-15,0,-42,29,41,27,-10,10,-16,-4,-62,51,14,-44,-15,-21,9,63,53,64,13,7,36,69,-9,15,-61,-92,75,-33,-1,-37,-22,-65,-24,-61,24,16,16,-2,-1,24,32,31,25,-76,35,-13,59,15,-29,40,45,-51,-24,-8,52,-1,29,-66,26,-7,-46,-5,19,-70,42,65,-7,29,44,-46,-8,24,-41,-17,-33,41,4,23,-15,19,-26,9},{7,-54,39,13,28,-7,8,75,22,22,-63,-73,39,-7,-24,37,-27,-33,12,3,-72,35,6,-36,-24,37,-7,-3,29,-19,-1,43,45,-26,-30,51,-88,6,12,20,18,-85,14,-50,-68,24,52,64,-52,-90,-61,17,-5,35,-44,-4,31,-6,-39,41,15,60,-8,-53,5,-18,-17,-128,-22,6,11,13,6,50,2,47,26,-16,-6,-49,13,68,-12,4,45,13,22,26,-21,1,0,-42,4,24,39,-24,58,11,14,-3,-25,69,18,-1,-6,-48,-9,29,0,45,6,-16,-34,2,-42,42,0,-1,22,-17,-10,-2,-1,5,49,6,-55,-23},{-19,63,-3,1,-22,-12,-7,26,-6,21,28,-63,3,-9,0,-4,-8,7,17,51,6,-44,-35,-44,33,-39,-34,14,3,-47,38,5,86,-47,-50,-5,-37,24,2,-42,48,97,42,29,-46,9,12,28,43,-19,-13,3,-4,20,11,3,4,-14,28,-36,-7,-128,-6,35,-39,-34,-65,-41,34,29,60,54,90,-26,61,68,-57,-9,-43,-9,41,3,-5,-2,59,28,88,-80,29,-54,9,-79,16,10,36,9,-13,-53,-38,14,7,-13,-46,-5,-120,38,-31,-113,11,3,-16,-1,44,-4,44,-32,8,-56,-7,9,-40,-47,-26,28,3,-27,-15,-4},{-35,38,-33,-37,-61,-114,13,6,-16,-18,-54,27,30,-36,30,43,-10,-89,-47,10,-40,-114,-15,62,-18,4,27,-17,-25,-74,1,-51,28,80,-36,-84,123,51,35,19,-32,-55,-110,-5,-17,37,-8,37,40,40,-4,-8,-34,16,-51,-15,75,4,-13,83,53,-58,47,-33,-34,12,-26,8,19,7,-65,-20,-2,-128,-27,-57,37,12,-24,-110,22,-15,17,3,-6,12,56,-9,37,-87,57,-35,-47,-30,42,127,-28,-16,-6,-17,127,-49,-58,-14,-91,43,19,33,-3,14,-128,67,-23,3,-9,-34,0,-30,-36,4,-89,-72,-25,6,23,-10,8,-128},{-30,-20,-46,-10,-14,24,22,-10,-43,-24,42,-5,-24,15,108,-48,-15,-66,16,49,49,-8,18,-3,-14,-30,10,6,-2,-23,-2,-18,22,-42,31,-6,67,-3,1,6,60,33,64,22,-69,-4,-4,-46,118,-12,10,74,-51,41,-1,-30,-20,-38,49,-53,4,-40,-7,32,39,-60,-33,-18,69,-27,26,49,-37,-23,-59,-12,-38,18,40,21,43,-13,29,-6,32,38,98,-94,1,28,-45,-37,-52,22,-30,-32,-26,-12,43,126,-14,-9,9,-13,57,118,-2,-118,-11,-9,32,22,-45,19,27,-7,15,16,12,5,-81,-12,75,34,-11,-7,-14,68},{-52,60,-29,-26,17,21,16,7,-15,34,27,-3,-23,2,-68,-58,-44,-30,79,-70,33,-1,56,-67,12,2,-8,19,-11,15,48,9,45,-10,31,6,80,1,-14,-8,60,24,-8,-49,71,0,-35,-33,24,10,-18,-58,7,41,-35,-21,37,-93,-34,4,36,-70,-30,4,44,-16,-16,49,13,-7,12,-3,-26,-61,47,-45,-75,-107,24,4,56,51,0,49,-10,-35,18,36,-39,-5,23,27,50,-57,32,59,78,32,44,-67,16,-8,62,-9,-12,13,-10,-12,-25,-39,52,27,-1,-8,2,-49,12,2,-39,32,-98,57,43,-64,-19,-22,19,9},{-53,-66,-56,-37,44,0,10,12,18,22,-1,-15,75,-15,-65,43,-33,13,22,10,-60,-82,65,-59,-63,-60,48,62,-25,50,-16,35,18,31,-20,19,44,-28,-65,69,-5,-128,-67,5,-78,1,-58,-3,-11,4,-53,-68,-18,14,9,13,31,22,6,25,-8,-128,16,-71,-10,7,-6,-46,60,-3,31,13,-15,8,-103,6,2,28,-59,-56,23,-10,11,-40,-51,48,-11,-98,3,6,-5,-58,16,-116,-40,10,11,-36,34,50,97,77,-46,0,113,-2,-24,-10,-11,58,-47,71,-108,35,1,-3,-37,-45,-60,14,39,10,77,-27,23,-5,-60,-41},{-10,-6,-12,2,44,22,30,-17,-22,13,-7,-86,-21,-12,20,38,16,-79,33,34,-64,-69,25,47,-89,9,-14,28,12,45,8,24,53,-25,21,-11,-24,24,-30,-35,37,-75,57,6,28,18,8,3,-4,-28,-38,-5,-20,-36,-36,45,-16,-45,4,41,-18,51,-86,-72,29,-11,24,10,16,-22,-6,1,-21,7,-6,-93,-15,-80,-42,-48,18,-11,-3,-33,1,-32,-12,40,-56,6,118,22,17,-1,64,-48,-16,-11,-2,-128,-28,-45,-7,3,35,21,-11,16,-1,-34,-61,-75,-26,-8,-5,-21,15,-25,47,-56,86,-4,-21,-13,6,-56,-56,13},{-79,23,-18,23,0,87,30,116,6,127,-4,-29,15,32,11,15,-22,-48,86,2,16,15,81,25,-68,47,-2,-95,1,18,-3,65,4,-69,-22,75,73,8,-62,45,-66,-20,-12,-32,-14,14,-41,6,-2,10,-10,25,66,86,-31,18,-5,45,-11,33,63,-46,-58,6,-52,9,-16,-27,-1,26,-20,45,-57,7,48,58,-10,-14,8,-10,-15,20,6,48,-26,12,14,28,15,4,56,-51,-26,31,59,-23,81,-7,31,-31,-74,21,-63,40,-103,-30,-11,51,27,104,48,13,-17,105,-47,74,31,-16,2,-62,-3,-51,90,94,-8,4,69,48},{-14,33,9,14,-15,16,-23,-19,7,-24,15,-12,6,-84,34,-14,55,-31,-36,28,45,35,-111,-103,-10,21,38,-5,59,-24,-8,-35,5,-3,6,-12,33,51,28,-54,25,-108,-6,18,2,20,-12,14,24,14,14,38,-15,1,35,30,17,-25,22,-29,65,15,-35,-48,23,-3,3,-128,0,-10,-15,16,23,-30,-25,80,-14,8,77,-36,6,-6,27,18,-22,-17,-23,-28,-128,-20,30,28,-32,84,-55,-122,-58,-35,53,12,33,-11,-66,7,-53,35,-16,8,-21,38,-128,26,10,-22,-89,-21,2,60,22,-6,-55,47,11,58,24,-12,-57,-85},{48,9,60,46,10,-16,-33,32,27,4,26,-23,38,-9,4,75,1,44,27,50,-99,90,-74,1,118,39,36,-52,71,-97,60,16,6,-24,-9,36,36,-6,12,-40,2,2,49,26,48,28,85,23,46,-48,22,-9,-18,12,66,-38,-17,44,61,30,-23,-109,-26,-58,49,-40,-35,-55,42,37,18,46,-15,92,75,58,-21,29,68,28,-14,-7,-14,-33,64,2,12,-27,19,69,45,-6,-38,-24,-42,-73,71,19,15,-77,-114,28,-34,50,41,16,-51,-96,28,35,-41,27,-62,-18,-24,30,31,15,42,-39,-2,39,-26,18,19,-35,-6,-11},{-2,-102,-18,-53,25,-16,12,0,-11,-19,39,50,-17,-16,25,18,49,10,-58,4,-11,-32,-43,-102,-4,22,-37,33,44,-8,-33,-27,-5,-27,-44,12,15,-20,0,2,29,60,-4,-14,62,-2,47,-41,30,27,-25,58,-43,-25,49,-21,16,-10,-10,-8,15,-109,17,-23,23,9,-19,-61,10,-38,70,12,25,30,38,41,55,-28,13,-26,8,19,26,-55,-22,-37,-58,-118,-62,3,-65,19,32,45,30,4,14,-7,-12,85,-12,-88,-11,-10,-52,8,37,-120,-76,-69,-13,92,-94,30,2,-67,4,-4,-57,40,4,55,72,-11,14,-3,-53,11},{-49,-43,2,69,75,-6,-39,-19,-9,19,68,-30,-15,-35,30,40,74,-12,-20,31,-119,-5,1,-60,-42,8,66,-101,-34,-26,36,0,10,-95,19,-109,-128,-22,27,-6,68,37,15,-14,13,6,32,-62,-39,56,-53,-4,20,-62,-108,36,12,-45,30,-58,-29,12,-38,30,52,11,-37,-98,-16,29,-65,74,12,-12,-43,-21,-30,-19,53,-7,-46,16,0,43,12,-3,28,89,-5,32,-50,10,-40,36,80,-37,-57,-1,-2,127,-64,-68,-27,34,-128,-14,66,-95,25,-20,-48,-30,-38,-25,40,-18,-4,26,24,-80,13,3,-32,24,48,37,-5,7},{-27,-26,26,-9,-26,45,13,60,-8,9,-107,-21,30,42,47,-11,-2,-9,7,70,-33,26,52,36,-55,13,-8,-128,25,-98,45,25,57,-58,49,-1,11,25,-3,-10,-69,48,54,-113,43,-13,3,14,82,40,-38,-69,-4,-40,-24,41,-47,74,-2,-1,31,-17,-40,26,18,-20,31,-30,-10,20,12,-27,-17,-17,38,67,-20,61,6,30,24,-10,10,-17,23,-26,24,34,26,30,-17,-11,-62,20,-13,55,-15,9,55,30,-80,-47,51,32,104,-12,-63,-3,-59,-17,28,-11,-76,20,-13,51,-22,13,-27,-44,-27,13,-8,-20,18,-41,56,77},{52,5,-46,-13,89,9,-2,-5,43,-10,-91,-23,-3,-6,-53,76,36,-92,-64,-38,16,7,-34,-50,9,29,-42,-128,76,22,0,-62,2,-72,25,2,-128,0,35,27,48,-128,19,12,-103,9,18,64,-71,-96,-4,-35,-48,12,-1,41,-15,-1,-18,13,-10,-23,-56,-9,41,17,22,-46,-4,38,-59,-31,-25,10,-96,-4,91,0,-82,-41,-11,39,-1,-21,-57,35,-52,2,39,36,35,40,25,22,-94,-106,-42,-15,38,-41,1,57,21,4,-128,-26,27,-22,19,-18,-76,20,-4,15,-8,8,15,-6,11,-18,-25,47,-60,-88,44,17,-6,-50},{-6,68,-41,31,6,20,17,41,-1,-2,20,3,6,8,39,26,-6,17,14,14,44,-20,11,26,82,45,58,62,29,-64,55,62,40,20,-20,40,93,-23,-1,-21,9,-36,51,-17,-69,0,23,33,9,-59,56,12,-2,29,65,-17,29,30,25,11,5,-53,68,-30,-12,-10,-13,16,-11,32,27,28,16,28,30,55,0,9,83,44,-13,-34,0,14,-4,4,12,8,1,3,48,-74,-8,20,13,13,26,-6,0,39,49,-19,-44,14,-46,42,-42,41,-20,-5,-42,-12,-12,-10,16,53,28,-46,9,2,36,-42,2,60,27,57,30,-11},{-21,-10,-28,-7,-7,33,-29,62,-50,32,26,-6,-10,0,44,-32,22,-128,28,20,17,-32,-37,-57,-120,10,-19,-25,11,51,47,9,98,-52,2,-76,40,-26,-19,-51,28,-24,81,24,7,24,-100,-31,96,15,-100,24,31,-16,7,39,-26,-44,72,-63,24,-5,-1,-38,22,-43,-44,-128,103,-31,-35,-20,23,9,-35,-7,-25,2,37,-128,30,40,-5,-28,106,17,110,13,-39,-29,44,-10,-31,29,28,36,1,5,74,20,81,56,3,-36,0,115,26,11,-5,32,-77,-34,-37,26,-11,-35,13,-4,-29,20,-12,21,-5,-53,-57,26,-46,45},{49,32,5,41,-8,76,34,-43,-7,-11,-23,-71,35,18,50,27,14,66,-16,40,-16,81,9,-29,70,31,9,-6,48,-73,50,4,15,34,-50,-40,8,-35,5,0,-93,-20,36,-49,-63,21,77,45,62,-91,16,-29,-10,-52,74,-19,-6,60,80,-4,-22,9,71,-19,-42,-11,5,15,35,63,-20,2,91,50,-5,62,-8,16,123,8,25,-4,0,3,59,5,-28,-5,45,20,91,-47,-4,-34,15,26,-53,-2,28,-108,-128,-17,-18,17,-27,-18,-32,-59,13,-16,-7,-46,16,-10,-38,74,35,7,40,-49,74,-62,-51,34,13,70,14,11},{-14,85,-59,30,27,4,36,11,-34,-55,2,-42,44,-11,43,-30,-21,57,39,-16,-64,-11,34,-13,54,34,25,-49,-7,31,40,28,14,-21,1,33,10,-37,-67,-10,-17,23,37,0,-58,-11,-23,11,-29,-30,49,13,17,-8,-3,-29,-27,8,-2,-13,-31,75,54,-3,18,-15,-2,-18,23,25,-29,-13,-47,62,44,8,-37,33,59,47,5,0,23,16,15,1,20,-118,25,33,9,-40,28,-13,4,-20,44,-17,-43,0,-36,20,9,-23,-65,56,8,28,36,17,-26,-31,8,12,39,27,25,-18,22,34,-90,-32,23,36,-27,-69,62,-22},{2,-18,61,2,-23,-91,44,19,1,-33,-7,-77,34,2,11,-12,-32,-40,9,-23,-16,108,-128,-22,34,28,63,-117,36,-128,48,-29,14,-128,-57,-74,-128,-37,65,-2,30,2,61,-128,-14,0,33,-26,57,-35,-48,-21,27,30,-11,41,-78,6,-3,42,14,4,3,-26,-29,-12,-11,-128,26,24,-50,7,25,5,-45,67,-43,-14,112,-2,7,-15,-9,23,45,3,21,36,-42,37,39,-18,-47,-14,-25,-84,12,27,25,127,-128,-34,-62,-8,-114,-16,-14,21,-14,9,-19,-39,-14,1,-42,21,16,75,86,-78,18,-47,27,-51,20,35,-41,54},{44,5,-31,-45,-90,-88,-25,56,-17,78,49,-10,25,27,9,-5,36,1,30,127,9,-67,8,-66,32,-5,-77,-31,8,-12,-35,36,99,-118,-14,9,79,-94,-40,-20,-5,127,-74,27,37,1,-103,-5,-23,64,36,6,17,89,71,31,9,-46,-82,2,26,-63,98,2,-51,-21,13,40,-81,18,36,8,48,-55,-27,16,11,16,-19,-18,34,7,-9,-67,-93,-15,5,28,-44,9,-16,-22,6,-2,37,-80,76,12,-11,7,17,68,-53,-14,10,-33,-24,-11,3,21,21,78,-61,24,-35,17,-22,-29,-29,-40,-69,-22,11,42,-22,-7,3,-6},{-35,-57,-4,46,-10,97,38,93,-35,55,7,-24,30,26,-54,12,-57,-61,27,15,-72,-6,31,-46,-16,5,-8,-20,31,5,-20,45,-37,-67,-92,76,-44,5,-14,31,-52,-13,-12,38,35,-8,32,23,-45,49,-31,-29,32,32,-59,30,-32,21,18,-6,79,-9,-41,-43,-49,-12,47,-109,-5,-3,-15,-10,-50,-13,34,9,-49,-17,-14,-4,-23,5,5,-8,23,-26,-40,-10,-67,11,37,-23,6,14,-27,-40,46,2,54,4,-79,30,-82,25,-112,-3,-29,-38,24,91,20,-64,56,68,53,-16,33,-24,37,3,14,-39,75,5,24,14,-5,-55},{-85,49,-17,31,16,35,-38,23,14,-67,10,-27,20,-13,-29,-34,-13,-46,23,-98,108,27,-68,-88,2,14,-37,-5,4,-62,-30,-6,-38,-22,61,56,46,-49,15,-12,-31,81,-118,5,10,12,-92,26,19,39,-16,32,10,49,-34,23,31,-5,-128,18,-7,-47,-36,-41,26,21,-30,-128,-37,10,60,37,1,-53,29,45,14,-40,-7,-1,0,21,0,-21,-57,-30,-44,61,-27,11,4,-21,4,-10,44,-12,38,2,-49,6,-22,-37,-21,-8,87,15,-15,-20,36,-27,28,84,-5,33,-32,-24,7,24,-26,-92,34,38,38,38,-15,-32,4,51},{33,41,58,-33,12,47,-107,16,-52,-9,54,-47,-8,32,-14,-46,-1,32,-31,-128,33,8,-48,127,64,-62,43,-5,23,38,23,-59,-33,-29,-74,24,-16,27,8,-25,2,127,-34,-107,43,5,28,19,-3,-74,69,-99,-60,-63,-3,-24,24,-34,-12,-40,36,61,-18,24,-29,19,-20,-42,34,-10,-1,-43,34,-76,28,3,-107,-60,2,54,-13,42,-27,-126,-26,-27,-59,-59,-63,-108,76,-24,21,-74,79,68,3,-8,-32,1,-22,56,10,-19,-128,-27,24,37,-35,-28,3,51,-4,-32,13,-48,-61,15,-78,-56,-22,-65,-57,-62,-30,-24,6,-9},{44,23,0,18,-7,-11,-16,-3,-36,-11,68,-25,-23,45,67,-33,20,-66,39,123,-31,47,-23,8,-33,21,-25,-76,-34,-16,40,47,14,-60,25,56,-74,-21,-4,-21,-54,3,-5,-48,54,-11,16,19,22,2,6,62,33,-25,20,21,-10,-17,18,-50,56,11,2,-4,21,-8,-23,27,36,9,-40,17,61,31,44,-10,56,-9,-28,-2,42,-1,28,39,34,15,34,-33,13,-11,13,11,-16,19,39,-81,59,13,-23,-53,-118,34,23,-17,-113,24,11,-5,30,49,26,23,30,43,59,-36,31,10,64,-99,15,-14,7,54,9,12,-8,28},{-76,-23,14,-33,17,11,30,-16,0,13,-56,7,-16,-20,10,36,-10,-6,1,-128,-8,-18,-3,6,19,-20,-13,-83,9,39,-26,-10,-30,-89,-58,2,34,-79,-13,46,-67,-114,12,-24,-61,20,65,48,-53,-22,16,-29,-12,-32,-20,30,29,24,21,5,9,25,25,36,3,6,8,48,17,69,-60,-22,-8,37,-27,7,-21,-25,29,42,2,12,48,51,-42,-11,-28,-17,65,15,49,0,-41,4,62,52,-36,28,-3,62,-46,-41,2,32,16,-43,8,-67,-2,-25,42,67,-46,22,43,-10,-3,14,-28,-32,-74,11,4,-13,-2,34,8,-15},{-26,-2,4,-18,-37,-7,42,-2,32,29,-30,-2,-31,-17,-31,59,-28,43,44,-53,60,-18,70,11,-22,2,-22,-42,-9,-12,30,39,9,-73,28,32,-4,29,-128,-3,45,-67,58,-33,19,25,40,3,38,3,-34,-14,8,-11,83,21,31,7,77,45,47,15,-65,-28,-7,0,11,-13,46,17,-61,54,21,33,-58,55,11,-4,44,-41,-28,-28,-15,-55,64,-9,36,-45,34,55,56,57,-31,2,33,-119,51,26,-14,-9,2,-10,36,9,87,19,2,48,36,-1,-48,42,-80,33,-98,50,18,-49,-19,-11,31,-41,9,55,7,1,-66,-19},{4,-57,11,7,60,-14,4,20,32,1,14,2,-6,-29,-38,-11,-6,-22,-33,127,-6,-5,-23,14,-5,0,18,35,26,62,30,-20,80,12,-28,-68,23,-2,12,-15,-10,97,18,39,21,28,52,-14,-25,39,3,15,-31,0,-57,-19,15,23,-14,0,42,48,88,38,40,15,11,-49,8,0,37,-2,54,-17,-77,-7,88,-25,-36,41,11,18,-2,-22,23,31,8,-56,42,26,-39,2,48,50,29,3,20,-7,-17,-26,89,41,35,-5,73,-19,26,27,-71,-32,48,-12,-47,-64,41,-57,-15,11,-76,-52,45,0,17,-40,7,58,43,23},{-2,17,-23,-6,50,36,-9,19,46,6,1,34,5,-53,-5,90,-8,15,-6,30,-6,-1,-10,17,61,-14,-1,10,13,1,12,-3,45,102,20,0,-90,-27,53,-64,21,-14,60,10,19,-11,77,7,-15,54,-3,-1,-20,-105,-65,3,10,18,-10,60,-22,-101,-52,-62,24,-17,-38,-51,26,27,30,-8,27,-69,-21,54,-33,-24,14,2,12,47,25,0,13,1,3,-2,-19,21,21,14,3,-24,17,24,-12,9,27,-63,-52,-98,10,19,2,43,-7,9,7,29,-41,21,-63,-47,-60,4,21,-33,11,-29,40,19,-5,48,52,-50,11,-95},{43,-15,-39,-4,12,-6,26,13,-52,28,18,32,8,39,-23,-31,-22,19,21,-47,7,-82,-22,57,-13,10,29,59,-53,31,-22,-1,-33,-1,-27,20,0,-17,13,18,20,-21,-105,-22,54,-26,-84,-33,-37,65,-21,-12,29,27,89,15,-34,-50,-81,-42,-55,91,-34,58,-13,14,44,89,-36,-30,-45,-41,-14,-13,-57,-29,16,12,34,12,-29,-41,-17,-29,-85,-33,-16,-24,-42,-13,29,42,-67,-67,-18,-25,5,-8,-38,9,81,33,50,3,51,-40,-19,58,19,38,33,-2,-14,12,69,-51,5,-33,-17,9,2,-13,39,-24,-34,63,-51,-13},{-49,9,41,-27,-43,14,15,1,-27,-10,46,-11,-66,6,-51,-47,-2,-39,10,-29,57,-13,-16,-67,-58,30,39,7,27,0,-3,-8,-3,11,-53,19,96,21,-15,-19,15,18,-21,70,15,-25,27,-51,47,37,32,18,-64,-7,-66,-42,-64,51,-7,9,20,-21,25,22,-48,31,-28,-2,-52,19,42,-88,36,43,-2,61,-12,-7,74,-14,13,-19,-6,-5,-29,-2,22,-16,39,15,-36,20,13,-69,3,29,-15,-70,-12,24,57,-9,-22,-48,127,43,-124,36,-57,-65,3,-7,-4,24,-11,34,-34,19,11,36,14,-6,23,-38,7,59,-20,-8},{53,42,-18,2,1,64,32,40,14,59,-2,-13,3,13,8,21,4,6,41,31,-103,18,-6,-4,-64,17,6,-14,43,-20,-27,35,-11,-76,-8,18,-76,22,37,10,15,-7,-4,-14,21,-17,-24,-44,37,0,-35,32,10,69,-84,30,-50,-25,-2,45,44,-49,21,-59,26,6,-12,-128,2,38,-20,29,23,22,11,20,83,21,13,3,-16,43,27,23,3,30,-4,19,-14,34,50,35,-17,27,18,-64,-2,-4,64,-21,-59,71,-41,30,-48,3,-8,0,62,-9,-12,-26,-83,14,-48,36,-4,-9,5,-18,-82,-10,83,16,12,20,-75,-128},{-15,-23,-38,7,-2,3,34,2,-12,43,-23,8,0,-35,0,54,-5,-22,-45,29,-20,-24,-28,25,-26,69,-39,-65,28,-36,22,9,88,3,56,35,62,-24,5,-11,14,-80,-32,-8,-7,57,-55,34,28,-61,-110,17,-14,18,-23,11,-24,1,33,24,31,44,-29,-59,13,-55,-27,-48,-37,46,-24,29,-5,52,-52,-13,-20,20,15,-126,-17,65,-18,-34,-30,5,-5,37,-97,50,47,41,-17,-46,-9,-1,-36,-15,69,-78,-24,-16,-16,-4,1,-44,22,40,35,11,-103,42,-61,-17,-4,-13,-20,-91,20,-75,-47,40,-17,10,57,-46,-49,-80},{21,-67,18,6,-48,8,52,14,-57,10,97,61,19,26,3,-41,-24,15,-19,-14,72,3,5,15,-47,46,34,84,-19,-61,18,16,-1,45,-42,-21,-24,-12,-49,31,-10,32,-57,-7,88,-36,-9,-86,-22,70,30,-21,48,44,37,-1,-15,-77,-44,-53,-51,10,-1,13,-54,19,25,36,-22,-14,53,-10,-17,-85,-15,-32,14,20,44,-41,-28,-40,-22,-16,-26,-44,-9,-31,-72,20,-10,37,-66,-9,39,-27,-41,25,-50,-61,40,2,-9,11,74,41,-50,82,22,45,-4,-90,-30,3,23,-50,14,-25,8,35,15,-5,40,3,-21,3,-36,4},{43,-57,-15,-29,-32,-15,-1,-9,21,-4,25,15,-78,-44,-10,-12,2,33,-5,-11,-1,-90,34,53,-21,-30,-4,7,15,-14,-47,62,44,20,-46,-25,-7,20,-75,6,-37,41,-2,17,68,2,-16,-5,-69,-27,11,11,-51,-40,25,34,-28,6,0,11,24,-79,26,-11,-41,-15,-13,-41,-49,-1,-63,-39,25,0,38,-6,-69,-5,-50,-50,-8,-4,11,20,9,47,16,-37,-59,21,38,27,-58,51,14,-40,-22,-37,-25,-15,8,-22,-19,-46,-53,-33,-32,-121,1,-9,-94,19,-37,37,-14,-21,10,-48,-14,40,-88,26,-37,-15,-15,38,-13,-30},{47,21,10,-5,-8,-16,-39,-19,9,-20,-7,-10,37,0,-46,22,-40,-75,-40,9,47,-10,-100,-1,-18,40,3,-38,81,-60,14,-7,27,6,-33,37,91,70,29,31,-4,-73,15,34,-22,-8,-13,26,-56,-7,-25,-41,-15,-20,-39,-6,-60,-17,-9,-11,-6,-75,-30,-46,-52,21,48,-22,-26,-52,-19,-12,-2,-80,93,11,-42,37,-9,-54,45,59,-19,28,41,20,8,-46,9,-27,-42,12,0,69,-28,69,-44,0,50,-8,91,-7,-21,-19,-13,-37,-18,-54,-43,-1,40,-7,-20,-9,-2,7,17,6,-26,6,-52,-8,-37,4,4,4,-69,-68},{-106,14,-14,57,21,-22,-59,-11,17,-34,-70,34,-13,-82,-6,2,-1,1,-42,32,62,-42,56,-54,37,-29,-19,28,26,5,14,-34,-51,-17,60,-56,-57,-5,17,-40,-16,-128,6,10,11,-5,61,-17,8,-24,5,9,-44,-55,-11,-13,46,-46,-44,19,38,1,-17,34,36,0,33,32,27,15,-5,-7,23,2,73,-25,66,20,-19,-64,14,-24,17,-23,-14,-52,-12,-96,20,-27,-1,3,63,35,5,-12,-10,-19,-62,-3,-69,-36,17,4,-61,12,43,-44,-41,-52,55,-42,-49,-53,-4,-56,-2,-117,-1,0,42,86,-33,-28,-19,26,58,79},{-84,-3,1,8,5,21,-2,-8,22,3,-2,30,-46,-4,30,-48,2,-24,-61,-47,-128,-55,-14,1,-35,-29,-78,5,12,-18,-73,31,-56,29,-52,14,-26,23,-18,-12,2,-21,0,14,6,-99,12,-30,-39,3,1,29,13,37,-17,27,-6,17,41,-39,-58,-5,32,-19,24,7,-23,-120,-10,4,-47,-43,-59,8,127,-9,46,2,-73,-11,-66,0,5,32,-6,-48,-11,-1,15,-4,0,32,-32,71,-15,13,22,-1,0,-19,-115,-6,22,2,127,36,-21,-68,-24,-34,-32,-66,-38,8,-26,-29,5,4,-36,-9,34,18,7,41,-27,-56,52,38},{33,-41,0,-5,1,-8,-33,27,33,-15,33,-64,1,-37,11,43,-38,-54,-12,-10,-72,48,-33,-8,21,47,16,46,24,24,-2,30,10,-15,15,-37,-93,-65,-17,23,-6,10,38,-11,-2,-17,74,70,16,12,-50,-47,23,-14,-17,-15,-34,16,49,-18,4,-107,42,-34,2,-5,-13,-128,38,92,-1,43,-15,94,47,47,-45,-15,29,-40,41,52,36,-27,63,30,-45,-7,-30,16,79,14,-13,3,61,15,-20,55,33,-104,-82,0,-59,34,119,-15,-75,-69,17,-21,-21,-51,-31,11,-33,13,45,53,-10,-22,-12,40,11,62,3,-41,12,34},{-17,16,17,11,-28,48,21,44,-43,46,26,-35,-3,-12,-11,-24,-14,-37,29,-2,124,0,28,-28,-128,11,-55,71,-8,-78,-20,77,15,-63,-125,-18,70,-39,-55,-19,-57,-36,-29,127,41,20,-59,-5,33,-11,28,38,3,-13,-111,-71,7,-3,-10,-14,-32,-121,22,-8,-58,-24,-38,-10,-12,15,36,44,-43,32,73,65,-72,39,-15,-42,34,-11,21,15,1,1,46,1,-50,-14,-6,-26,-39,-1,89,-69,12,14,22,70,34,36,-40,-17,-28,32,-16,-39,-15,31,-82,45,-17,25,-62,-15,12,-42,40,53,-65,-37,26,2,1,-29,13,-5},{-30,-128,15,-8,-12,85,74,-12,22,-5,-54,-10,-38,-20,18,-33,13,-96,20,-4,58,-80,-5,-51,24,30,26,3,-18,50,6,44,-21,-36,-56,-9,69,-27,-27,39,12,46,-28,-49,-93,6,-22,-43,32,-41,-6,11,-57,-7,-49,-12,-2,39,40,-7,6,-88,75,-4,-67,7,-30,-113,-13,10,47,-100,38,-39,29,66,75,51,100,-9,0,-26,6,-104,-19,-7,-25,-15,50,-20,-48,-3,127,-18,-19,69,36,-86,34,27,11,12,-62,-46,26,-19,-72,-49,-102,-6,-18,65,-36,12,42,57,-19,4,-32,-14,-73,-29,87,-66,-10,-1,-111,-10},{-22,8,-57,-41,-29,62,-11,35,-43,28,25,16,22,55,-45,-70,2,-4,-5,51,9,-1,-12,86,-7,23,58,-9,-36,-52,31,-47,9,28,-12,-8,103,-27,9,8,-5,-13,5,-57,39,-37,-64,-72,-8,54,-31,-15,22,28,39,1,-9,-24,-26,-63,-12,-22,-4,22,-4,24,59,48,-14,-1,-28,-21,-11,-63,-14,-14,78,15,9,23,0,-53,-2,-24,-37,-20,12,-83,12,10,10,9,-24,12,-47,-23,-25,32,-8,-38,20,61,-2,-12,39,-38,31,85,-33,19,66,-19,-7,18,61,-9,7,-31,22,-3,-13,-22,13,-57,-44,-20,47,41},{10,-52,7,8,50,82,27,-15,38,59,-30,-64,5,14,-8,55,-15,-94,-9,51,6,5,22,45,-128,9,19,2,41,-20,14,53,17,5,36,20,2,11,6,20,40,92,73,-5,-44,35,76,43,21,-16,8,4,-24,44,-128,15,-36,11,38,47,-59,-14,-18,-46,27,-23,-16,-21,61,21,-3,57,-22,67,-47,37,-5,-17,-38,-24,8,60,4,-21,7,70,-12,57,-13,26,-8,3,12,-4,5,-23,9,13,58,14,-22,22,-18,45,78,-18,-16,75,25,38,-70,-6,-38,22,-74,40,11,44,-2,10,-73,-24,81,18,47,-24,-59,-78}},{{43,-78,-76,42,10,-29,15,2,-23,-22,65,11,-16,13,-35,-2,18,-39,-24,127,7,15,-5,7,76,21,-22,0,-18,13,3,1,28,7,11,-47,23,-71,-30,-8,-82,-22,-9,9,-58,21,-26,-13,-40,35,25,0,-42,10,-25,6,38,37,-33,-10,81,16,-45,-13,16,-72,19,16,23,27,21,-9,-45,35,-109,-74,-16,-53,-28,24,61,3,-14,-30,40,8,33,-20,60,11,-15,-43,2,17,-15,-66,-4,-2,-31,36,65,35,27,7,1,-6,-15,49,-16,-23,3,9,-74,-7,13,-17,3,-4,-19,-1,37,48,-29,-72,-10,31,75,-15},{42,-17,-10,10,-4,-57,21,35,-18,46,71,-5,26,-6,-62,-18,-23,36,54,1,-116,-10,21,-30,-56,-20,-46,70,7,-43,-35,8,-21,30,63,36,72,-6,-70,-1,33,45,-22,8,-47,3,-69,-3,-24,-3,-34,-59,-32,8,19,-31,-30,-27,-76,6,14,-61,-25,-18,-20,47,9,-18,66,-56,0,-29,68,-47,-9,-37,-9,-77,-39,-7,16,-2,3,-128,-75,-51,16,-2,-48,-18,-31,-62,7,-128,-128,-34,57,-19,-13,58,-2,8,-69,13,78,-56,-3,-18,44,-33,-32,115,-60,-7,60,17,-89,43,-38,17,20,-5,-2,-66,-25,-6,-6,-38},{-58,-14,-28,47,-42,1,83,31,-11,23,-18,-23,16,83,-24,52,-9,-51,103,85,-33,-14,38,0,-18,48,-43,-64,30,25,-29,107,-36,-67,-43,125,-96,59,-27,0,4,-23,2,-4,-6,17,-42,-27,29,-74,-25,2,-4,34,13,24,-17,41,-21,51,25,-16,-1,-21,6,7,47,-11,42,-21,47,-22,-21,-35,-12,11,33,27,-41,-15,31,2,-9,-9,15,-34,32,-4,37,15,52,-26,43,-72,36,27,77,5,55,-8,29,37,-48,-1,-127,3,-42,74,6,62,-40,50,-9,63,19,23,-5,-19,22,-29,-4,-47,55,-52,1,8,-6,-24},{-60,-7,9,-15,43,8,1,-11,-13,7,24,28,-22,9,22,33,-19,-14,-80,-11,-14,-52,-41,-2,27,30,-29,37,24,-38,-39,-38,-23,-42,-19,5,-29,13,28,-21,-23,-1,11,13,-11,-14,21,-52,28,-34,62,27,-18,40,-51,49,34,-40,25,56,49,25,-21,-23,-35,-14,13,64,17,-16,57,15,-9,27,4,0,32,-63,17,22,-9,-4,-4,-8,-1,-3,-42,-64,37,-7,-70,2,36,68,0,30,-27,-13,-6,32,9,-5,25,6,64,-13,0,0,-99,-40,31,47,-71,-42,32,-57,7,-14,-61,21,12,13,-19,-12,19,-18,77,-1},{74,-6,43,-86,0,90,82,10,19,39,-28,42,-39,-21,-57,-19,31,-50,41,80,127,-13,-49,37,-11,34,28,39,16,42,42,-31,58,0,31,53,60,21,80,-19,34,39,-40,9,19,14,-23,-8,19,6,-22,3,16,26,-56,-57,-61,2,-10,33,-36,127,-19,50,-63,13,-47,46,-9,-43,-5,-62,41,-29,-61,16,66,-25,-25,51,12,-10,-57,-23,-2,9,31,14,54,-36,8,42,19,29,5,50,9,-22,-3,50,52,58,18,-39,28,51,-48,108,-79,-20,27,57,31,10,-3,-7,-48,88,-25,3,-34,-81,12,-28,20,38,27,36},{13,29,-2,-33,-14,-7,-14,28,18,5,6,25,-3,52,-52,28,2,42,2,41,-3,95,-10,35,13,-3,37,5,-1,35,35,-1,35,-10,72,45,80,2,-18,-55,-12,15,-50,20,37,-43,15,-25,21,83,-29,-38,20,12,-32,-34,-70,-48,26,15,-34,12,3,-24,-11,58,15,24,24,34,4,26,27,-49,-18,19,-114,24,20,29,-16,30,-1,10,31,-9,-6,8,-30,-34,-37,10,-85,-62,1,53,28,13,62,63,47,-35,-14,-12,-22,-17,-3,-77,33,25,0,60,-45,-4,20,29,3,8,-38,-16,-128,5,9,-3,13,-20,-22,30},{2,50,42,7,30,49,49,55,50,45,15,-1,-74,-30,-76,79,23,-74,55,33,34,-89,-66,37,20,-15,-72,40,47,78,-31,27,54,81,2,61,1,6,-19,-38,-3,39,17,7,28,32,40,9,-11,27,-6,-57,1,-13,-26,-21,-36,21,34,18,-44,-47,127,-29,0,-31,-39,-21,49,-30,24,30,14,-38,-41,1,-35,-28,-20,-80,-16,4,-5,-36,71,41,35,-62,26,15,-14,20,-12,-37,-92,-55,35,12,40,35,116,24,8,12,127,-5,-21,1,8,-13,-6,55,-42,-8,-13,-12,-22,36,16,-2,-60,-57,44,1,31,32,-3,-109},{42,3,34,25,-25,-28,-14,2,23,-22,29,-15,-1,28,10,-2,-8,-48,21,-19,-47,34,31,-10,5,49,-6,-77,31,37,-15,-16,-47,6,-9,21,-60,22,-42,29,-60,-74,24,-73,24,-7,-11,3,28,49,-8,50,45,-36,3,16,-55,-25,-20,-20,15,-17,20,-50,-13,25,26,8,47,62,-31,44,-81,1,48,21,-74,-42,-31,-12,-9,29,36,28,-8,-6,-21,26,45,-27,-61,-6,-67,10,-43,-25,10,-5,12,-61,-83,-54,-19,-31,-49,22,-14,49,46,-24,-7,11,-15,-8,2,10,4,13,25,-20,-44,28,32,84,-34,17,13,-11},{27,-49,18,-7,-1,-65,-54,-51,-26,-42,76,42,9,26,-5,45,-3,35,16,31,39,40,57,3,-78,47,21,127,-14,97,1,-32,80,-17,90,-17,101,55,27,-27,52,58,-17,111,30,20,30,-35,-12,53,10,-10,-13,-11,-36,-1,-2,32,-80,27,27,47,6,-8,8,23,-40,-12,5,15,37,-30,-27,-41,69,3,34,-25,-20,-22,-33,-8,0,5,-50,-37,25,-9,42,-14,-36,33,46,-39,42,86,-60,-39,-114,-62,-2,-32,-43,17,95,36,-6,7,26,-62,59,-9,46,-47,-28,-18,-4,35,12,93,33,33,-27,12,26,25,15,-2},{-30,-3,27,-3,13,12,-36,-60,50,38,30,6,-54,-35,-31,-30,30,-30,0,-29,87,3,43,-15,27,-85,-2,64,1,-30,-4,-19,-12,-26,-20,13,-80,12,-27,-1,22,63,-27,-128,21,-23,-41,-5,45,-12,-43,-50,-6,47,-62,45,-12,16,8,-7,-128,-87,79,5,-11,-28,4,20,-35,-58,-3,-48,-7,41,55,-22,21,-72,13,-8,2,-55,4,-70,42,-16,21,-17,-56,37,-79,-4,34,-17,30,29,-26,9,-42,-33,-23,34,31,-1,23,11,14,7,11,9,-22,36,15,-27,26,1,1,20,-37,48,70,-10,-61,-58,-16,-45,50,-25},{31,126,-25,10,-32,28,-3,-60,-1,-33,21,-63,13,20,33,-35,13,59,21,55,54,-15,-17,11,14,26,20,-9,33,65,41,-15,94,-20,-55,-2,60,5,-17,-27,-33,-49,-42,60,-9,-4,-9,44,81,-125,-68,66,-7,-13,67,25,-51,17,24,5,-24,-14,-34,-26,-13,2,-15,-104,-33,28,-17,-15,-7,6,-21,2,-13,-14,68,-25,39,-14,18,6,1,7,71,-107,-17,-17,71,-12,-15,-4,-6,-60,10,-37,50,-25,-3,-16,-3,-18,22,59,-7,-7,13,-8,-44,-17,-13,-6,-41,6,-14,-69,-15,-18,-4,-30,-7,4,-25,-33,-17,-27},{-71,50,-29,-43,51,3,-11,-7,43,40,5,-35,-13,9,-5,83,-14,-33,-20,17,40,-24,54,-4,45,-26,-25,-13,32,-66,6,8,52,-5,-60,-25,16,-19,75,-65,55,42,72,-24,40,21,66,12,31,72,7,33,13,-19,22,-23,27,-72,88,65,-29,-6,47,-87,21,-18,-36,1,19,20,1,41,27,-97,53,15,19,-18,-6,-26,2,38,14,-20,14,14,19,-92,44,33,-44,-11,11,-60,40,-82,-16,23,-24,12,-53,-51,2,26,78,48,-62,4,23,-33,-15,4,40,-3,-35,-25,25,-31,-19,-45,50,-28,-25,7,94,-73,62,-29},{21,-31,-29,-8,-18,-50,-61,-24,23,-8,-54,-42,-11,-32,-22,25,31,17,11,101,-21,-37,-15,-103,-4,-68,-28,30,33,-37,13,-17,-16,21,-9,-68,9,37,41,-24,-26,-50,-25,46,43,29,-43,-43,-22,59,-8,18,-34,-82,-1,-30,55,-15,-26,26,45,-60,-12,-13,18,-5,33,32,-18,37,61,-9,33,-8,40,-26,39,-27,-5,52,-15,-32,6,-41,20,-6,18,-6,58,-32,-49,11,-3,-32,42,30,-1,-3,95,17,-14,34,49,15,42,5,-8,0,-97,-61,-51,-16,-19,-12,-53,-29,-3,5,-31,-4,40,71,-3,13,30,-4,73,-19},{18,-83,46,-14,-33,-2,52,53,-7,4,-15,-54,-8,2,50,66,-9,-14,60,-60,-53,-17,-68,28,-19,43,9,8,22,-10,-77,11,17,17,22,17,58,21,-4,-34,81,-12,52,61,-4,-17,28,-61,-16,63,-66,-6,16,21,-128,-97,-10,4,32,15,-11,19,54,32,-37,5,-3,-3,-5,-6,2,-10,25,-72,-35,30,2,36,18,5,9,2,-44,-97,-8,29,56,-73,-18,-7,29,-12,-10,-85,-4,3,48,-10,44,21,-50,-57,-3,-24,-29,73,6,17,-69,-1,-20,-64,-80,39,20,-33,-12,51,-13,-20,-32,-115,70,43,53,-29,-42,-12},{-112,-27,29,5,1,79,36,80,25,59,19,-12,-14,4,-17,17,-66,-22,45,-74,13,-94,16,75,-91,12,-59,8,25,6,3,27,-3,-18,14,-41,-39,-16,-3,27,100,72,5,-64,40,-18,-19,-45,-18,-8,-28,3,28,36,8,34,-25,-10,-5,2,-16,-3,25,-1,12,5,-6,76,-21,19,0,4,7,11,-96,16,-4,26,-39,45,-47,1,18,37,-4,11,0,-34,11,8,16,-5,17,-33,-35,-45,27,14,48,-110,26,85,81,17,-128,-4,-58,83,-81,28,-59,-30,21,15,5,10,18,-27,16,-66,66,44,61,7,23,-85,45,-35},{-25,13,-10,3,36,46,41,36,66,-1,-87,-8,6,-12,0,48,-13,-41,18,-96,29,-8,31,-21,-51,-10,-15,-29,33,15,-43,-18,-38,-49,-60,-37,-24,-46,40,25,0,10,32,32,-12,15,-8,34,4,-24,-19,-5,7,10,-30,29,2,21,32,50,5,53,33,-21,-1,-14,8,-70,43,38,-72,2,-27,7,-36,-13,-29,-21,-31,11,8,22,31,59,27,-3,-2,10,5,24,-28,10,-48,58,83,44,-17,11,61,44,14,16,23,16,127,-11,-28,21,-27,-15,-50,9,4,21,-48,17,38,8,39,2,-60,-21,9,35,41,28,-50,-2},{-69,-6,19,-40,55,-33,-40,22,9,-23,3,-26,-20,-11,-22,8,-34,-46,40,-13,-2,9,81,-9,23,-39,-39,-13,6,21,17,-29,5,-55,-41,-9,19,20,15,42,-13,30,19,-19,-4,11,-24,12,36,28,-5,7,13,20,-35,29,30,6,-42,44,14,22,-22,-15,49,7,30,-24,-31,-27,13,-36,9,-26,27,-9,63,-33,-19,33,30,17,25,33,-21,8,-28,10,-13,-29,-19,-33,-12,6,105,48,-8,25,-30,-87,24,5,38,-9,-37,17,26,46,-19,4,20,-61,18,-33,34,15,13,-14,-4,-8,-59,48,17,-26,1,-81,9,-17},{55,40,-27,-17,26,32,0,6,-40,23,73,-17,-6,-40,-22,3,-11,15,73,-4,82,-19,-32,-58,-52,-31,22,87,2,46,3,38,72,49,2,-36,24,8,-21,1,26,82,4,23,27,33,13,-20,-39,42,29,-25,-38,39,-28,-13,12,-54,18,53,52,-41,13,7,31,2,3,8,8,-19,96,-9,67,-32,-103,-47,-52,-11,0,-23,6,-23,2,-9,-1,-2,15,18,-77,-42,30,13,17,-6,24,-13,2,-58,5,62,7,27,-49,-34,127,-3,12,-24,1,18,8,-15,9,0,40,-19,-3,10,1,19,-45,36,22,-7,7,0,-61,41},{2,15,-50,-5,27,-6,-42,32,14,-2,46,38,-48,15,25,43,-5,-1,-25,-12,9,-70,-25,27,26,-2,-11,0,33,-35,6,-27,37,-54,-20,-23,27,-9,-13,-62,121,35,31,-44,59,-18,27,-25,69,61,-33,25,-26,-31,-4,-60,-20,-31,37,15,47,-97,-3,-81,51,6,-52,18,41,-25,-12,29,43,-67,-17,-19,-33,-24,-17,-32,31,54,33,-15,4,30,57,-36,-23,-2,-105,2,-102,51,-20,11,-18,-2,35,-3,-13,-41,35,-7,-26,53,23,-39,-7,1,9,68,-16,5,-8,-18,20,-40,-50,15,-16,22,-15,-11,30,-19,-44,-35},{21,-49,-16,36,50,72,10,-38,37,3,-19,-31,12,41,30,-10,-20,-15,-16,32,75,-63,-62,42,-19,8,43,-3,16,13,-13,24,3,0,10,9,-67,-20,-16,8,25,-29,-10,-89,-1,1,69,25,25,-53,-20,-36,-7,9,35,4,33,19,42,-22,-9,48,20,-19,-32,-15,-36,112,7,9,-10,5,13,42,99,11,31,44,-36,-17,2,-60,-19,-47,-11,9,18,5,-43,-16,-102,-10,3,-18,-23,38,-2,-6,3,43,45,-29,28,22,91,12,50,-3,-24,27,-5,38,16,34,-27,-20,-29,-30,16,-13,57,20,1,-9,4,50,-19,5},{61,-6,30,-69,25,-21,-45,-21,9,13,-45,-19,-21,35,-43,-28,-6,-24,37,-22,-15,31,-20,-51,-16,18,-6,-99,-2,36,41,-1,22,-73,-96,38,109,-3,1,16,38,20,9,127,23,-56,-12,-15,-29,-4,-17,-29,8,-44,43,-4,-41,5,-18,1,-23,11,38,-11,13,8,53,36,46,19,-50,-41,-10,1,-28,9,-41,11,9,8,-41,-4,-14,-20,13,-17,-46,21,-80,2,-85,-18,29,7,-15,-44,30,-30,-4,77,21,53,-53,4,-4,-5,4,33,-39,-23,-11,41,-17,-3,25,30,-4,25,16,-41,-93,-29,15,-19,6,8,-29,41},{53,4,58,-14,49,13,-1,-69,-10,13,49,5,-10,-6,7,-3,-26,1,63,30,-7,-44,-17,-43,-46,-20,68,71,-37,20,-22,2,69,19,-31,50,71,-17,-48,2,41,-115,-27,-55,41,27,-44,29,7,-20,-46,24,-22,33,-11,47,-6,-44,2,22,9,28,22,31,31,-1,18,6,-6,12,-38,-59,-11,36,-7,-39,-45,-55,18,-6,17,5,-9,15,20,19,52,35,-32,-56,-32,-29,79,-12,-30,-49,24,-44,8,-61,114,47,-11,-59,98,-6,-3,-40,7,6,28,3,30,14,48,-17,-4,44,-71,-10,-80,53,5,-1,40,57,26,-10},{54,-16,-3,-15,30,12,22,34,56,44,-33,-52,11,-13,-53,62,1,24,33,56,-28,-11,48,15,-31,24,28,-21,2,28,16,43,31,69,32,43,-83,-30,28,51,37,-113,0,-13,-61,21,47,35,0,-78,-68,-18,13,23,6,20,-10,52,-20,67,-6,11,-53,7,16,-5,2,19,3,3,7,41,-4,29,-19,31,-47,-15,-12,-28,8,75,-23,41,-16,82,-8,7,1,10,22,-34,-16,-39,-6,51,43,33,53,-13,13,65,15,6,-10,-31,-20,8,-14,39,-16,-42,-49,2,-49,4,-8,0,-38,-26,-22,30,-22,-56,36,-52,-110,-42},{-8,6,38,-16,10,21,-14,-11,9,-33,47,-90,-25,27,23,33,-13,51,13,-21,35,-20,41,20,24,-10,-56,-4,7,-63,22,36,41,34,-37,21,21,-3,-47,-33,83,82,39,32,9,-4,17,-7,62,18,-28,16,52,39,-23,4,11,6,4,-33,-12,-106,41,13,-26,-35,-59,-89,91,1,47,43,55,-26,25,44,-37,-10,18,-33,38,21,25,2,61,27,78,-47,23,-38,6,-48,25,22,34,-15,-21,-20,14,-53,64,10,-36,6,-53,67,-9,-4,-23,57,42,-29,21,32,46,-19,-12,0,-7,-37,51,-47,-26,75,-14,27,-36,-30},{9,24,42,-15,-4,-51,-67,-41,24,-13,-99,-2,11,-22,31,2,-5,-80,-15,37,-37,21,-3,51,-54,-21,27,-30,-48,-74,13,14,15,17,-1,-9,14,-4,-3,48,44,27,7,15,5,12,-23,17,7,-6,-18,44,2,50,-18,9,67,27,-25,79,-1,-52,41,-33,-12,-2,-8,-48,2,15,-46,-22,34,-94,19,7,70,18,15,-68,16,6,25,23,-28,43,-8,-65,56,-46,26,-29,-1,47,-19,45,12,-17,5,29,44,-1,-22,-9,-79,14,4,-46,-31,-33,-81,27,11,22,9,2,17,65,-68,-15,-2,-23,-34,29,36,47,-19,45},{10,-38,-68,-28,-17,-32,-3,-33,-1,-33,26,-35,-18,14,122,-36,27,-21,-22,83,21,-40,-52,14,-56,-12,-41,-25,-5,26,10,-2,30,34,-48,15,86,-31,53,-21,11,-25,27,-110,-70,33,-54,-17,82,-2,-16,73,-29,-35,-20,-27,-6,13,49,-9,10,15,-24,-20,20,-67,-29,-42,69,-24,36,43,33,-29,-12,-7,-47,-7,16,-21,31,26,26,-2,69,44,52,-2,26,21,-93,-7,-46,28,-83,-3,-1,6,23,85,-33,20,32,-13,82,101,-8,-85,18,-16,41,6,-8,29,-25,-33,18,-18,20,-10,-1,-24,58,12,-25,26,-41,63},{-47,24,43,-19,51,25,-14,48,-14,71,-15,17,-17,-38,-39,-53,13,-77,61,-52,124,-24,-6,-2,-8,15,-12,26,-45,-58,41,48,50,-23,18,88,91,-6,-22,-27,30,-38,-41,1,39,9,-46,-62,53,69,9,-27,1,25,-51,-41,-2,-53,-44,-12,52,-25,-30,17,65,-7,-22,24,6,-5,49,-3,-14,-81,40,-54,-48,-87,33,44,46,1,27,61,-28,-22,36,19,-44,6,45,-5,41,-29,14,-4,44,24,11,32,8,69,83,-8,42,-9,18,-13,6,23,-10,3,-14,4,-11,-6,26,-7,-37,30,-51,59,46,17,-29,-79,3,-58},{-50,5,17,-7,46,36,-25,15,23,36,-21,-33,58,-17,-57,-9,-14,-44,32,94,1,1,33,-16,-53,-34,-4,-18,-30,-48,-11,29,-24,17,83,-19,-116,-54,-25,81,49,-48,43,-11,-95,33,-17,24,-69,9,6,-78,11,28,-61,1,13,64,-13,-9,28,-49,-57,-20,-5,-1,7,-22,18,-7,5,-6,-13,71,11,26,31,51,8,-53,-1,47,9,-54,-3,57,-1,-44,45,35,12,-70,9,-94,-27,25,29,-1,-19,7,-13,48,-21,-6,29,17,-26,55,-43,34,-25,0,-83,-11,-17,29,-14,-9,0,-22,53,2,9,-15,19,-14,-22,4},{17,17,3,20,8,48,20,-11,-10,-8,3,-42,11,8,10,-19,-5,-83,-20,4,-77,-82,-17,9,-40,17,4,0,-32,43,4,16,31,-9,16,19,40,25,-14,-6,25,-38,5,11,64,10,-18,-22,-46,-38,-84,47,-14,27,-8,4,-17,-31,-28,7,-27,12,-62,-53,49,-16,-5,28,18,17,-48,18,-47,28,-63,-49,-21,-41,-16,-13,14,18,3,17,25,-26,40,60,-42,-21,68,-32,-47,-2,9,-16,4,9,8,-26,44,-16,-17,-20,41,-23,29,19,34,-44,-100,-52,19,13,2,-50,-5,-18,21,-27,11,3,-58,64,-24,-34,-32,-3},{-69,27,-30,31,-17,117,5,123,-18,127,-9,-15,43,40,-23,13,-42,-30,92,-7,-63,8,121,43,-68,21,-37,-26,34,36,22,91,-47,-52,1,53,19,-25,-26,37,-34,23,-33,-69,-20,-3,-39,6,51,-21,34,-2,23,99,-23,52,5,-8,41,13,27,-22,-38,-22,-7,1,-5,64,21,35,61,-1,-65,32,38,4,1,-10,-20,-7,21,9,15,-26,-17,1,-2,-12,-28,-14,31,-58,-34,1,2,0,81,-9,9,-57,-5,33,-34,-9,-36,17,44,84,18,72,-12,-36,45,66,-9,16,8,0,-21,-58,73,3,123,27,8,-21,44,5},{-3,-20,51,19,-33,-14,23,21,64,5,-23,-5,7,-43,17,11,22,64,8,9,87,32,36,-61,-7,-21,-3,-46,44,0,20,-40,21,-12,55,-8,-4,37,17,-1,48,-56,41,10,25,18,48,-7,31,-10,40,67,-10,-10,5,36,17,-44,34,8,42,-10,-31,-34,17,11,8,13,-17,11,14,15,-6,9,-18,47,31,23,56,11,-34,18,8,-14,14,-8,-16,-40,-33,-8,29,21,-15,34,-45,-33,-38,-6,26,15,2,-54,-17,17,51,-5,3,24,-9,47,1,8,44,-4,-57,-9,-1,89,-55,-2,-82,93,57,8,9,-29,3,-36},{8,43,64,64,38,-27,-18,-13,48,2,-14,-6,23,22,-9,68,-3,55,-7,44,-62,28,-61,0,39,-6,7,60,73,-37,70,2,52,-1,58,47,74,-5,-54,-14,37,11,93,32,3,29,62,49,6,-23,16,-26,-27,-30,4,-25,17,80,12,6,-8,-21,-9,-66,15,-29,-11,20,66,17,-11,33,4,30,56,20,-4,28,23,68,0,-49,14,-27,55,13,-2,-4,69,37,15,-6,22,25,-30,-65,6,2,71,-30,-14,-10,-35,40,6,8,-12,-31,11,-1,-44,16,-15,8,-42,-8,10,-1,40,-24,-72,47,37,12,36,-28,15,-36},{33,-36,-28,-35,20,32,-31,-1,-2,36,32,43,-9,17,-41,29,44,24,2,-23,32,-85,37,3,-7,8,-55,21,-6,12,-2,-53,-13,-86,-49,-2,33,-27,-54,-21,8,-37,-4,22,48,34,22,-32,-35,22,6,17,-60,-90,74,-3,60,-46,-37,59,25,31,31,-31,31,20,4,83,-35,-38,54,-12,-3,-23,47,-14,65,9,-52,9,10,1,11,-60,-29,-31,-52,-44,-86,7,-99,51,-2,-14,2,-24,5,-35,27,-85,55,-1,-3,6,-26,3,43,62,-54,-29,26,9,-32,-28,-20,-114,-2,3,-49,21,5,55,-88,19,44,-52,-57,9},{-52,8,-33,27,-1,35,11,-52,-7,-2,61,-30,-48,-55,-40,18,35,-54,-59,-4,-29,-10,17,-12,73,-10,42,-70,28,86,-24,-46,30,-84,0,-83,-15,-39,38,-1,75,-79,16,52,-29,-22,16,-32,8,-30,-24,-44,36,-79,-41,1,39,-29,15,1,-44,6,5,40,19,58,-34,17,-13,26,-59,8,47,-38,6,-28,-30,5,29,-26,-30,2,23,-24,20,-13,36,38,16,-2,24,17,-8,17,-13,67,-92,-17,-3,6,-22,-43,-44,25,-99,13,7,41,9,-28,41,10,-35,-23,-18,34,32,15,-37,15,-58,-7,-76,16,20,49,36,-36},{-56,-45,-25,-10,0,-10,-7,53,11,18,-81,-9,36,40,32,-25,-7,-19,17,32,-52,-1,70,51,-114,-29,-45,-54,20,-99,8,-12,26,-15,32,33,27,-10,14,21,3,-3,-16,-41,-3,-5,-7,2,38,23,-5,-28,-57,37,28,8,-59,17,17,19,-37,-22,-52,-26,14,10,52,34,33,26,20,-39,-70,-31,26,35,-14,11,21,51,15,25,22,-3,3,20,-16,36,27,13,-28,-1,-72,6,11,88,14,-30,11,-7,66,-1,57,35,42,-6,-28,87,-2,-31,-50,34,-42,7,-48,58,-4,-2,-17,30,16,-6,0,-39,11,-8,73,41},{43,33,20,-37,37,-51,-20,-22,2,-6,19,-40,-10,-32,-30,20,-9,-58,4,-5,47,-63,-43,-24,22,-15,-61,-56,47,75,-26,-58,35,-56,35,-20,-16,14,42,0,42,-15,-29,9,-63,37,0,46,-60,-4,-30,-46,5,51,45,26,26,29,-3,20,-13,53,-35,-41,46,-12,-13,-24,-62,11,1,-45,-17,42,-43,26,80,13,-62,30,-9,39,10,-4,-23,-6,-28,65,-16,45,-35,16,-45,41,-24,-54,-30,6,-11,67,54,43,2,4,-29,-79,19,41,8,-18,-26,43,12,-14,29,-14,4,43,1,-46,78,-3,-6,-63,19,20,-14,5},{-40,16,21,34,13,-4,29,12,2,-36,-42,27,21,2,14,36,-4,21,22,28,79,58,-16,-23,96,-12,62,-14,-18,-79,68,7,-15,-31,-5,61,-36,-18,-55,18,13,12,58,45,-21,8,14,53,4,21,17,-19,31,42,29,-18,19,72,57,22,-14,-71,19,26,-49,-14,-13,36,44,-1,21,45,-34,49,56,18,-3,1,90,32,19,-36,6,-30,50,11,-11,-6,50,-19,18,-44,14,-16,5,-15,46,5,27,53,35,-21,-43,2,-80,7,